// Neural Network File Format by Kyle Julian, Stanford 2016
7,5,5,50,
5,50,50,50,50,50,50,5,
0,
0.0,-3.141593,-3.141593,100.0,0.0,
60760.0,3.141593,3.141593,1200.0,1200.0,
19791.091,0.0,0.0,650.0,600.0,7.5188840201005975,
60261.0,6.28318530718,6.28318530718,1100.0,1200.0,373.94992,
1.10659e-01,7.44748e-01,-8.07900e-01,-1.25783e-01,-1.37352e+00,
7.92843e-02,5.61862e-01,3.70783e-01,-2.87795e-01,2.02972e-01,
-1.69907e+00,-5.08394e-03,3.51224e-02,8.96097e-04,1.40027e-02,
2.04106e-01,1.50065e+00,-1.54853e+00,8.56718e-02,-2.49018e-02,
-6.14514e-02,1.23847e+00,8.14009e-02,5.36231e-02,1.55184e-02,
1.08626e-02,-1.05155e-01,1.18159e-01,-5.89440e-01,6.43978e-01,
-2.94952e-01,-4.13573e-01,-1.15866e-01,2.80422e-01,-6.22508e-02,
9.95756e-03,2.26515e-02,-5.70009e-02,-8.32608e-01,-9.08827e-01,
1.81483e-02,6.83105e-03,-2.73065e-05,3.84586e-03,3.86609e-03,
-4.98208e-01,3.69872e-01,8.30589e-02,6.93123e-02,1.13764e-02,
5.55194e-02,5.13142e-01,9.11956e-02,-1.86277e-01,-7.14102e-02,
6.02833e-02,-5.85779e-02,1.26370e+00,7.12638e-02,-1.01356e-01,
-3.28432e-02,1.49344e-03,1.45014e-02,-5.49224e-01,-1.35250e+00,
-3.49174e-04,-2.94127e-02,1.14191e-01,-1.45107e+00,7.79741e-01,
-8.54809e-01,-5.50326e-02,6.34497e-02,5.64769e-03,-1.21203e-02,
1.25912e-02,1.17257e-01,6.34850e-01,-7.08416e-01,1.11831e-01,
2.82097e-02,5.58135e-02,-5.30320e-01,4.75615e-01,-8.24914e-01,
-6.18158e-01,1.09768e-01,-9.53151e-02,-3.79903e-01,1.59592e-01,
-1.22995e+00,1.16110e-01,-6.50422e-02,-3.06661e-01,-5.67729e-01,
-1.41490e+00,-2.16267e-04,3.44747e-02,6.80793e-03,-6.81592e-03,
-6.33115e-03,2.47718e-03,-2.54725e-03,3.28490e-03,5.98974e-03,
6.87802e-03,1.16722e+00,1.72196e-02,1.78806e-01,-1.23513e-01,
-4.83626e-02,-3.23884e-02,1.20426e-01,5.67333e-02,-2.05837e+00,
-1.33071e+00,7.80306e-02,-8.31002e-02,3.28269e-01,-4.01685e-01,
-7.46500e-01,2.92342e-01,-4.00530e-01,1.13300e-01,-5.71277e-02,
-1.25790e+00,3.93133e-03,3.10776e-02,9.81681e-03,-4.09356e-01,
-5.14565e-03,-4.70103e-02,1.87757e-02,-7.29978e-01,-1.24442e-01,
2.73799e-02,-1.27259e+00,9.27761e-01,-1.58205e-02,3.77678e-02,
4.42821e-02,1.99736e+00,6.10641e-03,4.95472e-02,-7.07338e-02,
-1.39255e+00,4.42176e-03,-2.27101e-02,-2.09735e-01,-5.76657e-02,
3.10469e-01,8.95612e-01,-7.82170e-01,-3.25384e-02,1.34407e-01,
-4.12776e-01,1.58717e-04,6.07176e-01,-1.06738e-02,-1.50667e-03,
5.15097e-02,9.34923e-01,4.06081e-02,-3.58674e-01,6.85461e-03,
-1.40248e+00,4.81713e-02,6.97491e-03,-1.89113e-01,-3.17838e-01,
4.70747e-02,-6.23246e-02,-1.08684e+00,-9.95480e-01,2.46971e-01,
1.14741e-02,9.53680e-03,1.38444e-03,1.74235e-03,-3.69253e-04,
-1.68119e+00,1.45298e-02,-3.82925e-03,5.88344e-03,1.04196e-02,
3.62109e-03,2.02100e-01,-1.85676e-01,-2.09736e+00,4.10085e-01,
5.51771e-02,-9.62964e-01,-1.00344e+00,3.47582e-02,-7.42159e-02,
-8.33377e-01,3.56236e-02,-5.22615e-03,-9.12639e-01,-5.16758e-01,
-4.78257e-03,-7.49921e-02,1.19219e-01,-5.20131e-02,-1.12139e+00,
-4.51305e-02,6.37153e-01,-4.36542e-01,4.80178e-02,-1.45633e-01,
3.56665e-01,-1.05644e+00,9.59873e-01,-5.97281e-02,-4.40623e-02,
2.06407e-01,5.21335e-02,-3.77712e-02,-7.58010e-01,-1.01735e+00,
-3.44165e-01,2.75837e-02,2.34618e-02,-1.71181e-01,-9.87110e-02,
-1.77688e-01,3.04327e-01,-6.83277e-01,-4.61401e-02,4.32562e-01,
-7.40339e-03,9.46204e-02,-1.88643e+00,-7.91531e-03,2.32607e-02,
4.68445e-03,3.33000e-01,-3.46374e-01,-1.15146e+00,-8.95894e-01,
-1.31305e+00,-3.48709e-02,5.22765e-02,-1.00604e-03,3.40698e-03,
3.13451e-03,4.13186e-02,-4.69767e-02,-1.42254e+00,6.24945e-01,
-5.36146e-01,
8.20640e-02,
-4.03913e-01,
-4.06131e-01,
3.78878e-01,
1.16588e-01,
-7.65262e-03,
-4.26889e-01,
-2.42906e-02,
3.63385e-03,
1.61027e-01,
1.51267e-01,
-8.30332e-01,
-2.56249e-01,
-4.47242e-02,
-1.83976e-01,
4.59395e-02,
-1.07477e-01,
-5.33231e-01,
-2.84202e-01,
-1.28324e-02,
1.38531e-01,
-7.32611e-01,
-3.83142e-01,
-1.23233e-01,
-2.05044e-01,
2.23404e-01,
-4.28219e-01,
6.88429e-02,
-3.24427e-01,
5.43004e-01,
-1.09234e-01,
-4.41459e-01,
-4.73670e-01,
-5.83024e-01,
-2.37889e-02,
-5.08450e-01,
-7.99240e-01,
6.25647e-02,
-8.22489e-01,
2.42634e-01,
1.33546e-01,
6.16385e-01,
-5.81162e-01,
9.20028e-02,
-2.65163e-02,
8.04436e-03,
-2.42697e-01,
-1.99144e-01,
-2.71852e-03,
8.01678e-01,2.07752e-03,-2.32767e-01,4.18225e-01,-3.33640e-02,1.60522e+00,-1.18869e-01,3.97166e-01,-2.67378e-02,-6.32752e-01,-2.81821e-01,5.98097e-01,5.32842e-01,-9.93878e-01,-6.52706e-02,-4.12098e-01,1.82366e+00,-2.86231e-02,5.10172e-02,-5.65611e-01,-4.55688e-02,5.17951e-01,-5.17255e-01,2.27242e-01,-5.19853e-02,5.59297e-01,-1.08915e+00,3.65255e-01,-2.18322e-01,4.92299e-01,-2.83056e-01,3.08361e-01,-8.29117e-02,-2.16595e-01,-5.41767e-01,-5.35355e-02,6.19875e-01,-8.69013e-01,6.48900e-02,-8.30472e-01,6.80126e-01,-2.96596e-01,-3.33486e-01,-3.92075e-01,-5.14834e-01,8.97849e-01,-2.43345e-01,1.21081e+00,-1.22892e-01,2.05622e-01,
1.53051e-02,-8.72320e-03,-1.95545e-02,2.49680e-02,-4.16545e-02,9.55553e-03,-4.51012e-02,1.58617e-02,-1.21864e-02,-3.96621e-02,-5.41179e-03,-2.28453e-02,1.68841e-02,-5.10512e-02,-5.47876e-02,-3.06243e-02,-2.33317e-02,4.52698e-02,-3.22176e-02,-3.11515e-02,-3.40961e-02,-3.14707e-02,1.54133e-02,2.45915e-02,-2.98644e-02,1.47213e-03,-4.05500e-02,-3.19259e-02,-4.40687e-02,-4.93740e-02,6.05527e-04,-1.24649e-02,-4.44829e-02,-2.20533e-02,-5.75354e-02,-9.24757e-03,-1.70681e-02,3.31675e-02,-2.97347e-02,-2.80493e-03,4.89663e-03,1.30011e-02,-4.24471e-02,-1.00395e-02,2.28642e-02,2.93332e-02,2.95715e-02,-2.17373e-02,-5.61771e-03,-9.24912e-03,
9.35593e-01,1.83402e-01,-1.19689e-01,1.24227e-01,-8.44535e-01,-2.09323e+00,4.59859e-02,-6.56990e-01,-4.05359e-02,1.75336e-01,-5.18361e-01,-1.91294e-01,1.35481e+00,-3.98042e-01,3.99149e-01,-1.87424e-01,-2.95930e-01,3.86694e-01,5.39103e-01,-1.99659e-01,1.21084e-02,-7.24250e-01,-6.05596e-01,-1.67491e-01,8.10718e-01,2.31039e-01,2.62354e-01,-1.41718e+00,-3.15791e-01,4.33365e-02,-4.58765e-01,-9.49574e-01,9.53526e-02,4.77935e-01,1.98222e-01,-6.87302e-03,-2.15865e+00,-1.37692e+00,1.23568e-01,1.58983e+00,7.25945e-02,-4.95662e-01,6.50199e-01,-4.47271e-01,4.57296e-01,4.65576e-01,-2.56969e-01,2.20716e-01,-1.73704e-01,-5.62320e-01,
5.12254e-02,-5.02102e-02,2.71491e-01,-2.11869e-01,1.88512e-01,-6.26434e-03,1.81556e-01,3.88631e-01,3.37605e-03,-3.87699e-02,1.31031e-01,-3.54943e-02,7.86060e-01,-1.83703e-01,2.74819e-01,2.14083e-02,-9.86734e-02,3.07059e-01,9.17472e-01,2.55568e-01,-2.63056e-02,-1.59125e-01,8.75555e-02,-1.52355e-01,1.88416e-01,3.69585e-01,4.82536e-01,-8.52528e-01,1.60963e-01,5.49335e-01,-4.01924e-01,-7.91363e-02,-8.15190e-01,9.10092e-01,3.09629e-01,3.37426e-02,-2.23215e+00,2.70229e-01,1.05196e-01,2.12586e+00,3.98829e-01,2.38304e-02,-3.49905e-01,-3.76270e-01,4.77020e-01,4.02992e-01,-6.38639e-01,2.79691e-01,2.83789e-01,1.21884e-01,
1.21440e-01,6.52053e-02,1.88102e+00,-1.91604e-01,2.30019e-01,1.78951e-02,2.05464e-01,-2.93299e-01,-1.45507e-02,4.21887e-01,-2.98544e-01,-2.93972e-01,-1.76985e+00,-7.77588e-02,9.76162e-02,1.56581e-02,2.38858e-02,1.40566e-01,7.31609e-01,7.73565e-01,4.08089e-03,-1.31186e-01,1.63133e-01,4.01626e-02,-3.12645e-01,-5.68673e-02,-3.67066e-02,3.68574e-01,-6.88698e-02,-3.08383e-01,4.13262e-02,-1.82602e-02,-7.65292e-01,2.28542e-01,-1.07057e-01,8.02003e-03,4.83235e+00,1.80115e-01,-2.01804e-01,-1.61437e+00,1.03134e-01,2.53092e-01,3.76159e-02,-7.03224e-01,2.48445e-01,2.21775e-01,1.85300e-01,-4.47579e-02,8.64323e-01,3.00604e-02,
9.51211e-02,-2.48690e-01,3.54980e-02,-3.62066e-01,-1.86853e-01,9.70451e-01,1.77153e-01,-4.79719e-02,-2.11368e-02,-1.97173e-01,-4.39209e-01,-6.57692e-01,-6.02244e-02,-1.37049e+01,1.65116e-01,-3.84664e-02,5.04337e-01,3.36946e-02,-2.57144e-02,-1.86634e-02,4.36194e-02,1.25038e-01,-5.74023e-02,-8.41087e-01,-2.86552e-01,1.03521e+00,-7.15329e+00,3.88384e-01,3.41973e-03,-4.97467e-01,3.42346e-01,-1.31653e-01,-3.44518e-01,1.30541e-02,-3.64353e-01,-4.57866e-02,-3.65682e-02,7.71779e-03,-1.20014e-01,1.40851e-02,-1.22279e+01,2.65326e-01,-4.59808e-01,-1.51440e-02,4.97269e-01,-4.33292e-01,-9.15671e-02,-6.26486e-03,6.29353e-02,1.56756e+00,
-3.81654e-01,-3.90175e-01,-6.77513e-02,-3.95456e-01,-1.19757e-01,-9.58036e-02,-5.15655e-02,5.82833e-01,-3.53800e-02,-1.13217e-02,4.90601e-01,1.68353e-01,7.55557e-01,-1.95034e+00,-1.29948e-01,-6.66804e-02,2.81248e-01,3.44911e-01,-1.02578e-02,1.83058e-01,-2.74110e-02,1.07834e-02,-8.66819e-01,4.40793e-01,-1.74066e-01,2.05064e-02,-1.15714e+00,3.74150e-02,2.43020e-02,-4.72352e-01,-3.67833e-02,-2.19231e-01,-1.12352e-01,-2.54870e-01,6.23422e-01,1.64434e-02,5.12354e-01,-1.15882e+00,-1.72351e-02,4.50559e-01,9.85032e-01,-4.98609e-01,-1.40362e-01,-1.55669e-01,4.22636e-01,1.11695e-01,-5.40607e-01,4.54162e-01,-2.54437e-02,-3.45166e-01,
2.49306e-01,-1.39901e-02,-2.08908e-01,-1.57624e-02,1.46817e+00,-1.28263e-01,1.36784e-01,1.55601e-01,5.33125e-02,2.68881e-01,-2.33978e-02,1.73634e-01,-3.27249e-01,-6.75763e-01,-1.01213e-02,-4.43397e-01,-2.47443e-01,-1.58311e-01,-8.33198e-02,-1.96923e-01,-3.98095e-02,5.70160e-01,4.48330e-01,-4.88374e-01,-2.32217e-01,-3.09450e-02,-5.17490e-02,4.16003e-01,1.27296e+00,-1.22173e-01,2.31052e-01,-1.34761e-01,-9.10764e-01,1.72892e-01,6.35718e-01,1.76791e-03,-5.31974e-01,1.11587e-01,-2.90115e-02,-1.27493e-01,1.14426e-01,-2.76999e-01,-2.34659e-01,3.65969e-01,8.91594e-02,-1.06710e-01,-2.58720e-01,-2.45739e-01,2.25088e-01,6.13721e-01,
6.94591e-01,9.12081e-03,8.75778e-01,5.47085e-01,4.91929e-02,6.15627e-01,1.78246e-01,2.60822e-01,1.42134e-03,5.95816e-01,-5.50415e-02,-2.31885e-01,1.50576e+00,4.44935e-03,1.20103e-01,-6.11120e-01,6.14285e-01,-8.23311e-02,-2.65894e-01,3.10200e-01,-3.62248e-02,-4.99374e-01,1.03142e+00,-7.13150e-01,-4.12626e-01,-1.36388e-01,-1.50171e-01,-3.39384e-01,-1.95538e-03,-3.81072e-01,-1.45000e+00,6.07175e-01,1.17013e+00,6.67765e-01,-1.59408e-01,4.55043e-02,-6.88203e-01,-1.26387e-01,-1.93554e-01,3.79309e-01,1.61504e-01,-3.06174e-01,5.56743e-01,2.33507e-01,3.03929e-01,-8.84102e-02,-6.50232e-02,-9.38784e-02,4.26613e-01,-1.49584e-01,
-3.70488e-01,-4.78735e-01,-1.78747e-02,2.49784e-01,-3.58230e-01,1.18505e+00,2.36995e-02,-6.61294e-01,3.03251e-02,3.03114e-01,1.95792e-01,-9.36705e-02,3.03652e+00,-6.00565e-02,-1.66889e-01,3.08042e-01,-3.17344e-01,-1.06974e-01,-2.00788e-02,1.87155e-01,2.69629e-02,-2.39818e-01,-5.45073e-01,-7.32204e-01,2.88472e-02,5.97147e-01,-6.74345e-01,-1.01357e+00,-3.32157e-01,-2.99598e-01,3.36041e-02,1.70229e-01,-4.93313e-01,2.34749e-01,4.37922e-01,1.15163e-02,-7.13982e-02,-1.07857e+01,-3.91194e-01,-3.55079e+00,1.06782e-01,5.67710e-01,2.13653e-01,1.60085e-01,2.87415e-01,7.81323e-01,-1.17051e+00,2.70926e-01,-1.21760e-01,-4.85803e-01,
-2.44200e-01,-5.88344e-01,7.57460e-01,-7.59090e-01,2.88733e-01,-7.11374e-01,-2.08859e-01,-7.71829e-01,-3.16265e-02,5.01765e-01,1.99677e-01,-2.15102e+00,1.39314e+00,-6.39525e-01,4.87945e-02,-4.05300e-01,-6.69435e-01,4.17537e-01,1.80169e+00,3.03182e-01,-2.43891e-03,8.06708e-01,-2.85289e+00,2.25447e-01,-2.44408e-02,7.77988e-02,-2.11689e-01,1.11396e+00,-2.41868e-01,-8.12382e-01,1.14497e-01,-2.18676e+00,5.33153e-01,-4.88054e-02,2.04290e-01,-7.08012e-03,1.08197e+00,2.38415e-01,-2.15133e-01,-6.88632e-02,4.19767e-01,-9.97672e-01,1.09376e-01,7.48944e-01,-1.33007e-01,-6.20889e-02,-4.18429e-01,-1.33083e-01,-2.13225e-02,2.46206e-01,
-8.74321e-02,-2.81229e-02,2.08994e+00,8.00426e-02,8.08705e-02,-3.72655e-03,3.98174e-02,3.12280e-01,-9.88285e-03,1.62218e-01,-2.47906e-01,-2.07317e-02,7.37272e-01,2.67710e-03,2.37431e-01,-1.96756e-01,-1.64112e-02,2.34694e-01,4.24640e-01,1.30791e+00,-2.65849e-02,-4.48632e-03,-3.45639e-02,1.69646e-01,2.63117e-01,-1.84027e-01,-7.45621e-02,9.66459e-02,-3.92521e-02,2.19981e-01,-4.24164e-01,2.78971e-01,5.86125e-01,-7.01845e-02,-7.32041e-02,2.36286e-02,5.02533e+00,2.43857e-02,-1.31910e-01,-6.95105e-01,6.99422e-03,-8.94846e-02,-2.36537e-01,3.93060e-01,-1.97179e-01,-3.64594e-02,3.26592e-01,-8.23899e-02,6.69201e-01,5.22895e-02,
4.46444e-02,2.84804e-03,1.80251e+00,8.79661e-02,7.05893e-02,-1.15378e-01,-8.00573e-02,1.32439e+00,3.56673e-02,-1.48100e-01,-2.31516e-01,-1.90100e-01,-1.03319e+00,4.85825e-02,-5.82862e-02,1.11006e-01,8.76565e-02,-1.66681e-01,-2.31795e-01,1.37189e+00,-2.93826e-02,9.32903e-02,7.49295e-02,-3.68800e-01,2.07724e-01,2.52130e-01,-2.13304e-01,8.67470e-02,-3.00684e-03,1.43991e+00,-1.70463e-01,3.30329e-01,-9.74226e-02,6.86273e-02,2.11598e-02,2.23561e-02,4.78450e+00,-1.91402e-02,5.26000e-02,2.81226e+00,-6.06675e-02,-1.47150e-02,-3.69337e-02,2.60236e-01,3.98761e-01,4.32746e-02,-4.18381e-02,2.16380e-02,4.07115e-01,-1.99695e-02,
-7.22032e-02,-4.73649e-01,8.45302e-02,3.44452e-01,-1.27841e-01,-1.41028e+00,-3.56567e-01,-7.84464e-01,-3.63911e-02,6.46834e-02,7.98549e-01,1.94093e-02,-7.83086e-01,-3.17082e+00,-1.92570e-02,-1.36810e-03,2.56932e-01,-2.03644e-01,-6.18858e-01,-3.19114e-02,1.56382e-02,2.15911e-03,-2.83537e+00,-2.24850e-02,1.28088e-01,8.18582e-02,1.28431e-01,-5.98979e-02,9.22790e-02,2.69002e-02,-1.20624e-01,-2.88612e-03,-4.23547e-01,9.39046e-02,7.53819e-01,-1.44276e-02,-1.15212e-01,-4.14904e-01,2.78890e-02,-1.02701e+00,-1.12679e+00,-1.07740e+00,3.05485e-01,5.11863e-01,5.17530e-01,1.46860e-01,-3.72695e-01,3.98917e-01,-5.62392e-02,2.97872e+00,
-2.94144e-02,1.26149e+00,-7.31215e-01,-4.05345e-01,-2.63052e+00,5.95720e-01,5.87994e-01,2.43882e-01,-2.85461e-02,-1.16162e+00,2.16583e-01,-3.83167e-01,2.33818e+00,-3.36802e-03,2.28198e-01,-4.18852e-01,6.66255e-01,-2.07002e-01,-6.71277e-01,-2.08325e-01,3.95188e-02,-9.64185e-01,4.46111e-01,-1.14697e+00,1.14604e-01,-1.98406e-01,-1.72910e+00,-5.14104e-01,-1.28994e+00,1.97337e-01,2.24905e-02,1.55661e-01,4.76566e-03,4.92513e-01,8.04734e-01,4.02595e-03,-2.78777e+00,-2.05142e+00,9.36223e-01,1.14731e-01,8.52976e-01,-2.60364e-01,5.60443e-01,6.54726e-01,-1.91048e-01,5.10785e-01,-4.95835e-01,5.14843e-01,-7.84934e-01,-3.13760e-01,
2.15929e-02,-4.35142e-03,-1.31030e-02,-4.79802e-02,-2.65084e-02,-4.66280e-02,1.59136e-02,3.90335e-02,2.72995e-02,6.75360e-03,-3.82973e-02,-1.82880e-03,-1.48635e-02,-3.59097e-02,2.31610e-02,-4.36615e-02,9.62065e-03,2.27056e-02,-3.14451e-02,9.75057e-03,-2.08316e-02,3.29092e-02,-3.52704e-02,-4.97880e-02,7.13288e-03,1.90508e-02,2.30710e-02,-1.02163e-02,-1.45878e-02,-3.71897e-02,-3.72649e-02,-3.79288e-02,1.16721e-03,-1.74484e-02,-4.77388e-02,1.49534e-02,-3.16089e-02,4.30447e-02,2.52672e-02,1.19326e-02,-1.34035e-02,-1.44030e-03,-5.06128e-04,-4.48703e-02,-4.18289e-02,-4.66967e-02,-1.77381e-02,-3.14933e-02,-1.61355e-02,-1.13201e-02,
-2.09265e-01,-3.49441e-01,-1.88529e-01,-1.41686e-01,3.47955e-01,-1.23666e-01,5.54537e-01,1.06741e-01,3.57218e-02,8.54824e-01,-7.67219e-01,3.03130e-01,-8.67470e-01,-4.45358e-02,4.54443e-01,-8.18064e-02,-1.72311e-01,-6.29616e-03,2.91308e-01,4.79517e-01,4.94784e-03,-1.55353e-02,-1.11789e+00,-2.28740e-01,4.41766e-01,-1.23463e+00,1.69148e-01,-1.22372e+00,2.27213e-01,-8.19374e-01,-5.06837e-01,1.36362e+00,-2.18234e-01,1.37344e-01,-2.09351e-01,-4.33185e-02,-1.10142e+00,7.88716e-01,-9.71199e-02,2.40208e-01,-1.71209e-01,-4.50848e-01,-3.41228e-01,-6.94663e-01,-1.63796e-01,-1.00657e-01,4.15850e-01,-5.50066e-02,4.69226e-01,3.46099e-01,
-1.01240e-01,-2.38501e-01,1.86963e+00,-2.11271e-02,-1.08505e-01,-1.45040e-01,3.99205e-01,3.28054e-01,-3.27999e-02,4.57721e-01,-4.27462e-01,7.00009e-02,1.28249e+00,4.65089e-02,-2.55487e-01,-4.17410e-02,3.28236e-01,-3.07165e-02,5.18229e-01,1.01791e+00,2.26622e-02,-2.31411e-01,-7.71807e-02,7.39622e-01,2.12923e-01,8.05475e-03,2.18032e-01,1.84249e-02,2.15145e-01,6.16321e-01,4.95412e-03,3.92947e-01,-3.23096e-01,8.04731e-01,-3.72082e-02,-5.06529e-02,6.86937e+00,-2.94167e-02,8.14662e-03,1.15724e+00,-2.15404e-01,4.88414e-03,-4.26313e-02,1.56381e-01,-6.19168e-01,1.20658e-02,-1.82185e-01,-1.15880e-01,2.13038e-01,1.56515e-01,
6.26544e-02,9.02831e-02,1.17788e+00,1.68285e-02,2.71847e-01,-4.63107e-01,1.76385e-03,4.52910e-01,5.67819e-02,-4.42665e-01,-2.97073e-01,1.99447e-01,3.66579e+00,-3.23540e-01,1.13492e-01,-1.91983e-01,-1.40011e+00,4.16318e-01,-5.15732e-01,6.10204e-01,-1.05917e-02,1.80074e-02,-5.45973e+00,1.68075e+00,1.08393e+00,-1.15594e+00,1.15874e-01,-3.48558e+00,4.58024e-01,8.15948e-01,2.87334e-01,-8.63385e+00,-5.58468e-01,4.77529e-01,7.82339e-01,1.96664e-02,2.95897e-01,-9.69252e-01,-2.46495e-01,6.58014e-01,2.98851e-01,-1.29694e-01,-7.20971e-02,4.63418e-01,-9.09267e-02,3.02745e-02,-1.06316e+00,-1.85432e-01,4.21009e-01,6.42896e-01,
1.64896e-02,-3.94745e-01,2.49116e-01,2.10009e-01,-4.12140e-01,-1.46158e-01,8.26114e-02,2.12471e+00,-1.86749e-02,-6.06568e-01,-1.96717e+00,1.54745e-01,2.39601e-01,-6.00956e-01,8.35600e-02,1.99778e+00,6.44679e-01,1.17843e+00,4.71497e-01,3.80138e-02,3.24136e-02,1.60141e+00,7.41321e-01,5.33600e-01,3.65431e-01,-4.79522e-01,-5.13822e-01,-8.20699e-02,-1.59516e-01,-9.23550e-02,-2.23873e-01,1.05216e+00,-6.72711e+00,-1.21641e-01,3.95610e-01,4.55390e-02,-6.97849e-01,4.39243e-01,-2.66016e-01,-3.45728e-01,-1.94634e-01,2.09405e-01,-5.96197e-02,-1.66122e+00,-5.67399e-01,-3.82649e-01,-2.16219e-01,3.83077e-01,-5.31619e-02,-5.32394e-01,
-1.73962e-01,5.39711e-01,2.09873e+00,5.35322e-01,-1.80648e-01,-3.50584e-01,9.65342e-01,3.00000e-01,2.52981e-02,9.27686e-02,4.86319e-01,4.90911e-01,-2.31897e+00,-5.32261e-02,-1.00639e-01,-4.05920e-01,-6.24553e-01,1.21168e-01,-1.36381e-02,1.28510e+00,-8.83854e-03,-2.69893e-01,-4.88113e-01,9.87518e-01,8.74746e-02,-4.54260e-01,1.12766e+00,4.37881e-02,1.88066e-01,1.08988e-01,2.42779e-01,-7.15331e-03,-2.51152e-01,5.30101e-01,1.53269e+00,-3.19256e-02,2.69716e+00,6.10458e-01,4.44811e-02,-1.58887e+00,-1.39023e-01,4.39406e-01,-1.04590e+00,5.11508e-01,-1.66977e-01,5.86939e-01,-1.22405e+00,6.55596e-03,7.57729e-02,-2.20079e-01,
-8.47135e-02,4.03269e-01,-4.60222e-01,-2.63589e-03,2.82589e-01,-1.57792e-01,1.05553e+00,1.13841e-01,4.24290e-02,-3.25548e-01,5.34125e-01,3.63132e-01,8.88935e-01,-4.41264e-01,-1.70247e-01,-1.22851e-01,5.72306e-01,6.82678e-01,-9.58546e-01,-1.59804e-01,-3.40371e-02,3.57055e-01,1.21269e+00,1.62475e-01,5.05729e-01,8.76488e-02,7.97368e-01,2.44950e-01,-5.84455e-01,3.38285e-01,1.32420e-02,-8.09008e-02,7.91469e-01,-1.40011e-01,2.52193e-01,-8.67462e-03,1.25836e+00,-1.83735e+00,7.30740e-02,3.15163e-01,-1.61928e+00,3.22494e-01,3.25053e-01,-9.54672e-01,-7.04488e-01,-5.01657e-01,-1.44675e-01,6.68506e-01,-2.11101e-01,2.32111e-01,
1.23408e+00,1.24121e-01,2.82047e-01,4.44371e-01,-9.85618e-01,4.55837e-01,9.48460e-01,8.18336e-01,-3.87510e-02,-2.83587e-02,-5.36134e-01,4.53930e-01,-1.66974e+00,4.48147e-01,3.34043e-01,3.68588e-01,-4.20551e-01,4.51626e-01,6.31188e-01,4.65326e-01,-9.47084e-03,-6.47831e-01,-8.77073e-01,5.46621e-01,2.04516e+00,-3.39191e-01,3.41731e-01,2.19720e+00,4.44821e-01,1.69741e-01,-2.27740e+00,-2.86758e-01,3.16547e-01,4.05023e-01,1.74372e-01,-3.56380e-02,-3.43427e-01,2.13377e-01,-4.38374e-01,2.72961e-01,-4.67343e-01,1.87580e+00,1.30836e+00,-1.17228e+00,5.46379e-02,-1.26097e-01,-6.83386e-01,-1.38811e-01,6.24009e-01,-4.07249e-01,
-4.91838e-01,1.41885e-01,1.85152e-01,3.02561e-01,3.21582e-01,-1.26112e-03,8.66213e-01,6.48162e-01,-3.67527e-02,5.76990e-01,2.04368e-01,-3.49969e-01,-1.18057e+00,-8.20831e-01,1.04193e-02,-6.87868e-01,1.17310e-02,1.21399e-01,-1.58645e-02,4.46697e-01,1.07416e-02,8.65555e-02,-2.63665e+00,-1.45075e+00,7.13146e-01,3.90310e-02,-5.30981e-03,3.91692e-01,2.90071e-01,-1.26107e-01,3.73286e-02,4.30406e-02,-3.48197e-01,-1.30314e-01,-9.55873e-01,1.87247e-02,2.29331e-01,-9.36159e-01,1.28204e+00,2.36826e+00,2.24987e-01,2.55286e-01,-1.87746e-01,4.15166e-01,-1.96278e-01,4.31615e-01,-3.10542e+00,-1.23020e-01,2.45298e-01,1.87651e-01,
-7.19289e-01,-3.43963e-01,2.13999e-01,5.15831e-01,-1.59112e-01,-3.06348e-01,6.66409e-01,-4.31368e-01,3.68605e-02,-1.58374e-01,3.09742e-02,-1.34820e-01,-8.74907e-01,2.58829e-01,-2.50486e-01,5.13653e-01,4.37428e-01,3.22746e-01,3.97898e-01,1.69598e-01,3.35324e-02,-3.63785e-01,-2.40863e-01,-1.13588e-01,-3.94261e-01,-5.76200e-01,6.04704e-01,9.62682e-01,6.02539e-01,-1.63290e-01,8.44329e-01,3.92529e-01,-2.76478e-01,-4.46266e-01,-3.46519e-01,3.87046e-02,2.09323e+00,6.52713e-01,8.57473e-02,-4.52370e-01,-5.57767e-02,-9.39124e-01,9.97017e-01,-1.34243e-01,-1.81280e-01,3.07008e-01,5.81041e-01,1.25767e-01,-1.70357e-01,-8.76412e-03,
-3.74926e-03,-2.39285e-02,-4.46343e-02,-4.72327e-02,-3.79250e-02,1.93598e-02,2.42846e-02,2.63901e-03,2.52663e-02,3.78179e-02,-4.60935e-02,-2.45984e-02,-5.02842e-02,-1.42236e-02,-4.37999e-02,5.55440e-02,-1.98568e-02,-2.22762e-02,-2.38343e-02,3.14047e-02,3.62121e-02,-1.78811e-02,1.94516e-02,3.38821e-02,-2.35133e-02,-1.85722e-02,4.26187e-02,-1.21127e-02,-1.95806e-03,3.10793e-03,-2.44363e-02,-3.21889e-02,4.05970e-02,4.05164e-03,-1.11471e-02,1.71191e-02,-1.33040e-02,-4.87798e-02,-4.60185e-02,2.10240e-02,-3.58842e-02,-2.49746e-02,-3.15019e-02,1.44367e-02,1.31535e-02,4.43058e-02,-2.30764e-02,1.79377e-02,1.04459e-02,2.27726e-02,
6.32421e-01,-3.36270e-01,1.44671e-01,1.68413e+00,4.18717e-01,-8.43576e-01,-1.95538e-01,-3.67803e-01,1.21334e-03,-1.51294e-01,2.06105e-01,-2.08722e+00,-5.30398e-01,-3.35165e-01,1.56008e-01,1.25860e-01,-7.78955e-01,4.41080e-01,1.91889e-01,4.36009e-02,-3.46347e-02,2.94291e-01,-2.04627e+00,3.94493e-01,1.95901e-01,-2.48559e-01,3.07279e-01,5.08663e-02,1.95046e-01,1.38755e-01,7.68334e-01,-1.58270e-01,2.40080e-01,-6.85928e-02,1.68666e-01,5.37194e-02,1.52170e-01,1.55219e-01,-5.60694e-01,4.60278e-01,4.04411e-02,3.25263e-01,-1.65452e+00,-7.81615e-01,-4.57060e-01,-1.21603e-01,9.50704e-02,-4.34545e-01,1.22650e-01,6.10798e-01,
2.51921e-01,-5.14881e-01,3.75322e-01,-7.45135e-01,1.25721e-01,-1.11557e+00,-6.23551e-02,-1.58582e+00,-4.05427e-02,3.07033e-01,-7.44102e-01,-8.19080e-01,6.45330e-01,8.45835e-01,2.19604e-01,1.24138e+00,1.19865e+00,-5.22369e-01,1.89836e-01,1.12748e-02,3.53171e-02,5.91438e-01,6.08589e-02,7.99332e-02,6.62490e-01,-3.72241e-01,1.11159e+00,-1.47384e-01,7.67546e-02,-2.58467e-01,-4.13181e-01,5.46725e-01,-1.75050e+00,3.03382e-02,2.56744e-01,-6.52184e-03,1.55524e-01,-2.22122e+00,-4.11354e-01,1.94084e-01,-9.27591e-01,5.05049e-01,4.42608e-01,9.68882e-03,-6.28372e-01,-1.26206e-01,-2.73879e-01,9.73636e-01,-2.42526e-02,-3.91921e-01,
2.46433e-02,8.34028e-03,-1.18564e-02,1.21980e-03,3.49464e-02,-1.57905e-02,-7.67754e-04,-3.95824e-02,-1.05052e-03,-4.09742e-02,-4.55672e-02,-9.76530e-03,1.14378e-02,2.42528e-02,-3.34478e-02,3.46075e-02,-3.40726e-02,-2.00375e-02,-4.59020e-02,-3.10742e-02,1.55833e-02,-5.10846e-02,2.89352e-02,9.37629e-03,2.96918e-02,-1.44103e-02,2.67062e-02,-2.02770e-02,-2.89074e-02,-3.84637e-02,3.16473e-02,3.29913e-02,3.74900e-02,-2.20740e-02,-2.21178e-02,-1.58461e-02,-3.64142e-03,-4.34999e-02,-4.16110e-02,2.00368e-02,6.22300e-03,-1.10605e-02,-2.74350e-02,-4.04537e-02,-2.54098e-02,-4.87861e-02,3.54808e-02,-2.77369e-02,4.12070e-02,-2.01825e-02,
5.53931e-01,-1.07200e-01,9.31619e-01,2.07371e-01,-5.67393e-01,-8.64215e-02,-4.91322e-01,-2.14789e-01,2.73357e-02,8.46888e-01,5.25267e-01,2.11688e-01,6.68540e-01,-5.89465e-01,2.97392e-02,3.68991e-01,6.58367e-01,-1.08118e+00,4.97034e-02,-9.24642e-02,-2.67596e-02,-9.95066e-01,-1.80982e-01,1.75471e-01,8.36123e-01,-1.48485e-01,-8.49303e-02,9.58405e-02,-9.01485e-01,6.37629e-02,-6.82951e-01,1.99597e-01,-3.17427e-02,2.85898e-01,3.26701e-01,-3.05051e-02,-7.76127e-01,-5.20288e-01,-1.69024e-01,-1.78263e-01,4.76859e-01,-2.52404e-01,2.01191e-01,3.35676e-01,-5.83542e-01,-2.59466e-01,3.45887e-02,-1.11111e-01,-3.38030e-01,-4.02011e-02,
7.80491e-01,2.21423e-02,1.71663e+00,-1.53425e-03,-9.23660e-01,1.57800e-01,8.22754e-02,-7.28920e-01,2.50363e-02,1.85767e+00,2.41221e-01,-8.54718e-01,2.99223e+00,-3.58034e-02,4.55791e-02,4.43746e-02,-3.08142e-01,4.71415e-01,-5.05253e-01,7.09792e-01,-5.71014e-04,-1.63438e-01,-1.11321e+00,9.00156e-01,-5.97709e-04,-9.26134e-01,4.26741e-01,1.00178e+00,-4.25131e-01,6.16183e-01,-7.78851e-01,1.50043e-01,-4.91861e-01,1.62370e-01,-1.75169e-01,-2.42023e-02,2.90257e+00,-3.05788e-01,2.21992e-01,1.45363e+00,2.74249e-01,4.95862e-01,1.22913e-01,3.70716e-02,-1.23306e-02,2.68296e-02,-9.54808e-02,2.96450e-01,4.41556e-01,3.18804e-02,
-2.42586e-02,2.21837e-02,-5.24823e-03,1.04079e-02,-6.55949e-04,1.35773e-02,-9.32304e-03,-2.12971e-02,-3.09391e-02,1.72546e-02,3.14193e-02,-5.20908e-02,1.62927e-02,-4.12866e-02,-3.40944e-02,2.49944e-02,-3.45293e-02,2.94340e-02,3.86098e-02,2.40737e-02,-2.27963e-02,1.80506e-02,-3.41754e-02,-2.34152e-02,-4.19662e-02,-2.27556e-02,-4.04030e-02,-1.94353e-02,1.15189e-02,7.77920e-03,-4.62392e-02,2.00026e-02,-4.27707e-02,1.27137e-03,-3.02815e-02,-5.14888e-02,-1.36028e-02,-8.40450e-03,1.36443e-02,-1.68323e-02,3.90006e-02,8.29578e-03,-8.52822e-03,-2.14421e-02,-5.14599e-02,-2.13699e-02,-2.15071e-02,9.14462e-04,-5.48879e-02,2.66614e-02,
-4.59186e-02,-4.61089e-02,1.21834e-02,-4.55700e-02,-2.50433e-02,-4.52840e-02,-3.53030e-02,-5.89973e-03,5.29905e-04,-5.39808e-02,-2.19527e-02,8.48038e-03,-2.16415e-02,2.83671e-02,-5.05414e-02,1.52342e-02,-2.14145e-03,-4.53401e-02,2.19753e-02,-2.99478e-02,1.27481e-02,1.77546e-02,3.89110e-02,-3.15662e-02,1.58699e-02,1.32945e-02,-7.53686e-03,-1.81981e-02,8.69439e-03,2.23897e-02,2.40655e-02,2.81973e-02,3.58855e-03,-2.25148e-02,-5.28827e-04,1.67557e-02,-4.67520e-02,1.91019e-02,-4.98885e-02,-2.60264e-02,1.83629e-02,-9.67093e-03,-4.70535e-02,5.45355e-03,4.36176e-02,7.41843e-03,2.19241e-02,-4.03490e-03,-2.25389e-02,1.20613e-02,
3.72398e-02,-1.12767e-01,-1.11347e-02,-2.34803e-01,4.72664e-03,-9.35674e-02,3.97314e-02,9.99420e-02,3.96299e-02,1.92567e-02,-6.55739e-02,-6.90290e-03,7.66511e-02,-3.57448e-03,1.22502e-03,1.01893e-01,-1.00661e-01,-1.97818e-02,1.42375e-01,-2.37729e-02,1.09135e-02,-2.23879e-02,7.08413e-02,1.53230e-02,-4.91799e-02,5.51845e-02,-1.03353e-01,5.10133e-02,-1.20972e-01,2.87105e-02,-1.12326e-01,5.94412e-02,1.55397e-01,9.06634e-02,5.55892e-02,1.80717e-03,-3.86626e-02,-6.36055e-02,2.11427e-02,2.00310e-01,6.21279e-02,-2.99160e-02,-1.93975e-01,1.18441e-02,3.07569e-02,7.80634e-02,-6.56279e-02,6.64004e-02,3.83540e-02,-5.43572e-03,
-7.55151e-01,-4.66118e-01,1.30417e-01,1.74418e-02,-2.81298e-01,4.46325e-01,9.50592e-01,4.60701e-01,-1.05304e-02,2.34466e-02,5.38224e-01,-1.61393e+00,-3.43559e+00,3.52307e-01,4.91086e-02,9.91001e-01,1.35384e-01,2.42286e-01,3.42649e-01,-6.91972e-02,-2.99472e-02,-7.59802e-01,-1.30003e+00,-1.28017e-01,1.12793e-01,-8.10784e-01,1.54256e+00,-1.07781e+00,8.64351e-02,3.96208e-02,1.18331e-01,-1.11369e+00,-4.12677e-01,2.33602e-01,-4.19522e-01,5.46845e-02,-3.56475e-01,5.29017e-01,2.25135e-01,8.21411e-02,-6.81240e-01,1.37455e-01,-2.41302e-01,-1.51705e-01,1.57463e-01,1.22426e-01,-1.30658e+00,1.70379e-01,5.45478e-01,-3.84752e-01,
-5.17406e-02,1.05758e-01,6.14536e-01,-3.29752e-01,-3.01298e-01,-7.29473e-01,7.05695e-01,5.01563e-01,4.92530e-02,-2.15675e-01,4.39174e-02,-4.43412e-01,2.28211e-01,-5.70594e-01,-3.44869e-02,-5.24907e-01,-4.37613e-01,-4.04060e-01,7.44503e-01,2.82618e-01,5.39994e-02,-3.04411e-01,-1.44199e+00,4.68456e-01,3.46593e-01,8.36509e-01,7.00085e-01,1.48123e-01,4.16597e-01,-1.50078e-01,6.06321e-01,9.01771e-02,-4.02387e-01,5.66519e-01,1.90941e+00,5.36576e-02,2.08186e+00,-1.05935e+00,-8.99606e-01,9.75977e-01,-2.35621e-01,-1.32162e+00,6.91615e-02,3.71566e-01,-2.69654e-01,-1.12308e-01,-4.72916e-01,-3.96282e-01,1.94852e-01,1.09884e-01,
2.73876e-03,-5.42407e-02,-4.37086e-02,3.42476e-02,-1.70630e-02,1.04080e-02,8.26131e-04,-4.11915e-04,3.78380e-02,1.48544e-02,-3.64669e-02,-5.06540e-03,1.80968e-02,-3.95129e-02,-3.13254e-02,3.28600e-02,-3.68440e-02,4.28892e-02,-3.23317e-02,2.13252e-03,-4.95248e-02,-4.20147e-02,-2.81941e-02,-3.35142e-02,4.39902e-03,-1.50292e-02,-3.80077e-02,-5.24080e-02,-1.05260e-02,-4.33035e-02,2.68716e-02,-9.62133e-03,-1.29930e-02,-2.05612e-03,2.97389e-02,2.35179e-02,-2.10867e-02,-2.17483e-02,3.75976e-02,-2.80120e-02,3.20836e-02,-6.16610e-03,-4.90677e-02,3.78762e-02,7.07253e-03,-2.20071e-02,-2.71653e-02,-4.66078e-02,4.27008e-02,1.78235e-03,
1.98021e-01,1.94252e-01,6.00297e-01,-1.90555e-01,-2.32211e-01,-1.86249e-01,8.66930e-01,-1.77207e-01,-3.62570e-02,-1.04362e-01,3.07669e-01,-9.14705e-01,6.52519e-01,-5.15026e-01,2.96544e-01,-1.78263e-01,1.89868e-01,-6.60190e-02,-7.74898e-02,2.41820e-01,5.02251e-02,-5.88017e-01,1.82388e+00,-5.96394e-01,1.16698e-02,-3.22584e-02,1.78701e-02,4.65012e-01,2.43229e-01,-7.16744e-01,6.75053e-02,-1.02306e+00,-8.72169e-01,4.04049e-01,3.10335e-01,-6.87331e-03,-1.09226e+00,-7.35496e-01,2.20931e-01,1.05473e+00,-8.55295e-02,-3.65400e-01,-2.21255e-01,-1.98153e-01,-3.43467e-01,-9.69672e-02,-4.98040e-01,3.65490e-01,3.99582e-01,2.00159e-01,
-1.91762e-01,3.25375e-01,-1.29989e+00,2.56252e-01,-5.98998e-01,-3.34213e+00,3.05399e-01,-2.41458e-01,-3.42788e-02,-9.00452e-01,-6.69863e-01,-3.79542e-02,1.14957e+00,-2.06773e+00,-2.06224e-01,-3.33622e-01,1.65199e-02,-6.02173e-01,-6.32714e-02,8.83029e-02,-4.19371e-02,2.11129e-01,9.66947e-01,-3.51244e-01,-6.71645e-01,7.80764e-01,2.82816e-02,-1.34438e+00,6.36167e-01,7.86951e-01,4.60378e-02,4.99568e-01,-1.27112e+00,1.56001e-02,-6.46268e-01,-7.70189e-03,-2.41235e-01,5.09763e-01,8.18600e-01,1.42892e-01,-1.94978e-01,1.15600e+00,-3.85371e-02,3.66742e-01,4.64802e-01,-3.45194e-01,-1.08152e+00,6.60158e-01,-1.97360e-01,1.34740e-01,
-5.02582e-01,-2.18784e-01,2.67757e-01,5.41820e-01,2.96037e-01,-6.31576e-01,4.30408e-01,-3.04927e-02,2.62857e-02,-1.88994e-01,3.94104e-01,-3.36035e-01,-4.44057e-01,-2.45867e-01,3.07253e-01,-1.17202e-01,2.33466e-01,2.98486e-01,2.07981e-01,4.57836e-01,1.55992e-02,-3.06166e-01,1.39263e+00,-2.78131e-02,3.73840e-01,-1.52218e-01,8.92486e-02,1.39911e+00,-2.73303e-02,1.98012e-01,1.02881e+00,2.12571e-01,2.01314e-01,-3.46737e-03,1.01129e-01,2.30998e-03,2.28841e-01,-1.22109e-01,-6.63634e-01,8.61075e-01,1.85469e-01,2.17379e-01,-1.36932e+00,-1.29184e-01,2.25200e-01,6.34446e-01,4.32663e-01,-1.83168e-01,5.03207e-01,3.76013e-01,
-5.45645e-01,1.09308e+00,1.41862e-01,3.22620e-01,-3.55778e-01,1.36410e+00,1.22032e-01,-7.88999e-01,-3.88058e-02,1.07646e-01,7.43404e-01,-5.74587e-01,8.57192e-01,-5.48479e-01,-4.54421e-02,3.40505e-01,1.65510e+00,-1.13630e-01,-4.61019e-01,-1.40009e-01,-2.05781e-02,-5.05265e-01,-7.50097e-01,5.71799e-01,-3.62625e-01,1.26610e-01,3.78246e-01,1.63925e-01,-1.26784e-01,-1.68574e-02,-9.37931e-03,-1.30083e-01,-3.69991e-01,-1.63049e-01,1.47463e-01,-2.11973e-02,-1.06483e-01,-1.64919e+00,1.05765e-01,6.86050e-01,-1.08691e+00,-8.38597e-01,-3.75057e-01,-7.13414e-02,4.10042e-01,7.18676e-01,-7.55995e-01,1.11791e+00,-1.61532e-02,5.17199e-02,
8.01609e-01,-5.24033e-02,-7.03559e-02,-1.62523e-01,3.48531e-01,-1.36018e-01,-3.85908e-01,1.91805e-01,1.08740e-02,-2.12089e-01,1.23650e-01,-2.54317e-01,2.33547e+00,2.90446e-01,-2.04458e-01,-3.24541e-01,1.31883e-01,-1.23126e+00,-3.89476e-01,2.54288e-01,-4.38291e-02,9.35884e-02,4.71410e-01,-8.90377e-02,5.34007e-01,-8.40960e-01,4.87745e-01,-1.56644e+00,1.01405e+00,-7.48382e-01,-6.67020e-02,-1.07067e-01,-1.85873e+00,1.80232e-01,3.35391e-01,-2.75233e-02,-1.71957e-01,-1.40502e+00,7.21800e-02,-1.50606e+00,7.17987e-01,9.57091e-02,2.52050e-01,4.71173e-01,-6.61286e-01,-5.63441e-01,-5.02618e-01,-1.22187e-01,5.39967e-02,-7.06837e-01,
1.33354e-01,-5.88452e-02,1.76015e+00,1.67112e-01,-5.77162e-01,3.17978e-01,-4.89063e-01,4.73075e-01,1.22620e-02,-2.22193e-01,-2.22494e-01,-4.82806e-02,3.41619e+00,1.01187e-01,-3.66425e-01,4.09667e-01,-7.92936e-01,-1.67931e-01,4.80000e-01,1.60205e+00,-4.65098e-03,3.14071e-01,5.13675e-01,2.14465e-01,5.16104e-01,-3.10794e-02,-3.48050e-01,-8.33467e-01,1.27500e-01,5.23165e-01,1.30551e-02,1.17014e-02,4.60250e-01,4.28394e-01,-2.25532e-01,-3.08047e-02,8.95506e-01,5.46366e-01,1.65856e-01,1.67058e+00,-3.73159e-01,5.79795e-01,2.69204e-01,1.25433e+00,-6.38662e-01,-4.39506e-01,3.46815e-02,2.38152e-01,4.42394e-01,2.45352e-01,
2.52457e-01,-9.69439e-02,1.79790e-01,1.73201e+00,-5.11172e+00,4.32534e-01,-2.34149e-01,-2.61695e-01,1.42937e-02,-9.54653e-01,-1.01543e+00,2.54989e-01,9.36447e-01,3.96090e-03,1.37707e-01,-1.36966e-01,1.00654e-01,2.87484e-01,-8.62783e-01,2.60982e-01,4.96104e-02,1.23054e+00,1.20914e+00,-5.19523e-01,2.43165e-01,3.97698e-01,2.83625e-01,-1.07384e-01,-2.34170e-01,-2.30138e-01,-2.64449e-01,7.37480e-02,1.11463e-01,7.66552e-01,1.25324e-01,-1.59346e-02,-4.19562e-01,2.98645e-01,8.54970e-02,1.50317e+00,3.70755e-01,-3.12651e-01,-1.75812e-01,-2.30978e-02,2.61576e-01,-8.98185e-02,-8.94448e-02,-2.90806e-01,1.84239e-01,-4.05782e-01,
3.45468e-02,-1.26827e-01,2.06537e+00,-3.13408e-01,-1.41791e-01,-2.90969e-02,1.34152e-01,-3.69879e-01,1.83929e-02,3.52695e-01,1.67783e-01,-1.15631e-02,-1.95624e+00,4.43364e-02,6.73772e-01,1.61644e-01,-6.92147e-03,3.08216e-01,1.57708e-01,1.73317e+00,-3.73489e-02,-9.76720e-02,-2.40800e-01,-1.18764e-01,2.78557e-01,5.46188e-01,5.58077e-02,-7.03569e-01,6.98391e-02,4.98593e-01,-1.57817e-01,-1.07556e-01,2.39867e-01,4.66114e-01,1.29147e-01,-4.46650e-03,1.47990e+00,-4.28150e-02,7.10458e-02,-9.28237e-01,-1.48870e-01,-1.19431e-01,-2.91865e-01,-1.00880e-01,2.36850e-01,-1.28790e-01,-1.11859e-01,2.23206e-02,1.33170e+00,-2.57713e-02,
-4.31203e-02,2.50878e-02,3.41535e-02,-2.93183e-02,3.01756e-02,-3.33461e-02,1.39917e-02,-1.55448e-03,2.63995e-02,1.87023e-02,-5.61028e-02,-3.03886e-02,1.08914e-02,9.27548e-03,-1.87635e-02,-2.97313e-02,-4.82985e-02,-3.51386e-02,2.84100e-03,2.66786e-02,-2.23117e-02,4.43762e-03,-3.39405e-02,-1.00007e-02,2.81253e-02,-1.38829e-03,-2.40477e-02,-4.67290e-02,-4.06668e-02,-1.88388e-02,2.02907e-02,-3.46633e-02,3.99119e-02,2.84337e-02,-2.61837e-02,-1.74631e-02,-1.90820e-03,-3.16055e-02,-3.94179e-02,4.65506e-02,1.62039e-02,-2.56361e-02,-9.89764e-03,-2.63777e-03,3.00937e-02,-6.03849e-02,-2.73008e-02,4.31079e-03,5.68102e-03,-1.82838e-02,
-8.72539e-02,6.05838e-01,1.00062e+00,4.57028e-02,-6.78206e-01,-3.85988e-01,1.24059e+00,-8.70317e-01,-3.87355e-03,-5.70505e-01,1.39155e+00,-1.22626e+00,-3.75331e-01,2.13469e-02,5.53980e-02,6.65367e-01,-9.37677e-01,-8.66889e-01,1.41110e-01,1.00229e+00,4.45896e-02,-2.64990e-01,1.44513e+00,7.35171e-01,2.19668e-01,3.21653e-01,-1.29894e+00,-1.00775e-01,-1.25600e-01,4.22414e-02,-2.18048e-01,-2.47840e-01,4.66584e-01,8.75076e-01,7.08111e-01,7.00972e-03,7.47935e-01,-1.36854e+00,-1.68739e-01,2.22899e+00,1.99626e+00,-5.58380e-02,-6.53390e-01,-1.41324e+00,-8.69279e-01,1.49751e+00,2.35556e-01,-1.77596e-01,9.08758e-01,-4.16139e-03,
6.59106e-02,-1.41195e-01,-2.50891e-01,-8.25417e-01,-1.22656e-01,1.32271e-01,8.51081e-01,3.21052e-01,1.48522e-02,-2.29098e-01,-2.33591e-02,-4.50646e-01,1.69410e+00,-6.54143e-01,3.38453e-01,6.05129e-03,-1.16906e+00,-2.16337e-02,4.90672e-01,4.33977e-02,3.89899e-03,-1.25514e-02,-5.18215e+00,3.28489e-02,-3.55594e-01,-3.59886e-01,4.75459e-02,-3.53764e-01,2.44754e-01,1.41862e-01,4.80004e-01,-3.12112e-01,3.78801e-02,-4.93285e-02,1.63576e+00,2.43291e-02,-5.43030e-01,3.16942e-01,-9.82359e-01,3.72994e-01,2.06705e-01,-7.40575e-01,-1.98730e-01,-4.73561e-01,-4.45418e-02,-5.42170e-01,-1.03497e+00,1.52722e-01,-1.55017e-01,8.94667e-01,
9.75177e-02,2.00930e-01,-6.65316e-01,-1.40293e+00,-3.14225e-01,-2.87332e-01,-5.22255e-01,1.49969e-01,1.12254e-02,-3.33696e-01,2.61035e-02,-2.32918e+00,-1.10794e+00,2.48994e-01,-2.93461e-02,9.81421e-01,-1.57750e-01,1.37392e-01,-8.68902e-01,1.28647e-01,5.71775e-03,2.56856e-02,-1.97278e+00,3.60029e-01,4.53810e-01,-4.81229e-01,4.47474e-01,3.87212e-02,2.22038e-02,3.47662e-01,7.90625e-02,1.11348e-01,5.99705e-01,2.91903e-01,-8.87671e-01,-3.55515e-02,-3.64452e-01,-2.12978e-02,-1.12498e-01,3.55387e-01,-5.42412e-01,-3.27224e-01,2.06836e-01,-5.33051e-01,2.51131e-01,1.66847e-01,8.35122e-01,1.29911e-01,4.60733e-02,-1.14826e-01,
6.89094e-02,8.54760e-01,5.29295e-02,-5.22775e-01,2.04747e-01,-4.74094e-01,1.62613e-03,2.96787e-01,-3.26106e-02,-2.49743e-01,-7.88690e-01,3.90723e-01,-2.18749e-01,-5.64183e-01,-6.48176e-01,-2.99717e-02,-9.97985e-02,-1.09182e-03,-7.15195e-01,1.34311e-01,-3.32573e-02,-8.10180e-01,3.36266e-02,9.32554e-01,-1.60740e-01,-4.14884e-02,1.87896e-01,-7.01209e-01,-8.25925e-01,7.95369e-01,-1.89459e-01,-2.83503e-01,4.09033e-01,-6.06156e-01,3.04762e-01,-1.36809e-02,1.12531e+00,9.07442e-01,4.99068e-01,4.61648e-01,1.46330e-02,-5.44427e-02,-2.05174e-01,-1.21438e+00,1.53018e-01,-2.97574e-02,9.33735e-02,4.11611e-01,-4.08240e-01,1.23838e-01,
-8.57752e-01,
-1.87375e-02,
2.04357e-01,
5.75291e-01,
-3.03546e-01,
2.27416e-01,
4.15545e-01,
-1.12198e-01,
1.97343e-01,
2.42997e-01,
3.92929e-01,
-8.62720e-01,
-8.42641e-01,
-4.98251e-02,
5.63632e-01,
-1.81726e-02,
6.40172e-01,
-1.25632e+00,
-4.59500e-01,
-1.30135e-01,
-7.82023e-01,
1.07433e-01,
-8.21344e-02,
-3.80678e-01,
-6.95859e-01,
-8.21102e-03,
-2.47383e-01,
3.61819e-01,
-1.45774e-02,
9.94338e-03,
-4.48184e-01,
-1.43168e-02,
-9.20324e-03,
-5.97203e-02,
6.03905e-01,
-7.97598e-02,
-1.54705e-02,
8.42031e-01,
5.12684e-01,
1.20883e-01,
4.32045e-01,
-2.59835e-02,
-1.12621e+00,
-4.07345e-01,
5.17200e-01,
-1.66921e-02,
-5.19369e-02,
6.30919e-01,
5.75592e-01,
-3.12498e-02,
2.56667e-01,3.92429e-02,1.09405e-01,-3.04178e-01,2.50396e-01,1.02430e-01,2.26084e-01,-1.25025e+00,6.32850e-01,-1.64464e-01,1.85613e+00,7.39264e-01,-3.87047e-01,5.97393e-01,9.98390e-01,-7.84896e-04,-2.01618e-01,2.24720e-01,3.10994e+00,-1.71334e-02,1.75404e+00,2.99967e-01,5.65731e-01,-5.81666e-01,3.21608e-01,3.19024e-02,-2.96098e-01,2.96339e-01,-3.51467e-02,7.04764e-01,-5.85352e-01,-3.87890e-02,-4.04835e-02,-1.84115e-03,-3.10568e-01,5.59823e-01,-1.43530e-02,-2.25988e-01,1.04086e+00,5.16450e-02,-7.94914e-01,-1.98657e-01,1.02842e+00,-1.27225e+00,2.01783e-01,1.18712e-02,-3.12815e-01,-7.00423e-01,-5.68550e-01,1.18676e+00,
1.43699e-01,-1.30391e-03,1.05257e+00,-4.48761e-01,-1.46021e-01,3.73415e+00,5.58357e-01,-6.63479e-01,-7.69957e-01,8.57374e-02,7.35294e-01,3.95320e-01,-2.74813e-01,1.76274e+00,-2.08197e-01,-2.14984e-02,2.70016e-01,3.50385e-01,2.18790e-01,9.07872e-01,1.66621e-01,5.62958e-01,2.84082e-01,-2.96990e-01,-1.74974e-01,5.59505e-03,-7.20282e-01,-2.98208e-01,3.76052e-02,1.07654e+00,2.88140e-02,-2.60355e-02,4.13755e-02,-2.41698e-02,-5.53731e-01,4.46410e-01,2.98331e-02,3.19612e-01,7.97377e-01,-3.05823e-01,-9.13883e-01,-2.98293e-01,9.03964e-01,2.29741e+00,1.24899e-01,1.03057e-02,1.87986e-01,6.20038e-01,-3.37681e-01,-6.78639e-01,
-1.51129e-01,3.51899e-02,-1.03878e+00,6.96422e-02,-5.04554e-02,-7.77957e-01,3.83326e-01,7.85796e-01,1.68865e-01,4.46971e-01,3.51765e-01,-1.27122e-01,2.18909e-01,4.63716e-01,-3.57557e-01,3.16797e-02,6.54372e-02,8.35458e-01,-1.07633e-01,4.79446e-01,-2.60402e-01,-4.31392e-01,1.24664e-01,-8.06667e-01,4.87752e-01,3.56290e-02,4.07430e-01,4.67900e-01,1.09621e-02,-1.25504e+00,-8.38901e-01,3.90754e-03,-3.42143e-02,4.22134e-02,-1.07122e+00,4.76694e-01,6.81468e-03,-6.33083e-01,8.13621e-01,7.89612e-01,-9.62714e-02,4.26669e-01,3.44036e-01,1.94065e+00,-1.34670e-01,7.77069e-03,1.22957e-01,-5.73628e-01,-1.28162e-01,3.57514e-01,
1.10511e-02,4.54993e-02,-6.12773e-03,3.08500e-01,-5.06030e-01,2.82744e-02,4.54355e-02,-5.17728e-02,6.74652e-02,-9.60432e-02,-7.50871e-02,-1.41604e+00,-4.68721e-01,-3.97395e-02,1.81401e-02,-1.14805e-02,3.01025e-01,-1.29766e+00,2.29605e-02,2.42553e-01,-1.08933e-01,4.22748e-02,9.23758e-02,-6.42748e-02,-1.77042e-01,-1.34964e-02,-1.60568e-02,-6.57953e-03,3.10058e-02,-1.04813e-01,-3.78075e-02,2.02218e-02,-2.20803e-02,2.46198e-02,4.01918e-02,1.98456e-02,4.42178e-02,-1.62731e-02,1.74840e-01,1.56155e-01,2.81860e-02,-1.68926e-02,-6.55414e-03,-1.55270e-01,-4.34144e-01,5.48420e-03,8.68247e-02,-2.49883e-02,2.36142e-02,1.39460e-01,
2.91552e-01,-2.25060e-02,-3.38803e-01,7.03384e-01,-2.44115e-01,-1.37157e-02,2.33548e-01,-2.85922e-01,4.07561e-01,1.26280e-01,5.58616e-01,1.13996e+00,1.02280e+00,-7.10288e-03,-7.08897e-02,2.30449e-02,-6.32211e-01,1.99555e+00,-5.09259e-01,-7.73784e-01,1.58339e-01,-1.12934e-01,1.17193e-01,-3.08458e-01,-9.07744e-02,8.05454e-03,-1.22937e-01,1.48013e-01,4.56839e-03,-9.76945e-01,2.34008e-01,4.76478e-03,3.87462e-02,5.03802e-02,-1.77693e-01,4.32029e-01,-1.30513e-02,-5.14162e-02,-2.09119e-01,3.55504e-01,-2.59874e-01,-3.00713e-01,5.40186e-01,-1.47377e-01,6.64287e-01,2.32649e-02,-4.26359e-01,2.08665e-01,-2.46858e-01,1.22023e-01,
1.65650e+00,-1.53927e-05,-8.34483e-01,5.83134e-01,-3.09738e-01,-4.63403e+00,-9.34812e-02,-1.02859e-01,-4.19873e-02,-5.56654e-01,-2.96570e+00,-2.49154e+00,-4.08795e-02,-3.92524e-01,3.13720e-01,-3.25932e-02,2.38796e-01,2.56277e+00,-1.14613e+00,-2.61980e+00,-1.54143e+00,3.45519e-01,3.14470e-01,-6.81228e-01,1.05323e+00,-3.20443e-02,-1.65598e+00,-1.38297e+00,-1.09971e-02,-1.51400e+00,6.54387e-02,1.99451e-04,-4.62632e-02,8.99371e-03,-5.63017e-01,4.79126e-01,4.66598e-02,-9.56190e-01,7.18001e-01,-8.62282e-01,-1.32566e+00,-1.33506e+00,-8.67516e-01,-1.06137e+00,-1.65168e-01,3.54185e-02,-6.01407e-01,-1.04812e+00,-2.52582e-01,-4.40897e+00,
1.34872e-01,3.01020e-02,8.98238e-02,-8.66293e-02,-2.38829e-01,-2.49409e-01,6.98942e-01,-1.83205e-01,-3.91308e-01,-1.78464e-01,5.13816e-01,1.06886e+00,1.94735e-01,1.95114e-01,-3.10497e-01,-1.84649e-02,-8.77084e-02,-3.02807e+00,2.58676e-01,4.42508e-02,-6.67772e-02,-3.85263e-01,-3.52062e-02,-1.58332e-01,1.16344e-01,-3.57354e-02,2.29361e-02,6.00369e-02,1.44973e-02,4.07147e-01,-1.77934e-01,-3.45079e-02,-4.76282e-02,-5.01858e-02,6.58258e-02,-3.03879e-01,-2.76859e-02,-1.77888e-02,-6.28128e-02,1.18020e-01,4.23510e-01,-4.76930e-02,2.13687e-01,1.87580e+00,1.20094e-01,-3.93394e-02,1.68844e-01,1.62408e-01,-3.21963e-01,-9.14787e-03,
-3.18140e-01,-2.73700e-02,3.60041e-01,6.68328e-02,2.87771e-01,-1.51119e-01,-8.78955e-02,-2.99433e-02,4.43454e-01,-5.14421e-02,-3.72638e-01,-3.05167e+00,4.19801e-01,3.66877e-02,1.95944e-01,4.80584e-02,3.33324e-01,-1.43955e+00,1.64730e-01,-2.06792e+00,5.10810e-01,1.54161e-01,2.65994e-01,-1.14046e-01,-4.35930e-01,-3.62917e-02,1.28967e-01,7.33572e-03,4.73875e-03,1.84658e-01,2.55071e-02,-2.53909e-02,3.20377e-02,5.40803e-02,1.96189e-01,-4.97626e-02,1.99304e-02,-2.98624e-01,-2.85803e-01,4.28577e-01,-2.92258e-01,-1.39713e-01,-2.14220e-01,-6.16045e-02,8.27852e-02,2.12222e-02,-1.43526e-01,-8.91105e-02,1.76718e-01,1.17950e-01,
2.69824e-01,1.07348e-02,1.75031e-01,-4.63055e-01,2.00846e-01,1.68999e-01,5.68378e-01,-1.21715e+00,-1.49337e-02,-7.64930e-01,-1.50352e-01,-2.15778e+00,3.25436e-01,-4.03587e-01,-8.19650e-01,-4.47049e-02,-3.52734e-01,1.61446e+00,-1.08991e+00,-8.64508e-01,-3.51513e+00,-1.41491e-01,1.62937e-01,3.80764e-01,6.13702e-02,-4.66247e-02,-6.10570e-01,-3.83698e-01,3.30877e-02,8.68799e-01,2.66105e-01,4.23762e-02,3.01421e-02,4.39364e-03,-5.65990e-01,-6.63664e-01,-2.49555e-02,2.74914e-01,7.68158e-01,-2.63321e-01,3.41955e-01,5.50846e-02,-9.02903e-01,6.68057e-01,4.25072e-01,-2.19796e-02,1.75263e-01,6.70613e-01,2.94868e-01,8.06603e-01,
-1.11508e+00,4.03845e-02,-1.35047e+00,8.83185e-02,-3.55414e-01,6.27336e-01,-2.95709e+00,-2.13487e-01,-1.59404e+00,-1.11384e+00,-1.54062e+00,-1.64431e+00,-3.67788e-01,-3.02947e-01,1.43430e-01,-2.95703e-02,9.71074e-01,2.34475e-02,-1.53629e+00,-5.49740e-02,-7.70976e-01,-3.44531e-01,-8.06512e-01,-3.14423e+00,6.57973e-01,-3.82610e-02,-1.63731e-01,-1.35286e+00,-4.73176e-02,1.64995e+00,9.59973e-01,-2.23494e-02,4.58613e-02,7.17680e-03,4.06445e-01,1.66907e-01,-3.94212e-02,-1.56922e-01,-5.88644e+00,-1.31533e+00,-5.29845e-01,-1.86610e+00,1.59982e+00,-6.92567e-01,4.34541e-01,-2.15917e-02,-1.13973e-01,9.52432e-01,-1.97329e-01,2.36689e-01,
-9.71449e-02,-2.79572e-02,2.20263e-01,1.90071e-02,1.66089e-01,1.63559e-02,-6.74076e-01,4.55332e-01,-7.08442e-02,-5.14302e-01,8.17197e-02,-2.02272e+00,8.23701e-01,1.30985e+00,-8.27140e-02,2.22708e-02,-3.70585e-01,-9.70331e-01,6.46035e-01,4.00117e-01,-5.29398e-01,8.98085e-01,3.64081e-01,8.13304e-01,-7.91872e-01,-4.40037e-02,-3.30600e-01,9.76447e-01,3.24303e-02,2.30808e+00,-2.75976e-01,7.33724e-03,-9.35441e-03,1.00106e-01,-1.24051e+00,-2.30531e-01,3.04922e-03,-1.13444e+00,1.13339e+00,5.32389e-01,-9.54909e-01,3.28587e-01,3.50635e-02,2.98045e-01,-3.88850e-01,4.77034e-02,-1.96383e-01,-5.02988e-01,-3.50298e+00,-1.21684e+00,
-4.51005e-02,-2.70992e-02,1.70819e-02,-4.65028e-02,1.19704e-02,-6.47042e-03,-6.96071e-03,-6.30665e-02,2.92645e-02,3.16345e-02,-7.19497e-02,4.23146e-02,-1.32924e-02,-4.23668e-02,-1.97231e-02,-2.19343e-02,5.70029e-03,2.30534e-02,7.92351e-03,-4.95516e-02,2.13011e-02,7.08850e-03,-3.76608e-02,-2.39042e-02,-6.93772e-02,4.29735e-02,-1.96927e-03,-4.01689e-02,1.41653e-02,1.80347e-03,-5.06961e-02,-1.25617e-02,-3.16481e-02,-2.07127e-02,-4.63245e-02,-3.22497e-02,1.94322e-02,2.08453e-02,-4.16405e-02,8.50393e-03,1.48212e-02,-1.38149e-02,-3.35859e-02,2.97822e-02,2.11616e-02,1.29853e-02,-3.50832e-02,-2.18021e-02,-1.24455e-02,-3.61798e-02,
4.21542e-01,6.37144e-03,1.04114e+00,-1.12703e-01,2.32944e-01,6.21239e-01,1.93719e-01,-3.40149e-01,-1.07538e-01,1.73865e-01,1.60352e-01,-4.19423e-01,2.57149e-02,1.15270e-01,1.69633e-01,-4.46312e-02,-3.39956e-02,-1.55746e-01,3.74562e-01,-4.40740e-03,3.30756e-01,-1.97303e-01,4.16848e-02,1.84939e-01,-7.32273e-01,-2.19022e-02,-1.29609e-01,4.12645e-02,-7.62622e-03,9.22479e-02,7.30594e-02,4.59198e-02,-1.20734e-02,5.26603e-02,2.10564e-01,4.66342e-01,-9.43960e-03,4.98506e-01,-2.50766e-01,-3.85911e-02,-9.33386e-02,6.19231e-02,1.19418e+00,-1.40148e-01,-1.58654e-02,4.94409e-02,-6.47078e-01,1.49648e-01,-7.10275e-01,8.47272e-02,
-2.16948e-01,1.60869e-02,-6.45223e-01,4.51182e-01,5.13326e-01,-4.90229e-01,-4.17240e-01,5.97287e-01,2.91341e-01,9.44533e-02,8.45124e-03,-1.20070e+00,-6.06803e-01,6.79407e-02,2.00081e-02,1.54894e-02,-2.83801e-01,3.67023e-01,1.41820e-01,-4.03334e-01,-6.02206e-01,-3.19853e-01,8.08484e-01,2.21410e-02,-5.71307e-02,-4.25290e-02,2.21007e-01,9.54022e-02,8.43461e-04,7.31821e-01,-4.16615e-01,-6.43512e-03,-4.16271e-02,7.41360e-02,-2.98062e-01,-6.88973e-02,2.71442e-02,4.95588e-01,1.03802e-01,5.48302e-01,2.53398e-02,1.21038e-01,5.07118e-01,-1.81474e+00,-2.32625e-02,-5.40312e-03,-3.44819e-01,-6.38951e-01,-3.49460e-01,-2.09894e-02,
-5.50431e-01,3.54804e-02,5.36922e-02,5.84820e-02,1.45322e-01,-2.93066e-01,-1.58198e-01,-1.32102e-01,-4.62060e-01,-1.73313e-01,1.69657e-01,-2.24425e+00,-3.75941e-01,-2.12332e-01,8.97546e-02,1.05825e-02,3.18968e-01,2.73400e-01,1.63112e-01,-8.89823e-01,3.15723e-01,-7.77619e-02,1.02927e+00,-2.21021e-01,-4.65745e-01,-6.14837e-03,1.88615e-01,6.87313e-03,3.01029e-03,-1.24510e-02,6.44889e-01,8.41293e-03,-4.56428e-02,1.11845e-01,-6.15938e-02,5.25420e-02,1.88459e-02,9.94327e-02,1.72261e-01,1.13104e+00,-3.15357e-02,-2.59547e-01,-7.34860e-01,6.61402e-01,1.71125e-01,-7.18598e-03,2.85360e-02,-2.86314e-01,-1.30624e-01,-3.27939e-01,
1.40761e-02,-3.76171e-02,4.39132e-01,-7.93994e-02,-6.29325e-01,-8.46015e-01,7.96661e-01,-1.29823e+00,4.20384e-01,2.72774e-01,-1.14771e+00,1.37293e+00,-1.16282e-01,6.16746e-01,-6.73563e-02,-1.00996e-02,-2.56345e-01,-8.93190e-01,-2.27522e-01,-3.32414e+00,2.57327e-03,3.29218e-01,8.86009e-01,1.40185e-01,1.98674e-01,-3.14939e-02,-5.97133e-01,1.93252e-02,1.78917e-02,-3.04709e-01,1.00751e+00,1.35763e-02,-1.66936e-02,-3.49591e-02,-3.15578e-01,-3.75994e-01,-2.81184e-02,1.92327e-04,5.97887e-02,4.08070e-01,-7.27170e-01,1.21412e-02,-3.23160e-01,-5.57379e-01,-8.79213e-01,3.54788e-02,6.50529e-01,-7.33936e-01,2.08051e-01,1.61061e-02,
-3.47389e-01,-1.25270e-02,1.29366e+00,-5.31813e-02,3.82592e-01,1.72638e-01,-1.32480e+00,5.87026e-01,-6.93637e-01,-6.04714e-01,7.31345e-01,1.36528e+00,-2.89149e-01,-1.14139e-01,1.55475e-01,4.03205e-02,-6.46047e-01,1.83249e+00,4.34926e-01,1.31635e+00,1.93679e-01,-8.33346e-02,-1.49505e-01,3.54275e-01,-5.42627e-01,3.59573e-02,-4.83861e-03,-2.53577e-01,-2.56271e-02,1.47077e+00,6.23424e-01,-1.53295e-02,2.67234e-02,9.13079e-02,1.13310e+00,-3.66131e-01,1.61937e-03,3.20436e-01,-6.70705e-01,-2.60756e-01,3.82600e-01,3.31955e-01,2.35841e+00,2.08045e+00,2.26847e-01,-7.93010e-03,-5.49225e-01,7.74515e-02,-4.11662e-01,1.63105e-01,
4.14301e-01,-1.31486e-02,3.67408e-01,-3.50182e-02,-4.40534e-01,-3.24197e-01,6.93814e-02,-9.05750e-02,2.68453e-01,1.34560e-02,5.06378e-01,7.98176e-01,-1.02020e-01,4.52348e-01,-1.96195e-01,-2.51422e-02,-2.71399e-01,2.02829e+00,1.12147e-01,7.27103e-01,-1.13660e-01,3.37739e-01,-8.72308e-02,-2.68725e-02,1.58248e-03,3.00272e-02,3.09843e-01,5.29525e-01,4.28814e-02,3.45375e-01,-5.69787e-02,-3.42886e-03,1.35080e-02,-2.89967e-02,-3.51321e-02,-2.90330e-01,-1.29349e-02,6.63755e-02,2.35078e-01,-2.84024e-02,-6.24690e-01,1.62686e-01,-5.89550e-01,-7.74142e-01,-6.85711e-02,-1.50605e-03,1.40739e-01,2.26151e-02,-4.88632e-02,4.82375e-01,
-1.01308e+00,2.44424e-02,9.38839e-02,-4.09534e-02,2.57656e-01,-1.57409e+00,-2.13163e+00,4.80974e-02,-9.10979e-01,3.25404e+00,2.28230e-01,4.65842e-01,-1.95677e-01,7.44441e-01,-1.37097e+00,-2.92138e-02,-3.68454e-01,-4.80947e+00,2.43303e-01,5.16366e+00,-6.82273e-02,-1.57882e-01,2.56914e-01,4.27446e-01,-9.89649e-02,-1.29077e-02,6.93361e-01,-8.06105e-03,-5.06813e-02,-1.29647e+00,1.68344e+00,2.51874e-02,3.17453e-02,-4.95594e-02,1.06492e-01,-1.30391e+00,-1.74869e-02,9.86185e-02,3.18678e-01,6.16231e-02,2.15565e-02,-9.00937e-02,-1.65721e+00,-3.94524e-01,-4.07483e-01,-4.75571e-02,-1.28510e+00,-8.32603e-02,5.26693e-01,5.29757e-01,
4.66106e-01,-1.50639e-02,-1.29768e+00,-1.85944e-01,-4.03443e-01,3.50435e-01,-5.03818e-01,-5.60080e-02,-1.33390e-01,-6.51192e-01,-5.25098e-01,4.19847e+00,5.05016e-02,-3.92733e-01,-1.44754e-02,4.30395e-02,1.96597e-01,-1.94593e+00,-1.75081e-02,1.21626e+00,8.70822e-01,-5.92034e-01,1.74416e-01,-2.24938e-01,1.09357e-01,3.19798e-02,-2.96668e-01,-2.12188e-01,3.70951e-02,1.53008e+00,-6.73280e-02,-6.83246e-03,5.02966e-02,1.07048e-01,-2.99215e-01,2.42998e-01,5.59968e-02,1.42083e+00,8.94721e-02,-6.69312e-03,5.54047e-01,2.54277e-01,-7.30211e-01,-2.51291e-01,3.88654e-01,2.96698e-02,-5.00386e-01,-1.00345e+00,-1.17700e-01,1.29861e-01,
-4.64595e-02,5.16304e-02,-1.47966e-02,-2.20527e-02,-2.35665e-02,2.67751e-02,-5.34102e-02,-5.50786e-02,3.03201e-02,-4.45842e-02,2.90723e-03,3.85799e-02,2.72891e-03,1.62419e-02,-6.24268e-03,4.67676e-02,5.03591e-03,-4.23650e-02,1.29247e-02,-1.07254e-02,-4.97036e-02,1.40048e-02,-1.44399e-02,3.82249e-02,-5.83922e-02,-1.67856e-02,-1.01906e-02,2.08678e-02,-2.00719e-02,-1.56055e-02,4.78130e-02,1.69594e-02,2.22250e-02,-3.50016e-02,4.82533e-03,-3.91550e-02,3.22560e-02,-9.50956e-03,3.32856e-04,2.28480e-02,1.71429e-02,-1.27214e-02,4.45470e-02,-1.65912e-02,-4.06983e-02,-1.82122e-02,-3.52612e-02,3.96557e-03,3.11873e-02,-4.34597e-02,
8.37333e-01,4.78095e-02,-1.24182e+00,7.01750e-01,1.07065e+00,7.19134e-01,-2.93342e-01,1.49468e-01,-3.68834e-02,-6.68635e-01,6.77826e-01,1.80550e+00,4.81495e-01,-1.30481e-01,5.58383e-02,3.58611e-03,-1.93866e-01,-1.97738e+00,4.24682e-01,-1.98889e-01,1.32688e+00,3.89396e-01,9.56492e-01,1.45744e+00,-1.02350e+00,3.91976e-02,-7.93241e-02,8.11024e-01,-5.26329e-02,7.16297e-01,-4.16949e-01,6.17569e-03,-2.36345e-02,1.18154e-01,4.99389e-02,4.61042e-01,2.34681e-02,-4.68001e-01,-2.38195e-01,2.93635e-01,7.58383e-01,-4.26567e-01,1.00617e+00,1.27164e+00,-6.51923e-01,-2.32398e-02,1.97965e-01,1.23540e-01,1.41852e+00,6.11195e-02,
-1.93699e+00,-1.94177e-02,4.72570e-01,-3.38354e-01,-1.16576e-01,-1.49913e-01,-1.71888e-01,5.13924e-01,2.82217e-01,3.61785e-01,6.79663e-01,9.70844e-01,-6.40525e-02,6.55562e-01,-5.47508e-01,5.16283e-03,-4.19137e-01,-1.40658e+00,-1.87040e-01,2.19956e+00,5.88743e-01,-3.86798e-01,1.18722e-01,4.58489e-01,1.96576e-01,3.13464e-03,-7.79538e-01,-3.42152e-01,3.78312e-02,6.36667e-01,-9.23326e-02,-1.75233e-02,3.52338e-02,3.11833e-02,-4.23409e-02,-1.04611e+00,1.21384e-02,6.70377e-01,-2.88273e-01,-3.86306e-01,1.97339e-01,-2.78305e-02,-3.47341e-01,-4.13491e+00,-4.22749e-01,-2.93925e-02,4.82519e-01,4.58933e-01,2.44030e-01,-9.21820e-01,
1.90214e-01,2.06122e-02,-4.10040e-01,-2.93031e-03,5.94854e-01,-4.88705e-02,-6.52167e-02,9.45519e-02,4.27092e-01,-3.48149e-01,-7.66509e-01,1.85246e+00,3.73930e-01,1.69551e-01,-1.31596e-01,-7.31533e-03,8.68640e-01,2.34769e+00,-1.78782e-01,-1.01191e+00,-2.65423e-01,2.64250e-01,1.43112e-01,-5.27832e-01,-8.58923e-02,-2.55021e-02,-8.41154e-02,-4.85891e-04,1.91908e-02,-4.36254e-01,1.34103e-01,2.60282e-02,4.88746e-03,-1.89311e-02,-1.78408e-01,-1.42488e-01,-3.93117e-02,-4.82535e-01,1.00780e-01,1.25468e-01,5.89652e-02,3.53448e-01,3.89888e-01,-1.83794e+00,9.47778e-01,3.06935e-02,4.80416e-01,-1.84415e-01,-1.32575e-02,1.70760e-01,
4.72855e-02,3.30732e-02,3.87500e-01,-1.64450e-01,-7.79935e-02,-4.07794e-01,-1.43915e-02,3.86200e-01,1.63650e-01,5.52557e-01,-3.31076e-01,3.00633e+00,1.39227e-01,2.94688e-01,-2.78892e-01,-1.90057e-02,-3.58514e-01,1.18583e+00,-3.43371e-01,1.36514e+00,-8.90225e-02,-4.60664e-01,7.86644e-01,-4.32427e-01,-7.04075e-02,4.03434e-02,1.03083e-01,-1.40864e-01,-6.17459e-03,-1.68882e+00,1.55848e-01,-1.30310e-02,1.05754e-02,7.82510e-02,1.46917e-01,1.14393e+00,4.04046e-02,2.39605e-01,-3.74462e-01,8.02553e-01,1.18144e-02,1.72490e-01,2.97701e-01,1.92328e+00,-6.28878e-02,-2.87855e-02,-2.98722e-01,-5.07981e-01,3.78251e-02,2.08859e-02,
-1.88516e-01,1.76461e-02,1.79653e-01,-1.36685e-01,7.12573e-02,-1.95411e-01,-6.78350e-01,-4.13538e-01,1.31304e-01,1.92980e-01,3.57234e-01,-2.59177e+00,4.23591e-01,3.86577e-01,-3.35911e-02,1.57257e-02,-9.78828e-02,2.99661e+00,4.25917e-01,-2.28005e-02,-6.19967e-01,-3.89131e-01,5.10349e-02,-8.62372e-02,-3.67396e-01,-9.34137e-03,2.50377e-01,5.08416e-03,-1.02528e-03,8.43450e-01,-7.62574e-01,-4.01429e-02,-2.77019e-02,1.19857e-01,-2.80225e-01,3.16978e-02,-3.33182e-02,-1.28145e-01,3.40716e-02,1.34166e-01,3.70743e-01,-3.32306e-02,4.75463e-01,-1.23367e+00,1.61506e-01,-3.59633e-02,-1.13832e-01,3.38078e-01,2.70333e-01,4.59207e-01,
1.24928e+00,-2.48064e-02,7.22634e-01,-4.85761e-02,5.09320e-01,1.69093e-01,3.71130e-01,3.74308e-01,-4.51420e-01,9.94543e-02,1.16984e-01,-5.73116e-01,1.76207e-02,-3.48782e+00,1.30163e-01,2.86068e-03,7.57481e-02,1.43070e+00,1.08775e+00,1.19329e-01,8.24998e-02,1.14683e-01,3.00475e-01,-2.24449e-02,-6.35621e-01,-6.04828e-03,-3.03756e-01,-5.58434e-01,-4.68368e-02,6.94092e-01,-3.15887e-01,-4.82610e-02,3.92220e-02,3.55775e-02,-4.92667e-01,5.49385e-01,-4.56645e-02,-1.58488e-01,-2.96757e-01,-5.11445e-01,-6.24283e-01,-6.53414e-02,7.99716e-01,-2.17228e-01,-1.07874e-01,4.84219e-02,-5.64017e-01,1.74553e-01,-2.06647e+00,-3.29968e-01,
2.29243e-01,4.35608e-02,3.53451e-01,-3.49618e-01,3.90847e-03,-2.14074e+00,4.57134e-01,-9.57817e-02,1.02663e-01,-3.81888e-01,-1.11120e-01,4.27627e-01,2.94916e-02,-1.02331e+00,-1.41880e-01,-4.75692e-02,-3.63085e-02,4.34413e-01,7.15188e-01,4.56825e-01,-4.83511e-01,-3.90747e-01,-3.26166e-01,7.20908e-01,-1.16313e-01,1.90550e-02,-1.25253e-01,-4.48330e-01,-3.35157e-03,8.78597e-01,-3.09364e-01,-3.33538e-02,-3.20742e-02,2.56176e-03,2.60718e-01,1.00850e-01,2.86444e-02,5.33459e-01,3.17342e-01,-9.94649e-02,2.32480e-01,-1.20042e-01,2.63668e-01,-8.38946e-01,7.61352e-03,-2.15717e-02,9.86540e-02,-2.87859e-01,-1.12183e-01,6.46477e-01,
1.10718e-02,4.02131e-02,4.55170e-01,3.72508e-02,-3.40872e-01,-8.46696e-02,3.99897e-01,-4.75912e-02,3.57024e-01,2.03087e-01,8.25746e-01,-1.38155e+00,8.55032e-01,-2.93183e-03,2.67623e-01,3.52156e-02,-5.29983e-02,4.64345e-01,1.05463e+00,1.33137e+00,-2.44238e-01,-2.15033e-01,2.46195e-01,7.66078e-01,-3.23147e-01,3.31094e-02,2.90174e-01,1.74200e-01,6.37149e-04,7.97148e-01,-9.35503e-01,-1.32061e-02,-3.24249e-02,9.00547e-02,1.87668e-01,9.85596e-01,5.91484e-02,3.06033e-01,6.28400e-01,6.37675e-02,2.45398e-02,-3.56637e-01,7.58328e-01,2.40241e+00,4.14453e-01,1.40510e-02,-5.54579e-01,-3.99580e-01,6.95864e-01,6.79500e-01,
6.94573e-01,3.86636e-03,2.66419e-01,9.97537e-02,-3.18072e-01,-2.05142e-01,-1.37097e-01,-1.76138e-01,3.56856e-01,-3.08397e-01,5.72686e-01,-2.63068e+00,2.98504e-01,1.17529e+00,-4.06075e-01,-2.82475e-02,-6.22114e-02,-1.58744e+00,3.16099e-01,-4.99672e-01,-1.37683e-01,-7.21660e-02,2.63275e-02,-1.68418e-01,7.63496e-02,-2.05295e-03,2.33967e-01,3.69485e-01,-4.54896e-02,-6.31260e-01,4.90373e-01,-9.52891e-03,9.55883e-03,1.18325e-02,9.50438e-02,1.11835e-01,1.89523e-02,-6.20429e-02,2.18277e-02,-3.31162e-01,-4.66528e-01,4.48918e-01,-7.87130e-01,-1.15224e+00,2.20787e-02,-1.34542e-02,1.55314e-01,2.48066e-01,4.39738e-01,-1.69853e-01,
2.65604e-01,2.42090e-02,4.70650e-01,3.25681e-01,-8.82495e-02,-4.63815e-02,2.14506e-01,-8.26790e-02,-2.98173e-02,-6.42789e-01,3.02372e-01,-1.28397e+00,-4.43597e-02,5.62567e-01,-2.44225e-01,-2.37198e-02,-7.27628e-01,3.09665e-01,1.14881e-01,-1.72194e-01,-2.34695e-01,-4.63913e-01,8.34842e-02,8.18311e-02,-2.42108e-01,-1.14534e-02,-1.54601e-01,3.26728e-01,-3.76275e-04,2.25430e-01,-2.68086e-01,2.20691e-02,-2.03771e-02,7.29003e-03,-2.77599e-01,5.05987e-02,2.24209e-02,-1.11301e-01,7.47660e-02,6.83894e-02,-3.81491e-01,2.65530e-01,3.23944e-01,-1.10615e+00,-3.92047e-02,-3.41917e-02,1.33352e-01,6.30739e-02,-1.57126e-01,-1.66505e-01,
-2.62879e-01,2.52944e-02,3.14666e-01,-1.54915e-01,-5.48825e-01,-8.50968e-01,5.27158e-01,-1.97026e-01,-2.49146e-01,7.81996e-01,-2.04983e-01,-4.13501e-01,4.64853e-01,9.97665e-02,-1.97642e-01,-2.77928e-03,1.91370e-01,-8.09165e-01,-1.48952e+00,5.13402e-01,-3.59431e-01,7.50586e-01,3.98571e-01,-3.86385e-01,3.52506e-01,4.43147e-02,9.49680e-01,-4.49189e-01,5.57439e-02,-2.59619e-01,1.75668e-01,5.12210e-02,-4.02864e-02,1.01877e-01,-1.01320e-01,1.57368e-01,-2.60464e-02,-1.56288e-01,-3.03851e-01,-2.39769e-01,-4.62029e-01,6.66181e-01,8.06074e-01,-1.42005e+00,3.30436e-01,-2.29821e-02,-1.83222e-01,-5.66491e-02,-6.85195e-01,5.65315e-01,
1.91259e+00,-8.21165e-03,8.87774e-01,2.60360e-01,-5.00922e-02,2.01653e-01,1.53367e-01,1.02302e+00,-5.10411e-01,6.79420e-01,1.81990e-02,-3.20148e-02,3.72594e-01,-7.22768e-01,4.04125e-02,2.70340e-02,1.25025e-01,-6.66263e-01,-3.96275e-01,1.15445e+00,-7.33560e-01,4.78599e-01,-4.59628e-01,1.16141e+00,-2.34393e-01,4.37602e-02,-5.53969e-01,1.60300e-01,-1.38837e-02,-8.49698e-02,9.80073e-01,-2.18453e-02,-3.91812e-02,1.05868e-01,-1.32804e-02,8.11152e-01,1.31734e-02,-4.20008e-01,-1.28081e-01,-7.26966e-01,3.70929e-01,6.34894e-01,4.23270e-01,2.40051e-01,3.41180e-01,2.47705e-02,-4.09956e-01,8.67461e-01,-1.04120e+00,3.72539e-01,
5.61244e-01,-1.55209e-02,3.84213e-01,-3.30831e-01,1.69301e-01,5.70284e-01,1.01342e-01,-8.68009e-02,4.37240e-01,8.78415e-01,6.54392e-01,2.43066e+00,6.19448e-01,4.15023e-01,3.60739e-01,-9.73966e-04,-5.12459e-01,-4.83353e+00,-4.62181e-01,-5.21568e-01,3.23176e-01,-4.64610e-01,4.09005e-01,1.25414e+00,-6.66891e-02,3.96260e-02,1.16795e-01,-2.75706e-01,-4.66399e-02,-4.19880e-01,2.03399e-01,-2.34905e-02,-4.19164e-02,-2.19353e-02,-1.62348e-01,2.57575e-01,1.23324e-02,5.00304e-01,-6.74785e-01,4.15610e-01,-1.43224e-02,1.23454e-01,-3.43422e+00,1.02456e+00,-6.56174e-01,4.32686e-02,-9.09668e-01,7.41534e-01,1.28973e+00,-1.43233e+00,
-1.50699e+00,-1.29481e-02,2.19645e-01,5.86465e-02,-5.82300e-01,3.59981e+00,1.04370e+00,3.70741e-01,-7.92953e-02,-2.69132e-01,3.36605e-01,2.31439e-01,4.00136e-01,-3.46304e-01,5.33494e-02,2.56516e-02,6.30935e-01,-8.39287e-01,-1.95210e-01,-4.49276e-01,-5.73876e-02,4.81791e-02,3.74409e-01,-9.01083e-01,-3.31174e-01,2.06800e-02,-2.31851e+00,-1.33154e-01,3.72842e-02,7.55932e-01,-5.22241e-01,-5.74035e-03,1.73553e-02,-5.51444e-02,-7.10013e+00,4.34242e-01,1.90679e-02,-3.17681e-02,-2.65825e-01,2.25672e-01,3.97585e-01,7.95940e-02,-2.81923e-01,8.48404e-01,-2.34246e-01,-1.03979e-02,6.78177e-01,-5.68685e-01,-2.71833e-01,-2.40091e+00,
4.45290e-01,4.24146e-02,1.70038e-01,9.32164e-02,-4.27651e-01,-8.34460e-02,-1.48942e-01,-1.44124e-01,6.09610e-01,-2.15988e-01,2.52111e-01,7.07890e-01,-9.46310e-02,-2.85452e-02,3.15161e-02,-1.85226e-04,-6.52205e-01,-6.80680e-02,-2.82493e-02,-1.71371e+00,2.61090e-01,-2.56873e-01,-5.78528e-01,2.29559e-01,3.82148e-01,1.98048e-02,5.04407e-02,1.42565e+00,3.85564e-02,8.55186e-01,3.71349e-01,-1.95279e-02,2.49659e-02,9.97992e-03,1.80458e-01,-5.32563e-02,-4.50699e-02,-1.28628e-01,3.01683e-01,3.00472e-01,4.98532e-01,-1.86831e-01,-7.45391e-01,1.09399e+00,1.57352e-01,-2.30567e-02,-8.36116e-02,-4.21313e-02,2.26867e-01,1.08207e-01,
-1.04952e-03,-3.56387e-02,-1.28257e-01,6.67006e-01,-5.35531e-02,-6.71146e-01,3.05116e-01,7.97900e-02,2.00025e-01,-3.67967e-01,1.97212e-02,1.72818e-02,3.53954e-01,2.43770e-01,3.67996e-01,-2.70987e-02,-6.04131e-01,-5.32261e-01,7.20880e-02,-3.76157e-01,1.97850e-01,-5.13677e-02,4.75062e-01,-4.81348e-01,2.09006e-01,-9.48732e-03,3.15824e-01,5.55012e-01,8.80604e-03,4.55818e-01,-4.54264e-01,-2.86687e-02,-2.80377e-02,1.15579e-01,-4.04972e-01,2.08458e-01,1.64632e-02,-6.73661e-01,2.01240e-02,1.85252e-01,-1.05844e-01,-4.23768e-01,1.17611e-02,3.91800e-01,-4.99893e-01,4.94082e-04,-7.64253e-02,-5.98104e-02,-1.40349e-01,4.70528e-01,
2.23146e-01,8.16312e-03,1.01477e+00,3.09175e-01,1.08965e+00,6.70064e-02,-2.17405e-01,-6.46420e-01,-3.10610e-02,-5.28986e-01,8.96409e-01,9.49708e-01,3.74531e-01,2.35715e-01,3.68448e-01,-3.13139e-03,2.01248e-01,1.23884e+00,9.25703e-01,8.90437e-01,-7.26582e-01,-1.65439e-02,-1.79742e-01,2.23276e-01,1.49593e-01,3.01595e-04,6.42736e-02,-2.48536e-01,-3.26881e-02,2.05934e-01,-3.14556e-01,-3.13629e-02,2.01416e-02,1.46415e-01,1.97923e-02,-1.03001e-01,2.30888e-02,7.78784e-01,4.39306e-01,-2.35794e-01,-1.81524e-02,3.07453e-02,5.11056e-01,2.90029e+00,8.42438e-02,3.11810e-02,-1.68166e-01,-9.50036e-01,5.53892e-01,8.79284e-02,
4.63993e-01,-4.53451e-02,8.03350e-01,-2.09216e-01,7.74009e-02,-1.55152e+00,1.54327e-01,5.92009e-02,5.21354e-02,-4.18063e-01,5.86236e-01,-1.04695e+00,-1.05613e-01,-6.25281e-01,-6.89305e-02,4.76814e-03,-4.23640e-01,-3.08408e-04,5.19587e-01,-4.92785e+00,-2.43805e-01,-8.39158e-01,-3.59737e-01,-9.76460e-02,-9.55510e-01,3.88324e-02,-5.47978e-02,-8.05344e-01,-4.02784e-02,8.56976e-01,-1.98954e-01,-3.28974e-02,-2.20334e-02,-4.01969e-02,2.60446e-01,-9.38717e-01,-3.96508e-02,4.36395e-01,-1.50112e-01,4.34078e-03,-8.22754e-01,6.35494e-01,7.42076e-01,2.17941e+00,-1.22220e-02,-2.89851e-03,4.72832e-02,-1.95622e-01,6.47140e-01,-1.34866e-01,
8.14700e-01,-1.41478e-02,6.11746e-02,-1.42348e-01,2.53095e-01,-1.70545e-01,7.51898e-01,-5.75363e-02,4.26075e-01,3.65604e-01,-9.30246e-02,-1.84140e+00,1.35162e+00,1.33041e-01,-1.64428e-01,-3.28993e-02,-3.46915e-01,5.01034e+00,-6.83280e-01,1.64567e+00,9.86333e-03,-2.20973e-01,2.67714e-01,-4.50287e-01,-2.97253e-01,-1.04643e-02,-2.13095e-01,4.62711e-02,-1.78283e-02,1.46327e+00,1.63447e-01,-1.85240e-02,2.07354e-02,8.11985e-02,-1.76786e-01,-2.70814e-01,4.00355e-02,1.05430e-01,1.05392e+00,4.81242e-01,-9.32777e-02,1.27172e-01,1.47000e-02,-2.11463e-01,3.72746e-01,6.01538e-02,8.08917e-02,3.17980e-01,6.62119e-03,7.59760e-02,
-5.78824e-01,-9.47448e-03,7.95497e-01,2.13907e-01,1.75997e-01,-6.15514e-01,2.00219e-01,-3.74126e-02,-3.30384e-01,8.63951e-01,2.12834e-01,7.15232e-01,4.13152e-01,5.18450e-01,2.96254e-01,-2.17716e-02,3.51895e-02,1.49853e+00,8.79623e-02,3.55213e-01,3.82537e-01,-3.35697e-01,1.08701e+00,-5.13080e-01,-5.28113e-01,-6.03840e-03,5.07331e-01,3.81830e-01,-3.85887e-02,8.17800e-03,-3.31465e-03,-2.13310e-02,-4.89781e-02,8.63187e-02,-1.32972e-01,-4.98821e-01,3.65904e-02,-4.49807e-01,-1.42443e-01,8.75620e-01,-1.12761e-01,1.72775e-01,-4.40159e-01,2.91960e-01,-6.04912e-01,1.62661e-02,5.87679e-02,-2.06233e-02,-2.76547e-01,-1.77491e-01,
-2.09056e-01,-4.34864e-02,-1.62976e-01,-1.18285e-01,-3.14647e-01,-2.01346e-01,5.02369e-01,-2.56305e-01,7.08812e-01,8.46639e-02,1.34057e-01,-2.50430e+00,-3.59881e-01,7.71304e-02,-7.27605e-02,-1.74659e-03,9.69584e-02,-6.32866e-01,-2.11195e-01,7.39549e-01,2.25930e-02,-1.82768e-01,4.05531e-01,-2.14268e-01,-4.50657e-01,4.09417e-02,2.63428e-01,1.77331e-01,2.35299e-02,-4.47479e-01,9.88742e-04,3.44015e-02,2.63814e-02,1.01593e-01,-3.72242e-01,7.63595e-01,6.34800e-03,-3.00096e-02,-2.24046e-02,5.70408e-01,-1.35432e-01,-4.86979e-01,1.22840e-01,-1.22841e+00,2.65828e-01,3.35049e-02,-2.43068e-01,-1.79970e-01,-1.68624e-02,-1.27578e-01,
-8.37495e-02,3.74535e-02,3.55607e-01,-1.32679e-01,1.92675e-01,-8.02755e-01,9.72271e-01,3.44079e-01,-2.41754e-02,4.84501e-01,-8.74707e-02,-7.87790e-01,3.38393e-02,3.27563e-01,3.77058e-01,-5.23863e-03,-1.25975e-01,-2.24726e-01,-7.04875e-02,1.56183e-01,-2.17576e-01,-4.67139e-01,1.04382e+00,-7.82047e-01,2.92841e-01,1.33476e-02,5.79814e-01,1.32982e-01,1.06572e-02,6.70171e-01,-7.17033e-01,1.43351e-02,3.54578e-02,-4.54512e-03,-7.22113e-01,7.91531e-01,3.90445e-02,-1.71246e-02,2.45352e-01,5.72238e-01,-1.80436e-01,1.30973e-01,4.54670e-02,2.12212e+00,-4.58313e-02,1.69130e-02,-4.33773e-01,-4.61170e-01,-4.76399e-01,-6.58536e-02,
-8.83061e-01,-1.59333e-02,-1.04558e+00,-9.66961e-02,1.34937e-01,-8.56103e-01,6.81033e-01,6.90955e-02,-4.88605e-02,1.07924e+00,1.14290e-01,3.55030e-01,1.01773e-01,6.77254e-01,-2.64572e+00,2.28658e-02,-1.60333e-01,-3.98486e-01,-4.11038e-02,1.24955e+00,8.30903e-02,-5.99638e-01,-2.18514e-01,-3.13361e-01,-1.71752e-01,1.62378e-02,1.34747e+00,8.12550e-01,4.51196e-02,-4.87268e-01,-5.50307e-02,-7.43635e-03,-3.08981e-02,-4.39644e-02,-1.01377e-01,1.88437e+00,2.71988e-02,-9.47768e-02,1.61249e-01,7.54037e-01,-1.17584e-01,-8.35707e-01,3.25050e-01,-1.26204e-01,-3.47144e-01,1.22289e-03,-1.60682e-01,-1.06595e+00,-4.63370e-01,2.50561e-02,
-4.11483e-02,1.81990e-02,5.72180e-03,1.43706e-02,-5.93960e-03,-1.69551e-02,-1.03151e-02,-3.30650e-02,-1.48373e-02,-1.53062e-02,4.60962e-03,3.52828e-02,-5.50310e-02,2.58785e-03,-1.83726e-03,1.10449e-02,-1.02640e-02,-5.06742e-03,-4.99208e-02,-2.99895e-02,3.59679e-02,3.72757e-03,-1.87993e-03,-3.39727e-02,8.16380e-03,-3.62350e-03,-6.63976e-03,2.97883e-02,-1.32268e-02,-4.50807e-02,-1.84223e-03,-3.78547e-02,4.64879e-02,1.42183e-02,-5.92853e-02,-4.95295e-02,-3.35074e-02,-2.58594e-03,-1.34311e-02,1.42878e-02,-4.31754e-02,1.75451e-02,-2.21865e-02,-4.83357e-02,-6.05539e-03,9.20466e-03,-4.42694e-02,2.30268e-02,-1.26105e-02,7.94843e-03,
-2.73274e-01,-3.39933e-02,-6.36293e-01,7.68612e-02,-4.03390e-01,-3.70748e-01,-2.25315e-03,-6.51496e-02,4.04905e-01,8.34390e-01,-5.05086e-02,1.72092e+00,-3.14497e-01,7.73186e-02,7.32888e-02,-3.36058e-02,4.48936e-01,-2.71399e+00,4.30434e-01,-7.13386e-01,1.92597e-02,-2.16619e-01,4.69766e-01,2.35379e-01,1.79006e-01,-8.15683e-03,4.44242e-01,1.78405e-01,-2.69844e-02,1.39197e-01,4.33404e-01,3.74116e-03,-1.76639e-02,6.42020e-02,-1.66499e-01,1.10195e+00,-2.85156e-02,-4.08978e-01,5.15680e-02,6.92634e-01,2.18701e-02,-2.02968e-01,4.91075e-01,6.94230e-01,2.80595e-01,-1.94923e-02,-2.13912e-01,-7.48319e-02,4.74992e-02,3.38326e-01,
-1.34385e+00,-2.97175e-02,9.54434e-02,-2.89310e-01,-3.14595e-01,-2.41268e+00,9.31025e-01,-1.43935e+00,5.29563e-01,9.64865e-01,-1.71249e+00,-9.08950e-02,1.41067e-01,9.11441e-01,-2.78709e-01,4.34189e-02,-1.23901e-01,-1.69442e+00,-1.77651e-01,-2.04215e+00,-7.76014e-02,2.38426e-01,1.25303e+00,-3.41040e-01,-2.95332e-01,-8.97015e-03,-5.70239e-01,-1.29191e-01,2.97742e-02,-5.93826e-01,3.60843e-01,-3.35253e-02,-9.03353e-03,-3.94777e-02,-3.55925e-01,3.94689e-01,-9.62829e-03,-3.98569e-01,6.00963e-01,9.67995e-01,-1.01723e+00,2.63106e-01,1.45669e+00,-1.81956e+00,-5.21786e-01,3.68184e-02,6.42725e-01,-7.35933e-01,-2.91948e-01,5.13958e-01,
2.66746e-02,4.34240e-02,-3.04861e-01,-3.15509e-01,6.06440e-01,-1.02280e-01,5.49077e-01,3.09743e-01,8.90481e-01,-4.68144e-02,7.36704e-01,2.59330e+00,5.59754e-01,4.21661e-01,-1.64812e-01,-4.69603e-02,1.83259e-02,8.53277e-01,-6.86727e-01,9.75291e-03,-1.08829e+00,-2.96255e-01,3.68555e-01,2.06820e-02,-1.46216e-01,3.23967e-02,-2.21138e-01,4.20894e-01,-3.43092e-02,-1.48463e+00,-5.49328e-01,4.57999e-02,-1.48475e-02,9.00644e-02,-2.24707e-01,1.44352e-01,-3.00823e-03,-1.06054e-01,3.10475e-01,6.85790e-01,-3.03054e-01,1.23984e-02,4.81924e-01,-1.44410e+00,1.26040e-03,2.41113e-02,-5.44785e-01,-3.01002e-01,1.04478e-01,2.29225e-01,
4.17933e-01,-2.94682e-03,4.28596e-02,6.82755e-02,-1.59282e-02,2.30673e-01,3.30108e-01,-6.86605e-01,1.89027e-01,3.92873e-01,9.41017e-01,-7.55747e-02,4.39721e-01,-3.71069e-01,-2.34274e-01,4.87208e-02,-3.94389e-01,8.92701e-01,-1.56853e-01,-5.12146e-01,1.64241e-01,3.54795e-01,-8.72835e-02,1.07872e+00,-1.18108e+00,-2.64795e-02,-7.25254e-01,-3.19965e-02,-1.95770e-02,8.77427e-01,-7.81154e-01,-2.21057e-02,-4.39096e-02,-6.07260e-02,1.32266e-01,2.26555e-02,4.51069e-03,8.40817e-02,8.19835e-02,5.15286e-01,-2.09867e-01,2.90819e-01,3.53970e-01,-4.62365e+00,3.39189e-01,-2.32336e-02,-2.70087e-01,-2.65015e-01,-4.26625e-01,2.14645e-01,
3.39526e-01,3.30442e-02,6.48489e-01,-2.67542e-01,-3.11352e-01,6.92490e-01,-2.34380e+00,-4.70720e-01,1.25860e+00,1.97028e-01,9.89065e-01,-6.08843e-01,-6.60919e-01,-3.12397e+00,1.45927e+00,-2.07069e-04,-1.12400e+00,-1.03503e+00,8.05819e-01,-1.43012e+00,-1.74474e+00,5.66659e-01,-4.49351e-01,-7.21104e-01,-1.25091e+00,-3.87110e-04,1.43544e-01,-2.76633e+00,1.95206e-02,2.74728e+00,1.63000e-02,-2.26864e-02,4.23453e-02,3.58316e-02,-1.05307e+00,-7.75733e-01,-1.29094e-03,9.97421e-01,-9.32259e-01,8.22385e-01,5.06523e-01,3.77352e-01,-1.75599e-01,-1.84446e+00,6.56137e-01,-2.06910e-02,-1.48237e+00,-2.01441e+00,-1.59670e+00,-1.53218e+00,
-6.40366e-01,
-6.49973e-01,
-1.53852e+00,
8.33610e-01,
2.19204e-01,
-1.30118e-01,
-1.38633e-01,
-3.77644e-01,
-2.69352e-01,
2.19099e-01,
-1.37473e+00,
-2.61810e-02,
5.86677e-01,
-3.43815e-01,
-5.66897e-01,
-8.76618e-01,
2.03970e-01,
3.46750e-01,
-1.08254e+00,
3.74587e-01,
-1.87114e-02,
-2.96011e+00,
-1.76462e-01,
-8.71784e-02,
-4.33689e-01,
4.93335e-01,
3.87147e-01,
5.76512e-02,
-9.33775e-02,
-5.95530e-01,
-1.78489e-01,
-9.51108e-02,
1.85495e-01,
-1.20758e+00,
-8.78305e-01,
-1.06032e+00,
-2.89328e-01,
4.77606e-01,
1.70583e-01,
2.18489e-02,
-1.02702e-01,
2.63157e-01,
-8.72598e-01,
-1.21699e+00,
-3.43462e-02,
-8.60188e-01,
-6.49092e-01,
-2.19845e-01,
-4.83324e-01,
2.50494e-01,
-1.65751e-01,-3.45430e-01,5.24621e-01,-4.16011e-01,2.24735e-01,2.77938e-01,5.40876e-01,-5.32027e-01,7.63196e-01,-7.18997e-02,-5.09428e-01,-3.70454e-02,5.14860e-01,5.24039e-01,6.36123e-02,-9.11751e-01,-3.19651e-02,-5.17524e-02,1.18566e+00,2.35305e-01,-3.07808e-02,8.84178e-02,1.50621e+00,-7.27946e-01,2.58782e-01,5.83340e-01,2.33463e-01,1.49234e+00,2.73852e-02,6.72919e-01,-6.58195e-01,-8.22214e-01,-5.56131e-01,-7.41405e-01,-4.71829e-01,2.82924e-01,-6.32556e-02,4.90948e-01,-4.00639e-01,-4.74581e-01,-7.98283e-02,-3.74857e-01,-5.48227e-02,-3.84348e-01,-3.98113e-02,8.04033e-02,7.33995e-02,5.25899e-01,-1.79698e-01,1.50110e-01,
9.13184e-01,-1.24598e+00,8.25684e-01,-3.71067e+00,-6.91718e-02,1.85522e-01,-1.47489e+00,-5.52230e-01,3.17743e-01,1.59844e-01,9.17597e-01,7.14240e-03,-1.26947e-01,-3.26764e-01,5.06733e-01,5.12869e-01,5.93827e-02,-6.96043e-01,-1.02853e-01,-2.84651e-01,-2.93971e-02,-5.56778e-01,-3.06526e+00,-1.10878e-01,2.73290e-01,-5.98031e-01,-9.72083e-01,-7.82977e-02,5.58058e-01,-3.15643e-01,-1.15581e-01,5.71113e-01,8.24193e-02,-5.40254e-01,-2.50635e-01,6.48298e-02,4.45135e-01,6.00270e-01,-2.23745e-01,2.84236e-01,1.00870e-01,-6.28314e-01,4.98649e-01,1.88052e-01,4.56269e-03,-4.52372e-01,-1.57232e-01,-1.14456e-01,-3.52682e-01,-1.30327e-01,
-2.38237e-01,-4.28654e-01,4.05371e-01,-5.77719e-01,-6.08562e-01,4.49989e-01,-2.45469e-01,2.49132e-01,2.89367e-01,-9.06750e-02,2.28875e-01,-1.87890e-02,5.35110e-01,1.66491e-01,6.11968e-03,-8.51238e-01,-1.94305e-01,1.08188e-01,-2.53432e+00,-1.05459e-02,4.77265e-02,1.78378e-02,8.50494e-01,-1.36457e-01,-5.13421e-01,1.52649e-01,-5.47643e-02,-5.14330e-01,7.51619e-02,8.23935e-01,2.85590e-02,-3.33565e-01,2.94497e-01,-1.76089e-01,-7.12253e-02,-2.98831e-01,7.10177e-01,-3.98174e-04,2.52374e-01,-1.20736e-01,-5.80132e-02,7.62074e-01,-3.78411e-01,3.23984e-03,1.55250e-02,1.16020e-01,2.18594e-01,1.14602e-02,3.77788e-01,-1.22318e-01,
-1.78792e-01,-2.24670e-01,1.84633e-01,7.05980e-01,2.07528e-01,-8.98265e-01,6.51753e-02,1.85983e-01,-1.42131e-01,-1.43722e-01,-5.82545e-01,2.57016e-02,-3.61090e-01,1.22762e-01,6.13194e-01,-7.68871e-01,2.39781e-01,-2.35305e-01,-5.07151e-02,1.99526e-01,-2.84116e-02,-3.12534e-01,1.73658e-01,1.19062e-01,-1.54661e-01,4.39393e-01,-2.78281e-01,1.38408e+00,1.02843e-01,2.86564e-01,-9.34694e-02,-3.01681e-01,-1.28079e-01,6.70555e-01,2.37215e-02,1.18644e-01,3.78846e-02,1.37133e-01,-1.44217e-01,-3.17123e-01,-9.25343e-02,-5.37961e-01,-3.24427e-01,-2.37507e-02,2.32119e-03,-9.61371e-02,7.65199e-01,5.65155e-01,-8.08528e-01,5.93244e-02,
-9.75133e-02,6.53398e-02,-1.30400e-01,-1.74720e+00,5.57641e-02,7.86922e-03,1.40530e-01,3.42891e-02,-2.97313e-01,2.06309e-02,-6.19943e-02,-1.34884e-02,8.93173e-02,8.47831e-02,5.65509e-02,-1.56483e-02,1.35838e-01,7.26510e-03,-5.60534e-02,-6.66260e-02,5.15197e-03,9.46075e-02,2.05139e-01,4.86228e-01,-5.03794e-02,-3.12171e-01,1.32718e-02,-3.33754e-01,8.54502e-02,3.19938e-02,-5.61445e-02,-2.41541e-02,-9.30081e-02,4.54172e-02,-8.97182e-02,-1.73123e-01,-1.59866e-01,4.95816e-02,7.00355e-02,3.97504e-01,-1.53941e-01,2.03053e-01,-1.31159e-01,1.11966e-01,3.80823e-02,2.11812e-01,-4.11414e-02,-7.45902e-02,3.13014e-01,-2.45765e-02,
6.99760e-01,-5.70095e-01,4.36726e-01,-5.88520e-01,-3.07168e-01,4.98215e-01,-2.66758e-01,-3.53341e-01,5.86464e-01,-3.65342e-02,-1.01596e+00,6.79585e-03,7.81329e-01,1.96253e-01,4.07280e-01,1.29739e-02,-3.70923e-01,-2.14626e-01,-1.22854e-01,-2.22805e-01,2.96117e-02,-1.84974e-01,-4.54048e-01,-4.87207e-01,6.43057e-01,-2.96557e-01,-8.28651e-01,3.88323e-01,2.77704e-01,-1.92712e-02,-3.00377e-01,2.73247e-01,-2.99925e-01,-1.34504e-01,-6.42823e-01,1.01694e+00,-3.39709e-02,-3.41425e-01,2.10188e-01,3.71085e-01,6.44676e-01,4.16737e-01,1.63407e-01,5.90897e-01,-2.43301e-02,1.02575e-01,7.21716e-01,3.54697e-01,2.40597e-01,-2.11904e-01,
-7.87676e-02,3.40022e-02,5.89098e-02,6.31762e-01,-1.04029e-02,-1.07050e-01,-2.85234e-01,-4.51896e-01,3.87761e-01,-3.36896e-02,-7.91177e-02,4.35742e-02,-2.24204e-01,4.67910e-01,-1.84400e-01,-4.97784e-02,-7.99422e-02,3.37805e-01,6.16339e-01,-1.35998e-01,-4.91533e-02,-5.82364e-01,-4.08823e-02,-1.07284e+00,-2.48766e-01,8.39448e-02,1.01331e-02,-5.83352e-01,-6.86991e-01,-6.55666e-02,-9.20494e-02,3.07197e-01,1.95980e-01,6.03021e-01,-2.55440e-02,-1.27355e-01,4.08521e-01,2.35685e-01,1.89636e-01,-1.33623e-01,-4.45169e-01,3.41933e-01,2.54319e-01,-6.64209e-02,3.04665e-03,-2.77171e-01,1.39711e-01,1.49499e-01,5.07206e-01,3.34940e-02,
2.58236e-01,-7.69002e-02,6.84665e-01,-3.87175e-01,-2.33203e-01,1.96099e-01,-1.35139e-01,-4.32631e-01,6.79590e-02,5.21888e-01,-1.06005e+00,-3.49228e-02,7.01478e-01,1.79728e-01,3.85014e-01,2.21548e-01,-1.57476e-01,5.94925e-02,1.41095e-01,-2.76366e-01,2.68117e-02,-1.88778e-01,-3.03309e-01,-1.43334e-01,2.19505e-02,-7.11923e-02,-7.96368e-01,9.19799e-02,2.54368e-01,1.27536e-01,9.66601e-02,6.41585e-02,1.36214e-01,-9.12327e-01,-4.98146e-01,1.02031e+00,-5.57496e-03,-6.25874e-01,-2.71079e-02,2.52924e-01,4.86728e-01,-2.58402e-01,6.55948e-01,7.13306e-01,-4.02909e-02,2.29267e-01,1.74534e+00,2.14240e-01,1.15509e-02,-3.79899e-02,
-3.50643e-01,9.04333e-02,-2.08733e-01,1.57304e-01,7.26501e-02,1.10048e-01,2.53907e-01,-1.90913e-01,5.25627e-02,1.75237e-03,5.53261e-02,3.06474e-02,-3.02544e-02,1.28006e-01,2.33832e-01,4.82069e-02,-1.57831e-01,3.36668e-01,-1.16599e+00,1.94989e-01,2.54949e-02,-3.34538e-01,-5.08950e-01,-3.40321e-01,-9.06241e-02,2.25146e-01,-2.16000e-01,-8.99611e-01,-1.68588e-02,-3.01701e-01,2.29803e-01,1.36486e-01,3.07447e-01,6.43837e-02,4.12463e-01,4.82097e-03,-2.39254e-01,-6.23236e-02,7.64454e-02,5.26487e-01,1.08308e-01,1.59896e-02,-3.57698e-01,2.62966e-01,3.24880e-02,1.10732e-03,2.46353e-01,9.93635e-02,-4.77379e-01,1.01104e-01,
-1.30914e-01,1.05298e-01,7.34465e-02,2.22647e-01,8.88157e-01,-6.84165e-01,-8.25035e-01,6.54079e-02,1.34138e-01,-5.91764e-02,2.58956e-01,-8.19125e-04,-3.83931e-02,4.99042e-01,1.58984e-01,7.40397e-01,-2.09396e-01,-1.21435e-01,-4.56829e-02,-1.06788e-01,1.01413e-02,-2.33971e-02,1.80776e-01,-5.45257e-01,7.72789e-03,3.72041e-01,1.43361e-01,2.27176e-01,8.51588e-02,4.43052e-01,1.60597e-01,3.31280e-01,8.33080e-02,-1.59212e-01,5.67174e-01,-1.58304e-01,-1.81910e-01,-9.55315e-02,2.25986e-02,-1.64228e-01,-6.57383e-02,-1.63901e-01,-4.29380e-01,-8.13160e-01,-6.96484e-03,-4.20280e-02,-2.21353e-01,-3.31961e-01,-7.14621e-02,6.42946e-02,
6.92475e-01,-1.57909e+00,-3.08089e+00,-9.67975e-01,-9.73627e-01,2.28258e+00,9.60568e-01,3.41450e-01,-1.67505e+00,-7.84119e-01,-2.19519e+00,6.03683e-03,9.72816e-02,-1.18207e+00,4.30612e-01,-9.33188e-01,6.04842e-01,1.02833e+00,-7.37265e-01,1.71296e-01,-2.56724e-02,2.78469e+00,-1.88731e+00,-1.34898e+00,-3.07540e-01,-4.36427e-01,-2.50946e-01,-2.14164e+00,7.05000e-01,-1.69810e+00,-1.93388e+00,-1.54354e+00,-1.44810e+00,-2.16344e-01,-8.78889e-01,-9.96896e-01,3.23035e-01,1.00111e+00,-9.66986e-02,1.21729e+00,-1.75840e+00,1.53251e-01,1.38416e-01,-9.56391e-02,-2.42104e-02,-1.36284e+00,2.21404e+00,-1.70605e+00,-1.54111e+00,3.75835e-01,
-1.96092e-01,-3.01816e-01,5.15451e-02,-1.13329e+00,-1.44621e-01,-1.47443e-01,6.23951e-01,6.61855e-01,9.49355e-01,1.53754e-01,-4.41121e-01,1.74245e-02,-4.21665e-01,-1.10735e-01,3.53478e-01,-4.53242e-01,-2.66331e-01,-6.01710e-02,1.79594e-01,-1.94528e-01,-1.15979e-02,3.47863e-01,-3.84495e-01,5.24569e-01,-1.47951e-01,3.08635e-01,-3.24475e-02,-3.55504e-01,-9.70320e-02,2.38208e-02,-2.09263e-01,2.06095e-01,-6.70797e-02,-5.50776e-02,1.42658e-01,3.30291e-01,-1.16086e-01,2.37570e-01,-3.00120e-01,2.22306e-01,-1.33441e-01,-3.52963e-02,3.86781e-01,2.21627e-02,7.90038e-03,-3.97643e-01,2.83019e-01,-1.35152e-01,-9.35244e-02,-9.00689e-02,
-1.38526e-01,-1.09141e+00,6.71961e-01,7.74022e-01,-5.89841e-01,-2.48369e-02,-1.28178e-01,-3.35780e-01,3.75655e-01,-2.39985e-01,-6.99584e-01,-4.62476e-03,1.84192e+00,3.68773e-01,1.25614e-01,4.79790e-01,-7.57575e-02,3.25810e-01,-2.48258e-01,-2.74940e-01,-4.72970e-02,-7.95773e-01,1.39177e+00,-1.34003e+00,1.06825e-01,-8.20710e-01,-1.49781e+00,6.94209e-01,-2.03402e-02,-3.82657e-01,-1.14944e+00,6.32958e-01,-5.86298e-01,-1.56518e-01,4.86472e-01,8.86162e-01,6.35235e-01,-3.01468e-01,5.96879e-01,-3.19304e-02,1.55141e-01,-9.79458e-02,5.70087e-01,-4.96679e-02,4.50715e-02,2.40242e-01,6.18511e-01,-2.07968e-01,-1.10593e+00,-1.46449e-01,
-1.85039e-01,3.66050e-01,-2.52634e-01,-1.05220e-01,1.87626e-01,3.68278e-01,3.74830e-01,4.74220e-01,-6.12754e-01,8.44480e-02,-1.71908e-01,-4.56369e-02,-1.64858e-01,5.92103e-02,-5.49931e-02,3.38950e-01,-5.32337e-02,1.83009e-01,3.63661e-01,1.37846e-02,-2.07899e-02,6.73839e-01,-7.47433e-02,8.16720e-02,-2.86397e-02,4.22718e-01,1.98914e-01,4.34159e-01,-4.51569e-02,6.08519e-01,-1.65350e-01,2.80882e-01,-7.77496e-02,1.13345e-01,2.21642e-01,5.23643e-03,2.39521e-02,-7.01291e-02,3.23773e-04,-3.62858e-02,3.97262e-01,2.67041e-01,-5.45645e-01,-2.43652e-01,3.58313e-02,-8.14821e-02,-9.66249e-01,3.54366e-01,-6.37262e-01,1.69648e-02,
5.90362e-01,-1.84473e+00,4.37402e-01,-2.54912e+00,-1.60059e-01,2.02881e-01,-5.27354e-01,-9.87986e-01,-9.23745e-01,2.15813e-01,2.85071e-01,-4.80827e-02,2.47120e-01,8.08608e-02,-1.87458e+00,3.67922e-01,3.43691e-01,-1.91170e+00,-1.15007e+00,-1.24658e-01,4.53438e-02,-4.37600e-01,-4.19503e-01,2.17158e-01,-1.07375e+00,2.38258e-04,4.47251e-01,-4.97943e-01,3.78932e-01,-1.20949e+00,-1.46849e-01,-1.25720e+00,3.77060e-01,-3.98977e-01,8.07588e-01,-1.30108e+00,1.84688e-01,6.82343e-01,-9.88566e-01,1.99816e-01,-1.52025e-01,-2.09625e+00,3.69873e-01,6.11601e-02,2.75573e-02,-1.13026e+00,1.49337e+00,-1.69236e+00,-1.02595e+00,7.51674e-02,
-4.36772e-01,-2.85961e-01,-1.95051e-01,2.26289e-01,-8.05674e-02,8.21079e-01,-4.47762e-01,-1.55850e-01,-6.41571e-01,2.58509e-01,5.50985e-02,2.82079e-02,6.56264e-01,7.90058e-01,2.28034e-02,6.44416e-01,-3.46538e-01,2.67743e-01,-2.75510e-01,-8.11047e-02,-4.17684e-03,1.16222e-01,-1.14263e+00,-6.80897e-01,1.95740e-01,5.55116e-01,-1.70548e-01,-1.37597e+00,-9.07341e-02,-5.53936e-01,-3.03620e-01,-1.52831e-02,5.00373e-01,-4.69932e-01,2.83181e-01,4.33584e-01,6.50014e-02,-6.79478e-01,4.80125e-01,2.18102e-01,-2.80760e-01,-5.49721e-01,2.75145e-02,-6.66291e-02,-4.73100e-02,2.19823e-01,-4.78268e-01,5.42528e-01,-6.65048e-01,-1.85138e-01,
1.11074e-01,-9.84966e-01,-2.72083e+00,3.19972e-01,9.35109e-02,-3.55436e-01,1.89151e-01,-2.47454e-01,8.68389e-01,4.32231e-02,9.30026e-01,4.78488e-02,-8.64462e-02,-7.04916e-01,4.79689e-01,-1.62069e+00,5.59063e-01,8.57279e-01,-2.34565e-01,4.28529e-01,8.37798e-03,3.07872e-01,-9.01039e-01,-5.53891e-01,-2.45604e-01,2.52747e-01,-4.14261e-01,-2.17171e-01,3.08840e-01,-4.41534e-01,-2.08143e-01,-9.61029e-01,-8.20013e-01,-1.53735e-01,1.07703e+00,-1.69394e+00,-2.39736e-01,4.51721e-01,-7.64096e-01,2.50746e-01,-4.37501e-03,-5.31439e-01,-1.20813e+00,-3.19157e+00,-2.71916e-02,-4.45842e-01,-1.05120e+00,5.06362e-02,-4.52209e-01,6.41455e-01,
-1.31428e-01,6.17229e-01,5.40693e-01,-1.48535e-01,8.03087e-02,-1.99404e+00,-6.42973e-01,-7.01120e-01,2.80942e+00,3.42395e-01,4.60232e-01,-4.38458e-02,-1.00867e+00,6.48373e-02,7.90289e-02,3.42530e-01,-4.15712e-02,-6.40723e-01,-5.97184e-01,-3.49338e-01,-3.90563e-02,9.39876e-01,1.14451e+00,-1.44871e-01,1.47055e-01,9.99699e-02,2.69896e-01,-2.04058e+00,-4.83133e-01,4.46952e-01,-5.25752e-02,-3.79901e-01,6.35301e-01,1.46070e+00,-4.60528e-01,-5.01702e-02,5.75398e-01,-1.76677e-01,1.82029e-02,-3.65998e-01,1.43705e-01,-6.15197e-01,2.12207e-01,-3.10141e-01,3.02998e-02,5.00705e-01,-7.34670e-01,3.26122e-01,-5.76590e-02,-3.82360e-01,
-6.30535e-02,-2.02988e-01,-1.96772e-01,-6.92495e-01,8.85644e-02,-2.72650e-02,-1.25152e-01,1.57971e-01,1.41879e-01,-9.32253e-02,-2.25469e-01,-1.95500e-02,-9.01308e-04,2.56875e-01,1.34835e-01,-2.92918e-01,6.05267e-02,-3.07730e-01,-5.16627e-01,-1.08555e-02,-2.89116e-02,1.90610e-01,-2.63573e-01,1.53468e-01,-7.75892e-02,-1.96085e-01,-1.17135e-01,-5.81153e-01,8.27399e-02,-2.09570e-03,1.20911e-01,-1.27990e-02,6.06653e-02,-1.42153e-01,-1.20540e-01,-7.31513e-02,-1.66277e-01,4.66307e-02,-4.05408e-02,3.20321e-01,-2.04376e-02,4.64149e-01,-2.00774e-01,1.13708e-01,-1.47915e-02,-4.28982e-02,1.17117e-01,-8.53304e-02,2.69353e-01,-4.58601e-02,
4.96280e-01,-2.09658e-01,2.26803e-01,1.42320e+00,3.36483e-01,-1.44484e-01,-7.22785e-01,-6.74204e-01,7.81709e-01,5.39267e-01,1.95543e-01,1.54880e-02,-6.38425e-02,-6.21134e-02,-7.83370e-02,-1.00925e+00,3.61205e-01,5.53904e-01,-5.86665e-01,7.59579e-02,9.61150e-03,-5.44106e-01,-1.05224e+00,8.50178e-02,-8.76948e-01,4.04581e-01,4.25114e-01,2.31397e-02,4.59499e-01,-1.16960e+00,5.66130e-01,-7.75824e-01,1.29837e-01,4.48301e-01,2.65956e-01,-7.22740e-01,-1.07208e-01,-3.48023e-01,6.82304e-02,-6.41610e-01,-8.87133e-01,-1.25455e+00,-1.23833e+00,1.07496e+00,-1.24563e-02,-1.12664e+00,-1.77208e-03,-7.20697e-01,-1.18953e+00,-2.58599e-02,
2.47294e-01,-4.71854e-01,-4.39442e-01,-6.87303e-02,6.52222e-02,-4.41877e-02,5.49501e-01,1.23076e-01,4.82575e-01,-8.48792e-02,-4.38059e-01,2.93864e-03,5.45113e-01,1.83472e-01,5.87151e-02,-5.82415e-01,-3.87877e-02,-3.09916e-01,-9.71234e-02,-3.63001e-01,-7.51163e-03,-3.47401e-01,-1.01057e-01,-7.69666e-02,4.06312e-01,3.26408e-01,-6.65865e-01,6.51184e-01,-1.34782e-01,-1.54377e-01,5.87284e-01,-1.19685e-01,-1.98618e-01,8.52303e-02,9.83968e-01,2.94143e-01,3.89264e-01,-8.62376e-02,3.17668e-01,-2.76537e-01,4.12145e-01,-4.95311e-01,-6.60775e-01,-7.13205e-01,-1.16471e-03,2.65723e-01,7.93769e-02,-6.30256e-02,-1.25801e-01,5.52983e-02,
9.41060e-01,1.04747e+00,-7.39883e-02,-2.65357e-01,7.36003e-02,1.16251e+00,-9.02266e-01,-7.79258e-01,9.94795e-01,4.24901e-02,2.47709e-01,-8.93723e-03,-4.86042e-01,-3.83638e-01,3.15655e-01,1.91788e-01,7.62115e-01,-8.54764e-01,-1.04455e+00,8.11340e-01,1.27643e-02,-1.09492e-01,1.84671e-01,-1.90726e-01,2.76337e-01,2.45482e-01,1.45465e-01,-2.62778e+00,1.97760e-01,-7.13445e-02,-4.17768e-01,-7.81641e-01,3.47120e-01,-1.07423e-01,-8.38805e-01,-2.89214e-01,6.68137e-01,-3.64881e-01,-6.43794e-01,-2.26334e-01,-5.85521e-01,-2.92693e-01,-7.04079e-01,5.55758e-01,-1.77040e-03,1.96766e-01,-1.09934e+00,-7.54239e-01,-9.78838e-01,2.04817e-01,
8.76662e-02,-1.70419e-01,5.36039e-01,3.93796e-01,2.96006e-02,-2.40038e-01,8.55958e-02,1.08712e-01,-2.83730e-01,1.01383e-01,-2.52010e-01,3.28179e-02,4.57226e-01,1.70152e-02,-4.35267e-01,-5.11542e-01,8.18174e-02,3.86655e-01,-3.17566e-01,-1.35866e-01,1.01568e-02,-7.82247e-02,4.53197e-01,4.76466e-01,1.44120e-01,-1.89922e-01,2.40201e-01,-7.61783e-01,2.09911e-01,6.69714e-02,-5.69042e-02,-2.20057e-01,-2.56040e-01,-3.11756e-01,2.75900e-02,-6.22963e-01,5.36343e-02,9.97842e-03,1.25801e-01,9.22298e-02,-1.65779e-01,-6.17417e-02,-5.42764e-01,-3.02061e-01,-3.60342e-02,4.57463e-01,4.42446e-01,-5.27897e-01,-1.59483e-01,-2.81774e-01,
6.52042e-01,4.22338e-01,5.51513e-01,-9.26193e-01,-3.97291e-01,8.12986e-01,2.82096e-01,1.87361e-01,-6.96327e-01,3.37679e-02,5.22357e-01,-1.04193e-02,2.94109e-02,-6.48996e-03,2.42224e-01,1.06853e-01,-1.17906e-01,4.47372e-01,-2.71324e+00,-2.83526e-01,2.20819e-03,-5.17473e-01,-9.22992e-01,-1.61900e-02,-1.33511e-01,5.67713e-01,2.19826e-01,2.69830e-01,-1.97484e-01,-1.47923e+00,4.54902e-01,-5.65970e-01,-1.22072e-01,-1.46971e+00,-2.57223e-01,-2.81584e-02,3.15499e-01,-2.50638e-01,3.03887e-01,2.79867e-01,1.53474e-01,-6.31762e-02,4.90553e-01,-4.37960e-01,-2.52056e-03,-4.72202e-01,-9.38285e-01,-2.76724e-01,8.38801e-02,-2.44260e-01,
-2.95176e-01,2.22884e-01,3.58457e-01,-2.95474e-03,-8.08149e-02,2.80913e-01,-3.61209e-02,-3.30790e-02,-5.49711e-01,1.93567e-01,1.00971e-01,4.01514e-02,-3.41963e-01,4.06431e-01,-5.42776e-01,-3.07158e+00,-3.73326e-01,-1.69285e-02,-8.61190e-01,-1.30635e-01,9.45489e-03,6.83566e-02,-2.76663e-01,3.79999e-01,-9.83317e-02,1.57836e-01,5.90539e-01,-1.88171e+00,-6.83122e-02,1.53267e-01,4.40950e-01,-1.40867e-01,5.81354e-01,2.23061e-01,8.43799e-02,-1.66124e-01,-1.27294e-01,-5.65320e-01,4.93888e-01,1.88843e-01,-3.98059e-01,-2.21932e-01,-4.68536e-01,-3.57003e-01,3.02652e-02,-1.48372e-01,-1.15994e+00,7.11646e-02,3.02961e-01,-4.09054e-02,
1.77103e-01,-4.03297e-01,-1.37864e+00,-6.51560e-01,4.42011e-02,-5.56082e-02,8.21993e-02,-4.30816e-01,8.30834e-03,1.53328e-01,-4.49485e-01,-2.37461e-02,3.51908e-01,-2.73901e-01,4.23681e-02,-1.29044e+00,5.31255e-02,-9.42278e-02,7.70720e-01,4.64620e-01,-3.72541e-02,6.15392e-02,-2.69446e-01,-1.50104e+00,-7.19170e-01,1.98781e-01,1.00018e-01,7.69599e-01,-1.72553e-01,-5.02930e-01,-4.91259e-01,2.96369e-02,-7.80735e-01,4.32030e-01,1.66597e+00,-1.02641e+00,4.04151e-01,5.99056e-01,-8.77921e-01,9.57041e-01,4.82738e-01,5.24935e-01,-8.90245e-01,8.83541e-01,2.01717e-03,-5.15623e-01,-1.52289e+00,-1.88457e-01,3.58333e-01,-4.99496e-02,
1.20045e-01,-1.35976e-01,-1.20462e+00,-1.59233e-01,1.94166e-01,-1.72703e-01,2.16426e-01,-2.70795e-01,-4.95645e-01,1.38480e-01,2.27024e+00,-1.48861e-02,-6.14831e-01,-9.65458e-01,4.49353e-01,-2.82009e-01,3.27510e-01,-2.34205e-01,-1.05571e+00,-4.15651e-01,3.77576e-02,6.62933e-04,3.80269e-01,5.35435e-01,-1.16084e-01,2.01773e-01,1.08177e-01,-3.28926e-01,4.92490e-01,8.18219e-02,3.69307e-01,9.15387e-02,-1.71325e-01,5.31190e-02,9.98022e-01,-6.48026e-02,3.04843e-01,-1.58341e-01,-3.59722e-01,-2.64449e-01,-7.01027e-01,-4.00668e-01,-4.61755e-01,-2.45182e+00,-3.42634e-02,4.60358e-02,-2.86407e+00,-1.22909e-01,-6.72404e-01,6.80621e-01,
1.75295e-01,-7.19080e-01,-2.54849e-01,-2.63118e-01,6.16443e-01,1.96202e-01,1.19088e+00,1.00333e+00,1.66929e+00,-8.63598e-02,5.28280e-01,4.74055e-03,5.14452e-01,-1.55787e-01,4.54140e-01,-3.05172e-01,-7.79568e-03,5.74540e-01,8.58430e-01,2.08337e-01,1.11126e-02,-3.87735e-01,6.89664e-01,-2.20701e-01,-2.33111e-02,6.32596e-02,-1.69257e-01,-1.27148e-01,4.80500e-01,1.18061e-01,-1.87003e-01,7.20118e-02,-2.39643e-01,7.60466e-01,5.40931e-01,-3.63066e-01,1.20577e-02,-9.99413e-02,-2.96424e-01,-6.13980e-01,-2.41321e-01,4.84160e-02,-4.58160e-01,-8.43395e-01,-4.16399e-02,3.45054e-01,-2.78566e-01,-4.09054e-01,-7.36086e-01,1.99112e-02,
-7.19327e-01,1.07383e+00,-7.59015e-01,2.57967e-01,5.91352e-01,-5.00891e-01,-5.39116e-01,6.03414e-01,1.88842e-01,1.99826e-01,9.03547e-01,3.38463e-02,-8.84179e-01,-7.79645e-01,-5.27286e-01,-1.62875e+00,4.28305e-01,-1.04269e+00,-1.24683e+00,6.78150e-01,-9.61881e-03,3.85167e-01,-6.83314e-01,4.82492e-01,-7.86180e-01,6.15721e-01,8.52474e-01,6.07933e-01,-2.12612e-01,1.47893e-01,3.10703e-01,-5.61670e-01,3.75259e-01,5.38632e-01,-3.70594e-01,-8.86162e-01,-3.54380e-01,-9.51396e-02,-4.93687e-01,-6.45236e-01,-2.99987e-01,-2.86551e-01,-2.07985e-01,-2.35430e+00,-2.74138e-02,-3.91001e-01,-1.59622e+00,-2.30240e-01,-7.89270e-01,1.69196e-01,
-9.05184e-02,4.42767e-01,3.75343e-02,7.37573e-02,-5.73062e-01,-4.22317e-02,3.52019e-01,1.14209e-01,1.21275e-01,3.56577e-01,7.02210e-01,-5.17351e-02,4.41133e-02,-6.94811e-02,-3.54457e-01,2.20834e-01,-7.73395e-03,-1.76857e-01,8.46204e-02,-2.83097e-01,-6.93306e-03,8.77805e-02,2.93831e-01,1.27820e-01,-3.90897e-02,-3.96461e-01,-1.78459e-02,3.48109e-01,-4.43868e-02,2.02372e-01,2.81226e-01,1.62526e-01,-3.13073e-01,-1.18098e-01,5.88726e-01,-4.92604e-01,-2.30686e-01,2.25740e-01,5.54012e-01,-3.54868e-01,3.04101e-03,-4.98816e-01,1.57100e-01,5.80228e-01,8.40084e-03,-3.16092e-01,1.18628e-01,-3.41418e-01,9.62104e-02,-5.30343e-02,
-4.14027e-01,-6.43603e-02,-3.94035e-01,1.04674e+00,-9.30498e-02,7.08424e-02,9.20054e-01,4.08653e-01,2.15014e-01,-1.56327e-01,5.43770e-01,-5.81876e-02,1.78474e-03,-4.90510e-02,9.11169e-02,5.90826e-01,2.93731e-01,3.58717e-01,-5.31276e-01,2.02048e-02,5.72624e-04,-4.95455e-01,1.17155e+00,5.49559e-01,3.94962e-02,-1.62389e-01,4.57151e-01,-9.12626e-01,1.30619e-01,1.98260e-01,-8.79298e-03,-3.43568e-01,-1.20325e-01,-1.13204e-01,-4.78931e-01,-3.79815e-01,9.45562e-02,-1.93051e-01,-1.70751e-01,1.35693e-01,-1.91898e-01,1.52585e-01,1.62103e-01,-5.05883e-01,1.08703e-02,4.80580e-01,-8.56069e-01,-4.23723e-02,1.02181e+00,-3.23097e-01,
-1.20737e-01,-2.56661e-01,-1.27452e+00,4.69199e-01,1.05665e-01,6.15978e-01,1.66561e-01,-2.69678e-01,4.57146e-01,5.73714e-01,1.00348e+00,3.49498e-02,6.85409e-02,-3.93182e-01,2.19333e-01,-2.65840e-01,-1.67464e-01,2.15764e-01,1.66370e+00,4.31483e-01,2.44379e-02,5.32726e-01,-5.32349e-02,1.24460e-01,9.87279e-04,2.78796e-01,-2.36768e-01,-4.71944e-01,1.65361e-01,-8.05037e-03,3.70188e-01,-7.97750e-02,-7.54919e-02,2.82921e-01,3.84180e-01,3.35024e-02,-7.41948e-01,-3.37151e-01,1.53706e-01,4.34013e-01,6.15706e-01,4.05280e-01,-2.96520e-01,5.65210e-01,4.09064e-02,-2.44651e-01,-1.51766e-01,3.31350e-01,2.62138e-01,1.20338e-02,
6.39458e-01,1.26577e+00,-4.58217e-01,1.07786e+00,-1.56270e-01,-4.98560e-02,-1.52608e-01,-2.73150e-01,-2.71156e-01,-3.47120e-01,-4.95137e+00,2.35940e-02,-2.12625e-01,-2.42761e-01,1.14713e-01,5.75113e-01,1.67969e-01,-3.88585e-01,-1.45245e+00,1.11630e-01,-1.88250e-04,6.16267e-01,-2.53596e-01,2.56212e-01,4.28945e-01,1.77641e-01,2.86957e-01,-1.18654e+00,-3.94798e-03,5.53488e-01,-6.65054e-01,4.30536e-01,-2.58770e-01,6.54187e-02,3.18444e-01,9.63458e-01,1.51985e-01,-3.81310e-02,-1.87538e-01,-2.27680e-01,8.36728e-01,8.65288e-01,-1.24255e+00,-7.46487e-01,3.24527e-02,-1.40886e-01,-1.87784e+00,7.17539e-01,8.44743e-01,1.02758e-01,
-7.61320e-01,3.24460e-01,-3.55263e-01,4.47127e-02,-3.97097e-01,6.65308e-01,-1.02151e+00,-6.05369e-01,-4.41901e-01,1.51679e-01,3.14475e-01,-2.36572e-02,-3.54962e-01,-5.11512e-01,-5.78569e-01,-1.50474e+00,8.91673e-01,4.91277e-01,-1.74810e+00,-6.79251e-01,3.78944e-02,1.77739e-01,9.16855e-01,-1.12854e-01,1.16979e-01,-2.50116e+00,-5.08692e-01,-2.74282e+00,8.48375e-01,-1.00180e+00,4.04974e-01,-1.87625e+00,6.01490e-01,-3.92307e-01,-1.75111e+00,-1.10160e+00,-9.19794e-01,-4.57795e-01,8.00994e-02,4.86312e-03,7.59920e-01,-1.21706e+00,-4.93716e-01,-2.09622e+00,1.10086e-02,-1.40250e+00,-3.01371e+00,-1.90252e-01,-4.67199e-01,1.14050e+00,
2.95930e-02,4.34356e-04,-4.27721e-02,-1.45270e-02,1.38215e-02,1.64500e-02,-1.52441e-02,3.53993e-02,4.60654e-02,-8.28105e-04,-3.00414e-03,-1.51247e-02,2.45750e-02,2.59640e-02,2.11562e-02,-4.04163e-02,-6.54085e-03,-4.53531e-02,-5.33763e-03,-4.83653e-02,-3.26294e-02,-1.41381e-02,-2.24278e-02,-4.39501e-02,-1.82563e-02,-4.94675e-02,-3.99517e-02,3.02315e-02,-4.18676e-02,-3.69104e-03,1.96552e-02,-3.88422e-02,-1.80927e-02,1.41895e-02,4.20664e-02,4.60259e-02,-2.94167e-02,-1.71034e-02,-4.62147e-02,-2.54263e-02,-4.74342e-02,-3.27976e-03,4.80623e-03,5.45608e-03,3.26196e-02,1.78914e-02,2.30164e-02,-5.66728e-02,4.27553e-03,-2.92670e-03,
-1.27976e-01,-1.06520e-01,-1.04402e-01,2.74699e-01,-2.68347e-01,-1.30861e-01,-2.23324e-01,8.37242e-01,-1.39830e-02,-5.60425e-02,-1.34114e-01,-3.49966e-02,-5.05811e-02,-3.39303e-01,2.35364e-01,-1.25805e+00,2.91195e-02,-4.51148e-01,-5.97266e-02,1.38671e-02,2.10899e-02,6.25939e-01,4.44292e-01,2.50134e-01,8.29422e-02,1.21924e-01,7.02777e-02,-6.03698e-01,1.40594e-02,4.34149e-01,-3.98473e-01,1.13812e-01,-1.75761e-01,1.00360e-01,-4.44879e-01,-2.91568e-01,-2.11566e-01,8.95400e-02,3.02368e-02,2.05169e-01,-1.18265e-01,8.73034e-02,-1.81552e-01,-4.15318e-02,3.88646e-03,6.70402e-02,4.46157e-01,4.59837e-01,3.67049e-01,-2.65213e-01,
-2.92109e-02,5.63060e-01,1.13296e-02,-2.58823e-01,4.43831e-01,-3.19362e-02,-5.20132e-02,-5.05102e-02,-2.94738e-01,6.27842e-02,-1.66956e-01,-4.27656e-02,3.95294e-01,-1.87314e-01,2.52687e-02,1.52790e-02,-3.50494e-01,1.81411e-01,7.83623e-01,1.21298e-01,-3.39834e-02,5.49450e-01,4.20116e-01,5.87763e-01,-9.23292e-02,2.42181e-01,1.73567e-01,4.63076e-01,-4.31502e-02,2.84516e-01,4.31184e-01,-1.73117e-02,-2.30486e-01,-4.22451e-03,3.84287e-02,-7.10535e-03,-1.16464e-01,-1.43090e-01,1.27996e-01,3.81263e-02,3.25408e-01,3.59323e-01,-2.54153e-01,-2.47374e-01,7.81765e-03,5.81231e-02,-4.78104e-01,-1.29804e-01,-4.55154e-01,2.08612e-01,
-5.10372e-01,5.53702e-01,4.02599e-01,7.58268e-01,2.45015e-02,6.52980e-01,3.58443e-01,5.37457e-01,3.58451e-01,-2.20988e-01,-4.68377e-01,-3.80516e-02,-6.42728e-01,3.19868e-01,-2.37035e-01,6.08049e-01,7.02711e-02,6.48028e-01,1.52183e+00,-4.95977e-01,1.16434e-02,1.15033e-01,-2.07988e-01,-2.05338e-01,-6.39518e-01,1.24350e+00,9.96259e-02,2.04140e-01,4.04263e-01,-4.85899e-01,-7.22890e-01,1.31030e-01,2.12484e-01,6.31113e-01,-1.98921e-01,-3.32964e-01,6.61645e-01,-1.84971e-01,3.21988e-01,-7.58646e-02,-1.77486e-01,4.80033e-02,5.81630e-01,3.47333e-01,8.48467e-03,-6.83942e-01,5.04870e-01,1.12564e-01,5.62955e-01,3.52790e-01,
-7.11115e-02,-5.45957e-01,2.63880e-01,-1.96313e-01,2.00933e-01,-3.26228e-01,-9.53437e-01,-2.34271e-01,-6.38875e-01,-1.23253e-01,-7.38573e-01,1.51508e-02,2.85068e-02,3.52222e-01,6.71494e-01,1.94627e-01,-1.51384e-02,-4.09410e-01,-3.62207e-01,-3.15639e-01,-7.37853e-03,-2.48481e-01,1.41902e+00,-5.63531e-01,3.33791e-02,6.48782e-02,-4.89310e-01,-2.12775e-01,2.22482e-01,7.16044e-01,1.79757e-01,-2.50154e-01,1.80023e-01,5.65484e-01,1.56948e-01,-1.63251e-02,-2.72188e-02,1.17650e-01,1.01179e+00,-1.42143e-01,-4.28006e-01,-4.17526e-01,-1.75465e+00,-6.04437e-01,1.99960e-02,6.43515e-01,-1.74001e+00,2.62851e-01,-1.02220e+00,6.29650e-01,
-1.59883e-01,1.47086e-01,2.78169e-01,-8.80802e-01,3.67118e-01,-1.32248e-02,1.93144e-01,-5.13919e-01,-1.12459e-01,1.53306e-01,3.70733e-01,2.70849e-02,4.06330e-01,-1.70073e-01,9.04825e-03,-8.54887e-02,2.92810e-01,3.54628e-02,3.76666e-01,7.26855e-02,6.58047e-03,-2.03462e-01,9.55444e-02,5.37922e-01,-1.13626e-01,1.14428e-01,1.83341e-01,6.21523e-01,8.48063e-02,5.14990e-01,-8.41244e-02,-2.02094e-02,-9.25444e-02,-3.87731e-02,3.08198e-01,-6.20348e-02,3.14384e-01,1.72282e-01,-5.35574e-02,1.41953e-02,4.79464e-02,-9.93301e-01,-2.14618e-02,7.30679e-01,-2.10552e-02,-3.14959e-02,6.33987e-01,2.70469e-02,-6.98400e-01,9.26886e-02,
-4.24913e-01,5.71199e-01,1.40101e-01,1.23662e+00,-1.75026e+00,5.60674e-01,6.31830e-01,4.13049e-01,-3.77743e+00,4.42880e-01,-2.08837e+00,2.19655e-02,3.24745e-01,-1.00638e+00,6.47860e-01,1.37980e+00,3.94011e-01,1.48870e-01,-1.56422e+00,6.91913e-01,-3.84605e-02,3.10204e-01,1.02762e+00,-4.38346e-02,-1.91457e-01,1.31427e+00,-1.15842e+00,1.94019e-01,2.55881e-01,9.31783e-01,3.56443e-02,-4.81557e-01,1.77863e-02,-3.04068e-01,-1.09086e+00,3.44165e-02,1.60998e+00,-2.28456e-01,7.47826e-02,-3.87732e-01,-1.14569e+00,8.23175e-01,7.07849e-01,1.06988e+00,-3.11448e-02,-1.42542e+00,2.21732e-01,2.33029e-01,1.69264e+00,8.67011e-02,
3.65486e-01,4.66833e-01,1.72485e-01,-3.89935e-01,-1.73430e+00,6.32918e-02,2.04061e+00,-1.05024e-01,-2.28966e+00,9.70651e-02,8.75102e-01,-1.57462e-02,1.23627e+00,-4.56787e-01,-1.33678e-01,-3.09760e+00,5.99772e-01,-1.19901e-01,7.16001e-01,-3.60149e-01,2.17352e-02,-7.69327e-01,6.24355e-01,3.52428e-01,-3.19673e-01,3.97488e-01,-1.03518e-01,1.18015e+00,-1.32023e+00,2.42080e+00,-7.24783e-01,3.38205e-01,1.46715e-01,-2.77107e+00,5.93713e-01,-4.30100e-01,9.51383e-01,-1.36854e+00,2.87309e-01,-4.32578e-02,-3.03452e-01,4.77398e-01,3.11794e-01,3.00963e-02,2.57194e-02,5.84383e-01,9.21109e-01,-1.01507e-01,-1.90186e-01,6.02884e-01,
-2.56425e-01,-1.70747e-01,-2.02875e-01,1.00401e-01,1.17508e+00,3.86575e-01,2.09091e-01,1.95307e-01,2.98015e-01,-7.68899e-03,-4.52251e-01,-3.52830e-02,2.97151e-01,5.84330e-01,2.90471e-01,-5.81222e-01,4.72451e-02,3.13699e-01,-1.86880e-01,-7.97251e-02,2.29949e-02,6.87376e-01,7.39754e-02,-1.01921e-02,-3.55177e-02,3.89891e-02,-1.16833e-01,-4.68715e-01,3.54262e-01,2.11699e-01,-2.75242e-01,8.98101e-02,-9.61510e-03,-1.22555e-01,1.21138e-01,-2.03846e-01,2.26229e-02,3.77097e-02,-5.39680e-02,1.74028e-01,1.12553e-01,-1.39411e-01,-3.01764e-01,-3.39288e-01,-1.21867e-02,1.76176e-02,-2.77106e-01,-1.14540e-01,-1.01862e-01,-1.24434e-01,
-2.37701e-01,-3.25902e-01,-2.39951e-01,9.90475e-01,6.48765e-01,7.21563e-01,5.50336e-01,-2.85309e-02,2.92793e-01,-2.91330e-02,-5.34849e-01,5.91642e-02,9.70151e-01,9.90560e-01,1.50413e-01,-1.03389e+00,3.34566e-01,3.51150e-01,-1.72272e-01,2.26602e-02,5.03627e-03,2.61553e-01,-2.36001e-01,-3.82542e-01,-3.78609e-02,-2.81775e-01,-4.55611e-01,-1.11955e+00,5.13170e-01,-5.84937e-01,-6.59336e-01,-9.55046e-02,7.06246e-02,1.12019e-01,-2.16094e-01,-3.83616e-02,8.12018e-01,1.61064e-01,-9.45431e-02,2.47636e-02,1.91043e-01,-2.13353e-01,-3.77335e-01,-1.58167e-01,-2.66253e-02,-7.56350e-01,1.44190e-02,-2.42378e-01,-3.52521e-01,-8.68163e-02,
-5.10853e-01,-1.29315e+00,8.69696e-02,1.14011e+00,-1.65394e+00,-4.24989e-01,8.34913e-01,-2.29435e+00,-2.96563e-02,-5.68138e-01,5.55887e-01,-1.94844e-02,1.00354e+00,-7.80783e-01,9.69572e-02,1.81542e+00,-2.53534e-01,1.16401e+00,-2.00288e+00,5.00488e-01,-8.44131e-03,2.94381e+00,1.66464e+00,7.33867e-01,-6.78541e-01,4.05259e-01,7.06694e-02,-4.97957e-02,2.16546e-01,4.38784e-02,-1.58831e-01,-7.31084e-01,3.26885e-01,-5.77375e-01,-5.68064e-01,4.06903e-01,-3.90518e-01,4.89969e-01,-8.81892e-01,-1.40577e+00,-8.17030e-01,8.03324e-01,5.71104e-01,-1.61114e+00,1.97774e-02,-1.31422e+00,-9.69407e-01,5.53817e-02,3.95921e-01,6.19495e-01,
-9.31683e-01,7.55929e-01,-1.01880e+00,-1.93391e-01,2.68376e-01,-6.33463e-01,-2.03800e-01,6.84063e-01,-4.20987e-01,2.42447e-01,5.27395e-01,2.89248e-02,1.00570e+00,5.03188e-01,-2.88131e-02,-9.55374e-01,-2.08078e-01,1.54833e-01,1.46065e+00,1.92911e-02,4.14385e-02,6.35959e-02,-6.88571e-01,1.48859e-01,3.96191e-01,-2.62534e-01,1.09780e+00,2.82768e-01,-4.19555e-01,3.11958e-01,-3.48767e-01,-1.38711e-01,-2.12543e-01,8.24949e-01,-2.66019e-01,1.01081e+00,1.06582e+00,4.34934e-02,6.26974e-01,-9.25655e-02,-3.79414e-01,2.55799e-01,4.92503e-01,-1.27109e-03,5.60956e-03,-4.18100e-01,-1.49594e-02,-6.38661e-01,-2.32264e-01,-2.93313e-01,
4.03835e-02,7.68009e-02,-1.58259e-01,-1.23598e-01,4.47156e-01,1.72457e-01,-2.21293e-01,-5.66135e-02,6.11478e-01,-5.83669e-02,9.50657e-02,3.03193e-02,5.82802e-01,7.48554e-02,5.59768e-01,-1.13251e+00,1.02258e-01,-9.24266e-01,-2.50979e-01,-2.03747e-01,4.60067e-03,-3.99625e-01,-4.17873e-01,-1.41024e-01,-3.31141e-01,1.69128e-01,-2.26775e-01,-7.12322e-01,1.96409e-01,2.77374e-01,-1.54201e-01,2.42064e-02,-3.52660e-02,3.53450e-01,-3.91953e-01,1.56040e-01,-6.90965e-02,-4.33377e-01,-4.01759e-01,2.35500e-01,8.24093e-02,-4.29044e-01,-2.53928e-01,-3.15069e-01,-4.44823e-02,7.31506e-02,1.13415e-01,2.77485e-01,-9.21553e-01,-1.45530e-02,
5.73300e-01,-1.09868e+00,-7.72843e-01,5.85148e-01,-2.47669e-01,1.50230e+00,1.34442e-01,-4.30477e-01,-9.17007e-01,8.34754e-02,-2.47357e+00,-1.78699e-02,2.29661e-01,-7.19233e-01,-1.17514e+00,-4.09461e-01,4.68400e-01,2.85483e-01,-7.81180e-01,1.25724e-01,-1.39548e-02,-4.01719e-01,9.46368e-01,-5.66185e-01,-7.32084e-01,2.96837e-01,-7.76203e-01,-6.86765e-01,8.93033e-01,3.42407e-01,-3.03612e-01,-1.22046e+00,-2.27874e-01,-8.29885e-01,-9.15091e-01,-8.14197e-01,7.08771e-02,3.48182e-01,-5.45972e-01,-3.25257e-01,6.77836e-02,1.73249e-01,4.80644e-01,-5.54268e+00,-4.40216e-02,-1.47694e-01,1.16066e+00,-1.42752e+00,-1.23786e+00,6.44250e-01,
1.13946e+00,-9.50041e-01,-9.36156e-01,-9.80711e-01,-3.34467e+00,1.19615e+00,-1.76529e+00,-3.14241e+00,-5.65379e-01,-2.75003e-01,-2.85911e-01,4.23034e-02,-1.54165e+00,9.87799e-01,-9.28118e-01,-6.99061e-02,-2.90724e-01,2.25161e-01,-1.00095e+00,1.23577e+00,-3.39540e-02,-2.57624e+00,1.81659e+00,-4.51889e-01,-1.60883e+00,-2.67897e+00,-2.88395e-01,-8.37000e-01,2.29588e-01,9.41622e-01,-7.39265e-01,-4.63114e-01,7.96401e-01,-2.73869e+00,-2.66600e+00,-1.38353e+00,-1.43268e+00,5.81171e-01,-1.27794e+00,1.43625e-02,-7.75638e-01,7.11040e-01,6.95777e-01,-1.74314e+00,1.40905e-02,-1.02218e+00,-1.04254e+00,-2.27290e+00,5.84975e-01,5.67610e-02,
-1.64589e-02,-3.51178e-02,7.00090e-03,-2.32229e-02,3.91703e-02,4.16764e-02,2.55323e-02,-2.21190e-02,1.64005e-02,-2.58172e-03,-2.59255e-02,1.61001e-02,3.25248e-02,-4.40446e-03,3.49787e-02,3.07314e-03,3.83679e-02,1.40291e-02,-1.27977e-02,-1.09633e-02,7.99062e-03,2.75602e-02,-6.01562e-05,-3.78936e-02,9.29032e-03,-2.25132e-02,1.76691e-02,-4.25739e-02,-5.77139e-02,4.62939e-02,-4.38826e-02,-5.36866e-02,-5.60961e-02,3.36855e-02,2.66251e-02,9.16781e-03,-6.81392e-03,-1.92126e-02,2.12185e-02,-4.80270e-02,4.28262e-03,1.18289e-02,-3.76241e-02,1.08509e-02,-4.99699e-02,-3.57389e-02,-4.69390e-02,-1.30154e-02,-4.26097e-02,1.53548e-02,
-7.38040e-02,
-5.51785e-01,
4.84754e-01,
-1.15975e+00,
-1.39608e-01,
-6.95249e-01,
1.36117e-02,
-2.91583e-01,
-3.33942e-01,
-1.75227e-01,
9.87556e-01,
-5.07039e-03,
-1.07498e+00,
-1.91683e-01,
1.10724e+00,
-5.30000e-01,
1.62823e+00,
-1.19991e+00,
6.84636e-01,
8.58166e-01,
3.00361e-01,
-3.41087e-02,
-3.74602e-01,
-1.69581e-01,
1.34597e-02,
1.34492e+00,
6.10740e-01,
-4.73351e-03,
1.86891e+00,
7.43955e-02,
-1.13363e+00,
-8.91613e-01,
-1.60329e+00,
8.97163e-01,
-8.27539e-03,
-9.57402e-01,
-2.60397e-01,
-2.02736e+00,
5.99538e-01,
1.69478e-01,
-1.23204e+00,
