// Neural Network File Format by Kyle Julian, Stanford 2016
7,5,5,50,
5,50,50,50,50,50,50,5,
0,
0.0,-3.141593,-3.141593,100.0,0.0,
60760.0,3.141593,3.141593,1200.0,1200.0,
19791.091,0.0,0.0,650.0,600.0,7.5188840201005975,
60261.0,6.28318530718,6.28318530718,1100.0,1200.0,373.94992,
5.40538e-02,-2.61316e+00,-1.79990e-01,2.42166e-01,1.41430e-01,
-1.12427e+00,2.63794e-02,-9.18639e-03,5.56081e-02,-3.27881e-01,
1.96138e-01,2.42278e-01,6.38963e-01,-4.77965e-01,1.42683e-01,
-1.62938e+00,-3.44560e-02,-6.05443e-03,1.11994e-02,-1.04963e-02,
-3.55356e-01,5.66402e-01,2.28464e-01,1.77500e-01,-2.08157e-01,
-3.41749e-02,1.49567e+00,-1.53278e+00,4.04759e-02,1.64242e-01,
4.02292e-01,2.24048e-01,-4.67071e-02,1.63803e-01,-1.60744e-01,
-1.41646e+00,-7.47127e-02,6.04535e-02,4.82781e-02,-5.60113e-02,
-1.44365e+00,4.48693e-02,8.89140e-03,-2.50369e-01,6.52829e-02,
-1.12825e+00,2.39695e-02,-9.57649e-03,8.93135e-03,-4.58283e-03,
6.13465e-01,-5.57996e-01,-5.19038e-02,1.60695e-01,-9.71459e-02,
9.33645e-01,2.03588e-01,1.66059e-01,-1.52165e-03,-2.09263e-01,
-4.08172e-02,5.49154e-01,5.75097e-02,1.42878e-01,9.49581e-02,
-2.12370e-01,-3.28094e-01,3.57668e-01,-3.90050e-01,-4.59179e-01,
3.20338e-02,4.22370e-01,-5.68286e-01,-2.10867e-01,7.57344e-02,
-1.24018e-02,2.28408e+00,5.34380e-02,5.80753e-02,1.18760e-01,
-1.22491e-01,-7.11620e-01,9.16528e-03,-3.91005e-01,3.40184e-02,
6.01850e-02,-6.39204e-02,-2.50491e+00,4.99557e-02,-3.78096e-02,
8.32762e-02,-4.07290e-02,-7.52714e-01,-1.18848e-01,-2.18040e-01,
-1.18783e+00,1.44588e-01,-1.49340e-01,-3.60961e-02,-1.18961e-01,
-1.03461e-01,7.00348e-02,2.42348e+00,2.26375e-02,3.19549e-02,
-8.53932e-02,1.75081e-01,-8.74665e-02,-7.31268e-01,-2.20977e-01,
-1.93762e-02,3.99334e+00,1.17718e-01,7.83551e-02,-1.45069e-02,
1.66985e-02,-6.54261e-01,5.59717e-01,1.96742e-01,-4.49496e-01,
1.67794e-03,5.38858e-03,-7.26047e-03,4.17727e-03,1.78087e-03,
-8.97524e-01,-1.27559e-01,1.62751e-01,-4.81624e-02,7.85136e-02,
-9.33655e-01,-2.43114e-02,2.30317e-01,-2.08908e-01,-9.43570e-02,
1.60311e-01,3.69370e-03,2.62162e-01,2.82003e-01,-5.51030e-01,
8.34395e-02,2.01345e+00,3.55584e-01,3.59788e-02,-9.96915e-02,
2.83938e-01,-4.65519e-02,7.48677e-03,-8.40069e-01,-4.81802e-01,
1.37210e+00,5.88681e-03,1.30963e-02,-7.41201e-02,-1.55702e-01,
-1.44563e-01,6.08168e-04,-2.11500e-02,-6.47629e-01,-1.82839e-02,
-1.36421e+00,-2.07265e-02,4.45356e-02,3.94372e-02,9.36607e-02,
-1.55117e+00,8.37325e-02,-3.51734e-02,6.05780e-03,8.28239e-03,
1.29747e+00,9.38612e-02,1.75500e-01,1.33345e-01,2.98564e-01,
1.58639e-02,3.29814e-01,-2.65284e-01,-1.03471e-01,7.65527e-02,
-4.15458e-02,-1.47719e+00,-5.79800e-02,-2.06623e-01,2.01673e-01,
-8.27284e-02,2.55237e-03,9.86275e-03,6.89475e-02,-8.79112e-01,
-1.58878e+00,4.75339e-02,7.62554e-03,-1.42489e-02,2.84950e-03,
2.83290e-02,-2.31046e-02,-7.63531e-02,-7.71811e-01,4.99248e-01,
1.39275e-01,-5.71682e-01,4.26942e-01,-3.30300e-01,2.81041e-01,
2.58034e-01,-6.26787e-02,-3.31183e-01,3.30067e-01,-8.56914e-01,
6.86173e-02,2.45744e-03,-1.42526e-02,2.79941e-02,-1.84970e+00,
-7.43897e-01,3.12038e-03,-1.87931e-01,1.36071e-02,-1.59489e-02,
-4.16456e-01,1.20680e-02,-4.81249e-02,-3.64512e-01,2.88107e-01,
-6.32405e-01,-3.58952e-02,2.83242e-02,7.38113e-02,6.49614e-02,
3.91743e-02,5.64641e-01,2.62832e-01,-1.39601e-02,-3.58019e-01,
-3.86134e-02,-1.23764e-01,-7.62336e-01,4.22928e-02,4.98909e-02,
-1.57752e+00,4.39777e-04,-8.32819e-03,-9.26821e-02,-4.93640e-03,
6.19817e-01,7.50730e-02,-1.46244e-02,2.62458e-01,-2.57732e-01,
2.27418e-01,
-1.88913e-01,
5.33581e-02,
-3.77547e-01,
-8.12295e-02,
-5.88599e-01,
7.46568e-02,
-3.93245e-01,
-3.56627e-01,
-1.67610e-01,
5.87073e-02,
1.83739e-01,
1.31982e-01,
-3.08695e-01,
1.96908e-01,
2.06720e-01,
-3.12002e-01,
3.06364e-02,
-1.38954e-01,
-3.47730e-01,
-4.51567e-03,
-3.90746e-01,
9.70024e-02,
9.83061e-03,
-1.88725e-02,
-2.31689e-01,
-2.38331e-01,
7.10089e-02,
-1.42035e-01,
-4.42011e-01,
5.59497e-01,
1.35472e-01,
-3.73264e-01,
-4.15320e-01,
7.60266e-01,
1.32834e-01,
2.35719e-01,
2.14678e-01,
-4.40947e-01,
-7.73529e-02,
2.21717e-01,
-6.50310e-03,
-6.34258e-01,
-1.53966e-01,
-5.73309e-02,
-1.09129e-01,
3.70500e-02,
5.37926e-02,
-4.47801e-01,
1.75925e-01,
-1.84211e-01,3.43807e-02,-1.15067e-01,1.84727e-01,-1.37074e-01,-1.89150e-01,-7.48079e-01,5.75966e-01,-1.33263e-02,1.43775e-01,1.33065e-01,-2.24399e-01,3.01849e-01,4.08214e-02,-3.39651e-01,6.48527e-02,7.31001e-02,-4.59520e-01,4.74918e-01,3.77095e-01,-1.11333e+00,-5.72422e-01,4.98888e-02,-2.54301e-01,-2.52417e-02,2.25803e-01,1.50003e-01,-1.55229e-01,-1.71850e-02,9.91544e-01,7.84319e-02,-1.44265e-01,-1.79152e-01,-3.40309e-01,2.12181e-01,8.26040e-03,6.84079e-02,5.87385e-01,-1.70574e-01,-5.43479e-01,1.18894e-01,-4.95904e-01,-1.66490e+00,-3.24308e-01,-1.54157e-02,5.09888e-01,9.40969e-02,3.37095e-01,3.95731e-01,-2.23686e-01,
1.71758e-02,-3.45012e-02,-8.69947e-03,3.81341e-02,2.14140e-02,4.21812e-02,2.15669e-02,-3.36256e-02,-4.74481e-02,2.13660e-02,9.95194e-03,2.77630e-02,4.92845e-03,-4.27628e-02,-2.40082e-02,-3.22468e-02,1.34021e-02,-4.23970e-02,-4.00822e-02,-1.74437e-02,-4.23485e-02,1.46428e-02,-3.13938e-02,3.84743e-02,4.64056e-02,2.18424e-02,1.59622e-02,4.17093e-03,1.73915e-02,-1.78644e-02,-4.79498e-02,-4.08695e-03,-4.18106e-02,1.45586e-03,-5.08358e-02,-4.63776e-02,2.14403e-02,-5.32376e-02,-5.73076e-02,2.89783e-02,-3.29462e-02,-3.20017e-02,-3.33831e-02,-2.27059e-02,-1.54622e-02,-4.83894e-02,-7.11545e-03,-3.70992e-02,1.96636e-02,-3.51807e-02,
6.98302e-02,-4.08819e-03,-2.78164e-01,2.58856e-01,1.55791e-01,-1.33228e+00,-1.31200e+00,-8.92346e-01,1.95467e-01,3.83816e-01,4.27521e-02,-5.39883e-01,8.13717e-02,4.01098e-01,-2.74507e-01,3.67793e-01,-7.60524e-01,-1.29401e+00,1.47003e+00,9.78149e-02,-7.90140e-01,-5.34918e-01,7.20159e-03,-5.53800e-01,-2.19838e-02,2.65369e-01,2.04152e-01,4.08910e-01,-8.59586e-01,1.87692e-01,2.42342e-01,-1.12932e-01,5.26343e-01,-4.63944e-01,-3.64168e-01,5.36798e-02,4.43528e-01,9.19115e-01,6.39986e-01,-8.77953e-01,-9.78105e-01,-3.91708e-02,1.42246e-01,-7.98517e-01,-1.76591e+00,1.52800e-01,2.61016e-01,-1.87755e+00,-5.92006e-01,4.40442e-01,
7.95173e-01,-3.62669e-01,-1.71745e-01,9.75256e-02,2.71479e-02,-4.15137e-01,-9.24941e-02,-6.02521e-01,-3.20947e-01,4.35297e-01,5.27591e-01,-4.15688e-01,-1.95958e-01,-3.72994e-02,-1.00793e+00,1.33395e-01,2.48163e-01,-1.69960e+00,2.00939e+00,-7.06467e-01,1.15588e+00,5.26726e-01,-1.69501e-01,3.63748e-01,-3.01580e-02,7.70193e-01,-3.77583e-01,-1.37222e-02,-4.88026e-01,2.26231e-01,3.83433e-01,2.81820e-01,-4.76898e-01,9.03434e-03,-1.01395e-01,-6.21348e-01,4.45365e-03,-1.44287e-01,-1.32466e-01,3.56505e-01,5.80571e-02,-4.55317e-01,-7.06523e-01,-4.05515e-01,-4.22977e-02,5.96908e-01,-2.17591e-01,-1.28775e-01,-1.26599e-01,-1.72752e-01,
-5.85079e-02,7.08212e-03,2.67865e-01,-6.58892e-03,3.15640e-01,-5.37398e-02,3.65640e-01,3.60533e-02,-4.74671e-02,-3.71005e-01,1.54093e-01,-2.15624e-01,1.46227e-01,4.14332e-01,-5.22523e-02,-1.22001e-01,-2.38587e-01,-1.09931e+00,-3.20552e+00,-4.39108e-01,-2.60724e-01,-2.68998e-01,-4.08857e-02,3.68883e-01,-4.35512e-02,-3.44611e-01,-3.70921e-01,-3.68857e-01,-3.48581e-02,3.83794e-01,-1.04109e-01,-3.46048e-01,5.25453e-01,1.40111e-01,1.56101e-01,5.73521e-01,-1.64352e-02,-1.34214e-01,-1.33486e-01,9.89763e-03,-2.17902e-01,-1.56641e-01,-6.39980e-01,6.67453e-01,4.14590e-01,3.24089e-01,-6.60136e-02,8.58605e-01,-6.20170e-01,-1.11687e-02,
3.32515e-02,-8.10872e-02,-5.34133e-01,6.68423e-01,-8.11755e-01,1.29648e+00,1.26754e+00,7.05052e-01,1.17883e-01,3.14460e-02,3.45745e-01,-1.27586e+00,2.59367e-01,7.56557e-01,5.58538e-01,-1.23527e-01,-3.16828e-01,-1.38902e+00,-2.33033e+00,6.84561e-01,4.19263e-02,-6.41660e-01,-2.20440e-02,-8.15421e-01,3.62582e-02,-3.33009e-01,-1.74118e-01,-6.63907e-01,2.15438e-01,4.14867e-01,-3.16529e-01,4.11026e-01,6.56715e-01,1.71679e+00,-3.50702e-01,7.43265e-02,3.74518e-01,2.39277e-01,1.44919e+00,-3.21299e-01,2.44955e-01,-7.17665e-01,-1.78778e+00,1.14155e+00,2.82764e-01,7.95453e-01,-2.99862e-01,-7.73553e-01,-4.11641e-02,8.20564e-01,
-2.08327e-01,8.35485e-01,-1.51346e-01,1.15099e+00,2.21502e-01,1.08308e-01,6.50879e-02,1.45563e-01,6.32467e-01,1.08788e-01,5.07824e-01,-2.69376e-01,-1.98350e-01,1.72469e-01,3.25533e-01,6.12999e-02,-6.35571e-01,-4.35664e-01,5.91067e-01,9.24214e-02,-9.91249e-03,-2.27551e-01,-3.91479e-01,4.31903e-02,-4.57135e-02,2.00319e-01,1.27356e-01,-3.26883e-01,5.95370e-01,-4.12323e-01,1.78582e-01,5.78130e-03,-6.60667e-01,1.03202e-02,-1.10251e-01,5.41880e-01,1.58860e-01,4.66601e-01,-2.69957e-01,-2.23948e-01,-3.13525e-02,-2.38145e-01,-4.00041e-01,7.28805e-01,1.09949e-01,-5.18928e-01,2.80574e-01,3.65757e-01,1.36423e+00,-1.37997e-01,
-1.10527e+00,2.78941e-01,-1.34928e+00,-6.95796e-02,7.55215e-01,2.57616e+00,8.64657e-02,5.11163e-01,-5.77731e-02,-1.04138e-01,-4.24159e-01,-2.13878e-01,2.62928e-02,3.16881e+00,7.05137e-01,1.56519e-01,1.15635e-01,8.90363e-01,4.85236e-02,-3.29404e-01,-7.39180e+00,-5.88191e-01,6.79378e-01,4.03753e-01,3.53681e-02,-1.80169e+00,-3.95287e-01,1.97395e-01,-2.88613e-01,-8.30704e-01,3.18012e-01,-8.18448e-01,-7.43312e-01,3.68309e-01,2.34191e-02,4.08037e-01,-1.04251e+00,4.83741e-01,8.28325e-02,3.57061e-01,-1.50252e+00,-1.96306e-01,7.26025e-01,2.22631e-01,3.40154e-02,-5.83694e-01,9.31598e-02,3.28060e-01,8.23936e-01,5.10587e-02,
1.80726e-02,-1.21089e-01,-1.93434e-01,8.57747e-01,-1.76137e+00,-1.45705e-01,2.56866e+00,7.82933e-01,4.50200e-01,-9.83495e-02,-1.24798e-01,-7.26691e-01,-7.31863e-01,1.53596e-01,-3.27053e-02,8.59496e-02,-5.70148e-01,3.94263e-01,1.17395e-01,2.51183e-01,8.45633e-01,8.47894e-01,4.21217e-01,5.73164e-01,2.50867e-02,-1.70659e-01,-1.27818e-01,8.30865e-03,7.87341e-02,2.57558e+00,-1.30062e+00,6.91836e-01,-3.32348e+00,-1.35783e+00,-2.20288e+00,3.92732e-01,3.73486e-01,2.80208e-01,-6.10040e-01,1.03134e-01,-2.77742e-01,1.42885e+00,4.72769e-01,-6.73729e-01,1.20967e+00,-1.35325e+00,1.01900e-01,-1.70206e+00,1.08850e+00,-8.12637e-01,
2.34723e-01,-8.64296e-03,4.04236e-02,2.51523e-01,6.56009e-01,-1.87990e-01,-6.28475e-01,5.17894e-01,-3.96767e-01,-7.89814e-01,1.75679e-01,-3.91776e-01,2.77701e-01,-1.05736e+00,5.26119e-01,5.11086e-01,-1.06039e-01,-1.67499e+00,1.80842e+00,-2.33785e-01,7.01808e-01,-5.41280e-01,1.06063e-01,-1.67842e-01,-2.92518e-02,1.14955e+00,-1.59588e-01,-2.27497e-01,-1.35663e-01,1.56332e+00,7.80288e-01,-7.24096e-01,-5.94541e-01,-9.98020e-01,9.19002e-02,4.50469e-01,-5.39229e-01,5.47366e-01,-3.13234e-01,-1.04800e-01,4.10696e-01,7.52172e-01,4.95163e-01,-8.57879e-01,-2.38869e-01,-2.39245e-01,4.23387e-01,-2.73864e-01,2.23184e-01,-1.29937e-01,
-5.82216e-03,1.64371e-02,-4.98289e-02,-5.81752e-02,2.45030e-02,1.57828e-02,-3.56205e-02,3.95572e-03,-2.16333e-02,1.12871e-02,1.00660e-02,-6.40590e-02,2.40344e-02,5.82594e-03,-3.51741e-02,1.37824e-02,-4.20510e-02,-3.48899e-02,-3.74638e-02,-2.57597e-02,-5.46309e-02,-3.58822e-02,2.08492e-03,-3.63550e-02,2.48137e-02,3.34680e-02,2.16558e-02,1.98260e-02,-4.71267e-02,-7.05427e-03,-9.30139e-03,-4.94509e-02,-6.18232e-02,3.00332e-02,-3.01215e-02,1.39012e-02,-4.82611e-02,-4.51120e-03,-1.89284e-02,4.02640e-02,1.81778e-02,3.76222e-02,-2.70680e-02,3.37296e-02,-1.98414e-02,-1.65788e-02,2.09093e-02,-4.22704e-02,-2.60727e-02,-2.50002e-02,
2.80059e-01,3.77646e-01,-4.42138e-01,-1.27922e+00,-2.98232e-01,1.28130e+00,-5.43002e-01,-3.46409e-01,2.75791e-01,5.24768e-01,-2.95995e-01,-5.82225e-01,1.66033e-01,1.62587e-01,3.90108e-01,1.61337e-01,4.51433e-02,-1.26205e-01,-1.20157e+00,5.63570e-01,4.10092e-01,-1.77413e+00,-2.19487e-01,-1.24245e-01,4.54798e-03,1.00630e-01,-5.21152e-01,3.38363e-02,-2.91998e-01,1.67503e-01,-3.39794e-01,4.23049e-01,1.01284e+00,7.82880e-01,-3.31800e-01,-6.33700e-01,7.38793e-02,9.52756e-01,2.41879e-01,-2.77557e-01,4.54382e-01,-7.80895e-02,4.90686e-01,-1.46243e-01,-8.36199e-01,-8.00265e-01,-4.45117e-02,-5.92357e-02,-5.24037e-01,5.13469e-01,
1.08800e-01,-2.42558e-02,4.39058e-01,6.50319e-01,1.96465e-01,-8.37598e-01,1.21421e-01,1.17029e+00,2.32627e-01,3.04454e-01,-5.35610e-01,-1.06594e+00,8.69753e-01,4.96337e-01,1.54257e-01,5.78007e-02,8.90038e-02,4.88161e-01,-7.07945e-01,-8.94287e-02,-4.56723e+00,1.74134e-01,-2.11095e-01,-4.79258e-01,-8.47176e-03,1.23758e+00,2.90875e-01,5.13402e-02,3.97349e-01,2.63255e-01,-8.61786e-01,-6.07718e-02,5.80443e-01,3.20438e-01,-7.83953e-01,3.65923e-01,-2.44813e-02,-9.82848e-02,5.74038e-01,-5.96755e-01,5.89280e-01,-7.04308e-01,-5.60626e-01,-8.39397e-02,1.48055e-02,1.43042e-01,-1.12700e-01,1.15636e-01,2.41955e-02,7.83162e-03,
-8.75897e-02,6.01288e-01,-3.93513e-01,1.04997e+00,2.59999e-01,-1.38778e-01,3.19406e-01,-5.97631e-01,-7.05506e-01,6.17012e-01,-4.61974e+00,2.72159e-01,4.32083e-01,-1.57508e-01,-3.28524e-01,5.18837e-01,-8.74832e-01,-9.51468e-02,1.00010e+00,-2.96147e-01,-1.76366e-01,-2.43998e-01,4.01332e-01,-9.49375e-01,1.74123e-02,-1.43736e+00,1.33918e+00,1.53613e-01,-4.58212e-01,9.47317e-01,-1.31599e+00,2.79261e-01,-7.73379e-01,8.22453e-01,-1.33889e+00,-5.67703e-01,4.53809e-01,2.50783e-01,4.28762e-01,2.23353e-01,1.01148e+00,-9.83786e-01,2.31847e-01,1.79632e-01,-3.07603e-01,4.97311e-01,3.84415e-01,-1.42857e-01,-4.80397e-01,-1.60490e+00,
-2.62116e-01,6.61553e-01,-4.25176e-01,9.88271e-01,-2.63543e-01,-8.54902e-02,7.27511e-01,5.19382e-02,-4.10857e-02,1.03509e+00,2.94456e+00,-6.03279e-01,6.64416e-01,1.78776e+00,-1.78038e+00,4.42716e-01,-1.94223e-01,6.22248e-01,3.88335e-01,-2.22551e-02,4.64167e-02,7.26193e-01,4.31524e-01,-1.12466e+00,-1.64154e-02,-4.31661e-01,-7.13380e-01,7.69258e-01,-1.79931e-01,2.37685e+00,-1.70688e+00,4.66962e-01,9.57653e-01,1.54467e+00,-1.45355e+00,-7.21424e-01,3.16794e-01,-6.04651e-01,1.52923e+00,-5.03681e-01,-1.04175e-01,7.15582e-01,4.91382e-01,1.50565e-02,1.52911e-01,1.63776e-01,6.65368e-01,-1.19077e+00,-5.35915e-01,-6.52324e-01,
-6.67894e-01,-2.02124e-02,-4.30464e-01,-5.98980e-01,3.53642e-01,-4.64292e-01,-1.20039e-01,-4.41323e-02,1.61295e-01,1.19676e+00,1.63780e-01,2.39632e-01,4.60244e-01,1.54158e+00,5.89676e-01,5.52622e-01,3.33598e-02,1.09515e+00,-1.82458e-01,1.74060e-01,-2.19086e+00,2.26467e-01,2.62355e-01,9.94801e-01,4.17702e-02,5.24714e-01,-4.44696e-01,-2.92806e-01,-1.97265e-01,-4.60611e-01,-4.51713e-01,-2.61102e-01,2.26285e-01,-2.47793e-01,-1.58435e-01,3.86562e-01,-1.02103e+00,2.47639e-01,2.61030e-01,2.67529e-01,-3.67163e-01,-3.01931e-01,-1.06055e+00,2.55642e-01,1.48037e-01,-1.31283e-02,2.16167e-01,6.63878e-01,6.47788e-01,-2.01072e-02,
-5.22563e-01,-3.92462e-01,2.90755e-01,-1.02864e-01,7.13321e-01,-2.28538e+00,1.42489e+00,4.40691e-01,2.97168e-01,-1.19699e-01,-6.75191e-01,1.33060e-01,1.43500e-01,-5.90752e-03,3.19506e-01,6.28618e-01,5.04269e-01,8.07238e-01,-1.69521e+00,-2.90539e+00,5.03930e-02,6.62674e-01,-8.22852e-01,3.09752e-01,4.41486e-02,7.03117e-01,1.73284e-01,-7.32092e-02,1.27857e+00,1.57610e-01,3.91762e-03,2.43078e-01,-1.64328e-01,-1.01950e+00,-5.41467e-02,-2.39698e+00,9.37359e-02,-2.75734e-01,-4.88195e-01,1.01747e+00,-3.22395e-01,-4.31500e-01,-5.44545e-01,-1.18568e+00,-6.46214e-01,-3.53275e-01,1.00084e+00,7.01775e-01,4.10298e-01,6.14807e-02,
-2.96091e-01,4.87749e-01,-2.50825e-01,-7.97803e-01,-2.32198e-01,4.18478e-01,3.87070e-01,9.60853e-01,-1.91829e-01,1.04508e+00,-6.52327e-01,-2.79571e-01,7.15641e-01,3.42029e-01,8.30602e-01,1.48479e-01,-1.13187e-01,-4.46836e-01,-3.01354e-01,1.13464e-01,-5.45632e-02,-2.62638e-01,-1.23091e+00,1.84472e-01,-4.26019e-02,1.19195e+00,-4.33684e-01,7.57423e-02,6.65534e-01,-3.98050e-01,2.37460e-01,-4.69020e-01,-6.26348e-01,1.41861e-01,-1.67995e-01,2.75159e-01,-7.58357e-01,5.09047e-01,-2.18314e-01,-6.63284e-01,-5.96326e-02,-2.70302e-02,5.25298e-01,-2.31875e-01,-3.89656e-04,1.35256e-01,-4.62119e-01,9.98652e-01,-3.02960e-01,2.64575e-02,
-5.97260e-02,-1.81556e-01,2.34501e-01,1.16541e+00,9.71402e-02,2.14059e-01,2.09912e-01,3.29551e-01,-6.68404e-01,2.94089e-01,-9.87873e-01,-2.89098e-01,1.52092e-01,-3.27911e-01,-9.99517e-01,6.51597e-03,5.41357e-01,4.09080e-01,-1.00380e+00,-6.68594e-01,-6.59360e-02,3.14514e-01,-3.55336e-01,-5.08573e-02,3.79345e-02,5.01374e-01,-1.10745e-01,4.73986e-01,1.44339e-01,-6.87310e-01,-4.77335e-01,4.34918e-01,5.71927e-01,1.82732e+00,-9.30771e-01,-1.18280e-01,-3.50007e-01,1.94232e-01,1.54950e+00,2.45254e-02,-1.84145e-01,2.93340e-01,-9.70685e-02,-6.32615e-02,2.27517e-01,8.73402e-01,-6.01162e-01,-9.85759e-01,-6.16675e-01,-7.30075e-01,
2.25694e-01,-1.34565e-01,2.60242e+00,-2.79715e-01,-3.26532e-02,2.94372e+00,-3.79766e-01,1.06664e+00,2.56771e-01,-2.46172e-01,6.25800e-03,1.00519e+00,4.44591e-01,1.98980e+00,4.56543e-01,1.01161e-01,2.91298e-01,4.82792e-01,6.29329e-02,-6.35141e-01,-8.57277e-01,3.46568e-02,-6.55902e-01,-1.54773e-01,2.63033e-02,-8.38772e-02,3.12751e-01,-4.04218e-01,1.92815e-01,1.17666e+00,-4.46689e-01,1.14043e+00,-4.22525e-01,4.41512e-01,-1.75073e-01,2.37385e-01,3.62560e-01,-1.08315e+00,7.91726e-01,-2.88726e-01,1.52340e-01,1.65559e-01,-5.58553e+00,-2.92309e-01,-6.09261e-01,3.59480e-03,5.98051e-02,3.37181e-01,-4.55846e-02,-5.15901e-02,
-7.66564e-02,1.20990e-01,1.59437e-01,-3.76459e-01,-7.40420e-02,-8.27669e-01,-5.77822e-01,-3.41242e-01,2.02442e-01,2.09307e-01,7.14259e-02,2.21124e-01,2.67662e-01,-2.77092e-01,-7.27957e-02,-1.21992e-01,3.80444e-01,6.88124e-01,-8.52112e-01,1.48589e-01,2.42942e-01,-1.86376e-01,-2.68930e-01,1.37767e-01,-1.12945e-02,-2.91283e-01,-4.37711e-02,-1.38388e-01,3.47454e-01,7.19202e-03,-3.42095e-01,-6.77820e-01,-8.10131e-01,2.24873e-01,2.84032e-01,2.41017e-01,3.68723e-01,1.66663e-01,-5.84275e-01,-1.18571e-01,-5.50110e-01,2.13646e-01,4.05704e-01,6.34272e-01,3.75864e-02,-2.14671e-01,-4.48739e-01,8.52740e-01,3.67976e-01,-2.34758e-01,
5.33956e-03,-5.37615e-03,-1.84386e-01,-1.42172e-01,-4.16324e-01,3.63281e-01,3.45241e-01,2.96067e-01,-1.24705e-01,3.21918e-01,-2.35065e-01,-9.79821e-02,4.09454e-01,-4.97976e-02,-3.75701e-01,-2.50761e-01,-9.80728e-02,7.23034e-02,5.40125e-01,2.67141e-01,3.18746e-01,3.89418e-01,-5.87745e-03,-5.37585e-01,2.25115e-02,1.45995e-01,4.56052e-01,4.35239e-01,-4.20765e-01,-9.03912e-01,-1.37019e-01,-5.32392e-01,9.04233e-02,-1.04377e-01,6.78713e-02,-5.40395e-02,-5.40637e-01,5.18458e-01,-4.79427e-03,-7.99381e-03,4.67099e-01,1.56818e-03,3.49856e-01,-1.80296e-01,-2.96690e-01,-4.23970e-01,6.35510e-01,-6.04859e-01,2.09523e-01,-3.02473e-01,
3.16452e-01,9.41705e-01,3.42157e-01,-7.28654e-01,1.44900e+00,1.59779e+00,3.78629e-01,-2.48566e+00,1.75339e+00,1.64037e+00,6.51384e-01,8.95445e-01,1.06074e+00,3.32789e-01,-3.90079e-01,-1.51761e+00,1.95381e-01,6.81333e-02,5.71622e-01,3.57020e-01,-1.76810e-01,-6.19163e-02,-5.12860e-01,-1.00640e+00,-1.73602e-02,7.93308e-01,1.57845e+00,7.06538e-01,-1.05357e+00,1.96586e+00,2.25927e-02,3.06791e-01,-3.89903e-01,6.13706e-02,-1.23367e-01,2.01406e-01,-5.14056e-01,3.58004e-01,-1.04007e+00,-2.52695e+00,-8.26933e-01,-1.96170e-01,1.85420e+00,2.43593e-01,-8.37491e-01,-1.63098e+00,5.27055e-01,-1.88347e+00,9.66436e-01,-6.30603e-01,
-3.17651e-01,-3.19950e-01,-7.11380e-01,1.59306e+00,8.41144e-02,1.87901e+00,1.01076e+00,7.89369e-01,5.03075e-01,5.48675e-01,6.16462e-01,3.95678e-01,-6.97480e-01,-2.67855e-01,-2.10824e+00,2.95924e-02,1.39546e-01,-5.01932e-01,5.96622e+00,-7.28010e-02,3.33999e-01,2.52598e-01,-2.77822e-01,-2.73938e-01,-2.14041e-02,5.81109e-01,-8.41668e-01,-2.93347e-02,7.77944e-02,-1.38584e+00,-2.26656e+00,8.69284e-01,9.79843e-01,8.51878e-01,-7.51530e-01,-1.04501e+00,1.83135e-01,-6.72086e-02,1.70897e+00,-6.95573e-02,6.28369e-01,-6.52791e-01,-1.72900e+00,-9.54958e-01,-5.61342e-02,8.78498e-01,6.34302e-01,-1.52410e+00,6.24884e-01,-8.10255e-02,
-3.86459e-02,3.00238e-02,-4.06530e-02,1.06773e-02,-1.54076e-02,4.42524e-02,1.97991e-02,-1.04500e-02,-2.95521e-02,-4.15559e-04,-1.14124e-02,-3.39716e-02,9.67827e-03,2.19633e-02,-5.82732e-02,2.27358e-02,1.64638e-02,-2.88229e-02,-2.46592e-02,3.00242e-02,1.94855e-02,-2.42711e-03,-3.89019e-02,-4.77325e-02,3.00411e-02,-1.41923e-02,-1.70781e-03,3.37068e-02,-5.34102e-03,-3.98973e-02,-2.09353e-02,-4.19243e-02,2.35981e-02,-1.60664e-02,-1.07099e-02,1.16638e-03,-1.93015e-02,-1.32891e-02,2.90370e-02,2.37947e-02,2.51906e-02,-8.46254e-03,-3.90621e-02,-4.94237e-02,-3.08360e-02,-2.64913e-02,-1.19129e-02,-4.04879e-02,3.49146e-03,-2.53291e-04,
-4.42755e-02,-2.23975e-02,3.95319e-02,2.81463e-02,7.56155e-03,1.48695e-02,3.82463e-02,-2.40973e-02,1.36434e-02,2.69977e-02,3.96970e-02,-2.36869e-02,-2.39359e-02,4.00547e-02,-5.36590e-02,1.63967e-02,-3.89532e-02,3.11468e-02,9.23488e-03,-1.69635e-02,-2.13790e-02,-3.42362e-02,-3.89402e-02,-2.28524e-02,1.48964e-03,-4.60219e-02,-4.19442e-02,-2.80751e-02,2.72020e-02,-5.04349e-02,-5.03786e-02,-2.75218e-02,2.35809e-02,-3.04821e-03,2.23060e-02,-2.85153e-02,-5.36653e-02,9.78894e-03,4.01347e-02,-2.18572e-02,3.10464e-02,-9.41373e-03,2.00146e-02,-3.12160e-02,-1.54751e-02,-2.38562e-02,3.89138e-02,-9.13703e-03,-5.06222e-02,-2.07535e-02,
-6.17719e-02,1.97012e-01,7.75186e-01,-5.48024e-01,7.13306e-01,-9.42764e-01,-8.25740e-01,1.35315e+00,-3.92584e-01,-3.73553e-01,3.91394e-01,1.71129e+00,1.77176e-01,1.11333e-01,-2.96522e-01,4.08722e-01,-5.49853e-01,-5.06017e-01,-6.98677e-01,-9.19884e-01,-8.03721e-01,3.46945e-01,4.92311e-01,-3.90682e-01,2.03198e-02,1.91974e+00,1.70524e+00,-2.44044e+00,3.26650e-01,2.37882e+00,-9.26197e-01,2.74110e-01,-6.13414e-02,-1.75021e-01,-3.87996e-01,1.23973e-02,1.69087e+00,-5.50847e-01,2.52452e-01,1.94207e-01,-1.71154e+00,-2.07429e+00,-2.50862e+00,-6.37074e-01,3.84198e-01,-1.56723e+00,-4.31547e-01,1.48913e+00,1.46105e+00,2.88143e-01,
6.94155e-02,2.34446e-01,-3.84280e-02,1.88615e+00,2.63693e-02,-1.40672e-01,-2.94259e-01,6.50465e-01,1.87061e-01,1.05384e+00,-3.91771e-01,-2.89021e-02,2.93536e-01,-3.15122e-03,1.19296e-02,-5.80301e-02,-1.75196e-01,1.53395e-01,-2.37602e-01,2.18234e-01,1.07602e-01,-8.53975e-02,2.82655e-02,6.75960e-02,4.19295e-03,1.68355e-01,5.16009e-02,-2.15669e-01,-1.63664e-01,3.41102e-01,-3.03133e+00,3.74760e-02,2.37013e-01,2.03291e+00,-1.29441e+00,-1.71204e-01,-9.47320e-02,1.08940e-01,2.76891e+00,2.31075e-02,1.62659e-01,2.27194e-02,-3.55248e-02,1.91560e-01,-9.59363e-03,8.77220e-01,1.39812e-01,-3.84797e-01,9.74251e-01,4.28022e-02,
9.55708e-02,4.33631e-01,-1.12481e-01,1.01551e+00,2.10563e-01,-6.62809e-01,-1.03656e+00,1.21467e+00,2.15286e-01,2.00038e-01,1.57302e-01,-1.75396e-01,3.07988e-01,2.95643e-01,4.24433e-01,-7.01291e-01,6.21103e-03,-6.81865e-02,3.58862e-01,9.56812e-01,2.39681e-01,1.80386e-01,7.32720e-02,8.70627e-02,-2.14963e-02,-8.60489e-03,1.75939e-01,-1.10691e+00,7.13154e-01,1.05457e+00,-1.61435e+00,2.53409e-01,1.10704e+00,1.82588e+00,-2.09079e+00,5.24497e-01,9.84293e-02,6.00313e-01,1.90230e+00,-8.70601e-02,-2.46839e-01,-7.06283e-01,5.76806e-02,2.91536e-01,-1.98775e-02,9.39983e-01,3.23191e-01,-9.03043e-01,1.04217e+00,4.79787e-01,
1.89794e-01,2.59927e-02,-2.67080e-01,7.70627e-01,-9.08084e-01,-1.08352e+00,-1.32607e-01,-5.95012e-02,-3.79545e-01,-1.76573e-01,1.32870e-01,2.35878e-02,-4.27438e-01,4.11620e-02,-1.24576e+00,6.95380e-01,-1.86409e-01,7.86937e-01,3.00952e-01,4.87631e-01,1.98591e-01,-1.17908e+00,4.08935e-01,-1.66863e-01,4.72071e-03,4.63115e-01,4.02544e-02,1.03104e-01,2.78280e-01,7.87363e-02,7.48118e-01,-1.43446e+00,-3.04031e-02,2.12798e-02,1.26671e-01,-5.00648e-01,7.66004e-02,1.74572e+00,-1.12913e-01,-5.76158e-02,2.83746e-01,6.35860e-03,1.30734e+00,6.43948e-01,-2.49994e-01,5.99107e-01,-2.04982e-01,1.03982e-01,-6.00363e-01,-1.55851e-04,
-6.96492e-01,-1.29705e-01,6.00065e-01,3.04242e-01,5.64650e-01,1.62283e+00,-2.86657e-01,8.95909e-01,-3.70717e-01,7.83965e-02,-1.56672e-01,1.15442e-02,-5.46188e-01,-3.13768e-01,4.22914e-01,4.40714e-01,1.96067e-01,7.64002e-02,1.04154e+00,4.34294e-01,1.10833e+00,1.14390e+00,-3.38644e-01,6.97821e-01,-4.30431e-02,-1.60509e-01,1.75124e-01,-2.19281e-01,1.38442e-01,-5.32025e-01,4.92178e-01,2.80086e-01,-9.18652e-02,-9.76743e-01,-1.44368e-01,1.32925e+00,9.28099e-01,-2.64673e-01,-3.25853e-01,5.06619e-02,-6.72188e-02,9.20980e-01,1.52445e+00,-1.15136e-02,1.23563e+00,3.83677e-01,1.11434e+00,-1.21377e+00,-2.33612e-01,2.60814e-01,
8.88844e-01,4.27566e-01,1.02062e-01,-6.90397e-02,-5.01228e-01,9.93516e-02,7.76821e-02,3.55111e-01,1.22211e-01,-3.29817e-01,-4.18485e-01,1.05954e-01,-3.96526e-01,-3.51762e-01,-1.00918e+00,-6.46073e-01,-1.43713e-01,-5.94720e+00,6.35868e+00,7.68239e-01,1.06986e+00,-2.53068e-02,-5.45270e-01,3.81902e-01,-3.21500e-02,-3.54410e-01,8.31361e-02,2.26273e-01,-3.45287e+00,-8.11540e-01,-2.67115e-03,-4.37879e-01,2.98782e-01,-2.60298e-01,-6.47405e-02,-4.21098e-01,2.65019e-01,1.88276e-01,-5.36864e-01,-9.19931e-02,3.44327e-01,2.39726e-01,1.56173e-01,2.88044e-01,6.15409e-02,-3.32414e-01,-2.27737e-01,-9.69131e-01,3.39752e-01,6.69527e-02,
-3.12677e-01,5.20327e-01,-2.48040e-01,6.05504e-01,-3.09141e-01,3.90544e-02,3.85253e-01,2.28576e-01,3.33817e-01,-6.07717e-01,-7.25680e-01,-5.10823e-01,-1.26434e+00,5.70081e-02,8.47978e-01,-1.95380e-01,-2.17927e+00,4.44798e-01,2.72631e-01,-2.39481e-03,8.79033e-01,-3.02081e-01,9.29573e-02,-2.38074e-02,1.43396e-02,-3.65817e-01,-1.22969e-01,3.53901e-01,1.06828e-01,1.15007e+00,3.48415e-01,2.74815e-01,-6.15049e-01,7.47702e-01,-1.10271e-01,4.05219e-01,-4.73049e-01,-6.27194e-03,-1.05718e+00,-3.32887e-01,-3.36727e-01,3.02502e-01,1.45377e+00,8.60923e-01,2.41607e-01,-1.39687e+00,-6.88863e-01,1.71815e-01,-6.11940e-01,2.71061e-01,
1.93484e-01,1.44606e+00,6.59837e-01,1.59339e+00,1.12098e+00,1.54288e-01,-3.20350e-01,1.95459e+00,1.13162e+00,7.48666e-01,1.11308e-01,1.05774e+00,1.77719e-01,1.73826e-01,5.90763e-01,-1.56491e-01,1.00213e+00,-5.50478e-01,4.21389e-01,4.74971e-01,2.32414e-01,7.66407e-01,-8.72028e-02,-6.44729e-02,3.17749e-03,5.04155e-01,8.65834e-01,-1.29013e-01,-6.66669e-01,2.21135e+00,-9.28396e-01,-7.74994e-01,6.47790e-01,1.99476e+00,-2.22877e+00,2.00322e-01,-4.51976e-01,-1.15480e+00,2.49611e+00,-2.14892e-01,-3.55216e-01,7.24529e-01,1.15431e+00,5.97842e-01,-7.22090e-01,3.55473e-01,-1.57558e-01,4.82329e-01,1.85383e+00,-1.33005e-01,
-1.53016e-01,1.85399e-02,4.96725e-01,-1.76311e-01,1.32579e-01,-3.68466e-01,-3.74409e-01,-6.65932e-01,7.83878e-01,9.72681e-02,-1.92711e-02,3.06423e-01,-8.31845e-01,-3.18349e-01,1.59622e-01,1.78447e-01,3.33760e-01,4.37012e-01,-1.07634e+00,2.88225e-01,-1.49596e-01,5.78697e-01,-1.63530e-02,-3.00271e-02,-5.23779e-03,1.71820e-01,2.70772e-01,1.18964e+00,-1.46288e-01,1.77457e+00,3.33766e-01,7.01787e-01,-3.40696e-01,-1.83007e-01,-4.23338e-01,4.06780e-01,3.46528e-01,2.79131e-01,-9.25599e-02,-1.19723e+00,1.25245e-01,-1.09890e-01,-1.27133e-01,1.50799e-01,5.36989e-01,2.01571e-01,3.34160e-01,2.66577e-02,-1.16502e-01,7.14199e-01,
1.47201e-01,-9.21204e-01,-6.70038e-01,2.76452e-01,-5.95812e-02,-1.79931e+00,4.82328e-01,1.18215e+00,1.63559e-01,1.15570e+00,2.08731e-01,1.22999e-01,1.45630e-02,4.83139e-01,-3.70692e-01,1.16536e-01,-2.02295e-01,-3.19911e+00,4.61817e+00,-3.80257e-01,6.01297e-02,1.74455e-01,5.36445e-01,-1.04324e+00,4.15148e-02,1.18901e-01,2.00301e-01,3.20822e-01,-8.69331e-01,4.20558e-01,-3.96631e-03,4.96776e-01,2.65146e-01,5.51300e-01,1.37582e-01,-9.19040e-02,-6.42418e-01,1.44185e-01,3.35059e-01,2.66428e-02,-3.91703e-01,-3.06774e-01,-2.18651e+00,-4.68979e-01,1.55459e-01,3.29766e-01,4.99586e-02,-2.67346e+00,1.09862e+00,-7.59393e-01,
5.20494e-01,-2.52243e-01,6.10458e-01,8.69702e-01,-1.05385e-01,-5.88143e-01,-3.66450e-01,3.02080e-01,1.01004e-01,-2.78749e-01,-3.07871e-01,3.97986e-02,1.49933e-01,5.42978e-01,-6.65872e-02,4.53650e-01,1.48950e-02,-4.55255e-01,1.27652e+00,7.23549e-02,-2.01236e+00,2.54196e-01,5.30424e-01,2.63022e-01,-4.02366e-03,8.45265e-01,4.87570e-01,-1.29824e+00,3.78555e-01,1.78955e+00,-1.62812e-01,1.22308e+00,1.73515e+00,-4.18090e-01,1.39204e-03,-2.07495e-01,2.14850e-01,-5.80392e-01,-4.44098e-01,-5.23926e-01,-8.78790e-02,-1.35729e+00,-2.08248e+00,-2.88261e-01,2.65402e-01,-6.89522e-02,-6.14031e-01,-4.74520e-01,6.49540e-01,2.98414e-02,
3.38122e-03,3.58244e-03,-5.23586e-02,-4.35589e-02,-1.21602e-02,3.89559e-02,-2.45145e-02,8.32604e-03,-3.09848e-03,-1.67718e-02,-7.53861e-03,-1.39430e-02,-5.15569e-02,-1.34976e-02,-5.01082e-02,3.19140e-02,1.18015e-02,-3.74551e-02,-6.61786e-03,-4.71335e-02,2.11126e-02,4.19105e-02,-2.87429e-02,-2.41864e-02,-2.16456e-03,-1.63757e-02,-2.72441e-03,-2.32918e-03,-4.56841e-02,3.97316e-02,3.69648e-02,-4.38005e-02,-3.08282e-02,-3.11477e-02,4.59785e-03,-2.23115e-02,-4.65768e-02,-4.10791e-02,1.14814e-03,-2.75069e-02,2.01526e-02,1.73822e-02,-1.35545e-02,-4.21239e-02,3.54812e-02,-4.67220e-02,-2.30342e-02,1.85787e-02,-5.93601e-03,-4.32496e-02,
3.93825e-02,5.51523e-01,-3.74186e-02,2.12568e+00,3.27385e-02,-5.54135e-03,1.31969e-01,1.44825e+00,3.97912e-01,1.15899e+00,-9.84793e-02,-2.10169e-01,3.54812e-02,1.11451e-02,4.02031e-02,6.70827e-02,-6.69260e-02,-1.97131e-01,-1.07872e-01,1.15978e-01,1.93432e-01,-1.86327e-01,-1.41739e-02,-1.09306e-01,-4.62236e-04,4.08389e-01,2.07176e-01,1.20351e-02,-8.33436e-02,2.56539e-02,-3.82941e+00,-5.71383e-02,1.00336e+00,2.08705e+00,-1.68975e+00,3.73776e-02,4.79924e-02,5.36515e-02,2.58291e+00,-1.78819e-02,-1.26225e-01,-4.69441e-02,-2.08834e-02,6.45165e-01,4.34943e-02,6.51766e-01,1.88265e-02,1.34659e-01,1.72014e+00,-9.40037e-02,
5.44720e-01,6.11461e-02,-1.00350e-01,-4.16609e-01,3.86589e-02,-1.42968e-01,2.05397e-01,-2.02746e-01,-1.43605e-01,7.23071e-01,-2.72616e-01,5.66899e-02,-4.64974e-01,-5.57114e-02,-9.35819e-01,-4.87725e-01,6.60862e-02,-1.14688e+00,7.52384e-01,7.76616e-01,9.99927e-01,4.14948e-01,-2.58827e-02,1.74230e-01,1.08663e-02,-5.80552e-02,-8.98263e-02,-2.10036e-01,-6.49034e-01,-4.43488e-01,8.40152e-02,2.58980e-02,2.61913e-01,4.33741e-01,-3.18330e-01,-6.49389e-01,6.92428e-01,-1.59353e-01,8.41256e-01,9.56606e-02,-2.89939e-01,-2.50984e-01,-1.68534e+00,1.52642e-01,3.14703e-01,5.03221e-01,-9.61420e-02,-5.62738e-01,6.02082e-01,-5.09520e-03,
6.72443e-02,-4.79192e-01,8.34378e-01,-2.72887e-01,1.20697e-01,-2.35187e+00,4.05753e-01,-9.26433e-01,4.70085e-01,1.74644e-01,4.00528e-02,2.96498e-01,-2.39246e-01,1.19773e+00,1.14369e-01,1.18812e-01,-7.27090e-01,-3.84332e-01,-6.30446e-01,-8.02920e-01,-1.88257e+00,1.51001e+00,-6.28297e-01,3.12106e-01,8.42637e-03,-7.47602e-01,2.42998e-01,-4.17348e-01,-6.28067e-02,4.35045e-01,-4.35919e-01,1.01183e+00,1.16486e+00,-4.81607e-01,3.93804e-02,-4.35899e-01,4.40774e-02,-8.46752e-01,4.95505e-01,2.15156e-01,2.38732e-02,-2.01644e-01,-2.21665e+00,-3.03898e-01,6.35240e-01,-2.30207e-01,7.04472e-01,8.16947e-01,1.36805e+00,4.98002e-02,
-9.29349e-01,-8.05513e-02,6.40457e-02,-2.63110e-01,1.66127e-01,-1.66051e+00,-1.32191e-01,-1.32799e+00,1.66012e-01,-1.29814e-01,-3.34575e-01,6.60509e-02,6.33091e-01,3.79344e-02,-3.87225e-01,-1.28014e-02,1.01398e+00,-3.84572e-01,7.49947e-03,4.83797e-01,-3.00426e-02,9.71535e-01,-5.16098e-01,-1.18454e-05,-2.39611e-02,-9.91890e-02,-4.51932e-01,-5.08603e-01,8.69789e-02,-1.37146e+00,-5.65857e-02,8.45263e-01,-2.49064e-02,7.51794e-02,2.83288e-01,5.03712e-02,-6.36193e-01,-6.33586e-01,-4.62844e-01,3.65928e-01,-4.43404e-01,-3.03194e-01,-4.55006e-01,-4.37503e-01,4.78217e-01,4.34538e-01,-1.27904e-01,-1.30974e+00,1.76126e-01,1.03441e-01,
-8.77163e-02,-3.94371e-02,6.51327e-02,1.97440e+00,-2.47738e-01,-1.78367e-01,3.70657e-01,4.38093e-01,-5.27993e-02,9.39339e-02,-1.62328e+00,3.72354e-01,6.52207e-01,-3.38977e-01,6.84757e-01,-4.67459e-02,9.35885e-02,-5.02091e-01,-8.20450e-02,1.79676e-01,1.03077e-01,3.64674e-02,-1.94142e-01,5.34418e-01,-2.51877e-02,-7.64182e-01,1.16629e-01,-6.43694e-01,-1.73171e-02,6.90343e-01,-6.84825e-01,-2.40514e-01,4.17240e-01,2.45363e+00,-1.05578e+00,3.05891e-01,1.25125e-01,2.16656e-01,2.45687e+00,-4.56989e-02,-1.41936e+00,3.89506e-01,-4.67417e-01,3.01594e-01,8.57787e-01,9.01732e-01,-4.27994e-01,6.84423e-01,1.18936e-02,-2.03554e-01,
-1.37063e-01,9.50139e-03,-1.38986e-01,1.44878e-02,2.00457e-02,-2.41026e-01,-1.22976e-01,3.24929e-02,7.89315e-02,2.04181e-02,-1.36922e-01,-5.75461e-02,1.01848e-02,7.60538e-02,-1.46086e-01,-9.10902e-02,5.73670e-02,-6.59804e-02,1.47989e-01,7.02922e-02,-6.61492e-02,1.05491e-01,-7.55165e-02,-8.48805e-02,-4.75482e-03,6.60452e-02,7.83188e-02,-7.48413e-02,-1.36464e-01,4.36312e-02,-1.47501e-01,6.36917e-02,9.17754e-02,1.61523e-03,-1.12771e-01,-1.44493e-01,-5.74570e-02,6.99029e-02,5.93460e-02,-1.69087e-01,-9.48229e-02,-3.03755e-02,-6.45111e-02,5.36279e-02,3.68523e-02,6.18624e-02,6.67439e-02,9.57649e-02,6.67173e-02,-1.16002e-01,
4.69479e-01,4.08887e-01,1.85306e-01,8.69666e-01,-9.48590e-01,-8.58433e+00,-3.50746e+00,1.13923e+00,5.19099e-02,3.13964e-01,4.30771e-01,1.84407e+00,2.44555e-01,-1.79767e-02,-1.12226e-01,1.09839e+00,4.79041e-01,-4.32587e-01,1.70500e+00,-6.87377e-01,-2.69641e-01,-3.30857e-01,-6.58156e-01,-2.24763e-01,2.04281e-02,5.21212e-01,9.13439e-01,7.90856e-01,-7.33116e-01,1.01741e-01,-6.23447e-01,-7.17481e-01,7.27153e-01,-7.29499e-01,-1.79704e+00,1.08423e+00,6.65923e-01,7.65671e-02,1.86833e-01,-1.71499e-01,6.21782e-01,-3.58733e-01,2.82067e-01,-1.37218e-01,-2.09932e-01,3.60990e-01,4.00386e-01,4.37922e-01,8.84694e-01,-1.52289e+00,
5.18163e-01,-1.88923e-01,-1.10625e-01,6.10294e-01,3.57391e-01,1.10874e+00,2.13147e-01,1.38245e-01,-5.97591e-01,3.33084e-02,-2.86740e-01,4.09152e-02,-8.97073e-01,5.62989e-01,1.05394e-01,-1.18396e+00,-1.16384e+00,4.42085e-01,-1.35852e+00,5.98555e-01,-4.04033e-02,1.98295e+00,-2.90267e+00,6.23679e-01,9.87399e-03,4.90809e-01,-3.92746e-01,3.94893e-01,-5.09129e-01,-1.07162e+00,4.56491e-02,-4.90497e-01,-3.56975e-01,-4.29600e-01,1.69956e-01,1.53469e-01,3.53345e-01,9.76872e-01,-6.93345e-01,-7.23523e-01,-2.33071e-01,9.08646e-02,5.22225e-01,-4.99661e-01,-4.39506e-01,-1.79538e-01,5.06969e-01,4.46322e-01,9.71833e-02,-4.23397e-01,
-1.65013e-01,-8.34310e-02,2.42462e-01,8.49660e-01,-4.79366e-01,5.82663e-01,9.82093e-01,1.07779e+00,7.26198e-01,5.29642e-01,-4.18189e-01,-7.80354e-01,3.65350e-01,7.16821e-01,2.65596e-01,-8.55594e-02,-6.24986e-02,-4.34209e-02,-4.74534e-01,2.63681e-01,3.66384e-02,1.05534e+00,-1.84747e-01,3.42371e-01,-7.13747e-03,7.95141e-01,1.19600e+00,5.41619e-01,6.09159e-01,1.73477e-01,-2.57620e+00,-1.21195e+00,1.01410e+00,1.15643e+00,-1.40826e+00,8.09748e-01,1.30022e-01,5.31970e-01,2.04333e+00,1.37579e-01,-1.64873e-01,-5.30169e-01,2.25717e-01,6.53394e-01,-1.65544e-01,6.86597e-01,1.99657e-01,8.20833e-01,1.70016e+00,-9.23986e-01,
3.96881e-01,-9.66248e-02,5.24921e-01,2.90649e-01,-1.41071e-01,-1.89014e+00,-1.60960e+00,1.25052e-01,-4.60372e-01,9.90292e-01,1.49853e-01,-4.03445e-01,-2.08805e-01,-3.95895e-01,-1.32392e+00,-2.29971e-01,-7.85377e-01,1.20120e-01,-4.75422e-01,5.98125e-01,-2.38426e+00,1.42755e+00,2.47450e-01,-1.41196e-01,-2.68990e-02,2.70787e-01,-9.50999e-01,-4.87612e-01,7.89066e-01,-6.25604e-03,-1.23255e-01,1.10176e-01,-1.70302e-01,4.73661e-01,-5.67483e-02,-1.98642e-01,-4.13209e-02,3.35648e-01,2.29542e-01,-1.05606e-01,-3.42456e-01,9.81005e-02,-7.32150e-01,6.08983e-02,6.04400e-01,5.80900e-01,-1.76139e+00,-7.41536e-01,-1.69787e-01,-5.81103e-01,
-1.24389e+00,5.62697e-01,2.60073e-01,-2.36453e-01,-3.68129e-01,-2.26979e-01,2.39364e-01,6.63296e-01,-8.59340e-01,-8.28776e-01,-1.15018e-01,4.53279e-01,-2.38156e-02,4.82484e-01,8.26063e-01,1.61489e-01,-3.38085e-02,5.68557e-01,-1.88445e+00,7.45479e-01,-1.19509e-02,-1.04784e+00,1.10183e+00,3.31816e-01,-3.45084e-02,2.38618e-01,1.53198e-02,1.14514e-01,3.54332e-01,4.53691e-01,-1.66026e-01,-7.10009e-01,-6.57177e-01,-2.07562e-01,-2.61893e-01,3.24570e-01,-7.29220e-02,7.26191e-01,-4.55567e-02,-1.27022e+00,-6.33246e-01,4.17593e-01,1.43819e+00,-3.90624e-01,-6.53587e-03,-1.00887e+00,5.09059e-02,6.46461e-01,-1.59989e-01,-2.31131e-01,
-3.48511e-01,9.88610e-02,1.76461e-01,1.00303e+00,2.16832e-01,2.44846e-01,5.74442e-02,5.66669e-01,-3.48403e-01,2.12736e+00,2.62385e-01,-5.18001e-01,-1.12418e-01,-3.08999e-01,1.19528e-01,2.83702e-01,3.78970e-01,9.08443e-02,-2.07452e-02,6.67426e-01,2.88770e-01,-4.61449e-02,-1.56935e-01,4.29915e-02,-2.35721e-02,3.67715e-01,4.00778e-02,2.13215e-01,2.91645e-02,1.91931e-01,-3.80114e-01,6.48505e-02,1.40262e-01,1.38751e+00,-3.87269e-01,-4.34535e-01,-9.82257e-02,-6.13431e-01,6.17695e-01,1.71829e-01,-2.66374e-01,4.84793e-02,3.30838e-01,3.21649e-01,5.07324e-01,8.95297e-01,-1.50832e-01,-6.01977e-01,-1.42121e-01,1.60795e-01,
8.36304e-02,
-2.13264e-02,
7.56021e-01,
-1.25117e+00,
1.78488e-01,
-3.39035e-01,
1.09259e-01,
-1.26287e+00,
-3.56292e-01,
-8.29969e-03,
-2.01058e-02,
-1.91960e-01,
-8.93299e-02,
-2.06275e-01,
1.04999e-01,
-9.31842e-02,
-2.46031e-01,
1.59304e-01,
4.66198e-01,
-7.60092e-01,
1.27120e-01,
3.93425e-01,
-7.18548e-02,
3.19678e-01,
-1.41202e-02,
-6.60314e-03,
-7.03821e-01,
4.40680e-01,
-4.04009e-01,
-5.49726e-01,
-1.33344e+00,
-1.12042e+00,
-7.31207e-01,
2.37585e-01,
-8.27454e-01,
3.17480e-01,
-7.41347e-01,
-1.74399e-02,
-3.02170e-01,
-9.97564e-02,
6.54466e-01,
1.25195e+00,
3.90778e-02,
-2.42208e-02,
-3.85534e-01,
-3.59001e-01,
-1.55886e-01,
2.86247e-02,
-4.26387e-01,
7.80149e-01,
1.46189e-01,-5.49280e-03,7.94064e-01,1.30974e+00,2.23865e-01,-1.36364e+00,-1.09602e-01,8.99165e-01,3.09925e-01,6.82001e-03,-3.61779e-03,1.49879e-01,-2.34991e-01,1.57871e-01,-1.78206e-03,4.84469e-01,3.24119e-01,-5.97932e-01,-4.91767e-01,3.24383e-01,-6.68081e-01,3.05006e-01,4.19393e-01,2.98637e-01,2.35120e-02,5.49805e-03,-1.79551e-01,-1.50383e+00,3.07815e-02,3.37682e-01,3.41079e-01,1.64862e+00,1.50486e-02,3.39387e-01,3.95493e-01,-7.84894e-01,-6.33384e-01,-3.84782e-02,-3.22214e+00,6.25092e-01,-8.80121e-01,-1.00599e+00,-5.20276e-01,3.33533e-02,4.96301e-01,1.13843e-01,-1.11668e+00,-1.15646e+00,5.14942e-01,-1.32540e-01,
-1.15868e+00,-8.27970e-03,-4.78919e-01,-4.85245e-01,1.43663e+00,1.09020e+00,3.48082e-01,-4.84801e+00,4.27364e-02,3.70249e-01,-1.92720e-02,-6.73898e-01,1.60817e-01,6.50445e-01,8.56685e-01,3.71452e-02,2.55879e-02,-2.62879e-01,-1.08505e+00,-3.62866e-01,-1.62019e+00,-7.89140e-01,3.73720e-01,-9.79167e-01,2.76255e-02,3.13571e-02,5.36934e-01,-1.15020e+00,-9.40996e-02,-3.33465e-02,-2.57505e-01,1.96999e+00,5.01887e-02,7.34023e-02,-8.66457e-01,7.79380e-01,7.61027e-01,-2.17453e-02,-2.00539e+00,-8.00616e-01,2.14420e-01,1.15456e+00,-9.68406e-01,2.54033e-02,1.57945e-01,-1.84070e-01,-5.93434e-02,-2.33270e+00,-5.17816e-01,-3.17281e-01,
1.01526e+00,2.82619e-02,1.11928e-01,-5.24218e-01,3.73079e-01,-1.15515e-02,-1.16846e-01,-7.87415e-01,-1.54565e-01,6.78598e-02,-3.53207e-03,2.64110e-01,-9.60898e-02,5.44625e-01,1.48703e-01,1.15785e-01,-4.90416e-02,-6.47281e-01,8.00784e-01,-1.02963e-01,6.47423e-01,2.10384e-01,1.34463e-02,7.18825e-02,4.19789e-02,-2.86539e-03,-1.88711e+00,-5.09364e-01,3.96210e-01,2.34937e-01,-2.34110e-01,-5.94430e-01,-8.87805e-02,6.62484e-01,-1.10416e-01,-6.34023e-01,-7.40161e-01,3.17471e-02,1.29422e-01,3.61611e-01,-1.00754e-01,-5.02559e-01,-1.97490e-01,1.01422e-03,2.36443e-01,3.12967e-01,-3.51621e-01,7.69264e-02,-4.90542e-01,-3.05323e-01,
1.71636e-01,2.83074e-02,4.77447e-03,2.51795e-02,5.62861e-01,-8.16581e-02,1.07444e+00,-1.49343e-01,3.33382e-01,-2.67916e-01,2.51268e-02,6.82117e-02,-6.94260e-02,3.54088e-01,-1.32623e-01,1.93479e-01,1.64059e-02,-2.62629e-01,4.27829e-01,-2.74668e-01,-5.26183e-01,3.69006e-01,2.87875e-01,-1.81410e-01,-2.81547e-02,-3.09932e-03,8.11461e-02,7.71569e-01,2.67258e-01,-1.77900e-01,1.51148e-01,-6.83816e-01,3.47869e-01,6.74708e-01,1.04331e+00,-3.56596e-02,2.54330e-01,-3.99931e-02,1.76831e+00,2.31855e-01,-2.73087e-02,1.16736e-01,3.75862e-01,3.95382e-02,3.61845e-01,-1.35661e-01,1.86775e-01,-3.63975e-01,-1.92900e-01,-3.04459e-01,
9.54753e-01,2.54426e-02,1.02894e+00,-3.71253e-01,3.74366e-01,-4.67437e-01,-3.56402e-01,-2.64547e-02,-1.61814e-01,5.01064e-01,5.11982e-02,-1.32892e-01,-7.25915e-01,-6.93864e-01,7.69860e-01,-4.07396e-02,2.52142e-02,9.80047e-03,-5.31738e-01,-2.58149e-01,-1.66211e+00,-1.15432e+00,1.95663e-01,-4.42208e-01,4.14948e-02,4.97233e-02,9.67945e-01,-8.19764e-01,-5.16174e-01,5.03779e-01,5.33719e-01,-1.93221e+00,5.46808e-01,2.17528e-01,1.59740e-02,6.95079e-01,-4.29619e-01,4.47534e-02,-9.75336e-02,3.80443e-01,2.74349e-02,-8.09258e-01,1.04735e+00,-5.31277e-03,2.72225e-01,8.18570e-01,9.76271e-01,1.37737e-01,-6.36363e-01,-5.01673e-01,
-1.20803e+00,-3.03893e-02,4.36580e-01,3.35275e-01,-1.73481e-01,4.10602e-01,3.69670e-01,-3.08885e-01,-3.60604e-01,-5.25032e-02,1.12430e-02,-7.91135e-01,6.35634e-01,-7.33389e-01,1.06547e+00,1.06913e+00,-2.82928e-01,1.86910e+00,-1.04781e+00,5.03681e-01,-2.93954e-01,1.90397e-01,7.13060e-01,1.26779e-02,1.16682e-02,-7.02564e-03,2.24752e-01,-9.04792e-01,-6.25598e-01,-1.43755e-01,-1.47380e-01,1.06866e+00,5.56815e-01,-2.14686e-01,1.35658e-01,-2.61631e+00,1.18324e-01,1.45811e-02,1.47976e+00,5.65644e-01,4.49883e-01,-9.72100e-01,7.01760e-01,-1.56959e-03,5.46969e-01,4.84761e-01,-6.90575e-01,-5.92881e-01,1.40457e-01,-6.36208e-01,
-4.23354e-01,2.22215e-02,3.38511e-01,1.27597e+00,-9.93195e-01,1.86285e+00,-2.55352e-01,2.35388e-01,-6.45096e-01,-2.28759e-01,-8.60620e-03,4.94616e-01,7.11973e-01,-2.16692e-02,1.73308e-01,4.41210e-01,-4.12312e-01,1.11543e+00,-8.42177e-01,4.96705e-01,-6.56966e-01,2.17866e-01,-5.25666e+00,5.85152e-02,3.64648e-02,-1.27636e-02,-5.18897e-01,-1.13312e-01,2.04036e-01,-5.06779e-01,1.00029e+00,4.58671e-01,-3.51700e-01,-2.37494e-01,-2.16041e-01,-4.56268e-01,2.79527e-01,-1.87672e-02,-6.89665e-02,-4.72066e-01,-4.09726e-01,4.49564e-01,-3.02367e-01,-4.75306e-02,-7.11888e-01,1.10217e-01,-1.63112e+00,1.51227e-01,7.41229e-01,-1.30589e-01,
-7.98789e-01,8.16474e-03,5.53952e-02,-5.59857e-01,3.99991e-01,3.17441e-01,1.19912e-01,-8.09295e-02,-4.16507e-01,3.19796e-01,2.15959e-02,7.66021e-02,4.78590e-01,1.18455e-01,-1.37408e-02,8.72587e-02,-2.22939e-01,1.21172e-01,5.16616e-01,-1.46351e-01,4.91861e-01,5.12595e-01,6.23815e-02,1.62660e-01,1.29086e-02,1.07032e-02,1.17357e+00,-9.46069e-01,-5.17553e-01,-2.27999e-01,-2.04112e-01,-2.01218e+00,2.31722e-01,3.37474e-01,5.13268e-01,-2.90241e-01,2.42300e-02,3.42259e-02,-2.14809e+00,6.27906e-01,6.31145e-02,7.07410e-01,-2.66103e-01,9.90511e-03,8.69404e-02,-1.29817e-01,3.94925e-01,-2.08062e-01,1.95591e-02,4.27442e-01,
2.00586e+00,-1.27632e-02,-2.32629e-01,1.59473e-01,3.91096e-02,6.20229e-01,5.09433e-01,3.07255e-01,1.60668e-01,-1.46495e-01,2.48747e-02,7.96921e-02,6.14811e-01,3.53617e-01,7.46963e-03,-5.92980e-01,-5.28440e-01,-2.00804e-01,-4.40878e-01,4.06391e-02,-3.82712e-01,-4.07466e-01,2.13453e-02,4.99785e-01,1.36693e-02,5.12708e-03,3.89312e-01,-1.71351e-01,-1.79876e-01,-2.60519e-01,1.69260e-01,-9.00286e-03,4.39651e-01,5.09905e-01,3.92608e-01,1.06550e-01,-3.94318e-01,8.15502e-03,-1.88047e-01,-2.66501e-01,4.98249e-01,2.73216e-01,3.95571e-01,4.77066e-02,4.04917e-01,2.80298e-02,3.54698e-01,1.04421e+00,2.01673e-01,1.53567e-02,
7.36261e-01,-3.49315e-02,-5.93179e-01,-6.59658e-01,-6.05165e-02,1.79025e-01,2.28882e-02,-7.25168e-01,-9.95404e-01,1.96670e-01,-3.82984e-02,-5.35458e-01,-1.70076e+00,-3.17302e-01,-6.49810e-01,6.94239e-01,2.32506e-01,-3.99586e-01,-1.30699e-02,-1.82404e-01,-1.42784e-01,6.92499e-01,-2.43705e-01,-2.86280e-01,2.67375e-02,-3.11070e-02,-2.68279e-01,-8.21242e-01,3.73435e-01,-7.52087e-01,-1.17616e-01,-2.79525e-01,-1.98695e-01,7.79644e-01,-3.52071e-01,4.72131e-01,-1.00590e+00,4.88867e-02,-2.11403e-01,7.65604e-01,1.53195e-01,-2.60925e-03,-1.46497e-02,-4.32328e-02,1.99555e-01,-1.37035e-02,9.71514e-01,-1.23488e+01,7.53889e-03,8.91916e-02,
1.45236e-01,1.85332e-02,3.92728e-01,6.83263e-01,-1.67880e-01,6.17246e-01,-2.61900e-01,1.65662e-01,1.22487e-01,-4.08721e-01,2.65710e-02,2.51721e-01,1.00870e+00,-1.62395e-01,-3.94199e-02,5.48027e-01,-1.01998e-01,-4.21372e-01,2.93939e-02,1.15168e-01,1.93268e-01,2.85077e-01,2.23261e-01,1.53580e-01,5.37639e-02,-3.83251e-02,-3.01853e-01,-1.74033e-01,2.99166e-01,1.58145e-01,3.87981e-01,-8.84698e+00,-4.97376e-01,1.33979e-01,3.49845e-02,3.23720e-02,-3.12008e-01,4.53741e-03,-3.80886e-01,9.47700e-02,-3.35767e-01,-7.06190e-01,6.20271e-02,2.49791e-02,-1.00651e-01,-4.45240e-01,1.91707e-02,1.21622e+00,2.60271e-01,-1.23400e-01,
-5.86106e-02,-3.25465e-02,2.12611e-02,-1.26930e-01,2.48967e-01,2.59352e-01,2.06354e-01,2.53533e-01,2.73296e-02,-3.89773e-02,3.27666e-02,-3.74022e-02,4.59185e-01,3.10857e-01,1.21632e-01,-2.19290e-01,-1.03886e-01,-4.16940e-01,2.84569e-01,5.71120e-02,5.09476e-02,-1.20017e-01,-1.23230e-01,9.71130e-02,1.40821e-02,-1.53466e-03,-9.55799e-03,1.74724e+00,3.05293e-02,9.25492e-02,-1.10047e-01,4.40817e-01,-1.70387e-01,1.15798e-01,-1.30068e-01,2.22617e-01,-2.51497e-01,-3.69985e-02,5.87557e+00,-2.53685e-01,1.07249e-01,2.10074e-02,3.10250e-01,1.42082e-02,2.99219e-01,2.13352e-01,3.85999e-01,3.11366e-01,2.50191e-03,4.91241e-01,
8.97481e-01,3.09094e-03,1.92671e-01,8.55296e-01,-7.62625e-01,-1.08019e-01,1.08903e-01,7.31507e-01,-9.99327e-01,2.91005e-01,3.58925e-03,-4.89334e-03,1.02964e+00,-1.90083e-01,1.10458e+00,2.98966e-01,3.63867e-01,-1.59844e-01,-3.90253e-01,3.57618e-01,-7.71036e-01,4.28090e-01,-9.67465e-02,3.33913e-01,-5.03781e-02,3.02648e-02,-1.22225e-01,-2.63291e-03,4.15508e-01,-6.37667e-02,1.61597e-01,-3.94706e-01,-4.58646e-01,1.49461e-02,7.66430e-01,-8.83313e-01,9.72333e-01,1.16716e-02,-7.78327e-02,1.24170e+00,-1.17443e+00,-2.64929e-02,-2.69524e-01,-1.26366e-02,-2.64071e-01,-9.55188e-01,7.90209e-01,-6.49319e+00,3.56441e-01,-9.01646e-01,
-2.03380e-01,3.54539e-02,-1.35842e-01,1.72732e+00,-5.60961e-01,1.44685e+00,-3.14754e-01,-8.18392e-01,-5.70532e-01,-3.13813e-01,-5.82146e-04,-6.49392e-02,2.67081e-01,4.68688e-01,1.54828e-03,2.67443e-01,-3.94569e-01,-1.38015e-01,-6.13118e-01,2.33635e-01,2.45579e-01,-3.98519e-02,-5.88964e-01,-3.84830e-01,-2.87838e-02,3.47323e-02,1.34707e+00,1.39421e-01,2.71830e-01,-1.18784e-01,4.62405e-01,-1.07610e+00,6.27531e-01,8.76018e-01,1.89344e-01,-6.39650e-02,6.18201e-01,4.44948e-02,-8.93343e-01,-3.76870e-01,4.99692e-01,2.53519e-01,-1.07368e+00,3.69978e-02,-3.08034e-01,1.94944e-02,-4.97909e-01,-7.93979e-01,-4.99281e-01,-3.33430e-02,
6.32138e-01,4.12635e-02,-5.40681e-01,-1.65890e-01,2.21051e-01,-1.28935e-01,1.68942e-01,-9.94237e-01,1.41951e-01,-2.19657e-01,-1.25087e-02,1.38579e-01,1.62897e-01,2.69067e-01,-5.57868e-01,2.74746e-01,-9.93033e-01,-9.18478e-02,6.15353e-01,-1.78999e-01,9.65806e-02,2.19728e-01,-1.45738e-01,-5.43784e-01,-2.90119e-02,-1.14392e-02,-2.13194e-01,1.66788e-01,3.33697e-02,1.72187e-01,-2.83124e+00,3.10881e-01,1.91389e-03,-4.48310e-01,-4.28922e-01,1.19153e-02,2.22837e-01,2.02546e-02,1.76339e-01,2.27890e-01,4.04944e-01,1.93944e-02,3.70364e-01,-5.36379e-02,-2.16756e-02,-6.04676e-01,-1.81561e-01,1.62848e-01,-1.96060e-01,-4.11267e-03,
2.95817e-01,1.34720e-02,-7.66301e-02,1.55294e+00,-1.56829e-03,-6.90294e-01,3.43587e-01,7.83655e-01,1.50828e-01,-2.65438e-01,4.80287e-02,4.46414e-01,-6.23333e-01,-9.67646e-01,-3.91243e-01,-1.77649e-01,1.59719e+00,-7.45147e-01,1.02145e+00,-1.30958e-01,4.84543e-01,-5.03155e-01,-4.94235e-01,7.05704e-01,-1.97653e-03,-3.33446e-02,1.20509e+00,-7.88122e-01,1.45633e+00,-2.15709e-01,2.63580e-01,-4.79524e-01,-3.43493e-01,-9.73155e-01,7.26347e-01,7.19223e-01,4.49932e-01,3.80087e-02,-4.12119e-01,-7.13504e-01,3.49777e-01,-6.75857e-01,7.05397e-01,-2.88654e-03,2.38799e-01,-4.34237e-02,8.76547e-01,3.55279e-01,-6.46982e-01,-2.69405e-01,
9.24302e-01,3.47499e-02,5.84399e-01,2.62772e+00,1.24830e+00,-2.35208e-01,3.16347e-01,7.27578e-01,1.99239e-01,-2.16433e-01,1.01966e-02,1.48542e-01,-1.10349e-01,-2.40204e-02,4.56066e-01,-4.90364e-01,1.96252e-01,5.46744e-01,-3.52338e-01,7.83493e-02,6.71593e-01,6.93812e-01,-8.19440e-03,1.51817e-01,-1.57491e-02,-3.73894e-02,-1.63065e+00,4.17430e-01,7.15161e-01,-3.81646e-02,5.53604e-01,-1.79562e+00,-1.07836e-01,-2.68752e-01,-4.97288e-02,1.46223e-01,-1.36083e-01,7.29910e-03,1.30956e+00,-8.74147e-01,3.43775e-02,1.33582e-01,-3.55667e-01,2.73322e-02,-8.38455e-03,-6.04329e-01,-1.02811e+00,3.75638e-02,-2.40773e-02,-2.23124e-01,
5.27457e-01,3.82897e-02,-2.62488e-02,-5.58807e-02,1.03951e+00,-4.52780e-02,6.19651e-01,3.88211e-01,1.96453e-01,9.95631e-02,2.50968e-02,-4.75209e-01,4.94724e-01,3.66286e-01,-6.01578e-02,-3.26281e-01,3.20828e-01,-9.15411e-01,-2.37666e-01,-9.37251e-02,-2.11889e-01,-6.90893e-02,-2.70795e-01,-2.10823e-01,3.88066e-03,1.58147e-02,-3.72696e-01,-5.71477e-01,-3.05171e-01,4.42211e-01,-8.89121e-02,4.24130e-01,1.49467e-01,-1.30702e-01,6.93737e-01,2.18363e-01,-2.80855e-01,1.95403e-02,-3.53666e+00,-1.05863e+00,3.03100e-01,2.02876e-01,-7.90378e-01,-3.79009e-02,3.88879e-01,3.34036e-01,-5.58752e-01,9.22937e-01,3.73915e-03,-2.70126e-02,
-6.09892e-01,-2.67938e-02,-5.80462e-01,7.09501e-01,1.54193e+00,1.27930e+00,1.19304e+00,-8.53487e-02,-2.14028e-01,1.36040e-01,1.80248e-02,-9.29966e-01,2.45556e-01,3.51085e-01,-5.28119e-01,3.12664e-01,-6.95040e-01,-8.88863e-01,9.90133e-01,6.85812e-02,5.11355e-01,7.77339e-01,4.83282e-01,5.94077e-01,-1.76297e-02,-8.07411e-03,4.78538e-01,-2.72730e-01,9.31935e-01,-1.08744e+00,-2.28619e-01,1.78967e-01,-2.09054e-01,-9.71049e-02,-2.21919e-01,-3.50209e-01,3.35418e-01,-3.59467e-02,-1.12541e+00,3.49453e-02,-4.66778e-02,5.10578e-01,5.73740e-02,-4.94385e-02,4.62046e-01,-5.68156e-01,1.45543e-01,-4.47977e-01,-3.90102e-01,-4.35003e-01,
2.81743e-02,5.66030e-04,-3.32160e-02,2.21322e-02,-8.49452e-03,-1.80763e-02,-5.65944e-02,-1.19533e-02,3.27549e-02,1.18725e-02,-3.85714e-02,-3.14753e-02,-1.86854e-02,-2.45087e-02,-3.09259e-02,-1.17658e-02,-7.60279e-03,5.68186e-03,-4.77798e-02,-1.85476e-02,-1.68317e-02,-3.25562e-02,-4.12251e-02,3.57547e-02,2.92273e-03,-1.78090e-02,4.38024e-02,1.84860e-02,-2.19309e-02,-2.54924e-02,-3.24409e-02,-4.93491e-02,9.89558e-03,-4.00765e-02,-3.24630e-02,-2.13006e-02,-1.93903e-02,-4.00472e-02,5.35351e-03,-2.63967e-02,-8.01223e-03,-2.10724e-02,9.90911e-03,4.46845e-02,3.45503e-02,-1.18041e-02,3.09597e-02,-1.96968e-02,-2.87043e-02,2.84338e-02,
4.98429e-01,-2.12672e-03,-3.00737e-01,-1.30767e+00,-1.94102e+00,2.54536e-01,-1.45158e-01,-7.69708e-01,-2.93712e-02,2.05736e-01,-1.93538e-02,9.11141e-01,3.96357e-01,-1.09336e-01,-1.65911e-01,2.19820e-01,-9.98084e-01,1.00217e+00,1.53200e-01,7.09757e-01,-3.56280e-01,4.72806e-01,-1.50231e-01,9.06450e-01,-1.08753e-02,-1.56590e-02,-6.43881e-01,7.45958e-02,1.92362e+00,4.97828e-01,-2.60816e-02,-8.32453e-01,1.39650e-01,-9.30095e-01,-7.10427e-01,-8.99838e-01,3.21044e-01,-1.62799e-03,-1.09765e-01,4.65269e-01,-4.22927e-01,5.31860e-01,3.83685e-01,7.34370e-02,3.27859e-01,-4.99139e-01,2.39503e-01,-8.81489e-01,1.59462e-01,-3.60513e-01,
2.65472e-01,-3.07459e-02,4.62908e-02,-1.81758e-01,7.33102e-01,-1.93910e-01,2.81992e-01,-6.99950e-01,1.86199e-01,-9.36295e-02,2.38231e-02,-9.33657e-02,2.64744e-01,-1.77550e-01,4.20212e-02,3.74488e-01,-1.72884e-01,9.28472e-02,4.39910e-01,-4.65788e-02,-8.80692e-01,-4.76751e-01,-7.77019e-02,1.66789e-01,-3.12239e-02,-4.23798e-02,-4.14289e-01,-6.79220e-02,1.30678e-01,-7.48273e-01,2.88081e-01,-1.12080e+00,3.31197e-01,-2.69385e-01,-7.11667e-03,2.62661e-01,-2.08614e-01,4.27304e-02,-9.30749e-01,5.79539e-01,-3.01860e-01,-1.57221e-01,3.65203e-01,-2.36489e-02,1.33567e-01,4.01795e-01,-7.58652e-02,-9.66990e-02,1.55106e-01,-2.64785e-01,
-2.52278e+00,2.90871e-02,-2.01523e+00,-3.73595e+00,-4.04444e+00,-5.62114e-01,-1.99906e-01,1.40166e+00,-2.51125e-01,6.56146e-01,-4.31431e-03,-7.03972e-01,8.46228e-01,-7.92796e-01,1.19758e+00,-1.69947e+00,6.27233e-01,-7.17685e-01,1.41167e-01,5.59015e-01,2.98677e-01,-7.90787e-01,-5.93407e-01,-1.09013e+00,3.77527e-02,2.85060e-02,-1.43189e-01,4.82595e-01,5.85494e-01,1.09383e+00,-4.69561e-01,-5.97035e+00,-1.72273e-01,-5.77343e-01,6.12031e-01,1.22352e+00,3.91782e-02,-2.15382e-02,-3.36478e-01,-1.70032e+00,1.57545e+00,1.69839e+00,-1.11098e+00,-3.96798e-02,5.56698e-01,-5.36057e-01,2.21283e-02,1.63404e+00,-6.56119e-01,1.03983e+00,
3.95766e-02,-3.26444e-02,-4.05989e-03,-1.02740e+00,-1.07789e-01,1.38672e-01,-9.47162e-03,-2.80359e+00,-2.03865e-01,-7.76267e-01,9.47387e-03,-3.27879e-01,6.78477e-01,5.76030e-01,-5.58556e-01,-4.25713e-01,-1.62198e+00,7.91154e-01,-1.34200e-01,-9.15748e-01,8.01717e-01,-8.59818e-01,8.41839e-02,-3.24417e-01,3.48986e-02,-2.24634e-03,-6.23972e-01,-9.08269e-01,-3.63210e-01,-3.69463e-01,6.74315e-01,-2.99101e+00,-2.14399e-01,1.51591e-01,-5.37822e-01,-8.99408e-01,5.03052e-01,-3.47722e-02,4.42612e-01,-1.17358e+00,1.04482e+00,2.11812e-02,7.73936e-01,2.75595e-02,6.30546e-01,-4.35380e-01,2.73110e-01,1.03788e+00,-6.77103e-01,-5.70015e-01,
-7.50968e-01,-2.18979e-02,8.47298e-02,-7.03801e-01,-4.85615e-03,3.05516e-01,-5.85663e-02,-4.90715e-01,4.74933e-01,9.65494e-02,1.15055e-02,2.40987e-01,-3.82435e-01,2.23268e-01,-2.30988e-01,6.87774e-01,3.29570e-01,-3.91578e-02,-3.47250e-01,3.41011e-01,-2.67714e-01,-5.34012e-01,1.74058e-01,-3.22219e-01,-4.86272e-02,2.71766e-02,-5.12279e-01,-1.52031e-01,7.44356e-02,-7.28223e-02,-4.81324e-02,-9.70546e-01,9.36946e-02,-6.81582e-02,-2.76872e-01,8.81108e-02,-1.90794e-01,-5.94723e-03,6.78339e-01,1.27624e+00,-2.06796e-01,2.41400e-01,-2.03481e-03,1.53701e-02,3.19018e-01,-3.88020e-01,-2.45816e-01,1.56818e-01,1.40771e-01,-4.08874e-01,
7.97792e-01,-1.94870e-02,3.16225e-01,2.85542e-01,-1.17323e-01,-6.32646e-02,-2.32414e-01,-4.75107e-01,-1.70783e-01,-3.10857e-01,-2.32845e-02,1.60648e-01,6.26939e-02,2.14226e-01,4.18203e-01,2.32238e-01,1.97478e-01,6.45056e-01,5.46297e-02,2.29548e-01,-3.04825e-01,-4.50822e-03,7.29868e-03,7.29119e-01,-1.40979e-02,3.11068e-02,-5.20980e-01,3.78674e-01,3.69475e-01,9.28585e-02,2.21310e-01,5.72003e-01,3.02892e-01,1.76812e-01,4.54702e-01,-5.26076e-01,8.74688e-02,2.29413e-02,1.72744e+00,-2.58878e-01,-6.49405e-01,-4.74942e-01,2.06978e-01,4.77395e-02,3.70681e-01,4.49106e-02,1.14986e-01,1.01097e+00,1.67773e-01,2.67915e-01,
7.52976e-01,-3.76378e-02,6.69037e-01,6.52334e-01,5.92630e-01,-5.60669e-01,1.30343e-01,8.51141e-02,1.63181e-01,-2.24313e-01,-1.82937e-02,1.32006e-01,2.80994e-01,1.54050e-01,6.60985e-01,6.47131e-01,4.21314e-01,-2.82758e-01,-1.24732e-01,1.91398e-01,-6.43925e-01,-7.41619e-01,-1.14501e-01,1.25961e-01,2.62539e-02,-3.11893e-02,-5.37161e-01,1.43926e-01,-2.57235e-01,6.57941e-01,5.66317e-01,6.66538e-01,-3.88725e-02,1.61678e-01,-4.51662e-01,-4.18671e-02,-2.23486e-01,-4.45097e-02,4.28366e-01,4.48220e-01,-1.02650e-01,-1.02233e+00,-2.48982e-01,3.79722e-02,2.47391e-01,-8.88973e-02,-4.73977e-01,-1.44579e-01,4.95992e-01,-9.68854e-02,
9.52496e-02,-1.87226e-03,-7.64587e-01,1.77909e-01,-2.84745e-03,-2.58446e-01,4.19825e-01,5.31164e-01,-2.90249e-01,-3.04864e-01,-3.21258e-02,-2.69682e-01,2.45292e-01,1.41212e-01,-1.34028e+00,-6.47954e-01,-1.14886e+00,-2.21232e-01,-4.22300e-01,-5.82031e-02,-9.33680e-02,5.29501e-01,-7.86319e-02,3.67658e-01,-2.37232e-02,-3.45229e-02,3.81193e-01,-1.09749e-01,7.51581e-01,-1.32924e+00,-5.75879e-02,-1.10324e+00,1.29678e-01,8.76676e-02,2.70207e-01,-6.02313e-01,3.60407e-01,-2.02653e-02,-1.57873e-03,-7.77380e-01,-1.07338e-01,3.74692e-01,-6.69437e-01,-4.12445e-02,-4.94942e-02,2.44430e-02,1.72229e-01,7.85292e-01,-1.40968e-01,-3.51768e-01,
-1.25268e+00,2.41932e-02,-2.01190e-01,1.20544e-01,-6.17418e-01,-5.97038e-01,5.45068e-01,2.64497e-01,-1.58314e-01,2.20286e-01,1.07149e-02,-8.74910e-01,-1.23157e-01,-8.81861e-01,1.78914e-01,-2.80484e-01,-2.85793e-01,-2.96581e-01,-1.25051e+00,-2.16751e-01,-8.09564e-02,-3.45291e-01,3.40424e-02,-3.17673e-01,2.86480e-02,4.76251e-02,-2.51351e-01,3.81035e-01,-3.17625e-01,2.25843e-01,-1.37183e-01,6.53118e-02,-6.47080e-02,4.41681e-01,-8.39387e-01,5.61725e-02,3.52115e-01,-7.29685e-03,6.06420e+00,5.46370e-02,2.40585e-02,-1.75102e-01,-5.52442e-01,-1.86068e-02,1.88836e-01,1.51195e-01,3.87018e-01,1.08445e-01,-1.45561e-01,1.02076e+00,
-4.64067e-01,-2.09655e-02,-1.61618e-01,7.63936e-01,-4.84652e-01,-3.31574e-01,1.36735e-01,-6.02632e-01,3.31717e-01,5.72084e-01,-2.32984e-02,5.72785e-01,9.87823e-01,1.07090e+00,1.79875e-01,-4.72254e-01,-6.69909e-01,2.26495e-01,-5.02578e-03,-4.05778e-01,7.77398e-01,3.76183e-01,3.43329e-01,2.08673e-01,2.33806e-02,6.72871e-04,6.04271e-01,7.79019e-02,-2.84481e-01,2.82453e-01,-3.23802e-01,3.06112e-01,-3.19680e-01,-3.54796e-01,-9.04723e-01,1.45660e-01,3.29193e-01,1.85416e-02,1.04375e+00,-2.90683e-01,-8.61787e-02,-1.01369e-01,4.76809e-01,-2.93065e-02,-3.19279e-01,5.37505e-01,-5.08775e-02,-4.49722e-01,-4.29760e-01,-4.70896e-01,
1.07479e-01,-1.49752e-02,-3.59393e-02,-3.72503e-01,7.03471e-01,7.62827e-01,3.57968e-01,5.03224e-02,-3.82048e-01,-2.60371e-01,-2.63434e-02,2.81237e-01,1.21838e-01,9.36680e-02,-1.97260e-01,1.25183e-01,4.00611e-01,-3.95374e-01,5.66190e-01,3.60610e-02,-1.78080e-01,1.37861e-01,-1.93243e-01,6.02796e-02,8.31960e-03,3.19433e-02,-1.70507e-02,-2.77045e-01,4.09487e-01,-6.27391e-02,2.61074e-02,-8.68716e-02,-1.04249e-01,1.13249e-01,1.18603e-01,-4.15820e-01,-1.28776e-01,-5.05572e-03,4.16985e+00,-3.25098e-01,-1.92684e-01,2.32367e-02,-8.74012e-01,1.26013e-02,2.03165e-01,9.39313e-02,-2.34143e-01,-1.02714e-01,1.58681e-01,5.37194e-01,
7.79899e-01,4.60958e-03,-1.07721e-01,4.13088e-01,9.50482e-02,-5.66288e-01,-8.79595e-03,-4.98406e-02,-1.50451e-01,-3.20245e-01,-3.91611e-02,-2.71329e-01,-3.21378e-01,3.52750e-01,2.56268e-01,-1.62022e-02,-3.61357e-01,3.37830e-01,-2.65032e-01,-2.99640e-01,-2.53981e-02,-2.54252e-01,1.55089e-01,-9.92178e-02,-1.36993e-02,-6.56272e-04,7.61560e-02,-7.03715e-02,-2.85343e-01,-7.73813e-02,2.87227e-01,2.23944e-01,-1.36696e-01,8.87802e-02,-4.75272e-01,-3.98107e-01,1.08270e-01,-9.39779e-03,6.36093e-01,-4.67217e-01,2.03294e-02,-1.01329e-01,4.97047e-01,3.05735e-04,2.53336e-01,3.52474e-01,1.91228e-01,-2.33881e-02,-9.36952e-02,3.76796e-03,
9.06405e-01,-2.00565e-02,-5.42701e-02,2.56889e-01,-2.73356e-01,-8.16564e-02,-8.19383e-02,-6.66800e-01,6.47896e-02,-3.71367e-01,-2.07695e-02,5.45140e-01,-4.02445e-02,8.19496e-02,2.44312e-01,9.26112e-01,6.81376e-04,-5.76829e-02,1.18627e-02,-3.63305e-02,2.67497e-01,4.38200e-01,-3.64358e-01,-8.08537e-01,5.94377e-03,-2.88539e-02,4.50128e-01,4.51601e-01,6.04288e-01,-3.23525e-01,9.27935e-02,-7.41823e-01,-2.45836e-01,-2.98076e-01,2.29022e-01,-7.34051e-02,1.04957e-01,-2.41669e-02,7.78836e-01,5.69142e-01,8.23914e-02,2.62135e-01,4.33022e-02,5.43145e-02,3.58863e-02,2.49475e-01,-6.57987e-01,-1.19436e+00,6.58321e-02,-1.73544e-01,
5.53343e-02,9.76367e-03,-9.70637e-01,-3.58369e-01,-1.04217e+00,6.09691e-01,-2.56875e-01,6.51491e-02,-6.62623e-01,-1.46829e-01,2.58542e-02,-3.34420e-01,-2.20749e+00,-2.59379e-01,9.32002e-01,4.53713e-01,-7.04042e-01,7.86068e-01,-5.35163e-01,-2.15431e-01,8.46881e-01,4.45525e-01,4.55339e-01,4.35615e-01,-1.81114e-02,-2.27057e-02,-4.41113e-01,2.09407e-01,-1.83672e-01,-3.32289e-01,1.49889e+00,-4.23235e-01,-1.46850e+01,-3.43982e-01,5.02466e-01,1.06730e+00,1.10834e+00,-2.81353e-02,1.92053e-01,9.99911e-01,-2.55239e-01,7.58389e-01,9.21969e-01,-3.67223e-02,1.12110e+00,-1.31221e+00,-4.71463e-01,-4.64913e+00,2.72329e-02,-6.86178e-01,
2.33908e-01,2.93083e-02,3.32673e-01,1.24615e+00,-7.72949e-01,1.16653e-01,-5.72354e-01,2.59029e-01,-3.37630e-01,1.59497e-01,2.36242e-03,5.41328e-02,-9.40168e-01,4.36226e-02,4.54957e-01,3.36072e-01,1.41981e+00,-3.60774e-01,1.46060e-01,-5.21950e-02,-9.30617e-02,5.94868e-01,2.74535e-01,9.26550e-02,1.61264e-02,3.32523e-02,-4.02540e-01,3.38590e-02,1.87871e-01,-4.04535e-01,1.59828e-02,5.41874e-01,4.92402e-01,4.04896e-01,-5.68635e-01,-4.42171e-01,1.78068e-01,-1.11416e-02,-2.23977e-01,-1.07955e-01,3.67956e-01,-1.31565e+00,4.05629e-01,1.56126e-02,2.27021e-01,-5.20010e-01,-5.13741e-01,4.62000e-01,7.78420e-02,7.73212e-02,
8.62161e-01,-4.67350e-02,2.06955e-01,4.33810e-01,5.75780e-01,1.14207e+00,5.66391e-02,-6.37003e-01,5.01726e-02,-3.28705e-01,6.89617e-03,-3.40050e-01,2.06315e-01,-1.12395e-01,4.31560e-01,-8.04415e-02,6.43700e-02,8.03784e-01,-1.45791e-01,-5.86867e-01,-6.11860e-03,8.76921e-01,3.55353e-01,-4.33302e-02,-4.26076e-02,-2.97951e-02,8.04685e-01,-4.29930e-01,1.44742e-01,-5.51067e-01,-2.46716e-01,-3.44494e-01,1.42332e-02,9.30694e-02,-2.47813e-01,2.88607e-02,7.05676e-01,-4.28666e-03,1.88072e+00,-1.30856e-01,-3.42544e-02,6.75934e-02,3.35083e-01,6.53379e-02,2.23887e-01,2.36867e-01,-1.32549e-01,1.47366e-01,6.66766e-02,-7.68965e-02,
-1.36567e-01,-3.01619e-02,2.11485e-01,4.00894e-01,-1.63497e-01,-1.02948e-01,-1.71959e-02,-1.43806e-01,-1.54640e-01,-2.05737e-01,5.62843e-03,-1.10059e-01,-6.71015e-01,-2.70074e-01,2.20764e-01,8.69872e-02,-3.89282e-01,-1.34911e-01,6.77961e-02,-4.38988e-01,4.16951e-01,-1.93727e-01,4.65172e-02,4.16162e-01,-3.24140e-02,4.17755e-02,7.26197e-01,6.15713e-02,-2.88873e-01,-1.33258e-01,2.32124e-03,1.00095e+00,-1.74921e-01,3.33599e-01,-6.18749e-01,-2.56926e-01,1.78907e-01,-3.62320e-03,3.48443e+00,1.71996e-01,4.39689e-03,-2.17908e-01,9.94054e-02,2.42067e-02,1.72691e-01,5.65051e-01,5.90703e-01,-8.21405e-01,-2.19895e-01,1.43921e-01,
3.67488e-01,-1.47821e-02,2.47926e-01,-1.60997e+00,3.81281e-01,1.10174e+00,-3.12016e-01,5.09478e-01,2.14943e-01,-1.41496e+00,-3.17063e-02,-1.08110e+00,6.58216e-01,2.43335e-01,2.80339e-02,7.84977e-02,1.25405e+00,-2.05872e-01,9.33665e-03,1.34796e-01,-6.99097e-01,-3.29432e-01,-6.11525e-01,-3.75138e-01,2.42693e-02,3.22618e-02,1.14919e+00,-4.39542e-01,-2.66443e-01,4.10994e-01,1.22395e-01,1.74102e+00,-3.84100e-01,5.58960e-02,8.26255e-01,-2.78562e-01,4.26876e-01,1.66547e-02,1.57441e+00,4.38157e-01,-4.20026e-02,1.06190e+00,5.65881e-01,1.56921e-02,-7.25802e-01,4.68024e-01,4.55203e-01,7.18603e-01,-5.31098e-03,-9.24549e-02,
-2.57904e-01,-3.31284e-02,2.76224e-01,1.37740e+00,-8.25094e-01,-5.98261e-01,6.68684e-01,-2.05509e-01,5.80302e-02,3.06038e-01,-1.50299e-02,2.32647e-01,9.03385e-01,8.30872e-01,1.00326e+00,7.85855e-01,1.88992e-01,3.15281e-01,1.52533e+00,8.53077e-01,7.41007e-01,1.60889e+00,5.23467e-01,-5.22986e-02,5.29932e-03,-1.98364e-02,-9.21907e-01,-5.32336e-01,3.82534e-01,8.86781e-02,3.28605e-01,9.26090e-01,3.45025e-01,-6.30734e-02,2.57882e-01,-3.62876e-01,7.50501e-01,-4.06760e-02,1.35545e-01,-1.40637e-01,9.79386e-01,-6.24078e-02,9.22895e-02,-1.33546e-02,-1.28088e-01,-1.80398e-01,1.28912e-01,2.60411e+00,-2.99262e-01,-8.01279e-01,
-5.77558e-01,2.15725e-02,1.48903e-01,-1.70380e-01,-3.86388e-01,3.42025e-02,-2.08401e-01,-1.46811e+00,3.98277e-01,1.65842e-01,-3.08103e-02,1.84162e-01,7.71672e-02,1.58410e-01,-3.96110e-01,1.24620e+00,-6.69738e-02,1.62563e-01,3.21041e-01,-1.27718e-01,3.15694e-01,3.98926e-01,3.57719e-01,-5.63756e-01,4.03932e-02,2.51962e-02,5.77851e-02,1.11951e-01,1.71352e-01,-8.05687e-02,2.62252e-01,-1.80960e+00,-1.11052e-01,-3.40793e-01,-4.79654e-01,1.21576e-01,8.85497e-02,-2.33721e-02,2.81095e-01,1.53126e+00,2.34430e-01,-2.80220e-01,1.61245e-01,3.54279e-02,5.74247e-01,-4.21307e-01,-3.26098e-01,2.56912e-01,-8.53211e-02,-2.10563e-01,
-3.52930e-01,3.73505e-02,4.50205e-01,2.75827e-01,-8.98675e-02,-1.86926e-01,-1.19022e-01,-8.99667e-01,-2.41895e-01,-2.29690e-01,4.32927e-02,-2.60953e-01,6.10482e-01,1.38175e+00,2.17546e-01,-2.82227e-01,5.49910e-01,6.11314e-01,1.10635e-01,1.67440e-01,1.25719e+00,3.84572e-01,-6.63752e-01,9.65161e-01,4.22058e-02,3.71556e-02,-1.08771e+00,-4.34961e-01,9.68274e-01,-1.52359e-01,-3.44898e-01,1.06654e+00,4.22136e-01,6.21195e-01,-3.07535e-01,7.81525e-01,-5.09914e-01,3.78383e-02,1.19641e-01,-1.60520e-01,3.20552e-01,-1.11089e-01,1.65021e-01,-4.14100e-02,-4.89104e-01,-2.55821e-03,-1.25970e-01,-3.20142e-01,-2.71981e-01,-3.38986e-01,
7.51307e-01,8.02169e-03,1.27266e-01,7.64513e-01,-6.49971e-01,4.27718e-01,-2.82347e-01,2.42630e-01,5.10074e-02,-3.74010e-01,3.08451e-03,3.27390e-01,5.06912e-01,-1.23998e-01,-7.81253e-01,6.04638e-01,-1.48424e-01,-4.23380e-01,2.18846e-01,-2.09732e-01,2.19486e-01,4.36750e-01,3.89831e-01,3.64556e-01,3.78622e-02,4.06871e-02,3.25135e-01,1.97169e-01,1.22913e-01,2.28792e-01,3.86638e-01,3.46045e-01,-4.60446e-01,2.09469e-01,-4.54656e-01,-7.66874e-01,-4.32765e-01,2.85656e-02,-1.87006e+00,-7.43394e-02,-6.40710e-01,-2.44134e-01,5.49479e-01,3.87943e-02,4.78487e-02,7.78205e-01,-5.11821e-01,-1.64113e-01,2.31910e-01,7.72878e-02,
-4.05728e-01,-1.71639e-02,-3.48892e-01,-2.75101e+00,-1.24873e+00,9.15109e-01,-1.34085e-01,-3.36861e-02,-2.68271e-02,5.62548e-01,6.19548e-03,-2.44703e-01,-7.85280e-01,1.47486e-01,-5.53223e-02,-5.57203e-01,-1.16979e+00,-3.08371e-01,-3.15598e-01,1.54476e-01,2.28856e-01,6.11445e-01,-5.37165e-02,1.51608e-02,-2.06045e-02,1.41362e-02,2.23657e-01,-6.21320e-01,6.12673e-01,1.15658e-02,-2.04627e-01,-4.62055e+00,3.88504e-01,2.05472e-01,-3.35804e-01,-1.46901e-01,-3.56202e-01,-1.64465e-02,4.55521e-01,-3.45297e-02,2.92160e-01,1.44435e+00,4.36408e-01,5.37170e-02,4.45984e-01,-1.63061e+00,-3.11382e-01,-1.06990e-01,2.11601e-01,3.31036e-01,
-1.14762e+00,-2.81262e-02,-3.16359e-01,-1.13048e+00,8.26729e-01,3.81850e-01,6.87653e-01,-1.62948e-01,-5.58343e-02,1.38604e-01,-3.65327e-02,9.74081e-02,-1.44649e+00,2.24845e-01,-1.00055e-01,1.46700e-01,-2.49988e-01,1.76802e+00,-5.78247e-01,-8.17215e-02,-1.26819e+00,-6.22702e-01,-3.35643e-02,-4.08000e-02,-6.88467e-03,-3.75592e-02,8.11698e-01,9.21615e-02,1.99467e-01,2.14597e-02,-5.96222e-01,-4.93105e+00,1.09130e-01,-4.11806e-01,5.12534e-01,4.44149e-01,2.89103e-01,-4.39085e-02,9.62658e-01,-1.11392e-01,-4.09723e-02,-4.28294e-02,4.49355e-01,2.13921e-02,1.34158e-01,-4.21743e-02,7.39377e-01,-6.25967e-01,-1.89395e-01,1.09835e-02,
1.46904e+00,-4.13798e-02,2.75171e-01,-6.19967e-03,2.38306e+00,7.16242e-01,-2.72575e-01,-4.31291e-03,1.25844e+00,3.37714e-02,-1.80346e-02,-6.95554e-01,-1.25236e+00,5.00677e-01,3.87675e-01,3.32536e-01,-6.16479e-01,3.97516e-01,4.70718e-01,-2.17405e-01,8.03181e-01,-7.19837e-01,1.03389e+00,-1.86743e-01,-4.30434e-02,-2.08171e-02,-6.09402e-01,5.37042e-01,1.04122e+00,1.61411e-01,9.70580e-01,-2.57174e-01,-5.85266e-01,-3.49961e-01,-8.28833e-01,-1.38141e-01,1.37313e-01,7.66728e-03,3.08195e-01,1.27766e-03,2.11340e-01,-3.12604e-01,-7.86652e-02,6.20671e-02,2.36345e-01,-3.10605e-01,-7.71874e-01,4.89027e-01,-7.74431e-02,2.16762e-01,
-2.77354e-01,1.09046e-02,-5.75926e-02,-4.26795e-01,-1.02549e+00,-4.48060e-01,-1.81826e-01,-1.24488e-01,1.19264e-02,1.46739e-01,1.99969e-02,1.07206e-01,4.80340e-01,-1.22183e-01,-3.52723e-01,4.26572e-01,-3.24246e-01,8.16507e-02,8.17141e-02,-2.87738e-02,3.82606e-01,9.11460e-01,1.05361e-01,8.27361e-01,-2.39374e-02,-3.80171e-02,2.22534e-01,-4.74344e-01,1.24315e-02,1.08792e-01,-1.95690e-01,-4.39226e-01,-2.23185e-01,4.54170e-01,-1.26043e-01,-4.02116e-01,5.13368e-01,3.14885e-02,-2.08345e+00,5.25438e-01,-2.19362e-02,-2.09713e-01,3.40649e-01,9.44192e-03,-2.52607e-01,-4.03592e-01,-1.31213e-01,5.23048e-02,-3.90435e-01,8.88811e-01,
1.92574e+00,-1.27598e-02,3.31193e-01,-4.56702e-01,1.56361e+00,9.52441e-01,-1.80511e-01,-2.42609e+00,-1.14024e+00,5.56179e-01,2.97357e-02,-5.45575e-01,-3.03142e+00,-3.55706e-01,1.32090e-01,9.60293e-02,3.17926e-01,1.31427e+00,6.68679e-01,-2.45289e+00,-6.03584e-01,1.20349e+00,4.72419e-01,7.37761e-01,-2.48087e-02,2.54950e-02,-5.71333e-02,-3.64815e-01,-4.14208e-01,-2.12510e-02,-3.63642e-01,-1.15053e+00,9.95028e-01,2.67651e-01,5.06337e-01,4.21792e-01,2.00143e-01,-4.54163e-02,-1.40086e+00,-2.55223e-01,-9.53042e-01,3.63071e-01,2.79720e-01,6.91215e-02,-1.47071e-01,-6.62529e-01,1.07274e+00,1.05047e+00,5.65554e-01,-3.34577e-01,
4.70401e-02,2.60384e-02,-2.39217e-03,-3.56857e-02,-2.38529e-02,5.64262e-03,-1.05934e-02,-2.11910e-02,-6.74033e-03,6.82308e-03,-3.95223e-03,-1.08139e-02,2.22459e-02,4.58409e-02,1.04927e-02,6.63485e-03,2.02912e-02,3.24190e-02,5.16247e-03,-4.32768e-02,-2.40741e-02,-4.21570e-02,1.65044e-02,-1.99315e-02,3.16270e-02,-1.80114e-02,-2.00654e-02,7.77420e-04,-2.75362e-02,-4.54857e-02,1.80982e-02,1.11886e-03,-1.59574e-02,-3.28145e-02,-4.62183e-02,-1.55109e-02,-1.33253e-02,3.58245e-02,-1.70440e-03,-1.31392e-02,-2.75847e-02,-4.43757e-02,-7.83844e-03,3.60031e-02,-1.35829e-03,-4.41660e-02,9.91168e-03,2.45438e-02,-2.76196e-03,-6.87398e-03,
-1.15092e+00,7.99412e-03,-2.43557e-02,4.82856e-01,6.09383e-01,-3.86379e-01,-7.79607e-03,7.01080e-01,-1.43321e-02,-2.87543e-01,5.93109e-02,-3.26533e-01,4.88771e-02,4.01330e-01,-1.90251e-01,1.30959e-01,5.82058e-01,7.26517e-01,-2.73083e-01,3.36326e-01,-1.02822e+00,-1.93182e-02,1.37268e-02,5.54020e-02,3.14093e-02,-4.37078e-02,-1.05708e+00,2.06798e-01,1.62473e-01,-6.55942e-02,-1.08604e-01,1.37725e+00,7.50113e-02,8.86847e-02,-1.83956e-01,-3.33056e-01,2.48210e-01,2.84476e-02,-3.89998e-01,3.14268e-01,-4.78100e-01,-1.41529e-01,-7.69382e-01,1.53891e-02,-3.62024e-02,5.00183e-02,9.50679e-02,-1.17395e+00,4.14625e-01,7.32330e-01,
-6.84845e-01,2.66120e-02,-2.70239e-02,-4.93359e-01,8.53792e-02,1.99010e-01,1.14355e+00,2.08058e-02,3.17625e-01,-2.20555e-01,-3.47908e-02,-1.14988e-01,3.36106e-02,1.62500e-01,1.63422e-01,-6.62769e-03,-3.98560e-01,-3.95747e-01,-3.77316e-01,-2.32585e-01,9.43098e-02,1.90967e-01,1.68769e-01,2.92219e-02,-3.41882e-02,-3.30873e-02,-2.47531e-02,-9.54916e-01,2.65620e-01,9.20616e-02,-6.91195e-02,-1.37022e-01,-9.86785e-02,3.03485e-01,-2.07771e-01,-2.18671e-01,1.52173e-01,3.73780e-02,-5.27839e+00,3.20252e-01,-1.59260e-02,-4.19227e-01,-4.50921e-02,1.97908e-02,4.49127e-01,-4.43592e-02,3.37142e-01,-6.46924e-02,-1.86274e-01,1.32786e+00,
-4.08325e-01,
1.06911e+00,
-1.01428e-01,
2.91856e-01,
3.62109e-01,
-1.17681e+00,
-1.08499e+00,
-5.24939e-01,
-4.85584e-01,
-5.63591e-01,
-4.30652e-01,
-3.75227e-01,
-2.99437e-01,
-3.00208e-01,
-5.27844e-01,
-6.19873e-02,
-6.53847e-01,
7.30134e-01,
-8.49886e-01,
-1.57292e-02,
-2.89537e-01,
2.78848e-01,
1.47212e+00,
2.10698e+00,
-3.10284e-01,
-5.37947e-01,
-1.46043e-01,
1.01147e+00,
-3.74118e-01,
-5.27673e-02,
-1.48789e-01,
2.55700e-01,
-7.72512e-01,
-1.76010e+00,
6.23278e-02,
2.54480e-01,
-1.50883e-01,
-7.57223e-01,
-2.46209e+00,
-9.13632e-01,
-5.62567e-01,
-2.17111e-01,
5.70310e-01,
-5.23652e-01,
-1.49871e+00,
-2.61697e-01,
-5.26510e-01,
-5.99392e-03,
-4.64755e-01,
1.14090e-01,
-7.75222e-01,-4.15168e-01,-3.24997e-01,1.12026e-01,-7.43348e-01,-7.84185e-01,-7.78083e-01,-3.57194e-01,-3.57001e-01,-2.25732e-01,8.95909e-01,-5.53284e-01,-1.36998e-01,-2.32155e-01,-4.98922e-01,4.33668e-01,1.43430e+00,-7.39987e-01,-1.05946e+00,-2.29177e-02,3.35481e-01,-5.93549e-01,-3.74258e-01,-2.31249e+00,2.92525e-01,1.00136e+00,1.50290e-01,-1.89400e+00,-1.38241e-01,-4.87023e-01,-6.85239e-01,-2.05659e+00,5.18754e-01,3.05748e-01,1.71268e-01,9.62167e-02,7.98041e-01,-1.24412e+00,-7.35416e-01,8.04794e-01,-1.74696e-01,-1.09591e-01,-2.07998e-01,-1.69404e+00,-1.00004e+00,-2.12996e-01,-8.81094e-01,2.88556e-03,-5.87350e-02,3.93322e-01,
-2.90221e-01,-3.90953e-02,-2.35335e-01,-3.41696e-02,-1.01364e-01,-1.04476e-02,-1.53246e-01,1.46311e-01,2.03558e-02,2.05158e-02,-2.04476e-01,2.29542e-01,-9.65003e-02,6.87661e-02,5.07420e-03,-1.89844e-01,2.59232e-01,-2.71621e-01,1.34548e-02,-2.36432e-02,-1.00402e-03,7.08214e-02,-7.59439e-02,-1.58038e-01,8.34083e-02,-7.05919e-03,-2.95599e-02,-9.17505e-02,-7.83256e-03,1.57276e-02,-3.68506e-01,2.59351e-01,5.12742e-01,4.70502e-02,2.44813e-02,1.39856e-02,-2.49194e-01,-1.41495e-01,6.33443e-02,1.64902e-01,-1.58491e-01,1.54281e-01,-1.45479e-01,-1.85291e-01,-2.43277e-02,5.46018e-01,-5.10949e-02,2.89970e-02,9.44356e-02,2.44472e-01,
-9.91053e-02,-3.66944e-02,7.54848e-02,4.45963e-01,-1.78932e-01,-3.03156e-03,1.33878e-01,-1.11682e-01,3.82189e-01,4.19792e-01,-1.64748e-01,-1.11733e-01,1.40377e-02,-1.63849e-01,-2.73171e-01,-5.03709e-02,-1.59393e-01,-1.28373e-01,-1.27329e-01,2.83341e-02,-8.52260e-02,-3.39424e-01,-1.01791e-02,-4.75312e-02,-2.95944e-01,-4.23222e-02,2.83373e-02,-1.70660e-01,-1.99641e-01,-7.86226e-02,-3.04993e-02,1.41721e-01,1.15175e-01,4.24403e-02,-8.95788e-02,7.71653e-03,-4.68214e-02,-2.93284e-01,5.92282e-02,1.69793e-01,-2.59261e-02,-1.33888e-01,-1.15664e-02,4.12115e-02,7.57327e-02,-1.76896e-01,-1.25548e-02,-1.74247e-02,1.35507e-01,3.85464e-02,
6.05402e-01,-2.85126e-01,1.46455e+00,-3.55125e-01,3.63138e-01,2.26853e-01,-7.67709e-01,-2.10415e+00,-3.95888e-01,1.31406e+00,-1.75683e+00,1.21438e+00,3.04408e-01,6.79769e-02,-4.33668e-01,1.42283e+00,-4.95937e-01,1.76148e-01,1.37389e-01,3.02957e-03,-7.43900e-01,-2.75240e-01,1.60992e-01,4.50813e-01,9.44192e-01,2.08065e-01,-4.13915e-01,1.15817e+00,-1.35760e-01,-2.48203e-01,2.59880e-01,-1.36565e+00,-1.37427e+00,5.28048e-01,1.48156e-01,1.62227e-01,1.70920e-01,-1.89107e-01,-9.34926e-02,-2.73012e-02,3.46852e-01,2.96788e-01,4.34874e-01,1.45843e+00,6.09408e-01,-1.53801e+00,2.30440e-02,4.09829e-02,3.26145e-02,3.62700e-01,
6.70877e-01,7.10441e-01,1.28752e+00,-8.82662e-01,2.58163e-02,9.03034e-01,-5.38388e-01,-1.74813e-01,2.08430e-01,-2.93345e-01,5.19250e-01,-6.22048e-01,4.09411e-01,1.54761e+00,1.27078e+00,1.69367e-01,-1.90901e+00,-1.46884e+00,2.79241e-02,4.50363e-02,3.54880e-01,-6.28631e-02,-6.83488e-01,3.09034e-01,-6.00528e-01,-1.01921e+00,6.79362e-01,-2.22519e+00,5.18727e-01,8.82096e-02,-9.20444e-01,-2.58759e+00,1.18259e+00,-2.25975e-01,3.60922e-01,-1.85654e+00,6.91306e-01,3.64830e-01,-5.37838e-01,1.60231e-01,9.04919e-02,-6.97143e-01,9.62686e-01,8.66429e-01,1.89248e+00,-1.29302e+00,9.38757e-01,-1.33179e-02,7.55766e-01,-3.73070e-02,
-1.21172e-01,-1.12449e-01,-3.31801e-01,5.76779e-02,-9.53400e-02,6.41198e-02,-3.80649e-02,6.90809e-02,3.94105e-02,4.32642e-02,1.77735e-01,-3.22884e-01,-7.71964e-02,1.12770e-02,-4.07614e-02,7.82119e-02,3.17383e-01,-4.02385e-02,-1.32240e-01,4.85427e-02,5.20382e-02,-8.94144e-02,-1.21935e-01,-2.20343e-01,1.72689e-01,2.10640e-02,-1.05532e-01,-1.29546e-01,3.10284e-02,-7.14430e-02,1.60817e-01,1.88342e-01,3.98305e-01,2.58998e-02,-1.84989e-01,2.39979e-01,4.24677e-02,-1.66909e-01,8.79593e-02,3.21599e-01,-4.51825e-03,-6.63167e-02,-5.44239e-02,3.73939e-02,1.80521e-01,3.73096e-01,-7.75901e-02,2.30398e-02,-9.41542e-02,2.07350e-01,
-2.48717e-01,9.82441e-02,8.46887e-02,4.86894e-01,5.46553e-02,2.13651e-01,1.20711e-02,4.49313e-01,-2.86331e-01,-4.58145e-01,-1.87750e-01,-2.26249e-01,1.86782e-01,1.17936e-01,-1.20658e-02,2.56377e-01,-1.73208e-01,-1.34069e-01,-5.60428e-02,-4.53012e-03,-1.92456e-01,-8.84713e-02,4.02401e-02,3.98696e-02,7.37039e-01,-1.72141e-01,-6.84619e-02,-7.52317e-04,8.53146e-02,2.13171e-01,3.70632e-01,-3.65833e-01,3.22388e-01,1.89032e-01,1.58930e-01,-1.05969e-01,-4.47049e-02,-2.41353e-01,1.56983e-02,3.92792e-02,5.76771e-02,-1.27754e-02,-2.35407e-01,-3.17453e-01,-2.16579e-01,-3.05707e-01,4.41487e-02,3.36787e-02,-7.22329e-02,1.24548e-01,
-3.93271e-01,-2.05284e-01,-3.58486e-01,-1.81887e-01,-2.08733e-01,-2.65737e-01,3.38261e-01,3.87662e-01,8.03129e-01,2.97487e-02,2.44854e-01,-2.12608e-01,-3.30371e-01,-1.94273e-01,6.84896e-01,-2.12525e-01,7.26266e-02,-5.24746e-02,8.99766e-02,-1.99978e-02,1.81424e-01,9.37063e-01,9.74253e-02,-2.63120e-01,-6.55293e-02,-2.56974e-01,-6.18424e-02,-9.67406e-02,3.03117e-01,4.28955e-02,-1.09023e-01,4.80605e-01,5.53149e-01,1.37018e-01,4.82891e-01,-3.27488e-02,1.53515e-01,-1.65939e-02,-2.23702e-01,7.09472e-01,4.23181e-02,-1.10193e-01,-1.14069e-01,1.10457e-01,-3.75813e-01,1.42748e-01,-1.60294e-01,-2.12778e-02,1.34728e-01,-4.05902e-01,
8.18711e-02,-1.77761e-01,-2.91799e-01,3.58874e-01,-2.06393e-02,-1.54783e-01,-5.79195e-02,7.35945e-02,-1.17051e-01,-3.72160e-01,-2.72774e-01,-3.61455e-01,1.08203e-01,1.82599e-01,2.52532e-01,-2.33743e-01,3.57650e-01,1.91240e-01,-1.49348e-01,-2.38869e-02,6.50436e-02,4.18945e-01,-9.35519e-02,-1.20702e-01,1.11993e+00,3.70494e-01,-1.82253e-01,6.59302e-01,9.98377e-02,-1.44027e-01,2.68187e-01,-2.89786e-01,5.32089e-01,-1.48270e-01,1.77684e-01,-1.30170e-01,2.91836e-02,-3.76226e-01,-2.21745e-01,-8.00227e-02,-4.95128e-01,-5.37297e-02,-3.05464e-01,6.25608e-01,-2.09462e-02,1.50633e-01,-1.56719e-01,2.11637e-02,-3.58058e-01,5.00383e-02,
1.94948e-01,3.72386e-01,-1.36082e-01,1.15620e-01,-5.64233e-01,4.58056e-01,2.28625e-01,6.15609e-01,4.19633e-01,-4.00248e-01,2.25570e+00,3.87311e-01,-1.02263e+00,-3.17639e-02,-1.05299e+00,2.35522e-01,-2.00042e-01,4.53279e-01,1.14136e-01,-3.07752e-02,-7.12832e-02,6.54152e-01,1.97268e-02,-1.11635e+00,2.78429e-01,-7.16340e-02,1.30513e-01,4.17915e-01,-4.96376e-01,-5.87533e-01,4.72847e-02,-2.34298e-01,-9.24970e-02,-5.80633e-01,2.19001e-01,2.44316e-01,8.16003e-01,-6.05137e-01,-5.94609e-01,-5.04825e-01,-1.77092e+00,-7.59795e-01,1.45661e-01,-3.42014e-01,-2.92522e-01,3.88978e-01,6.76116e-01,2.16373e-02,-2.09758e-02,-6.31992e-02,
-6.57150e-01,-2.36022e-01,-4.78232e-01,-3.04589e-02,-3.73876e-01,1.97576e-01,8.22045e-03,4.72257e-01,7.01426e-01,1.30643e-01,-1.41468e+00,9.19311e-02,-1.03870e-01,4.48311e-02,-1.42092e-01,4.05039e-01,5.22658e-01,6.63004e-01,-3.56626e-01,4.64532e-02,1.95993e-01,6.84172e-01,-2.03115e-01,-2.22183e-01,1.34334e+00,-4.19526e-01,-1.05128e-01,-5.07675e-01,5.92340e-02,-7.13461e-02,-1.36973e-01,5.34654e-01,1.61131e-01,-3.64452e-01,-2.15036e-01,5.85030e-01,-1.63642e-02,-1.38622e-01,4.81931e-01,-4.88230e-02,-6.17295e-01,1.62393e-01,-1.85957e-01,-1.21021e-01,9.82771e-01,2.79273e-01,-3.42015e-02,-4.28752e-02,3.73964e-01,-4.10378e-01,
5.10576e-01,9.03623e-02,3.73661e-01,1.94926e-01,-1.38899e-01,1.82219e-01,1.33646e-01,-5.79454e-01,2.87530e-01,-1.27571e-01,2.54437e-01,-6.74299e-01,2.91993e-01,-4.16914e-01,-5.61795e-01,4.07479e-01,-5.67579e-01,4.93721e-01,2.04396e-01,3.56487e-02,-3.10706e-01,-2.05334e-01,1.41927e-01,2.90041e-01,-8.09274e-01,2.44889e-01,1.99109e-01,6.16631e-01,-4.16468e-01,2.47015e-01,-1.26755e-01,5.49085e-02,-5.18128e-01,-2.09974e-01,-2.16108e-01,-1.37518e-01,1.01026e-01,1.03387e-01,-2.11698e-01,-3.33659e-02,-3.06660e-03,-3.38834e-01,3.43826e-01,6.28057e-03,5.92508e-01,-7.14828e-01,3.63889e-02,-1.82192e-02,-1.88021e-01,-1.23589e-01,
-6.56261e-01,-3.81252e-01,-2.85413e-02,-1.57627e+00,8.87619e-01,-3.24554e-01,-8.84878e-01,6.47102e-01,-2.81988e+00,-5.91036e-01,1.08585e+00,2.50319e-01,6.02463e-02,5.70657e-01,1.08922e+00,-5.12636e-01,2.44324e-01,-1.53118e+00,2.53080e-01,8.33793e-03,-8.71643e-01,-8.34001e-01,2.42296e-01,-1.96176e-02,-1.34188e+00,-5.50512e-01,-4.91774e-01,8.82877e-02,7.54114e-01,3.64497e-01,-1.27817e-01,-2.17093e-01,-1.16726e-01,-1.03917e-01,5.84489e-01,-5.58015e-01,6.82261e-01,3.96176e-01,-6.68305e-01,-5.35725e-01,6.17046e-01,2.52693e-01,1.78938e-01,4.68170e-01,-2.09406e-01,1.01456e+00,3.11250e-01,-3.85490e-02,3.63862e-01,-1.35579e+00,
-6.29208e-02,1.51251e-01,8.75785e-02,-4.98116e-01,4.14973e-01,1.13441e-01,9.52476e-02,6.52399e-03,7.21581e-01,5.73445e-01,1.10418e+00,-3.82934e-01,2.60025e-02,7.94737e-01,-6.67255e-01,3.50784e-01,-1.48475e-01,1.70249e-02,6.94006e-02,-3.84620e-03,-1.70638e-01,-2.40891e-01,1.45557e-01,-1.10423e+00,3.00768e-01,-3.71291e-01,3.45325e-01,4.27856e-02,4.28985e-02,4.04356e-01,-9.64434e-02,1.08328e+00,-6.62729e-01,1.70995e-01,3.37271e-01,-8.70375e-01,-4.01294e-02,-1.87662e-01,-2.19078e-01,5.67243e-02,-7.01066e-02,-4.54806e-01,-4.56861e-01,8.38105e-01,5.35122e-01,8.96646e-03,-1.25849e+00,3.67368e-02,1.47318e-01,-4.43603e-01,
-2.34817e-02,2.76253e-02,1.63691e-02,-7.58445e-03,3.16930e-02,-5.41236e-02,8.97884e-03,-3.54862e-02,2.00846e-02,-2.41626e-02,3.40577e-02,-4.31349e-02,-5.13124e-02,7.38734e-03,1.12436e-02,-2.46648e-02,-4.44951e-02,-5.44758e-02,5.28542e-02,-4.70340e-02,-3.33915e-02,-2.41396e-02,-5.86983e-02,-3.78328e-02,1.56926e-02,4.00965e-02,-4.79361e-02,-1.88703e-02,3.46269e-02,-3.97699e-02,2.91309e-03,-6.69602e-03,3.06943e-02,-1.46602e-02,-4.21398e-02,-4.50383e-02,-5.61522e-03,1.14144e-03,-1.49312e-02,-6.42667e-03,-3.05524e-02,1.99953e-02,3.47759e-02,3.84774e-02,-3.52511e-02,-5.02605e-02,-4.05431e-02,4.96618e-02,6.55519e-03,7.05835e-03,
-5.60835e-01,-1.06178e+00,-1.03052e+00,4.17946e+00,-1.20437e+00,1.19451e+00,-4.59985e-01,6.03262e-01,2.45467e+00,-4.25202e-01,-8.65197e-01,-6.16872e-01,-5.18629e-01,-1.73820e+00,8.25828e-01,-3.14684e-01,1.77675e+00,1.89894e-01,-8.75027e-01,-8.73486e-03,1.15029e+00,2.21046e+00,-7.24608e-01,-1.31338e+00,9.04404e-01,1.24227e+00,-4.90456e-01,-1.64014e+00,-7.05141e-01,-3.49881e-01,1.21709e+00,1.48152e+00,2.15682e+00,7.24882e-01,-8.88150e-01,2.51389e+00,-8.43534e-01,-5.55802e-01,1.08276e+00,1.75561e+00,-1.89119e-01,-5.23204e-01,-7.72765e-01,1.47110e+00,1.97825e+00,1.71714e+00,-3.32542e-02,3.87520e-02,-8.15450e-01,1.45677e+00,
6.62602e-02,-2.83635e-01,2.44128e-01,-5.27884e-02,1.64510e-01,-1.89439e-01,7.47928e-01,-1.36416e-01,2.45538e-01,7.55599e-01,-1.27840e+00,-1.03410e-01,3.12577e-01,-4.54148e-02,1.82372e-01,-6.50310e-01,-4.79980e-02,3.77587e-01,5.14020e-02,1.68692e-02,-7.44425e-02,-3.99432e-01,5.65943e-02,5.87595e-01,5.67967e-02,5.98063e-01,-8.32965e-01,-2.29708e-01,-1.14536e-01,3.77010e-01,4.25509e-02,-1.41552e-01,3.11022e-01,6.32427e-01,-2.86766e-01,8.68589e-02,-3.04184e-02,-1.69116e-01,-9.21088e-02,1.48782e-01,5.04230e-01,4.34096e-01,-9.01039e-01,1.90514e-01,-3.09889e-01,-7.64396e-02,-2.84333e-01,-4.99774e-02,3.41726e-01,4.99314e-02,
-1.45343e+00,-4.31954e-01,-2.45067e+00,-5.37439e-02,-1.70988e+00,7.55273e-01,-1.34442e+00,1.27305e+00,-4.60862e-03,-8.81373e-01,-1.09278e+00,2.59385e-01,-1.50423e-01,4.10417e-01,-1.50951e-01,-6.83751e-03,-8.03446e-01,1.28847e+00,-4.49988e-01,-1.61106e-02,5.79240e-01,1.07117e+00,-5.56950e-01,-4.09823e-01,9.62984e-01,-4.71057e-01,7.02939e-01,-6.13936e-01,-2.58670e-01,1.32968e-01,-2.11771e-01,-3.34058e+00,-1.59005e+00,-3.48642e-01,5.30219e-01,7.62936e-01,-1.03105e-01,-3.52592e+00,2.81372e-01,-7.87200e-01,-1.36957e-01,-1.04819e+00,9.47218e-01,-8.46724e-01,7.77680e-01,-7.02644e-02,3.24368e-01,-2.24336e-02,-6.10826e-01,-3.32846e-01,
-1.97181e-01,-7.51318e-01,7.51865e-02,-3.03581e-04,9.46493e-02,-2.25940e-01,3.62163e-02,-9.68037e-02,1.62037e-01,-7.30880e-01,-9.86879e-01,2.39810e-01,1.14208e-01,-7.94595e-01,4.03782e-01,4.79977e-02,4.60006e-01,6.57628e-01,-4.05926e-01,-4.15412e-02,-2.30816e-01,5.21822e-01,-2.41383e-01,1.91434e-01,-6.79490e-01,-3.92128e-01,-5.19328e-02,-1.98468e+00,-4.79177e-01,1.37413e-01,2.27765e-01,1.78048e-01,3.38569e-01,-7.63164e-02,3.07217e-01,3.45321e-01,5.01953e-01,-1.00690e-01,-3.76011e-01,-1.48099e-01,-1.09015e+00,6.00661e-02,-8.55027e-01,6.55139e-01,4.12811e-03,5.23753e-01,-3.45361e-01,-1.57195e-02,2.93129e-01,6.84824e-02,
6.06950e-02,6.61924e-02,-1.28542e-01,-4.77715e-02,2.00436e-01,-1.67171e-01,1.80006e-01,-1.25229e-01,-6.79109e-02,-9.59835e-03,-2.90390e-01,1.19725e-01,-9.16059e-02,4.89126e-02,-8.57548e-02,5.79733e-02,4.73363e-02,-1.08244e-01,2.71190e-02,-2.42350e-02,1.17792e-02,2.95354e-01,-4.38027e-02,-1.49823e-01,-1.62511e-01,4.26997e-01,-1.61090e-01,-3.30784e-01,-9.43467e-02,-1.12414e-01,1.03866e-01,5.29531e-01,3.55767e-01,-3.69405e-01,-2.43942e-01,-3.89104e-01,-3.77116e-01,-2.76470e-02,-3.10800e-01,-3.63557e-01,2.26981e-01,-8.67744e-02,4.48653e-02,1.08824e-02,1.89065e-01,-2.36503e-01,-1.39676e-01,-3.84417e-02,9.58423e-02,1.58091e-01,
2.38769e-01,-4.91469e-01,-3.54270e-01,-3.97275e-01,-2.77224e-01,2.12162e-01,6.36852e-01,7.18362e-01,3.68398e-01,-8.33704e-01,6.79664e-01,-1.62155e-01,-4.27362e-01,-2.28819e-01,-4.20833e-01,-1.29397e-01,-6.61339e-01,9.07788e-01,-7.33573e-01,-8.24733e-03,1.18884e-01,-7.92882e-01,-2.17926e-01,-1.36304e+00,-8.67949e-01,8.03954e-02,1.17292e-01,7.70176e-01,3.80162e-01,-4.22133e-01,-9.39302e-01,1.79284e-02,-2.33645e-01,-2.29868e-01,1.33641e-01,1.03146e+00,1.29575e-01,-2.28020e-02,-2.36211e-01,2.68709e-01,-4.36340e-01,-2.44969e-01,2.93693e-01,6.80250e-02,3.53055e-01,3.63946e-03,3.12902e-01,4.10076e-02,3.09262e-01,-2.47098e-01,
-1.21531e+00,4.49527e-01,2.49376e-01,3.09258e-01,-1.54368e-01,5.03863e-01,-3.22134e-01,6.34116e-01,3.93529e-01,-3.46898e-01,2.03143e+00,-4.32405e-02,-2.26486e-01,-5.39413e-01,1.06601e+00,-1.76638e+00,-2.01787e-01,1.97785e-01,-3.50655e-02,1.08438e-02,-2.14603e-01,1.75521e+00,-3.00936e-01,-3.10531e-01,3.58325e-01,-7.06851e-01,-1.92176e+00,-4.39601e-01,2.02385e-01,-2.37206e-01,-3.77941e-01,1.43477e+00,1.73542e-01,-1.02971e+00,2.04450e+00,2.74771e-01,-3.10142e-01,3.51729e-01,-5.37309e-01,-4.84887e-01,7.88781e-01,-9.06220e-03,9.72764e-01,-2.59067e-01,4.90844e-01,1.69207e-01,-5.19088e-01,4.55104e-02,-1.74234e-01,-4.65337e-01,
-2.23398e+00,-4.57990e-01,-3.19819e-01,-6.33429e-02,5.46881e-01,9.84497e-02,-1.11039e+00,-1.31008e+00,1.43160e-01,-7.10798e-01,-1.97658e-01,-4.16485e-01,-1.70970e-01,-1.06570e+00,4.69855e-01,-9.25232e-01,1.10466e-01,4.97464e-02,5.85823e-01,-1.77766e-02,-5.87690e-01,8.89537e-01,-5.20338e-01,9.06895e-01,6.23163e-01,9.78148e-01,-4.55655e-01,-4.27462e-01,4.36385e-01,2.38504e-01,4.73222e-01,1.54376e-01,4.27822e-01,-8.32865e-01,-1.51135e-01,-6.31541e-02,-1.86822e+00,6.01123e-01,-1.57264e+00,-7.48865e-01,-2.88470e-01,-1.70053e-01,3.78184e-01,5.03820e-01,4.09204e-01,5.35388e-03,-6.96225e-01,2.08587e-02,7.52624e-01,-1.32516e-01,
6.05309e-01,3.43007e-01,-1.00966e+00,5.69579e-01,-3.82908e-01,5.10010e-01,1.56298e-01,-6.12148e-01,1.03012e+00,-8.68100e-01,1.17196e+00,-1.41372e+00,-6.90176e-01,6.81818e-02,-1.38385e-01,9.43993e-01,-2.40318e-01,5.45266e-01,-4.52635e-01,-1.22637e-02,-3.10004e-01,3.51114e-01,-2.67308e-02,-9.71802e-01,4.47967e-01,3.60289e-01,2.29657e-01,3.99229e-01,-6.43526e-01,-3.63033e-01,9.72345e-01,1.10505e+00,3.49958e-01,-1.81609e-01,-3.70596e-02,4.25613e-01,1.28086e+00,-2.80056e-01,-8.48346e-01,-5.09169e-02,-8.71890e-01,-7.30655e-01,4.80307e-01,-2.85397e-01,9.39426e-01,4.92503e-01,5.34332e-02,-1.18809e-02,-5.88203e-01,-3.98431e-01,
-4.05378e-01,-3.38075e-01,6.13517e-01,2.10493e-01,-8.27089e-03,-2.00290e-01,-6.31401e-01,3.77587e-01,9.52483e-01,-9.20898e-01,7.74534e-01,-1.94070e-01,-4.35029e-02,-2.13447e-01,-1.80019e+00,1.45214e-01,-8.02174e-01,-5.67512e-02,-2.65824e-01,3.63874e-02,-2.93634e-01,4.34637e-01,-3.33941e-02,-2.58195e-01,7.03406e-01,-1.17636e-01,-1.12823e-01,-3.10194e-01,1.09590e-01,-1.94300e-01,-1.06658e-01,-4.39557e-02,3.26248e-01,-4.35470e-01,1.23286e-01,4.36848e-01,-1.04560e-02,-2.94295e-01,-1.71051e-02,1.26774e-01,8.94234e-01,2.44326e-01,3.10752e-01,-2.61633e-02,-5.25307e-03,8.58631e-02,1.91105e-01,4.77334e-02,2.12206e-01,-7.31542e-02,
-6.67288e-01,2.71956e-01,2.06642e+00,3.04361e-01,7.87558e-01,6.60092e-01,-1.28669e+00,2.04690e-01,-2.51457e-01,5.07547e-01,-2.50341e+00,7.80037e-02,-6.57245e-02,2.39811e-01,1.28729e+00,1.43352e+00,5.92767e-01,1.40805e-01,-1.02932e-02,-2.89144e-02,1.28534e-01,-4.50310e-01,-8.53452e-01,-1.07058e+00,-1.37124e+00,-9.22144e-02,-6.35016e-01,-1.15582e+00,-3.53662e-01,2.34409e-01,-4.59221e-01,-9.87574e-01,-2.05491e+00,1.13018e+00,-1.32976e+00,1.00900e-01,7.29433e-01,1.04496e+00,6.24933e-01,1.92806e+00,-6.67474e-01,8.23584e-01,-5.26228e-01,-7.65623e-01,4.28056e-01,-4.90492e-01,-5.40352e-01,3.22359e-03,-1.12721e-01,-8.85817e-02,
9.77265e-03,-3.42302e-01,-8.73528e-02,2.31012e-02,-3.22886e-01,-2.98594e-01,2.01818e-01,-3.54180e-01,1.15643e-01,3.44240e-01,-5.53516e-01,3.21824e-01,-4.19913e-01,5.21881e-01,1.87253e-01,-2.72735e-01,1.09104e+00,-2.63951e-01,4.70219e-01,1.92356e-02,3.60168e-01,7.67994e-01,1.01444e-01,-5.12353e-01,9.85905e-01,8.85138e-01,-4.71596e-01,-4.37056e-01,-2.85113e-01,-2.19905e-01,-3.06597e-01,-1.26989e-01,4.09058e-01,-2.62572e-03,-2.05903e-01,-8.73042e-02,-2.15257e-01,4.97989e-02,-6.64136e-02,4.16421e-01,-3.21199e-02,-8.00528e-02,-1.29859e-01,2.42435e-01,5.59154e-02,-4.79518e-01,-2.16858e-01,-4.52290e-02,4.45161e-01,7.75758e-01,
-5.37936e-01,1.52302e-01,-5.17862e-01,2.66290e-01,-3.36323e-01,3.11274e-01,2.73852e-01,6.34665e-01,1.63541e-01,-8.80538e-02,1.44272e+00,4.77000e-01,-2.54506e-01,4.72830e-01,7.29490e-01,5.04945e-01,7.90770e-01,-6.23173e-01,2.88271e-01,-2.20435e-02,1.55240e-02,-9.67072e-02,-1.46045e-01,-6.26714e-01,1.82121e+00,5.75559e-01,7.59931e-02,-3.70704e-02,7.54940e-01,2.03899e-01,1.08273e+00,8.66911e-01,9.16864e-01,-2.02851e-02,-8.60135e-02,-5.16342e-01,2.36142e-01,-4.73138e-01,3.11791e-02,6.89652e-01,-1.54291e-01,-4.02152e-01,-9.73137e-02,-1.15533e-01,1.80266e-01,4.70923e-01,3.69878e-01,8.93414e-03,-2.07964e-01,-5.46339e-01,
1.99520e-01,-4.68813e-02,-2.48624e-01,6.88207e-02,1.09161e-01,-4.85180e-02,2.28989e-01,1.41792e-01,-1.57795e-01,-2.67382e-01,4.11165e-01,-2.43493e-01,-1.36842e-01,-2.27429e-01,-1.09274e-01,-6.00892e-01,1.00045e-01,-2.08244e-01,5.80038e-01,4.27051e-02,1.66645e-01,-2.25506e-01,-3.83766e-02,5.17431e-02,2.36250e-01,2.87030e-01,-8.65623e-01,-3.31419e-01,5.32482e-02,-1.16805e-01,-1.35785e-01,2.68778e-01,2.80996e-01,4.75852e-02,3.50939e-01,1.04758e-01,1.69770e-01,1.58176e-01,1.17931e-01,7.39521e-02,1.20804e-01,5.73860e-03,-1.21116e-01,-1.41884e+00,3.25630e-01,-8.89952e-02,8.22172e-03,-1.73893e-02,-2.89578e-01,4.15487e-02,
-2.74551e-02,2.12584e-01,2.62533e-01,7.58435e-02,1.56666e-01,5.12833e-02,-2.35957e-02,2.82193e-01,4.00647e-01,1.05539e+00,-7.01495e-02,-1.97470e-01,2.15217e-02,-3.51357e-01,1.36733e-01,-2.95051e-01,2.09100e-01,-6.32076e-02,-1.35938e+00,2.75813e-02,-3.23435e-01,3.17192e-02,-2.90360e-02,1.54712e-01,-1.01917e+00,6.33143e-01,-2.69154e-02,-5.27446e-01,5.91447e-02,3.86942e-02,-1.81709e-01,-5.19844e-01,3.72701e-01,-9.67596e-02,6.14607e-02,3.22868e-01,1.86463e-01,-1.71273e-02,-3.57878e-02,3.56537e-01,-3.17166e-01,-2.49321e-01,6.63648e-02,-1.43465e-01,5.63264e-01,-9.90669e-02,-1.57205e-01,-4.12187e-02,1.70915e-01,2.75795e-01,
3.52801e-01,1.75837e-01,4.99623e-01,6.94058e-02,1.40103e-01,-1.56121e-01,6.42077e-02,-4.23001e-01,1.71697e-01,7.12257e-01,-4.09718e-01,1.32757e+00,1.28538e-01,1.74729e-01,4.49486e-02,9.69753e-02,-3.14073e-01,-5.99664e-02,9.14002e-02,-2.95854e-02,1.15932e-01,2.03566e-01,-6.23257e-02,9.48106e-02,-3.78582e-01,4.31723e-01,-1.22614e-01,6.32662e-01,9.21399e-01,-2.38048e-02,3.29667e-01,-2.27555e-01,-2.51055e-01,-1.07632e-01,9.80966e-02,-3.01806e-01,-1.24202e-01,2.24417e-01,-2.00171e-01,-2.36248e-01,6.83645e-02,-2.78135e-01,-6.32357e-02,-6.01640e-02,1.67810e-01,-6.24395e-01,8.75206e-02,1.21803e-02,-5.91916e-02,-8.27391e-01,
4.74425e-01,1.75284e-01,2.24469e-01,-5.34887e-02,-6.46950e-02,4.86559e-01,-1.13482e-02,-8.24155e-03,2.70228e-01,-7.51794e-01,3.73466e-02,-3.79932e+00,-7.53167e-02,-7.24312e-01,9.64119e-03,6.14421e-01,-5.56140e-01,9.04326e-01,-2.45813e-01,-1.32882e-03,-1.95553e-01,1.44249e-01,-4.25807e-03,1.02630e-01,-6.28327e-01,-9.73339e-01,-1.13873e-01,-1.44812e-01,-4.61991e-01,2.30573e-01,3.53722e-02,-6.01688e-01,-2.14596e-01,-5.19988e-02,-2.95114e-01,4.60878e-01,5.84809e-02,1.08117e-01,-2.23775e-01,4.59333e-01,-3.94631e-01,-5.93423e-02,2.42057e-01,-2.46427e-01,6.15323e-01,4.80835e-02,3.31415e-02,-1.76860e-02,1.99455e-01,-1.98962e-02,
3.78989e-01,1.19441e-01,7.59049e-01,4.73059e-01,3.26798e-01,6.02539e-02,4.65514e-01,-4.77212e-02,-1.10745e+00,-8.41283e-01,9.96752e-01,-1.37055e+00,2.48563e-01,1.37738e-01,-2.85446e-02,2.05201e-01,-8.27394e-01,5.38413e-01,2.41991e-01,-1.57722e-02,3.91212e-01,-5.71698e-01,2.19703e-01,2.98814e-01,-1.71936e+00,-4.36822e-01,3.91169e-01,9.91634e-01,3.79242e-01,5.18934e-01,-1.54803e+00,-3.60716e-01,-7.58593e-01,-3.86074e-01,-1.49763e-03,-1.13853e+00,3.10064e-02,9.53826e-02,-3.42883e-01,1.96985e-01,1.72973e-01,-8.37487e-02,1.74526e-01,-9.01834e-01,-6.74083e-03,-1.03427e+00,3.42048e-01,2.97610e-02,-1.27177e-03,-2.39343e+00,
6.01872e-01,3.40136e-01,-2.81775e-01,1.09714e-01,1.94065e-01,1.47660e-01,-8.24673e-01,-9.38981e-04,1.17031e-02,-5.27945e-01,8.54753e-01,-1.45348e-01,-2.35610e-01,-9.85782e-02,2.51379e-02,6.86814e-01,-5.09482e-01,4.59572e-01,9.17016e-02,3.81883e-03,7.51895e-02,-3.73840e-01,3.61844e-01,3.41709e-01,-6.11184e-01,-4.44884e-01,4.59915e-01,-7.89177e-02,5.81927e-02,-1.02314e-01,2.62644e-01,4.24545e-01,6.36892e-02,2.71944e-03,1.30140e-01,-1.83655e-01,7.19644e-02,4.58958e-01,-5.82203e-01,-2.43771e-01,2.24791e-01,-2.43194e-01,4.85597e-01,-7.44552e-01,-9.12870e-02,-2.95137e-01,3.96656e-01,6.01963e-03,5.94744e-01,1.84350e-01,
-7.48658e-01,-6.36263e-01,-2.16451e+00,-2.05868e-01,-7.81147e-01,-1.20741e+00,6.40381e-01,6.26797e-01,-2.41590e-02,-1.28644e+00,-4.04579e-01,-1.27682e-01,-4.24301e-01,1.43676e+00,-8.85023e-01,5.43913e-01,5.41719e-01,-1.05821e+00,-6.53669e-01,-4.17992e-02,3.24350e-01,-1.36295e+00,-5.75549e-01,-8.53162e+00,7.49529e-01,7.88209e-01,1.43872e+00,1.08874e-01,-2.05910e-01,1.77336e-01,8.44848e-01,-3.21036e-01,1.52069e+00,5.24862e-01,-2.92727e-01,-5.65568e-01,-7.43570e-01,-2.06688e-01,-2.98191e-01,-5.08844e-01,-1.41684e+01,2.20025e-01,-8.74642e-01,-3.72510e-01,3.70790e-02,1.05995e+00,1.50743e-01,3.22134e-02,-6.82842e-02,-2.96681e-01,
-1.24697e-01,-1.62828e-01,1.70531e-01,3.28916e-01,6.69756e-02,1.56696e-01,-2.57567e-01,-5.31627e-02,3.52304e-01,1.69195e-01,-1.82626e-02,5.28558e-01,-7.79960e-02,1.55434e-01,-5.30660e-02,-1.56950e-01,7.38777e-02,-3.46433e-01,-3.07359e-02,-1.78589e-02,1.15697e-01,-2.85490e-01,-4.70929e-02,7.52087e-02,-1.08615e-01,1.93543e-02,-1.85704e-02,-3.12826e-01,1.23675e-01,6.94956e-02,1.16884e-01,9.88026e-02,7.91646e-02,1.85214e-01,-2.99200e-02,2.96603e-01,4.18845e-02,-9.10150e-02,-9.42592e-02,-6.35678e-02,4.95779e-02,-1.61156e-01,5.69908e-02,2.89166e-01,-6.94263e-02,3.86390e-01,1.05229e-01,1.44398e-02,2.07400e-01,-2.72566e-02,
2.24554e-02,2.35322e-01,-2.43846e-03,2.35494e-01,-3.12899e-01,2.16824e-01,-2.12064e-01,1.43880e-01,4.53415e-02,7.75098e-02,5.33647e-01,7.81754e-02,-1.27705e-01,-1.11572e-01,4.41835e-02,-2.00018e-01,3.87364e-01,1.71274e-01,-5.39373e-02,-1.16687e-02,2.16666e-01,3.36015e-01,-1.91226e-01,-5.64647e-02,-9.17661e-02,-8.71104e-02,-1.91537e-01,-8.75224e-02,-1.95662e-02,-4.54608e-02,1.53689e-01,8.35557e-02,4.35352e-02,4.98571e-02,8.46829e-02,-6.75908e-02,3.16188e-01,-2.71723e-01,1.64130e-01,9.55192e-02,-2.31057e-01,-2.97833e-01,-3.70888e-02,-3.41168e-01,9.53474e-02,2.55687e-03,-3.91080e-02,-1.03584e-02,-1.72671e-01,-8.76870e-02,
-1.65997e+00,-2.68782e-01,-4.15792e-01,-3.86149e-01,-9.20686e-02,3.49216e-01,-1.46166e+00,9.37398e-01,-3.11810e-01,1.93256e+00,-1.58383e+00,4.61161e-01,2.26557e-01,-4.38460e-01,6.51845e-02,-1.65280e+00,1.66897e+00,-4.88464e-01,-2.20590e-01,4.94352e-02,-6.81736e-01,1.43525e+00,-3.18213e-01,-5.33218e-01,9.20845e-01,3.42172e-01,-3.68359e-01,7.22415e-01,-1.70045e-01,-7.10146e-01,2.32106e-01,-2.61603e+00,-1.73490e-01,1.98571e-01,9.50715e-01,7.43848e-01,-4.09848e-02,-1.71747e+00,-1.06523e+00,1.12475e-01,8.46044e-01,-6.40210e-01,-3.91431e-01,3.16090e-01,9.72851e-01,-1.09524e+00,-6.80333e-01,-2.83976e-02,-1.46476e+00,7.68590e-01,
2.37197e-01,-1.01128e-01,8.89482e-01,-6.52333e+00,-1.66054e+00,-8.56038e-01,-3.17629e-01,1.52980e+00,-9.18480e-01,2.70568e+00,-2.64599e-01,1.04340e+00,5.26333e-01,6.71625e-01,1.23799e+00,1.91355e-01,-1.21151e-01,-1.54748e+00,3.88274e-01,2.55356e-02,-7.81805e-01,3.90090e+00,6.87127e-01,-4.54990e-01,-1.77721e-02,3.49585e-01,3.18522e-01,-8.57066e-01,5.02572e-01,7.42892e-01,-6.33101e-01,-9.48446e-01,-2.30425e+00,-8.14556e-01,4.78755e-01,-3.55778e-01,-5.43582e-01,2.22622e-01,-8.05546e-01,-3.70027e-01,6.64393e-01,-9.41695e-02,-1.70475e-01,-1.99469e+00,-2.70327e+00,-3.41662e-02,-8.75275e-01,-3.16155e-02,-2.15823e-01,-2.31489e+00,
5.51432e-02,-2.25164e-02,-6.22263e-02,-1.80455e-01,1.20846e-02,-9.36084e-03,5.69512e-02,2.19241e-01,-3.41735e-03,-1.56311e-02,-5.08899e-02,2.86244e-01,-6.20973e-02,-1.34690e-01,1.38512e-01,-1.84452e-01,-1.53563e-01,-1.78072e-01,-2.07358e-01,-1.77042e-02,2.52058e-02,2.83236e-01,-1.58876e-01,-7.90871e-02,2.68998e-01,1.19865e-02,-1.44620e-01,-7.63594e-02,4.37041e-02,-2.13242e-01,-2.47524e-03,4.56375e-01,1.89609e-01,-1.56979e-02,-2.94907e-02,-2.34498e-02,-9.99514e-02,2.49279e-02,1.65172e-01,3.62547e-02,1.27926e-01,-1.02873e-01,-1.71967e-01,-5.91676e-02,-3.64635e-01,3.64649e-01,-2.58480e-03,-2.69984e-02,-1.27000e-01,7.34106e-02,
3.25509e-01,1.43093e-01,2.79372e-01,-4.35727e-01,1.58813e-01,-5.89901e-02,5.75846e-01,-9.32584e-02,-5.05540e-01,2.36880e-01,-6.64336e-01,-3.74316e-01,-8.39459e-02,1.19700e-01,-1.42505e-01,2.51538e-01,-1.40153e-01,-1.62366e-01,3.90751e-01,-3.92769e-02,1.70445e-03,-2.47285e-01,1.97620e-01,1.40408e-01,1.15623e-02,-3.69712e-01,8.78500e-02,-2.59071e-02,-6.73313e-01,-8.60723e-02,-7.10920e-01,1.11044e+00,-7.91951e-02,-1.27954e-02,-2.24348e-01,-3.27245e-01,-3.92043e-01,-5.94353e-01,-2.07304e-03,-4.87495e-01,-2.10884e-01,8.61073e-02,9.43546e-02,3.42774e-01,4.39250e-01,-2.25483e-01,4.44680e-02,-1.93109e-02,4.52865e-01,1.04491e+00,
-6.04067e-01,-5.82854e-02,-1.19407e-01,3.48149e-01,-1.64198e-01,4.33616e-01,-8.74421e-01,-7.31837e-01,-9.06961e-01,-1.23860e+00,1.50063e+00,-2.73958e+00,-5.67074e-02,1.04224e+00,5.74527e-01,-4.06913e-02,-1.21008e+00,5.29935e-01,1.64881e+00,-1.71866e-02,-1.47384e-01,7.17529e-02,-3.00493e-02,3.02825e-01,9.06795e-01,-3.55428e+00,-8.10844e-01,-1.49680e-01,-1.60763e+00,-7.07288e-01,3.39801e-02,1.60426e+00,-5.72294e-01,-3.51590e-01,-1.98122e-03,-3.15755e-01,1.10974e+00,-8.68971e-01,-3.54923e-01,-2.34632e-01,4.87137e-01,3.68323e-01,5.08419e-01,2.72118e-01,-6.60262e+00,-2.83515e-01,4.65708e-01,2.56682e-02,2.55742e-01,-3.39806e-01,
-6.23175e-02,-1.77189e-01,-4.04540e-01,2.95397e-02,-7.03355e-02,2.34692e-02,-3.41188e-01,-7.62772e-02,3.18489e-02,9.36843e-02,-9.28974e-02,-3.49031e-02,-1.69515e-01,-6.98655e-02,4.76484e-01,-8.28914e-02,2.28144e-01,-3.91382e-02,1.78535e-01,2.23374e-03,-2.58241e-01,2.98663e-01,1.57045e-01,-1.56523e-01,2.79760e-01,2.72738e-01,6.12202e-02,-2.15160e-01,-2.10343e-01,8.32936e-02,1.83562e-01,-3.61840e-02,2.24432e-01,1.39009e-01,7.45751e-02,2.89120e-01,-7.65429e-02,4.87128e-01,-6.92131e-02,-2.62624e-01,-2.25242e-01,1.79911e-01,-1.65980e-01,-1.39813e-01,-3.38292e-01,3.23565e-01,1.22306e-01,-2.78151e-02,-8.10055e-02,-2.92456e-01,
5.08771e-01,-1.24321e-01,-8.67588e-02,3.54516e-01,-1.09409e+00,1.96987e-02,-1.34452e-01,-5.01250e-01,-2.15152e-01,1.22742e-01,-3.16103e-01,-3.86871e-01,1.09064e-01,-2.31795e-01,-1.02397e+00,7.51808e-02,2.52297e-01,-8.10794e-02,6.00398e-02,2.87513e-02,-6.69251e-02,-3.39295e-01,-2.10607e-02,2.71859e-01,7.51435e-02,3.53763e-02,3.43782e-01,-1.80771e-01,-7.16043e-02,2.38319e-01,1.61118e-01,-6.57390e-02,-5.76678e-01,-9.66223e-02,-5.20566e-01,-9.25569e-02,4.20364e-01,8.09099e-02,-2.66708e-01,2.72617e-02,-2.99744e-01,-4.83010e-01,2.84361e-02,1.82465e-01,4.09703e-01,2.62729e-01,-3.35296e-01,8.15137e-03,-4.44560e-01,-2.96616e-01,
-2.82515e-01,-5.69357e-02,5.28265e-02,3.82345e-01,5.26117e-01,-1.55335e-01,-2.02543e-01,4.14040e-01,1.46361e-01,-1.26177e-02,-1.09036e+00,-4.71134e-01,-1.12425e-01,1.31953e-01,1.33974e-01,-4.13029e-01,1.21673e-01,3.65212e-01,-2.38595e-01,-4.72885e-02,4.70185e-01,-1.05012e-01,-2.79776e-02,-1.36066e-01,-1.38500e-01,-4.45885e-01,2.00583e-01,-4.15670e-01,1.19958e-01,-2.40222e-01,-6.36835e-01,-8.40674e-01,-7.77423e-01,-5.77318e-01,1.65326e-01,-2.80883e-01,4.27626e-01,-1.88654e+00,7.77868e-02,-1.62719e-02,1.58499e-01,3.72899e-01,-4.36543e-01,5.67854e-01,4.89008e-01,-4.21652e-01,-1.37342e-01,2.21129e-02,1.33387e-01,-1.29451e-01,
-3.66348e-01,-1.03861e-01,-3.46242e-01,5.20373e-01,-2.30277e-01,2.97924e-01,-6.86148e-01,-4.14453e-01,-2.69479e-01,3.61392e-01,1.40620e+00,-5.66081e-01,-7.28289e-02,7.66760e-01,-3.50262e-02,3.22184e-01,7.64195e-01,7.20514e-01,-4.50440e-01,3.03311e-02,5.33689e-01,-5.01127e-01,-3.57692e-01,-1.10077e+00,-9.82528e-03,3.34062e-01,3.21769e-01,5.36000e-01,-2.59353e-01,-5.28898e-01,-5.59941e-01,-2.91463e-02,-3.38129e-01,-4.55539e-01,-1.81841e-01,4.38331e-02,7.86948e-01,-1.41126e+00,1.08661e-01,1.21242e+00,-2.20027e+00,-2.00804e-01,5.23304e-01,-6.17097e-02,1.87118e-01,-8.94264e-02,5.31943e-01,-4.42069e-02,2.00070e-01,-5.46085e-01,
-5.20935e-01,-1.76688e-01,2.53922e-01,-3.26139e-01,2.46660e-01,3.01528e-01,-1.45588e-01,-3.74469e-01,2.02374e-01,-1.72338e-01,-1.68365e-01,-3.63051e-01,6.27237e-02,9.52495e-02,7.37425e-01,-6.93182e-01,2.62966e-01,-2.34428e-02,1.60012e-01,2.70470e-02,2.37115e-01,5.45213e-01,-2.66243e-01,-3.57495e-01,8.18474e-03,-3.14153e-01,-1.03129e-01,-8.10462e-02,-3.07838e-01,-3.47017e-01,6.93464e-01,6.98019e-01,-1.54461e-01,8.76335e-02,-2.42317e-02,6.02399e-01,-5.88909e-01,2.82235e-01,-8.43527e-02,2.81719e-01,-3.28295e-01,-1.26459e-01,1.88107e-01,-3.67281e-02,-2.37470e-01,1.64130e-01,-5.11858e-02,-1.81709e-02,-1.82463e-01,5.35655e-01,
-2.79502e-02,-6.11208e-02,-1.01444e-02,-5.52515e-02,4.04201e-02,-5.73779e-02,6.20500e-03,-2.22432e-03,2.38594e-02,-1.48249e-02,1.55121e-03,-3.67496e-02,1.62904e-02,2.12001e-02,4.90705e-03,4.70611e-03,4.24774e-02,-2.41503e-02,-6.55692e-03,2.82110e-02,-5.45785e-02,-3.18827e-02,-2.82372e-02,-3.24089e-02,1.29907e-02,-2.00285e-02,1.85378e-02,-1.12127e-02,-3.35114e-02,-1.31737e-02,-1.73174e-02,1.50202e-02,-3.91025e-02,1.72594e-02,8.78973e-03,2.64142e-02,-2.61169e-03,-1.24915e-02,1.09162e-02,-5.47603e-02,-5.34204e-02,-6.69063e-02,-3.83468e-02,2.44537e-02,-3.24512e-03,-7.02633e-03,-4.50279e-02,3.07253e-02,1.09212e-02,2.25706e-02,
1.24504e-01,-1.14399e-01,-2.13262e-01,1.41180e+00,-6.73277e-01,-2.33106e-01,3.70702e-01,-3.14415e-01,5.94365e-01,-2.55715e-01,-3.15572e-01,3.16057e-01,-1.74545e-01,-5.58781e-02,-3.59128e-02,5.28979e-01,-3.36974e-02,5.62950e-01,-1.88477e-01,3.33351e-02,1.51173e-02,1.95926e-03,-5.65370e-02,-2.34676e-01,7.03813e-01,4.31786e-01,2.15853e-01,3.10100e-01,-4.50773e-01,-1.52934e-01,4.07937e-01,8.34044e-01,3.96786e-01,1.05975e-01,-4.49150e-01,3.85917e-01,-1.86406e-01,-4.94371e-01,4.12215e-02,5.43966e-01,-2.81917e-01,-2.33604e-01,-1.59917e-01,3.45633e-01,6.29862e-01,9.08548e-02,2.62984e-01,-1.40413e-02,7.04412e-02,8.70303e-02,
8.63566e-02,2.14570e-01,-2.05213e-01,-5.10171e-01,-2.82713e-01,-3.35579e-01,-2.81674e-03,-3.87722e-02,3.60505e-01,-1.61063e-01,1.61520e-01,1.68693e-01,-3.86551e-01,4.89220e-01,-1.43670e-01,-5.48355e-02,-8.23970e-01,4.57297e-02,3.37588e-01,-9.16257e-03,-2.45483e-02,3.10919e-01,1.58672e-01,5.88550e-02,2.91383e-02,6.49465e-01,-8.93069e-02,-6.87246e-03,-2.16783e-01,-3.59429e-01,-2.04310e-01,8.73231e-01,-1.54937e-01,-2.44341e-01,8.70572e-02,-2.52100e-01,2.41593e-01,-6.36551e-01,-4.19600e-01,-8.52866e-02,-2.73768e-02,-2.45443e-01,3.14977e-01,-3.96629e-01,-1.72160e-01,-7.04405e-01,4.87689e-01,2.19684e-02,-4.03155e-02,1.99155e-01,
1.48363e+00,
-3.92495e-02,
-9.07286e-02,
-2.47432e+00,
-2.26900e+00,
2.89863e-01,
8.49478e-02,
-2.16725e-02,
-6.87681e-01,
-2.45493e-01,
-4.09136e-01,
3.45567e-01,
-1.17436e+00,
-1.29578e-01,
-1.53744e-02,
2.30173e+00,
4.72030e-01,
-4.66555e-01,
-1.12435e+00,
4.96354e-01,
-5.70833e-01,
-7.89111e-01,
1.01716e+00,
4.62391e-01,
-1.62763e+00,
-5.83797e-01,
1.24307e-01,
-7.74799e-02,
2.89070e-01,
-1.92723e+00,
-1.86202e+00,
5.07772e-01,
2.08683e+00,
-1.01027e-01,
3.02891e-01,
-8.00881e-01,
-1.66647e-01,
2.25116e-01,
-3.13640e-01,
-8.85606e-02,
-4.13258e-02,
-6.88448e-01,
9.99533e-02,
2.35630e-01,
