// Neural Network File Format by Kyle Julian, Stanford 2016
7,5,5,50,
5,50,50,50,50,50,50,5,
0,
0.0,-3.141593,-3.141593,100.0,0.0,
60760.0,3.141593,3.141593,1200.0,1200.0,
19791.091,0.0,0.0,650.0,600.0,7.5188840201005975,
60261.0,6.28318530718,6.28318530718,1100.0,1200.0,373.94992,
-1.495500e-01,-2.485340e-02,-1.120660e-03,-1.759320e-02,-1.084650e-02,
7.706760e-03,1.149620e+00,-1.171670e+00,2.464750e-01,-7.994370e-01,
-9.456650e-03,-6.685430e-01,-5.280160e-01,-3.858380e-01,4.078230e-02,
4.601490e-02,1.402570e+00,5.518790e-01,8.974420e-01,-8.721730e-01,
1.532260e-02,-1.369050e-01,1.351260e+00,2.044320e-01,-1.935200e-01,
-1.110530e-02,-1.459310e-01,-4.211820e-02,2.381080e-01,-1.259660e+00,
-3.569130e-02,1.593330e+00,1.213790e-01,8.144340e-01,-6.970380e-01,
-1.659350e-03,-9.399600e-02,1.173090e-01,6.215930e-01,-6.756040e-01,
1.203170e-01,1.243820e+00,-1.345900e+00,2.871170e-01,-1.675570e-01,
-1.275550e-01,2.453240e+00,-2.429500e+00,-6.505540e-02,2.314390e-02,
4.180910e-02,-1.386620e+00,1.376000e+00,2.402050e-01,-8.419220e-02,
-2.132050e+00,8.890240e-02,-4.702610e-02,1.121240e-02,-4.096500e-02,
-1.134980e+00,8.095870e-04,2.107260e-02,-5.880400e-02,-1.472060e-01,
-2.827270e-01,1.079850e+00,-3.476180e-01,-1.303760e-02,-4.671780e-02,
2.749140e-02,-3.509390e-01,4.895740e-01,2.599030e-01,2.037460e-01,
-2.501540e-02,-1.955100e-01,-9.325520e-01,3.889050e-01,-3.332110e-01,
-4.355920e-01,4.039030e-01,-2.488780e-01,-3.799650e-01,-3.724620e-01,
-4.318190e-01,-7.889100e-02,5.484130e-02,-7.447040e-01,-6.344700e-01,
6.143460e-03,1.773710e-01,-7.983060e-02,-1.065940e+00,-9.785430e-01,
-3.060600e-02,2.227300e-01,-2.529430e-01,-1.517700e+00,-5.403510e-01,
-3.026900e-02,5.415240e-02,-9.491420e-02,7.381440e-02,-2.067350e+00,
2.291410e-01,1.795540e+00,1.128860e-01,-2.001840e-01,2.516400e-01,
-5.298580e-01,1.460870e-01,-9.713170e-02,-6.620760e-01,-1.113100e-01,
-6.628720e-01,-8.266440e-02,6.151940e-01,-2.740170e-02,8.788540e-02,
1.298090e+00,-1.574990e-02,-6.848380e-03,5.988530e-02,-4.325110e-02,
-1.345320e-02,-2.353860e+00,6.308040e-01,1.349600e+00,-1.555400e+00,
1.118240e-02,1.568260e-01,-1.392040e-01,-9.651070e-01,-2.146650e-01,
-1.001890e-01,1.093880e+00,1.305410e-01,3.587120e-01,-2.240020e-01,
-1.130670e-02,-3.906450e-02,4.748260e-03,-2.597140e-01,-9.316560e-01,
3.402680e-01,-4.162070e-01,-8.542470e-01,4.340970e-01,-2.080600e-01,
4.701400e-01,-5.734460e-01,1.420590e-01,-8.736170e-02,-1.591390e-01,
7.025830e-02,1.039020e-01,-1.531200e-02,4.799040e-01,3.200860e-01,
2.720650e-01,-1.038240e+00,-1.674850e-01,-1.789610e-01,2.822290e-02,
1.762440e-02,-9.324300e-04,-4.191690e-03,-6.783410e-04,-6.266600e-04,
-1.138250e-01,1.986220e+00,-2.096480e-02,3.115920e-01,-8.980680e-01,
2.585390e-03,1.089510e+00,-5.095540e-01,6.044400e-02,-1.281230e+00,
-7.603450e-02,4.909870e-01,-1.606250e+00,-6.938020e-02,3.554770e-01,
-1.040660e-01,-4.093200e-01,-7.531660e-01,2.674060e-01,-3.864000e-01,
-1.003720e+00,-1.480180e+00,-8.670130e-02,4.784250e-01,-1.926740e-01,
5.891610e-03,3.956180e-02,-3.786280e-02,-1.748840e-01,-4.603210e-01,
-9.436740e-01,9.791880e-02,-8.858230e-02,-1.148000e-02,-4.113160e-03,
7.037600e-03,4.978110e-02,-1.770670e-01,7.588630e-01,-8.950130e-01,
6.990350e-03,-9.177210e-02,7.035340e-02,-1.607420e+00,-2.414130e-01,
2.093620e-02,1.566190e+00,-1.510480e+00,6.558530e-04,1.661440e-01,
-9.681130e-02,-1.405050e+00,1.724900e-01,-1.880160e-01,1.295770e-01,
-1.236170e-01,-2.345080e+00,2.491990e+00,-1.044260e-01,5.125280e-02,
-1.118810e-02,1.312280e-03,6.760040e-03,1.224570e-02,2.073200e-03,
-1.187000e-01,-4.737160e-01,2.199640e-01,1.277310e-01,-8.021400e-01,
-2.866420e-02,6.836020e-02,4.118470e-01,-3.829810e-01,3.842060e-01,
7.838000e-02,8.484450e-01,-9.904680e-01,1.238180e-01,-3.026430e-03,
-7.537510e-02,
-2.584960e-01,
4.507100e-02,
-1.608310e-01,
1.325230e-01,
-2.141980e-01,
2.593450e-01,
2.466850e-01,
-3.484000e-01,
-1.047020e-01,
-4.419890e-01,
-3.826510e-01,
-3.082850e-01,
-3.481820e-01,
3.626870e-02,
2.015330e-02,
-5.529880e-01,
-6.703820e-01,
-6.342710e-01,
-3.029540e-01,
-7.268770e-01,
2.401870e-01,
-2.027190e-01,
-2.053040e-01,
4.274200e-01,
-3.330150e-01,
4.189830e-02,
2.886590e-01,
3.834950e-02,
2.934010e-01,
-8.850480e-02,
2.246300e-01,
-4.170100e-01,
-1.622720e-02,
-1.103130e-01,
-5.270830e-01,
6.332560e-02,
2.048180e-01,
-4.842980e-01,
1.990090e-01,
-7.904250e-02,
1.160800e-01,
-5.280820e-01,
-5.654510e-01,
-1.539070e-01,
-3.263140e-01,
-1.845880e-02,
-1.825580e-01,
-8.105930e-03,
-3.226620e-01,
-1.233620e-01,-6.860110e-01,3.586530e-01,2.592850e-01,4.843330e-01,3.546360e-01,4.084030e-02,-5.946440e-01,-7.502010e-01,-3.450490e-01,1.319500e-01,-2.084110e-01,-1.990620e-01,6.976600e-01,-5.549530e-01,1.180860e-01,-5.484040e-01,4.330610e-01,1.174880e-02,2.094940e-01,-3.730910e+00,1.208070e-01,2.600610e-01,6.855090e-01,1.076440e-01,4.261590e-02,-3.785290e-01,5.512130e-02,2.140350e-01,-3.565610e-01,-1.068800e+00,-1.791850e-01,-1.933060e-01,-1.572140e-02,2.425720e-01,4.367020e-01,-4.591110e-01,4.162270e-03,2.354950e-01,-1.157190e-01,-1.632280e-01,-1.564220e+00,-1.074440e-01,1.515410e-01,6.246850e-01,-6.261580e-01,1.468500e-03,-6.137100e-01,1.498190e-01,1.431420e-01,
1.227670e-01,2.404000e-01,9.196410e-02,-8.301470e-02,4.619540e-01,8.188400e-01,1.745230e-01,7.397500e-01,3.357830e-01,2.346620e-01,-1.927870e-01,5.988870e-01,-1.592880e+00,5.088950e-01,-3.633840e-01,2.515950e-01,6.261650e-01,6.688550e-01,-5.963340e-02,6.981540e-03,4.689770e-02,-1.209310e+00,-3.441140e-01,5.567460e-01,1.758050e-01,-2.845760e-01,-6.024150e-02,-3.550980e-02,-1.987450e-02,7.048610e-02,-2.544020e-01,-3.093610e-01,-1.335930e-01,2.336190e-02,-2.283250e-01,-2.031860e-02,3.751530e-02,-3.907060e-01,-1.970150e-01,-8.735070e-01,5.984420e-01,1.903090e-01,-1.257040e-01,1.504890e-01,-8.075690e-01,2.492530e-01,-5.146900e-02,7.833300e-01,5.018870e-01,7.996050e-02,
-1.562260e-01,-2.563350e-01,2.987460e-02,7.610900e-01,1.333320e-01,5.371290e-01,-7.583210e-02,-4.942650e-01,8.350780e-01,-1.003990e-01,1.436570e-01,-5.662020e-01,-1.018990e-01,-1.397230e-01,-1.588500e-01,7.188910e-01,4.932570e-01,9.269000e-01,1.965790e-01,2.300280e-01,3.001230e-01,-7.063540e-02,-1.078360e+00,-9.725030e-01,2.656440e-01,4.244440e-02,-2.292000e-02,3.871360e-01,1.258120e+00,6.038350e-02,3.744430e-01,-9.104260e-02,-5.616340e-02,2.806980e-03,-4.459260e-01,-8.133210e-03,-5.773780e-01,6.107280e-02,-5.052270e-01,1.185020e-01,-7.533370e-01,-1.676820e-01,-7.806470e-01,-8.967110e-01,-9.504860e-02,-3.197420e-01,-3.309900e-02,-2.584550e-01,1.911680e-01,2.225010e-01,
-1.170820e-01,2.346160e-01,-1.085830e-01,-3.427970e-01,3.072720e-01,-1.075950e+00,1.996350e-01,5.598300e-01,7.666640e-02,-2.365060e-01,-6.862240e-01,-2.764720e-01,-9.540060e-01,-3.841220e-01,-5.119740e-01,1.910250e-01,1.863490e+00,1.779660e-01,-1.429020e+00,2.633380e-01,2.049990e-03,-1.497090e-03,-3.020560e-01,2.734500e-01,-1.252970e-01,3.115000e-01,1.178590e+00,1.091380e-02,2.437360e+00,8.241850e-02,-7.835400e-01,1.560090e+00,6.781570e-01,1.231350e-02,3.481720e-02,-2.553800e-01,-4.731730e-02,2.073450e-01,-4.503830e-01,-1.935330e-01,3.577560e-01,-1.030430e+00,1.113190e-01,-2.590900e-01,9.059020e-01,1.717310e-01,-4.674950e-02,1.540960e-02,-3.921860e-02,7.794280e-01,
4.515850e-02,7.892460e-02,-6.279690e-01,1.862870e-02,2.681580e-01,-5.681520e-01,-3.309860e-02,-2.157330e-01,-2.677320e-01,-3.126650e-01,3.333840e-01,-4.973320e-03,-1.723240e-01,2.288150e-02,1.184130e-01,3.723950e-02,-1.608770e+00,9.894520e-02,-7.409400e-01,3.604710e-01,5.769830e-01,-2.190160e-02,6.231710e-01,-6.802610e-02,-7.519500e-01,1.154510e-01,-1.498750e+00,4.355940e-01,8.312520e-01,2.583420e-01,-1.784840e+00,8.897310e-02,1.517760e-01,-2.005230e-02,-1.708490e-01,5.010900e-01,4.212960e-01,1.095440e-01,-2.513090e-01,9.854930e-01,-2.436650e-01,1.617010e-01,-5.820920e-01,-4.228500e-01,8.799500e-01,-1.946430e-01,7.690840e-03,4.835320e-01,3.315930e-01,2.178260e-02,
3.938410e-02,-1.237940e-02,-2.009220e-02,-3.901440e-02,3.423610e-02,-3.016020e-02,-2.840850e-02,-2.825650e-03,3.739540e-02,-7.671150e-03,-1.762010e-02,-2.641050e-02,-1.913140e-02,-7.399210e-03,-1.130980e-02,3.133650e-02,-4.576600e-02,2.671470e-02,-5.017610e-02,-4.024130e-03,3.353430e-02,-4.025290e-02,2.164150e-02,2.584390e-02,-5.677410e-02,-6.134000e-03,1.371330e-02,3.638390e-02,-3.016740e-02,1.574610e-02,-3.399290e-02,-1.446350e-02,2.356730e-02,2.437630e-02,-3.987410e-02,2.077690e-02,1.393310e-04,-4.956390e-02,8.978550e-05,-4.937650e-02,-4.778960e-02,3.624840e-02,-9.205690e-03,3.185870e-03,-3.897030e-02,3.406320e-03,1.909640e-02,3.047060e-02,-5.320550e-02,3.756940e-02,
-4.433280e-02,-8.443330e-01,-9.635900e-02,1.175880e-01,2.496680e-01,2.552470e-01,-7.807950e-02,-9.323860e-01,-3.061530e-01,1.221340e-01,-7.799000e-01,-7.266240e-02,2.372900e+00,-1.119280e-01,3.426250e-01,-6.935400e-02,-3.735000e-03,-4.456120e-03,1.250810e-02,1.182080e-01,-4.794150e-02,4.470550e-02,1.579430e+00,-7.954520e-03,-3.708590e-02,-9.225800e-02,-4.709960e+00,-1.599210e-01,-5.178220e+00,-4.125580e-02,1.622860e-01,7.997920e-01,-6.103850e-01,2.451190e-02,1.217340e-01,-3.027250e-02,1.062010e-01,-1.341750e-01,2.565410e-01,1.177750e+00,1.728900e-02,-2.379750e-01,-1.375710e-01,4.737260e-01,4.168600e-01,1.248340e-01,4.245360e-02,3.368880e-01,3.275430e-02,-7.845290e-02,
-1.387240e-01,-2.550040e+00,-1.615780e-01,-1.165250e+00,-1.109760e+00,1.919950e+00,-1.797930e+00,1.381130e+00,2.958330e-01,-7.222540e-01,1.901750e+00,6.614560e-01,-7.284060e-01,4.255630e-02,-1.183440e+00,2.153840e+00,3.826250e+00,-1.266790e+00,-1.188940e+00,2.458610e-02,1.674970e+00,-1.573220e+00,-3.628950e-01,2.687600e-01,9.354970e-01,1.025570e+00,-7.381530e-01,-1.672770e+00,3.527390e-01,5.712440e-01,-3.026650e-01,-6.869690e-03,-9.293410e-01,4.136140e-03,-3.938680e+00,-3.118110e+00,1.379050e+00,5.026320e-01,4.729650e-01,-3.792220e-01,-1.567000e+00,1.651100e+00,5.803620e-01,-3.956260e+00,3.247320e-01,7.202160e-01,-3.138850e-02,1.357760e+00,-7.124990e-01,-3.341630e+00,
2.252310e-02,2.698330e-02,-5.198440e-02,3.269820e-02,-3.826230e-02,-4.245770e-02,-2.409870e-02,-1.779360e-03,-4.116380e-02,-7.926300e-03,6.598880e-03,1.629000e-02,-2.773690e-02,3.309890e-02,2.294200e-02,-9.170080e-03,-2.932570e-02,-1.213100e-02,-3.659450e-02,-2.835200e-02,-4.614120e-02,-4.071860e-02,-1.235490e-02,7.812830e-03,-3.949350e-02,-4.292820e-02,2.168340e-02,-2.712750e-02,3.407760e-02,-1.887290e-02,-4.223690e-02,2.813540e-02,4.246410e-02,1.800270e-02,-2.603020e-03,-8.973270e-03,-5.689110e-02,-7.562170e-04,-4.655930e-02,-3.612340e-02,-8.243930e-03,-4.322320e-02,2.811870e-02,-5.055480e-02,-3.917510e-02,-3.814390e-02,4.102100e-02,4.920990e-03,3.652490e-02,2.746790e-03,
-1.713190e-01,6.169070e-01,5.555560e-01,5.780050e-01,1.763340e-01,5.776270e-03,5.758870e-01,-5.327860e-01,9.996580e-01,-3.271220e-01,7.625430e-01,5.161350e-02,-9.000460e-01,-3.990840e-02,2.095970e-01,-3.661580e-01,2.100050e-01,4.828070e-01,-8.442930e-01,-2.934140e-01,1.457720e+00,7.982480e-01,1.344730e-01,-2.952390e-01,1.076290e-01,-5.480480e-01,1.785830e-01,1.350050e-01,-6.559050e-01,-7.601310e-01,7.947230e-01,1.252500e-01,2.133350e-01,-9.168410e-03,6.334900e-01,8.286820e-01,-4.415320e-01,-3.875360e-01,1.542990e-01,1.842190e-01,-4.796210e-01,2.273000e-01,1.430260e-01,4.277050e-01,3.323830e-01,-2.964320e-01,-3.090990e-02,-1.754300e-01,4.563730e-01,1.585160e+00,
-7.187730e-02,2.612500e-01,-3.100480e-02,1.164540e-02,2.136520e-01,-3.010500e-01,7.114210e-02,-3.933250e-01,2.358380e-01,-1.827910e-02,1.571310e-02,7.441960e-01,-2.833630e-01,-5.472800e-02,-3.759820e-02,3.413760e-02,-1.376360e-01,-1.750010e+00,-8.821100e-01,-2.463180e-01,-1.430760e-01,-5.595330e-02,3.200930e-01,5.174420e-01,-3.644330e-01,4.967330e-03,5.109820e-02,-9.137220e-02,-7.377940e-01,-9.083970e-02,1.206920e-01,1.032430e+00,-3.715370e-01,2.613210e-02,-1.589290e-01,-4.286870e-03,-1.895600e-01,-5.202350e-02,-1.342700e-01,5.897650e-01,6.775200e-01,4.664410e-01,4.717710e-02,2.226630e-01,2.556810e-01,-2.300040e-01,2.236450e-02,1.376970e-01,-1.895110e-02,-3.550610e-02,
-2.119770e-01,2.084870e-02,9.327330e-02,1.874330e-01,-2.903500e-01,-7.359430e-02,7.811520e-02,-2.900880e-01,1.591220e-01,-3.545700e-01,4.987060e-01,-3.293290e+00,-1.200390e+00,7.543070e-01,-3.991530e-01,1.184860e-01,8.010650e-01,-3.828810e-01,-3.324410e-01,-2.739440e-02,3.944080e-01,2.002650e-01,1.984600e-01,3.847740e-02,2.216990e+00,1.751770e-01,-8.136310e-02,-1.153060e-02,2.967010e-01,3.778660e-02,-8.775250e-02,3.145800e-01,-2.721000e-01,-1.810410e-02,-5.647270e-02,5.352730e-02,1.388020e-02,-3.280000e-02,6.247580e-02,4.923940e-01,-1.086440e+00,-1.394900e-01,9.697760e-02,-1.935990e-01,-1.232380e-01,-2.267190e-01,-3.060000e-02,1.753570e-01,1.532170e-01,7.582430e-01,
-1.741850e-01,1.302430e-01,1.627270e-01,-3.885620e-02,9.111710e-01,-3.204580e-01,-3.391230e-01,-6.883250e-01,3.690900e-01,1.949780e-01,-7.218290e-01,-1.302690e-01,1.200840e+00,-4.160810e-01,-1.021750e-01,-2.935680e-02,-1.546880e+00,-7.788250e-01,-3.106390e-01,-7.937410e-01,4.951270e-03,-2.025540e-01,8.755330e-01,-4.317010e-01,1.738440e-02,-4.775350e-02,7.838820e-01,3.837650e-01,-1.542970e+00,-1.462380e-02,-7.101860e-01,-2.293910e-02,4.292470e-01,4.033390e-02,4.599410e-01,-2.584540e-01,4.291200e-02,1.143310e-01,1.388590e-01,6.384410e-01,-4.267070e-01,8.971820e-01,1.249300e-01,-4.271270e-01,9.973110e-02,1.193450e-01,5.898370e-02,3.688510e-01,-8.342420e-02,-2.106180e-02,
-1.748100e-02,-1.409990e-02,3.244270e-02,-1.387340e-02,-1.217020e-02,-1.667300e-02,-5.625550e-02,-1.607570e-02,-2.806320e-03,-4.568220e-02,-1.456360e-03,3.652040e-02,8.467960e-03,-5.423190e-04,-5.451640e-02,-2.349720e-02,-5.078180e-02,-3.289590e-03,-1.395410e-02,-2.011940e-02,2.387840e-02,-3.338070e-02,1.196650e-02,1.247160e-02,-4.515450e-02,8.977140e-03,-5.093430e-02,-7.325940e-03,1.252430e-02,-1.934940e-03,-1.711720e-02,2.275070e-02,-9.659510e-03,-5.326430e-02,4.724770e-03,3.782680e-02,-5.774990e-02,2.731810e-02,-3.702780e-02,1.168990e-04,-2.955820e-02,7.632780e-03,1.954160e-02,-4.913320e-03,2.669620e-03,-5.452270e-02,1.352070e-02,-1.214260e-02,2.979730e-02,-4.096170e-02,
-9.870420e-02,-4.572100e-02,7.450600e-01,4.271170e-01,6.709770e-01,-4.233600e-01,1.210870e-01,-1.645870e+00,-1.170020e+00,-1.029050e+00,7.542790e-01,-1.922580e-01,4.054990e-01,-1.444390e+00,7.798690e-01,3.116680e-01,-1.060810e+00,-8.493060e-01,-5.057700e-01,4.627020e-01,-3.524480e-01,2.727580e-01,1.353980e-01,5.077430e-02,2.393760e-01,1.668960e-01,-3.718510e-01,3.449570e-02,1.714330e-01,-2.076380e-01,5.309590e-01,2.293000e-02,-8.619440e-01,3.526540e-03,9.233150e-02,-1.033050e-01,-4.099400e-01,-7.609300e-02,1.189540e+00,-2.650950e-01,-5.255670e-01,-4.958250e-01,5.104880e-01,5.194560e-02,1.301750e+00,-1.556780e+00,-2.280160e-02,9.964700e-01,1.176810e+00,-7.371230e-02,
-1.600940e-01,-4.645920e-01,1.256940e-01,-5.955770e-01,4.818630e-01,-2.728290e-01,-8.672600e-02,1.033920e+00,3.331370e-01,1.794110e-01,2.037360e-01,-1.536990e-01,4.864400e-02,-2.136950e-01,-5.820490e-01,-1.957540e-01,3.692320e-01,8.691690e-01,3.491610e-01,-2.410350e-01,5.720580e-01,-2.985480e-01,3.014970e-01,-1.761080e-01,1.103820e-01,-5.332630e-01,-5.454150e-02,9.372960e-01,-1.411990e+00,-5.617640e-03,3.233230e-01,-1.305420e+00,-1.804630e+00,-2.988400e-02,1.109650e-04,5.772670e-01,-4.017650e-01,-4.250530e-02,6.163300e-01,1.687610e+00,-1.554930e-01,2.055800e-01,-6.796740e-01,-1.226840e-02,4.742840e-01,-4.094810e-02,-3.414610e-02,-6.195020e-01,-1.233600e+00,7.937630e-01,
-1.495000e-02,2.816000e-01,-6.085120e-01,-9.391160e-02,3.351390e-01,-7.660300e-02,-4.555750e-01,9.487550e-01,-4.811920e-02,-3.593970e-01,8.043190e-01,-4.283180e-01,1.388470e+00,-1.446170e+00,1.422200e-01,8.156050e-01,8.137030e-02,-1.222850e+00,-1.240170e+00,-3.257390e-01,-1.790300e+00,-2.795040e-01,-5.759400e-01,-3.258900e-01,7.088180e-02,4.109730e-01,-2.127300e-01,-4.126420e-01,3.300690e-01,1.102090e-01,2.050380e-01,-2.329040e-01,-4.021810e-01,-1.922060e-02,5.368880e-01,1.401570e+00,-2.407650e-01,2.612720e-01,-4.460580e-01,-2.959670e-01,5.580570e-01,-6.077750e-01,8.338510e-01,-2.194370e-01,-1.137690e+00,5.291010e-01,-1.312970e-02,4.424000e-02,1.052060e-01,-3.656580e-01,
4.138770e-02,-4.721920e-02,-1.650400e-02,7.132770e-03,-4.746570e-02,1.327730e-02,-1.072600e-02,-4.935470e-02,-1.823760e-03,-2.129780e-02,2.673800e-03,-5.260550e-03,-1.679500e-02,-4.572160e-02,2.570810e-03,-2.304570e-02,-4.211400e-02,1.277870e-02,1.818120e-02,3.111010e-02,2.193820e-02,2.260610e-03,-2.500140e-02,1.906190e-02,1.538410e-02,-7.825480e-03,-1.698360e-02,-3.326260e-03,3.166300e-02,-2.858280e-02,-2.526510e-02,-4.028870e-03,2.733830e-02,3.873860e-02,-2.011460e-02,-2.382000e-02,6.880910e-03,1.525590e-02,-2.283120e-02,4.178360e-03,-5.257620e-02,1.559820e-02,-5.139270e-02,4.070650e-02,2.100920e-02,-1.771160e-02,-7.671160e-03,-1.067260e-02,-6.024330e-03,-9.293960e-03,
-1.330410e-02,-2.957540e-02,1.775490e-02,-1.797010e-02,-6.231350e-02,2.736560e-02,-3.511060e-03,2.118960e-02,6.927760e-03,-5.192630e-03,1.634810e-02,-6.121460e-02,-1.092490e-02,-2.869050e-02,-2.071790e-02,-3.424660e-02,-2.755840e-02,-1.323030e-02,-2.912240e-02,-2.612710e-02,3.886440e-02,3.703300e-02,1.525240e-02,-1.953610e-02,-2.459040e-02,2.298440e-02,-2.195630e-03,-1.043120e-02,-3.312220e-02,-2.585780e-02,-3.620700e-02,-5.293750e-02,-5.414210e-02,2.832490e-02,-2.843880e-02,4.009170e-02,-2.826340e-02,-1.834690e-03,1.988830e-02,2.825350e-02,-9.023160e-03,-4.277120e-02,2.223520e-02,-3.953610e-02,6.302460e-03,2.343170e-02,5.572440e-03,-3.862730e-02,-5.105940e-03,-2.119940e-02,
-1.912690e-01,7.306160e-01,-3.061310e-01,6.670670e-01,-5.679360e-01,6.404570e-02,1.348410e-01,1.155100e+00,9.576040e-01,7.183680e-01,6.992910e-01,-9.294350e-01,2.149130e-01,-8.694450e-01,1.730590e-01,-9.720690e-01,2.002900e-01,-2.445740e+00,3.806740e-02,-3.240120e-01,9.975120e-01,-8.662250e-02,4.544610e-01,4.328650e-02,3.649940e-01,-1.667820e-01,-1.589830e-01,-1.492270e-01,-4.319370e-01,5.175640e-02,5.932180e-02,-1.077210e+00,-8.781260e-01,6.018970e-02,-1.216710e-01,-1.662110e-01,3.532050e-01,1.749270e-01,2.571480e-01,-3.679880e-01,-1.779290e+00,-2.398270e-01,1.229290e-01,1.269450e+00,6.469200e-01,1.220760e+00,5.131530e-02,-4.390750e-01,-2.222240e-01,9.073090e-01,
1.391960e-01,-9.584090e-02,1.036340e-01,-3.541000e-01,-1.772610e-01,-7.230820e-02,2.046060e-01,-2.166060e-01,2.884810e-01,-2.702720e-01,7.213960e-01,2.574430e-01,1.036980e-01,3.092940e-01,-3.909150e-01,9.850310e-02,2.117520e+00,-1.827570e-01,-6.203570e-02,-1.100310e-02,1.099840e+00,-7.173040e-01,-6.564670e-01,8.917160e-01,2.134160e-01,8.018620e-02,3.601970e-01,4.336280e-01,-9.265260e-02,-1.831430e-01,2.158460e-01,2.334760e-02,-1.068510e+00,-1.531490e-02,-8.727840e-02,-6.624610e-01,-3.703050e-01,-1.823220e-02,2.689410e-01,4.154100e-01,3.445380e-01,3.246180e-01,-5.491670e-02,1.482830e-01,-1.148090e+00,-5.150280e-01,-1.196200e-02,4.818890e-01,-1.626750e-01,1.002990e+00,
1.621200e-02,6.980760e-02,8.974800e-01,1.130350e+00,6.276380e-02,-3.817270e-01,-5.975300e-01,-6.666470e-01,-1.884360e+00,8.329050e-01,5.030490e-01,4.253390e-01,-6.991050e-03,1.154170e+00,-3.371720e-01,-7.324140e-01,-7.117600e-01,2.258060e+00,1.122610e-01,1.636290e-01,-2.817970e+00,1.824420e-01,1.036680e+00,5.586310e-02,1.180820e-01,-3.454470e-01,-1.025220e+00,-1.261550e-01,-7.002500e-01,-6.348610e-01,7.033050e-01,-4.484320e-01,-1.711420e-01,1.630370e-02,3.665200e-01,-1.358030e-01,-7.482250e-01,3.928310e-01,8.183930e-01,-4.870390e-01,1.331520e+00,-1.023820e+00,8.903600e-01,4.634830e-02,6.512360e-01,7.979980e-01,-2.612590e-02,4.839320e-01,1.013210e+00,8.474130e-01,
-1.880640e-01,5.196290e-01,-5.804560e-01,-1.810190e-01,5.288670e-01,7.400980e-01,4.833250e-01,4.579510e-01,1.336510e+00,1.950750e-01,1.814870e-01,-5.190320e-01,-3.176200e-01,-3.013380e+00,6.323740e-01,-1.378390e+00,-2.171880e+00,-8.883770e-01,-4.594900e-01,3.762720e-02,2.191400e+00,2.090350e-01,-3.752040e-01,8.858390e-02,-3.128530e-01,-9.067770e-01,-1.776650e-02,2.280070e-01,4.416410e-02,2.968810e-01,-3.560980e-02,6.650180e-01,1.891100e+00,2.370190e-02,3.192630e-01,-3.452850e-01,-2.154210e-01,-1.709610e-01,8.876380e-01,-7.604660e-02,-6.868600e-01,1.096570e+00,-8.026020e-01,-1.276420e+00,1.027440e+00,-2.434790e-01,5.058570e-02,7.950280e-02,-5.913590e-01,8.006640e-01,
-1.950220e-01,-4.091890e-01,3.847530e-01,9.047630e-01,-1.877250e-01,2.855130e-01,-6.777330e-01,4.859820e-01,1.079430e-01,-4.266720e-01,-8.176700e-01,-8.429160e-01,-7.433080e-01,-6.147600e-01,8.207630e-01,2.272570e-01,-2.085500e+00,-2.252170e+00,-1.197160e-03,-1.558920e-01,-4.582840e-02,8.311790e-01,6.899400e-01,-6.706040e-01,3.024260e-02,4.079290e-01,-1.143240e+00,-1.233910e-01,-5.414780e-01,2.895190e-01,-2.752650e-01,-1.099400e+00,-4.471110e-01,9.186330e-03,7.754380e-02,1.445480e+00,-4.811000e-01,4.680800e-01,-3.280320e-01,2.983890e-01,4.359980e-02,2.950250e-01,1.108280e+00,1.039030e+00,-7.832990e-01,-3.518090e-01,-2.931070e-02,-2.098610e-02,-1.407830e-01,-5.068460e-01,
-1.190440e-02,-1.986220e+00,-1.418610e+00,-2.227230e+00,3.240450e-01,1.795360e+00,-2.088780e+00,1.137200e+00,-3.796720e+00,8.866790e-01,4.424610e+00,-1.146560e+00,1.500400e-01,1.573030e-02,-4.923250e-01,1.809020e+00,-1.109130e-01,-3.051750e+00,1.219030e+00,-1.488900e+00,-1.201710e+00,-1.930760e+00,-1.009500e+00,-5.829980e-01,1.771870e-01,4.271830e-01,-4.516620e-01,-2.174250e+00,7.564740e-01,1.020450e+00,6.854340e-02,-1.599040e+00,-6.635780e-01,-4.606940e-02,-3.310050e+00,1.247550e-01,-2.791920e-01,2.917670e-01,-1.238410e+00,-1.804410e+00,-2.176080e+00,2.544530e+00,1.412180e+00,2.326420e-01,-6.164690e-01,1.784150e+00,-4.403200e-02,-1.154960e-01,-3.447050e-01,-1.000630e+00,
-1.744920e-02,3.502460e-02,-4.368420e-02,-4.293590e-02,-5.493400e-02,4.523010e-02,-4.856010e-02,1.388860e-02,3.492520e-02,-4.941880e-02,9.698360e-03,-4.875600e-02,7.027770e-03,-5.254710e-02,-2.691370e-02,-4.192110e-02,-4.152120e-02,2.552610e-02,2.831010e-02,-1.892370e-02,1.894660e-02,8.567270e-03,-1.513610e-02,-4.896820e-02,-4.901160e-02,-4.851800e-02,9.770210e-03,3.825310e-02,-1.116420e-02,-4.551770e-02,-3.511170e-02,2.721740e-02,-2.662640e-02,-2.229050e-02,1.641410e-02,1.840130e-02,-3.793280e-02,-3.736470e-02,-1.121540e-02,-1.818370e-02,-2.068150e-02,-3.789570e-02,5.278270e-02,2.520700e-02,-4.062910e-02,6.784740e-03,6.191830e-03,-3.743150e-02,1.020390e-03,-5.129370e-02,
-8.208280e-03,-1.140700e+00,1.554390e-01,-1.283610e-01,5.564760e-01,-5.714400e-01,-4.958850e-01,1.809860e-01,4.235500e-01,-7.020770e-01,-2.720490e-01,2.189120e-01,6.482080e-01,6.008310e-01,-4.630970e-01,-1.478750e-01,5.208990e-01,2.136370e+00,-1.830270e-01,1.756380e-01,-2.711530e+00,2.686840e-01,-4.666170e-01,-1.053290e+00,-3.233670e-01,6.267540e-01,4.631060e-01,-1.680550e-01,-6.046400e-02,1.387330e-01,4.161560e-01,7.707150e-01,-1.883710e-01,-4.880790e-03,-4.909430e-01,2.728980e-01,-2.258360e-01,-2.949740e-01,-3.060500e-01,4.224230e-01,4.144160e-02,-1.279490e+00,-5.604690e-01,1.482060e+00,-4.138300e-01,-8.938330e-01,3.042350e-02,8.498580e-02,5.451070e-01,8.930290e-01,
-1.349610e-02,-1.253850e-02,-2.927860e-03,-5.365110e-02,-1.509690e-02,-5.674700e-02,-3.263780e-02,-2.005490e-02,4.075960e-02,-3.377180e-02,-1.719040e-02,-6.645550e-02,2.238460e-02,-6.304020e-03,-1.969320e-02,8.758420e-03,-4.273960e-02,-1.031650e-02,-5.755730e-02,5.191200e-03,-2.188500e-02,2.609930e-02,-2.262840e-02,-1.045910e-02,9.994700e-03,-2.587780e-02,1.771930e-02,9.024610e-03,-7.324310e-03,-6.465870e-02,1.953400e-02,-5.455090e-02,-3.169450e-02,3.745270e-02,-4.406430e-02,6.049730e-03,2.371990e-02,2.039380e-02,5.796550e-04,-1.350910e-02,2.491070e-02,2.782000e-02,6.965000e-03,-2.618130e-02,-5.695340e-02,-6.112630e-04,-2.320470e-02,-2.464280e-02,-4.945830e-02,2.503050e-02,
2.800870e-02,-3.608300e-01,1.486790e-01,-6.971680e-02,-2.718420e+00,4.125260e-01,-9.725500e-02,-5.241050e-01,-5.767240e-01,-1.853640e-01,3.124860e-01,2.220910e-01,-1.848790e-01,1.043350e+00,-3.834070e-01,-1.141610e-01,-1.672750e+00,9.859520e-02,1.292130e-01,3.623140e-01,-3.020850e+00,-4.728620e-01,1.524840e-02,-4.304850e+00,8.829680e-02,4.815110e-01,-5.193060e-01,8.125130e-02,3.003300e-01,3.190880e-01,-1.825630e-01,8.310410e-02,-8.571360e-01,-2.528610e-02,-7.437730e-02,-5.250260e-01,5.420190e-02,3.628210e-01,1.814750e-01,1.906300e-02,3.873100e-01,2.064660e-01,-4.793230e-01,-6.759980e-01,2.296770e-01,-5.466560e-01,1.803990e-02,-5.607520e-01,2.280240e-01,-1.543740e-01,
-3.968480e-02,9.500760e-01,-1.226740e+00,8.443030e-01,7.187700e-01,1.171440e+00,1.243100e-01,-3.722360e-01,-1.404890e-01,2.091190e-01,-6.027270e-01,-7.972250e-01,-1.516210e+00,-2.661980e-02,-1.347430e-01,-3.779950e-01,3.219820e+00,-1.033740e-02,6.442780e-01,-6.313480e+00,-6.823770e-01,-2.975980e-01,-5.540720e-01,5.487580e-01,2.096530e-01,-6.332080e-01,-1.032620e-01,-2.296810e-01,-1.463550e+00,-5.102790e-01,1.476110e-01,-1.714400e-01,9.281520e-01,3.898800e-02,1.684740e-01,6.476750e-01,-5.280470e-02,-1.100210e-02,1.570540e+00,-1.499360e+00,-1.377650e-01,6.600200e-01,-1.121180e+01,8.267020e-02,2.793350e-01,-1.110590e-01,-5.747770e-04,-4.317040e-01,4.125480e-01,-2.013540e-02,
-7.380500e-02,-1.628130e+00,3.575150e-01,-4.144280e-01,-1.764220e+00,-1.758220e+00,-4.004260e-02,-3.255350e+00,-2.802480e+00,-1.684630e+00,-1.313630e+00,-8.069250e-02,-7.023470e-01,1.170770e-01,-1.016740e+00,3.931340e-01,2.786650e+00,8.342630e-01,2.016300e+00,9.104530e-01,-5.898790e+00,-6.449340e-02,1.853380e-01,2.232140e-01,8.030300e-02,3.235290e-01,1.199570e+00,1.395500e-01,-3.887290e-01,6.187970e-01,-4.471410e-01,5.961400e-01,-9.669090e-01,-1.908070e-02,9.929520e-03,2.724320e-02,2.511300e-01,4.196020e-01,3.238380e-01,-2.414770e-01,-4.848390e-01,-2.041060e+00,-5.188510e-01,-2.531660e+00,-9.561260e-01,-1.324070e+00,-2.947630e-02,-1.079910e+00,1.283960e+00,-1.783230e+00,
1.454130e-01,4.931990e-02,3.330700e-01,3.171740e-01,-1.795420e-01,5.723500e-01,1.053150e-01,-3.605870e-01,-3.309970e-01,-6.471080e-02,6.963220e-01,1.357180e+00,1.307200e+00,6.239530e-01,-1.578870e-01,-1.529520e-01,4.393100e-02,5.388080e-01,7.044710e-01,-4.479630e-01,6.063940e-01,7.857290e-02,3.538340e-01,4.142260e-01,-2.831320e+00,2.237720e-01,-2.535750e-01,-3.892250e-01,-1.457860e-01,-2.023330e-01,2.664140e-01,-1.189760e+00,-7.053960e-01,-3.755900e-02,-2.461320e-01,-4.911940e-01,-9.426070e-02,3.859310e-01,1.293750e-01,4.185080e-01,5.410180e-01,4.197370e-01,-6.217850e-02,2.744200e-01,-1.450890e-01,-2.697480e-01,1.215980e-02,-5.527350e-01,5.997140e-01,9.401180e-01,
-1.336850e-01,1.016120e+00,-1.006330e-01,-2.442040e-01,6.981190e-01,3.048140e-01,-9.388640e-03,-3.613300e-02,-4.960010e-01,3.559520e-01,-3.290730e-01,-1.599020e-01,-6.832380e-01,-9.701210e-01,-5.948610e-01,-6.972400e-01,-1.595320e-01,7.907450e-01,9.069700e-01,3.529260e-01,1.237080e+00,-3.997590e-01,-6.828720e-01,3.402670e-01,5.882650e-01,2.141760e-03,5.030270e-01,-1.405710e-01,-2.821940e-01,6.877250e-02,4.223450e-01,5.987170e-01,-5.288990e-01,-1.271520e-02,-8.198180e-03,-6.073800e-01,-1.464910e-01,1.441950e-01,4.079640e-01,2.124400e-01,-1.489240e+00,2.222130e-01,6.163360e-01,-4.934730e-01,-1.354250e-01,-1.114990e-01,-1.787910e-02,-2.328900e-01,3.815140e-01,4.877640e-01,
3.971860e-02,5.215160e-01,-6.318940e-01,-3.424520e-02,-1.845670e+01,-1.108300e+00,2.798700e-01,1.522160e+00,5.164670e-01,9.558610e-01,-7.135200e-02,-2.200810e+00,-2.385360e+00,-7.760910e-02,9.832140e-01,9.506070e-02,-3.483700e+00,-6.089570e+00,-1.112790e+00,-2.250190e-01,-1.529010e+00,5.843650e-02,-4.913040e-01,3.598300e-02,1.178290e-02,1.442620e+00,6.351430e-02,-3.671050e-02,-5.079010e-01,-3.326160e-02,-9.994530e-01,-6.577720e-01,-3.379730e-01,-2.068230e-03,-7.851710e-02,-9.635780e-01,7.081870e-02,-3.427600e-01,1.155450e+00,5.075960e-01,-8.485810e-01,-1.493360e+00,-2.368090e-02,2.121510e+00,-1.143380e+00,-9.684980e-01,4.524680e-02,-4.661160e-01,-1.383210e+00,1.068000e+00,
2.066970e-02,-3.188650e-01,3.024360e-01,-7.422790e-01,-1.141110e+00,5.166400e-01,-6.829960e-01,-1.337110e-01,-2.489290e-02,-1.004190e+00,3.332450e-01,-6.783920e-01,2.310180e-01,-1.968630e+00,-1.322160e-01,3.855920e-01,5.409550e-01,3.261560e+00,-7.836600e-02,-9.749390e-02,-2.145910e+00,-2.514690e-01,4.386450e-01,3.581040e+00,-1.918420e-01,-4.708510e-01,-1.504090e-01,-2.967520e-01,2.161800e-01,1.152510e+00,-1.141750e-01,5.986560e-01,-5.620360e-01,-4.287400e-02,-4.739250e-01,8.835040e-01,4.483620e-01,6.575630e-01,-3.681050e-01,3.819670e-01,-1.107610e+00,9.828930e-01,-8.017990e-01,-9.781910e-01,8.920130e-01,-8.931520e-01,-3.177400e-02,2.000910e-01,1.094370e+00,8.041670e-03,
3.955970e-03,-7.943220e-01,7.665770e-01,-6.643120e-03,9.666890e-01,5.704330e-01,2.305890e-01,-6.057040e-01,-1.381110e+00,-1.392090e-02,-2.607480e+00,3.492990e-01,-9.734320e-01,1.953540e-01,-1.788080e-01,7.111670e-01,-1.040010e+00,-3.618340e-01,2.508290e-01,5.437300e-01,-1.521810e+00,2.189180e-01,7.935200e-02,-9.635090e-01,1.049440e-01,1.295680e-01,-3.091060e-01,1.750880e-01,-1.521390e-01,-7.923690e-01,1.175760e-01,2.671380e-01,-7.182340e-01,1.138850e-03,1.421130e-01,-1.405230e-01,-5.468380e-01,-4.112060e-01,-1.413030e-01,9.431960e-02,-1.141710e-01,-1.268760e+00,-1.375080e-01,-1.355780e+00,-6.825740e-02,-4.416950e-01,-1.409310e-02,-1.236290e+00,3.877050e-01,-2.029410e+00,
-1.006270e-01,5.838150e-01,-6.431460e-01,-9.517470e-01,3.257070e-01,-1.696630e-01,1.034850e-01,-7.342320e-01,-5.729280e-01,-6.878760e-01,-1.354500e+00,-9.258180e-01,4.760340e-01,2.267850e-01,-5.772520e-01,-6.534640e-01,2.078300e+00,-3.744860e-01,1.486600e-01,3.148090e-01,-1.873270e+00,-9.268020e-02,1.669000e-02,-6.886420e-01,5.895440e-02,2.983120e-01,6.611600e-02,-6.610470e-01,5.252670e-01,6.213910e-01,-6.579670e-01,-3.153080e-02,6.593310e-01,-8.734150e-03,2.460350e-01,-5.267890e-01,2.187930e-01,5.573390e-01,5.392930e-01,-4.666150e-01,-5.331250e-01,-5.901160e-04,-1.400100e-01,7.701030e-01,1.025230e+00,-6.576430e-01,-1.723870e-02,6.010030e-01,3.001260e-01,-1.055890e+00,
4.121960e-02,4.353470e-01,-7.052300e-01,1.174510e+00,9.415100e-02,-4.758460e-01,2.968780e-01,-3.263590e+00,5.393910e-01,-8.381540e-02,1.469680e-02,-5.659150e-02,-2.430310e-02,-2.011930e-01,2.761470e-03,1.343920e+00,-3.140660e+00,1.894810e+00,1.237530e+00,-1.025420e-01,-5.676410e-01,-5.477030e-01,-8.186770e-02,-5.743250e-01,-3.549770e-02,1.628350e+00,7.865570e-01,1.161800e+00,5.957210e-01,6.179700e-01,9.046590e-02,1.001910e+00,6.111880e-01,-2.018500e-02,2.630500e-01,-1.369530e+00,-2.060610e-01,3.758120e-01,1.450690e-01,-4.149210e-01,-5.277390e-02,-4.794820e-01,-2.066340e+00,-2.924200e-01,6.949170e-01,-2.261410e-02,7.910530e-03,2.775870e-02,6.264200e-01,8.180510e-01,
-8.637390e-02,-8.027450e-01,-9.772630e-02,-1.415500e-01,-4.525100e-01,-5.447700e-01,3.412160e-01,-1.064320e+00,-8.143040e-01,2.841720e-02,1.034850e-01,-6.304410e-01,1.015700e+00,-3.517330e-01,-2.785820e-01,2.511620e-01,-5.538050e-01,9.442090e-02,3.976800e-01,2.552020e-01,-5.300640e-01,1.174630e-01,3.827550e-01,-1.068210e-02,1.013240e-01,1.207870e-01,-5.026610e-01,2.152980e-01,-4.070110e-01,2.772420e-01,-1.278770e-01,-3.900390e-01,-1.575320e-01,2.904880e-02,-1.620320e-01,8.598770e-01,5.885080e-01,2.847340e-02,-5.830760e-01,6.578950e-01,-3.920260e-01,5.501040e-01,-4.086850e-02,-9.798790e-01,6.248020e-01,3.654220e-01,-8.240380e-03,-3.298030e-01,1.205820e-01,-6.878190e-01,
2.401830e-01,-3.318600e-03,1.439460e-01,-4.456910e-01,5.550140e-01,1.752490e-01,-1.411770e-01,-7.264330e-01,3.811800e-01,-3.238890e-01,7.103720e-02,9.670940e-01,5.908660e-01,-1.747460e-02,6.609850e-01,3.830600e-01,1.129490e+00,1.604120e+00,8.853880e-01,1.021800e-01,1.028220e+00,1.870380e-01,2.815870e-01,2.002570e-01,3.818180e-01,-2.176550e-01,-2.436210e-01,-4.588240e-01,-2.098720e-01,-3.056720e-01,1.508310e-02,-5.661730e-01,-2.765930e-01,3.452230e-03,4.881130e-01,2.432750e-01,-1.015270e-02,1.753740e-01,1.908790e-01,-3.901720e-01,5.015390e-02,-8.700720e-02,5.217040e-01,6.269850e-02,5.701390e-01,-3.116000e-01,3.489990e-02,2.319730e-01,6.299260e-02,-4.410730e-01,
-4.106010e-02,-3.393510e-01,2.674730e-01,4.982210e-01,-2.789380e-01,-1.964340e-01,-2.436340e-01,5.938670e-01,1.722410e-02,-3.668780e-02,9.953480e-01,4.392120e-02,-7.497690e-01,6.022180e-01,-4.163950e-01,1.178020e-01,-1.393150e-02,1.207470e-01,2.513570e-01,-9.400510e-01,6.656520e-01,2.923540e-01,-2.982790e-01,7.282680e-02,-3.505520e-01,-4.104320e-01,5.685810e-01,2.530140e-01,1.440320e-01,3.001660e-01,4.219220e-01,8.269640e-01,-4.949700e-01,1.634130e-02,-5.622680e-01,-1.207400e+00,5.226240e-01,-1.358760e-01,1.236000e-01,5.144540e-01,1.886100e-01,2.298490e-01,-2.020380e-01,-1.087700e+00,-1.263990e-01,2.857860e-01,1.675850e-02,-5.825310e-01,4.679760e-01,-2.558610e-01,
7.713700e-02,-4.613460e-01,2.572150e-01,7.786840e-02,-3.066520e-01,5.880860e-02,-3.556690e-01,-4.616010e-02,6.316470e-01,-3.074830e-01,2.628310e-01,3.199500e-01,-5.913560e-02,-1.486400e-01,-6.268950e-01,1.385280e-01,9.636760e-01,2.131940e-01,7.415090e-02,-2.660830e-03,1.590790e-01,-4.558120e-01,1.227130e-01,6.954510e-02,4.420050e-03,-7.484960e-02,1.693750e-01,3.367710e-01,4.882920e-02,2.020340e-02,1.071360e-01,-5.622610e-01,-2.252900e+00,-2.337940e-02,3.796520e-01,-3.971500e-01,3.336260e-01,1.387330e-01,-1.066900e-01,-1.853070e-01,-5.793750e-01,3.162350e-01,-8.784340e-02,-1.406720e-01,-6.318990e-01,1.477960e-01,2.000360e-02,6.643700e-01,-2.389760e-01,-5.020060e-01,
-1.861820e-01,-1.171450e+00,3.847140e-01,8.101410e-01,-1.847710e+00,-9.630430e-01,-3.731850e-02,-7.531160e-01,-1.511210e+00,-5.644690e-01,-2.207260e+00,2.320670e-01,-4.663120e-01,3.902770e-01,-2.494350e-01,-8.396040e-02,8.208510e-01,5.601300e-01,1.110150e+00,4.706720e-01,-1.755140e+00,1.121590e-01,5.638500e-01,-1.305370e+00,4.948140e-01,-2.577650e-01,2.653550e-01,-4.245000e-01,1.714200e-01,1.458650e-01,-6.953520e-01,1.370030e+00,-5.914730e-01,1.105270e-02,2.941610e-01,-2.047770e-01,-2.497630e-01,-1.449930e-01,6.392840e-01,8.388680e-01,-2.802690e-01,3.807830e-02,-6.377280e-01,-1.078680e+00,3.191910e-01,-5.373410e-01,3.824660e-02,-8.674730e-02,3.735140e-02,-6.000320e-01,
-1.624190e-01,1.049060e-01,4.617380e-02,7.201060e-01,-4.077030e-02,-2.815500e-01,2.579950e-01,-4.076130e-01,-8.890380e-01,-3.272900e-01,-7.127660e-01,-8.477520e-01,2.383060e-02,-1.732890e+00,-9.585040e-01,-3.975420e-01,-6.681870e-01,1.304290e-02,-5.907640e-01,4.956390e-01,5.078460e-01,9.875870e-01,-1.199610e+00,-1.357060e+00,7.960090e-02,6.036780e-03,-7.437640e-01,8.362900e-01,1.247380e+00,6.014250e-01,-1.282740e+00,4.875360e-01,3.696240e+00,-5.675160e-03,3.764910e-01,9.961400e-01,-1.335480e+00,-5.893480e-01,-8.191110e-01,8.813750e-01,-1.044760e+00,2.456330e-01,7.610460e-02,-4.387730e-02,-7.488120e-02,-4.092670e-01,2.379380e-02,-5.137900e-01,6.911760e-01,-2.067060e-01,
2.192200e-02,-1.657220e-02,2.063010e-02,2.021300e-02,-3.804220e-02,-5.706340e-02,-4.909970e-03,-3.512560e-02,-3.094650e-03,1.688490e-02,-6.179110e-02,-6.804550e-02,1.094730e-03,-1.665610e-02,-2.218110e-02,-2.157270e-02,3.617580e-02,-3.613110e-02,-5.661760e-02,-4.324150e-02,8.008830e-03,-2.435110e-02,-3.979170e-03,-3.120120e-02,1.246380e-02,-2.766270e-02,4.979030e-02,2.929270e-03,-3.880690e-02,-3.222830e-02,2.325750e-03,-6.469410e-03,-1.622410e-03,-1.083890e-02,-1.391260e-03,-2.499160e-02,-6.274460e-02,8.459140e-03,-7.533750e-02,-6.392980e-02,-2.517570e-02,-4.215340e-03,-5.111090e-02,-2.429350e-02,1.322890e-02,-2.198810e-02,1.463690e-02,-2.549580e-03,-3.734500e-02,-1.939110e-02,
-1.340340e-01,3.751490e-01,-1.163020e-01,-1.497150e-01,-1.033170e-01,-1.066810e-01,4.386610e-01,-1.244950e+00,7.373140e-02,-1.329170e+00,-4.755570e-01,-1.152250e-03,-1.365390e-01,-7.272600e-01,-8.100880e-01,-1.782260e-01,-9.276640e-01,-2.740200e+00,-2.857890e-01,1.708300e-02,-1.754770e+00,5.673440e-01,-4.541430e-01,-1.911160e+00,-1.123560e-01,-1.635030e-01,8.230570e-01,5.223420e-01,-9.071010e-01,3.341790e-01,8.035280e-01,3.570820e-01,2.833250e-01,-2.246690e-02,-1.405100e-01,2.766350e-02,2.427890e-01,3.613580e-01,-2.455710e-01,9.796610e-02,2.912550e-02,-1.223680e-01,5.183730e-02,-1.063390e+00,-1.129610e+00,-6.145520e-01,-4.476110e-02,-1.875240e-01,-1.033700e+00,-1.249590e+00,
-5.087130e-03,2.009370e-01,2.455080e-01,-3.418340e-01,1.090980e+00,1.885660e-01,-9.181240e-01,1.347230e+00,7.393360e-01,1.425180e-01,2.656620e-01,1.775280e-02,-5.831910e-01,2.656180e+00,-1.560790e-01,-3.702930e-01,-2.905870e+00,9.750750e-01,-7.982990e-03,8.643300e-02,2.128500e+00,-7.202450e-01,4.137490e-01,-1.719410e+00,-9.343670e-02,3.990170e-01,-1.537160e-01,-8.617170e-01,2.160310e-01,-3.593800e-02,7.071310e-01,1.441790e-01,-3.047190e+00,4.880560e-02,-8.610650e-01,-2.795580e-01,-8.337550e-01,4.684980e-01,-1.946970e-01,-4.297580e-01,-2.384290e-02,4.292880e-01,-1.434030e-01,8.299750e-01,3.171510e-01,-1.174450e-01,-5.249940e-04,9.337030e-01,1.254320e+00,8.176550e-01,
-1.603410e-01,1.627830e-01,-1.098610e-01,2.945260e-01,-6.488840e-01,1.036660e-01,7.604870e-02,-3.283760e-01,-1.496800e+00,4.848120e-01,-1.650730e+00,-7.750370e-02,-4.725550e-01,-2.130140e-01,-5.227530e-01,-3.240140e-02,7.933490e-01,-4.064600e-01,-6.809960e-01,2.311120e-01,-5.498610e-02,6.403250e-02,1.873770e-01,7.418900e-01,2.188340e-01,6.190010e-02,-3.150340e-02,5.986870e-02,-1.751420e-01,-9.060520e-02,3.430840e-01,7.506810e-01,-1.727730e-01,2.966420e-02,2.574350e-01,-1.633690e-01,2.625030e-01,-1.565530e-01,4.646200e-01,7.973380e-01,-4.701580e-02,-1.390380e+00,2.599880e-01,2.594770e-01,3.623380e-01,6.822180e-01,3.022210e-02,6.967320e-01,4.839260e-01,-1.000120e+00,
2.683960e-02,2.755730e-02,-5.159000e-02,5.704320e-03,-6.139780e-03,-3.975790e-02,3.020710e-02,-7.864510e-03,-4.615030e-02,-2.065680e-02,2.197750e-02,4.288850e-02,-2.902660e-02,-1.492160e-02,-9.387770e-03,-4.125790e-02,8.278240e-04,-2.554820e-02,8.156840e-04,3.363790e-02,4.040120e-02,-6.401920e-02,-2.550830e-02,-3.698260e-02,1.536900e-02,2.115450e-04,1.760330e-02,-3.136180e-02,-4.590580e-02,7.780800e-04,-1.404400e-02,2.069150e-02,-2.735120e-02,3.528840e-02,-2.073120e-02,8.603240e-03,-5.297890e-02,1.994150e-02,8.664130e-03,-1.698450e-02,-5.417030e-02,1.639550e-02,2.894510e-02,-1.025720e-02,3.330830e-02,-4.697790e-02,-2.966500e-02,-4.298520e-02,-1.239650e-02,-2.373830e-02,
1.556660e-02,-8.250580e-01,-5.764670e-01,5.345580e-01,4.333500e-01,1.122450e+00,1.516770e-01,7.598440e-02,1.045060e+00,3.209510e-01,9.739260e-01,-5.699200e-01,5.694670e-01,-3.548580e+00,-5.933440e-01,1.132110e+00,7.013280e-01,-4.784910e-01,1.168460e+00,-6.281910e-01,-2.111830e+00,-3.052130e-01,5.373890e-01,-4.137200e-01,1.195040e-01,-7.570360e-01,-2.056190e-01,-4.079560e-01,7.408390e-01,-6.050960e-01,3.586940e-02,-1.342410e+00,1.469570e+00,-3.971510e-02,4.981140e-01,-1.644590e+00,4.863230e-02,-3.316800e-02,1.154080e+00,-1.416940e-01,-1.155860e-01,1.003630e+00,-5.177820e-03,2.020470e-01,6.293940e-01,1.466390e-02,3.529770e-03,1.053130e+00,1.063010e-01,-9.610590e-02,
4.311300e-01,
4.943610e-02,
2.161960e-01,
-7.529790e-01,
-2.882270e-01,
-9.616930e-03,
-1.351120e-01,
-1.135760e-01,
-8.109560e-03,
1.168750e-01,
3.350770e-01,
1.246010e+00,
-3.696080e-02,
-8.189230e-03,
1.108400e+00,
2.106770e-01,
-2.801350e-01,
-8.918720e-03,
-2.855700e-02,
-2.878090e-01,
-3.294480e-02,
-8.571410e-01,
1.431180e-01,
6.268030e-01,
-4.469760e-01,
-1.873610e-03,
5.620520e-01,
-1.532220e-02,
6.468490e-01,
3.280840e-02,
1.507920e+00,
-4.519860e-01,
-3.300920e-01,
-1.089520e+00,
1.583190e-01,
4.723480e-01,
7.157650e-01,
-6.269850e-01,
1.386990e-01,
-7.925960e-01,
-7.938160e-01,
-2.031390e-01,
8.137360e-01,
1.588220e-01,
-2.554850e-03,
9.419360e-01,
-2.529700e-01,
-6.719900e-01,
-2.834330e-02,
-7.478960e-01,
-2.849430e+00,-1.993690e+00,-5.080230e-02,8.643140e-01,-4.361270e-01,4.556310e-02,2.223050e+00,8.779480e-01,-3.269260e-02,3.899900e-01,2.526310e-01,1.251060e-02,-1.136430e-01,-1.339350e-02,-7.827080e-01,-4.029090e-01,-2.033610e+00,-2.528790e-02,1.961210e-02,1.337330e+00,-9.749640e-01,1.349090e+00,6.288170e-01,-2.478440e-01,6.524370e-01,-2.335650e-02,-1.123940e+00,-1.073070e-02,-7.379100e-01,-1.057210e+00,-2.718410e+00,5.844440e-01,-4.114360e-01,1.451190e+00,-6.476920e-01,-1.171720e+00,-1.153670e+00,-1.706550e+00,2.060040e-01,4.455990e-01,-1.072090e+00,5.857320e-01,-1.774610e-01,-3.852340e-01,3.232230e-02,-2.107560e-01,3.071820e-01,-1.440150e+00,-1.660050e-02,-2.352430e+00,
-9.136780e+00,6.257270e-01,-9.905840e-01,-2.578590e+00,-1.876740e+00,2.814630e-02,-2.375630e+00,-1.622960e-01,-9.127600e-03,-1.598670e+00,-1.284470e+00,5.081510e-01,-1.100710e+00,-4.084660e-02,4.740950e-01,-1.563520e+00,-5.334610e+00,2.150570e-02,-2.261580e-02,-1.509300e+00,-1.079030e+00,-2.028660e+00,-3.621530e-01,-7.345810e-01,-1.007710e+00,5.635280e-03,-1.139750e+00,-1.754210e-02,2.538680e+00,-4.502670e-01,-1.345370e+00,1.123810e-01,3.291790e-01,-1.920300e+00,1.209640e+00,-2.117530e-01,2.637040e+00,3.474370e-01,7.077870e-01,-2.216530e+00,-1.891630e+00,-3.717730e+00,9.005020e-01,-1.998400e+00,-1.681170e-02,2.492610e-01,-3.541300e+00,-6.046660e-02,-2.869190e-02,-2.698710e-01,
-1.283860e+00,-1.334140e+00,1.296850e-01,3.651060e-01,-1.160540e+00,-3.147600e-02,5.030860e-01,1.780400e-01,-1.971190e-02,-3.658090e-01,8.133790e-01,2.408660e-01,-2.856610e-01,-9.626350e-03,3.831150e-01,8.665110e-01,-8.546490e-01,-1.696600e-02,7.021250e-03,6.518280e-01,-3.610280e-01,7.396760e-01,4.950050e-01,1.313490e-01,4.176000e-01,-2.224820e-02,-2.531850e-01,3.518650e-03,-1.999120e+00,-7.851980e-01,-1.233640e+00,-2.383920e-02,-2.318990e-01,3.513500e-01,-2.246370e-01,-1.028120e+00,-2.107380e-01,-1.235280e+00,-1.270460e+00,-3.740680e+00,-8.602630e-01,-2.032780e+00,-2.493210e-01,2.546620e-01,1.334280e-02,-5.475200e-01,-8.518990e-01,-1.551300e+00,-2.753290e-02,1.245410e+00,
5.061070e-01,3.822950e-01,2.006080e-02,-6.754580e-02,3.275430e-01,-4.148350e-02,-2.726540e-01,-1.648640e-01,5.634420e-03,3.264290e-01,-5.877470e-02,-3.095810e-01,5.198370e-01,-1.272260e-02,-3.823330e-02,-6.444110e-01,3.840540e-01,-1.204550e-02,-4.505560e-02,2.723150e-01,2.229830e-01,3.221490e-01,-6.581770e-01,2.195660e-01,2.029230e-01,-8.819520e-03,5.475430e-02,-4.935230e-02,8.103050e-01,1.644270e-02,-5.110470e-01,-2.392940e-01,-4.289820e-01,-7.335560e-01,7.185620e-02,4.971970e-01,-3.043590e-01,8.110780e-01,5.663910e-01,-6.360150e-01,-2.807810e-02,1.219850e+00,5.262550e-01,-5.925200e-01,-4.729030e-02,8.951730e-02,7.933160e-02,7.343710e-01,-1.088180e-02,-8.136340e-01,
-1.317490e+00,-1.395050e+00,-1.729440e-01,1.090560e+00,-4.188370e-01,4.593140e-02,3.613620e+00,6.532330e-02,-3.238170e-02,3.850980e-01,7.821650e-01,4.610010e-02,1.095220e+00,3.700320e-02,-3.936110e-01,8.926930e-01,-8.757950e-01,-1.407440e-02,-2.313870e-02,6.617360e-01,-4.125810e-01,1.160460e+00,-1.686750e-01,-1.137460e-01,1.634600e-01,-4.465410e-02,3.882530e-01,2.360500e-02,-3.297990e-01,-8.024380e-01,-3.716610e-01,1.784710e-01,1.471490e-01,-8.383790e-02,-8.450910e-02,-5.249090e-01,-8.015950e-01,-4.107700e-01,-4.314820e-01,7.679000e-01,1.895000e-01,-2.217190e+00,-1.985530e-01,2.579480e-01,7.988700e-02,6.614790e-01,-2.613900e-01,3.685420e-01,2.372700e-02,1.720990e+00,
-4.794350e-02,9.177380e-03,-1.834190e-02,-4.495270e-02,-3.297770e-02,-7.894470e-03,2.847060e-02,-3.519450e-03,-4.480680e-02,-3.656090e-02,-5.132860e-02,3.755480e-03,-2.994440e-02,-1.371140e-02,-5.094540e-02,-2.283800e-02,1.251790e-02,1.444320e-03,-1.383590e-02,-1.972690e-02,9.429480e-03,4.267230e-02,2.176590e-03,-2.486640e-02,-1.765550e-03,3.682900e-02,-9.777460e-03,4.094580e-02,2.393180e-02,-4.481060e-02,-6.612570e-03,-1.368000e-02,-2.420090e-02,3.394790e-03,-1.999090e-02,-1.448570e-02,-6.002060e-03,1.205900e-03,2.875710e-02,3.283360e-02,-4.944890e-02,-3.018260e-02,1.128610e-02,-3.388310e-02,-1.330530e-02,9.318340e-03,-9.778060e-03,-9.846460e-03,4.002560e-02,-1.154850e-02,
-4.993130e-01,5.493810e-01,-2.915670e-01,3.646390e-01,-7.226970e-01,1.863950e-02,-8.553550e-01,7.039050e-02,-1.504050e-02,2.246720e-01,-1.149320e+00,-1.882820e-01,2.226490e-03,-1.652720e-02,2.678890e-01,-6.721600e-01,9.543160e-01,2.724190e-02,1.928980e-02,3.165410e-02,1.934980e-01,4.228290e-01,1.134710e-01,2.357480e-02,-1.257670e-01,-2.747350e-02,7.960710e-01,2.921390e-02,-6.615970e-02,1.325500e+00,-1.045100e-01,-7.029960e-01,-3.039760e-01,2.338470e-02,5.351310e-02,3.578340e-01,-1.730620e-01,-5.931750e-01,6.574790e-01,5.968720e-01,-2.850310e+00,1.213060e+00,-2.928500e-01,2.010140e-01,-1.605050e-02,-1.287120e-01,3.650280e-01,7.564450e-01,-9.916380e-03,1.720030e-01,
5.156480e-01,-7.153800e-01,3.383310e-01,-1.571360e+00,-1.632320e+00,-4.575640e-02,-1.906730e+00,-9.921760e-02,4.732020e-02,4.917220e-03,-7.713650e-01,1.638560e-01,-1.508240e+00,1.896180e-02,4.772550e-01,-3.642360e-01,-2.858460e+00,1.653440e-02,3.095920e-02,-5.923910e-01,-2.831810e+00,-9.133940e-01,-3.870920e-02,-4.993050e-01,-9.972610e-01,6.152850e-03,-1.371260e-01,-2.946210e-02,2.490390e-01,1.486770e-01,4.482110e-02,-9.628850e-01,1.223190e+00,-1.741070e-01,2.291080e-02,1.567370e+00,6.293210e-01,9.219370e-01,-1.326880e+00,-2.942550e+00,-9.017580e-01,6.696710e+00,-4.191330e-02,4.223330e-01,1.469990e-02,1.127260e-01,-1.325360e+00,5.214220e-02,3.688670e-02,-7.425840e-01,
-4.270330e+00,-1.525510e+00,1.377550e-01,-7.295370e-01,2.364730e-01,-2.739310e-02,3.937010e-01,6.898560e-01,-1.088570e-02,-2.038440e+00,-7.939830e-01,6.400380e-01,6.499440e-01,3.873300e-02,-8.105860e-01,-4.632820e-01,-2.327130e+00,3.298540e-02,1.836950e-02,7.214050e-01,1.398440e+00,-9.638800e-01,4.291940e-01,-1.446300e-01,-4.137370e-01,3.039080e-02,2.949460e-01,-8.970720e-03,-2.606770e+00,-2.140510e+00,-6.378860e+00,-3.539130e-01,2.950730e-01,-2.518280e+00,-9.781840e-01,2.594780e-01,5.705470e-01,7.954890e-01,-1.847570e+00,8.171540e-01,-3.126370e+00,-3.352320e+00,-1.290570e+00,-1.707770e-02,5.890670e-02,-4.085930e-01,2.851870e+00,-6.575990e+00,-1.261560e-02,-5.225770e-01,
1.258900e-02,1.368410e-01,2.763130e-01,-3.363950e-01,-8.794990e-01,6.929750e-03,1.366370e-01,-8.183690e-02,8.914230e-03,1.264800e-02,2.739250e-01,1.225640e-01,-5.440520e-01,3.831880e-03,-1.884030e-01,1.245290e-01,-2.989500e-01,-1.792340e-02,3.798460e-02,5.405960e-03,3.239100e-01,1.017640e-02,-1.260150e-01,-1.176620e-02,1.559050e-01,1.812470e-02,-1.087580e-02,-2.632820e-02,-6.483550e-01,-3.927510e-01,-2.080700e-01,-3.422950e-01,4.475180e-01,5.341230e-02,1.283050e-01,1.994340e-01,8.835570e-01,-3.906000e-01,2.164510e-01,1.301770e-01,3.627450e-01,-4.005070e-02,1.997280e-01,1.015830e-01,-2.959370e-02,-5.590640e-03,2.120460e-01,-6.032860e-03,1.622870e-02,7.507400e-01,
-3.514830e-01,4.662840e-01,1.211920e+00,6.114230e-01,-3.887710e-01,2.405430e-02,2.972920e+00,-2.356010e-01,4.079410e-02,-2.810980e-01,5.967460e-01,-8.961620e-01,8.069570e-01,4.220220e-02,-5.964870e-01,3.464650e-01,3.192130e-01,3.674830e-02,-3.321090e-02,-1.179510e-01,1.509220e-02,-5.165330e-01,1.772110e-02,8.519410e-01,2.541140e-01,3.898180e-02,1.040340e+00,1.560810e-02,2.553500e-01,-4.393710e-01,-4.078510e-01,5.701800e-01,5.386010e-01,-1.018920e+00,-2.134320e-02,5.048510e-01,1.283040e+00,-1.292640e+00,9.927760e-01,-1.366470e+00,-5.612180e-01,5.762910e-01,-4.159560e-02,6.070220e-03,3.386620e-03,1.120620e+00,5.262790e-01,1.578980e+00,4.313760e-02,2.136680e-01,
1.382820e-01,3.426640e-01,-4.875260e-01,-2.409100e-02,5.659740e-01,3.021810e-02,9.597890e-01,-1.441970e-01,-1.216440e-02,-1.229150e-01,-1.578240e-02,4.108120e-02,1.791550e-02,2.128800e-02,-8.456620e-02,8.559580e-01,4.880490e-01,5.283900e-03,-1.036710e-02,1.057220e-01,-8.196250e-01,1.583860e-01,-2.587630e-01,-9.901060e-02,-4.022090e-02,-3.577910e-02,4.671250e-01,3.045970e-02,7.957490e-01,1.381430e+00,-9.474360e-02,4.881330e-02,-4.513480e-01,3.624860e-01,-7.626800e-01,-2.171380e-01,-4.378110e-01,2.607450e-01,-2.579910e-03,1.253500e+00,1.285960e+00,3.696520e+00,1.651380e-01,-2.051800e+00,3.357060e-02,1.246400e-01,-3.751800e-01,-4.588260e-01,4.354480e-02,1.137880e+00,
-1.277750e+00,1.057600e+00,-9.471620e-01,1.074390e+00,1.237820e+00,3.387930e-02,1.794070e+00,2.161900e-01,4.800040e-03,5.391180e-01,-2.146490e-01,-7.699210e-02,5.689270e-01,2.836280e-02,-1.316080e+00,6.377290e-02,3.227960e-01,2.755230e-02,-4.753530e-02,-5.135960e-01,3.193240e-01,3.880430e-01,-4.893530e-01,-8.426600e-01,-1.773870e-01,-2.632900e-02,4.259640e-01,1.006720e-02,1.571920e+00,-1.648150e+00,2.759380e-01,-9.536960e-01,3.282980e-01,3.203090e-01,-2.690920e-01,-1.201670e-02,-6.224860e-01,-3.240290e-01,7.225330e-01,-6.027900e-02,1.788630e+00,6.193070e-01,-3.944340e-02,1.209740e-01,1.106900e-02,1.292980e+00,2.270540e-02,1.097200e+00,3.211810e-02,7.030670e-01,
1.809340e+00,6.681490e-01,-1.080800e+00,4.134630e-02,-2.069620e+00,-3.520560e-02,7.526540e-01,-9.749900e-02,-2.824740e-02,8.850850e-01,6.378330e-01,-3.373240e-01,5.401680e-02,-3.894870e-02,-1.584740e-01,-1.125390e-02,-2.326470e+00,3.844850e-02,9.359940e-03,3.177540e-01,-2.041830e+00,-5.195760e-03,-7.681980e-01,1.369960e-02,-2.275340e-01,-2.819790e-03,-1.355520e-01,5.764910e-02,6.617450e-01,-6.966110e-01,5.483970e-01,7.181410e-01,1.177690e+00,-2.543630e-01,-1.411790e-01,1.944950e-01,1.307570e+00,1.600960e-01,4.139890e-01,-1.518720e+00,1.837080e+00,6.524530e-01,-1.842290e-01,-8.225460e-01,-7.888860e-04,-7.975570e-01,-8.341040e-01,9.805930e-01,-2.803670e-02,2.560180e+00,
8.480390e-01,2.517810e-01,6.252190e-02,-3.024150e-01,-2.150780e-02,-2.350210e-03,3.826980e-01,-4.999800e-01,9.705210e-04,-6.566950e-01,6.454670e-01,2.840270e-01,1.221320e-01,6.212830e-03,-1.080100e-02,1.023910e+00,2.841490e-01,-3.791830e-02,-4.219960e-02,-6.798670e-02,-3.397560e-01,5.701120e-02,1.172960e-01,2.098790e-01,-3.618390e-01,-2.732160e-02,5.153690e-01,4.103190e-02,-4.045540e-01,-1.361340e-01,-5.851560e-01,-1.510670e-01,5.166570e-01,-3.135070e-01,2.144660e-02,7.474960e-01,3.099620e-01,3.982820e-01,-9.284120e-01,2.044260e-01,1.991290e-01,1.391120e-01,-3.866100e-02,5.704290e-01,-1.434250e-02,3.932480e-01,-5.381370e-01,1.467700e+00,-1.704180e-02,7.341770e-01,
-9.372820e-01,5.246810e-01,7.147850e-01,-4.553930e-01,8.120160e-01,-4.098570e-02,5.614700e-01,4.041830e-01,-1.061190e-02,-1.534430e-01,1.096780e+00,7.779280e-01,3.936320e-02,-2.337790e-03,1.064030e-01,4.142610e-01,8.443750e-01,-3.635620e-02,2.436270e-02,-2.291400e-01,-1.187260e+00,2.139690e-01,-3.957040e-01,1.690330e-02,2.415050e-01,3.178440e-02,-3.542370e-02,-1.710400e-02,5.876680e-01,8.788960e-01,5.654950e-01,5.269030e-01,7.863180e-01,-1.685680e-01,9.603570e-01,-6.247160e-02,7.487500e-01,-3.931500e-01,-4.015630e-01,-7.158110e-01,-9.524420e-02,1.355730e+00,7.123600e-01,-2.600200e-01,2.564300e-02,5.406080e-01,2.822400e-01,-4.795930e-01,-1.070810e-02,-5.694440e-01,
5.451040e-01,-2.392050e-01,1.540780e+00,7.192090e-02,3.170560e-01,-3.903740e-02,3.179210e-01,1.201550e-01,-4.656900e-02,-3.466260e-02,4.001490e-01,-3.349380e-01,-3.375330e-01,-1.189590e-02,9.367290e-02,4.725520e-01,3.488600e-02,-3.076090e-02,-4.105860e-02,4.023980e-01,-3.484250e-01,-3.006410e-01,-1.564190e-01,-2.312210e-01,8.702150e-02,-3.606120e-02,-1.724440e+00,-2.409690e-03,3.679970e-01,1.947940e-01,6.303900e-01,-1.517460e+00,1.897520e-01,4.606890e-01,-2.852420e-01,-2.590260e-01,4.433670e-01,1.103500e+00,-3.930840e-01,-2.287290e+00,1.634380e+00,-2.927520e-01,1.095010e-01,5.891040e-01,1.046750e-02,6.968540e-01,-9.079910e-02,-1.615400e+00,1.596350e-02,-1.042760e+00,
-1.101230e-01,4.105410e-01,-1.010880e-01,2.568950e-01,4.566620e-01,-3.679680e-02,1.704170e-01,-5.650650e-01,1.821810e-03,-9.173570e-01,4.293060e-01,-6.144110e-01,2.509600e-01,9.649300e-03,-1.937210e-01,4.822660e-01,-1.819620e-01,-1.920630e-02,4.400090e-03,-7.101340e-02,2.374370e-01,9.739870e-01,8.351100e-02,2.200990e-01,-1.386250e-01,-3.753380e-02,3.198690e-01,-2.939970e-02,1.183040e-01,1.197820e-01,-1.167870e-01,2.150670e-01,-1.182610e-01,1.006740e-01,-2.086140e-01,3.281970e-01,1.494290e-01,2.807340e-01,6.421880e-01,5.728030e-01,-6.446670e-01,9.903200e-01,1.065720e-01,-6.194120e-02,-2.852050e-02,-8.674940e-01,7.088030e-02,-1.673910e-02,2.850660e-02,8.377540e-01,
-8.060010e-01,-7.514040e-02,-1.006980e+00,-6.944640e-02,-2.241750e+00,-1.367470e-02,2.440410e+00,-2.331620e-01,-1.163200e-03,-1.884030e-01,-6.837480e-01,2.496300e-01,-6.395310e-01,3.123450e-02,-3.535240e-01,-1.097620e+00,1.115570e+00,-4.164550e-02,-2.728410e-02,1.074750e+00,-1.434560e+00,6.859610e-01,-1.969980e-01,-8.525470e-01,4.988450e-01,3.807410e-03,-6.122360e-01,-9.101770e-03,-3.636480e+00,-1.314020e+00,-3.044040e+00,-7.619880e-01,-3.642440e-01,-3.439060e-01,-1.249540e+00,-6.402980e-01,-1.121380e+00,-1.999110e-01,-4.014480e-01,-5.048840e-01,-2.305180e+00,-1.356940e+00,-6.109440e-01,4.743480e-01,-3.741350e-03,-6.791240e-01,7.074220e-01,9.985560e-02,2.893420e-02,-1.368200e+00,
3.220810e-01,-2.808120e-01,-4.580810e-01,-9.037270e-02,-3.388290e+00,-1.445150e-02,1.455320e+00,1.891870e-01,6.279750e-03,-1.132610e-01,1.753210e-01,7.752780e-02,4.139820e-01,3.916060e-03,-2.838670e-01,-4.501600e+00,7.363050e-01,3.976760e-02,8.027550e-03,2.379840e-01,-1.804880e+00,-5.622870e-01,1.247080e-02,-4.333360e-01,-6.842960e-03,4.288060e-02,1.113040e+00,-4.032320e-02,2.422750e-01,-6.529830e-01,7.534620e-03,5.847160e-02,1.227840e-01,-1.268260e-01,-3.496940e-02,1.409670e-01,3.604010e-01,-1.296890e+00,-3.574700e-01,8.990570e-01,7.317080e-01,-1.065590e+00,-2.295170e-01,-8.829210e-02,-2.077240e-02,-1.826530e-01,3.359370e-02,1.226840e+00,-3.289290e-02,-2.620500e+00,
1.573660e-01,2.085630e-01,4.022290e-01,1.974810e-01,-7.576230e-01,-7.378440e-03,-8.184070e-02,-1.916070e-01,-3.441540e-02,1.574410e-01,-4.851140e-02,-2.025340e-01,-3.983830e-01,-1.980880e-02,2.393800e-01,-2.510660e-01,2.596200e-01,-1.778150e-03,3.768770e-02,-1.116780e-01,-2.617100e-02,-9.890560e-02,-1.186830e-01,-9.219700e-02,9.013000e-02,2.223690e-02,2.841190e-01,2.754440e-02,2.204980e-01,6.564830e-01,3.487100e-01,2.819060e-01,1.410530e-01,-3.648130e-01,2.400700e-01,-9.064420e-02,3.167570e-02,6.883910e-01,6.540440e-01,-4.578150e-01,7.602150e-01,-9.001850e-01,-7.883570e-01,2.589210e-01,-4.986770e-02,-3.487770e-01,-1.486420e-01,4.626530e-01,9.368350e-03,8.139100e-01,
-1.726410e-01,-5.017280e-01,-1.537220e-01,5.869880e-01,8.054890e-02,8.323440e-03,4.316660e+00,1.025920e+00,-3.367490e-03,-2.461840e-01,-6.828600e-01,-3.585750e-01,-1.027730e-01,3.154510e-02,-9.385280e-01,-6.362080e-01,-1.312980e+00,3.444010e-02,2.393200e-02,6.669540e-01,-1.157950e+00,5.626400e-01,-9.467930e-01,-2.554290e-01,-1.836000e-01,-2.513970e-02,1.168820e+00,-4.857390e-03,6.687970e-01,1.136590e-01,1.041730e+00,8.069900e-01,7.657520e-01,1.792210e+00,3.092460e-01,9.949650e-01,-1.030480e+00,-7.121850e-01,6.661490e-01,-1.974950e+00,1.946950e+00,5.599750e-01,-6.352130e-01,8.560140e-01,-3.749660e-02,1.812260e-01,-1.167640e+00,1.091770e+00,1.819360e-02,-5.500270e-01,
4.098180e-01,-1.492770e+00,2.957900e-01,2.935420e-01,3.222750e-02,-3.300000e-02,-2.683020e-01,-1.861690e-01,-4.149420e-02,1.225860e+00,4.865040e-01,1.295210e-01,5.682670e-01,-1.604820e-02,-1.887390e-01,1.363460e+00,-1.894630e+00,-3.561770e-02,3.040020e-02,2.883210e-01,-3.648100e-01,2.722870e-01,3.598540e-01,-3.602180e-02,8.816210e-01,-1.999740e-03,7.060680e-01,4.613530e-02,-2.447550e+00,-3.258640e-01,-6.559910e-01,1.979580e-01,-3.078390e-01,8.171080e-01,-6.000950e-01,-2.927680e-01,-4.722030e-01,-3.544810e-02,-6.899570e-01,-2.390620e+00,2.164180e-01,-9.076750e+00,-8.842630e-01,6.146480e-01,1.081600e-02,-2.299560e-01,-1.830790e+00,-2.871690e+00,4.375570e-03,2.025960e+00,
-3.065670e-01,-1.123620e+00,7.340570e-01,2.079430e-01,4.465660e-01,-6.352670e-03,8.736680e-01,3.944650e-01,-4.459370e-02,5.658050e-01,7.417660e-01,-2.214740e+00,-2.134280e-01,1.069510e-02,-4.684780e-01,3.805980e-01,2.243400e-01,-1.971490e-02,1.666100e-03,2.461060e-01,1.792570e+00,7.497650e-01,3.091670e-01,-5.381810e-02,2.440100e-01,-8.388470e-03,-6.901540e-02,-1.972490e-02,9.775080e-01,-6.031640e-02,5.834040e-01,-1.637220e+00,3.462570e-01,6.332230e-01,4.624630e-01,4.627260e-01,-2.856420e-01,-5.176070e-02,-7.449040e-01,-1.353570e+00,8.080730e-01,-7.718550e-01,-9.371870e-02,7.469640e-02,-9.719470e-03,4.899790e-01,-6.289850e-01,1.705520e-01,-6.648320e-03,7.491900e-01,
-1.745890e-01,-3.500480e-01,-3.367210e-01,-1.584120e-01,-4.376320e-01,-2.394320e-02,-6.237930e-01,-6.527120e-01,1.153730e-02,-3.630690e-01,-2.858280e-01,2.998690e-01,2.215980e-01,-1.160940e-02,3.282950e-01,-6.423190e-01,-4.907790e-01,5.680630e-03,2.840210e-02,3.839490e-01,-1.963660e+00,6.058020e-01,2.022820e-01,1.045360e-01,1.152100e+00,8.704540e-03,-1.181510e-01,-2.200400e-04,-6.806320e-01,3.952840e-03,1.184990e+00,-3.372430e+00,8.230780e-02,9.513150e-01,-6.225630e-01,-2.517600e-01,1.182900e-01,8.912000e-02,-3.019440e-01,-3.075130e+00,2.118070e-01,2.934120e+00,-5.013070e-01,8.444900e-01,-1.240180e-02,-1.122440e-01,-3.186550e-01,-2.017760e-01,5.282190e-03,-1.761430e-01,
-7.900430e-01,-5.705730e-01,-5.098710e-01,-1.296440e-01,1.949590e-01,3.588740e-02,7.633190e-01,-2.888430e-01,-2.847800e-02,3.233190e-02,6.225640e-02,-4.087650e-02,1.814700e-01,-2.323940e-02,1.098780e-01,-3.924280e-01,-1.084740e+00,-6.265300e-06,-1.312260e-02,-5.174910e-03,7.001470e-01,7.493100e-01,-1.879760e-01,-4.371470e-01,-4.898930e-01,3.094310e-02,4.556330e-01,1.908380e-02,-3.738850e-01,1.655840e-01,-4.308780e-01,-9.188260e-01,-1.099160e-01,-3.970220e-01,4.477750e-01,1.974210e-01,9.767360e-01,4.243320e-02,-3.217030e-01,6.655940e-02,1.903850e-01,1.314830e+00,6.626370e-02,4.916910e-01,1.987740e-02,-2.197380e-01,3.668290e-01,1.095820e-01,-3.326900e-02,8.428180e-01,
-4.119160e-02,2.843010e-01,-3.806510e-02,-3.473620e-01,1.079560e-02,2.447450e-02,-5.043500e-01,7.910720e-02,6.154870e-03,-4.634870e-01,3.141030e-01,-1.507800e-01,1.002140e-01,3.729260e-02,3.648570e-05,-6.239200e-02,8.209270e-01,3.145130e-03,-2.756450e-02,-5.141170e-02,-1.552600e-01,5.560700e-03,-3.486930e-02,-1.912350e-01,-3.808800e-01,-8.349120e-03,-2.724280e-02,-2.581970e-02,-2.090190e-01,3.157920e-01,-2.949420e-01,3.382320e-01,-4.915110e-02,-1.542570e-01,6.656730e-02,4.510940e-02,-1.218030e-01,2.520300e-01,1.283910e-01,-9.892740e-01,-2.138120e-01,1.043890e+00,5.075060e-02,-1.133260e-02,6.124140e-02,5.482020e-02,-2.712970e-01,-1.694160e-01,1.566610e-02,9.567890e-02,
-9.327510e-01,-5.466900e-01,7.935610e-01,7.444460e-03,-2.760450e+00,-2.584250e-03,3.211230e-01,4.548140e-01,2.468970e-03,2.383770e-01,-1.002840e-01,-3.658570e-02,-5.037420e-01,1.806810e-02,2.481220e-01,3.706130e-01,-1.048120e+00,-3.410870e-02,3.922850e-02,-7.055690e-01,-4.296780e-01,-4.301160e-01,1.237230e-01,-2.490990e-01,4.534600e-01,-9.967440e-03,-6.662780e-01,5.627490e-02,-2.957250e-01,-8.783430e-01,-7.535170e-01,3.849050e-01,3.048080e-01,-3.421810e-01,7.357170e-01,1.019740e+00,2.152650e-01,-3.846310e-01,1.371010e-02,-3.277760e+00,5.674280e-03,-1.660880e+00,6.385700e-02,-2.913490e-02,3.976530e-02,3.812730e-01,-2.642230e-01,6.127470e-02,3.187550e-02,1.422260e-03,
3.333150e-01,2.240500e-01,-7.960990e-02,2.808620e-01,3.795470e-02,4.018290e-02,-8.996520e-01,3.375580e-01,4.995310e-03,5.104700e-01,5.711370e-01,-2.041530e+00,-5.342590e-01,-3.009940e-02,2.521510e-01,-2.564660e-01,-6.200610e-01,-1.416140e-02,-3.223350e-02,6.763270e-02,-3.131970e-01,2.165400e-01,-2.106510e-01,1.271470e-01,1.174550e-01,-3.145880e-02,-5.677170e-02,-2.423830e-02,-3.172970e-01,-1.102020e-01,1.690170e-01,1.982140e+00,-3.084610e-01,7.227840e-02,-3.702370e-01,-4.515720e-01,3.947920e-01,4.004070e-02,-4.900320e-01,9.637610e-01,-1.421760e-01,3.289240e-01,5.756150e-01,1.678930e-01,2.079410e-02,-8.198470e-03,-1.456730e-01,-1.117870e+00,1.386920e-02,1.162290e-01,
1.736070e+00,1.037960e+00,4.109090e-01,8.299230e-01,-4.431880e-01,2.036690e-02,1.354890e+00,1.390080e-01,-4.111860e-02,1.566670e-01,4.123650e-01,-3.246460e+00,-3.585500e-01,4.229710e-04,8.381670e-01,9.950930e-01,8.999550e-01,4.310330e-04,5.410040e-03,-1.295260e-02,8.783510e-02,-1.024750e+00,1.000610e-01,1.157030e+00,4.150810e-01,-4.982310e-02,1.398100e+00,-3.570180e-02,-5.710880e-01,3.594990e-01,1.558240e+00,2.721460e-01,-1.063400e+00,-7.663480e-02,7.789380e-01,2.054350e-01,-2.044550e-01,9.543670e-02,1.376520e+00,-7.511890e-01,-6.574290e-01,1.317850e+00,-1.089170e+00,4.637060e-01,-1.975830e-02,2.240620e-02,2.010780e-01,9.887070e-01,-4.375550e-02,-5.378820e-01,
-9.152440e-01,-4.483420e-01,-1.134290e+00,-3.349510e-01,-4.073620e-01,-2.828160e-02,3.679750e-01,7.811110e-01,-2.369650e-03,7.821540e-01,2.035920e-01,1.836150e-01,9.989170e-01,-1.513850e-02,6.897910e-01,-8.885660e-01,-7.600510e-01,2.858870e-02,-1.117500e-02,3.684670e-01,-1.597260e+00,-1.244940e+00,-7.959470e-01,2.194960e-01,4.890400e-01,3.471970e-02,2.588160e+00,-1.328150e-02,-5.320720e-01,5.854750e-01,-5.225310e-01,-7.558800e-01,-7.453360e-01,1.770400e-01,1.230510e+00,-9.909810e-01,9.703360e-01,-2.238600e-01,-9.105820e-01,5.450180e-01,-5.484550e-01,-4.984090e+00,-3.486700e-02,6.546730e-01,4.681200e-02,9.023260e-01,-1.570840e+00,4.816780e-02,-3.352150e-03,-1.391130e-01,
2.875140e-01,-4.117950e-01,-3.844560e-01,-3.287270e-02,6.700190e-01,5.403790e-02,-8.707570e-01,-1.585210e-01,3.054920e-02,-1.509980e-01,6.339670e-01,2.711730e-01,-3.894510e-01,-2.209600e-02,-6.023450e-02,-1.526990e-01,-6.550370e-01,-9.715440e-03,9.135830e-03,-6.328230e-02,1.929250e-01,3.678810e-01,2.604010e-01,-3.313560e-01,-4.522930e-02,2.925350e-02,-2.302670e-01,3.397880e-02,-2.772580e-01,5.471830e-01,4.407230e-01,-6.883600e-01,2.880960e-01,6.913700e-01,2.528290e-01,1.027610e-01,2.559490e-01,-1.281230e-01,-1.822270e-01,-5.611980e-02,-1.375650e+00,-7.864230e-01,-9.692060e-02,2.655700e-01,1.975550e-04,4.163130e-02,2.456360e-01,-4.716980e-01,4.674180e-03,1.572610e+00,
1.533740e+00,-3.933880e-02,-8.582030e-01,-7.432990e-01,3.098890e-01,-3.866450e-02,-1.214220e+00,2.409980e-01,2.850200e-02,8.324610e-01,1.276550e+00,6.099930e-01,3.031680e-01,8.065630e-03,4.780120e-01,-6.359830e-01,-2.632100e-01,-2.315880e-02,-4.659850e-02,4.928290e-01,-3.526300e-01,-8.363930e-01,-3.738510e-01,2.906060e-01,1.414560e-01,2.548870e-02,1.769030e+00,1.007580e-02,7.486980e-01,5.696500e-01,8.112380e-01,-8.453890e-01,1.824160e-01,6.022120e-01,6.684520e-01,4.808160e-01,5.528440e-01,4.384550e-01,-4.199570e-01,-1.681100e-01,6.594000e-01,-5.330530e-01,-1.137220e-01,5.680420e-01,-5.900950e-02,4.713150e-01,5.621160e-04,-2.437070e-01,-3.155110e-02,7.496020e-01,
1.677190e+00,-4.413910e-01,3.887550e-01,-3.867990e-01,-3.859090e-01,-2.636000e-02,-1.766900e+00,4.790010e-01,1.889350e-02,4.167140e-01,-1.394090e-02,9.040530e-02,-7.185190e-02,4.932790e-02,3.122750e-01,3.845620e-01,-7.676730e-01,3.214640e-02,-7.094530e-03,-6.719810e-01,-3.162010e+00,-2.246050e+00,5.602570e-01,7.428530e-01,-7.231300e-01,1.769360e-02,3.786730e-01,4.800180e-02,-2.987050e-01,2.306010e-01,2.019910e+00,-1.758440e+00,-4.737310e-01,-7.094570e-01,9.658550e-02,1.664230e+00,1.235870e+00,7.470550e-01,-8.423580e-01,-1.899860e+00,-1.895430e+00,-4.616710e+00,4.797410e-01,-3.060670e-01,-4.123390e-03,-4.990810e-02,-8.656790e-01,-8.462030e-01,-1.359110e-02,8.514620e-01,
-6.686600e-01,6.261240e-02,-6.359700e-03,-3.768660e-01,3.106570e-01,-3.481410e-02,-2.040390e+00,2.777700e-01,4.042470e-02,7.388470e-02,-5.601340e-01,-2.444970e-01,-7.221550e-02,-3.623550e-02,3.927710e-01,-5.770970e-02,5.494270e-02,4.431830e-02,2.999610e-02,7.514570e-02,-1.022490e+00,-7.377630e-01,3.991050e-01,2.957660e-01,-3.321060e-01,-5.277880e-02,1.498020e+00,-1.534750e-02,2.207680e-01,-1.122760e-01,-5.437950e-01,4.135870e-01,8.243380e-02,-6.442980e-01,1.496550e-01,-7.193920e-01,3.215220e-01,-9.838800e-03,-7.798600e-01,2.034930e+00,-7.249230e-01,-1.999460e+00,2.721110e-01,3.521060e-01,-4.647670e-02,-1.761460e-01,-1.973200e-01,-3.298160e+00,9.095220e-03,2.899040e-01,
-4.553330e-01,-4.998390e-01,-1.200420e+00,6.113470e-01,6.267610e-01,7.938720e-03,3.548650e-01,1.779250e-01,4.590880e-03,-2.623300e-03,2.603620e-01,-1.084220e+00,-6.177300e-01,-7.065190e-03,2.348080e-01,-3.185620e-01,2.515010e-01,-2.941390e-02,-3.135090e-02,3.406940e-01,9.407660e-01,-1.422640e-01,3.042600e-01,-4.998360e-02,-2.268490e-01,2.232350e-02,-3.308840e-01,-7.590190e-03,-3.946980e-01,4.308290e-01,2.070860e-01,-7.200050e-01,-5.796950e-01,1.887420e-01,3.858260e-01,4.277510e-01,-2.996120e-01,-4.227700e-01,-4.988760e-01,-5.541570e-01,1.167700e-01,-4.983040e-01,1.815030e-01,1.388750e-01,-3.853140e-02,3.544700e-01,-9.856570e-02,-1.039680e-01,1.621460e-02,-1.888790e+00,
-7.546360e-01,-2.531220e-01,2.294980e-01,1.307540e-01,-5.327750e-01,4.598270e-02,-3.252950e-01,3.270240e-01,1.001300e-02,5.849760e-02,2.809160e-01,-2.256330e-02,4.662500e-02,-3.112250e-02,-8.798710e-01,-2.278000e-01,-5.404580e-01,-1.135220e-02,-4.289900e-03,9.684460e-02,1.815710e-01,-2.406310e-02,1.225730e-01,9.781920e-01,2.275160e-01,4.167240e-02,1.269130e-01,4.023310e-04,-4.804500e-01,-2.425320e+00,-2.362140e-01,6.719780e-01,-5.704740e-01,2.377420e-01,5.552390e-01,-2.973560e-01,2.325220e-02,-5.938400e-02,-7.157790e-01,9.966000e-01,-7.997020e-01,1.719010e+00,2.306310e-01,-4.615710e-02,3.494720e-03,7.959430e-01,3.004430e-01,9.653580e-01,3.962180e-02,1.450550e+00,
1.940290e-01,-3.455540e-01,9.798610e-01,-1.183270e-01,6.460870e-01,-1.810300e-02,1.332250e+00,5.427330e-02,-3.043900e-02,3.082450e-01,-2.070560e-01,2.317990e-01,1.015000e+00,-1.519000e-02,-3.626590e-01,-1.865140e-01,-3.878130e-02,3.113860e-02,-1.202090e-02,-7.921120e-02,6.756920e-02,-1.074870e-01,1.110400e-01,-6.674140e-02,6.465440e-02,-1.977500e-02,-7.495820e-01,5.874850e-02,-1.089200e-01,-8.335370e-01,-3.470800e-01,-1.400700e+00,-2.738100e-01,1.579910e-01,-1.982230e-01,1.219640e-01,2.043100e-02,-4.056970e-01,8.236970e-01,-1.493910e+00,3.238620e-01,-8.233140e-01,-7.631170e-02,-5.580430e-01,3.160140e-02,3.007370e-01,-1.489300e-02,-2.089860e-01,-2.814200e-03,-2.405360e-01,
7.730320e-01,-2.019340e-01,-2.882500e-01,-2.293240e+00,1.373780e+00,-1.689030e-02,-5.030890e-02,-6.709210e-02,-2.514210e-02,-7.931130e-02,1.252280e+00,2.767510e-01,4.572960e-01,-2.390710e-03,7.133830e-02,-4.376900e-01,-5.356210e-01,-3.970800e-02,-1.518880e-02,2.459870e-01,-2.884600e-01,1.689160e-01,1.917200e-01,2.230960e-01,6.261960e-02,4.539590e-02,1.799000e-01,1.308930e-03,1.244960e-01,-5.020630e-01,8.144040e-02,7.119920e-01,-1.528100e-01,-8.130680e-02,-1.722430e-01,-1.075400e-01,-4.350310e-01,-9.599290e-01,4.491090e-01,-1.138890e+00,-1.127190e-01,1.821480e+00,-3.437320e-01,5.431500e-02,5.748860e-02,-8.842390e-02,2.868770e-01,-8.495340e-02,-4.773270e-02,-1.337580e-01,
2.429250e+00,4.776620e-01,-1.327420e-01,-1.477230e+00,8.380190e-01,3.908800e-02,-1.815070e-01,-2.178800e-01,-4.596570e-02,-1.208380e+00,-3.764370e-01,-7.049350e-01,3.224770e-01,-6.039120e-03,3.968510e-01,2.013140e-01,-1.096810e-01,-2.016610e-02,2.221670e-02,1.615130e-01,5.372240e-01,-5.756130e-01,-5.571750e-02,1.448420e-01,9.818820e-02,8.251550e-03,4.899430e-01,4.657950e-02,1.213100e-01,2.968370e-01,-3.339340e-01,-1.255830e+00,-7.481080e-01,3.249300e-01,2.823850e-01,-2.469240e-01,-1.445300e-01,-8.435360e-02,1.142850e+00,1.883050e+00,2.099630e-01,1.346590e-01,1.950540e-01,3.773600e-01,3.870940e-02,-4.083200e-02,2.501160e-01,-2.589680e+00,4.846400e-02,-4.378420e-01,
9.509250e-01,4.930420e-05,7.101140e-01,8.951260e-01,6.217640e-01,-3.303010e-02,2.104080e+00,-9.656800e-02,6.625610e-03,-7.517040e-01,-7.584470e-01,-4.123690e-01,5.389830e-01,-7.145880e-03,-7.504270e-01,1.064300e+00,1.613790e-01,-2.014320e-02,-4.759890e-02,-4.300620e-02,1.158460e+00,8.440270e-02,4.327680e-01,4.943040e-01,2.204790e-01,4.690290e-02,-9.286130e-01,4.620460e-02,8.906840e-01,7.864040e-01,1.872800e-01,3.503770e-01,4.786630e-01,1.187650e+00,5.855990e-02,3.539560e-01,6.599400e-01,-1.866390e-01,1.220890e-01,1.486590e+00,1.191330e+00,1.627350e+00,-9.692540e-02,-1.708920e-01,3.301480e-02,1.154760e+00,-8.256000e-01,2.344430e+00,-2.620700e-02,2.547760e-01,
4.601850e-01,-1.038370e-01,-2.906930e-01,1.138210e-01,-2.610970e+00,3.685280e-03,-1.071590e+00,-1.000260e-01,1.384500e-02,1.151540e-01,-1.221480e-01,5.856240e-02,7.501000e-01,3.829050e-02,9.730680e-02,-4.662250e-01,6.402810e-01,2.558290e-02,-5.134870e-03,3.254390e-01,-1.447930e+00,-2.757660e-01,-9.166300e-02,-3.160650e-01,-5.205660e-02,-2.375870e-02,-1.890090e-01,1.083020e-02,1.085120e+00,-8.104950e-01,-4.468910e-01,3.722270e-01,6.486880e-01,-1.950020e-01,4.383930e-01,-2.018650e-01,-6.606900e-01,-2.710770e-01,-9.389260e-01,2.182320e+00,2.673010e-01,-2.568290e+00,4.051460e-01,2.068430e-01,3.950950e-02,7.558550e-02,1.560800e-01,6.515830e-01,-3.603180e-02,4.710940e-01,
2.935440e-01,-1.812710e-01,-2.465680e-01,5.640370e-01,-1.354480e-01,-3.809310e-02,8.429380e-01,-1.216200e-01,2.597650e-02,-3.925830e-01,4.379660e-01,2.672180e-01,5.569830e-01,2.083180e-02,-3.819000e-01,2.163100e-01,-9.434730e-02,2.373270e-02,1.118080e-02,-1.921350e-01,5.720840e-01,-1.945050e-01,1.762190e-01,-1.868190e-01,2.296220e-01,-6.450230e-03,2.648090e-01,1.739350e-02,-1.091410e+00,1.030940e+00,2.301240e-01,1.376010e-01,-4.903080e-01,7.059960e-01,-8.600960e-02,4.833150e-01,7.537880e-01,7.656960e-01,-6.242640e-02,-4.864760e+00,9.067660e-01,-2.727970e+00,-5.834840e-01,-3.961260e-01,1.266620e-02,2.320120e-01,2.876990e-02,-6.118340e-01,4.956800e-02,-4.324350e-01,
-2.532090e-01,-8.766830e-01,-8.160010e-01,2.164370e-01,1.766520e-01,-3.245810e-02,2.282120e+00,3.083020e-01,7.788420e-03,5.075220e-02,-1.107510e+00,-1.781760e-02,6.630690e-01,1.833580e-02,3.414760e-01,1.257330e-02,-1.297900e+00,2.895010e-02,-3.095260e-03,1.837880e-01,-3.498790e-01,-2.739050e-01,-4.877920e-01,1.353110e-02,2.418890e-01,2.995230e-02,6.185490e-01,1.773670e-04,-6.764100e-01,-9.485660e-01,1.597960e-01,2.553130e-01,9.089500e-02,2.907320e-01,1.017770e-01,4.445880e-01,-2.828650e-01,-1.207140e+00,-1.241480e+00,1.432830e+00,-1.305120e+00,2.394710e-01,1.181680e-01,-2.966300e-01,-2.630170e-03,4.700670e-01,-2.305050e-01,-8.656050e-01,4.079030e-02,6.913700e-01,
5.554690e-03,4.214240e-04,9.359340e-02,2.345420e-01,-1.251420e+00,2.701350e-02,-8.958980e-01,-1.866250e-01,1.663830e-02,5.340540e-02,-1.832690e-01,3.702610e-02,-1.096780e-01,1.123630e-03,4.150850e-03,2.295080e-01,-2.968640e-01,-3.330030e-02,4.262150e-03,2.139880e-02,-7.479730e-01,-9.938710e-02,5.433580e-01,3.012020e-01,-2.527110e-02,2.308760e-04,5.648570e-01,-1.776500e-02,-4.629340e-01,2.185360e-01,5.455160e-02,5.691140e-01,2.708710e-01,-5.839340e-01,-4.931900e-01,9.701140e-01,-3.394320e-01,7.316700e-01,-1.967240e-01,1.294490e+00,-1.744880e+00,-1.928210e+00,2.126730e-01,2.613400e-01,5.757210e-02,-3.467810e-03,-6.098490e-01,-8.467020e-01,3.754880e-02,7.709150e-01,
8.631930e-01,2.172160e-01,1.704070e-01,2.538790e-01,7.755160e-01,-4.036610e-02,9.127810e-01,-2.078230e-01,5.158270e-02,-2.359180e-01,5.808760e-01,-5.717100e-01,6.314250e-01,-3.325580e-02,-3.342570e-01,-3.282820e-01,-2.424460e-01,-2.258210e-02,-6.629640e-03,-1.304610e-01,1.129060e+00,5.032720e-01,1.147260e-01,1.426800e-01,-7.885160e-02,7.812520e-03,-9.625580e-03,-3.390620e-02,8.903690e-02,4.616310e-02,1.681990e-01,-2.520060e-03,-8.776760e-01,1.387690e-01,-9.099530e-02,-2.855900e-02,-4.350290e-01,-4.103150e-01,4.618790e-01,-2.378470e+00,-2.342350e-01,-1.385200e-01,-6.995210e-01,-3.624650e-01,-1.064750e-02,-3.717580e-01,-4.615230e-02,5.901240e-01,-2.862480e-02,2.149960e-01,
5.978150e-01,-1.748710e+00,2.021590e-01,-4.882080e-01,-1.023400e+00,2.979490e-02,-3.747590e-01,3.130660e-01,4.076340e-02,1.137050e-02,2.365710e-01,-2.839200e-02,-2.270640e-01,-3.236880e-02,-3.630760e-01,2.396880e-01,-3.607070e+00,2.864900e-02,-2.025640e-03,2.092080e-02,-1.028680e+00,1.311230e-01,-4.542860e-01,1.557180e-01,-1.102670e+00,7.790870e-03,-5.869550e-02,3.657610e-02,3.314200e-01,4.860940e-01,2.546690e-01,-1.351160e-01,-1.254820e-02,-3.264590e-02,-2.604010e-01,-1.598890e-01,2.489520e-01,6.947140e-01,2.880430e-01,-2.720690e+00,-4.188360e-01,6.599340e-01,-7.766510e-01,3.478730e-01,-1.964590e-02,2.289290e-01,-3.821010e-01,5.037310e-01,5.292890e-02,-4.174930e+00,
2.775780e-03,-7.003790e-01,3.901290e-01,-3.569460e-02,3.630530e-01,-2.992060e-02,9.545700e-01,1.041230e-01,-3.299010e-02,1.036960e-01,1.978030e+00,3.300940e-01,-3.808400e-01,3.063470e-02,-2.244330e-01,-1.103770e-01,3.225710e-01,-4.123600e-02,1.305130e-03,-1.077740e-01,-1.236520e-01,-3.939720e-01,6.286300e-02,-3.392330e-01,3.055340e-01,5.924790e-03,-4.012200e-01,-3.157880e-02,3.992580e-01,-9.997370e-01,-4.442990e-01,1.217780e+00,-3.647370e-01,2.680460e-01,5.399460e-02,-9.334650e-01,2.335100e-01,-7.854260e-01,-9.579880e-01,-3.431150e+00,-4.466710e-01,-4.457460e-01,1.909180e-01,-2.628250e-02,-3.493720e-03,-3.486160e-01,1.086260e-01,-2.615910e-01,3.890110e-02,-5.912130e-03,
5.352690e-01,-5.774570e-03,-8.875570e-02,8.101220e-01,1.275260e+00,-4.739540e-02,4.018840e+00,-1.312540e-01,-1.494550e-02,1.586850e-01,-1.878020e-01,1.094170e-01,3.211330e-01,-1.797150e-02,-4.514420e-02,7.097410e-01,9.466810e-01,4.245200e-02,3.902280e-02,-1.045020e+00,7.595020e-01,1.026770e-02,-4.139970e-02,-4.243610e-01,-2.108010e-02,-4.644900e-02,5.278850e-01,-2.311680e-02,-1.164210e+00,6.242300e-01,7.658320e-01,1.765360e-01,9.320920e-02,-4.979410e-01,-3.542460e-01,-4.760150e-01,-1.968140e-01,6.215470e-01,1.074640e+00,1.077290e+00,1.510680e+00,1.268130e+00,1.296120e-01,-3.772710e-01,-5.236320e-02,-4.523710e-01,2.774220e-01,6.608490e-01,-4.169400e-02,3.849430e-01,
4.156590e-01,-1.909650e+00,7.500260e-01,4.088400e-01,1.294990e+00,-3.593420e-02,-1.284880e+00,4.930980e-01,2.364100e-03,4.303570e-01,1.225480e-01,-1.703400e-01,2.434540e-01,-2.990160e-02,-2.561380e-01,-1.011420e-01,-4.756590e-01,-3.314400e-02,-3.151110e-02,1.679110e-01,-2.122740e+00,-2.020930e-01,8.741070e-02,-1.282700e-01,9.820050e-02,3.160230e-02,9.698160e-01,6.212060e-03,5.424620e-01,-1.187400e-01,6.745640e-01,-1.528230e-01,-7.383260e-01,1.171940e-01,5.866720e-02,5.372030e-02,-6.764040e-01,-4.325420e-01,-7.201430e-01,-1.413020e-01,1.520530e+00,-1.514180e+00,3.410300e-01,-1.786170e-01,-1.019790e-02,6.802820e-02,4.283770e-01,-6.390090e-01,-4.488360e-03,-4.095870e-01,
7.179570e-01,
7.399850e-01,
4.506130e-01,
-2.848940e-01,
-6.379830e-01,
-1.903520e-02,
-7.305260e-01,
-1.349210e-01,
-1.040680e+00,
-4.974840e-01,
-1.867170e+00,
-4.317110e-01,
-1.249050e+00,
-5.212570e-01,
-3.888150e-01,
-2.301690e-01,
2.886290e-01,
1.158020e+00,
6.262140e-01,
-4.353680e-01,
-9.715310e-02,
-1.733440e+00,
-3.242370e-02,
6.112830e-01,
2.965260e-02,
8.063590e-01,
8.918680e-01,
-3.527330e-01,
7.719350e-01,
6.677470e-02,
-8.103790e-02,
-3.970110e-01,
-5.575200e-01,
-2.848850e-03,
1.659760e-01,
-2.895830e-01,
-3.464080e-01,
-1.745490e-01,
-7.719000e-01,
3.522780e-01,
-7.041890e-01,
-7.372210e-01,
-3.719260e-02,
9.029430e-01,
-2.570430e-01,
1.346280e+00,
-7.558220e-02,
-4.270920e-02,
-1.513470e+00,
5.854200e-01,
-1.112080e+00,3.498990e-01,4.016680e-02,-1.582760e+00,-1.488920e+00,-1.004840e-02,-1.196130e+00,-1.911630e+00,4.317560e-01,-2.615050e-01,-2.009530e+00,4.889960e-01,6.356310e-01,-6.908130e-01,2.676580e-01,7.637070e-01,5.994370e-01,8.408270e-01,-1.752120e+00,-4.486920e+00,-8.423210e-02,-1.719920e+00,-1.370980e+00,-6.998400e-01,-7.763250e-01,2.315740e-01,1.201190e+00,1.738170e+00,8.873220e-01,-1.858740e-01,5.933280e-01,9.050990e-01,-4.733380e-01,-3.558750e-01,-1.039010e+00,1.553380e-02,-2.642670e-01,7.671250e-01,-2.955930e+00,1.073930e+00,-2.550190e-01,-7.432100e-01,-2.103830e+00,-1.404650e+00,-6.094330e-01,-1.621970e+00,5.005040e+00,-7.435960e-01,1.410720e+00,1.007050e-01,
2.710500e-01,2.291660e-01,1.283110e-01,-1.102030e-01,1.543410e-01,-4.859460e-03,-2.491270e-01,4.084570e-01,-1.122810e-01,-2.561170e-01,-7.023470e-01,2.158640e-01,-1.883340e-01,4.703240e-01,-1.363890e-01,-5.473120e-02,-3.971360e-02,-9.702550e-02,2.908160e-01,-1.071510e+00,-4.743160e-01,-3.006630e-01,-2.545120e-02,-4.055810e-02,-1.064340e-01,-1.577930e-01,5.277190e-01,-1.212560e-01,8.728470e-02,5.077280e-02,6.596320e-02,-1.531910e-01,2.482160e-01,-1.041280e-01,7.060880e-01,-3.303090e-01,-3.410380e-01,-4.794570e-01,7.862200e-01,4.708110e-02,-1.972470e-01,-1.095920e+00,7.243530e-01,5.395650e-01,6.104440e-01,9.321810e-01,3.580300e-01,-4.307010e-01,2.732150e-01,2.268320e-01,
-2.447860e-01,-8.206250e-02,1.786220e-01,2.010500e-02,-1.473790e-01,8.199630e-03,2.212350e-02,-4.214750e-01,-9.450640e-02,1.296720e-01,-1.129660e-01,6.846680e-02,1.906540e-01,5.286010e-01,3.425200e-01,-2.864790e-01,7.125100e-02,-1.996320e-01,-6.244270e-02,3.247980e-01,-7.236220e-01,-2.069820e-01,-4.809360e-01,1.095850e-01,-2.824320e-01,2.061600e-01,5.228610e-01,-9.658400e-01,5.318180e-01,1.020890e-01,-1.860700e-01,1.413920e-01,-7.502910e-02,-5.068640e-01,1.114590e-01,-2.283890e-01,-1.560080e-02,7.556830e-02,4.375290e-01,-4.939380e-01,6.505720e-02,-2.033460e-01,1.701290e-01,-2.870560e-01,-2.618630e-02,1.445290e+00,7.235320e-01,-4.128540e-01,-5.714640e-01,1.601700e-01,
-1.019650e-01,-3.944290e-01,2.928640e-01,-2.725430e-01,-3.550840e-01,3.978650e-02,-5.264830e-01,-2.704330e-02,1.689670e-01,1.432760e+00,6.591790e-01,1.557950e+00,6.202780e-01,8.276650e-01,9.124330e-01,-2.904980e-01,-3.341990e-02,4.051680e-01,-4.160440e-01,-7.043120e-02,1.932200e-01,-4.950170e-01,-5.529330e-01,7.302830e-01,-3.807940e-01,5.347570e-01,5.934480e-01,-5.286730e-02,-6.085530e-01,-2.261850e-01,-3.255580e-01,9.118940e-02,-2.240080e-01,-3.513360e-01,4.736270e-02,1.333660e+00,-6.111730e-02,5.365910e-01,1.594150e-01,-3.556340e-01,5.388600e-01,1.522700e+00,-1.852270e-01,5.823060e-01,-7.650910e-01,4.341510e-01,-2.254660e+00,5.322190e-01,-7.658180e-01,1.895760e-01,
-2.297950e-01,2.119150e-01,4.466730e-01,-4.360360e+00,4.018990e-01,1.428830e-02,-5.821740e-01,-1.273450e-01,5.653370e-01,8.358610e-01,-1.627940e+00,-2.069710e+00,8.864960e-01,-4.980100e-01,9.269390e-02,-1.595750e-01,-7.803220e-01,-1.859490e+00,1.462370e+00,1.904440e+00,1.885650e+00,-2.270250e+00,-6.507470e-02,7.121910e-01,8.140940e-01,-1.671790e+00,1.789050e+00,1.544100e+00,-3.309320e-01,7.945200e-01,4.996560e-03,-5.986010e-01,2.435600e-01,4.468090e-01,5.696440e-01,-1.800200e+00,5.487490e-01,2.225540e-01,6.863610e-01,-3.907470e-02,1.166780e+00,7.480660e-01,-8.271570e-01,-1.107350e+00,9.999720e-01,-1.782080e-01,2.877130e+00,-1.087210e+00,2.510290e+00,-1.130430e-01,
-3.422720e-02,2.023370e-01,1.796050e-01,-2.913160e-01,-2.290450e-01,-1.481120e-04,7.615030e-01,1.995080e-01,-1.721650e-01,6.966360e-01,3.218390e-01,-5.761460e-01,-3.417110e-01,1.872940e-01,-5.111770e-01,-4.909020e-01,2.701060e-01,-5.663720e-02,2.356840e-01,6.114330e-01,-2.516100e-01,-1.262430e-01,-6.118460e-01,-2.358430e-01,5.424840e-01,-3.176480e-02,-1.760400e+00,1.195740e+00,2.609990e-01,1.121060e-02,-1.055840e-01,2.648090e-01,2.465310e-01,-4.737850e-01,-5.446820e-01,7.717820e-01,-3.717400e-02,6.574350e-01,-6.110350e-01,1.003860e+00,4.919490e-02,2.532790e-01,1.042660e+00,1.138980e-01,4.378150e-02,7.058210e-01,-1.693020e+00,-7.534470e-03,-1.363400e-01,-5.424250e-02,
-3.944220e-01,1.386120e-01,-2.235470e-01,-4.782950e-02,-6.908500e-01,3.916740e-02,2.192960e-01,-6.200640e-01,1.419890e-01,-4.895490e-01,-9.613270e-02,-1.413240e-01,-1.695340e-01,7.679790e-01,-4.229540e-01,1.681930e-01,2.936610e-01,2.649210e-01,-3.845610e-01,8.526800e-01,-7.149820e-01,-3.436750e-01,3.957010e-01,1.649020e-01,1.196460e+00,-1.957660e-01,6.944020e-02,2.880610e-01,1.607870e-01,4.937570e-02,-1.357740e-01,-2.734680e-01,-5.626570e-02,-2.025610e-01,2.289990e-02,-6.497930e-01,8.439190e-01,7.924340e-01,4.313290e-01,1.296630e+00,-5.664540e-01,-4.226090e-01,8.589810e-02,-5.041250e-01,1.819020e-01,-6.109260e-01,-8.385710e-01,-3.599500e-01,3.131410e-01,5.498380e-01,
-2.104070e-01,-6.543800e-01,2.807660e-03,-1.263050e+00,6.974080e-01,-1.845710e-02,-1.535480e-01,-3.257350e-01,-6.155750e-02,1.251930e+00,-2.278810e+00,-3.738540e-01,-2.570720e-01,-3.976930e-01,-2.533140e-01,1.193270e-01,7.178170e-02,5.279260e-01,-1.904640e-01,1.837180e+00,-5.755150e-01,7.933260e-02,6.742890e-01,-1.176400e-01,9.873060e-02,-1.003650e-01,-1.418690e-01,-4.567110e-01,-8.658240e-01,4.245920e-02,-1.434920e-01,-1.053390e+00,-1.320010e-01,-7.477780e-01,7.540490e-01,-2.916630e-01,-1.655020e-01,9.626010e-01,-6.199160e-01,-1.132790e+00,-6.211220e-01,1.830130e-01,1.215400e-01,1.316480e-01,-5.818240e-01,-9.336850e-02,-1.144730e+00,1.785400e-01,-2.237760e+00,-1.102030e+00,
-1.205760e+00,1.661730e+00,-2.032950e+00,1.668230e-01,-2.906300e+00,1.070340e-02,-3.000430e+00,1.735410e-01,1.567650e+00,-2.296020e+00,-1.772860e+00,-1.703440e+00,-1.035300e+00,-7.581530e-01,2.222360e+00,1.550820e-01,6.937410e-01,-8.218820e-01,-1.873440e+00,-8.485270e+00,-3.364860e-01,-2.302130e+00,-5.155210e-01,-2.774860e-01,-5.437000e-01,1.442480e+00,-2.135780e+00,-2.405060e+00,-4.101840e+00,-2.066100e-01,1.137570e+00,-1.938840e+00,8.838010e-01,1.298500e+00,-3.774490e+00,1.122940e+00,-2.167750e+00,-1.999870e+00,-1.553380e+00,-3.296610e+00,-4.246000e-01,-2.514640e+00,-2.109910e+00,-1.038510e+00,7.287340e-01,8.405560e-02,-1.155560e+00,-1.678350e+00,-2.613750e+00,-9.478320e-01,
5.919710e-01,4.888300e-01,1.190670e-01,-4.592570e-01,1.461590e-01,4.580490e-02,1.161570e+00,9.151560e-01,7.052090e-01,-2.664310e-01,7.495780e-01,7.830750e-01,2.278800e-01,5.106120e-02,-3.797380e-01,1.470790e+00,3.965950e-01,-1.418260e-01,1.793010e+00,1.157880e+00,5.900100e-01,6.814160e-01,1.022920e+00,8.004040e-01,1.000150e+00,-1.024140e-01,5.799570e-01,1.209630e-01,5.521640e-02,-1.330410e-01,-2.407910e-01,-7.216650e-01,5.344670e-01,1.414570e+00,2.295040e-01,-8.546560e-02,3.422620e-01,5.641420e-01,3.729970e-01,1.991000e+00,2.213940e-01,2.090220e-01,7.249430e-01,-2.996720e-01,-8.504160e-01,7.052590e-01,-3.051110e-01,1.711190e+00,1.439530e+00,4.153620e-01,
3.003530e-01,-2.740400e-02,1.604540e-01,-9.578410e-01,-5.483220e-01,-9.398680e-03,-1.051540e+00,1.110020e-01,3.163100e-01,6.057730e-01,3.858610e-01,7.648360e-02,-5.657010e-02,2.139140e-01,-6.018540e-01,-2.331270e-02,-4.162030e-01,2.823180e-01,3.694530e-01,-8.239970e-01,9.021900e-01,-1.286400e+00,1.006260e-01,7.125350e-01,8.131330e-02,1.984250e-01,-8.952870e-02,-5.376370e-01,-4.602550e-01,-3.980810e-01,-2.990900e-01,-2.008190e-01,4.389350e-01,1.966850e-03,-6.044910e-01,3.769690e-01,3.006630e-01,-6.147550e-01,-9.257570e-03,-6.694320e-01,-3.591340e-01,2.504300e-02,-5.933120e-01,2.885920e-01,-6.955810e-01,-8.152040e-01,-1.023180e+00,2.120160e-01,1.307450e-01,8.062360e-01,
-1.450510e-01,2.006050e-01,1.224220e-01,2.235930e-01,7.327390e-01,-3.138940e-02,7.870650e-01,-3.215810e-02,1.017220e-01,6.389730e-01,-3.712170e-01,1.440150e-01,-4.532270e-01,1.807630e-01,-5.903870e-01,-6.528240e-02,3.407620e-01,1.558480e-01,5.466330e-02,1.965310e-01,-3.500340e-03,-2.533110e-01,1.324000e-01,-5.834660e-01,-2.066030e-01,-3.807890e-01,8.328420e-01,-8.196420e-01,-5.737860e-01,5.159820e-01,-2.298840e-01,3.869570e-01,-2.815710e-01,-4.546740e-01,-1.462310e-01,9.033310e-01,9.466120e-02,4.284130e-01,-5.567820e-02,-3.147640e+00,2.094420e-01,7.382180e-01,3.125620e-01,8.954330e-01,1.784360e-01,1.268560e-01,-5.452500e+00,4.261690e-01,1.797390e+00,-6.078380e-01,
7.715560e-01,9.002030e-01,5.601680e-01,5.251560e-01,1.225260e+00,-3.134410e-02,3.928820e-01,1.551260e+00,3.100690e-01,8.511660e-01,-1.508150e-02,-2.351280e+00,-2.730690e-01,2.924780e-03,-3.075960e-01,-6.241810e-01,-1.455980e-01,-3.910820e-02,-1.213710e+00,8.437460e-01,2.700400e-01,1.535230e+00,-1.000770e-01,-2.587690e-01,1.144440e+00,2.062260e-01,1.113880e+00,-2.470910e+00,-5.436180e-01,8.430130e-01,-1.837370e-01,-7.875630e-01,-2.277470e-01,-5.210000e-01,2.383470e+00,-6.364680e-01,7.561160e-01,-9.453290e-01,-5.803390e-01,1.183580e+00,7.391980e-01,2.493860e+00,-4.452980e-01,7.698760e-01,-4.708100e-02,-9.403810e-01,-5.882820e-01,1.081360e+00,2.152840e-01,5.579020e-01,
1.072320e+00,5.555830e-01,-1.101450e+00,1.795880e+00,-7.838780e-01,-2.349780e-02,2.201290e+00,6.766340e-01,7.424340e-02,1.980970e+00,-1.273260e-01,-4.098060e-01,-9.993540e-01,5.744120e-01,-2.905710e-01,-4.091490e-01,2.204470e-01,4.409780e-01,9.723600e-01,-4.880970e-02,7.411970e-01,-1.430090e+00,2.476530e-01,2.004240e+00,-1.044660e+00,-4.166920e-01,5.343360e-01,6.608250e-01,3.815730e+00,7.987780e-01,3.367960e-01,2.120260e-01,-4.801190e-01,9.795090e-01,5.992540e-01,-6.884410e-01,-2.179380e-01,-1.383990e+00,5.530970e-01,-8.061050e-01,1.382220e-02,1.513900e+00,-4.527850e-02,4.321200e-01,5.957350e-01,1.029280e+00,-2.727220e+00,4.166350e-01,3.665990e-01,8.261630e-01,
2.229200e-01,-1.381620e-01,-1.376280e+00,1.924430e-02,1.562140e+00,-2.548970e-02,5.001860e-03,-9.625930e-01,-1.700220e-01,6.469930e-01,-1.047460e-01,-2.147190e+00,-1.426530e+00,-8.298510e-01,-7.338510e-01,1.243980e-01,-6.873910e-01,-1.825950e+00,5.558870e-02,2.020910e+00,3.072480e-02,-2.055120e+00,-4.270480e-01,2.400780e+00,3.028450e-01,-4.245660e-01,9.556620e-01,8.641680e-01,1.347810e+00,-2.712910e-01,-3.183670e-01,-3.712160e-01,2.505650e-01,4.083940e-01,8.762970e-01,-9.384810e-01,-8.505860e-01,2.712060e-01,-6.383890e-01,7.513160e-01,-1.093800e+00,-3.436930e-01,-3.008070e-02,9.105710e-01,-1.765610e-01,-2.662590e+00,1.112290e+00,-1.089770e-01,-3.501030e-01,6.039020e-02,
-1.108470e-01,2.581790e-01,6.405700e-01,-1.486890e+00,6.505840e-02,-1.914330e-02,8.698270e-01,2.183950e-01,-9.168020e-01,-1.463000e+00,-2.085390e+00,-4.958840e-01,-1.870130e-01,-2.295810e-01,2.375180e-02,-5.728370e-01,7.735650e-01,-7.319280e-01,-2.371120e-01,-1.536400e+00,-4.939530e-01,-2.057710e+00,-3.627060e-01,-1.771880e-01,-2.446720e-01,6.520340e-01,-1.389770e+00,-1.046870e+00,1.056250e-01,-9.753910e-01,-1.027550e+00,-1.516290e-01,5.472730e-01,-1.380200e-01,-5.436880e-01,1.075230e+00,-4.141680e-01,-4.553290e-02,-2.982390e+00,-1.543650e+00,-8.223710e-02,-1.571320e-01,-4.551230e-01,-8.446750e-01,6.291480e-01,-7.179020e-01,-1.624830e+00,-8.225960e-01,-2.510180e-01,3.590390e-04,
-8.745540e-01,3.632300e-01,-3.114170e-03,5.350740e-01,4.585770e-01,-4.955920e-02,-5.430880e-01,-3.010680e-01,-4.178130e+00,-6.610000e-01,-8.971460e-01,1.929970e+00,-2.456730e-01,-2.793010e-01,1.624110e-01,3.857570e-01,-3.871060e-01,-7.534270e-01,-6.973730e-01,-3.310410e+00,4.149770e-01,-1.780830e+00,1.146660e-01,-7.442820e-01,5.629940e-01,8.320220e-01,3.128450e-03,-1.335100e+00,6.845350e-01,-3.487270e-01,4.079310e-01,-1.120310e+00,3.746420e-01,1.210230e+00,-3.624780e+00,-8.303630e-01,-6.139560e+00,-1.826220e+00,-2.692900e-01,-2.770690e+00,-3.260390e-01,-1.878450e+00,-2.337460e+00,-7.103500e-01,-1.712270e+00,1.647560e+00,-3.713440e+00,2.774930e-01,1.486330e+00,-2.098140e-01,
1.218090e+00,1.414260e-01,-8.295940e-01,-1.070930e-01,1.193220e+00,4.097750e-03,-9.874900e-02,1.736830e+00,2.398950e-01,-2.272700e+00,-2.084630e-01,-5.026790e-01,-2.372980e+00,1.499110e+00,-1.266890e+00,2.567200e-01,5.237630e-01,-1.304960e+00,1.437270e-01,-1.000660e+00,-8.422630e-02,-2.078480e+00,5.504160e-05,8.762210e-02,1.038550e+00,-1.204940e+00,-2.092690e+00,8.785970e-01,-2.511620e+00,-6.003920e-01,-6.030670e-01,-1.070650e+00,3.496300e-01,1.060160e+00,1.114970e+00,2.728240e+00,1.219950e+00,-1.821640e+00,4.658660e-01,-2.701620e+00,-9.591790e-01,6.186240e-01,1.137890e+00,-1.361520e+00,2.965220e-01,-1.470570e+00,-2.367340e+00,-9.188870e-01,-2.690060e+00,1.969810e-01,
2.417970e-02,1.139140e-01,-3.183610e-01,1.021980e-03,-3.256180e-02,-2.370550e-02,1.790110e-01,1.092640e-01,9.470920e-02,-3.561260e-01,5.112270e-01,-2.910670e-01,1.275050e-01,7.496390e-02,-1.306960e-01,2.128600e-02,1.784790e-02,-5.157300e-02,4.065130e-01,3.859460e-02,1.623930e-01,-3.528850e-01,-1.416870e-01,-1.746440e-01,-2.131480e-01,-2.218510e-01,5.255370e-01,2.004210e-01,-1.602200e+00,-1.618160e-01,9.592720e-02,-1.790060e-01,1.248520e-01,-1.128160e-01,-3.327700e-01,4.965540e-01,4.025620e-01,-1.237960e-02,9.250080e-02,-9.624000e-01,2.741960e-01,2.791390e-01,3.013940e-01,1.934450e-01,-3.231630e-01,3.255390e-02,-2.654380e-01,-2.626620e-01,3.672570e-01,-2.274220e-01,
-8.275940e-01,-2.472140e+00,4.072970e-01,-7.745960e-01,-2.696590e-01,3.114130e-02,8.456020e-01,1.416470e+00,-1.789750e+00,1.212730e+00,-4.571150e-01,-5.302090e-01,1.593890e+00,7.239590e-01,7.581800e-02,1.819270e-02,-3.539560e-01,-1.592080e+00,5.844330e-01,1.110260e+00,-4.312530e-01,1.094610e+00,5.283360e-01,4.487090e-01,-1.555860e-01,1.580080e-02,1.735240e+00,-1.158300e+00,1.015640e+00,-9.839660e-02,5.329920e-02,1.444340e+00,-3.681310e-01,-7.726140e-02,-9.602300e-01,-4.071390e-02,3.637640e-01,3.325590e-01,-5.680980e-01,-1.077170e+00,-8.550510e-01,-1.079870e-01,-1.027500e+00,7.607110e-01,-4.222250e-02,-3.162100e-01,9.452310e-01,-3.320610e-01,9.970280e-01,-1.354540e-01,
1.104470e-02,-4.051560e-02,1.787910e-02,-2.723870e-02,-3.826730e-02,2.859610e-02,-4.347930e-02,-2.127550e-02,-1.051420e-02,4.001670e-02,-3.454630e-02,1.538830e-02,-8.908460e-03,3.597020e-02,-2.465510e-02,-6.124150e-02,2.253720e-03,-4.420160e-02,-1.016490e-02,2.623170e-02,3.881530e-02,-2.442730e-02,-4.474740e-02,3.444910e-02,1.583080e-02,9.618230e-03,-6.745060e-03,-5.919370e-02,2.144880e-02,-5.379200e-02,3.766390e-02,-3.775130e-02,-1.838400e-02,1.538440e-02,-3.226260e-02,-4.630040e-02,-1.653650e-03,-4.473830e-02,-5.089330e-02,-2.890780e-02,2.686160e-02,1.488640e-02,-4.024920e-02,3.304210e-03,-4.021980e-02,-2.016810e-02,2.957570e-02,-4.611040e-02,-2.701920e-02,-3.392150e-02,
1.749670e-01,4.248040e-02,8.911340e-02,4.681640e-02,1.574920e-01,3.512100e-02,3.578250e-01,-1.570720e-01,-2.108850e-01,-2.195120e-02,-4.875000e-01,5.308450e-01,1.295790e-01,-3.274800e-01,-4.312030e-02,-4.161180e-02,1.330520e-01,-9.435340e-01,-3.094480e-01,5.872210e-01,-3.991340e-01,3.997210e-01,1.573730e-01,4.049040e-01,-2.843080e-02,-6.622900e-01,4.330390e-01,-7.100420e-01,-8.933930e+00,2.530580e-02,-1.562800e-01,1.157700e+00,-2.120290e-02,2.278500e-01,-6.081630e-01,1.462940e+00,-1.219150e-02,-2.457130e-01,5.163350e-01,-2.859530e-01,-2.052490e-01,-1.003160e+00,1.288820e-01,3.724660e-01,1.684780e-01,-3.622710e-01,2.527940e-01,9.203640e-02,2.036870e-02,2.224210e-01,
-4.256420e-01,-5.569090e-02,-8.739410e-02,8.599970e-02,3.309820e-01,3.142270e-02,2.737330e-01,7.198910e-01,1.039860e-02,-2.089730e+00,1.182440e+00,-3.491870e-01,-3.188630e-01,-6.973070e-02,2.556270e-01,-1.431460e-01,-3.165470e-01,1.042330e+00,-7.955360e-01,1.887400e+00,-2.999680e-01,3.596610e-01,-2.799650e-01,-2.913470e-01,6.126720e-01,7.148230e-02,-1.677380e-01,5.527070e-01,4.367780e-01,7.979800e-02,2.171270e-01,9.437380e-01,-6.274230e-01,4.367010e-01,-5.178510e-01,-3.813550e-02,3.740530e-01,1.047110e+00,8.152570e-01,6.747800e-01,2.391760e-01,3.687980e-01,6.575310e-01,-6.287490e-01,-1.235540e-01,-1.139650e+00,-2.810030e-01,-2.632030e-02,-3.168790e-01,-1.392670e-01,
-4.983910e-01,-2.720220e-01,-1.388800e+00,2.122450e-01,7.302290e-02,-4.762460e-03,-1.493860e+00,-5.396820e-01,2.723520e-01,2.276010e-01,8.251320e-01,3.506950e-01,2.781120e-02,7.486260e-02,2.018730e-02,-1.249900e-01,-3.390000e-01,-3.976750e-01,6.976140e-01,-7.207520e-01,5.245080e-01,-3.718170e-01,2.465680e-01,-4.125480e-01,5.519610e-01,2.958650e-01,-2.556650e-01,3.430280e-01,7.445910e-01,-3.852690e-02,4.201860e-01,-1.945500e-01,-2.709820e-01,2.742720e-01,-5.748010e-01,-1.503400e-01,-3.933000e-01,3.420630e-01,2.862900e-01,1.147910e+00,5.610020e-01,-3.352460e-01,1.089000e-01,-3.870600e-01,9.727360e-01,-3.599460e-01,1.678590e-02,2.939800e-01,-3.320930e-01,-3.438690e-01,
2.134480e-01,-5.488590e-02,4.481320e-01,7.096860e-01,-5.808440e-01,7.812850e-03,2.937460e-01,-4.761320e-01,-1.611480e-02,-1.090800e+00,-1.197280e+00,2.215420e-01,1.820070e-01,-3.677610e-01,-1.214590e-01,-7.877820e-02,-2.399030e-01,8.446640e-02,-4.260770e-01,1.428910e+00,-4.341270e-01,7.243020e-01,1.231380e-01,-4.683260e-01,-6.245580e-02,2.695940e-01,1.171510e+00,-6.521260e-02,6.912530e-02,2.048410e-01,-3.309180e-01,-1.944470e-01,5.372860e-01,-2.908050e-02,-9.183400e-02,8.638610e-01,2.836410e-01,4.909110e-01,-1.487850e-01,-8.625560e-01,-7.411640e-01,-4.575220e-01,-1.660330e-01,-2.501120e-02,3.566290e-01,-7.611390e-02,-7.680860e-01,2.705010e-01,4.417160e-01,-2.213250e-01,
-1.722170e-02,-7.447890e-01,1.482610e-01,1.160060e-01,1.448610e-02,-1.523860e-02,3.263590e-02,-2.677590e-01,-2.395150e-01,-1.312510e+00,4.737790e-01,-2.495760e+00,-1.724870e+00,-2.178680e+00,1.060280e+00,-3.010500e-01,-1.981350e-01,5.428270e-01,2.511780e-01,-3.184740e+00,6.668370e-01,-3.171000e+00,-1.246880e+00,8.103760e-01,-8.352870e-01,7.122490e-01,1.610360e-01,8.506290e-01,4.861080e-01,-5.644010e-01,-5.080370e-01,-1.409940e+00,8.877890e-01,1.942150e-01,-6.650490e-01,1.841620e-01,-7.783050e-01,-2.465760e+00,-1.634560e-01,-2.615480e-02,-1.307750e+00,1.081760e+00,-1.998800e+00,2.288640e-01,-6.158200e-02,-1.638350e+00,-2.988180e+00,-9.956250e-01,6.760110e-01,5.633870e-01,
4.256260e-01,-1.536980e-01,-4.050550e-01,3.814240e-01,-2.758900e-02,-3.431130e-02,4.603230e-01,-6.514110e-01,4.678440e-02,-3.246790e-01,-1.930390e+00,-5.351840e-01,1.638480e-01,-2.351140e-01,1.875770e-01,-5.176900e-02,-2.777930e-01,4.665560e-02,-3.480830e-01,6.229080e-01,3.473230e-01,-4.715650e-01,-1.627000e-01,7.692650e-01,1.176120e-01,2.925120e-01,-5.679050e-01,-2.408530e-01,-2.548650e-01,-3.367460e-01,-8.592830e-02,-4.199820e-01,9.618140e-02,3.446110e-01,-1.039940e+00,-1.198050e-02,-4.136550e-02,7.664790e-02,9.934170e-01,1.151840e+00,8.228220e-02,-1.945280e-01,-3.340450e-01,1.380940e-01,2.653290e-01,-6.123500e-01,1.758320e-01,-7.416740e-01,3.179030e-01,-9.801390e-01,
-6.247570e-03,-5.400270e-02,2.981310e-01,3.296260e-01,-6.527750e-01,1.060740e-02,4.956720e-01,4.271350e-01,-1.100530e-01,-8.821170e-01,4.136980e-01,-6.070080e-01,1.509260e+00,5.538480e-01,6.006750e-02,-4.706900e-01,-6.467470e-02,2.673960e-01,-3.141160e-02,4.991410e-01,-7.148970e-03,3.442400e-01,-3.859140e-01,2.602420e-01,-3.304020e-01,5.195590e-01,2.049660e+00,-1.186010e+00,-4.068940e-01,1.278580e-01,-3.580510e-01,-4.040070e-01,-5.333280e-01,-1.590450e-02,2.913330e-02,-4.940170e-01,4.411200e-01,-6.058290e-01,9.965790e-01,-8.627110e-01,5.091260e-01,-3.744950e-01,2.468790e-01,-2.972020e-01,2.493280e-01,1.408140e+00,2.016840e-01,7.374850e-01,-4.778370e-01,2.096260e-01,
6.193120e-01,-9.906830e-01,-5.906760e-01,4.608570e-01,2.438390e-01,-2.771420e-02,-2.855300e-01,2.603470e-01,-7.158640e-01,-1.257210e+00,-1.428780e+00,-2.162360e-01,-1.353780e-01,1.206440e-01,-3.343750e-01,2.771900e-01,2.372370e-01,-4.175770e-01,5.888330e-01,2.031940e+00,1.101200e+00,8.234620e-01,5.360900e-01,-7.180050e-01,1.032150e+00,-5.342620e-01,-2.096250e+00,-3.923430e-01,-4.821540e-01,6.217380e-02,-6.531940e-01,-3.942360e-01,-2.027200e-01,3.906530e-01,8.258960e-01,8.200140e-01,8.686470e-01,-5.948240e-01,1.935900e-01,-7.860640e-01,-1.195950e+00,-6.105230e-01,-2.667070e-03,4.814000e-01,-1.388440e-01,1.451240e-01,-1.522570e+00,3.497440e-01,8.130570e-01,9.806220e-02,
4.798370e-01,8.608580e-01,-1.196700e+00,-5.056040e-01,-1.078190e+00,-2.557590e-02,6.871750e-01,-7.488280e+00,8.669650e-02,2.258600e-01,8.621040e-01,3.532810e-01,4.135320e-01,-1.775120e-01,4.871880e-01,2.449730e-01,-3.239780e-01,-4.341420e-01,8.026730e-01,-2.813330e+00,-5.930130e-01,-1.352370e+00,1.870910e-01,-1.935960e-01,1.087370e-01,-8.610550e-01,-2.500850e-01,2.593250e-02,1.734640e-01,-3.963190e-01,-5.959500e-01,9.587830e-02,-1.460630e-01,-4.380770e-02,1.044690e+00,1.167540e+00,-4.791020e-02,-1.043340e-02,3.139150e-01,1.149250e+00,7.255680e-01,2.521110e+00,9.126680e-01,-8.066130e+00,1.471990e+00,5.492080e-01,-2.162250e+00,1.017020e-01,3.092570e-01,-8.113520e-01,
-2.713440e-01,4.709310e-01,2.816690e-01,2.017490e+00,-9.254680e-01,-4.445390e-02,1.479090e+00,-3.614270e-01,4.252360e-01,4.466150e-02,-1.383600e+01,5.372680e-01,-3.072620e+00,-1.131930e+00,4.100720e-01,-3.614350e-02,3.307500e-01,-6.822800e-01,3.062780e-01,1.455140e+00,-1.968250e-01,6.183910e-01,-4.934830e-01,1.334610e+00,-1.384580e-01,-4.560110e-01,-7.537210e+00,-3.530110e+00,1.741410e+00,-7.780080e-01,1.104160e+00,2.064240e-01,-4.103500e-01,4.169200e-01,6.330470e-01,4.067850e+00,6.420090e-01,6.972470e-01,1.586680e+00,3.617750e-01,-6.677250e-01,-8.536300e-01,1.079310e+00,-5.213880e-01,2.996300e-01,-8.173620e+00,-9.594660e-01,4.838840e-01,3.523290e-01,-1.942400e+00,
3.978990e-01,5.654650e-01,-9.970190e-03,-5.804440e-01,-5.620240e-02,-2.607050e-02,6.754300e-01,4.820300e-01,-2.661200e-01,1.098970e+00,9.648050e-01,-3.127360e-01,1.627220e-01,-8.613810e-02,1.236840e-01,-2.990540e-01,-3.286420e-01,-3.148160e-01,-4.068890e-01,6.215350e-01,1.495190e-01,-1.541220e-01,-2.009210e-01,-6.326060e-01,6.770160e-01,9.351440e-02,-7.626310e-02,1.126780e-01,-4.915420e-01,-3.074820e-01,-6.310200e-01,-4.121680e-01,3.496260e-01,2.023060e-01,6.297720e-01,1.366410e+00,-4.311960e-01,1.286610e+00,-2.091510e+00,1.833240e+00,1.144290e-02,5.069640e-01,1.015410e+00,1.181900e+00,7.279630e-01,1.767700e+00,-1.716340e+00,-2.420370e-01,-4.258370e-01,-1.262260e-01,
2.044570e-01,-2.332480e-01,1.828550e-01,4.258640e-01,-6.023200e-01,-1.080230e-02,2.035890e-01,-1.313300e+00,-1.343220e-01,-6.038010e-01,5.702390e-01,-4.983910e-01,-2.829020e-01,3.168000e-01,6.486540e-01,-3.451240e-01,6.442240e-01,4.654470e-01,-1.075750e-01,-1.593500e-01,2.625090e-01,4.041960e-01,-1.184870e-01,-4.199920e-01,2.627940e-02,6.758520e-01,-6.253000e-01,6.091330e-02,5.985070e-02,-5.869560e-04,3.562100e-02,-1.207200e-02,-2.094760e-01,-1.961020e-02,-1.884370e-02,4.000710e-01,8.200690e-01,2.623540e-01,-4.066950e-01,1.427130e-01,6.193020e-02,-9.828510e-01,-1.599380e-01,2.497570e-01,-4.432690e-01,-3.201770e-01,1.811560e+00,-3.939620e-02,3.317840e-01,-8.293600e-02,
-1.574040e+00,6.370970e-02,9.214550e-01,-1.881810e+00,-3.911540e+00,2.918530e-02,-3.728120e+00,-5.985860e+00,-1.003990e+00,-2.626520e+00,-2.390510e+00,1.158220e-01,-2.012420e+00,-4.483710e-01,-4.134540e-01,1.213860e+00,-2.853460e-01,-2.027780e+00,4.717840e-01,-5.996690e-01,-2.789140e-01,1.391810e+00,-7.673620e+00,2.292760e-03,-2.055570e+00,2.199510e-02,-2.694460e-01,-1.013120e+00,6.870980e-01,-1.250500e+00,1.937600e-01,-2.127900e+00,5.038920e-02,-9.158020e-01,-9.681520e-01,2.925420e+00,8.419470e-01,2.114470e-02,-1.517500e-01,-1.905940e+00,-1.913450e+00,-9.738010e-01,-1.615590e+00,-4.936280e+00,-2.363310e+00,-8.048400e-01,1.582400e+00,1.260990e+00,-1.121230e+01,6.926030e-01,
-2.236380e-01,-2.214030e-02,-3.707200e-01,6.162580e-01,-4.169950e-01,-2.510060e-02,8.391250e-02,-1.750250e-01,4.349190e-02,1.007360e+00,1.142530e+00,3.991920e-01,-3.928060e-01,3.968310e-01,-3.696830e-01,1.287770e-01,2.621300e-01,-6.926490e-01,6.244430e-02,-3.990240e-01,2.126700e-01,2.195170e-01,4.041350e-01,-2.295080e-01,1.899370e-01,5.533730e-02,2.634830e-01,-2.773180e-02,-4.493770e-01,-3.620590e-02,2.745260e-01,-8.910810e-01,-4.133650e-01,1.735180e-01,-9.944740e-01,2.299780e-01,4.482750e-01,-5.159540e-02,8.193770e-02,1.059560e+00,2.210670e-01,1.377370e+00,-3.468480e-01,-1.761800e-01,-1.164080e+00,5.491900e-01,7.099970e-01,8.942250e-02,6.719230e-01,3.041910e-01,
1.148420e-02,1.339060e-01,-4.985340e-02,-1.331390e-01,1.113590e-01,3.837610e-02,1.351170e+00,-1.571890e-01,1.254060e-01,-6.980170e-01,3.101910e-01,1.270500e-01,-7.799070e-01,-1.646870e-04,-1.682560e-03,5.879990e-01,3.986530e-02,5.451170e-02,-3.646910e-01,-8.721640e-01,-3.017340e-01,-3.217400e-01,2.338940e-01,-4.462400e-01,2.164610e-01,-3.570960e-01,-7.529620e-01,1.267790e-01,-5.887200e-01,1.413080e-01,5.284740e-01,2.279580e-01,6.065540e-01,-1.671830e-01,-3.649260e-01,-1.271150e+00,-2.519860e-01,-1.620490e-02,8.074890e-01,-1.524500e+00,-1.408600e-01,-6.328150e-01,-5.160740e-01,7.403340e-02,-8.252400e-02,4.037820e-01,-3.534200e-01,1.833860e-01,1.297520e+00,-6.276370e-02,
-2.152010e-01,3.283330e-01,3.835420e-01,7.027830e-01,6.040110e-01,4.749950e-02,1.562670e-02,-2.113690e+00,7.924570e-01,3.826440e-01,-3.641480e-02,-8.825610e-01,-4.016560e-02,1.643540e-02,-8.383010e-01,9.530460e-02,-7.074890e-01,1.737910e-01,4.378230e-01,3.089670e-02,-1.476810e+00,4.571810e-01,-2.786680e-01,-6.372680e-01,4.107770e-01,-8.467270e-01,5.015500e-01,-1.428570e-01,3.159920e-01,-1.712930e-01,-5.609650e-01,-1.853580e+00,7.384620e-01,-6.127730e-01,2.225190e-01,-4.177670e-01,8.174080e-01,-2.002770e-01,-1.574260e+00,-5.569350e-01,1.110500e-01,2.756350e-01,3.902620e-01,3.743620e-01,-1.761750e+00,-8.541050e-02,6.949860e-01,5.458160e-01,5.440610e-03,1.151350e+00,
1.416520e-02,-2.383530e-01,3.682070e-01,-3.928370e-02,-3.445770e-01,-2.419750e-02,-2.668750e+00,1.678000e+00,-8.002320e-01,-6.924820e-01,1.316830e+00,7.025080e-01,-5.464760e-01,-2.412180e+00,-7.048060e-01,2.925690e-03,-6.974210e-01,-5.205200e-01,3.767290e-01,1.462970e+00,-1.606490e-01,-6.455520e-01,5.682460e-01,8.036290e-01,2.182380e-01,1.024050e+00,-4.092450e-01,8.623180e-01,-2.326270e-01,-3.335920e-01,1.023490e-01,-1.880650e-01,-9.582730e-02,-4.220080e-01,-9.309200e-01,1.575380e+00,1.525700e-01,2.840020e-01,1.025090e+00,-1.449550e-01,1.161540e+00,-3.222970e-01,-4.788860e-01,4.665610e-01,1.850160e-01,-7.114130e-01,1.009610e+00,9.018240e-01,1.190950e+00,-4.904360e-02,
-2.584610e-02,-7.305500e-02,-1.155360e-01,1.576100e-01,-1.007140e-01,-3.333380e-02,-4.035400e-01,-2.693380e-01,-5.691140e-03,1.026090e+00,-3.470210e-01,4.996790e-01,1.659580e-02,-2.100120e-01,2.366560e-01,3.819650e-01,8.912390e-02,1.331880e-02,1.587650e-01,-2.679710e-01,-5.009470e-02,-1.991190e-02,-9.893540e-02,-7.607860e-02,9.599700e-02,4.179340e-02,-2.643030e-01,-1.975140e-01,2.348230e-03,-7.586840e-03,7.940070e-02,1.317590e-01,-9.323060e-02,-2.218090e-02,-2.414760e-01,-1.075760e-01,-2.736700e-03,-5.696740e-03,-4.179640e-01,-1.277990e-01,-1.452180e-01,-2.205890e-02,-3.598850e-01,-3.724600e-01,3.353540e-01,7.906390e-01,1.940540e-01,2.883890e-01,-2.373370e-01,1.842070e-01,
