// Neural Network File Format by Kyle Julian, Stanford 2016
7,5,5,50,
5,50,50,50,50,50,50,5,
0,
0.0,-3.141593,-3.141593,100.0,0.0,
60760.0,3.141593,3.141593,1200.0,1200.0,
19791.091,0.0,0.0,650.0,600.0,7.5188840201005975,
60261.0,6.28318530718,6.28318530718,1100.0,1200.0,373.94992,
-2.94583e-01,7.25774e-03,-4.48011e-03,-1.12522e+00,-3.53914e-01,
-1.31083e+00,6.87557e-02,2.41783e-01,-1.84057e-01,-2.59055e-01,
7.14218e-02,1.48561e+00,2.20024e-01,3.88434e-01,-1.25734e-01,
3.88673e-01,7.84707e-01,-7.62964e-01,-3.69140e-01,2.62025e-01,
-5.15941e-01,1.95520e-02,5.76849e-03,2.36978e-01,-4.56120e-01,
1.39294e-02,1.64055e-03,2.85005e-02,-4.15269e-01,-4.24164e-01,
-1.46286e+00,-9.28204e-02,1.00697e-02,-1.06053e-02,5.66690e-03,
7.24967e-01,2.52517e-02,-3.35104e-01,-7.51536e-02,-1.26694e-01,
1.00858e-01,1.22771e+00,4.49213e-01,3.36956e-01,-1.93246e-01,
2.78579e-02,2.89187e+00,9.12826e-02,1.00406e-01,-5.76185e-01,
7.38505e-02,1.87334e+00,-1.80509e+00,1.53609e-01,-3.58752e-02,
-1.09746e-01,5.46681e-01,-1.79650e+00,6.63643e-02,-4.74836e-01,
7.89233e-01,1.27065e-02,-3.59759e-03,1.65371e-01,-2.74466e-01,
2.93174e-01,4.01759e-01,-1.48059e-01,2.87335e-01,4.47931e-01,
-9.89571e-02,-7.55095e-02,-3.88175e-02,-3.04708e-01,-2.22607e+00,
1.74089e-01,-2.18941e-01,1.43446e+00,-3.18034e-02,3.34785e-01,
1.09804e-01,-1.73827e-02,-3.67380e-02,-9.02902e-03,8.19563e-01,
1.33058e-01,-1.04845e+00,1.05501e+00,-1.10673e-01,6.38087e-02,
-1.04122e+00,1.05122e-01,-1.97742e-01,6.10042e-03,2.89980e-02,
-9.67825e-01,6.42111e-02,-1.87807e-01,-1.74527e-01,-1.50385e-01,
-1.49848e-01,-2.99595e-01,-3.90752e-01,2.84803e-02,-1.57410e-01,
-1.15801e-02,-2.20263e-01,2.22872e-01,-6.19299e-01,-5.56784e-02,
2.50286e-02,-2.66328e-01,1.55492e-02,-2.17045e-01,5.31340e-02,
-2.96855e-01,-9.89613e-02,-1.17321e+00,5.22219e-02,5.14626e-02,
3.85700e-02,-2.56421e-01,4.16092e-01,-2.09811e-01,1.15193e-01,
-3.58284e-02,9.31467e-01,1.36316e-01,-3.07120e-01,8.62492e-02,
7.08201e-01,-1.89448e-02,9.73792e-02,5.10632e-01,-1.05224e+00,
2.41005e-01,-5.39456e-01,7.82240e-01,2.43842e-01,-1.47606e+00,
-1.37055e+00,-2.06763e-01,1.83437e-01,1.89821e-02,-9.46163e-03,
7.14464e-02,-2.33154e+00,1.58716e-01,4.01974e-01,-8.83202e-01,
1.22065e-02,-7.36365e-02,-2.35392e+00,1.64212e-02,1.15650e-04,
-2.85868e-02,3.96414e-01,-6.12484e-01,-4.28259e-02,9.34674e-02,
-1.60179e-01,3.35828e-02,3.06034e-03,2.31255e-01,2.07243e-01,
6.80779e-01,2.04656e-02,4.31524e-02,-1.12360e+00,7.64711e-01,
1.17094e+00,8.20955e-04,6.97787e-04,9.14985e-04,-1.16071e-03,
-7.07789e-01,1.19533e-01,6.66965e-02,1.62331e-02,5.04410e-02,
-2.49945e-02,8.56572e-02,1.77123e+00,5.53955e-02,-3.28275e-03,
-6.86342e-01,-1.64329e-01,-5.08948e-01,-2.34452e-01,1.66759e-01,
-8.94631e-01,1.03083e-01,7.10294e-01,-4.78592e-01,2.07340e-01,
3.60991e-02,-2.33481e+00,-6.93274e-02,2.50750e-01,1.07079e-01,
-2.27975e-01,-7.84582e-02,4.56025e-01,3.55661e-01,-6.36086e-01,
5.15149e-01,2.71954e+00,-3.27637e-01,-4.84386e-02,9.02517e-02,
-6.02798e-02,3.21547e-01,-5.02422e-01,-5.47661e-01,-4.40917e-02,
-1.51805e-01,-5.11032e-02,2.20451e-02,-6.42810e-01,6.82456e-01,
2.29829e-01,1.20948e+00,-4.48853e-02,4.09365e-01,-9.05791e-01,
-1.35139e+00,2.79268e-02,6.68081e-04,-7.34048e-04,1.70537e-02,
-1.40236e+00,2.93801e-02,9.83548e-02,1.46479e-02,-5.22642e-02,
6.38939e-03,1.79157e-02,-1.18366e-01,-4.85598e-01,-9.53516e-03,
-2.48119e-01,1.14152e-01,-4.16669e-01,2.37509e-01,-4.68914e-01,
-1.49672e+00,-6.86305e-03,2.60210e-05,1.65608e-03,-1.94350e-03,
-5.82336e-01,
-3.17144e-01,
1.42347e-01,
3.85657e-01,
-6.31103e-02,
-1.09470e-01,
-3.91918e-01,
8.35918e-02,
-5.33257e-02,
-1.92641e-01,
-5.81453e-01,
-3.19564e-01,
2.90543e-01,
-9.31945e-02,
-9.26776e-01,
5.15360e-02,
-2.07199e-01,
5.23889e-01,
-2.24597e-01,
-1.75860e-01,
6.60204e-02,
-1.94328e-01,
4.94612e-02,
-3.21166e-02,
1.29403e-01,
1.42838e-01,
1.43485e-01,
-4.74326e-01,
-2.71953e-01,
-2.21397e-01,
3.28234e-02,
2.93462e-01,
1.24455e-01,
-4.61251e-02,
3.83686e-01,
-1.35648e-01,
2.42986e-02,
-1.64909e-01,
-2.36025e-01,
1.90958e-01,
2.61461e-02,
6.97777e-01,
-2.11669e-02,
4.47166e-02,
-1.36523e-01,
-2.00713e-01,
-3.78089e-01,
1.31297e-01,
7.69792e-03,
-4.17495e-01,
1.29819e-01,-5.80284e-02,-1.53550e-01,3.27144e-01,-1.11857e-01,-1.96418e-01,-1.70682e+00,-1.26192e-01,3.00587e-01,-8.39892e-02,-9.42155e-02,2.28009e-01,5.02765e-01,2.60297e-02,1.68375e-01,1.26767e-01,3.50576e-02,2.76012e-01,-1.03462e+00,5.00429e-02,7.16935e-01,1.75788e-01,6.61441e-02,-1.61469e-01,1.87182e-01,2.46441e-01,1.24095e-02,-1.16227e-01,-5.69294e-01,8.34095e-02,1.42756e-01,2.41022e-01,5.54331e-01,-3.03561e-01,2.71228e+00,6.74435e-02,-5.54174e-02,1.99160e-01,-2.11355e-02,2.62092e-01,6.34796e-02,2.19590e-01,-1.52342e-01,-4.27761e-02,9.82322e-02,-9.82858e-01,-4.04167e-01,2.50095e-01,-1.84891e-01,-2.54704e+00,
5.12017e-03,-1.09057e-03,9.19043e-03,-3.38519e-02,-4.11775e-02,-4.23972e-02,2.49018e-02,9.85929e-03,-2.57754e-02,-1.72634e-02,-3.04352e-02,7.90877e-03,-1.43967e-02,2.88175e-02,-1.93918e-02,-4.99464e-02,-2.12511e-02,2.35934e-02,2.10216e-02,-3.81897e-02,-1.04898e-02,6.60277e-03,3.02653e-02,-1.18308e-02,1.92544e-02,-6.42759e-02,9.88801e-04,3.41595e-02,2.77198e-02,-1.99378e-02,1.09649e-02,-4.02279e-02,-4.26311e-03,-8.56669e-03,-6.11482e-02,-1.88401e-02,-4.95633e-02,2.46900e-03,-1.80317e-02,-2.02519e-02,2.59426e-02,-7.79105e-03,3.69086e-02,2.26733e-02,-3.04288e-02,1.99501e-02,-3.30674e-02,2.01219e-02,-7.64702e-03,2.40546e-02,
6.10764e-01,-2.72297e-02,6.37765e-02,-6.70197e-01,-5.25694e-01,1.19683e+00,3.14876e-01,1.06658e+00,3.53365e-01,2.83099e-01,-1.00950e+00,2.94044e-01,-3.20627e-01,5.12516e-01,-5.75376e-01,-3.08660e-01,-1.11419e-01,3.09324e-01,-5.48041e-02,7.80369e-03,-1.08925e-01,1.56683e-01,2.82858e-01,1.39044e-01,5.82187e-01,3.46171e-01,-8.66577e-01,5.66026e-01,5.19192e-01,5.64539e-01,3.44204e-01,2.96927e-01,-9.95728e-01,-1.87778e-01,-1.44566e-01,-1.00426e-01,1.74010e-01,-1.13143e-01,-4.32200e-01,4.44269e-01,-1.78482e-01,7.43575e-01,-2.96842e-02,1.07664e+00,3.09113e-01,-1.08929e-01,-1.43127e+00,5.66582e-01,6.75639e-03,2.13420e+00,
1.79655e-01,8.94770e-02,-6.50104e-01,-9.38297e-01,-2.76378e-01,-2.58930e-01,-6.61035e-01,-3.40633e-02,-4.57465e-02,-3.92839e-01,-4.55444e-02,-8.37178e-03,1.36222e-01,-8.94442e-01,-2.16520e-01,3.78484e-01,-6.59410e-03,2.25659e-01,-1.39196e+00,6.84793e-02,-5.78053e-01,8.19755e-02,-4.09448e-01,8.20585e-01,-3.61633e-02,-2.58048e-01,-1.30685e-01,-3.22263e-01,3.85910e-02,9.73916e-02,-2.72186e+00,-9.54894e-01,-5.64783e-01,-9.31601e-03,-4.80141e-01,2.48766e-01,1.10454e+00,4.60387e-01,-6.55975e-01,1.34396e+00,1.95000e-02,-1.38773e-01,3.78672e-01,4.60052e-01,3.13384e-01,-3.19327e-01,4.21934e-01,6.58464e-01,1.83303e-01,-5.91005e-01,
4.14471e-01,-1.42872e-01,7.01022e-01,5.17453e-01,3.27366e-01,-2.73439e-01,3.45198e-01,2.75063e-02,-9.58484e-02,-5.59750e-02,1.65226e+00,-6.81274e-01,-1.25521e-01,-6.72847e-02,-1.42204e+00,-1.43311e+00,2.70207e-01,-2.08581e+00,6.04643e-02,-1.79507e-01,1.43075e-01,-1.04783e+00,-4.03059e-01,3.68958e-01,-1.23373e+00,4.80767e-01,-1.83934e-01,8.81717e-01,8.93217e-01,-1.59121e-01,6.31047e-01,5.27305e-01,-5.17739e-01,3.15647e-01,-5.15029e-02,2.56451e-01,-3.86942e+00,2.08924e-01,-7.83800e-01,-5.39622e-01,5.55306e-03,6.08835e-01,-9.97794e-02,-9.38183e-02,-4.09053e-01,3.77997e-01,-1.43155e-02,-3.80888e-02,3.86296e-01,4.45702e-01,
-1.54473e+00,-7.17899e-01,1.31772e+00,-3.04147e-01,2.49731e-01,1.29508e+00,9.26244e-01,-5.82240e-01,-2.85321e-01,-6.83453e-01,7.53624e-01,-4.24244e-01,1.98131e-02,-9.19150e-02,5.42988e-01,-3.42230e-01,4.02843e-01,-2.01047e-02,-4.84811e-01,-8.52766e-01,9.93469e-01,-7.84305e-02,8.59891e-01,-6.11255e-02,2.03945e+00,-8.15863e-01,-5.76319e-01,-7.80752e-01,3.42338e-01,2.09955e-01,2.13658e-01,1.40072e+00,-9.74383e-01,-3.89722e-01,5.07550e-01,-4.29935e-01,1.92238e-01,-1.40465e+00,-5.86585e-01,2.15542e-01,8.96574e-01,-4.70345e-01,-4.93967e-01,-2.92973e-01,5.65029e-01,1.08661e-01,-5.09131e-01,-1.82370e+00,-1.28799e-03,9.74891e-01,
5.51634e-01,6.18837e-02,-1.31774e-01,-4.16777e-01,1.99449e-01,8.58102e-01,3.05314e-01,2.33544e-01,-1.75473e-02,5.63167e-01,-1.38459e-01,-1.31644e-02,-2.63400e-01,-3.14739e-02,1.34155e+00,-3.31921e-01,-9.71130e+00,2.30043e-01,-1.30798e-01,-1.02171e-02,2.63323e-02,-5.21573e-01,3.89030e-01,4.79726e-02,-3.85665e-01,-1.36012e-01,4.42074e-01,-1.46962e-01,-1.32622e-01,4.80002e-01,9.40389e-03,4.01248e-01,-1.46854e+00,-1.86384e-02,1.47896e-01,1.48202e-01,4.55730e-02,-1.59868e-01,1.40093e-01,-6.47056e-01,-3.34545e-03,-3.62724e-01,2.49892e-01,-7.07024e-01,-2.26911e-01,1.75142e-01,6.81342e-01,3.50666e-01,1.84908e-01,-3.20130e-01,
-8.87858e-02,3.51626e-01,-5.44775e-01,-1.19204e+00,-3.22295e-01,-2.02590e-01,-3.97701e-01,3.13756e-01,4.09596e-01,5.30483e-02,8.63486e-01,6.69624e-01,5.63341e-01,4.71902e-01,-2.15616e-01,8.79037e-02,-7.10864e-02,1.31920e-02,4.75695e-01,-4.73036e-01,3.65413e-01,8.02331e-02,-1.03711e-01,-3.28028e-01,1.77110e-01,-1.08645e+00,4.20134e-02,-7.50796e-01,5.38088e-01,-6.28900e-02,1.02025e+00,-8.25814e-01,-2.50754e-01,3.06706e-01,3.64507e-01,1.34634e-01,4.89133e-01,5.73707e-01,1.62764e-01,-4.14018e-02,2.05103e-01,-4.07354e-01,5.51403e-01,6.04329e-01,4.43082e-01,2.91646e-01,2.96418e-01,3.48259e-02,-1.14038e+00,8.11488e-01,
-4.27351e-01,-2.87997e-01,3.74157e-02,8.32465e-01,2.60167e-02,-5.67202e-01,1.81575e+00,3.14243e-01,5.43332e-01,4.43881e-01,-3.26109e-01,4.44802e-01,3.71713e-01,-6.60273e-02,2.21942e-01,-3.43172e-01,3.31697e-01,4.00828e-01,1.06140e+00,-5.94902e-02,1.70873e+00,8.34632e-01,7.72516e-01,-3.73609e-02,2.33886e-01,4.71071e-01,1.41048e-01,-1.21486e-01,-4.16883e-01,2.95953e-01,-7.29730e-01,3.18778e-01,-7.74145e-02,-1.03379e-01,2.23418e+00,6.22014e-02,1.04704e-01,9.87924e-01,5.37392e-01,4.92812e-01,-8.03866e-02,2.34267e-01,-4.06946e-01,-5.58207e-01,-1.13550e-01,5.06074e-02,-4.75815e-01,-9.59754e-01,-5.45018e-01,-1.80712e+00,
4.04636e-01,-9.49026e-02,-2.54337e-01,-9.36844e-01,9.33563e-02,-2.11960e-01,9.06138e-02,-1.61520e-02,-4.13846e-01,-1.61625e-01,1.78135e-01,7.91446e-02,5.89349e-02,-2.58390e-01,-6.94510e-01,9.43482e-01,6.80676e-02,8.79736e-01,-1.15362e+00,1.96266e-01,8.58262e-01,4.36211e-01,-4.06478e-01,-3.23228e+00,2.67144e-01,-6.53495e-01,1.18964e-01,-5.35838e-01,2.82050e-01,-3.13613e-01,-3.04884e-01,-3.28077e+00,4.93962e-01,3.37427e-01,3.00061e-01,-1.93414e-01,8.39973e-01,5.45057e-01,-9.58539e-02,5.21783e-01,-7.76727e-02,-6.86439e-01,-1.04177e+00,-1.38506e-01,-4.99759e-02,-1.60571e-01,4.28599e-02,1.29039e-02,-9.11135e-01,9.46323e-02,
1.60461e-01,4.96878e-02,7.12840e-01,1.05517e+00,1.19773e-01,2.05669e-01,-1.04226e+00,1.33300e-01,-5.20711e-01,-4.71135e-01,1.77368e+00,1.47695e+00,9.01387e-02,-3.16697e-01,1.32119e+00,1.05856e+00,5.23571e-01,4.59744e-01,1.18217e+00,4.89307e-01,-6.45627e-01,-8.49632e-01,1.04530e-01,4.37533e-01,-2.80058e-01,-9.38765e-01,1.95625e-01,-9.59690e-02,4.59989e-01,1.69965e-01,6.16556e-01,-8.40292e-02,9.12727e-02,-2.40019e-01,-5.13092e-01,-4.23853e-01,3.75574e-02,5.47386e-01,-1.98052e-01,-9.09522e-01,1.24153e+00,3.93268e-01,-2.71297e-01,8.88339e-03,-5.83298e-01,-9.37414e-01,1.81572e+00,-3.65553e-01,-6.74262e-01,-1.73740e+00,
1.39329e-04,-4.63023e-03,-2.55047e-02,-3.64269e-02,-2.46343e-02,2.04994e-02,-2.13034e-02,-8.50450e-03,-2.92089e-02,-3.28162e-02,1.67357e-02,3.71007e-02,2.24268e-02,6.33103e-03,-2.51205e-04,-7.97041e-03,-4.75817e-02,1.82926e-02,-5.48719e-02,-4.36298e-02,-3.33070e-02,-4.62738e-02,1.69049e-02,-3.81444e-02,-1.26680e-02,-3.03893e-02,-4.83088e-04,1.57233e-02,1.20760e-02,3.51785e-02,-7.11492e-03,-4.48729e-02,-1.97986e-02,-3.15398e-02,-1.48901e-02,9.66299e-03,-4.84166e-02,1.12735e-02,1.93471e-02,-4.50011e-02,-2.24522e-02,-3.92338e-02,8.68576e-03,2.93010e-02,-4.25217e-02,2.67004e-02,4.20014e-04,2.08232e-02,-5.39583e-02,3.81682e-02,
-8.65964e-01,8.01488e-01,-3.33255e-01,2.26177e-01,-1.43308e-01,1.10879e+00,-4.51789e-01,-7.72874e-01,2.53868e-01,-3.81992e-04,-1.77966e+00,6.64092e-01,1.98218e-01,2.83444e-01,1.88005e+00,-2.17617e-03,-2.00993e+00,2.23035e-02,-6.53181e-01,-9.31999e-02,-1.08370e-01,7.64729e-01,7.48611e-01,-1.51058e-01,6.16446e-01,-6.57559e-01,8.96457e-01,3.72945e-01,-8.45047e-01,8.65432e-01,-4.26060e-01,2.04410e-01,-1.87571e+00,2.75153e+00,-1.15454e+00,-6.50518e-01,-1.05299e+00,5.82486e-01,-2.64330e-01,-8.52927e-01,5.03100e-02,5.66068e-01,2.80677e-01,-3.47759e+00,8.33564e-01,-3.59773e-02,-3.29052e-01,-1.86355e+00,8.24364e-02,-1.87255e+00,
9.70549e-01,7.56138e-01,2.72941e-01,-5.28262e-01,-4.14087e-01,3.00071e-01,1.29800e+00,2.29000e+00,4.18035e-01,-6.38139e-01,8.53648e-01,-1.28148e+00,-1.22534e+00,-2.28660e+00,1.22180e+00,-1.32980e-02,-9.85361e-01,1.22792e-01,1.08574e+00,-4.61876e-02,1.83171e-02,5.36402e-01,3.12738e-01,1.15890e+00,3.37032e-01,-5.50985e-01,2.16552e-01,5.86002e-01,-1.26775e-01,-1.03033e-01,1.06381e-01,2.10441e-02,-9.52639e-01,-5.08292e-01,-7.31446e+00,-4.72279e-02,3.48235e-01,4.78103e-01,6.64933e-01,-1.80617e-01,-5.73169e-01,1.64272e-01,1.90273e-01,-3.39951e-01,3.87365e-01,-9.47855e-02,9.47255e-01,-6.78774e-01,-4.22916e-01,1.64301e+00,
-3.76116e-01,-1.03196e-02,2.58138e-01,3.69887e-01,1.46869e-01,4.65600e-01,4.22018e-01,1.35135e-01,-2.26050e-01,2.44911e-02,-1.94619e+00,-5.12982e-02,1.40029e-01,-4.16572e-01,6.50446e-01,5.49978e-02,3.42527e-01,-4.56547e-01,1.48868e-01,1.98700e-01,-6.94178e-02,5.19147e-01,-9.00054e-01,7.49990e-01,1.02602e-01,-1.41058e-01,4.97410e-01,3.87722e-01,-1.48755e-01,-2.63556e-01,-7.87153e-02,6.99157e-01,-3.30756e-01,-1.80883e-02,6.86898e-01,1.67990e-01,-9.68833e-01,-4.22497e-02,-3.60718e-01,-5.64725e-01,1.34375e-01,1.72485e-01,-1.20704e-01,-3.86454e-01,-1.02021e-02,1.12867e+00,-1.00092e-01,-3.56487e-02,-3.03783e-01,1.12600e+00,
-1.59942e-01,-3.40562e-01,-1.56029e-01,-2.57056e-02,4.63492e-01,5.21332e-01,-1.67858e+00,2.90826e-01,1.54270e-01,3.08303e-01,-2.89018e-01,1.05538e+00,-6.99327e-01,-2.51938e-01,-7.40445e-01,-1.35360e-01,-3.03305e-02,-2.00498e-01,-2.71379e-01,4.04904e-01,4.37797e-01,2.95122e-01,1.32489e-01,-7.00981e-01,2.88113e-01,-1.06451e-01,-7.02889e-01,-5.38133e-01,-6.95340e-01,-2.81920e-01,-1.02750e+00,3.72783e-01,1.31725e+00,-1.14689e+00,1.03618e+00,-2.24488e-01,-3.09117e+00,3.59497e-01,3.34939e-01,2.16871e-01,8.69580e-01,-7.78948e-02,-7.38272e-01,-2.68727e-02,3.46339e-02,-5.99709e-01,1.45424e+00,4.26764e-01,5.38638e-01,9.46299e-01,
8.31904e-01,1.64802e-01,-1.58368e-01,-3.97273e-01,4.51167e-02,2.02349e-01,1.64065e+00,2.09453e+00,9.52163e-02,1.20788e-01,1.18626e+00,-4.35510e-01,-3.35598e-01,1.67337e-01,2.33828e-01,-7.12744e-01,9.21627e-01,-1.71696e-01,2.83008e-01,-3.89960e-03,2.00257e-01,-6.68411e-01,2.07160e-01,1.40723e-01,1.36270e-01,6.72938e-01,-1.13723e-01,-5.31939e-02,4.10577e-01,2.69241e-01,1.57930e-01,-6.35806e-01,-3.24516e-01,-3.11525e-01,-3.87065e+00,4.01108e-01,-2.67159e-01,4.61511e-01,6.14341e-01,3.67853e-01,-1.87722e-01,-8.58020e-02,-6.86604e-01,4.41549e-01,-4.51284e-01,7.60063e-01,1.17475e+00,-5.32384e-01,5.71676e-01,2.85799e+00,
2.44671e-02,-6.15115e-02,2.75100e-01,-6.91775e-01,1.29818e+00,8.54981e-01,-7.62329e-01,6.67099e-01,-4.39281e-01,8.19696e-01,-1.72002e+00,5.75945e-01,-8.12322e-01,1.76850e-01,1.94927e-01,3.87250e-01,4.00311e-01,-2.38566e-01,-7.42324e-01,2.94288e-01,-2.58887e-01,-1.63975e+00,-4.23366e-01,-1.55239e-02,4.24478e-01,1.25140e-01,8.87612e-01,-1.26067e+00,1.74303e-01,-2.31519e+00,-9.12910e-02,1.28322e-01,-2.04802e-01,-2.26320e-01,2.23712e-01,-9.86078e-01,1.45285e-01,-8.77724e-01,-1.44070e-01,-1.44758e+00,5.24035e-01,4.65939e-01,-1.35609e+00,-1.02774e-01,3.39006e-01,-8.81888e-01,-3.23214e-01,-7.31405e-01,1.63581e+00,-8.82074e-01,
-1.64394e-02,-2.42532e-01,3.60224e-01,-5.50308e-03,-7.67472e-01,2.44347e-01,3.92078e-01,9.15425e-01,4.27608e-01,8.00934e-02,-1.06894e+00,1.02491e+00,4.67996e-01,5.52065e-02,3.82470e-01,7.97865e-02,3.67498e-01,6.92908e-01,-7.62635e-01,-2.50347e-01,-1.90967e-01,1.87781e-01,4.17363e-01,-1.06764e-01,2.23788e-01,5.33629e-01,3.73740e-01,5.16630e-01,1.58929e-02,4.75114e-01,3.59654e-02,-5.95978e-01,2.49610e-01,2.67724e-01,2.67703e-01,1.43845e-01,-1.44279e+00,2.34249e-01,-1.74419e-01,-9.91254e-01,-3.17594e-01,1.46703e-01,-7.23427e-02,-5.74626e-01,5.49955e-02,-1.24882e+00,-9.00393e-01,-7.59813e-01,-2.36228e-01,-5.38260e-01,
-4.47729e-03,1.32504e-02,-1.49537e-02,2.26320e-04,-3.51503e-02,-4.27716e-02,-3.49674e-02,-2.77305e-02,-2.30999e-03,4.01308e-02,-3.37323e-02,-2.78789e-02,-1.88009e-03,-3.97926e-02,2.79080e-02,-1.92298e-02,2.36987e-02,1.34327e-03,2.97239e-02,-2.36391e-02,-4.62458e-02,3.63843e-02,3.79985e-02,4.38521e-03,-3.06059e-02,2.63493e-02,-4.40351e-02,2.90838e-02,-4.07122e-03,3.20563e-03,-4.52741e-02,-4.03573e-02,9.77561e-03,2.40205e-02,3.19066e-03,1.33121e-02,4.28445e-03,4.75947e-02,-4.24397e-02,-5.14649e-02,4.54950e-02,-3.71417e-02,-5.47086e-03,-3.23445e-02,-2.54819e-02,7.91771e-03,-2.92940e-02,4.29331e-02,-5.06323e-02,-5.05839e-02,
4.30471e-01,-8.19771e-01,-1.86242e-01,1.22717e+00,3.30455e-01,4.22758e-01,1.13622e+00,-2.90262e-01,-3.86100e-01,2.74194e-01,-1.74355e+00,-1.75363e-01,2.55515e-02,1.58166e-01,-2.73604e-02,2.05997e+00,5.96325e-01,-7.69713e-01,4.12836e-01,-3.25970e-01,-9.80612e-01,-7.28225e-01,-2.91450e-01,-4.83491e-01,-2.52052e+00,3.74685e-01,7.27189e-01,-7.74100e-01,-3.61068e-01,-3.92180e-01,-4.87668e-01,2.29972e-01,-6.38446e-01,-4.58218e+00,-1.53062e+00,1.94725e-01,-1.86646e-01,-1.22636e+00,-2.38241e+00,-3.13209e-01,9.37332e-01,3.50172e-01,1.36779e+00,-2.14937e+00,4.83886e-01,1.24086e-01,4.69953e-01,-8.48949e-01,-1.79300e-01,1.29140e+00,
-2.36101e-02,8.28871e-03,-7.28363e-02,-3.62697e-02,-5.38170e-03,3.43889e-03,6.39548e-03,-3.26395e-02,-3.51755e-02,-4.50107e-02,-3.84234e-02,7.12487e-03,-4.00226e-02,5.42063e-03,9.50481e-03,4.63235e-02,-6.29116e-02,-4.41738e-02,2.06363e-02,-3.91065e-02,-5.30469e-02,-4.86366e-03,-3.47110e-02,3.30556e-02,1.90919e-02,-2.83279e-02,-2.44538e-02,-2.35778e-02,-3.19579e-02,-1.88622e-02,2.71215e-02,1.25451e-02,-3.31676e-02,-5.20519e-02,-1.06370e-02,-2.93741e-02,7.15765e-03,1.56698e-02,7.32490e-03,7.43696e-03,1.38115e-02,-3.79401e-03,-5.38227e-02,-3.07210e-03,-8.56371e-03,-4.90323e-02,-4.72059e-02,-1.14620e-02,2.50176e-02,2.56036e-02,
2.04671e+00,-3.30466e-02,7.69117e-01,-3.17764e-01,-2.40637e-01,6.66487e-01,8.57749e-03,9.31470e-01,-2.30565e-01,-1.89037e-01,1.82425e-01,-4.05661e-01,-4.17334e-01,6.85932e-01,2.24774e+00,6.97854e-01,3.69969e-01,-2.46962e-01,-5.20067e-01,4.52946e-01,1.57377e-01,6.31988e-01,5.27067e-01,-3.83837e-02,-8.57158e-01,-2.66676e-01,-4.61329e-01,3.77697e-04,1.28989e-02,1.49351e-01,2.87689e-01,-4.41848e-01,2.87647e-01,4.85212e-01,-5.33810e-01,-1.52555e-01,4.48404e-01,-4.40977e-01,-3.76136e-01,-5.06241e-01,-2.85365e-01,-1.20837e-01,6.01095e-01,1.64955e-01,4.76442e-01,-7.18195e-02,-4.55132e-02,3.94283e-01,2.86617e-01,3.16910e-01,
-7.06235e-01,-3.50802e-01,-3.08716e-01,1.18712e-01,-8.92426e-02,-1.06183e-01,3.09660e-01,-1.36000e-01,-8.32959e-01,-2.12907e+00,-3.39824e+00,-1.10382e+00,9.03623e-02,-5.70074e-01,7.21841e-01,4.15246e-01,3.40048e-01,-4.65716e-01,5.49135e-01,5.56364e-01,-8.16257e-03,3.75971e-01,-3.54575e-01,1.89446e-01,1.18377e-01,-7.12237e-02,4.62109e-01,7.06120e-01,1.04055e-01,5.31502e-01,1.13987e+00,7.48439e-01,-2.84521e-01,5.69565e-02,1.64768e-01,-8.04641e-01,3.56938e-02,2.68909e-02,-2.29171e-01,-2.74440e-03,2.19883e-01,-4.82542e-01,-2.93791e-01,-5.37427e-01,-8.65891e-01,-2.88911e-01,-1.06214e+00,-2.74212e-01,5.19916e-01,-3.74297e-01,
-3.44963e-01,-2.75921e-01,2.09251e-01,7.51928e-02,-3.08109e-01,-3.32154e-02,-1.01136e+00,-3.31759e-01,-3.55625e-01,3.73710e-01,-6.52930e-01,1.21798e-01,5.41478e-01,-5.20049e-01,-1.65818e-02,1.45855e+00,-5.09681e-02,-2.08852e-02,-3.44869e-01,1.69161e-01,8.47570e-02,4.36826e-01,-1.98319e-01,-5.29451e-01,2.00844e-01,-2.82172e-01,-1.84200e-01,1.01264e-01,3.74336e-01,-2.31371e-02,4.32478e-01,-3.48922e-01,2.06301e-01,-2.72458e-01,-3.27716e-01,-2.43231e-01,3.29756e-01,-3.96789e-01,-2.19549e-01,-3.23531e-01,-1.55061e-01,-2.87173e-02,-1.50116e-01,-9.96036e-02,3.84709e-01,1.52671e-01,-1.31147e+00,1.61723e-01,1.89469e-01,9.76454e-01,
2.71475e-02,-3.25597e-01,8.15550e-01,4.69203e-01,-8.94452e-01,5.64522e-02,1.15113e+00,6.25704e-01,7.71582e-01,2.66754e-01,-4.59960e-01,-7.11331e-01,-5.34583e-02,4.48491e-01,-5.80779e-01,-1.22010e+00,7.92766e-02,-9.43884e-02,-3.63871e-01,-6.65377e-01,1.15631e+00,5.67200e-01,8.44686e-01,-1.04987e+00,5.05379e-02,2.81406e-01,-3.30537e-01,5.39798e-01,8.15383e-01,-1.11297e-01,-3.08282e+00,1.15011e-01,-1.24513e-01,-1.68437e-01,1.85087e-01,3.55561e-01,-1.05786e-01,-1.07375e+00,1.01808e+00,1.12633e+00,1.86958e-01,3.42949e-01,-2.36342e-02,-1.70819e-01,-1.02693e+00,-3.96351e-01,9.48500e-01,2.59296e-01,-1.16333e+00,-8.12032e-01,
3.82757e-02,-2.97708e-01,-2.03288e-01,1.55080e-01,3.73482e-01,-1.07665e+00,1.31522e+00,-2.55267e-01,3.56208e-01,-1.05304e-01,1.17186e-01,-1.66403e-02,-7.94425e-02,5.41867e-01,-6.16378e-02,-1.62270e-01,2.49915e-01,3.75220e-01,-7.04943e-01,6.61569e-01,1.02181e+00,-4.38457e-01,1.25950e+00,2.00173e-01,-2.25490e-01,1.58514e-01,-3.72707e-01,-3.27523e-01,9.96427e-02,-2.56621e-01,6.65234e-01,-4.48939e-01,-1.94357e+00,2.33924e-01,2.98716e-01,2.28851e-01,8.81771e-01,-1.25955e-01,-5.35449e-01,-4.39228e-01,2.87428e-01,-2.24062e-01,2.88182e-01,3.61316e-01,-3.13218e-01,3.05157e-01,3.04041e-01,-1.73465e-01,8.85168e-01,2.39031e-01,
-3.72653e-02,2.17171e-01,-8.48828e-02,1.44989e-01,-1.89750e-02,9.18268e-02,1.79220e+00,-3.43649e-01,1.04871e-01,-1.17520e-02,6.43083e-02,3.79146e-02,1.41227e-01,1.89053e-02,2.33395e-03,8.70554e-02,6.50531e-02,4.15472e-02,-1.34599e-01,2.30442e-01,1.40234e-01,9.01139e-02,-2.82506e-01,-1.59859e-01,1.62453e-02,2.34332e-02,6.79230e-02,7.99971e-02,7.84340e-01,-2.88181e-02,-1.94537e-03,6.94328e-02,2.82422e-01,-5.81997e-02,-7.02913e+00,1.20716e-01,-6.34582e-02,8.93588e-02,-2.48522e-01,-6.30918e-03,-1.97661e-02,6.62104e-02,1.31542e-02,8.42986e-02,-9.13834e-02,2.67835e-01,9.36119e-01,1.28645e-02,1.44255e-01,2.20413e+00,
1.60092e-01,6.69170e-02,4.67011e-02,-8.49346e-02,-2.14695e-02,-1.94331e-03,2.66564e-01,8.85243e-02,1.14608e-01,9.46630e-02,2.12015e-01,-4.44619e-02,-9.50482e-02,-1.65091e-01,1.16067e-01,-2.80058e-04,-3.91012e-01,-2.21043e-02,8.28143e-02,-2.06358e-02,5.17148e-02,-3.61990e-02,-3.76667e-01,-1.69860e-01,-6.08544e-02,9.73417e-03,5.34034e-02,4.27597e-01,-7.04624e-02,-3.14301e-01,-1.40712e-01,-3.68201e-02,-1.10450e-01,-1.35319e-01,-3.84028e-01,-7.03388e-02,3.58124e-02,-6.14678e-02,7.60450e-03,-3.56143e-01,1.79481e-02,-1.67852e-02,1.04376e-01,1.65531e-01,1.71784e-01,-1.16230e-01,6.32828e-02,-1.02111e-01,6.61523e-02,2.58261e-01,
1.95911e-02,1.99289e-02,2.58962e-02,-6.07207e-02,-3.94995e-02,2.73378e-02,-1.84742e-02,1.57294e-02,-4.00717e-02,2.97679e-02,-3.71416e-02,9.97079e-03,-8.79874e-03,-4.54198e-03,-2.29591e-02,-5.29981e-03,3.40464e-02,2.97986e-02,-3.67283e-04,3.53579e-02,-4.52243e-02,-2.68898e-02,-1.03610e-03,-4.32231e-02,2.14871e-02,-8.53125e-03,-4.16816e-02,-3.88888e-02,-1.96077e-02,-2.79966e-02,-2.24392e-02,-2.76613e-02,2.43102e-02,1.90117e-02,-1.11782e-02,3.70160e-02,-3.02383e-02,1.82087e-02,-5.51709e-02,-5.08990e-02,-3.09994e-02,7.42922e-03,-3.86619e-02,2.93494e-03,1.58007e-02,-2.78227e-02,-1.02732e-02,2.72042e-02,-3.29966e-02,-4.66675e-02,
1.97112e+00,-4.66744e-01,2.85677e-01,2.12935e-01,-1.21219e-01,8.16421e-01,-1.38578e+00,-7.78358e-02,1.11945e+00,1.80791e-01,-7.54252e-01,8.24357e-01,-3.81787e-02,5.24749e-01,-1.17745e+00,1.11332e+00,-9.80986e-01,-1.51543e+00,3.96372e-01,3.56463e-01,-1.15491e+00,6.40229e-02,1.27419e+00,4.78386e-01,2.65346e+00,3.75557e-01,-1.85375e+00,3.08925e+00,-2.83600e-01,4.92353e-01,-3.54200e-01,-2.46459e-01,-3.99844e-01,9.85689e-02,-3.24608e-01,1.77850e-01,-1.63846e+00,-4.06618e-01,7.84652e-01,9.62586e-01,-3.23372e+00,2.10818e-01,9.98715e-01,3.22818e-01,3.37307e-01,-7.68512e-01,-1.20125e+00,2.49406e-01,-1.34780e+00,2.28598e+00,
1.05226e+00,-8.27173e-02,-5.04014e-02,-7.78083e-01,1.03615e+00,1.75723e-01,-9.68040e-01,6.92641e-01,-8.81486e-01,-1.58811e+00,-2.00225e-01,-2.42160e-01,-8.30104e-01,-4.81364e-01,7.35522e-01,7.68822e-01,-1.57447e-01,-1.63548e+00,-2.02978e-01,9.14138e-03,-2.99542e-01,-4.57700e-01,9.64251e-01,2.72042e-01,-1.45907e+00,-1.23681e-01,-5.10552e-02,-6.55239e-01,-1.65826e-01,-7.52511e-01,3.12593e-01,1.61635e-01,1.77893e-01,-2.80689e-01,1.01117e+00,3.32184e-01,7.96879e-01,1.88217e-01,-7.41094e-01,1.37772e+00,-5.13143e-01,-4.33534e-01,5.48196e-01,8.55164e-01,-1.23573e-02,-4.37490e-01,1.94250e+00,-8.92054e-01,8.24407e-01,-7.12994e-02,
2.96180e-01,-9.12230e-02,3.34675e-01,2.54506e-01,-6.05990e-01,-1.75462e-01,7.32072e-01,-3.04231e-01,6.30964e-02,-1.85473e-01,8.64543e-02,-2.00188e-01,5.81338e-01,1.41972e-01,-4.92953e-01,-1.49270e-01,-1.77466e-01,-8.08656e-01,4.95820e-01,3.14151e-02,-2.92285e-01,-3.77496e-01,2.30571e-01,3.06298e-01,-4.37753e-02,2.51952e-01,-1.78030e-01,3.75244e-02,-2.27818e-02,1.73140e-01,4.77506e-01,3.38054e-01,8.96583e-01,-9.15389e-02,-2.61956e-01,4.32488e-02,-1.21419e+00,3.57528e-02,-1.25611e-01,-4.56038e-01,3.65698e-01,2.33308e-01,3.57281e-01,1.90685e-02,-2.39079e-01,2.60117e-01,4.66835e-01,1.28679e-01,-1.45736e-01,1.19800e+00,
-6.97017e-03,-3.59738e-02,-3.12283e-02,1.39000e-03,-3.19449e-02,1.23667e-02,-2.26332e-02,9.19324e-03,-3.29575e-02,-5.02905e-02,3.03819e-02,-7.14026e-03,-1.06980e-02,-1.16860e-02,1.81624e-02,-4.33530e-02,-2.66603e-03,-3.61859e-02,2.85863e-02,-8.65766e-03,1.07351e-02,-5.33455e-03,-3.01715e-02,1.21931e-02,-5.08859e-02,-4.70349e-02,1.95727e-03,-2.77405e-02,-4.74885e-02,-1.57797e-02,1.57420e-03,3.02116e-02,-4.03309e-02,-3.15571e-02,-1.22487e-02,3.24095e-02,-4.33477e-02,-1.91733e-02,7.49228e-03,2.42127e-02,2.04920e-02,-2.72937e-02,3.24754e-02,-2.25050e-02,-2.21266e-03,-2.63495e-02,-4.46237e-02,-1.88118e-02,-4.01327e-02,2.44661e-02,
4.87481e-02,2.68105e-01,-2.96078e-01,1.06985e-01,-3.50479e-01,2.37460e-01,-8.77093e-01,-7.08836e-01,3.00494e-01,-1.52852e-01,9.94781e-01,-8.90417e-01,4.04568e-01,7.49394e-01,-2.26720e-01,-1.15570e+00,-6.02387e-02,8.02147e-02,-2.25622e-01,-3.35556e-01,2.26428e-02,1.92824e-01,-1.99686e-01,1.05052e+00,5.89645e-02,1.88865e-01,3.13831e-01,1.23308e-02,-2.47896e-01,-2.01711e-01,5.84296e-01,4.57741e-01,-3.69242e-01,3.24799e-01,3.13236e-01,-8.01553e-02,-8.01220e-01,3.88703e-02,-1.76586e-01,1.93796e-01,2.70110e-01,-3.68928e-01,-1.64338e-02,-2.37172e-02,1.85088e-02,-2.88797e-01,-7.78011e-01,-5.44056e-01,-2.70454e-01,-2.38941e+00,
3.62137e-01,3.75778e-01,1.03943e+00,-1.65447e-01,-9.90237e-01,-1.68101e-01,5.04128e-01,-1.00043e+00,1.26678e+00,3.72969e-01,2.47939e+00,1.22127e+00,6.44214e-01,1.66592e-01,-8.70569e-01,1.95209e-01,-4.50699e-01,-2.49632e-01,-2.07909e-01,9.91530e-02,-6.30339e-01,4.29647e-01,7.50148e-02,-1.28780e+00,2.36611e-01,-1.32748e-01,-3.00689e-01,-8.31345e-01,2.11273e-03,-3.45489e-01,-8.45004e-01,5.76658e-01,1.00695e+00,-1.33242e-01,3.90115e-01,8.89967e-01,-6.64140e-01,1.27691e-01,5.09824e-01,-1.02470e+00,-5.25483e-01,1.36056e+00,8.94671e-03,3.30038e-01,1.05259e+00,-1.26417e-01,-3.79798e-01,6.08553e-01,-1.43057e+00,-7.17829e-01,
1.40754e-01,-4.39375e-01,6.30545e-02,1.37829e-01,4.60066e-01,-3.01015e-01,1.51927e+00,-9.56373e-01,1.43216e-01,3.06863e-01,1.25036e-01,5.96444e-03,-3.83384e-01,2.63857e-01,3.63456e-01,-8.94618e-02,-9.45593e-02,1.41743e-01,6.96585e-02,-9.94314e-02,-2.77054e-02,-1.77407e-01,1.03335e-01,2.95864e-01,-2.07902e-01,1.32539e-01,1.49277e-01,-2.14857e-01,5.82669e-01,1.64230e-01,7.15061e-01,3.00567e-01,3.85875e-02,-5.80083e-02,-1.03762e+01,3.84846e-01,-8.46717e-02,1.53316e-01,6.33946e-01,3.81672e-02,1.34838e-01,1.08236e-01,-1.02449e-01,-1.88594e-01,2.52974e-01,4.78172e-01,8.78356e-01,1.44778e-01,-2.81295e-01,2.13451e+00,
-2.39703e-01,-9.96938e-02,2.09968e-01,2.98074e-01,3.10770e-01,-4.07109e-01,-8.59787e-01,-5.02654e-01,-2.28719e-01,2.09000e-01,-2.91362e-01,-1.63985e-01,-4.68583e-02,-4.15834e-01,-3.82087e-01,2.43832e-01,-2.57141e-01,-1.27272e-01,7.59274e-01,5.56385e-01,1.07459e-01,2.82623e-01,-5.28966e-01,-2.05259e-02,3.08618e-01,-9.99190e-01,3.89796e-02,7.55995e-01,-5.30549e-01,-2.06338e-01,1.64500e-01,6.99870e-01,8.12936e-02,-5.95547e-01,7.21225e-01,-3.58243e-02,-4.33090e-01,1.07576e-01,1.93699e-01,9.60404e-02,-2.45365e-01,-2.84281e-01,3.17606e-01,3.73563e-01,-5.76396e-01,-2.26075e-01,-7.00027e-01,5.22627e-01,2.26155e-02,-4.72432e-01,
-9.02313e-01,-3.18981e-01,-2.19177e-01,1.93414e-01,8.68385e-01,-9.38090e-02,-2.39337e+00,-7.95427e-01,-1.32202e-01,2.50614e-01,-1.88637e-01,-3.05178e-02,7.98560e-02,-1.13746e-01,5.79603e-01,-2.28837e-01,-1.30485e-01,8.36644e-02,-2.73836e-01,1.83015e-01,-3.72589e-02,-5.57082e-01,-1.31055e-01,9.46806e-03,-6.71785e-03,-1.16668e-01,4.38697e-01,-1.16925e-01,1.17198e-01,1.46880e-01,3.94954e-03,6.90702e-01,7.15756e-02,-3.36193e-01,3.44717e-01,-1.70734e-01,3.71556e-01,3.22572e-01,2.82397e-01,-4.54471e-01,2.99199e-01,-3.95573e-01,-7.42772e-02,1.64030e-01,1.28681e-01,4.58250e-01,7.02108e-01,-5.18365e-01,4.29518e-01,-8.50457e-01,
1.04737e+00,-7.07309e-01,-1.54026e-01,5.49728e-01,2.17207e-01,7.35420e-02,-2.30286e-01,1.41884e+00,1.07039e+00,-6.92166e-02,-1.88124e+00,-2.06291e-02,-9.30957e-02,-2.26735e-02,-1.05790e+00,-1.03917e+00,-1.33307e-01,-5.23361e-02,3.08791e-01,-2.11199e-01,1.67571e-01,1.18280e-01,-4.76198e-01,-6.57757e-01,9.33169e-01,3.42030e-01,-1.08317e+00,7.98498e-01,-1.09921e-02,-3.71765e-01,-4.83542e-01,5.12577e-01,5.38365e-01,-6.46816e-01,6.07576e-01,1.70136e-01,-4.67215e-01,5.17445e-01,6.28290e-01,-5.46312e-01,-6.60654e-01,-3.20039e-01,9.56124e-01,2.74180e-01,-4.12584e-01,-2.87527e-01,-3.61701e-01,5.51568e-01,-5.70111e-01,4.77375e-01,
1.47129e+00,-4.60560e-01,-8.19455e-02,5.29083e-01,-1.73648e+00,1.47120e+00,-3.30295e-01,2.62201e-01,-2.74999e-01,1.95105e-01,-3.24223e+00,-7.34842e-02,4.00149e-02,-2.26437e-01,-2.01876e+00,-1.03472e+00,-4.46353e-01,3.72069e-01,-4.78690e-01,9.80656e-02,-7.09127e-01,-1.41779e-01,3.02411e-01,-3.06016e-01,3.16761e-01,5.38017e-01,4.27203e-01,1.09495e+00,-4.39280e-01,-1.51450e-01,-1.25339e+00,2.91220e-01,-1.73973e+00,-5.02818e-02,2.89435e-01,-2.48099e-01,-9.98601e-01,-4.01109e-01,-7.77169e-01,-7.84217e-01,-7.65297e-01,-5.84584e-01,-6.12795e-02,1.86692e+00,-8.67594e-01,2.82995e-01,7.78566e-01,5.98928e-01,-1.22352e+00,9.76526e-02,
1.59110e+00,9.10799e-01,-2.84552e-01,1.51319e-01,-5.94911e-01,6.92614e-01,6.16809e-01,1.82992e-02,2.88031e-01,8.88516e-02,-2.51970e-01,2.49382e-01,-7.39822e-02,-4.63529e+00,6.47825e-01,-3.08519e-02,-4.52286e-01,2.86182e-01,6.37327e-01,9.74078e-01,6.28591e-01,4.77962e-01,-5.11807e-01,-3.29010e-01,4.83276e-01,1.61139e-01,-2.80504e-01,-2.26666e-01,5.73060e-01,-2.62282e-01,-5.57604e-02,-5.21513e-01,1.66457e+00,-2.13292e+00,-1.08428e+00,-1.75441e-01,-5.28901e-01,2.99563e-01,-1.59499e-01,4.02288e-02,4.74969e-01,1.69415e-01,2.49900e-01,-8.76837e-01,1.97748e-01,-8.88973e-02,5.95258e-01,8.83786e-01,-3.50943e-01,-4.93044e-01,
3.38614e-01,2.90678e-01,6.17714e-01,-2.57778e-01,-1.66024e-01,1.98340e-01,2.96919e-01,-1.33284e-01,-3.36163e-01,-8.45550e-02,-7.32815e-01,2.71155e-02,-1.63749e-01,7.46201e-02,-1.61695e-01,-1.54674e+00,-5.70971e-01,-1.84810e-02,-2.10436e-01,7.07819e-02,-9.90818e-02,-9.90870e-01,-1.41024e-01,-1.65215e-01,5.13714e-02,-3.06460e-01,-3.41124e-02,3.58026e-01,1.76332e-01,2.57489e-02,-3.89391e-01,-3.10000e-01,1.48016e+00,6.10788e-01,4.41437e-02,7.94928e-01,-3.27374e-01,7.02015e-01,-4.33468e-01,9.09887e-02,-1.26721e+00,-6.40770e-02,7.61633e-01,1.02743e-01,5.95277e-02,6.25939e-01,-4.70736e-01,8.36527e-01,-2.44754e-01,2.73527e-01,
-9.69203e-01,2.99021e-01,-1.01305e+00,-1.10769e+00,5.84631e-01,-1.47816e-01,2.57330e-01,-3.26650e-01,-7.89265e-01,-2.21247e+00,2.89041e-02,1.66795e+00,5.17732e-02,2.42023e-01,4.65216e-01,8.46291e-01,2.01541e-01,8.61614e-01,1.70205e+00,-1.23597e-01,3.47831e-02,-6.09984e-01,3.85489e-01,-1.56343e+00,6.03456e-01,-5.53828e-01,2.62751e-01,4.01600e-02,-4.97082e-02,2.60001e-01,-3.52619e+00,-1.60146e+00,-6.01302e-01,1.46724e-01,2.12691e-01,1.04735e-01,4.57820e-02,-1.43506e+00,1.94032e-01,6.54880e-01,6.91209e-01,-6.99594e-01,6.06582e-02,-2.79845e-01,-1.69860e-01,-4.30298e-01,2.17608e-01,-1.01869e+00,1.27198e+00,7.89393e-01,
-4.73329e-02,-2.09925e-02,1.38164e-02,-4.78796e-02,-8.91822e-03,-7.11871e-03,1.61253e-02,7.66891e-03,6.37295e-03,1.58057e-02,1.11939e-03,-3.55645e-02,3.03728e-02,-6.08385e-04,-1.38282e-02,-2.85855e-02,-5.44004e-02,-1.77117e-02,-2.31058e-02,4.45814e-02,2.44105e-02,-4.76006e-02,-5.06561e-03,1.48540e-03,-5.19567e-02,3.11184e-02,9.33004e-03,-1.83058e-02,-2.24703e-02,-1.89541e-02,1.02201e-02,-1.16594e-03,-5.21103e-02,1.65785e-02,9.91195e-03,3.19830e-02,1.27559e-02,1.73722e-02,-1.45512e-02,-2.23652e-02,4.64301e-03,-1.87433e-02,-3.70479e-02,2.05847e-02,-4.05818e-02,2.05531e-03,1.46191e-03,-4.38406e-03,-1.62778e-02,4.38763e-02,
5.83540e-01,-3.72432e-01,-2.86090e-01,5.18272e-01,-7.39338e-02,5.44441e-01,-1.22387e+00,-3.87161e-01,1.29019e-01,5.94987e-01,4.12139e-01,-4.17476e-01,6.62387e-01,3.69497e-02,5.75284e-01,1.70303e-01,-3.54583e-01,6.53797e-01,-8.33588e-01,-6.43658e-01,-5.78431e-01,3.01902e-01,8.47662e-01,3.64854e-02,2.88557e-01,5.55690e-01,3.87168e-01,5.82534e-01,4.59175e-01,-9.71214e-02,4.95305e-01,1.69257e-01,1.28940e-02,-3.46960e-01,-7.08700e-01,-3.52084e-01,-1.33595e-01,5.54720e-02,7.84899e-01,1.58411e-01,1.32140e-01,3.21141e-01,2.14079e-01,-3.13471e-01,4.84029e-02,-1.26847e+00,-2.52849e-01,2.23571e-01,6.30904e-01,-1.88658e+00,
7.88664e-02,7.39327e-01,-2.80026e-01,-2.69835e-01,2.46741e-01,2.70980e-01,-1.00779e+00,-6.88424e-01,5.83138e-01,-9.99154e-01,8.05655e-01,-2.89164e-01,-3.23960e-01,7.15964e-01,-1.98268e-01,5.42204e-01,-2.86160e-01,-2.79009e-01,-1.59885e+00,-9.25392e-02,6.95609e-01,-2.79294e-01,-3.68659e-01,4.00592e-02,3.53549e-01,1.07968e-01,-6.87816e-02,-5.56822e-01,-6.50532e-02,-1.66199e-01,2.14113e-02,-3.78377e-01,1.14894e+00,1.58708e-01,-6.05130e-03,1.76606e-01,-1.91588e-01,8.26097e-01,3.65763e-01,-4.22718e-01,1.71254e-01,-1.50370e-01,-2.89044e-01,-4.83664e-01,3.87844e-01,1.01804e+00,-8.81571e-01,1.35407e-01,1.26465e+00,3.89932e-01,
-7.62866e-01,-2.39093e-01,4.89891e-01,-4.92551e-01,-4.22988e-01,6.85113e-02,1.12396e+00,3.60428e+00,-1.60118e-01,1.45619e-01,3.04866e-02,8.49492e-01,-5.05331e-01,-1.20961e-02,8.56231e-01,4.73596e-01,-1.88648e-01,8.33187e-01,-4.33723e-01,1.07245e+00,1.02997e+00,-1.52059e+00,-3.72658e-01,-1.19741e+00,-3.82777e-01,1.32312e-01,2.20707e-01,-2.67492e-01,5.74469e-03,-1.61283e-02,-4.64720e-01,-6.85816e-01,3.33235e-01,5.65158e-01,-5.19731e+00,-2.14785e-01,3.80697e-01,-3.25255e-01,-6.82719e-01,-3.88249e-01,2.26955e-02,-5.56092e-02,5.84568e-01,4.35959e-01,1.52795e-01,6.13939e-02,7.34720e-01,-8.26507e-01,6.51625e-01,2.46109e+00,
9.02343e-03,6.35194e-03,4.78383e-03,-8.51826e-03,1.09125e-02,7.14537e-03,-5.46576e-02,3.62141e-03,3.32881e-02,4.34098e-02,-5.83057e-02,-1.49270e-03,-1.56764e-03,-1.13287e-02,-4.05597e-02,-2.31217e-02,2.54713e-02,7.05658e-04,-2.60345e-02,-2.06941e-02,1.13871e-02,1.37658e-02,-1.69070e-02,-1.70800e-02,-3.82858e-02,7.31831e-03,-5.13628e-02,4.31870e-02,4.40018e-03,-1.52606e-02,-4.47835e-02,1.35180e-02,-4.21877e-02,1.06377e-02,-2.01920e-02,-1.88792e-04,-3.74350e-02,-3.52607e-02,4.92136e-03,-3.45600e-03,1.94794e-02,-3.55488e-02,-2.70350e-03,3.35278e-02,-5.51078e-02,-1.87023e-03,-8.78257e-03,-5.11228e-03,5.67619e-03,1.77175e-02,
-5.28368e-02,-1.33094e-02,2.16710e-02,1.32268e-02,-2.60617e-02,-1.97628e-02,1.18298e-02,1.25661e-02,-6.03463e-02,-3.27221e-02,-1.50782e-04,-3.86274e-02,-3.30073e-03,-7.64841e-02,-4.86948e-02,-2.67458e-02,-6.06726e-02,-2.91307e-02,-1.54986e-02,8.70861e-03,-9.77406e-04,-3.56126e-02,-2.46094e-02,-4.32291e-02,1.36448e-02,-6.45251e-02,-3.59754e-02,3.36766e-03,-8.74394e-03,-4.35753e-02,2.06846e-02,-9.78340e-03,1.28235e-02,2.46311e-03,-1.95811e-02,-1.50659e-02,3.65537e-02,2.32134e-02,2.49895e-02,-2.81810e-03,2.99712e-02,-5.13636e-02,-4.19056e-02,-5.41724e-02,-1.50318e-02,2.14278e-02,3.94699e-02,-1.94910e-02,-6.34878e-02,4.17385e-02,
-2.02226e-02,
-1.96968e-02,
-1.10465e+00,
-1.35948e+00,
-9.00990e-01,
-4.87449e-01,
8.24748e-01,
2.63845e-02,
-1.63704e+00,
-1.13622e+00,
-1.22588e+00,
-4.42169e-03,
8.07399e-03,
-5.49589e-03,
1.93000e-01,
3.29253e-01,
-2.45541e-01,
9.80746e-01,
8.92489e-01,
-4.05632e-03,
-3.63723e-01,
-2.62937e-02,
-7.80469e-01,
3.09950e-01,
1.13531e-01,
-1.70390e-01,
-1.51613e-01,
-8.95212e-02,
-1.04957e-01,
-1.30102e-02,
-1.11721e+00,
1.34783e-01,
-3.77243e-01,
-2.66111e-02,
5.54705e-01,
6.40917e-01,
-4.59168e-01,
1.06594e-01,
2.06688e-01,
4.25724e-01,
8.83412e-01,
-7.70007e-01,
2.56108e-01,
-1.08195e+00,
-9.75248e-03,
-7.33051e-01,
1.72017e-01,
-8.72969e-02,
-1.13358e-02,
-1.51501e-02,
5.20678e-01,4.29412e-02,1.50638e-01,4.03102e-01,1.25898e+00,-4.19235e-01,-1.22941e-01,-3.18581e-01,-2.67867e-01,4.47480e-01,-1.49134e-01,-3.48966e-02,5.55474e-01,7.67152e-02,6.73124e-01,1.88763e-01,-6.95464e-01,4.35883e-01,2.13052e-01,-2.62633e-02,-1.47563e-01,4.83832e-03,4.27046e-01,-1.28984e+00,2.62457e-01,-3.93897e-01,3.36037e-01,-7.84062e-01,1.64117e-01,-4.30735e-02,-6.33298e-01,-3.10099e-01,4.26873e-01,-5.77187e-04,-5.86940e-01,-1.16518e-03,3.74497e-01,-2.57462e-01,2.32077e-01,-6.54380e-01,-3.37241e-01,4.28066e-01,-6.95791e-01,7.45762e-01,2.87582e-02,5.58213e-01,-5.88216e-01,1.84956e-01,-8.12789e-03,-9.60600e-03,
-5.19270e-02,1.45672e-02,-3.78504e-02,-4.62402e-02,1.25946e-02,-1.28716e-02,3.00177e-02,2.88238e-02,1.53053e-02,9.84624e-03,-3.73900e-02,2.25400e-02,-5.26134e-03,-1.96377e-02,-3.68824e-02,-8.33919e-03,-2.75113e-02,3.68109e-02,-1.15086e-02,-3.72663e-02,-3.11183e-02,5.89539e-03,1.99334e-02,9.05983e-03,-3.52619e-02,-8.07641e-03,5.95761e-03,3.14434e-02,2.66926e-02,4.31799e-03,8.01928e-03,-2.23685e-02,1.14881e-02,1.43794e-03,-7.75828e-02,-4.87650e-02,-2.87390e-02,1.09754e-03,-2.32366e-02,-5.08562e-02,3.67546e-02,6.28309e-03,-9.13548e-03,1.15697e-02,-4.75758e-02,-4.91818e-02,-4.72110e-02,-3.37568e-02,-4.53863e-02,1.52570e-02,
-8.93564e-03,1.37774e-02,-4.34530e-02,5.25859e-03,2.35952e-02,-1.47780e-02,-5.84851e-02,1.16337e-02,-2.61657e-02,-2.01506e-02,3.69896e-02,-2.09067e-02,-4.70068e-02,4.31839e-02,3.52273e-02,-3.04298e-02,-1.82102e-02,1.75731e-02,8.77914e-03,9.19113e-03,-2.84080e-02,-1.57478e-02,2.33609e-02,-1.41795e-02,-4.68040e-02,-9.88514e-03,-2.59977e-02,-4.49372e-02,-2.19652e-02,1.44827e-02,-4.66159e-02,3.23897e-02,5.93269e-03,-1.86792e-02,-5.07622e-02,-5.72650e-02,-3.06366e-02,-5.86367e-03,2.78092e-02,-1.63933e-02,-3.86225e-02,1.80088e-02,2.31029e-02,3.36082e-02,-4.77249e-02,-5.37113e-02,-3.64770e-02,-7.33768e-03,1.07306e-02,-5.01958e-04,
3.39326e-01,3.53530e-02,1.50227e-01,1.36886e+00,5.65189e-01,-5.73404e-01,1.38318e-01,-3.26220e-01,-2.28664e-01,6.84255e-01,-2.99052e-02,1.09704e-02,1.22154e+00,5.03996e-01,-7.28373e-01,-4.08528e-01,-1.64123e-01,-3.87176e-01,8.37408e-01,5.67482e-04,8.51041e-01,-2.57751e-02,9.54477e-01,1.34652e+00,-3.07886e-01,2.90911e-01,-6.90636e-01,-8.57661e-02,6.64728e-02,-1.53212e-02,9.25101e-01,-1.25638e-01,3.63321e-01,-4.60118e-02,-1.81764e+00,-1.49364e-01,-2.71879e-01,-1.08486e-01,1.84324e-01,1.40122e-01,6.16752e-01,4.56643e-01,-6.36585e-01,-1.02117e+00,-1.84681e-02,1.50779e-01,5.15075e-01,5.48348e-01,4.00098e-02,4.08258e-02,
1.05622e-01,-2.62239e-02,9.08444e-02,-4.39208e-01,4.00868e-05,-2.42538e-01,-1.15607e-01,-3.45892e-01,-2.44929e-01,2.91789e-01,-1.19100e-01,-3.40168e-02,-3.54189e-01,-2.72589e-02,8.74796e-02,2.24613e-01,4.21168e-01,2.63392e-04,-1.03751e-01,2.94190e-02,9.08219e-02,-3.99508e-02,-1.03311e-01,-3.21070e-01,6.07410e-02,2.47034e-02,3.12921e-02,-1.32259e+00,9.43102e-02,-2.20995e-02,-4.60609e-01,-2.57635e-02,-1.04880e+00,1.44635e-02,-6.59336e-01,1.85029e-01,-1.04895e+00,-4.46663e-01,2.10753e-01,5.46873e-01,1.51336e-01,7.08125e-01,-2.38750e-01,7.10275e-01,2.08416e-02,1.02533e-01,-3.23656e-01,2.02897e-02,3.40080e-02,-2.19078e-02,
-1.48640e+00,-4.39601e-02,-1.91341e-02,9.93994e-01,5.47750e-01,4.39820e-01,3.06761e-01,-5.08326e-01,-8.17779e-01,1.80873e-01,-1.41513e-02,-4.11001e-02,1.84450e-01,9.75691e-02,-5.06926e-01,2.09598e-01,-1.96773e-01,2.46890e-01,1.79447e-01,-2.29344e-02,4.82476e-01,-5.01470e-02,3.04231e-01,5.14146e-01,-4.79239e-02,1.57095e-01,4.01786e-01,-8.24203e-01,-3.21847e-01,-3.93838e-02,-1.08220e-01,2.03829e-01,-2.98033e-01,-2.24289e-02,-1.41482e-01,2.51949e-01,7.36435e-01,3.34937e-02,4.00862e-02,-7.99351e-02,2.24302e-01,-2.06034e-01,-3.34758e-01,1.85247e-01,6.95231e-03,-4.37008e-01,-6.31934e-01,1.45161e-01,1.53086e-02,-5.54180e-03,
-2.94588e-02,-4.81856e-02,-1.91193e-01,4.08423e-01,-4.02827e-01,4.66982e-02,-5.77624e-02,3.65934e-02,3.51503e-02,1.29368e-01,-1.40282e-01,4.76268e-02,-3.45046e-01,2.28800e-01,1.35009e-01,3.57353e-01,-8.42044e-03,-5.41974e-02,6.54031e-02,4.79900e-02,-6.79185e-02,-3.68634e-02,1.36075e-01,-1.64044e-01,-4.17565e-01,-2.57632e-01,1.82175e-01,1.06701e+00,-1.83096e-01,-4.89292e-02,5.12141e-03,2.67885e-01,-1.55499e-01,-2.33193e-02,-3.49944e-01,-1.74030e-01,5.77257e-01,-1.40890e-01,-2.79812e-02,8.66603e-02,2.52625e-02,-3.79602e-01,2.85289e-01,-2.03374e-01,1.93321e-02,4.50956e-01,-2.91198e-01,1.44798e-02,-4.50523e-02,-4.14980e-03,
1.63234e-01,-1.43186e-02,-8.69969e-01,1.09498e+00,-9.04237e-02,-4.13707e-01,1.31936e+00,-5.05538e-01,-5.29033e-01,7.72262e-03,1.44470e-01,4.72533e-03,9.75458e-02,-6.87382e-01,-4.12665e-01,3.66728e-01,3.11594e-01,-5.00136e-02,-4.79902e-02,4.61684e-02,-3.56766e-02,-6.94155e-03,1.45202e+00,6.77680e-01,2.99649e-01,6.27556e-01,-1.22709e+00,-2.72472e-01,6.60959e-01,-3.28693e-02,-1.53192e+00,2.46846e-01,5.50878e-01,-1.08548e-02,8.83955e-01,1.26454e-02,-2.21521e-01,-1.15483e+00,-1.07898e+00,3.85186e-01,-5.20606e-01,-7.20406e-02,-7.87354e-01,-8.06262e-02,3.45563e-02,-5.02603e-01,9.38285e-01,6.73547e-01,3.50441e-02,-1.50706e-03,
-1.32337e+00,2.74478e-02,-1.21073e-03,-2.46846e-04,-1.06771e-01,7.36718e-02,-9.98506e-02,-4.06145e-02,-4.04857e-02,2.51365e-03,5.32079e-03,4.81987e-03,3.66549e-02,8.88851e-02,-9.37323e-03,1.14956e-01,9.49164e-02,-4.24872e-02,-9.21711e-02,3.49797e-02,-1.16475e-02,3.87861e-02,-3.56466e-02,-3.29227e-02,-1.95980e-02,3.89933e-02,-1.61009e-02,1.98833e+00,-1.53768e-01,-1.82321e-02,-1.17982e-01,1.03956e-02,-1.23508e-01,7.62959e-03,-1.46046e-01,1.25472e-02,1.08572e+00,-2.45982e-02,-2.75158e-01,-1.12865e-02,3.87382e-02,4.74240e-02,-1.65591e-02,1.06337e-02,-4.24361e-02,-1.64799e-01,-2.62993e-02,6.27113e-02,4.07507e-03,4.45224e-02,
-3.86844e-01,-3.04249e-02,1.57349e-01,-6.58534e-01,5.99261e-02,6.90571e-02,-2.21439e-01,1.78302e-01,5.66059e-01,-3.74800e-01,8.87960e-02,5.75400e-03,2.01710e-01,-1.17962e-02,2.30603e-01,-6.65328e-01,-6.41992e-03,-1.28775e-01,-7.52924e-02,1.87142e-02,1.49749e-01,3.72280e-02,6.77226e-01,-2.67534e-01,7.75878e-02,-8.67873e-01,5.42086e-01,1.02492e-02,-3.95745e-01,-1.56013e-02,1.92837e-01,-1.21553e-01,-9.51728e-01,3.62366e-02,-4.04146e-02,-2.27974e-02,3.59911e-01,-1.93982e-01,6.43634e-03,8.26223e-01,1.78551e-01,-1.54110e-01,-1.58381e-01,2.52037e-01,1.83382e-02,4.53644e-01,1.31780e-01,9.34929e-02,2.32847e-02,-5.40566e-02,
-2.23482e-02,-5.81438e-03,-3.18256e-02,-3.56836e-02,-1.42508e-03,-3.36271e-02,-2.05314e-02,2.82616e-02,-1.61316e-02,-4.30058e-02,-5.00401e-02,1.30218e-02,3.52704e-02,-2.86304e-02,-3.26667e-02,1.31677e-02,-5.52811e-02,-2.80730e-02,-2.69358e-02,3.70714e-03,2.96955e-02,1.34757e-02,4.78019e-02,1.44630e-02,1.39398e-02,-2.05365e-02,-1.61541e-02,3.47395e-02,1.23130e-02,4.61725e-02,-1.71105e-04,1.59998e-02,-3.24720e-02,-2.88340e-03,-5.02708e-02,-2.85329e-03,-3.62183e-02,3.28170e-02,-3.05678e-02,1.85262e-03,-4.59694e-02,-2.54393e-02,1.79063e-02,2.53163e-04,-3.21763e-02,2.03835e-03,-4.82151e-02,2.12217e-03,2.40553e-02,7.73867e-03,
-3.72911e-01,-1.70569e-02,-1.79993e-01,1.02607e-01,4.46315e-01,2.31683e-02,-3.32304e-03,-1.10021e-01,2.60204e-02,-2.88432e-01,6.40015e-02,-3.39881e-04,-4.06008e-02,-6.78477e-02,3.19909e-01,2.24751e-02,-1.72116e-01,9.85166e-02,4.63058e-01,5.51977e-02,-2.01133e-02,2.16198e-02,6.68726e-01,-2.47436e-01,8.53844e-01,-1.52411e-01,6.87038e-02,1.01432e-01,-3.62926e-01,2.63032e-03,3.52457e-01,-1.50883e-01,4.36194e-01,-7.48190e-03,-2.47713e-01,-2.38216e-01,4.60254e-01,2.88485e-01,8.80814e-02,-4.06252e-01,-7.04980e-01,1.48435e-01,-2.37606e-01,3.36348e-01,4.33080e-02,-2.99985e-01,7.13980e-02,1.47363e-01,-9.48033e-03,1.10894e-02,
-1.24242e-01,3.34235e-02,1.00179e-01,-1.68820e+00,6.81406e-01,6.41887e-01,5.34731e-01,3.02538e-01,-5.00406e-01,7.53843e-01,-3.18748e-01,-1.77692e-02,8.30194e-02,3.45555e-01,-4.40489e-01,-1.04291e-01,6.24348e-01,-2.92122e-01,-4.22665e-03,4.49517e-03,5.02662e-01,4.18758e-02,-3.53365e-01,1.41930e+00,3.45028e-01,-2.62923e-01,4.71765e-01,3.64744e-01,-2.67584e-01,-1.53766e-02,8.03746e-01,2.12329e-01,6.01470e-01,-4.48022e-03,-2.84151e-01,6.84527e-02,-7.66607e-01,2.04378e-01,9.12488e-03,2.42396e-02,3.16665e-02,3.47204e-01,-2.66964e-01,9.28527e-02,2.75113e-02,-1.19310e-01,5.24735e-01,-3.75827e-01,-2.26252e-03,-2.41863e-02,
-6.80242e-01,1.24174e-02,1.08958e-01,-2.11400e-01,-1.16332e-01,-1.66447e-01,1.01933e-01,-5.07417e-01,1.04542e-01,3.29947e-01,1.23413e-01,3.12738e-02,-3.90196e-02,-2.35333e-01,-9.73633e-02,1.49500e-01,2.84942e-01,2.63416e-02,-1.84043e-01,-5.01163e-02,2.37489e-02,2.96571e-02,-7.72134e-01,9.83530e-02,-1.16863e-01,2.67546e-02,-1.83881e-01,8.67343e-02,-3.33115e-02,1.60610e-04,-1.07611e-01,-8.15591e-02,-2.66455e-01,1.64846e-02,3.89823e-02,1.52439e-01,-4.37632e-01,1.43620e-01,1.30008e-01,1.51170e-01,-8.10532e-02,5.49511e-02,3.34377e-01,-1.56798e-03,1.73231e-02,-4.08165e-01,3.15809e-02,-3.22092e-01,-4.73601e-02,2.07190e-02,
3.51488e-01,-7.65449e-03,-3.13618e-01,-1.46856e+00,-1.21383e+00,-4.57098e-01,-5.00305e-01,-4.62880e-01,-1.47858e-02,-8.39399e-01,4.26907e-01,-1.23524e-02,-6.16414e-01,5.02199e-02,8.95238e-02,-5.03492e-01,5.83394e-01,-1.07634e-01,-4.79465e-01,-3.54826e-02,3.17103e-01,-1.53912e-02,-4.31196e-01,-1.80372e-01,1.11288e-01,5.42328e-01,-7.95661e-02,1.16405e-01,5.11154e-01,2.26891e-02,-7.96574e-02,-2.36365e-01,-1.47872e+00,1.11090e-02,-1.27303e+00,6.79288e-01,-1.28402e+00,-1.14228e+00,4.09247e-01,7.94066e-03,-7.99963e-02,2.07645e-01,-4.80909e-01,-1.17220e+00,2.45511e-03,-1.65123e-01,4.48196e-01,-2.68777e-01,1.28195e-02,-3.72246e-03,
-2.14777e-02,-4.20185e-02,1.26694e-02,3.27392e-02,1.14198e-02,-2.85425e-02,2.09425e-02,-2.21731e-02,-4.66815e-03,2.93720e-02,1.50755e-02,8.05883e-04,-1.50725e-02,-5.27897e-02,-4.92262e-02,-3.20081e-02,-3.25823e-02,7.68709e-03,-4.55505e-02,-1.52257e-02,-2.43950e-02,-9.56379e-03,8.42163e-03,-2.43714e-02,-5.37728e-02,1.67547e-02,-2.86453e-03,-6.00245e-02,-4.11258e-02,-4.28819e-02,-2.21425e-02,1.18340e-02,2.58454e-02,-4.42700e-02,-6.15374e-02,2.95250e-03,1.55604e-02,-1.34342e-02,-6.13355e-03,-2.48519e-02,-1.06097e-03,-2.76037e-02,1.61457e-02,-5.09768e-02,1.88787e-02,-5.76352e-02,-4.03931e-02,-5.09802e-03,-3.93723e-02,-3.44156e-02,
-7.53775e-01,1.57144e-02,-4.24665e-01,-1.34321e-01,4.71208e-01,2.11226e-02,2.28632e-01,-1.42269e-01,8.56082e-01,-3.73258e-01,-2.87399e-01,3.37895e-02,2.97751e-01,1.22390e-01,3.86601e-01,2.87060e-01,-6.30752e-01,2.66487e-02,2.16632e-01,1.63300e-02,1.62841e-02,4.01379e-02,-2.85129e-01,2.90683e-01,9.47338e-01,-1.91956e-01,1.40931e-01,2.05457e-01,-3.95305e-01,-2.99325e-02,-1.55100e-01,7.36017e-01,2.55705e-01,3.93037e-02,2.32274e-01,-1.03728e-01,-4.83817e-01,-5.44150e-01,2.58519e-01,-2.73232e-01,6.26882e-02,-2.02131e-01,-5.61245e-01,-2.87149e-02,-3.43290e-02,1.81525e-02,-1.53823e-01,-3.03068e-01,-8.87020e-03,3.48382e-02,
-2.14161e-02,2.94119e-02,3.70727e-01,4.73174e-01,2.29995e-01,5.26992e-02,1.90931e-02,-2.62282e-01,-1.92878e-02,-1.85008e+00,-4.08537e-01,-3.74946e-02,-4.07705e-01,-1.70901e-01,3.28176e-01,-7.04550e-02,-2.66029e-02,-1.07827e-01,1.87351e-01,1.95524e-02,-1.97869e-01,4.26513e-02,-1.25250e+00,-9.77054e-02,-9.52201e-01,-3.14795e-01,2.00061e-01,1.63494e-01,3.13413e-01,-1.66679e-02,-2.45774e-01,-4.59512e-02,8.86845e-01,-3.50770e-02,-4.84426e-01,-2.16386e-01,2.61956e-01,2.09077e-01,5.28827e-01,7.16569e-02,-3.23731e-01,-1.07018e-01,3.27573e-01,-1.20153e-01,4.55674e-02,1.42599e-02,1.56447e-01,1.25384e-02,8.22525e-03,-4.73400e-02,
5.57655e-01,1.69680e-02,-2.33534e-01,-8.05838e-01,-7.41759e-01,-1.04552e-01,2.68416e-01,-4.98748e-01,2.88130e-01,-2.15645e-01,5.95736e-01,2.66065e-02,-3.03343e-02,1.81103e-01,1.69327e-01,-2.70567e-01,2.96505e-01,4.46518e-02,-2.82849e-01,-2.88739e-02,3.91922e-01,-9.82327e-03,-7.21494e-01,-3.42934e-02,2.07638e-01,1.01808e-01,-4.25789e-01,5.11776e-01,-2.18129e-01,-1.27334e-02,-2.72895e-01,-4.87784e-01,-5.12362e-01,-2.86753e-02,8.14928e-01,3.78606e-01,-7.52481e-01,-3.87810e-01,-5.69304e-01,-3.38777e-01,1.91607e-03,-9.12545e-02,-7.74091e-01,-1.63050e-01,-3.21417e-02,-2.71949e-01,2.07777e-01,8.73848e-01,3.83948e-02,4.21752e-02,
-6.43690e-01,-2.12006e-02,6.17355e-02,-1.68366e-01,1.76093e-01,-1.04782e-01,-1.94548e-01,2.02588e-01,1.08878e-01,-1.44254e-01,-1.16667e-01,3.63394e-02,8.95543e-02,2.80187e-02,3.18626e-01,-3.67840e-02,-2.09211e-02,-5.55341e-03,-1.05530e-01,1.88367e-02,-5.85656e-02,3.57670e-03,1.24910e-01,-8.66239e-02,1.74736e-01,3.78692e-02,-2.16550e-01,1.23742e+00,1.70172e-01,9.70304e-03,2.36382e-01,4.66986e-02,2.74331e-01,-5.02187e-02,1.33031e-02,-1.09306e-01,5.36595e-01,-1.51965e-01,-1.08757e-01,-4.59795e-02,-2.12967e-02,-2.77874e-01,-2.26325e-01,-1.05316e-01,1.53896e-03,-2.36298e-01,2.48089e-01,3.95529e-01,-3.27514e-02,-2.25868e-02,
8.86160e-01,-3.27006e-02,-1.41464e-01,4.41014e-01,-2.56901e-01,3.16402e-01,5.15757e-01,-2.91108e-01,-4.08151e-01,1.37581e-04,1.26525e-01,3.01005e-02,-1.42801e-01,-7.04431e-02,-5.95779e-01,2.05506e-01,5.94594e-02,3.71224e-02,6.08014e-01,1.05566e-02,4.62693e-01,-3.30936e-02,3.05869e-01,3.84751e-01,-1.67857e-01,5.02992e-02,8.58514e-02,-9.14207e-01,2.98664e-03,-1.77657e-02,-2.41412e-01,-2.65620e-02,-6.53696e-01,-3.46973e-03,2.10603e-01,2.06629e-01,-3.71016e-01,3.58050e-01,-4.48051e-01,3.99118e-02,-5.01557e-02,-1.91242e-01,1.24574e-01,3.54538e-01,1.45778e-02,2.24653e-01,-2.86037e-01,-2.48279e-01,-8.24482e-03,1.11153e-02,
3.63713e-01,-4.93795e-03,-7.12497e-02,1.72271e-01,9.47368e-01,5.03622e-01,-2.15185e-01,8.15784e-01,-1.58381e+00,-2.12411e-01,-2.33782e-01,-2.76225e-02,-4.41512e-01,6.78624e-01,4.22835e-01,-8.02627e-01,-2.93423e-02,2.11973e-01,-5.93704e-01,4.61242e-02,7.83060e-01,2.28657e-02,-1.07728e+00,1.21788e-01,-1.45523e+00,9.05153e-01,1.13655e+00,-7.33264e-01,4.25242e-02,-3.78464e-02,2.56288e-01,2.56620e-01,8.03104e-02,-3.39352e-02,-3.52635e-01,-2.32193e-01,4.97253e-01,-4.67289e-02,-2.05890e-01,-4.09818e-01,-9.11091e-01,3.80589e-01,-8.29994e-01,1.31948e+00,2.07052e-02,5.21949e-01,-7.74435e-02,-4.12635e-02,-2.48431e-02,-2.51242e-02,
-2.05109e+00,9.16057e-03,9.20486e-02,-6.20004e-02,-3.74016e-01,5.55327e-01,1.10899e-01,-8.36324e-02,-3.87292e-01,5.09576e-01,2.84089e-01,-3.94575e-02,-8.81521e-01,-1.62818e-01,-7.99540e-02,6.75587e-01,4.19807e-01,-1.76745e-01,1.38353e-01,-3.35676e-02,8.16873e-01,2.94811e-02,1.07698e+00,2.10803e-01,-4.64481e-01,2.56822e-01,-1.93428e-01,-1.04687e-01,-1.18301e-01,3.04979e-02,-6.71730e-01,-1.78743e-01,7.80192e-02,-4.16200e-02,3.86871e-02,2.15252e-01,-2.34276e-01,-4.33108e-02,3.27352e-01,1.17144e-01,-5.23679e-04,1.28407e+00,4.44223e-02,1.08644e-01,2.30838e-02,-1.61465e-01,-1.39184e-01,-1.67347e-01,-6.57761e-03,-3.64666e-02,
2.03771e-01,-3.30924e-02,2.09586e-01,-9.26586e-01,5.80909e-01,9.99700e-01,-1.93786e-01,4.69393e-01,-4.43967e-01,1.21237e+00,4.87487e-01,1.96626e-02,-1.55598e+00,7.04075e-01,-1.54250e+00,3.21026e-01,-1.66380e+00,-7.66856e-01,5.88702e-02,-8.84265e-03,-2.00008e-01,-2.16437e-02,2.28201e+00,2.07022e+00,1.44702e-01,-1.12045e-01,6.44178e-01,-4.40853e+00,2.23790e-01,-2.20369e-03,-2.01848e-01,-2.48879e+00,-3.36617e-01,-5.25326e-02,4.13639e-01,5.20055e-01,-2.35136e-01,-6.37680e-03,-1.59929e+00,-8.64415e-02,6.72588e-03,-4.28936e+00,1.27484e-01,7.25463e-02,2.83587e-02,4.56278e-01,-1.99420e-01,-3.74492e-01,-6.31362e-04,-1.90150e-02,
1.01833e+00,2.81526e-02,-9.46210e-01,-7.73914e-01,-1.77830e+00,-1.41934e+00,-9.72040e-02,-1.69170e+00,-7.05952e-01,-2.18725e+00,2.03167e+00,-5.04226e-02,5.09848e-01,-1.53715e-01,-2.77250e-01,3.88637e-01,3.63996e-01,1.12478e+00,1.03955e+00,1.85015e-02,-5.99526e-01,2.36473e-02,2.08832e+00,-2.66454e+00,-4.94646e-01,4.53099e-01,-6.51174e-01,-1.73160e+00,-1.72157e-01,-4.17859e-02,-1.57469e+00,-9.86188e-01,-2.67927e+00,1.38813e-02,-2.22723e+00,1.06473e+00,-1.34417e+00,-1.91232e+00,-1.75030e+00,-3.15493e-02,1.22780e+00,-2.33900e-02,-1.20519e+00,-3.66994e+00,5.74546e-03,2.08557e-01,-1.35225e-01,-8.49192e-01,2.06479e-02,-9.15585e-03,
2.37550e-01,-2.51826e-02,7.78036e-02,5.88515e-01,5.49491e-01,1.99330e-01,-2.74639e-02,-7.58740e-01,4.29623e-02,1.32340e+00,-1.66820e-01,-4.72193e-02,-1.07597e-01,1.73394e-01,5.48859e-01,-8.05276e-01,-6.23473e-02,2.44668e-01,-6.07511e-01,-2.13261e-02,-2.11255e-01,1.02865e-02,-8.53529e-01,-2.46156e-01,6.31215e-01,2.74888e-01,1.94433e-01,4.88753e-02,-5.18836e-02,3.18450e-02,-1.18687e-01,4.17230e-01,-2.77504e-01,3.39204e-02,-4.46808e-01,1.12313e-01,2.10293e-01,3.32363e-01,-1.40675e-01,-4.31879e-01,1.50227e-01,-1.17541e-01,5.07149e-01,-1.50358e-01,1.76228e-02,4.71091e-01,-1.58424e-01,-3.00671e-01,1.03495e-02,4.19215e-02,
-1.12452e+00,5.08130e-02,6.36386e-01,-6.81448e-02,-1.98672e-01,-3.95274e-01,-1.70793e-01,-3.62630e-01,8.98975e-01,1.04107e+00,6.74521e-01,1.69294e-02,-3.51002e-01,6.46746e-01,-2.24659e-01,3.35920e-01,1.19573e-01,1.84955e-01,4.97344e-01,2.09474e-02,-5.60126e-02,-8.77039e-03,5.47001e-01,-8.77692e-01,-1.74389e+00,6.33081e-01,-5.08923e-02,7.08851e-02,4.22476e-01,-2.57551e-02,2.53205e-01,-5.76769e-01,-1.05573e+00,-4.42848e-02,-4.07691e-01,-5.11122e-03,3.19634e-01,1.28744e+00,9.36408e-01,-1.81998e-01,1.11689e+00,8.51862e-01,5.19377e-01,-4.17019e-01,1.76890e-02,4.35351e-01,9.62007e-01,-1.92884e-01,3.80329e-02,9.95995e-03,
-2.42426e-01,4.19722e-02,8.57943e-01,-1.98793e+00,-4.08483e-02,-1.37338e+00,-1.60518e+00,-1.14824e+00,-2.46798e-01,-7.81884e-01,-5.99734e-01,-1.66135e-02,-5.75098e-01,-4.47513e-01,-9.15992e-01,7.54496e-02,-1.55139e-01,1.53727e-01,8.89220e-01,4.25188e-03,5.64961e-01,-2.55498e-03,-6.45614e-01,-1.00556e+00,3.54922e-01,1.01915e-01,-4.77925e-01,5.70759e-01,4.01968e-02,-3.03292e-03,-6.48527e-01,-4.67329e-01,-1.18608e-01,-4.41787e-03,4.18873e-01,-1.01477e-01,-2.72195e-01,1.03273e+00,1.57777e-01,-7.50807e-01,1.44683e+00,1.32828e+00,-1.39904e-01,-1.73429e+00,-2.49537e-02,-1.16116e-01,1.01866e+00,-1.60268e-01,1.48883e-02,-3.06834e-02,
-9.73989e-01,2.47014e-02,-3.34992e-01,-4.96404e-01,-1.15584e-01,1.40799e-02,-8.21918e-02,5.51707e-01,2.12146e-03,-1.97769e-01,-2.75822e-01,-1.72546e-02,-6.94676e-01,-6.71066e-02,-1.14449e+00,-4.27846e-02,5.15453e-02,5.05573e-02,-5.01154e-01,4.86002e-02,2.03091e-01,9.63753e-03,-2.46257e+00,-2.37679e-01,-2.41032e-01,2.82698e-01,-1.15602e-01,2.26547e-01,-2.21167e-01,2.21887e-02,4.75305e-01,3.89263e-01,6.15335e-01,1.69116e-02,-1.14583e+00,-9.32012e-02,-4.42168e-01,-1.07849e+00,1.35793e-01,7.66572e-01,-3.81370e-01,3.88251e-01,-2.03673e-02,2.03026e-01,2.62976e-02,-1.28530e-01,2.86215e-01,-4.61973e-02,-8.16046e-03,-4.86759e-02,
-1.06896e-02,-2.22061e-02,-2.09168e-03,4.32305e-02,4.11519e-02,5.50134e-03,2.61129e-02,1.94579e-02,2.04622e-02,-4.08723e-02,9.49991e-03,3.67017e-02,2.04490e-02,-3.71463e-02,-4.11353e-02,-4.73723e-02,-2.18305e-02,2.55351e-03,-4.73492e-02,3.26377e-02,8.22589e-03,-4.12052e-02,-4.68334e-02,2.15642e-02,-3.79640e-02,-5.65828e-03,-1.21985e-02,-5.12533e-02,3.66936e-02,1.53578e-02,1.63082e-02,-2.00465e-02,2.91498e-02,1.56170e-02,-2.73539e-02,-3.75350e-02,1.41008e-02,-2.41580e-02,-3.09731e-02,-3.01738e-02,-3.18646e-02,4.03577e-02,-3.60488e-02,-3.85707e-02,1.72436e-02,-4.84559e-02,1.07606e-02,-1.62192e-02,-4.36815e-02,-1.73211e-02,
3.54856e-01,2.98814e-03,3.18305e-01,-1.30825e+00,-6.04706e-01,5.12104e-01,-5.86513e-01,-6.37675e-01,-3.27051e-01,-1.14986e+00,-3.26982e-01,-3.29308e-03,-4.42896e-01,-1.39867e-01,5.31310e-01,9.85066e-02,3.98451e-01,-4.96493e-02,-1.51160e-01,3.52591e-02,-7.41437e-01,-1.73171e-02,-1.25121e+00,-1.34718e-01,-9.72001e-01,2.15768e-01,2.59320e-01,-2.44946e-01,2.32486e-01,1.41270e-02,2.39776e-01,7.64970e-03,-2.47894e-01,1.72877e-02,1.78163e-01,-2.36250e-01,1.36898e-01,5.21036e-01,-8.32972e-01,1.09313e-01,5.49358e-01,1.16176e-01,1.30586e-01,-1.64021e+00,1.86038e-03,7.58172e-02,2.64786e-01,-8.85455e-01,3.44150e-02,3.85123e-02,
5.94726e-01,-2.87652e-02,6.38193e-01,4.08127e-01,-1.97101e-01,1.84541e-01,-1.31437e-01,6.28302e-01,-5.00803e-01,-1.20327e-02,-2.62370e-01,-5.25130e-03,-1.59461e-01,1.74323e-01,4.35453e-01,3.91968e-02,7.91414e-02,7.49139e-02,-3.68689e-01,2.14733e-02,-3.31993e-02,1.02939e-02,-2.34561e-01,4.20799e-01,-1.10422e+00,1.19718e-01,2.45884e-01,5.91781e-02,7.04486e-02,-2.14383e-02,2.17003e-01,3.80083e-01,7.01509e-01,4.06512e-02,-6.42381e-01,2.07436e-01,-2.49208e-01,5.07030e-02,-5.04712e-01,3.97029e-02,5.65032e-02,-1.18439e-01,3.23905e-01,4.96696e-01,-4.27743e-02,1.75022e-01,3.76391e-01,5.83072e-02,4.16349e-02,-3.23587e-02,
-1.21690e-01,-2.09667e-02,-1.23200e-02,-8.15686e-01,-3.97444e-03,-1.55981e-01,7.59332e-02,-1.43409e-01,5.96634e-02,-3.68476e-01,-1.66028e-01,4.52061e-02,8.88039e-02,-9.77626e-02,-3.03245e-01,1.15199e-01,6.33532e-02,2.57143e-01,4.41042e-01,1.54901e-02,-2.18321e-01,-3.31941e-02,-4.74197e-01,-9.89320e-01,3.21670e-01,4.16776e-01,-1.37428e-01,-1.57764e-01,-6.09842e-01,-2.41149e-02,-6.27194e-01,-1.72775e-01,1.08816e+00,1.44848e-02,1.83624e-01,-6.02082e-01,1.36215e-01,1.16312e-01,-4.27720e-01,-1.03538e-01,2.94196e-01,-1.46220e-01,-1.72557e-01,-8.78594e-01,3.54372e-02,-2.15295e-01,7.60199e-02,3.99483e-02,1.39756e-02,2.91771e-03,
-5.49432e-02,-7.32597e-05,-1.87544e-01,-2.50019e-01,2.68263e-02,3.67026e-01,1.02038e+00,1.06175e-01,8.74432e-01,-3.90175e-01,-8.29922e-02,5.48332e-03,-5.57535e-01,1.12018e-01,7.51680e-01,1.39913e-02,1.57482e-03,-5.55965e-02,-2.34061e-01,-3.67441e-02,-7.09804e-03,-3.07881e-03,1.56213e+00,-4.05176e-01,-4.23095e-02,2.95104e-01,5.18029e-01,9.53697e-01,-1.18806e-01,2.71074e-02,1.79813e-01,-1.22977e-01,3.69047e-01,9.59057e-03,-6.62196e-01,-3.76078e-01,1.14318e-02,-8.04492e-03,-4.61070e-01,8.50897e-02,-4.26849e-01,7.33392e-02,1.50577e-01,1.01097e-02,9.45291e-03,6.61828e-01,3.34009e-01,-1.91940e-01,-1.24866e-02,-1.83747e-02,
-3.85117e-02,3.37642e-02,-4.85387e-02,3.36273e-02,2.13797e-02,2.66306e-02,-3.27562e-02,-4.35893e-02,2.85099e-02,-2.11312e-02,2.92848e-02,-3.47876e-03,-2.56442e-02,-7.08684e-03,-2.81240e-02,-2.90542e-02,-2.12984e-02,-1.22395e-02,-6.17938e-03,-5.61832e-03,1.14455e-02,-9.56847e-03,-8.48849e-03,-2.91534e-02,1.85646e-02,-3.73056e-02,-8.96570e-03,1.34763e-02,-3.03823e-02,-1.77208e-02,-2.09256e-02,-1.87463e-02,-2.12588e-02,-1.37633e-03,2.79055e-02,-1.67552e-02,-2.86960e-02,2.86591e-02,-5.46433e-02,-5.89454e-02,-3.21455e-03,-4.87714e-02,-1.08034e-02,9.58270e-03,1.75598e-02,-5.36319e-02,-3.10972e-02,2.94314e-02,1.24479e-02,8.08972e-03,
2.77669e-01,2.89254e-02,1.46044e-01,9.89055e-01,-4.04495e-01,6.18636e-03,4.44180e-02,-2.51822e-01,-4.72634e-01,6.46254e-02,-6.45856e-02,-3.46253e-02,2.86598e-01,2.40763e-01,-1.01051e+00,-3.91869e-01,-6.21939e-01,-3.21063e-02,-3.71467e-02,-4.19943e-02,-6.48694e-02,-2.01194e-02,-4.87403e-01,2.48600e-01,-5.61085e-01,-3.13356e-01,2.00767e-01,-6.13921e-01,7.69182e-02,-4.10989e-02,2.98961e-02,-6.31147e-01,-1.39826e+00,-4.29459e-02,6.47186e-01,2.89854e-01,5.17716e-01,4.36223e-01,-1.29271e-01,3.72478e-01,7.43702e-02,1.27095e-01,-3.28005e-01,-7.24577e-01,-1.07524e-02,-3.40588e-01,-5.83314e-01,4.03555e-01,-2.77768e-02,4.16735e-03,
6.50143e-01,-1.68229e-02,9.79799e-01,-2.85813e-01,7.69031e-01,3.69571e-01,-4.30403e-01,1.55103e-01,-1.18134e-01,-3.46702e-01,-3.46281e-01,7.78112e-03,-8.88978e-01,-3.94406e-01,-3.33468e-01,-5.08839e-01,4.17182e-01,-1.83069e-01,-1.20598e-01,2.44371e-02,1.45928e+00,-1.86308e-02,-3.23075e-02,-2.77718e-01,7.86633e-01,5.65879e-01,1.81586e-01,2.87258e-01,-5.25284e-03,1.49586e-02,1.03785e+00,-3.46983e-01,5.08781e-01,2.06805e-02,-3.87961e-01,-5.85897e-01,-3.23641e-01,5.34193e-01,-2.42667e-02,-5.79674e-01,1.85054e-01,3.59272e-01,-6.31088e-02,-1.11021e+00,1.30578e-02,1.37364e-01,4.27260e-01,-3.86176e-01,-4.23004e-02,-3.17605e-02,
2.88197e-01,-1.07907e-02,3.74087e-01,4.00739e-01,2.10802e-01,5.26217e-01,-2.03595e-01,1.06103e-01,-1.84706e-01,7.05468e-01,-5.69288e-01,1.66705e-02,-1.19636e-01,-3.47746e-02,7.99175e-01,-5.42600e-01,-4.13984e-01,-1.05904e-01,-2.31320e-01,3.79506e-02,6.35487e-01,-1.84854e-02,3.65205e-02,-4.68089e-01,-2.26541e-01,3.78209e-01,2.54738e-01,2.55609e-01,3.81327e-01,2.84327e-03,1.30831e+00,1.69217e-01,7.76475e-01,-9.84482e-03,-1.29499e+00,-3.86723e-01,-4.06458e-01,-3.85011e-01,1.88647e-01,-1.41963e+00,-4.61514e-01,4.59146e-01,-5.27099e-01,7.82819e-01,-1.23306e-02,2.72193e-01,-1.31104e-02,2.11070e-01,-4.26838e-02,4.73546e-02,
-6.08392e-02,-2.26998e-02,-2.22177e-02,2.15027e-02,-1.52937e-02,-3.24084e-02,-1.41794e-02,2.40943e-02,3.81318e-02,3.24504e-02,-4.32581e-02,8.74445e-03,-3.44324e-02,-4.41556e-02,3.98166e-02,1.73411e-02,-3.86500e-02,-2.68893e-02,3.33023e-02,1.39176e-02,1.65429e-02,4.75646e-02,2.66922e-02,1.00520e-02,-4.13113e-02,-4.08265e-02,-5.31871e-02,-3.39729e-02,6.72734e-03,-3.90921e-02,2.70825e-02,-1.23705e-02,-5.72000e-02,2.98600e-02,-5.08317e-02,5.83823e-03,-1.35925e-02,-4.75437e-02,-4.55681e-02,-1.48231e-03,-1.72050e-02,-1.36629e-02,2.98810e-02,-3.42612e-03,-2.11437e-02,3.46826e-02,-2.06492e-02,-3.13855e-02,-3.41870e-02,-4.02450e-03,
-1.68770e-01,2.92479e-02,-5.04803e-01,1.10222e+00,1.46077e-01,4.87915e-02,1.45977e-01,-4.91967e-01,4.89226e-03,-2.70799e-01,1.71883e-01,2.17164e-02,3.63251e-01,-2.70877e-01,-6.12798e-01,2.21033e-01,6.37557e-01,2.25883e-01,1.09773e-01,-1.08145e-02,3.13574e-01,-3.02428e-02,8.61067e-01,7.55574e-01,4.06535e-01,-7.02185e-04,-2.12854e-01,2.21971e-01,2.06036e-01,-3.66247e-03,-1.59415e-01,3.20378e-01,-7.78653e-01,3.66706e-02,2.75356e-01,5.37474e-01,2.72718e-01,1.57870e-01,-5.44459e-01,2.14614e-02,4.11040e-01,1.75704e-01,1.32179e-01,7.79070e-01,-2.73635e-02,-3.56925e-01,-3.73396e-01,-1.77856e-01,-5.26856e-02,-4.48776e-02,
-6.05143e-01,-1.45646e-02,7.29224e-01,-8.78550e-01,-5.54294e-01,-1.43205e-01,-1.39466e+00,9.20041e-01,4.58833e-02,1.14090e-01,-8.65226e-01,-3.82195e-02,1.51288e+00,3.62937e-01,-6.53123e-01,-4.03940e-01,9.19185e-02,1.21427e-01,-1.14649e+00,-3.89992e-02,2.94495e-01,3.91845e-02,6.08291e-02,-1.11806e+00,4.03912e-01,2.58824e-02,7.24669e-01,-9.80570e-01,-2.72047e-01,-2.55141e-02,4.46271e-02,-3.52957e-01,-3.53555e-01,1.01876e-03,-1.01516e+00,1.35627e-01,1.24232e+00,-3.78628e-01,-3.26854e-01,7.54842e-01,6.28981e-01,6.85376e-01,5.83198e-01,-1.85305e-01,4.16246e-02,-2.22207e-02,-3.20079e-01,-5.00782e-01,2.48975e-02,4.20197e-02,
7.15733e-02,-5.96960e-03,2.36077e-02,-9.82473e-02,-4.81905e-01,-8.52316e-03,2.18232e-02,-1.82863e-01,2.06356e-01,5.52490e-01,-2.48477e-01,-4.28570e-02,-3.27673e-01,-7.61702e-02,9.37868e-02,-7.80244e-02,-1.16714e-01,-3.68046e-01,1.58318e-01,1.95367e-02,-8.61535e-01,5.23014e-02,2.76969e-01,4.17525e-01,2.49445e-02,-2.04631e-01,-3.43419e-01,3.82195e-01,-3.09258e-01,1.85157e-03,1.83370e-02,3.84463e-01,3.32410e-01,-2.89510e-03,5.21465e-01,-2.48812e-01,1.71182e-01,-1.59967e-02,3.66981e-01,4.32102e-02,-2.79920e-01,1.30416e-01,1.17414e-01,2.05987e-01,-4.76383e-03,-2.86354e-02,1.09050e-01,1.78798e-02,1.63031e-02,-3.14298e-02,
1.75267e-01,-4.41495e-02,1.97400e-01,-6.59163e-01,-5.54701e-01,-5.34320e-02,-3.09407e-01,5.33120e-02,1.40492e-02,-1.59814e-01,-2.45896e-01,1.32482e-02,-2.09653e-01,-3.67676e-02,-8.47605e-01,-7.89772e-01,3.60961e-01,-3.29454e-01,4.82721e-01,3.33486e-02,-2.02315e-02,-9.66346e-03,-3.56879e-01,1.01779e+00,-4.16089e-01,1.67090e-01,2.55768e-01,3.23222e-01,-2.36197e-01,-1.67270e-02,9.98160e-02,3.10778e-01,-1.13011e+00,-3.54363e-02,1.13169e-01,2.06271e-01,3.15937e-01,9.46815e-01,2.82809e-01,6.52437e-01,4.70430e-01,-3.24428e-01,6.89845e-01,3.23961e-01,4.96652e-02,1.00429e-01,2.12400e-01,-4.01957e-01,-1.40041e-02,2.08423e-02,
3.83723e-01,-1.46184e-02,-8.47613e-01,-6.16358e-01,-6.86368e-02,1.43183e-01,7.36018e-01,-5.77980e-01,-9.16528e-03,9.94530e-01,3.76015e-01,-2.27771e-02,-7.45685e-01,2.63993e-01,-2.26273e-01,1.24497e+00,-2.61014e+00,-1.24826e-01,6.29013e-01,4.17619e-02,4.40982e-01,-4.50790e-02,7.44718e-01,3.56814e-01,-6.75943e-01,-2.66224e-01,1.07096e-01,-4.65593e+00,1.44385e-01,1.66538e-02,-2.03923e-01,2.52402e-01,-4.24276e-01,1.03488e-02,-8.15565e-01,2.92262e-03,-3.31570e-01,-8.97187e-01,2.12763e-01,3.64148e-01,-2.70061e-01,8.05001e-01,4.05951e-01,-4.56875e-01,-2.48471e-02,2.89727e-01,-4.18178e-01,-3.08772e-01,2.03647e-02,2.67154e-02,
-4.12734e-01,-2.47115e-02,-3.87340e-01,-6.95734e-01,3.31359e-01,3.13165e-01,5.21402e-02,1.32610e-01,3.46809e-01,-4.18481e-01,-3.13119e-01,-3.32447e-02,-8.05269e-02,8.20741e-02,-2.04792e-01,2.54220e-01,1.15760e-01,-1.99198e-02,-2.59126e-02,-2.98483e-02,-6.45604e-01,-5.12862e-02,-3.46182e-01,4.40376e-01,-6.56187e-01,1.08054e-01,1.98406e-01,1.20275e-02,-1.98943e-01,-1.86431e-02,4.29080e-01,4.22616e-01,-2.86047e-01,-3.83443e-02,1.26451e-01,-1.66582e-01,3.60626e-02,-4.88795e-01,-2.57238e-01,3.81202e-02,-1.00218e-01,2.75709e-01,2.42160e-01,3.56078e-01,-1.04591e-02,-1.71653e-01,-2.40214e-01,-1.71553e-01,-6.88596e-03,2.44970e-02,
5.87697e-02,3.18000e-02,1.33149e-01,-3.33998e-02,1.23179e+00,2.15122e-01,8.82117e-02,-1.60872e-01,-1.77282e-01,-5.18350e-01,-7.44249e-02,-3.30834e-02,-1.43520e-01,2.63386e-03,1.07183e-02,2.01259e-01,-8.81006e-02,-1.22521e-01,1.27271e-01,1.72305e-02,5.64531e-02,-1.22630e-02,-3.39377e-01,-6.20011e-01,-4.65982e-01,-8.71242e-02,-7.99997e-02,-2.48174e-01,-4.04297e-02,-9.46810e-03,5.39021e-01,-3.74179e-01,3.42412e-01,2.71811e-02,1.18792e-01,-1.71371e-02,-2.69362e-01,3.73838e-01,1.90081e-01,-2.79176e-01,-6.29630e-01,-6.52912e-02,-5.00283e-02,-7.97311e-01,3.11078e-02,2.37355e-02,7.12288e-01,-1.43351e+00,-3.63308e-02,-4.77915e-02,
7.08636e-01,5.05166e-02,6.69374e-02,-1.20048e+00,8.71664e-01,1.64602e-01,-5.68793e-02,1.46747e+00,-4.36505e-01,-2.27993e+00,-2.76334e-01,2.31706e-02,1.76767e-01,5.22529e-01,-2.38640e-01,3.55617e-01,-7.69839e-01,2.38416e-01,3.10285e-01,2.83434e-02,1.67595e+00,1.84574e-02,6.31584e-01,-3.64477e-01,-2.26571e-01,-1.67274e-01,6.59199e-01,-6.84460e-01,-3.96269e-01,-3.97323e-02,1.13317e+00,8.90467e-01,7.83028e-01,1.20818e-02,-5.27292e-01,-1.23337e+00,2.22787e-01,-5.22404e-01,-1.89381e-01,-1.54229e+00,-5.34442e-01,-5.29235e-01,-7.16638e-01,7.49094e-01,-2.38827e-03,-6.42207e-03,-7.27990e-02,1.59531e-01,8.98547e-03,5.24043e-02,
3.10306e-02,-1.79930e-02,4.87319e-01,-2.59254e-01,6.58360e-02,-3.35032e-02,3.83164e-01,4.39616e-01,-1.57240e-01,-1.49151e-01,-2.62015e-02,-1.83350e-03,-1.78155e-01,3.61971e-01,1.35672e-01,1.92211e-01,-1.58150e-01,-4.85140e-02,-7.13275e-02,9.25031e-03,1.04390e-02,-7.25176e-03,7.15679e-02,-2.64504e-02,-2.65243e-01,-2.88842e-02,1.55866e-01,1.65692e+00,1.81304e-01,-4.51065e-02,2.72534e-01,1.38793e-01,4.47912e-01,4.86533e-02,-6.76003e-01,-3.41969e-02,1.38674e-01,-3.09162e-01,-2.74337e-01,-9.10515e-02,-1.31120e-01,1.09714e+00,1.64626e-01,-1.56557e-01,-1.17376e-02,-1.54156e-01,1.32548e-01,-2.46636e-01,1.95187e-04,-3.35484e-02,
2.12063e-02,4.05424e-02,-1.81096e-01,-1.60482e+00,-5.76825e-01,-6.85686e-02,2.53160e-01,2.55741e-01,3.65938e-01,8.02525e-01,-3.38127e-01,2.04012e-02,-7.81849e-01,-9.05808e-02,4.01745e-01,1.99882e-01,-7.03890e-02,-6.30435e-01,1.45377e-01,-1.41108e-02,-6.00604e-01,-3.75607e-02,-3.45223e-01,2.61532e-01,-1.26293e-01,-6.08546e-01,-2.75703e-01,-9.37735e-02,-4.05141e-01,3.85424e-02,5.66707e-01,6.27748e-01,5.29155e-01,2.16652e-02,5.70200e-01,-4.73154e-01,-4.15082e-01,-1.22165e-01,4.87631e-01,2.62993e-01,-3.22015e-01,2.12453e-02,3.42839e-01,2.30021e-01,2.46005e-02,2.23591e-01,2.95254e-01,-2.78333e-01,-5.23512e-02,-3.34758e-02,
-3.39641e-01,-2.98821e-02,1.68925e-01,-1.56346e+00,-4.01693e-01,7.07318e-01,-3.49880e-01,9.18061e-01,-5.64612e-01,-9.14518e-01,8.69438e-02,-5.07348e-02,-7.62590e-01,-1.67412e+00,5.32761e-01,3.90937e-01,-9.67895e-02,-3.16448e-01,7.35755e-01,5.39773e-03,1.42401e-01,3.12755e-02,-7.59066e+00,-3.16728e-01,8.73371e-01,9.06351e-02,-9.30638e-01,-1.92567e-01,-3.10294e-02,3.92642e-02,-2.84108e-01,8.57708e-01,-5.47696e-01,1.62019e-03,5.42409e-02,4.00665e-01,7.86025e-01,5.87187e-01,2.24025e-01,3.32259e-01,1.30677e-02,2.07325e-02,-1.73229e-01,7.38180e-01,-2.73935e-02,-8.46517e-01,1.47347e-01,7.78201e-01,-2.84298e-03,-9.85999e-04,
-1.53969e+00,
-2.07685e-02,
-1.74994e-02,
-1.54577e+00,
4.80061e-02,
5.17682e-01,
4.56814e-02,
-6.04891e-01,
-1.51928e+00,
5.65497e-01,
-1.92141e-02,
1.29595e-01,
1.31501e-02,
4.25478e-01,
1.15792e+00,
-3.07926e-02,
4.37390e-01,
-2.44059e-01,
-1.52007e-01,
-6.05070e-02,
1.20973e-01,
-1.59512e+00,
-3.40828e-01,
-1.79612e+00,
3.37731e-01,
-1.54501e+00,
-6.59913e-01,
-3.81447e-03,
7.12234e-01,
-1.76094e-02,
7.76897e-01,
-1.13447e+00,
4.67401e-01,
7.09056e-01,
-2.80027e-02,
5.55404e-01,
-4.91305e-01,
-3.06307e-01,
-1.33513e-02,
-1.09292e-01,
1.08835e-01,
3.27033e-01,
4.92475e-01,
2.18693e-01,
7.11381e-01,
-1.59181e+00,
-9.32742e-02,
1.56043e-01,
6.94674e-01,
-1.46286e+00,
-3.50621e-01,-5.27434e-02,-2.63614e-02,-8.87873e-01,-3.38492e-01,-9.32298e-01,-4.13066e-01,9.07412e-02,2.81428e-01,4.41457e-01,-2.46524e-03,1.62396e-01,-3.75449e-01,1.73497e+00,2.12544e-01,-9.47716e-03,1.27138e+00,-5.13426e-01,5.18328e-01,6.59039e-01,-1.60243e-01,5.17800e-01,5.77897e-01,1.29923e+00,3.01251e-01,9.72140e-02,8.06092e-01,8.06320e-02,2.61221e+00,-4.55483e-02,-1.47374e+00,2.67168e-01,1.12389e+00,4.40718e-01,-1.11337e-02,1.59059e-01,1.53570e-01,-4.07545e+00,-1.88844e-02,-3.04425e-01,2.13566e-01,3.27025e+00,-7.81795e-01,2.82943e-01,-2.32866e+00,8.32736e-01,-8.66454e-01,-2.60118e-01,-2.59409e+00,-3.25286e-02,
-3.73122e-01,4.06398e-02,-1.90641e-03,1.03747e-01,-4.38638e-01,6.71263e-02,-6.52356e-01,-4.72141e-02,1.09110e+00,5.91955e-01,-1.44234e-02,-3.39609e-01,-3.85003e-01,7.05012e-01,3.77023e-01,3.86163e-02,3.84086e-01,1.26829e+00,-3.90673e-01,2.19381e-01,-3.22318e-01,2.86425e-01,-3.45633e-01,-3.97070e-01,-5.22711e-02,3.12433e-01,1.43124e-02,-8.78523e-02,1.84544e-01,4.45006e-02,1.97238e-01,6.27972e-01,1.11533e-01,4.22437e-01,-4.17467e-02,-8.50683e-02,9.81098e-01,1.72361e-01,-1.82091e-02,3.06343e-01,3.91776e-01,6.04112e-01,-3.81762e-01,1.61729e-01,2.27025e-01,-2.38230e-01,8.88958e-02,-1.49321e-01,1.22804e-01,-4.59437e-02,
8.92022e-01,-2.52048e-03,-4.63127e-02,8.33696e-02,-6.31311e-01,-8.27964e-01,-2.04712e+00,2.21962e-01,1.55127e+00,-2.73513e-01,2.83589e-02,-3.79278e-01,1.73317e-01,9.43979e-01,-2.20030e-01,9.77583e-03,2.70404e-02,-1.92518e-01,1.13496e-01,-7.55247e-01,-4.67881e-02,-3.82661e-01,4.83457e-01,1.59067e-01,-1.29518e-01,-1.33465e+00,-8.16764e-02,-1.02457e+00,1.44542e+00,-3.45184e-02,-1.34150e+00,3.82026e-01,-4.21906e-01,-2.13501e-01,2.25164e-02,-1.32409e+00,9.96933e-01,1.61236e+00,-3.79133e-02,5.02318e-01,2.71146e-01,-1.80550e+00,-1.52443e-01,4.54712e-01,3.07541e-01,1.03715e+00,-9.83575e-01,-5.64274e-01,-1.92296e-01,-3.69565e-02,
-9.84635e-01,-4.94828e-02,2.71315e-02,-1.29969e+00,-4.46192e-01,5.85737e-02,-6.55090e-01,-2.76267e-01,-9.14934e-02,8.68318e-01,2.94446e-02,-3.73645e-01,-8.09699e-02,6.08951e-01,1.85116e-01,-2.98206e-02,-6.07320e-01,-2.64404e+00,-7.06100e-01,2.09910e-01,8.80323e-01,4.43550e-01,-4.99062e-01,-8.06281e-01,6.42149e-01,-2.83414e-01,3.59135e-01,1.10429e-01,7.63017e-01,3.81249e-02,4.17621e-01,4.23027e-01,-8.83944e-01,9.86916e-02,2.15141e-02,3.48988e-02,-8.39009e-01,-3.43815e-01,-1.96199e-02,2.97274e-01,-5.94420e-02,6.08869e-01,1.00135e-01,-3.10145e-01,-8.93315e-01,-4.36446e+00,-6.86117e-01,1.35236e-02,-5.20115e-01,7.20232e-02,
3.46920e-01,4.27440e-02,2.06798e-02,-3.92415e-01,-1.99999e-01,-1.32599e-01,4.42275e-01,4.95708e-01,7.75315e-01,4.63882e-01,-8.53625e-04,-1.20374e+00,-4.84574e-01,4.64715e-01,1.34822e+00,-3.39980e-02,-9.50775e-03,-1.30170e+00,-2.70302e+00,3.57615e-01,-5.78338e-01,-4.19075e-01,1.16531e+00,-3.71219e-01,6.96733e-02,-1.80881e-01,4.08341e-01,-1.83479e-01,3.00735e-02,-1.10484e-02,-3.11918e-01,1.17505e+00,2.00894e+00,1.88351e-01,2.51765e-02,5.64693e-02,1.03266e+00,-1.11348e+00,3.65736e-02,4.16079e-02,-1.61600e+00,1.46475e+00,-8.63076e-01,-2.71917e-01,8.95810e-01,-7.95595e-02,1.30199e-01,1.40750e-01,-1.00900e+00,7.00124e-02,
-1.96171e-01,3.74335e-02,3.35484e-02,-7.55119e-02,-9.09319e-02,8.03782e-02,3.25612e-02,4.40010e-02,-4.55861e-02,-4.07582e-03,-4.28487e-02,8.15391e-02,1.47886e-01,-2.25755e-01,-8.61552e-02,7.21082e-03,1.21197e-02,5.13383e-02,-7.33236e-02,3.60476e-01,-6.54855e-02,-7.33554e-02,-3.38359e-02,-6.81169e-02,-9.01969e-02,-1.78085e-01,5.96259e-02,1.51701e-02,-1.20419e-01,2.35001e-02,-9.95353e-03,-5.30927e-02,-5.20993e-02,-1.57268e-01,2.69599e-02,-5.92232e-02,-6.55193e-02,5.61374e-02,3.90565e-02,-2.01996e-01,1.88613e-02,-1.92983e-01,-7.16108e-02,1.41850e-02,6.26087e-03,-2.17875e-01,4.79501e-02,-1.71433e-02,-1.26480e-01,-5.67819e-02,
6.58879e-01,2.83931e-02,-8.32509e-03,6.56360e-01,5.87876e-01,3.68630e-01,-1.28962e-01,-5.63827e-01,-1.27578e+00,-9.18602e-01,-3.65666e-02,1.55829e-01,-5.23558e-01,1.56500e-01,-5.49616e-01,2.73488e-02,2.82851e-01,1.23927e+00,1.34662e-01,-6.06250e-01,-2.77739e-01,5.96351e-01,-1.04245e+00,1.32250e+00,8.73999e-02,3.61620e-01,1.82700e-01,5.95450e-01,-2.32927e+00,-3.64938e-02,-2.63132e+00,-9.28971e-01,3.03981e-01,4.39170e-01,3.38082e-02,9.43664e-01,-2.85650e-01,8.70218e-01,5.85575e-03,-2.83801e-02,-1.00176e+00,1.54457e-01,1.18139e-01,-2.27043e-01,-1.69912e+00,-5.65500e-01,5.62694e-02,-3.59762e-02,-1.29889e+00,9.37553e-01,
-3.88657e-02,-5.51139e-02,3.02848e-02,1.58709e-01,9.37168e-02,3.25625e-01,-5.28178e-01,3.14567e-01,1.43645e+00,6.92105e-02,-7.28500e-03,2.03494e-01,2.77576e-01,9.79668e-01,1.47074e-01,4.86175e-04,5.25675e-01,-1.20975e-01,3.88989e-01,-3.36126e-01,-1.98461e-01,-3.23856e-01,2.94450e-01,-4.63983e-01,9.34521e-02,2.05139e-01,8.59296e-02,-1.17578e-01,-2.28916e-01,2.42200e-02,7.58559e-01,5.53459e-01,2.57864e-01,-2.17910e-01,5.90350e-02,-1.62341e-01,-5.78591e-01,2.09717e-01,3.21150e-02,-1.64395e-01,3.49084e-01,1.09373e+00,-8.83901e-02,2.23423e-01,5.03379e-01,2.37656e-01,2.47304e-01,-3.41311e-01,-1.54651e-01,-2.33185e-01,
-1.20857e-01,4.42711e-02,-5.10467e-02,1.00248e-01,5.41068e-02,3.97756e-01,-9.99484e-02,2.87829e-01,-1.55912e-01,-5.85905e-02,1.19211e-02,-1.58641e-01,3.71883e-01,5.73170e-01,-5.51677e-01,-4.82914e-02,-1.59092e-01,9.33359e-02,-9.69126e-02,2.47755e-01,6.16169e-02,4.64113e-02,-5.41087e-02,-9.58713e-02,-5.36006e-02,5.75879e-01,-4.03624e-02,2.77279e-01,-2.35996e-01,3.29202e-02,5.05650e-01,6.52595e-04,-3.32317e-01,-1.28461e-01,5.53433e-03,1.48488e-01,-1.62160e-01,3.00325e-01,-3.66436e-02,5.22510e-02,1.58741e-01,3.86627e-01,-1.35696e-01,5.22746e-02,4.06503e-01,-6.45061e-01,3.97899e-01,-5.29217e-02,5.88351e-01,-4.75240e-01,
-1.89694e-01,3.93002e-02,-3.38222e-02,-7.44375e-02,-1.94469e-01,1.33684e+00,-1.35445e+00,-2.12666e-01,-3.89269e-01,-5.80316e-01,-4.68558e-02,-9.18357e-01,2.23226e-01,1.86861e+00,-2.25145e-01,1.09422e-03,2.71419e-01,-3.18681e-02,1.59398e-01,-7.50557e-02,-9.08335e-01,4.84284e-01,6.83321e-01,-7.51744e-03,3.90699e-02,3.13058e-01,4.70255e-01,-9.40887e-02,-9.43311e-01,3.36479e-02,-4.69514e-04,-6.63747e-01,3.93032e-02,1.00057e+00,-2.76600e-02,-5.38147e-02,3.07031e-01,1.82174e-01,2.63988e-02,6.77702e-02,6.96403e-02,-1.14109e+00,4.51124e-01,-5.99571e-01,6.69248e-01,-1.96726e-01,-3.57677e-01,9.65755e-01,2.40475e-01,-1.86647e-01,
6.61733e-02,-2.44003e-02,-2.76095e-02,-9.75388e-02,-1.86375e-01,2.50981e-01,-1.63221e-01,-4.55225e-01,-2.19927e-01,4.94319e-01,1.27700e-02,2.82318e-02,-1.95394e-01,-9.04176e-02,-2.46794e-01,-3.32034e-02,2.38968e-01,1.07328e+00,2.63206e-01,-1.26336e+00,-7.29363e-01,2.70622e-01,-1.18881e-01,1.23682e-01,1.06289e-01,-1.47345e-01,-1.72833e-01,6.34219e-02,7.23901e-01,-3.80333e-02,3.59761e-01,-1.01846e-01,9.68024e-02,-7.05187e-02,-5.82558e-03,-7.66471e-02,-3.45052e-01,5.03298e-01,-2.39914e-02,1.59358e-02,3.55594e-01,-1.40759e-01,5.66592e-01,-1.02526e-02,-8.05758e-01,4.21719e-01,6.80904e-02,1.38565e-01,-2.14150e-02,2.38021e-02,
5.97849e-02,-3.54137e-02,2.96019e-02,1.79564e-02,5.93896e-02,1.63621e-01,1.84824e-01,-4.65702e-02,3.27981e-01,-3.53179e-01,-3.16163e-02,-2.38615e-02,4.80258e-02,-3.53181e-01,-1.09253e-01,-3.51085e-02,-9.81749e-02,1.06934e-01,1.17371e-01,-1.87385e-01,-4.09317e-01,-6.94308e-03,-3.40222e-01,-1.21229e-01,-1.49737e-02,2.14837e-01,3.48045e-02,1.50121e-01,1.10305e-01,2.70990e-02,-5.43731e-03,9.21309e-02,-4.22446e-01,-1.77092e-01,-9.14332e-03,-5.04572e-01,2.62001e-01,-5.28537e-01,3.58204e-02,4.13563e-02,1.79590e-01,4.49627e-02,-1.69553e-01,-3.20936e-02,-1.20308e-02,3.37687e-02,-9.31908e-02,5.83472e-02,1.78884e-01,-1.74886e-01,
2.35638e-01,-4.59358e-02,-1.70561e-02,-1.77923e-02,-4.18586e-01,-1.28483e-01,-3.49401e-01,1.33499e-01,-1.97233e+01,-1.31818e-02,4.06434e-02,2.29420e-01,9.11656e-02,2.10729e-01,2.47549e-01,1.12085e-03,-1.79896e-01,3.61459e-02,-1.05939e-02,5.01859e-01,6.99770e-02,8.93686e-02,8.55233e-01,-5.01407e-01,5.55459e-02,8.09902e-03,-1.30632e-01,-4.28783e-02,-3.62575e-01,-2.18775e-02,8.35559e-01,-3.33936e-01,-1.51042e-01,5.15839e-02,2.83051e-02,4.63310e-01,-3.23445e-01,4.39971e-01,5.20904e-02,5.70903e-01,1.66469e-02,1.09097e-01,3.72300e-02,2.96280e-01,1.72857e-01,-3.21867e-04,5.56261e-01,-2.10123e-01,5.05702e-02,8.73240e-03,
-9.18783e-02,-2.77725e-02,1.24942e-02,-1.31179e-01,-5.37505e-01,-2.73250e-02,-3.88285e-01,-1.51997e-01,2.29923e-01,-2.16653e-01,-5.86058e-03,-9.86467e-02,1.54622e-01,-3.90542e-01,2.25144e-01,-1.07052e-02,-1.70530e-01,-1.62114e-02,-5.15517e-02,-7.93811e-02,-2.25070e-01,-7.74893e-02,1.78809e-01,1.11606e-03,-8.33713e-03,3.24345e-02,9.78946e-02,-4.43600e-03,6.94951e-01,2.98848e-02,-2.30755e-01,1.77546e-01,5.74948e-01,-2.36494e-02,4.39922e-02,1.13498e-01,6.49954e-02,-4.94093e-03,7.63509e-03,-1.79393e-02,-9.92524e-02,-1.81036e-02,1.42011e-01,1.55468e-01,-1.00605e-01,-1.39557e-01,3.74992e-02,-2.59209e-02,-2.18606e-01,-2.92121e-01,
1.21720e-02,4.12663e-02,2.81768e-02,1.76667e-01,-5.01062e-01,-1.46217e-01,2.20649e-01,-1.68084e-01,-9.24331e-02,-8.73173e-03,4.14122e-02,2.08268e-02,5.81801e-02,5.80580e-01,-6.18460e-02,-5.19795e-02,8.69845e-02,5.15862e-01,-2.09598e-01,-1.39107e+00,-1.48594e-01,1.67109e-01,1.53803e-01,1.03442e-01,-7.24469e-02,-1.27615e-01,-9.28398e-02,-9.32952e-02,-2.30706e-01,2.12046e-02,-1.50395e-01,3.04529e-01,-1.43011e-01,2.86396e-01,2.07214e-02,4.15899e-01,-1.58149e-01,-3.28973e-02,3.67240e-02,4.37480e-01,-3.46759e-02,-3.39095e-01,-1.90857e-01,-9.35526e-02,-1.19957e-01,1.25221e-01,-1.07387e-01,4.89158e-01,1.49850e-01,3.74294e-02,
1.84751e-01,-8.95109e-03,-4.47187e-03,2.60138e-01,7.65820e-01,-6.22467e-01,-1.19574e+00,2.85166e-01,1.02785e+00,-5.47582e-01,-5.70671e-03,-2.28480e-01,1.81355e-01,-1.63315e+00,-2.05012e-01,4.24550e-02,-2.54262e-01,-3.32450e-01,3.06197e-02,6.44920e-01,-3.00024e-01,2.20117e-01,-3.11368e+00,-4.17127e-02,1.48799e-01,-2.28754e-01,-2.62756e-01,-5.16710e-01,-6.87951e-02,2.31813e-02,-1.26853e-01,-4.02305e-01,1.51844e-01,-7.11265e-01,-8.08296e-03,-5.12256e-01,6.11619e-01,-1.98274e-01,3.42182e-03,2.28192e-01,1.06654e-01,-2.17734e-01,1.26167e-01,-1.22113e-01,-1.31909e-01,-3.06382e-01,-1.32801e-01,-1.16020e+00,3.69035e-01,6.35390e-01,
8.38974e-04,1.12444e-02,1.36595e-02,-2.70821e-01,4.33605e-01,4.76556e-02,4.66668e-01,5.30941e-02,3.67501e-02,7.42099e-02,3.07540e-02,-8.59752e-02,2.81217e-01,-7.85343e-01,-2.05948e-01,7.91866e-03,-6.12317e-01,2.80035e-01,-5.15459e-01,-5.08076e-01,1.32563e-01,2.33340e-01,2.90028e-01,-7.87621e-02,-4.39240e-01,-6.24880e-01,-5.03709e-01,-5.89765e-01,5.33024e-01,2.66892e-02,-2.43353e-01,2.93082e-01,-7.42044e-01,-1.57216e-02,-1.70571e-03,-1.49776e-02,4.43157e-01,6.61792e-02,3.48401e-02,2.06565e-01,-4.84784e-02,-3.35272e-01,-4.38928e-01,-5.23145e-02,4.26986e-01,-4.92768e-01,7.30535e-01,1.14250e-01,1.28387e-01,5.84832e-02,
-5.54351e-01,-2.90391e-02,3.92717e-02,9.52335e-01,6.76155e-01,-1.39631e-01,-8.70566e-01,5.00849e-02,-1.55921e+01,-2.42188e-01,1.52062e-02,1.22204e+00,-1.12877e-01,-1.48695e+00,2.31386e-01,2.07552e-02,1.37441e-01,-1.70991e+00,-2.64175e-01,-4.09446e-01,-5.83634e-01,9.23438e-02,-9.59618e-01,-3.86412e-01,-1.46186e-01,-1.46591e-01,5.57537e-02,-4.43062e-02,5.20701e-01,3.49118e-03,6.64042e-02,-8.29258e-01,3.22155e-01,-1.19688e+00,2.81009e-02,-3.35304e-01,-3.60220e-01,5.09090e-01,-2.95283e-03,1.41515e-01,9.74548e-02,-4.44364e-01,2.27827e-01,-2.32783e-01,-2.57921e-01,4.15286e-01,4.15960e-01,1.03194e+00,1.45795e-01,4.48429e-01,
3.61261e-01,3.53203e-02,1.95992e-02,4.63104e-01,-6.04761e-01,3.76544e-01,8.79153e-01,-5.49006e-01,3.26296e+00,1.20379e-01,-3.90924e-02,-8.97914e-01,2.17523e-01,5.15447e-01,5.85454e-02,3.09348e-02,-6.78402e-01,-9.29125e-02,-4.25223e-01,3.08408e-01,5.64887e-01,1.35792e+00,2.01947e-01,5.88284e-01,9.69677e-02,5.86095e-01,-2.99752e-01,-4.56417e-01,-1.04657e+00,-4.77924e-02,-5.33776e-03,1.42016e-01,-6.72411e-01,1.88205e-01,2.83223e-02,7.04129e-01,-4.55777e-01,-3.23845e-01,2.21488e-02,6.49313e-01,-4.38415e-02,-8.75923e-01,3.27577e-03,-4.21192e-01,6.57830e-01,-9.57527e-01,-4.32005e-01,-3.78603e-01,-1.76187e-03,-1.14399e-01,
-1.09783e-02,-1.79788e-02,-3.86920e-02,-2.24950e-01,-2.59368e-01,1.10634e-01,-4.73803e-01,1.30623e-01,1.78191e-01,2.50878e-01,-4.64620e-03,1.62778e-01,-1.46763e-02,1.40264e-01,-8.03676e-02,1.93362e-02,1.15382e-02,3.25385e-03,6.52059e-02,3.88406e-01,1.80827e-01,3.17860e-02,-1.02556e-01,-7.89380e-02,8.39608e-02,3.39034e-02,8.88160e-02,5.18012e-02,-1.15776e-01,-4.06178e-02,4.66835e-01,-1.23994e-01,3.29796e-01,-4.47835e-01,7.26171e-03,1.66663e-01,-4.20106e-01,5.49592e-01,4.23846e-02,-3.39001e-01,-1.09486e-01,2.05218e-01,2.40013e-01,4.13051e-01,-9.54465e-02,4.67056e-01,2.01649e-01,4.00778e-01,-1.56637e-01,-2.04791e-01,
7.68079e-01,2.57354e-02,1.47288e-03,4.06376e-01,-7.27116e-01,-4.97113e-01,2.22202e+00,3.15030e-01,3.81875e-01,-6.12240e-01,-4.08159e-02,1.45312e-01,3.11182e-01,4.42500e-01,-9.47289e-02,-1.94463e-02,4.15407e-01,-2.78019e-01,8.02244e-02,-2.51502e+00,1.55937e-01,-4.12531e-01,1.29656e-01,4.59503e-01,-1.79858e-01,4.76965e-01,-1.10886e-01,-2.16432e-01,-4.98979e-01,-4.76320e-03,-9.16444e-01,-3.86438e-01,-4.86691e-01,-5.13398e-02,-3.97196e-02,-1.16575e+00,4.68649e-01,-2.24162e+00,-6.56691e-03,3.61857e-01,3.24813e-01,-8.20840e-01,-4.26549e-01,9.36046e-03,-2.69440e+00,6.42114e-01,-6.33007e-01,-1.98990e-01,-4.97920e-01,-5.82680e-01,
-2.47782e-02,1.09369e-02,-2.71078e-02,3.30240e-02,3.60975e-01,1.91241e-01,-4.94380e-01,3.33404e-02,1.66118e-01,2.80657e-01,4.28334e-02,-1.89794e-01,1.21841e-01,-1.13304e+00,-3.16206e-01,4.58146e-02,-5.05358e-01,4.44562e-01,-3.40371e-02,-6.11014e-01,1.87467e-01,4.67168e-01,3.91756e-01,-6.30005e-02,1.37486e-01,-1.09402e-01,-2.54014e-01,1.88148e-01,1.98223e+00,-1.82341e-03,-4.42035e-02,2.07477e-01,-4.67294e-01,2.33984e-02,3.89172e-02,-1.89754e-01,1.15076e-01,-6.90545e-01,3.94518e-02,4.78721e-02,1.42350e-01,-2.32006e-01,9.22446e-02,1.26766e-01,-6.24960e-01,-7.20760e-01,-8.82052e-02,-1.69387e-01,-1.31989e-01,4.39884e-02,
6.67879e-01,3.70153e-02,4.14965e-02,-2.26277e-01,-1.58164e+00,-4.76416e-01,2.09362e-01,-4.30976e-01,-1.49227e+00,1.98906e-01,-6.50877e-04,-6.27829e-02,-1.65847e-02,-3.36576e-01,2.58649e-01,1.22152e-02,-6.87713e-03,-1.33678e+00,-5.58053e-01,-1.24465e+00,2.24490e-01,-5.78418e-02,8.93699e-02,-4.80023e-01,1.01355e-01,-4.20385e-02,-2.75670e-01,-5.08731e-01,-7.08836e-01,4.63478e-02,-1.48226e+00,3.44474e-01,-2.24543e-01,3.05943e-01,2.60799e-02,-2.77060e-01,-7.87194e-02,1.36163e-01,1.81745e-02,5.05514e-01,2.91606e-01,4.85790e-01,-1.10140e+00,2.22265e-01,2.90945e-01,-4.30077e-01,-6.91483e-01,-5.86303e-01,-5.14217e-01,5.46065e-01,
-4.78891e-01,-3.51018e-02,-2.81400e-02,-4.06401e-01,8.41347e-01,-7.43736e-01,2.70913e-01,-5.42138e-01,4.09388e-02,6.27011e-02,2.69685e-02,-2.01463e-01,2.36201e-02,8.41556e-01,-3.60889e-01,2.62179e-02,-2.81601e-01,4.94544e-01,-1.68391e-01,7.88695e-01,-5.86482e-04,-4.00093e-01,-4.08330e-02,-2.18353e-01,-8.02251e-02,-4.42610e-01,-1.78157e-01,1.22053e-01,-3.43044e-01,2.27410e-02,-3.88074e-01,1.16818e+00,-7.25135e-02,-3.90708e-04,-5.85268e-03,3.44070e-01,1.55829e-01,-3.56140e-02,3.35901e-02,9.56653e-01,4.54352e-02,-1.03150e+00,-4.85860e-01,1.40104e-01,2.63327e-01,-4.72100e-01,4.36206e-01,2.53747e-03,5.44993e-01,-1.22919e-01,
-1.35901e+00,-3.95108e-02,-2.26330e-02,-8.92398e+00,-2.55700e-01,2.44217e-02,5.40925e-01,3.13828e-01,-1.99740e+00,-1.70957e-01,-3.98027e-02,3.88749e-01,-2.85762e-01,8.13830e-01,-1.75757e+00,2.06056e-02,5.45449e-01,2.46640e+00,1.17818e+00,-1.11386e+00,-3.12311e-01,1.11952e+00,-1.45140e+00,-2.17419e-02,2.35576e-01,-8.19488e-03,4.14819e-01,4.08270e-01,2.11716e+00,9.60751e-03,-6.37991e-01,-3.17295e+00,6.17503e-02,9.94671e-02,2.24224e-02,3.22515e-01,4.09662e-01,1.03528e-01,4.39451e-02,-6.59945e-01,8.29344e-01,3.75674e-01,-2.55964e+00,-2.43493e+00,1.79486e-01,-3.55959e-02,3.89465e-01,-2.87646e-01,-6.37966e-01,4.36799e-01,
-4.54232e-02,-2.20766e-02,-3.35843e-02,-7.75108e-02,-1.65630e+00,4.47151e-01,-8.93222e-01,-3.33630e-01,1.46683e-01,-5.98057e-01,2.34075e-02,7.53996e-01,-6.21041e-01,3.29469e-01,2.17376e-01,2.07130e-02,1.47611e-01,-1.66967e+00,1.69104e-01,-3.96586e-01,3.82970e-01,1.02299e+00,1.49822e-01,-1.18120e-01,3.37953e-01,-4.25316e-01,2.27765e-01,4.23901e-01,1.81798e+00,2.80113e-02,-2.13502e+00,-6.66689e-01,-5.65551e-01,3.35723e-01,-3.02687e-02,-3.98146e-01,-3.46173e-02,1.38197e+00,-3.31737e-02,-4.42275e-01,1.33043e-01,-3.79689e-01,1.28811e-01,7.61537e-02,5.10321e-01,7.11556e-01,-8.80716e-01,-5.63081e-02,-1.03991e+00,-4.03080e-01,
1.52436e-01,1.69833e-02,-3.37865e-02,-8.06199e-01,6.15872e-01,1.08690e-01,4.77916e-02,1.02751e-01,1.96188e-01,2.33181e-01,-3.24123e-02,-2.02284e-01,-3.76675e-01,-1.41816e-01,6.78459e-01,1.67824e-02,3.40289e-01,-3.64185e-01,-1.49190e-01,3.51894e-02,1.90324e-01,6.50375e-02,-2.78304e-01,-2.68050e-01,-1.46111e-01,-3.84327e-01,1.41001e-01,8.44473e-02,4.97036e-01,2.88180e-02,-1.84320e-01,-6.42323e-01,4.76744e-02,-1.01912e-02,1.20475e-02,3.22142e-01,9.52664e-03,-1.20241e+00,-4.31713e-02,-5.68856e-03,-2.22330e-01,-3.98849e-01,-8.95761e-02,-1.07247e-01,-9.56291e-01,-2.66659e-01,-2.85342e-01,3.65179e-01,-2.03446e-01,1.35545e-01,
3.84698e-01,-1.70671e-02,-2.41995e-03,5.69974e-01,1.31956e+00,1.74451e-01,1.48393e-02,2.15374e-02,4.05130e-01,1.44231e-02,-2.95759e-02,-1.50564e-02,1.18366e-01,3.44006e-01,-1.14927e-01,-3.74193e-02,1.11058e-01,-2.05291e-01,1.26793e-02,-4.45865e-02,2.10362e-01,-3.96431e-02,-7.59762e-01,5.80738e-01,2.58489e-01,-2.89366e-01,-1.78769e-01,-8.63058e-02,1.08324e-02,2.23122e-02,-5.80401e-01,5.16255e-01,-7.31302e-01,1.19468e-01,-6.62822e-02,3.35560e-01,3.52526e-01,-1.84370e-01,-7.21458e-03,7.50147e-02,-1.21947e-01,1.04164e+00,-2.45484e-01,-2.49791e-01,5.04078e-01,2.03100e-01,-6.74450e-02,-2.21315e-01,-1.73637e-01,-3.20381e-01,
-3.94892e-01,-2.25193e-02,4.25657e-04,8.92338e-02,4.80838e-01,1.86824e-01,2.14012e-01,-1.52363e-01,-2.01773e-01,-7.01369e-01,-2.95618e-02,-8.02210e-01,5.24210e-02,3.01998e-01,-8.51155e-02,7.59330e-03,-9.05095e-02,-3.87278e-01,3.01127e-01,-1.61320e-01,-2.25808e-02,-7.61991e-02,-2.93494e-01,-2.99207e-01,-5.72552e-02,3.66630e-01,4.90810e-01,-1.91318e-01,-6.21311e-01,1.25579e-02,-1.17794e+00,-1.81578e-01,4.40965e-02,-4.14319e-02,3.92384e-02,3.77025e-01,5.14151e-01,2.79475e-01,3.21597e-02,3.97549e-01,-7.25781e-02,-2.34880e-01,8.92530e-02,-2.77677e-01,4.59568e-02,-3.08248e+00,-4.53043e+00,-2.22670e-01,-5.25979e-01,5.91246e-01,
1.50942e-01,2.64473e-03,-1.11671e-02,-1.00155e+00,-1.39874e+00,-2.09758e-01,-3.53426e-01,1.05969e-01,-2.74020e-01,-2.45063e-01,-2.65120e-02,-9.25152e-01,-1.25004e-01,1.35394e+00,-3.22838e-01,-3.43878e-02,1.19454e-02,-1.74239e-01,-9.69400e-01,-1.05392e-01,-2.00648e-01,-5.34585e-01,1.95877e-02,-2.59116e-02,1.80400e-01,-1.81276e-01,-1.16408e-01,6.30508e-02,1.18339e+00,4.06222e-02,-2.09671e-01,1.65375e-01,-5.03162e-01,1.40443e-01,2.58482e-03,5.91180e-02,-5.55246e-01,8.88785e-01,3.22482e-02,-1.14293e-01,5.60861e-02,-8.19811e-01,-1.43031e-01,-4.48696e-01,1.04494e+00,4.49154e-01,7.34254e-01,-1.01537e-01,-5.82062e-02,5.46320e-01,
-5.15719e-01,-4.17198e-02,-1.98534e-02,-1.40609e-01,-5.40342e-01,-1.37590e-01,-1.17122e+00,-3.67749e-01,6.28792e-01,-3.78334e-02,-1.41893e-02,-1.68439e-02,3.03509e-01,-7.19531e-01,-2.23927e-01,3.73603e-02,5.77103e-01,1.03433e-01,1.01311e-01,-1.00988e+00,-6.33001e-01,-1.42642e-01,2.53056e-01,-1.82024e-01,1.64716e-03,2.79525e-02,3.46177e-01,7.40376e-02,1.01288e+00,-2.18091e-02,-2.01227e-01,2.11126e-01,6.73442e-01,5.34300e-01,6.54377e-03,-4.11271e-01,5.55928e-02,-9.25226e-01,-2.79834e-02,-6.14542e-01,-5.17455e-02,5.83295e-01,-4.74000e-01,2.00239e-01,-8.70336e-01,-3.05730e-01,-3.27493e-01,4.42011e-01,-4.13274e-01,-2.31681e-01,
-3.34445e-01,2.57419e-02,1.63694e-03,-6.30512e-01,7.77461e-01,5.56158e-02,4.38519e-01,-1.61893e-01,-3.02256e-02,-1.83855e+00,-4.46208e-02,5.70285e-01,-1.86174e-01,8.62510e-01,2.73569e-01,-1.83311e-03,4.96466e-01,1.76351e+00,1.66845e-01,-1.09263e+00,5.49043e-01,1.47540e-01,4.00686e-01,6.16068e-02,-3.31007e-01,4.42984e-01,-1.42657e-03,2.49350e-01,-1.48674e+00,2.97613e-02,2.11119e-01,-4.97600e-01,1.04961e-01,-5.52282e-01,1.27480e-02,-1.09080e-01,-4.46595e-02,1.24767e+00,-3.77878e-02,4.74906e-01,-4.16790e-01,-3.21853e-01,-1.43116e-01,-4.73963e-01,6.65702e-01,-1.85971e-01,-1.01179e+00,5.22598e-01,-2.85976e-01,4.68282e-01,
6.75805e-02,-4.68961e-02,-3.98542e-03,3.33878e-02,-1.59099e-01,-2.05654e-01,4.83740e-01,-1.46240e-02,7.37495e-03,4.21844e-01,6.45652e-03,-3.48678e-01,-7.98570e-02,7.03255e-01,4.13209e-01,-2.65077e-02,6.90372e-02,-2.33134e-01,-2.09685e-01,-1.27370e-02,-2.89987e-01,-2.64761e-01,2.70665e-03,1.55262e-01,-6.50941e-02,9.70263e-02,1.91386e-01,6.51265e-03,3.85055e-01,-1.92868e-04,2.35911e-02,5.87806e-02,4.98978e-01,2.36783e-01,3.28065e-02,-6.27377e-02,2.21926e-01,1.45572e-01,2.34655e-02,2.29819e-01,-1.73944e-01,1.11453e+00,-2.77802e-01,-2.70120e-01,1.76221e-01,-6.12532e-02,8.57550e-02,4.29934e-01,-4.40219e-01,5.84678e-02,
-1.71641e-01,-4.02657e-02,-2.27466e-02,-3.24384e-01,-7.82606e-01,-1.29555e-02,4.27727e-01,3.78715e-01,6.63445e-01,-1.27140e-01,1.35760e-02,-9.76120e-02,-4.28175e-01,-2.05171e-01,-7.82095e-02,-2.32660e-02,-1.37236e+00,1.93162e-01,-1.00100e+00,4.60267e-01,3.69812e-01,-4.01806e+00,1.87640e-01,-6.87592e-01,-1.54110e-01,3.83786e-01,-1.92434e-01,-2.42861e-01,-1.15794e+00,-5.40070e-03,3.32888e-01,-2.28795e-03,7.52366e-01,-2.85177e-01,-3.49997e-02,5.88122e-01,3.83245e-01,-2.97213e-01,-1.12050e-02,3.40127e-01,2.64263e-01,9.86376e-04,-1.83377e-02,-4.21482e-01,-7.63088e-02,-8.38226e-01,5.03165e-01,5.77923e-01,-1.99813e-01,-5.11986e-03,
-3.19759e-02,-2.80853e-02,2.51193e-02,2.92033e-01,4.82349e-01,-4.91324e-02,6.14072e-01,6.22128e-01,2.26064e-01,5.56879e-01,-1.00894e-02,9.71753e-01,1.01201e-01,-1.00623e+00,8.87843e-02,-3.36215e-02,3.50993e-01,-3.05399e-01,-3.16773e-04,-4.16984e-01,2.06784e-01,-9.23593e-02,3.32585e-01,-2.38646e-01,2.43608e-01,2.78733e-01,3.20693e-02,4.96733e-01,-2.14456e-01,3.27329e-02,1.54583e-01,9.91713e-01,-1.81414e-01,3.33650e-01,-2.22095e-02,5.31540e-01,1.45862e-02,-3.70204e-01,2.94610e-02,1.93223e-01,4.80861e-01,2.84633e-01,-2.60036e-01,-4.72903e-01,-4.50528e-01,-6.84471e-02,-3.61840e-02,-1.88119e-01,5.05577e-01,3.28761e-02,
-4.37508e-01,-1.63944e-02,-2.25998e-02,3.50168e-01,3.36010e-02,-4.37854e-01,-4.05835e-01,-1.99789e-02,2.49661e-01,2.10925e-02,9.46082e-03,-8.63851e-02,-8.38248e-02,3.07139e-01,-3.98322e-01,2.05525e-02,4.38135e-02,5.90901e-01,1.12635e-02,-1.26082e-03,6.72822e-01,-5.20209e-01,-4.11274e-01,-1.68538e-01,4.93024e-02,3.97028e-01,3.49866e-01,4.02198e-01,7.02305e-01,8.32407e-03,5.28630e-01,6.55991e-01,5.01240e-01,5.35510e-01,3.80703e-02,-3.90783e-02,-4.29206e-01,5.81115e-01,-3.20468e-02,3.64969e-01,8.29937e-01,1.01845e+00,-1.24497e-01,-7.16456e-02,-3.79456e-01,-1.42152e+00,2.68047e-01,-3.21561e-01,2.85774e-01,5.01260e-01,
-8.31674e-02,-3.37004e-02,4.85330e-03,1.72832e-01,-3.57585e-01,5.00783e-02,-2.56568e-01,-2.81946e-02,1.84755e-01,-1.18752e-02,-2.77701e-02,9.74462e-02,4.38604e-02,5.55929e-02,-1.60203e-02,-7.99926e-03,1.12719e-01,2.71718e-01,2.14414e-01,2.91649e-01,-8.23736e-01,-8.71933e-04,1.77169e-01,-1.91333e-01,-2.78342e-03,-7.23734e-02,1.14197e-01,9.88336e-02,-3.84443e-03,3.71144e-03,-8.30297e-03,1.90942e-02,1.31169e-01,9.41287e-02,6.67340e-03,-1.01053e-01,1.85330e-01,8.25225e-02,1.30667e-02,1.78563e-01,1.25963e-01,2.76385e-01,3.01316e-02,9.79763e-02,-1.48927e-02,3.93276e-02,-2.69499e-02,-2.82989e-02,-3.58505e-02,-5.07227e-02,
2.03696e-02,2.57861e-02,-2.24195e-02,-4.23877e-01,-7.15657e-01,1.24713e-01,4.33305e-02,-2.31737e-01,3.94295e-03,1.50683e-01,-1.38702e-02,-1.18522e-01,-5.07495e-02,-1.14740e+00,6.22539e-01,3.38476e-02,-2.19576e-01,9.85227e-02,1.50274e-01,4.78410e-01,-2.58293e-01,-3.12531e-01,1.08610e+00,-2.43546e-01,2.42046e-01,-1.09472e-01,-1.57634e-01,2.73000e-01,-5.46592e-01,-7.61636e-03,1.04933e-01,-1.47649e-01,-6.84891e-02,1.74074e-01,-3.63878e-03,5.56300e-01,-1.48237e-01,3.69044e-01,2.57524e-02,5.89723e-01,-2.05281e-01,-6.07561e-01,3.47804e-01,-4.08813e-01,-2.53934e-01,3.18764e-01,-5.62496e-01,-3.17355e-02,1.02562e-01,-2.21436e-01,
8.15093e-02,3.76699e-03,3.44222e-02,-5.63611e-03,2.05953e-01,-2.28919e-01,-4.33403e-01,2.84723e-01,7.26134e-01,-5.49005e-02,6.33537e-03,-6.24069e-01,8.46368e-03,-1.98443e-02,1.03188e-02,-2.40040e-02,-2.52287e-01,-1.62720e-01,-2.97213e-01,2.98481e-01,2.76400e-01,-4.61598e-01,-1.52855e-01,1.34288e-01,-8.95510e-02,3.89085e-01,1.00459e-01,1.39267e-01,2.91531e-01,-4.40878e-02,3.12684e-01,2.16431e-01,-2.61803e-01,-6.89620e-02,1.36898e-02,1.84768e-01,-2.01244e-01,5.61888e-01,5.49655e-03,4.61656e-01,-6.57603e-02,4.45689e-01,3.16136e-02,-2.83648e-01,1.40280e-01,1.66259e-02,2.25478e-01,-7.51441e-02,1.41094e-01,1.54639e-01,
3.69082e-01,7.86572e-03,8.29165e-03,1.78805e-01,-3.35423e+00,-1.98312e-01,2.18578e-01,9.18795e-01,1.03176e+00,-4.10803e-01,-6.42501e-03,-2.94136e-01,2.05083e-02,-5.46423e-01,-6.53814e-01,-1.79325e-03,-1.16266e+00,-1.63484e+00,4.69570e-01,6.95186e-02,-5.25095e-01,4.95385e-01,3.45948e-01,-9.81922e-01,5.15305e-01,1.08696e+00,-9.20651e-02,3.54880e-01,-1.56845e+00,-4.77270e-02,6.94380e-01,-8.60685e-01,-1.97384e+00,-9.21645e-01,6.52580e-03,4.15389e-01,-1.74804e+00,2.43250e-01,1.46698e-02,6.52260e-01,4.62681e-01,7.82332e-02,5.08290e-01,8.54556e-01,-3.34846e-02,4.43519e-01,-8.44312e-03,1.52951e-02,1.29143e-01,5.13496e-01,
-5.63017e-02,-2.40446e-02,1.82588e-02,-5.31648e-02,-2.50647e-02,1.29532e-02,-5.20460e-03,-4.46075e-02,-3.68132e-02,1.74389e-02,-3.23702e-02,-3.40218e-02,2.40306e-02,-1.82574e-02,3.10206e-02,-3.77502e-02,1.76439e-03,-1.48241e-03,-6.28474e-02,-2.67339e-02,-7.50946e-02,4.11339e-02,-5.15411e-02,-1.92249e-02,8.38855e-03,-1.00947e-02,5.66941e-03,-1.44609e-02,1.24834e-02,4.88265e-02,-2.60913e-02,-2.11292e-02,2.75717e-02,-6.19473e-02,1.76250e-02,-4.48594e-02,2.40349e-02,9.70459e-03,-1.67761e-02,1.52871e-02,3.75975e-03,-3.09771e-02,-1.03560e-02,2.82189e-02,-5.36061e-02,1.63124e-02,2.82737e-03,-5.74481e-02,-7.50484e-03,-4.10122e-03,
-1.98134e-01,-1.74946e-02,4.07407e-02,4.43340e-01,-3.74738e-02,-8.78858e-01,1.45489e+00,-4.51999e-01,-4.59681e+00,1.89003e-01,-2.09552e-02,-1.67201e-01,-1.99297e-02,-1.24758e+00,-2.30022e-02,-1.49413e-02,1.09501e-02,-2.68090e-01,3.19320e-01,-4.27315e-01,8.78797e-01,-1.40108e-01,-6.31709e-01,-2.79429e-01,-2.09216e-02,-3.04422e-01,1.44853e-01,3.93365e-01,8.23164e-01,-1.29407e-02,-3.15523e-01,-2.77283e-01,4.42820e-01,-2.38163e-01,-4.16679e-02,-4.12189e-01,2.89651e-01,1.07644e+00,1.41913e-02,-2.93221e-01,3.70142e-01,-5.68776e-01,-8.17668e-02,1.27910e-01,-2.69627e-01,5.16659e-02,-3.59650e-01,-1.94491e-01,3.30646e-01,1.23092e+00,
-2.97849e-01,1.13805e-02,8.90711e-03,2.27396e-01,-2.18929e-01,-5.16764e-02,-5.01898e-01,-8.29876e-02,-3.86791e+00,-1.97202e-02,9.70787e-03,-6.98413e-02,-4.82908e-02,4.09032e-01,-2.49861e-01,-3.89348e-02,-2.78690e-02,6.65947e-02,1.03353e-01,-2.74352e-01,3.56709e-01,1.68774e-03,-1.02036e-01,5.05803e-02,1.37606e-01,2.73663e-01,-1.21010e-01,2.91843e-01,5.00185e-01,-3.13264e-02,5.33374e-01,-2.86982e-01,-5.33461e-01,6.30937e-02,1.52248e-02,1.34269e-01,-2.50884e-01,6.18964e-01,-3.19641e-02,1.79927e-01,3.57116e-01,-2.32616e-01,8.63770e-02,1.53913e-01,3.29912e-01,-3.87140e-01,2.75674e-01,-2.33106e-01,4.34183e-01,2.38421e-01,
-2.12902e-01,-3.35356e-02,4.81781e-02,3.16371e-01,4.17564e-01,-2.07468e-01,-3.13483e-01,-5.39221e-02,-1.98231e-01,1.84034e-01,3.42019e-02,2.56778e-01,-1.28526e-01,6.55821e-01,-3.19164e-01,-4.16108e-02,2.65383e-01,-1.39993e-01,-2.41340e-01,6.76290e-02,2.06750e-01,-1.36989e-01,-1.61091e-01,-1.94565e-01,-6.56743e-02,2.52042e-01,4.74554e-02,1.73712e-01,3.45043e-01,-3.53100e-03,6.28668e-01,-4.53368e-01,-3.35142e-02,-4.60594e-03,-3.78371e-02,-5.60963e-02,-3.85108e-01,-1.13596e+00,3.46396e-02,2.63019e-01,8.84097e-02,-4.99938e-01,1.95493e-01,-5.92502e-01,-4.41050e-01,3.54256e-02,-1.53445e-01,1.47779e-01,3.18722e-01,8.04601e-02,
2.59905e-01,-8.93026e-03,2.65371e-02,6.08226e-01,8.03108e-02,1.66044e-01,1.20950e-02,-3.42471e-02,-1.10747e+00,1.23702e-02,6.93947e-03,1.34534e-02,-5.03932e-02,4.20324e-01,1.96277e-01,-1.00474e-02,-1.54392e-01,2.00525e-01,2.75936e-01,2.03155e-01,4.45658e-01,4.85633e-01,4.02873e-01,5.53226e-02,2.65715e-02,1.52671e-01,-2.94694e-01,-6.69295e-02,-3.53186e-01,3.67977e-02,1.41537e-01,-7.98951e-01,-2.33435e-01,-8.40090e-02,-3.49336e-03,5.31128e-01,-9.97006e-02,-2.19420e-01,-3.34638e-02,3.15984e-01,-1.30730e-01,5.91344e-01,1.96788e-01,3.48728e-01,5.11892e-01,-1.64596e-01,7.04881e-02,-7.05236e-02,-3.82106e-01,3.19238e-01,
3.64611e-02,1.81127e-02,-2.09533e-02,-1.01799e+00,-2.19361e+00,-3.20558e-03,-4.51558e-02,7.67082e-02,2.08448e-02,-8.32367e-02,-2.41894e-02,-2.91030e-02,-1.79429e-02,7.18565e-01,1.52582e-01,-1.49959e-02,1.16975e-02,-1.21981e-01,-2.24209e-01,6.19493e-01,2.65133e-01,-1.62510e-01,-9.26413e-02,-6.64224e-02,-1.13679e-01,-1.20045e+00,1.11676e-01,-8.72590e-02,5.29579e-01,-4.57661e-02,-6.36751e-02,2.34403e-01,1.48905e-01,-2.48139e-01,-9.79516e-04,-8.71464e-02,2.91182e-01,-9.26721e-02,1.29758e-02,-5.78942e-02,-3.37828e-02,-2.21430e-01,-8.32185e-02,1.37095e-01,1.67556e-01,3.60275e-01,-4.04235e-01,2.83461e-02,-9.11132e-01,-3.09545e-02,
-3.73633e-01,9.44089e-03,-4.20913e-02,3.60885e-01,-3.04558e+00,-1.11148e-01,-5.67816e-01,7.19392e-01,-8.81836e+00,2.97983e-01,-2.64505e-02,1.15566e+00,-5.90925e-01,6.34095e-01,-2.13409e-01,-2.11502e-02,3.94487e-01,4.12867e-01,-4.89804e+00,2.56625e-01,-6.57386e-01,-1.22035e-01,1.63059e+00,2.35263e-01,2.13681e-01,2.99523e-01,-3.58319e-02,-4.14954e-01,-8.83702e-01,3.94669e-02,3.26248e-01,4.52030e-01,6.77907e-01,-7.46090e-01,1.28466e-02,-6.50671e-01,-5.61570e-01,1.24830e+00,-4.75224e-02,-2.80106e-01,2.90674e-01,-4.73450e-01,1.13154e+00,-6.95029e-01,6.13240e-01,7.11989e-01,1.25594e-01,1.29734e-01,2.46604e-01,9.38432e-02,
-4.66274e-01,-4.23800e-02,1.99140e-02,5.92413e-01,1.11667e-01,-3.41953e-01,3.91250e-01,5.03620e-01,-1.85680e+00,-4.23331e-01,-4.10853e-02,-4.96156e-01,-1.66295e-01,1.87559e-01,-2.53324e-01,2.86386e-02,-4.55590e-02,-6.03066e-01,-3.22287e-01,-3.85485e-01,7.79995e-01,-1.07038e-01,4.10324e-01,3.18046e-01,-2.69653e-01,1.09460e+00,2.24909e-02,-4.10781e-02,-5.02411e-01,-1.14443e-03,5.17610e-01,-9.71206e-02,4.82791e-01,1.29080e-01,1.15544e-02,-5.35805e-02,-4.58518e-01,4.64485e-01,7.52799e-04,-1.79264e-01,-1.19933e-01,3.65548e-02,-1.25533e-01,-9.79655e-02,1.00642e+00,-1.00833e+00,2.29318e-01,-1.62552e-01,5.82566e-01,9.76862e-01,
-3.17509e-01,-2.63309e-02,-1.70086e-02,7.01905e-01,8.47003e-01,-1.47967e-01,1.36462e-01,1.96227e-01,-1.88882e+00,1.66840e-01,-3.04251e-02,-6.21462e-01,2.00055e-01,6.67218e-01,3.60263e-02,3.25906e-02,-1.32728e+00,-4.37170e-01,3.24759e-01,-1.00680e+00,-1.03203e+00,-4.36459e-01,-3.29015e-01,-1.66794e-02,-1.13915e-01,-4.02230e-01,-1.71377e-01,7.75796e-02,-1.39473e+00,-8.94558e-04,-1.91943e-01,-1.49060e-01,1.58985e-01,-2.03895e-01,1.96770e-03,6.83012e-01,-4.11396e-01,5.44427e-01,-4.18559e-02,7.48505e-01,-1.78092e-01,-7.32191e-01,3.08384e-02,-6.22943e-01,1.61165e+00,7.06337e-01,5.13771e-01,-2.52847e-02,4.98903e-01,2.71275e-01,
-8.79369e-01,2.68744e-02,3.15443e-02,1.00958e-01,-4.38916e-01,-3.33391e-01,-2.96585e-01,-2.37876e-01,-5.67049e-01,1.08628e-01,1.28533e-02,-1.14072e-01,-6.40692e-01,6.73006e-01,-6.42668e-02,-2.77493e-02,-7.59307e-01,1.68350e-01,-1.46124e+00,6.91764e-01,4.34012e-01,-1.74348e-01,-4.86091e-01,-7.10291e-02,9.05378e-02,-1.48850e-01,-7.89560e-02,3.18791e-01,-8.00606e-01,4.44136e-02,-1.81171e+00,-9.96056e-01,-1.69316e-01,2.65172e-01,-2.90913e-02,1.02646e+00,6.03874e-01,1.55850e+00,7.91154e-04,-3.01758e-02,9.18432e-03,-1.92848e+00,2.41056e-01,-8.21404e-01,6.98226e-01,8.82074e-02,4.84668e-01,4.43175e-01,4.67718e-01,6.34809e-01,
-9.42118e-01,
-7.95600e-01,
-5.18884e-01,
3.35786e-01,
3.92779e-01,
5.72135e-01,
-1.06112e+00,
-9.61513e-01,
-1.36937e-01,
1.31185e+00,
8.38544e-01,
6.53565e-01,
-2.43637e-01,
4.36088e-01,
3.17762e-01,
9.64157e-02,
6.72074e-01,
9.17707e-01,
-1.63359e+00,
-2.60650e-01,
-5.10155e-01,
1.52069e-01,
4.61225e-01,
2.92174e-01,
-8.96218e-01,
1.18442e+00,
-2.90247e-01,
-4.10745e-01,
-7.44634e-01,
4.97051e-01,
3.38173e+00,
-7.12568e-01,
-4.99792e-01,
-6.81321e-01,
-2.07123e+00,
-9.94733e-01,
6.94910e-02,
-2.36400e-01,
-8.75004e-01,
