// Neural Network File Format by Kyle Julian, Stanford 2016
7,5,5,50,
5,50,50,50,50,50,50,5,
0,
0.0,-3.141593,-3.141593,100.0,0.0,
60760.0,3.141593,3.141593,1200.0,1200.0,
19791.091,0.0,0.0,650.0,600.0,7.5188840201005975,
60261.0,6.28318530718,6.28318530718,1100.0,1200.0,373.94992,
-3.01079e-01,7.25774e-03,-4.54619e-03,-1.14251e+00,-3.50389e-01,
-1.31083e+00,6.63143e-02,2.42825e-01,-1.84057e-01,-2.64582e-01,
7.21325e-02,1.48561e+00,2.09312e-01,3.88434e-01,-1.25734e-01,
3.88673e-01,7.84099e-01,-7.84106e-01,-3.69140e-01,2.62025e-01,
-5.15941e-01,1.95520e-02,5.76849e-03,2.30195e-01,-4.43925e-01,
1.31418e-02,1.64055e-03,2.77127e-02,-4.06835e-01,-4.24992e-01,
-1.46286e+00,-9.41357e-02,9.75689e-03,-1.03326e-02,5.65141e-03,
6.83611e-01,2.59296e-02,-3.35104e-01,-7.51536e-02,-1.27461e-01,
9.55035e-02,1.22771e+00,4.50233e-01,3.28218e-01,-1.93246e-01,
2.78579e-02,2.92474e+00,9.12826e-02,9.70393e-02,-5.76185e-01,
7.72116e-02,1.85358e+00,-1.80509e+00,1.53609e-01,-3.52170e-02,
-1.14675e-01,5.74596e-01,-1.84030e+00,6.63643e-02,-4.74836e-01,
7.89233e-01,1.23777e-02,-3.48535e-03,1.72716e-01,-2.74466e-01,
3.02230e-01,3.77951e-01,-1.43946e-01,2.96189e-01,4.47931e-01,
-9.89571e-02,-7.36855e-02,-3.83989e-02,-3.10129e-01,-2.23235e+00,
1.70467e-01,-2.18941e-01,1.51530e+00,-3.15174e-02,3.34785e-01,
1.16099e-01,-1.79283e-02,-3.67380e-02,-9.20136e-03,8.32955e-01,
1.33892e-01,-1.04845e+00,1.07967e+00,-1.10673e-01,6.25628e-02,
-1.05151e+00,1.02679e-01,-1.98238e-01,6.10042e-03,2.89980e-02,
-9.67825e-01,6.25165e-02,-1.88481e-01,-1.76578e-01,-1.48612e-01,
-1.48880e-01,-3.11486e-01,-3.71290e-01,2.77971e-02,-1.53756e-01,
-1.15066e-02,-2.20263e-01,2.08241e-01,-6.19299e-01,-5.56784e-02,
2.50286e-02,-2.61556e-01,1.55492e-02,-2.17045e-01,5.31340e-02,
-2.97516e-01,-9.89613e-02,-1.17321e+00,5.22219e-02,5.14626e-02,
3.85700e-02,-2.56421e-01,4.04428e-01,-1.98707e-01,1.12694e-01,
-3.58077e-02,9.04868e-01,1.36316e-01,-3.21861e-01,8.62492e-02,
7.03186e-01,-1.94179e-02,9.51359e-02,5.04550e-01,-1.09439e+00,
2.35562e-01,-5.39456e-01,7.59946e-01,2.55784e-01,-1.47606e+00,
-1.32585e+00,-2.06763e-01,1.84080e-01,1.87328e-02,-9.46163e-03,
7.00739e-02,-2.33154e+00,1.54262e-01,4.11830e-01,-8.83202e-01,
1.25417e-02,-7.29339e-02,-2.31881e+00,1.65184e-02,1.15818e-04,
-2.90876e-02,3.96414e-01,-6.03127e-01,-4.23934e-02,9.63606e-02,
-1.61090e-01,3.35828e-02,3.06034e-03,2.31255e-01,2.00058e-01,
6.80779e-01,2.04815e-02,4.42107e-02,-1.12076e+00,7.87308e-01,
1.20030e+00,8.31200e-04,6.97787e-04,9.22368e-04,-1.14801e-03,
-7.07789e-01,1.14094e-01,6.57991e-02,1.62331e-02,5.10324e-02,
-2.49945e-02,8.34114e-02,1.75039e+00,5.39895e-02,-3.28275e-03,
-7.05645e-01,-1.64329e-01,-5.08948e-01,-2.34452e-01,1.64347e-01,
-8.94631e-01,1.03083e-01,7.10414e-01,-4.78592e-01,2.07340e-01,
3.59550e-02,-2.49224e+00,-6.93274e-02,2.61000e-01,1.05114e-01,
-2.25920e-01,-7.84582e-02,4.48388e-01,3.55661e-01,-6.35230e-01,
5.15149e-01,2.64767e+00,-3.27637e-01,-4.71222e-02,9.02517e-02,
-6.02798e-02,3.21547e-01,-5.02422e-01,-5.47661e-01,-4.15904e-02,
-1.55290e-01,-5.11032e-02,2.28714e-02,-6.42810e-01,6.86128e-01,
2.29829e-01,1.24026e+00,-4.37520e-02,4.04319e-01,-8.73876e-01,
-1.35139e+00,2.69881e-02,6.68081e-04,-7.34048e-04,1.70537e-02,
-1.33705e+00,2.95133e-02,1.00712e-01,1.46479e-02,-5.22642e-02,
6.30569e-03,1.79157e-02,-1.23319e-01,-4.74490e-01,-9.07455e-03,
-2.42226e-01,1.12625e-01,-4.06198e-01,2.48741e-01,-4.78534e-01,
-1.49672e+00,-6.86305e-03,2.50047e-05,1.65608e-03,-2.08510e-03,
-5.82336e-01,
-3.17144e-01,
1.42347e-01,
3.85657e-01,
-6.31103e-02,
-1.09470e-01,
-3.91918e-01,
8.35918e-02,
-5.33257e-02,
-1.92641e-01,
-5.81453e-01,
-3.19564e-01,
2.90543e-01,
-9.31945e-02,
-9.26776e-01,
5.15360e-02,
-2.07199e-01,
5.23889e-01,
-2.24597e-01,
-1.75860e-01,
6.60204e-02,
-1.94328e-01,
4.94612e-02,
-3.21166e-02,
1.29403e-01,
1.42838e-01,
1.43485e-01,
-4.74326e-01,
-2.71953e-01,
-2.21397e-01,
3.28234e-02,
2.93462e-01,
1.24455e-01,
-4.61251e-02,
3.83686e-01,
-1.35648e-01,
2.42986e-02,
-1.64909e-01,
-2.36025e-01,
1.90958e-01,
2.61461e-02,
6.97777e-01,
-2.11669e-02,
4.47166e-02,
-1.36523e-01,
-2.00713e-01,
-3.78089e-01,
1.31297e-01,
7.69792e-03,
-4.17495e-01,
1.32732e-01,-5.80284e-02,-1.52566e-01,3.27144e-01,-1.12920e-01,-1.99242e-01,-1.69452e+00,-1.26192e-01,2.89174e-01,-8.38496e-02,-9.78989e-02,2.21385e-01,5.02765e-01,2.60297e-02,1.68976e-01,1.26767e-01,3.50576e-02,2.76012e-01,-1.07093e+00,5.22533e-02,7.16935e-01,1.79614e-01,6.43432e-02,-1.61469e-01,1.85267e-01,2.45195e-01,1.21380e-02,-1.16227e-01,-5.69980e-01,8.34095e-02,1.47114e-01,2.41022e-01,5.54331e-01,-3.03561e-01,2.64994e+00,6.76540e-02,-5.61404e-02,1.99160e-01,-2.14653e-02,2.57129e-01,6.28548e-02,2.15060e-01,-1.52342e-01,-4.27761e-02,9.82322e-02,-9.92681e-01,-4.14729e-01,2.50095e-01,-1.84891e-01,-2.54704e+00,
5.12017e-03,-1.10336e-03,9.11833e-03,-3.38519e-02,-4.24590e-02,-4.26544e-02,2.55316e-02,9.85929e-03,-2.57500e-02,-1.71912e-02,-3.04352e-02,7.90877e-03,-1.43967e-02,2.88175e-02,-1.95283e-02,-4.80817e-02,-2.12511e-02,2.32231e-02,2.20037e-02,-3.88653e-02,-1.04898e-02,6.91312e-03,3.02653e-02,-1.18488e-02,1.99337e-02,-6.42759e-02,9.88801e-04,3.41595e-02,2.82808e-02,-1.99378e-02,1.10956e-02,-4.02279e-02,-4.24657e-03,-8.79042e-03,-6.28608e-02,-1.88838e-02,-4.95633e-02,2.52912e-03,-1.82798e-02,-2.02519e-02,2.68259e-02,-8.07138e-03,3.89136e-02,2.24043e-02,-3.17784e-02,2.04487e-02,-3.30674e-02,1.94180e-02,-7.95063e-03,2.40356e-02,
5.93188e-01,-2.63697e-02,6.36777e-02,-7.03034e-01,-5.25694e-01,1.19683e+00,3.14876e-01,1.05925e+00,3.60495e-01,2.78058e-01,-9.81800e-01,2.94044e-01,-3.14901e-01,5.19823e-01,-5.64696e-01,-3.00489e-01,-1.09506e-01,3.17585e-01,-5.63843e-02,7.87256e-03,-1.08925e-01,1.54791e-01,2.70975e-01,1.39044e-01,5.93050e-01,3.46171e-01,-8.78771e-01,5.78782e-01,5.19192e-01,5.64539e-01,3.50846e-01,2.96927e-01,-9.99288e-01,-1.91065e-01,-1.43816e-01,-1.00426e-01,1.74010e-01,-1.13143e-01,-4.21981e-01,4.60134e-01,-1.78482e-01,7.45737e-01,-2.96842e-02,1.07664e+00,3.06084e-01,-1.08435e-01,-1.43973e+00,5.50366e-01,6.61304e-03,2.13420e+00,
1.77430e-01,8.94770e-02,-6.50104e-01,-9.54806e-01,-2.76378e-01,-2.59902e-01,-6.58373e-01,-3.31400e-02,-4.57465e-02,-3.92839e-01,-4.62012e-02,-8.63350e-03,1.39302e-01,-8.91614e-01,-2.00715e-01,3.89202e-01,-6.57397e-03,2.11180e-01,-1.39196e+00,7.00042e-02,-5.78053e-01,8.19755e-02,-4.13970e-01,8.17624e-01,-3.61633e-02,-2.58048e-01,-1.30685e-01,-3.17551e-01,3.85910e-02,9.73916e-02,-2.72186e+00,-9.54894e-01,-5.64783e-01,-9.31601e-03,-4.85657e-01,2.48766e-01,1.12952e+00,4.55464e-01,-6.58691e-01,1.34396e+00,1.88889e-02,-1.35489e-01,3.63096e-01,4.60052e-01,3.19590e-01,-3.19327e-01,4.21934e-01,6.42581e-01,1.81705e-01,-5.91005e-01,
4.11464e-01,-1.42469e-01,6.75271e-01,5.17453e-01,3.33438e-01,-2.73439e-01,3.45198e-01,2.81064e-02,-9.63209e-02,-5.44699e-02,1.63652e+00,-6.81274e-01,-1.25521e-01,-6.63404e-02,-1.42204e+00,-1.41105e+00,2.70207e-01,-2.08581e+00,6.04643e-02,-1.79507e-01,1.45321e-01,-1.04783e+00,-4.01822e-01,3.68394e-01,-1.23373e+00,4.83396e-01,-1.88221e-01,8.86686e-01,8.93267e-01,-1.54875e-01,6.47259e-01,5.27305e-01,-5.12739e-01,3.19362e-01,-5.15029e-02,2.68616e-01,-3.86942e+00,2.08924e-01,-7.71142e-01,-5.46165e-01,5.71586e-03,6.08835e-01,-9.97794e-02,-9.52864e-02,-4.04671e-01,3.77997e-01,-1.39602e-02,-3.77360e-02,3.85814e-01,4.47895e-01,
-1.54757e+00,-7.03679e-01,1.36137e+00,-3.04147e-01,2.49731e-01,1.29508e+00,9.26244e-01,-5.82240e-01,-2.85321e-01,-6.97689e-01,7.53624e-01,-4.24244e-01,1.98853e-02,-9.05103e-02,5.31056e-01,-3.40868e-01,4.06433e-01,-2.03977e-02,-4.99375e-01,-8.68378e-01,1.00344e+00,-7.97837e-02,8.59891e-01,-6.24387e-02,2.03945e+00,-8.05194e-01,-5.76319e-01,-7.60216e-01,3.42338e-01,2.10479e-01,2.13658e-01,1.46446e+00,-9.74383e-01,-3.89722e-01,5.07550e-01,-4.29935e-01,1.92238e-01,-1.42727e+00,-5.86585e-01,2.10677e-01,8.89591e-01,-5.00193e-01,-4.93967e-01,-2.93283e-01,5.65029e-01,1.09310e-01,-5.09131e-01,-1.79808e+00,-1.26452e-03,9.74891e-01,
5.51634e-01,6.37514e-02,-1.26468e-01,-4.21516e-01,2.02326e-01,8.70900e-01,3.05314e-01,2.33544e-01,-1.76631e-02,5.47857e-01,-1.35031e-01,-1.33181e-02,-2.69820e-01,-3.13551e-02,1.39530e+00,-3.34715e-01,-9.76677e+00,2.30043e-01,-1.33135e-01,-1.02171e-02,2.62161e-02,-5.14735e-01,3.82324e-01,4.89769e-02,-3.85665e-01,-1.39378e-01,4.33550e-01,-1.57724e-01,-1.39849e-01,4.92360e-01,9.14878e-03,3.75299e-01,-1.46854e+00,-1.78791e-02,1.49094e-01,1.45314e-01,4.45488e-02,-1.56359e-01,1.37272e-01,-6.46342e-01,-3.26783e-03,-3.62724e-01,2.49892e-01,-7.09195e-01,-2.26911e-01,1.75142e-01,6.70257e-01,3.45047e-01,1.80452e-01,-3.20130e-01,
-8.65182e-02,3.66337e-01,-5.44775e-01,-1.19204e+00,-3.13154e-01,-2.03507e-01,-3.97701e-01,3.14135e-01,4.27263e-01,5.54816e-02,8.57653e-01,6.69624e-01,5.68973e-01,4.77267e-01,-2.15616e-01,8.79037e-02,-7.10864e-02,1.35256e-02,4.85556e-01,-4.73036e-01,3.58173e-01,7.80067e-02,-1.09456e-01,-3.28028e-01,1.77867e-01,-1.08863e+00,4.20134e-02,-7.58090e-01,5.38088e-01,-6.39312e-02,1.02574e+00,-8.16696e-01,-2.40543e-01,3.03890e-01,3.45627e-01,1.34634e-01,4.89133e-01,5.73707e-01,1.62764e-01,-4.22882e-02,2.03312e-01,-4.15602e-01,5.45310e-01,6.12542e-01,4.48690e-01,2.91646e-01,3.04203e-01,3.54694e-02,-1.14038e+00,7.94960e-01,
-4.20045e-01,-2.84545e-01,3.78775e-02,8.32465e-01,2.53388e-02,-5.79546e-01,1.80243e+00,3.20895e-01,5.43332e-01,4.43881e-01,-3.26109e-01,4.50906e-01,3.72409e-01,-6.47137e-02,2.34665e-01,-3.45150e-01,3.33792e-01,4.06542e-01,1.04517e+00,-5.98469e-02,1.78996e+00,8.51942e-01,7.54307e-01,-3.73609e-02,2.29240e-01,4.72898e-01,1.37602e-01,-1.23149e-01,-4.23313e-01,2.95953e-01,-7.19587e-01,3.18778e-01,-7.75643e-02,-1.03379e-01,2.30225e+00,6.22732e-02,1.04064e-01,9.82053e-01,5.49981e-01,4.92812e-01,-8.03866e-02,2.44714e-01,-4.08219e-01,-5.47755e-01,-1.14377e-01,5.18365e-02,-4.76544e-01,-9.48779e-01,-5.45018e-01,-1.78241e+00,
4.10516e-01,-9.49026e-02,-2.53039e-01,-9.51701e-01,9.61163e-02,-2.19183e-01,9.32086e-02,-1.68800e-02,-4.15952e-01,-1.59063e-01,1.78135e-01,7.72847e-02,6.07461e-02,-2.53629e-01,-6.91963e-01,9.65303e-01,7.00253e-02,8.66451e-01,-1.14552e+00,1.99060e-01,8.58262e-01,4.36211e-01,-4.06478e-01,-3.15710e+00,2.58862e-01,-6.71521e-01,1.15248e-01,-5.35394e-01,2.78501e-01,-3.18094e-01,-3.04884e-01,-3.28077e+00,4.97037e-01,3.33342e-01,2.94809e-01,-1.92684e-01,8.39973e-01,5.60037e-01,-9.35149e-02,5.06178e-01,-7.82006e-02,-6.86439e-01,-1.02079e+00,-1.38506e-01,-5.20849e-02,-1.57915e-01,4.30206e-02,1.29039e-02,-8.63778e-01,9.46323e-02,
1.60461e-01,4.88979e-02,7.12840e-01,1.05517e+00,1.12597e-01,2.01643e-01,-1.06311e+00,1.36861e-01,-5.20711e-01,-4.71135e-01,1.77368e+00,1.42359e+00,9.06670e-02,-3.16697e-01,1.30661e+00,1.07331e+00,5.05722e-01,4.59744e-01,1.18217e+00,4.91959e-01,-6.45627e-01,-8.49632e-01,1.04530e-01,4.37533e-01,-2.80058e-01,-9.52939e-01,1.93177e-01,-9.59690e-02,4.67892e-01,1.71670e-01,5.86511e-01,-8.64939e-02,9.40892e-02,-2.34070e-01,-5.01209e-01,-4.14069e-01,3.85492e-02,5.36184e-01,-1.96523e-01,-9.09522e-01,1.25884e+00,3.87436e-01,-2.76438e-01,8.96598e-03,-6.04637e-01,-9.61628e-01,1.81572e+00,-3.60978e-01,-7.19546e-01,-1.73740e+00,
1.39329e-04,-4.63023e-03,-2.50259e-02,-3.69419e-02,-2.42898e-02,1.98045e-02,-2.08758e-02,-8.50450e-03,-2.92089e-02,-3.24442e-02,1.66397e-02,3.62670e-02,2.24268e-02,6.33103e-03,-2.45098e-04,-7.97041e-03,-4.80589e-02,1.82926e-02,-5.48719e-02,-4.25784e-02,-3.20965e-02,-4.67805e-02,1.69049e-02,-3.84428e-02,-1.23218e-02,-3.03893e-02,-4.88178e-04,1.54646e-02,1.13668e-02,3.48572e-02,-7.27348e-03,-4.57056e-02,-1.97986e-02,-3.11082e-02,-1.46733e-02,9.68048e-03,-4.94328e-02,1.09618e-02,1.91858e-02,-4.49378e-02,-2.24522e-02,-3.93498e-02,8.68576e-03,2.93010e-02,-4.38934e-02,2.67004e-02,4.11691e-04,2.08232e-02,-5.39583e-02,3.81682e-02,
-8.68026e-01,8.01488e-01,-3.33759e-01,2.26177e-01,-1.43308e-01,1.03845e+00,-4.45403e-01,-7.75988e-01,2.57502e-01,-3.81992e-04,-1.76584e+00,6.64092e-01,2.00721e-01,2.83444e-01,1.86596e+00,-2.17617e-03,-1.98594e+00,2.20410e-02,-6.53181e-01,-9.46331e-02,-1.07065e-01,7.64729e-01,7.67064e-01,-1.51058e-01,6.16446e-01,-6.79944e-01,8.96457e-01,3.72945e-01,-8.45047e-01,8.65432e-01,-4.29304e-01,2.01898e-01,-1.87911e+00,2.80470e+00,-1.15454e+00,-6.66926e-01,-1.01558e+00,5.82486e-01,-2.64330e-01,-8.44373e-01,5.03100e-02,5.69319e-01,2.80677e-01,-3.39117e+00,8.10459e-01,-3.50216e-02,-3.29052e-01,-1.83332e+00,8.44033e-02,-1.84237e+00,
9.70549e-01,7.56138e-01,2.61838e-01,-5.27458e-01,-4.06845e-01,3.12016e-01,1.31853e+00,2.35407e+00,4.18035e-01,-6.21382e-01,8.53648e-01,-1.30746e+00,-1.22534e+00,-2.23243e+00,1.20485e+00,-1.35731e-02,-9.59703e-01,1.26039e-01,1.13175e+00,-4.61876e-02,1.83171e-02,5.34863e-01,3.12738e-01,1.16230e+00,3.33293e-01,-5.54025e-01,2.16552e-01,6.00594e-01,-1.26775e-01,-1.03033e-01,1.06381e-01,2.10853e-02,-1.00583e+00,-5.08292e-01,-6.85117e+00,-4.55580e-02,3.48235e-01,4.73748e-01,6.46225e-01,-1.75622e-01,-5.73169e-01,1.64272e-01,1.94096e-01,-3.50536e-01,3.87365e-01,-9.61971e-02,9.47255e-01,-6.78774e-01,-4.26553e-01,1.67134e+00,
-3.73237e-01,-1.01764e-02,2.56782e-01,3.50369e-01,1.46869e-01,4.65600e-01,4.37847e-01,1.35135e-01,-2.37148e-01,2.44911e-02,-1.94619e+00,-5.12982e-02,1.40029e-01,-4.16572e-01,6.50446e-01,5.57107e-02,3.39126e-01,-4.56547e-01,1.50443e-01,1.95285e-01,-6.94178e-02,4.93874e-01,-9.00054e-01,7.31490e-01,1.05629e-01,-1.41058e-01,4.97410e-01,3.87722e-01,-1.48994e-01,-2.63556e-01,-7.76258e-02,7.02758e-01,-3.17646e-01,-1.75836e-02,6.88334e-01,1.63819e-01,-9.87845e-01,-4.39431e-02,-3.60718e-01,-5.64725e-01,1.30609e-01,1.72485e-01,-1.19913e-01,-3.86454e-01,-1.02021e-02,1.13009e+00,-9.82010e-02,-3.56487e-02,-3.03783e-01,1.09371e+00,
-1.55986e-01,-3.40562e-01,-1.56239e-01,-2.46002e-02,4.57838e-01,5.29778e-01,-1.75843e+00,2.90826e-01,1.54270e-01,3.08303e-01,-2.81620e-01,9.79570e-01,-7.05632e-01,-2.69838e-01,-7.31997e-01,-1.37725e-01,-3.14536e-02,-2.06940e-01,-2.71781e-01,3.78595e-01,4.31736e-01,2.86589e-01,1.30501e-01,-7.00981e-01,2.88113e-01,-1.06254e-01,-7.02889e-01,-5.38133e-01,-6.95340e-01,-2.81920e-01,-1.06542e+00,3.72783e-01,1.35125e+00,-1.15956e+00,1.03618e+00,-2.24488e-01,-3.11847e+00,3.62904e-01,3.26845e-01,2.14306e-01,8.51708e-01,-7.78948e-02,-7.38272e-01,-2.63000e-02,3.59427e-02,-5.98569e-01,1.38429e+00,4.19220e-01,5.35191e-01,9.19768e-01,
8.31904e-01,1.64802e-01,-1.53022e-01,-3.97273e-01,4.38715e-02,2.01248e-01,1.63757e+00,2.16911e+00,9.68168e-02,1.20336e-01,1.23675e+00,-4.35510e-01,-3.40192e-01,1.67337e-01,2.30384e-01,-7.12744e-01,9.21627e-01,-1.70713e-01,2.90713e-01,-3.76243e-03,2.00257e-01,-6.55254e-01,2.04057e-01,1.36810e-01,1.38671e-01,6.72938e-01,-1.16100e-01,-5.35988e-02,4.10577e-01,2.69241e-01,1.53531e-01,-6.32659e-01,-3.24516e-01,-3.19607e-01,-3.87065e+00,4.01108e-01,-2.67159e-01,4.61511e-01,6.15761e-01,3.72676e-01,-1.87722e-01,-8.51894e-02,-7.01209e-01,4.50809e-01,-4.65022e-01,7.60063e-01,1.12989e+00,-5.31864e-01,5.60975e-01,2.76305e+00,
2.44671e-02,-6.15115e-02,2.75100e-01,-7.05095e-01,1.29818e+00,8.36683e-01,-7.44574e-01,6.63736e-01,-4.50306e-01,8.20842e-01,-1.72002e+00,5.71140e-01,-8.20220e-01,1.74843e-01,2.03278e-01,3.87250e-01,4.11051e-01,-2.38566e-01,-7.63961e-01,2.79698e-01,-2.58887e-01,-1.68624e+00,-4.23366e-01,-1.53461e-02,4.13714e-01,1.25140e-01,8.43901e-01,-1.29940e+00,1.79330e-01,-2.27138e+00,-9.12910e-02,1.28322e-01,-2.11444e-01,-2.30960e-01,2.34259e-01,-9.35915e-01,1.45285e-01,-8.52772e-01,-1.37125e-01,-1.45562e+00,5.16475e-01,4.77172e-01,-1.35609e+00,-1.08715e-01,3.39189e-01,-8.73312e-01,-3.28505e-01,-7.31405e-01,1.67649e+00,-8.82074e-01,
-1.67890e-02,-2.42532e-01,3.64164e-01,-5.53864e-03,-7.49515e-01,2.44347e-01,3.86628e-01,9.02512e-01,4.26817e-01,8.00934e-02,-1.06000e+00,1.02491e+00,4.77267e-01,5.60594e-02,3.89415e-01,7.84056e-02,3.74445e-01,6.92908e-01,-7.62635e-01,-2.56618e-01,-1.90730e-01,1.87832e-01,4.02646e-01,-1.06764e-01,2.23788e-01,5.36447e-01,3.66532e-01,5.06517e-01,1.55069e-02,4.62769e-01,3.83303e-02,-5.79967e-01,2.43990e-01,2.74709e-01,2.74060e-01,1.43845e-01,-1.44279e+00,2.28113e-01,-1.82847e-01,-1.06033e+00,-3.10453e-01,1.48342e-01,-7.23427e-02,-5.74626e-01,5.40900e-02,-1.27555e+00,-9.16780e-01,-7.59813e-01,-2.47987e-01,-5.43778e-01,
-4.42804e-03,1.31245e-02,-1.52629e-02,2.26320e-04,-3.51503e-02,-4.27716e-02,-3.49674e-02,-2.77305e-02,-2.28056e-03,4.03074e-02,-3.32576e-02,-2.73596e-02,-1.88009e-03,-3.91505e-02,2.79604e-02,-1.90747e-02,2.31182e-02,1.34327e-03,2.78549e-02,-2.30268e-02,-4.62458e-02,3.63843e-02,3.79985e-02,4.38521e-03,-3.02694e-02,2.59966e-02,-4.59193e-02,2.90838e-02,-4.07122e-03,3.20563e-03,-4.82582e-02,-4.03573e-02,1.00545e-02,2.40205e-02,3.32461e-03,1.36509e-02,4.26890e-03,4.62247e-02,-4.24397e-02,-5.14649e-02,4.63175e-02,-3.71417e-02,-5.47086e-03,-3.27487e-02,-2.58518e-02,7.91771e-03,-2.92940e-02,4.42231e-02,-5.31104e-02,-5.05839e-02,
4.30471e-01,-8.60494e-01,-1.90443e-01,1.22717e+00,3.23214e-01,4.22079e-01,1.09236e+00,-2.90262e-01,-3.86100e-01,2.74194e-01,-1.73019e+00,-1.75363e-01,2.53278e-02,1.51455e-01,-2.80371e-02,2.05997e+00,5.67804e-01,-7.61340e-01,4.09046e-01,-3.22594e-01,-9.29675e-01,-7.24993e-01,-2.91450e-01,-4.83491e-01,-2.58925e+00,3.92326e-01,7.38619e-01,-7.85227e-01,-3.61068e-01,-3.94573e-01,-4.87289e-01,2.29603e-01,-6.23943e-01,-4.44550e+00,-1.57144e+00,1.94725e-01,-1.86359e-01,-1.20129e+00,-2.38241e+00,-3.05504e-01,9.61172e-01,3.44126e-01,1.30716e+00,-2.14937e+00,4.83886e-01,1.24086e-01,4.69953e-01,-9.05108e-01,-1.75362e-01,1.22768e+00,
-2.36101e-02,8.09726e-03,-7.28363e-02,-3.44737e-02,-5.13901e-03,3.40466e-03,5.96537e-03,-3.03302e-02,-3.62349e-02,-4.50107e-02,-3.84234e-02,7.36351e-03,-4.00226e-02,5.48870e-03,9.50481e-03,4.61306e-02,-6.35827e-02,-4.41738e-02,2.15190e-02,-4.01117e-02,-4.94755e-02,-4.86366e-03,-3.38820e-02,3.30556e-02,1.93170e-02,-2.85703e-02,-2.49820e-02,-2.42191e-02,-3.24773e-02,-1.88622e-02,2.72403e-02,1.25451e-02,-3.31676e-02,-5.20519e-02,-1.08471e-02,-2.93741e-02,7.04550e-03,1.53910e-02,7.13960e-03,7.43696e-03,1.38115e-02,-3.86060e-03,-5.46473e-02,-3.07210e-03,-8.56371e-03,-4.91896e-02,-4.72352e-02,-1.17885e-02,2.60560e-02,2.58426e-02,
2.10668e+00,-3.28582e-02,7.61220e-01,-3.21415e-01,-2.40637e-01,6.66487e-01,8.39807e-03,9.46291e-01,-2.30565e-01,-1.83922e-01,1.82632e-01,-4.09681e-01,-4.17334e-01,6.85932e-01,2.23143e+00,6.66179e-01,3.75196e-01,-2.43687e-01,-5.20067e-01,4.42890e-01,1.57377e-01,6.31988e-01,5.27067e-01,-3.83163e-02,-8.35698e-01,-2.70110e-01,-4.38680e-01,3.92621e-04,1.28989e-02,1.56015e-01,2.87689e-01,-4.41848e-01,2.87647e-01,4.85212e-01,-5.44941e-01,-1.54487e-01,4.51298e-01,-4.38540e-01,-3.64076e-01,-5.06241e-01,-2.85365e-01,-1.20837e-01,5.90375e-01,1.67153e-01,4.53603e-01,-7.18195e-02,-4.42123e-02,4.16981e-01,2.90948e-01,3.31133e-01,
-7.25015e-01,-3.64822e-01,-3.08716e-01,1.17386e-01,-8.92426e-02,-1.07716e-01,3.11040e-01,-1.41539e-01,-8.32070e-01,-2.12907e+00,-3.39824e+00,-1.13455e+00,9.06924e-02,-5.82444e-01,7.29226e-01,4.25443e-01,3.36993e-01,-4.54777e-01,5.49135e-01,5.59780e-01,-7.93108e-03,3.83279e-01,-3.55268e-01,1.94591e-01,1.19764e-01,-7.30404e-02,4.56010e-01,6.89452e-01,1.03217e-01,5.31502e-01,1.13987e+00,7.43080e-01,-2.88654e-01,5.54993e-02,1.64768e-01,-8.22994e-01,3.56938e-02,2.68909e-02,-2.33677e-01,-2.81177e-03,2.16105e-01,-4.82542e-01,-2.93791e-01,-5.27518e-01,-8.87922e-01,-2.91743e-01,-1.04720e+00,-2.74212e-01,5.28298e-01,-3.65575e-01,
-3.44963e-01,-2.75055e-01,2.09080e-01,7.73309e-02,-3.00157e-01,-3.33053e-02,-9.78099e-01,-3.39694e-01,-3.55625e-01,3.73710e-01,-6.85922e-01,1.15817e-01,5.41478e-01,-5.20049e-01,-1.65818e-02,1.45855e+00,-5.24196e-02,-2.08852e-02,-3.46649e-01,1.69161e-01,8.86101e-02,4.36826e-01,-1.90904e-01,-5.33125e-01,1.91289e-01,-2.82172e-01,-1.84200e-01,1.02397e-01,3.74336e-01,-2.31371e-02,4.15399e-01,-3.48922e-01,2.02620e-01,-2.72458e-01,-3.20575e-01,-2.43899e-01,3.15986e-01,-4.01812e-01,-2.15483e-01,-3.23531e-01,-1.55061e-01,-2.80768e-02,-1.50116e-01,-9.65046e-02,3.71837e-01,1.50943e-01,-1.30717e+00,1.61723e-01,1.85015e-01,9.76454e-01,
2.71475e-02,-3.25597e-01,8.36829e-01,4.67289e-01,-8.94452e-01,5.64522e-02,1.15113e+00,5.98005e-01,7.41474e-01,2.66754e-01,-4.84045e-01,-7.11331e-01,-5.38507e-02,4.56012e-01,-5.93546e-01,-1.17789e+00,8.35008e-02,-9.14864e-02,-3.63871e-01,-6.82984e-01,1.12993e+00,5.65456e-01,8.60276e-01,-1.04987e+00,4.92235e-02,2.81406e-01,-3.30537e-01,5.51833e-01,8.18864e-01,-1.12689e-01,-3.07151e+00,1.16335e-01,-1.24513e-01,-1.68437e-01,1.82615e-01,3.55561e-01,-1.03477e-01,-1.10200e+00,1.03216e+00,1.15509e+00,1.78700e-01,3.38145e-01,-2.33469e-02,-1.66089e-01,-1.05456e+00,-4.00540e-01,9.37263e-01,2.62633e-01,-1.16333e+00,-8.12032e-01,
3.83008e-02,-2.92447e-01,-2.03202e-01,1.61787e-01,3.61919e-01,-1.10207e+00,1.34674e+00,-2.60661e-01,3.56208e-01,-1.03787e-01,1.16629e-01,-1.65212e-02,-8.07821e-02,5.47314e-01,-5.98107e-02,-1.62270e-01,2.53311e-01,3.78216e-01,-7.04943e-01,6.68988e-01,1.02181e+00,-4.42792e-01,1.25950e+00,2.01432e-01,-2.25490e-01,1.58514e-01,-3.77502e-01,-3.27523e-01,1.01655e-01,-2.57923e-01,6.48672e-01,-4.69037e-01,-1.94357e+00,2.32422e-01,3.02336e-01,2.28851e-01,8.90077e-01,-1.25955e-01,-5.36496e-01,-4.39228e-01,2.82908e-01,-2.24062e-01,2.88182e-01,3.78274e-01,-3.11583e-01,3.05157e-01,3.04659e-01,-1.72728e-01,8.94692e-01,2.30052e-01,
-3.72653e-02,2.20910e-01,-8.48828e-02,1.45628e-01,-1.87844e-02,8.94952e-02,1.79220e+00,-3.51563e-01,1.04871e-01,-1.23750e-02,6.38472e-02,3.79146e-02,1.38789e-01,1.94010e-02,2.33395e-03,8.43046e-02,6.50531e-02,4.15472e-02,-1.34599e-01,2.20245e-01,1.37678e-01,9.01139e-02,-2.94855e-01,-1.55830e-01,1.58719e-02,2.32952e-02,6.79230e-02,7.83237e-02,7.83948e-01,-2.85326e-02,-1.94537e-03,6.94328e-02,2.82422e-01,-5.58241e-02,-7.02913e+00,1.20716e-01,-6.04283e-02,8.75530e-02,-2.48522e-01,-5.97674e-03,-1.97661e-02,6.50119e-02,1.31542e-02,8.42986e-02,-9.13834e-02,2.69736e-01,9.54592e-01,1.29602e-02,1.34018e-01,2.28862e+00,
1.60092e-01,6.69170e-02,4.46510e-02,-8.49346e-02,-2.14695e-02,-1.94331e-03,2.69007e-01,9.12315e-02,1.14608e-01,9.27814e-02,2.12015e-01,-4.31790e-02,-9.28935e-02,-1.65091e-01,1.13243e-01,-2.80058e-04,-3.80125e-01,-2.21043e-02,8.06875e-02,-2.06358e-02,5.50352e-02,-3.61990e-02,-3.76667e-01,-1.74069e-01,-6.08544e-02,9.73417e-03,5.34507e-02,4.28042e-01,-7.04624e-02,-3.14301e-01,-1.40712e-01,-3.68201e-02,-1.07297e-01,-1.36511e-01,-3.84028e-01,-7.10606e-02,3.58124e-02,-6.14678e-02,7.60450e-03,-3.50286e-01,1.77626e-02,-1.69194e-02,9.87352e-02,1.65531e-01,1.77034e-01,-1.16230e-01,6.46578e-02,-1.00845e-01,6.57474e-02,2.54774e-01,
2.01692e-02,1.99289e-02,2.58962e-02,-6.12397e-02,-3.94995e-02,2.70301e-02,-1.85045e-02,1.62794e-02,-3.88451e-02,2.97679e-02,-3.72844e-02,1.00595e-02,-8.37707e-03,-4.59610e-03,-2.27026e-02,-5.29981e-03,3.44545e-02,2.97986e-02,-3.67283e-04,3.43384e-02,-4.61851e-02,-2.68898e-02,-1.02014e-03,-4.32231e-02,2.18064e-02,-8.56452e-03,-4.16816e-02,-3.97696e-02,-1.93334e-02,-2.89666e-02,-2.18869e-02,-2.76613e-02,2.43102e-02,1.88545e-02,-1.11782e-02,3.72851e-02,-3.02383e-02,1.79663e-02,-5.51709e-02,-5.08227e-02,-3.09994e-02,7.34993e-03,-3.68467e-02,2.93494e-03,1.58034e-02,-2.77689e-02,-1.02732e-02,2.83737e-02,-3.29966e-02,-4.66675e-02,
1.97112e+00,-4.76042e-01,2.95789e-01,2.12935e-01,-1.19626e-01,8.17138e-01,-1.36630e+00,-7.81553e-02,1.12065e+00,1.80006e-01,-7.28019e-01,8.47442e-01,-3.81897e-02,5.10397e-01,-1.17383e+00,1.11332e+00,-9.91154e-01,-1.49785e+00,3.95626e-01,3.67815e-01,-1.15491e+00,5.99642e-02,1.27419e+00,4.55030e-01,2.61535e+00,3.85953e-01,-1.85375e+00,3.15248e+00,-2.83600e-01,4.89573e-01,-3.60201e-01,-2.42930e-01,-3.99844e-01,1.00296e-01,-3.22880e-01,1.77688e-01,-1.63846e+00,-4.04801e-01,7.84652e-01,9.62586e-01,-3.20202e+00,2.11498e-01,9.80542e-01,3.18088e-01,3.32081e-01,-7.52288e-01,-1.20125e+00,2.54995e-01,-1.34780e+00,2.22892e+00,
1.03853e+00,-8.27173e-02,-4.85346e-02,-7.50089e-01,1.00817e+00,1.74155e-01,-9.68040e-01,7.07663e-01,-8.88889e-01,-1.58811e+00,-2.00531e-01,-2.45628e-01,-8.46940e-01,-4.81364e-01,7.16027e-01,7.68822e-01,-1.58253e-01,-1.61525e+00,-2.02978e-01,9.14138e-03,-2.98342e-01,-4.57700e-01,9.64251e-01,2.72042e-01,-1.48853e+00,-1.22750e-01,-4.93934e-02,-6.55239e-01,-1.59194e-01,-7.52511e-01,3.08957e-01,1.61635e-01,1.76967e-01,-2.79186e-01,1.01529e+00,3.33441e-01,7.92196e-01,1.88217e-01,-7.41094e-01,1.34434e+00,-5.02278e-01,-4.64837e-01,5.48196e-01,8.55164e-01,-1.18821e-02,-4.37490e-01,1.94250e+00,-8.90571e-01,8.34271e-01,-7.02032e-02,
2.98704e-01,-9.12230e-02,3.34675e-01,2.57441e-01,-6.06102e-01,-1.75574e-01,7.43479e-01,-3.04231e-01,6.17088e-02,-1.86748e-01,8.64543e-02,-2.01600e-01,5.81338e-01,1.44863e-01,-4.92953e-01,-1.53455e-01,-1.83273e-01,-8.15981e-01,4.95820e-01,3.22682e-02,-3.03465e-01,-3.77496e-01,2.40089e-01,3.06298e-01,-4.52417e-02,2.55222e-01,-1.73180e-01,3.75244e-02,-2.27818e-02,1.73140e-01,4.77506e-01,3.38054e-01,8.71674e-01,-9.15389e-02,-2.49070e-01,4.35660e-02,-1.21985e+00,3.66347e-02,-1.25611e-01,-4.56038e-01,3.72310e-01,2.37286e-01,3.56352e-01,1.94092e-02,-2.35021e-01,2.58097e-01,4.75676e-01,1.28679e-01,-1.46063e-01,1.19800e+00,
-6.97017e-03,-3.59738e-02,-3.14895e-02,1.35273e-03,-3.19449e-02,1.27901e-02,-2.26332e-02,9.19324e-03,-3.29575e-02,-4.85663e-02,3.08579e-02,-6.99991e-03,-1.09330e-02,-1.19500e-02,1.81624e-02,-4.30167e-02,-2.59073e-03,-3.72816e-02,2.87196e-02,-8.65766e-03,1.10374e-02,-5.46540e-03,-2.88620e-02,1.24309e-02,-5.00990e-02,-4.70349e-02,1.95727e-03,-2.82194e-02,-4.74885e-02,-1.65421e-02,1.57420e-03,2.87141e-02,-3.96874e-02,-3.20623e-02,-1.22487e-02,3.33671e-02,-4.25327e-02,-1.91839e-02,7.48552e-03,2.32928e-02,2.03439e-02,-2.72937e-02,3.24754e-02,-2.16992e-02,-2.28904e-03,-2.67328e-02,-4.50450e-02,-1.88118e-02,-3.89780e-02,2.46858e-02,
4.87481e-02,2.75821e-01,-3.04292e-01,1.02344e-01,-3.46178e-01,2.39093e-01,-8.77093e-01,-6.86476e-01,2.95287e-01,-1.53748e-01,9.82533e-01,-8.90417e-01,4.03185e-01,7.82426e-01,-2.26720e-01,-1.13423e+00,-5.91231e-02,7.91288e-02,-2.20415e-01,-3.45405e-01,2.24847e-02,1.92824e-01,-1.96310e-01,1.05052e+00,5.89645e-02,1.92670e-01,3.13831e-01,1.19717e-02,-2.47896e-01,-1.99902e-01,5.77824e-01,4.59477e-01,-3.70055e-01,3.24799e-01,3.18231e-01,-8.01553e-02,-8.01220e-01,3.88703e-02,-1.74540e-01,1.93796e-01,2.74574e-01,-3.63492e-01,-1.64256e-02,-2.37172e-02,1.85088e-02,-2.80440e-01,-7.46925e-01,-5.71624e-01,-2.70454e-01,-2.40290e+00,
3.78910e-01,3.87628e-01,1.03943e+00,-1.66055e-01,-9.56229e-01,-1.65489e-01,5.18738e-01,-1.00049e+00,1.24075e+00,3.70511e-01,2.47939e+00,1.25329e+00,6.19624e-01,1.59239e-01,-8.37520e-01,1.95209e-01,-4.47758e-01,-2.49632e-01,-2.08788e-01,9.91530e-02,-6.71129e-01,4.29647e-01,7.50148e-02,-1.28780e+00,2.30794e-01,-1.32748e-01,-2.99864e-01,-8.29276e-01,2.11273e-03,-3.45489e-01,-8.45004e-01,5.72186e-01,1.00695e+00,-1.36623e-01,3.93790e-01,8.68681e-01,-6.77058e-01,1.27691e-01,5.09824e-01,-1.02470e+00,-5.43126e-01,1.41280e+00,9.20322e-03,3.30038e-01,1.07759e+00,-1.26417e-01,-3.78276e-01,6.06430e-01,-1.43057e+00,-7.17829e-01,
1.37241e-01,-4.43324e-01,6.39392e-02,1.37829e-01,4.60066e-01,-3.08554e-01,1.54062e+00,-9.56433e-01,1.42388e-01,3.06863e-01,1.20662e-01,6.05345e-03,-3.93972e-01,2.59729e-01,3.60967e-01,-8.90087e-02,-9.45392e-02,1.41743e-01,6.96585e-02,-1.00949e-01,-2.76678e-02,-1.81044e-01,1.03165e-01,2.95864e-01,-2.11476e-01,1.36236e-01,1.53042e-01,-2.15732e-01,5.75423e-01,1.63942e-01,7.58470e-01,2.88843e-01,3.73299e-02,-5.55659e-02,-1.01511e+01,3.68804e-01,-8.59846e-02,1.53316e-01,6.33946e-01,3.82232e-02,1.35979e-01,1.08236e-01,-1.02522e-01,-1.88594e-01,2.54753e-01,4.78172e-01,8.54580e-01,1.44778e-01,-2.86253e-01,2.14058e+00,
-2.39703e-01,-1.01124e-01,2.06844e-01,2.99837e-01,3.13802e-01,-3.99868e-01,-8.85364e-01,-5.02654e-01,-2.32855e-01,2.09000e-01,-2.91112e-01,-1.55882e-01,-4.62521e-02,-4.29094e-01,-3.77222e-01,2.43832e-01,-2.69904e-01,-1.21490e-01,7.72844e-01,5.56385e-01,1.09280e-01,2.79456e-01,-5.44471e-01,-2.08320e-02,3.08618e-01,-9.82471e-01,3.94147e-02,7.64541e-01,-5.21229e-01,-2.10877e-01,1.64500e-01,7.19967e-01,8.05255e-02,-5.81454e-01,7.21225e-01,-3.65802e-02,-4.33090e-01,1.07454e-01,2.02254e-01,9.60404e-02,-2.45365e-01,-2.84281e-01,3.19378e-01,3.73563e-01,-5.78686e-01,-2.24702e-01,-7.20645e-01,5.25107e-01,2.28252e-02,-4.76714e-01,
-8.85075e-01,-3.18981e-01,-2.21796e-01,1.93414e-01,8.68385e-01,-9.22401e-02,-2.36346e+00,-7.94582e-01,-1.32202e-01,2.50614e-01,-1.88637e-01,-3.07549e-02,7.98560e-02,-1.12285e-01,5.74751e-01,-2.25750e-01,-1.35269e-01,8.36644e-02,-2.80048e-01,1.87637e-01,-3.59676e-02,-5.60031e-01,-1.31055e-01,9.46806e-03,-6.82780e-03,-1.16668e-01,4.28917e-01,-1.16925e-01,1.15441e-01,1.44436e-01,3.95807e-03,6.98364e-01,7.16259e-02,-3.37507e-01,3.66138e-01,-1.70734e-01,3.73647e-01,3.22572e-01,2.90568e-01,-4.54471e-01,3.08259e-01,-3.97737e-01,-7.57605e-02,1.64030e-01,1.31167e-01,4.69372e-01,6.90846e-01,-5.18365e-01,4.41216e-01,-8.25859e-01,
1.06788e+00,-7.12686e-01,-1.56646e-01,5.49728e-01,2.17207e-01,7.81973e-02,-2.34954e-01,1.38233e+00,1.07085e+00,-6.92166e-02,-1.88124e+00,-2.09583e-02,-9.66766e-02,-2.33676e-02,-1.04326e+00,-1.03493e+00,-1.33307e-01,-5.17867e-02,3.08791e-01,-2.17617e-01,1.59221e-01,1.23643e-01,-4.80207e-01,-6.76800e-01,9.17453e-01,3.42030e-01,-1.08754e+00,7.98498e-01,-1.12593e-02,-3.83963e-01,-4.91639e-01,5.12577e-01,5.48319e-01,-6.40257e-01,6.01014e-01,1.70136e-01,-4.52909e-01,5.17445e-01,6.15541e-01,-5.46312e-01,-6.60654e-01,-3.21321e-01,9.56124e-01,2.74967e-01,-4.12584e-01,-2.91812e-01,-3.61701e-01,5.51568e-01,-5.64820e-01,4.76246e-01,
1.47129e+00,-4.69320e-01,-8.19455e-02,5.29083e-01,-1.80875e+00,1.49608e+00,-3.30295e-01,2.62105e-01,-2.83524e-01,1.98096e-01,-3.28472e+00,-7.28298e-02,3.89157e-02,-2.35291e-01,-1.94009e+00,-1.02464e+00,-4.37428e-01,3.80507e-01,-4.82828e-01,1.01521e-01,-6.94120e-01,-1.44194e-01,3.02805e-01,-3.11362e-01,3.23644e-01,5.58114e-01,4.16697e-01,1.12588e+00,-4.39280e-01,-1.55721e-01,-1.25339e+00,2.91220e-01,-1.75843e+00,-5.02818e-02,2.90813e-01,-2.48099e-01,-9.99604e-01,-4.05336e-01,-7.57028e-01,-7.84217e-01,-7.63760e-01,-5.84584e-01,-6.18710e-02,1.89258e+00,-8.43206e-01,2.82995e-01,7.85768e-01,5.95217e-01,-1.22352e+00,9.85759e-02,
1.55112e+00,9.21122e-01,-2.84479e-01,1.50339e-01,-5.94367e-01,7.09204e-01,6.16809e-01,1.83871e-02,2.90792e-01,8.85811e-02,-2.59702e-01,2.49382e-01,-7.39822e-02,-4.59713e+00,6.35337e-01,-3.19942e-02,-4.52286e-01,2.94249e-01,6.37327e-01,9.59905e-01,6.17534e-01,4.87049e-01,-5.11807e-01,-3.23332e-01,4.88948e-01,1.64441e-01,-2.77170e-01,-2.26677e-01,5.64720e-01,-2.57973e-01,-5.57604e-02,-5.21513e-01,1.68001e+00,-2.13292e+00,-1.08428e+00,-1.75441e-01,-5.32145e-01,2.95423e-01,-1.56931e-01,3.86320e-02,4.68947e-01,1.69415e-01,2.49900e-01,-8.76837e-01,1.97748e-01,-8.91549e-02,5.87086e-01,8.61459e-01,-3.63170e-01,-4.93044e-01,
3.34963e-01,3.02750e-01,6.17714e-01,-2.45126e-01,-1.66024e-01,1.98340e-01,2.96919e-01,-1.32359e-01,-3.36163e-01,-8.45550e-02,-7.13876e-01,2.65514e-02,-1.61612e-01,7.46201e-02,-1.66438e-01,-1.48046e+00,-5.70971e-01,-1.84810e-02,-2.15334e-01,7.07819e-02,-1.00754e-01,-1.00675e+00,-1.41024e-01,-1.65215e-01,5.15952e-02,-3.10871e-01,-3.37359e-02,3.58026e-01,1.76332e-01,2.57489e-02,-3.89391e-01,-3.10000e-01,1.48222e+00,6.02178e-01,4.47624e-02,7.96642e-01,-3.21509e-01,7.02015e-01,-4.35199e-01,9.09887e-02,-1.26441e+00,-6.57449e-02,7.61633e-01,1.04251e-01,5.74936e-02,6.25939e-01,-4.88601e-01,8.12675e-01,-2.40209e-01,2.74022e-01,
-1.01735e+00,2.99021e-01,-1.01305e+00,-1.10769e+00,5.84631e-01,-1.47816e-01,2.54720e-01,-3.26650e-01,-8.09793e-01,-2.21247e+00,2.92541e-02,1.59250e+00,5.28065e-02,2.42023e-01,4.84873e-01,8.46291e-01,1.99603e-01,9.02722e-01,1.70205e+00,-1.25938e-01,3.44085e-02,-6.02435e-01,3.85489e-01,-1.52794e+00,6.02317e-01,-5.53828e-01,2.57421e-01,3.90429e-02,-4.97082e-02,2.60001e-01,-3.65650e+00,-1.67257e+00,-5.95286e-01,1.48558e-01,2.12691e-01,1.04977e-01,4.32291e-02,-1.41731e+00,1.90930e-01,6.45692e-01,6.95445e-01,-6.99594e-01,6.06582e-02,-2.79845e-01,-1.71106e-01,-4.30298e-01,2.17608e-01,-1.01869e+00,1.27198e+00,7.69089e-01,
-4.73329e-02,-2.13698e-02,1.38164e-02,-4.83787e-02,-9.16605e-03,-7.14750e-03,1.61253e-02,7.45762e-03,6.37295e-03,1.65350e-02,1.13682e-03,-3.60358e-02,3.03728e-02,-6.08385e-04,-1.37676e-02,-2.85855e-02,-5.17828e-02,-1.77117e-02,-2.31058e-02,4.46591e-02,2.44105e-02,-4.76006e-02,-5.03096e-03,1.48540e-03,-4.97599e-02,3.04581e-02,9.16707e-03,-1.83058e-02,-2.15223e-02,-1.85131e-02,1.03435e-02,-1.12265e-03,-5.21103e-02,1.65785e-02,9.75520e-03,3.19830e-02,1.28837e-02,1.69528e-02,-1.42551e-02,-2.32707e-02,4.64301e-03,-1.85279e-02,-3.68581e-02,2.03558e-02,-3.98946e-02,2.01646e-03,1.42329e-03,-4.38406e-03,-1.59867e-02,4.26693e-02,
6.02165e-01,-3.64210e-01,-2.99391e-01,5.00375e-01,-7.14034e-02,5.32990e-01,-1.25512e+00,-3.95004e-01,1.29019e-01,5.92922e-01,4.12139e-01,-4.08211e-01,6.47187e-01,3.69497e-02,5.59343e-01,1.75177e-01,-3.32723e-01,6.23174e-01,-8.32978e-01,-6.43658e-01,-5.78431e-01,2.87683e-01,8.55551e-01,3.72477e-02,2.88644e-01,5.55690e-01,4.10466e-01,5.82534e-01,4.58600e-01,-9.03515e-02,5.08749e-01,1.72971e-01,1.29410e-02,-3.41824e-01,-7.08700e-01,-3.49347e-01,-1.24814e-01,5.60016e-02,8.13656e-01,1.59779e-01,1.31561e-01,3.21141e-01,2.15735e-01,-3.15146e-01,4.86245e-02,-1.30518e+00,-2.48963e-01,2.31257e-01,6.30904e-01,-1.88658e+00,
7.93606e-02,7.56525e-01,-2.65848e-01,-2.70746e-01,2.46351e-01,2.74050e-01,-9.61124e-01,-6.83653e-01,5.83820e-01,-9.99154e-01,8.12254e-01,-2.82506e-01,-3.23960e-01,7.16228e-01,-1.98268e-01,5.42204e-01,-2.86160e-01,-2.79009e-01,-1.61119e+00,-9.69305e-02,6.95609e-01,-2.79294e-01,-3.68659e-01,3.96632e-02,3.40862e-01,1.07968e-01,-6.87816e-02,-5.64671e-01,-6.61226e-02,-1.58650e-01,2.18733e-02,-3.78377e-01,1.14894e+00,1.60435e-01,-5.87334e-03,1.76606e-01,-1.91588e-01,8.05153e-01,3.65763e-01,-4.22718e-01,1.71254e-01,-1.50040e-01,-2.89044e-01,-4.87665e-01,3.87844e-01,1.01244e+00,-8.81571e-01,1.33810e-01,1.27826e+00,3.89932e-01,
-7.82453e-01,-2.41908e-01,4.89891e-01,-4.92814e-01,-4.19074e-01,6.85113e-02,1.08284e+00,3.66651e+00,-1.57944e-01,1.42688e-01,3.04866e-02,8.49492e-01,-4.99219e-01,-1.20014e-02,8.74267e-01,4.73596e-01,-1.88648e-01,8.01049e-01,-4.46842e-01,1.13172e+00,1.02500e+00,-1.52404e+00,-3.83941e-01,-1.17523e+00,-3.78121e-01,1.35493e-01,2.20707e-01,-2.60455e-01,5.91713e-03,-1.61283e-02,-4.64720e-01,-6.85816e-01,3.33235e-01,5.65158e-01,-5.04995e+00,-2.10778e-01,3.84804e-01,-3.25255e-01,-6.84826e-01,-3.88249e-01,2.29331e-02,-5.56092e-02,5.90937e-01,4.25127e-01,1.49507e-01,6.13939e-02,7.36065e-01,-8.44649e-01,6.55954e-01,2.33126e+00,
9.02343e-03,6.35194e-03,4.78383e-03,-8.51826e-03,1.09388e-02,6.95990e-03,-5.46576e-02,3.62141e-03,3.32881e-02,4.44614e-02,-5.83057e-02,-1.53302e-03,-1.60784e-03,-1.17651e-02,-3.85720e-02,-2.31217e-02,2.68195e-02,6.99277e-04,-2.60345e-02,-2.10336e-02,1.13871e-02,1.37658e-02,-1.65837e-02,-1.73554e-02,-3.84094e-02,7.14849e-03,-5.13628e-02,4.32051e-02,4.50600e-03,-1.52606e-02,-4.60531e-02,1.30792e-02,-4.31035e-02,1.04215e-02,-2.10340e-02,-1.87857e-04,-3.74350e-02,-3.54453e-02,4.92136e-03,-3.40233e-03,1.91998e-02,-3.54834e-02,-2.75197e-03,3.39027e-02,-5.50911e-02,-1.84849e-03,-9.04421e-03,-5.10084e-03,5.52024e-03,1.77175e-02,
-5.28368e-02,-1.33324e-02,2.03795e-02,1.35565e-02,-2.60617e-02,-2.01216e-02,1.24091e-02,1.20519e-02,-6.03463e-02,-3.19491e-02,-1.50782e-04,-3.97294e-02,-3.30073e-03,-7.58304e-02,-4.71826e-02,-2.71644e-02,-6.05794e-02,-2.88578e-02,-1.54986e-02,9.28593e-03,-9.77406e-04,-3.63226e-02,-2.56887e-02,-4.34643e-02,1.37590e-02,-6.33117e-02,-3.56187e-02,3.46805e-03,-8.74394e-03,-4.35753e-02,2.04103e-02,-9.51827e-03,1.28235e-02,2.46311e-03,-1.97310e-02,-1.53009e-02,3.80259e-02,2.32134e-02,2.54826e-02,-2.81810e-03,2.94179e-02,-4.96097e-02,-4.39012e-02,-5.43567e-02,-1.46669e-02,2.16423e-02,3.94699e-02,-2.01346e-02,-6.37146e-02,4.17385e-02,
-2.02226e-02,
-1.96968e-02,
-1.10465e+00,
-1.35948e+00,
-9.00990e-01,
-4.87449e-01,
8.24748e-01,
2.63845e-02,
-1.63704e+00,
-1.13622e+00,
-1.22588e+00,
-4.42169e-03,
8.07399e-03,
-5.49589e-03,
1.93000e-01,
3.29253e-01,
-2.45541e-01,
9.80746e-01,
8.92489e-01,
-4.05632e-03,
-3.63723e-01,
-2.62937e-02,
-7.80469e-01,
3.09950e-01,
1.13531e-01,
-1.70390e-01,
-1.51613e-01,
-8.95212e-02,
-1.04957e-01,
-1.30102e-02,
-1.11721e+00,
1.34783e-01,
-3.77243e-01,
-2.66111e-02,
5.54705e-01,
6.40917e-01,
-4.59168e-01,
1.06594e-01,
2.06688e-01,
4.25724e-01,
8.83412e-01,
-7.70007e-01,
2.56108e-01,
-1.08195e+00,
-9.75248e-03,
-7.33051e-01,
1.72017e-01,
-8.72969e-02,
-1.13358e-02,
-1.51501e-02,
5.33883e-01,4.26890e-02,1.51008e-01,3.97116e-01,1.27814e+00,-4.19235e-01,-1.22941e-01,-3.18581e-01,-2.67867e-01,4.59236e-01,-1.43364e-01,-3.36166e-02,5.40576e-01,7.67152e-02,6.59179e-01,1.88763e-01,-6.95464e-01,4.54582e-01,2.13052e-01,-2.64687e-02,-1.47864e-01,4.83832e-03,4.27046e-01,-1.28984e+00,2.62457e-01,-3.82520e-01,3.37188e-01,-7.84062e-01,1.68582e-01,-4.30735e-02,-6.33298e-01,-3.17378e-01,4.26873e-01,-5.77187e-04,-5.86940e-01,-1.18300e-03,3.81139e-01,-2.57462e-01,2.32077e-01,-6.48296e-01,-3.20567e-01,4.11726e-01,-6.95791e-01,7.44681e-01,2.82788e-02,5.62322e-01,-5.80341e-01,1.87142e-01,-8.01237e-03,-9.60600e-03,
-5.19270e-02,1.44161e-02,-3.78504e-02,-4.62402e-02,1.27743e-02,-1.28730e-02,2.93939e-02,2.98091e-02,1.54693e-02,9.60815e-03,-3.75496e-02,2.30326e-02,-5.26134e-03,-1.96377e-02,-3.68824e-02,-8.04423e-03,-2.75113e-02,3.68109e-02,-1.15086e-02,-3.72663e-02,-3.11183e-02,5.99576e-03,2.03075e-02,8.98338e-03,-3.52619e-02,-8.39719e-03,5.95761e-03,3.14434e-02,2.66926e-02,4.24079e-03,7.79537e-03,-2.23685e-02,1.11662e-02,1.47609e-03,-7.75828e-02,-4.95787e-02,-2.88256e-02,1.11076e-03,-2.28190e-02,-4.96536e-02,3.67546e-02,6.06861e-03,-8.95725e-03,1.15697e-02,-4.64471e-02,-4.94697e-02,-4.69308e-02,-3.30390e-02,-4.53863e-02,1.56234e-02,
-8.68426e-03,1.39934e-02,-4.34530e-02,5.25859e-03,2.31847e-02,-1.46214e-02,-5.84851e-02,1.16337e-02,-2.61657e-02,-2.01506e-02,3.60259e-02,-2.09067e-02,-4.70068e-02,4.24407e-02,3.52273e-02,-3.13925e-02,-1.82102e-02,1.75731e-02,8.93749e-03,9.19113e-03,-2.88204e-02,-1.57478e-02,2.27747e-02,-1.38111e-02,-4.68040e-02,-9.88514e-03,-2.59977e-02,-4.49372e-02,-2.19652e-02,1.42895e-02,-4.66159e-02,3.14865e-02,6.06007e-03,-1.90004e-02,-5.04686e-02,-5.72650e-02,-3.06366e-02,-5.86367e-03,2.78092e-02,-1.59727e-02,-3.94517e-02,1.80088e-02,2.31161e-02,3.20055e-02,-4.80582e-02,-5.52126e-02,-3.74059e-02,-7.33768e-03,1.08015e-02,-4.94826e-04,
3.30294e-01,3.45179e-02,1.50227e-01,1.35977e+00,5.56552e-01,-6.10826e-01,1.39635e-01,-3.33920e-01,-2.26505e-01,6.84255e-01,-2.99052e-02,1.10973e-02,1.22154e+00,5.03996e-01,-7.50704e-01,-4.08528e-01,-1.64123e-01,-3.90598e-01,7.92655e-01,5.53335e-04,8.50441e-01,-2.57751e-02,9.54477e-01,1.30568e+00,-2.99497e-01,2.90911e-01,-6.80681e-01,-8.49021e-02,6.64728e-02,-1.53212e-02,9.25101e-01,-1.28399e-01,3.55690e-01,-4.59930e-02,-1.77556e+00,-1.45199e-01,-2.64138e-01,-1.08486e-01,1.82968e-01,1.38261e-01,6.16752e-01,4.73719e-01,-6.36585e-01,-1.02117e+00,-1.84681e-02,1.44753e-01,5.09062e-01,5.48348e-01,3.93304e-02,4.11944e-02,
1.08369e-01,-2.70054e-02,8.84574e-02,-4.39208e-01,4.00868e-05,-2.47143e-01,-1.15607e-01,-3.24402e-01,-2.44929e-01,2.91789e-01,-1.24193e-01,-3.40168e-02,-3.61662e-01,-2.72589e-02,8.74796e-02,2.24613e-01,4.24665e-01,2.74454e-04,-1.02293e-01,3.02120e-02,9.02423e-02,-4.31270e-02,-1.03903e-01,-3.21070e-01,6.07410e-02,2.46328e-02,3.05759e-02,-1.32259e+00,9.23198e-02,-2.20995e-02,-4.62999e-01,-2.57635e-02,-1.05777e+00,1.51697e-02,-6.59336e-01,1.85029e-01,-1.04895e+00,-4.48823e-01,2.10753e-01,5.46873e-01,1.51336e-01,7.08125e-01,-2.38750e-01,7.21010e-01,2.08416e-02,1.02533e-01,-3.23656e-01,1.97914e-02,3.41070e-02,-2.15442e-02,
-1.48394e+00,-4.24079e-02,-1.95212e-02,1.00583e+00,5.49575e-01,4.38707e-01,3.06761e-01,-5.03338e-01,-8.17779e-01,1.80873e-01,-1.50031e-02,-4.07672e-02,1.79583e-01,1.01403e-01,-5.06926e-01,2.09598e-01,-1.93620e-01,2.50640e-01,1.71327e-01,-2.24252e-02,4.73143e-01,-5.14393e-02,3.04335e-01,5.41491e-01,-4.81037e-02,1.57095e-01,4.07442e-01,-8.24203e-01,-3.14759e-01,-4.01621e-02,-1.08220e-01,1.94204e-01,-3.00226e-01,-2.24289e-02,-1.41482e-01,2.48501e-01,7.17796e-01,3.42367e-02,4.00862e-02,-7.96288e-02,2.25370e-01,-2.06060e-01,-3.26207e-01,1.82519e-01,6.95231e-03,-4.30520e-01,-6.17073e-01,1.42878e-01,1.53086e-02,-5.54180e-03,
-2.94588e-02,-5.09516e-02,-1.86676e-01,4.02837e-01,-4.12443e-01,4.66982e-02,-5.77025e-02,3.80532e-02,3.51503e-02,1.29368e-01,-1.40282e-01,4.76268e-02,-3.34102e-01,2.28257e-01,1.36927e-01,3.50485e-01,-8.42044e-03,-5.39341e-02,6.59572e-02,4.79900e-02,-6.78030e-02,-3.60947e-02,1.43807e-01,-1.64044e-01,-4.21727e-01,-2.57632e-01,1.83825e-01,1.09760e+00,-1.83096e-01,-4.89292e-02,5.09051e-03,2.61568e-01,-1.46933e-01,-2.33193e-02,-3.42817e-01,-1.76884e-01,5.88445e-01,-1.35886e-01,-2.74905e-02,8.91976e-02,2.52625e-02,-3.83925e-01,2.85289e-01,-2.01138e-01,1.89375e-02,4.50956e-01,-2.88132e-01,1.51394e-02,-4.50523e-02,-4.33751e-03,
1.63234e-01,-1.43849e-02,-8.87127e-01,1.10474e+00,-9.68799e-02,-4.06063e-01,1.34031e+00,-5.05538e-01,-5.38865e-01,7.72262e-03,1.41057e-01,4.71978e-03,9.72047e-02,-7.20740e-01,-4.12665e-01,3.73489e-01,3.11594e-01,-5.01219e-02,-4.79902e-02,4.61684e-02,-3.65820e-02,-6.94155e-03,1.45202e+00,6.77680e-01,2.99649e-01,6.52935e-01,-1.22709e+00,-2.72318e-01,6.51809e-01,-3.27552e-02,-1.53192e+00,2.38846e-01,5.60516e-01,-1.07972e-02,8.83955e-01,1.26454e-02,-2.35352e-01,-1.15352e+00,-1.05613e+00,3.75279e-01,-5.20606e-01,-7.38985e-02,-7.90026e-01,-8.24472e-02,3.49702e-02,-4.93937e-01,9.41389e-01,6.72717e-01,3.50441e-02,-1.55006e-03,
-1.39801e+00,2.74478e-02,-1.21073e-03,-2.43783e-04,-1.00337e-01,7.36718e-02,-9.98506e-02,-3.94594e-02,-4.01697e-02,2.42446e-03,5.32079e-03,4.71522e-03,3.66549e-02,8.88851e-02,-9.83129e-03,1.14956e-01,9.57989e-02,-4.30274e-02,-8.92929e-02,3.48539e-02,-1.18301e-02,3.87861e-02,-3.51251e-02,-3.55834e-02,-1.99106e-02,3.83506e-02,-1.61009e-02,2.02195e+00,-1.57338e-01,-1.89660e-02,-1.19649e-01,1.04050e-02,-1.24394e-01,7.62959e-03,-1.46046e-01,1.25472e-02,1.08572e+00,-2.44108e-02,-2.82339e-01,-1.06910e-02,3.87382e-02,4.55822e-02,-1.65591e-02,1.03431e-02,-4.31422e-02,-1.74498e-01,-2.65339e-02,6.27113e-02,4.01285e-03,4.45224e-02,
-3.81024e-01,-3.09360e-02,1.55355e-01,-6.58534e-01,6.26384e-02,6.90571e-02,-2.21439e-01,1.76927e-01,5.62638e-01,-3.75989e-01,8.94567e-02,5.85707e-03,2.01710e-01,-1.13807e-02,2.25107e-01,-6.65328e-01,-6.41992e-03,-1.28775e-01,-7.95733e-02,1.93257e-02,1.50364e-01,3.63096e-02,6.89831e-01,-2.67534e-01,7.75878e-02,-8.67873e-01,5.54953e-01,1.02492e-02,-4.08730e-01,-1.56013e-02,1.96182e-01,-1.19980e-01,-9.77941e-01,3.62366e-02,-3.89211e-02,-2.27974e-02,3.39177e-01,-1.93982e-01,6.39854e-03,8.05684e-01,1.78551e-01,-1.53527e-01,-1.58381e-01,2.55493e-01,1.80069e-02,4.60772e-01,1.32833e-01,9.15235e-02,2.27580e-02,-5.40566e-02,
-2.29734e-02,-5.65387e-03,-3.05429e-02,-3.80613e-02,-1.40100e-03,-3.36271e-02,-2.08486e-02,2.82616e-02,-1.55401e-02,-4.37901e-02,-5.00401e-02,1.30218e-02,3.79712e-02,-2.86304e-02,-3.25400e-02,1.28242e-02,-5.41509e-02,-2.77164e-02,-2.64548e-02,3.67544e-03,2.97286e-02,1.32655e-02,4.64626e-02,1.42820e-02,1.35914e-02,-2.01045e-02,-1.61541e-02,3.47395e-02,1.20100e-02,4.51454e-02,-1.71105e-04,1.59998e-02,-3.36564e-02,-2.93367e-03,-4.80920e-02,-2.92130e-03,-3.62183e-02,3.33695e-02,-3.16310e-02,1.79273e-03,-4.56402e-02,-2.47208e-02,1.84258e-02,2.53686e-04,-3.21763e-02,2.12372e-03,-4.82151e-02,2.12217e-03,2.40553e-02,7.73867e-03,
-3.75957e-01,-1.70569e-02,-1.69598e-01,1.00866e-01,4.46315e-01,2.22378e-02,-3.32304e-03,-1.10021e-01,2.67606e-02,-2.88432e-01,6.40015e-02,-3.16034e-04,-4.06008e-02,-6.89689e-02,3.19909e-01,2.17242e-02,-1.72116e-01,9.74278e-02,4.43410e-01,5.51977e-02,-2.02083e-02,2.16198e-02,6.68726e-01,-2.50823e-01,8.59413e-01,-1.58674e-01,6.75602e-02,1.01432e-01,-3.62926e-01,2.63032e-03,3.59747e-01,-1.45626e-01,4.48832e-01,-7.48190e-03,-2.45229e-01,-2.34775e-01,4.54492e-01,2.89410e-01,8.87594e-02,-4.16466e-01,-6.72619e-01,1.48422e-01,-2.32263e-01,3.36348e-01,4.28763e-02,-2.99985e-01,6.79957e-02,1.47363e-01,-9.48033e-03,1.08509e-02,
-1.24242e-01,3.33730e-02,1.00601e-01,-1.68820e+00,6.57312e-01,6.55616e-01,5.55599e-01,2.91487e-01,-5.00406e-01,7.41070e-01,-3.10443e-01,-1.82642e-02,8.16400e-02,3.45555e-01,-4.46927e-01,-9.92431e-02,6.42830e-01,-2.92122e-01,-4.22665e-03,4.49517e-03,4.85380e-01,4.19449e-02,-3.46928e-01,1.40765e+00,3.45028e-01,-2.62923e-01,4.71765e-01,3.75724e-01,-2.67584e-01,-1.53597e-02,8.04790e-01,2.15700e-01,5.88800e-01,-4.37935e-03,-2.89017e-01,6.75193e-02,-7.66607e-01,2.04378e-01,8.93934e-03,2.46475e-02,3.29209e-02,3.40308e-01,-2.76564e-01,9.55334e-02,2.75113e-02,-1.18432e-01,5.24735e-01,-3.75827e-01,-2.26252e-03,-2.45700e-02,
-6.81100e-01,1.24282e-02,1.08958e-01,-2.15124e-01,-1.17679e-01,-1.67064e-01,1.01933e-01,-5.07711e-01,9.89237e-02,3.35681e-01,1.26996e-01,3.12738e-02,-3.98369e-02,-2.45015e-01,-9.69037e-02,1.53874e-01,2.84348e-01,2.63416e-02,-1.88555e-01,-4.92545e-02,2.39778e-02,3.01219e-02,-7.77779e-01,1.01126e-01,-1.14810e-01,2.68055e-02,-1.77089e-01,8.75415e-02,-3.33115e-02,1.58494e-04,-1.06783e-01,-8.15591e-02,-2.66455e-01,1.62753e-02,3.78556e-02,1.51083e-01,-4.37632e-01,1.50491e-01,1.30008e-01,1.51170e-01,-8.05693e-02,5.54753e-02,3.32825e-01,-1.55851e-03,1.81219e-02,-4.08165e-01,3.17779e-02,-3.23482e-01,-4.66623e-02,2.17685e-02,
3.51488e-01,-7.65449e-03,-2.94332e-01,-1.44487e+00,-1.19352e+00,-4.57098e-01,-5.18289e-01,-4.62226e-01,-1.47858e-02,-8.60518e-01,4.28293e-01,-1.23524e-02,-5.90526e-01,4.99628e-02,8.95238e-02,-5.03492e-01,5.83394e-01,-1.03328e-01,-4.79465e-01,-3.47239e-02,3.17103e-01,-1.54798e-02,-4.27960e-01,-1.80372e-01,1.09234e-01,5.30843e-01,-7.83964e-02,1.16405e-01,5.25559e-01,2.26891e-02,-7.96574e-02,-2.40258e-01,-1.45961e+00,1.08177e-02,-1.22860e+00,6.79288e-01,-1.28402e+00,-1.12850e+00,4.00692e-01,7.94066e-03,-7.97814e-02,2.07645e-01,-4.72386e-01,-1.17220e+00,2.38878e-03,-1.61174e-01,4.32566e-01,-2.68777e-01,1.29536e-02,-3.67878e-03,
-2.13435e-02,-4.08723e-02,1.26694e-02,3.27392e-02,1.18603e-02,-2.76202e-02,2.09425e-02,-2.21731e-02,-4.66815e-03,2.93720e-02,1.50755e-02,8.05883e-04,-1.50725e-02,-4.93479e-02,-4.92262e-02,-3.20081e-02,-3.25823e-02,7.77072e-03,-4.67060e-02,-1.52257e-02,-2.33144e-02,-9.56379e-03,8.51092e-03,-2.43714e-02,-5.32413e-02,1.67547e-02,-2.95188e-03,-6.11781e-02,-4.11258e-02,-4.10176e-02,-2.16874e-02,1.16311e-02,2.56778e-02,-4.40295e-02,-6.15374e-02,2.90594e-03,1.52942e-02,-1.34126e-02,-6.13355e-03,-2.48830e-02,-1.06557e-03,-2.76037e-02,1.61457e-02,-5.12952e-02,1.84466e-02,-5.62174e-02,-4.10299e-02,-5.24476e-03,-3.87546e-02,-3.44049e-02,
-7.79483e-01,1.57144e-02,-4.11712e-01,-1.33569e-01,4.75308e-01,2.15436e-02,2.35029e-01,-1.42269e-01,8.76238e-01,-3.73258e-01,-2.83932e-01,3.34923e-02,2.97751e-01,1.22390e-01,3.82837e-01,2.94622e-01,-6.33930e-01,2.66487e-02,2.18831e-01,1.67328e-02,1.62841e-02,4.11014e-02,-2.87588e-01,2.93017e-01,8.88961e-01,-1.85878e-01,1.40931e-01,2.02221e-01,-3.95305e-01,-2.91730e-02,-1.59660e-01,7.45440e-01,2.43899e-01,4.00405e-02,2.42412e-01,-1.04697e-01,-4.95126e-01,-5.65294e-01,2.58519e-01,-2.67161e-01,6.26882e-02,-2.00634e-01,-5.61245e-01,-2.87149e-02,-3.43290e-02,1.74622e-02,-1.53823e-01,-3.03068e-01,-8.44801e-03,3.48382e-02,
-2.09164e-02,3.04424e-02,3.88526e-01,4.94202e-01,2.34944e-01,5.15175e-02,1.82067e-02,-2.67734e-01,-1.92878e-02,-1.81196e+00,-4.08537e-01,-3.77966e-02,-4.16230e-01,-1.66025e-01,3.28176e-01,-6.84664e-02,-2.62120e-02,-1.07827e-01,1.82821e-01,1.89927e-02,-1.97869e-01,4.26313e-02,-1.26555e+00,-9.97053e-02,-9.77804e-01,-3.23102e-01,2.00061e-01,1.72790e-01,3.13413e-01,-1.65189e-02,-2.48795e-01,-4.59512e-02,9.02745e-01,-3.50770e-02,-4.84426e-01,-2.13748e-01,2.61956e-01,2.09077e-01,5.38605e-01,7.16569e-02,-3.21031e-01,-1.09450e-01,3.27573e-01,-1.21876e-01,4.55674e-02,1.42599e-02,1.56447e-01,1.29027e-02,8.00960e-03,-4.73400e-02,
5.45924e-01,1.74656e-02,-2.25766e-01,-8.07126e-01,-7.41759e-01,-1.06555e-01,2.75075e-01,-5.12833e-01,2.86282e-01,-2.13209e-01,5.95736e-01,2.66065e-02,-3.03343e-02,1.81933e-01,1.69327e-01,-2.63850e-01,3.06456e-01,4.50539e-02,-2.82849e-01,-2.79637e-02,3.97555e-01,-9.97508e-03,-7.39660e-01,-3.37159e-02,2.07638e-01,1.03036e-01,-4.21140e-01,5.08522e-01,-2.20065e-01,-1.28304e-02,-2.72135e-01,-4.88622e-01,-5.12362e-01,-3.01012e-02,8.14928e-01,3.78606e-01,-7.52481e-01,-3.89267e-01,-5.64960e-01,-3.36466e-01,1.93089e-03,-9.31565e-02,-7.69151e-01,-1.63050e-01,-3.21417e-02,-2.62100e-01,2.07149e-01,8.73848e-01,3.75414e-02,4.39860e-02,
-6.61686e-01,-2.17692e-02,6.17355e-02,-1.72616e-01,1.76494e-01,-1.02725e-01,-1.99719e-01,2.02588e-01,1.11537e-01,-1.44254e-01,-1.16667e-01,3.63394e-02,8.63265e-02,2.79628e-02,3.31350e-01,-3.67840e-02,-2.10658e-02,-5.55341e-03,-1.06346e-01,1.94962e-02,-5.85656e-02,3.40009e-03,1.21817e-01,-8.66239e-02,1.74736e-01,3.78692e-02,-2.16550e-01,1.20812e+00,1.67276e-01,9.93576e-03,2.34753e-01,4.58689e-02,2.74331e-01,-4.87956e-02,1.32936e-02,-1.09306e-01,5.36595e-01,-1.49289e-01,-1.08757e-01,-4.59795e-02,-2.12967e-02,-2.77874e-01,-2.23183e-01,-1.04970e-01,1.47443e-03,-2.30288e-01,2.49346e-01,3.92206e-01,-3.27514e-02,-2.25868e-02,
8.58520e-01,-3.35731e-02,-1.43933e-01,4.41014e-01,-2.54661e-01,3.07522e-01,5.15757e-01,-2.91108e-01,-4.02185e-01,1.37581e-04,1.30143e-01,3.09304e-02,-1.41228e-01,-7.04431e-02,-5.95779e-01,2.08974e-01,6.10927e-02,3.71224e-02,6.08014e-01,1.05566e-02,4.82314e-01,-3.16700e-02,3.05869e-01,3.82162e-01,-1.68572e-01,5.20502e-02,8.49330e-02,-9.14207e-01,2.89969e-03,-1.73834e-02,-2.46172e-01,-2.63463e-02,-6.37949e-01,-3.46973e-03,2.16408e-01,2.03974e-01,-3.54179e-01,3.61845e-01,-4.50320e-01,3.99118e-02,-5.15279e-02,-1.88799e-01,1.26984e-01,3.64845e-01,1.45778e-02,2.22603e-01,-2.86037e-01,-2.57491e-01,-8.14595e-03,1.08152e-02,
3.50179e-01,-4.93795e-03,-7.33523e-02,1.72271e-01,9.26657e-01,5.05690e-01,-2.15185e-01,8.29728e-01,-1.58381e+00,-2.08311e-01,-2.29927e-01,-2.67052e-02,-4.62760e-01,6.84097e-01,4.22835e-01,-8.54036e-01,-2.85768e-02,2.16553e-01,-6.09746e-01,4.81093e-02,8.04044e-01,2.26595e-02,-1.07728e+00,1.23129e-01,-1.45625e+00,9.05153e-01,1.11047e+00,-7.59424e-01,4.20998e-02,-3.78464e-02,2.56288e-01,2.60309e-01,8.02429e-02,-3.36512e-02,-3.62110e-01,-2.34320e-01,5.07784e-01,-4.67289e-02,-2.03618e-01,-4.25357e-01,-9.20606e-01,3.78740e-01,-8.16747e-01,1.28336e+00,2.07588e-02,5.27178e-01,-7.74435e-02,-4.12635e-02,-2.43329e-02,-2.62912e-02,
-1.97799e+00,9.16057e-03,9.20486e-02,-6.07912e-02,-3.74057e-01,5.55327e-01,1.10899e-01,-8.36324e-02,-3.93896e-01,4.96654e-01,2.84089e-01,-3.91741e-02,-9.31822e-01,-1.62818e-01,-8.22976e-02,6.71752e-01,4.30507e-01,-1.72020e-01,1.35325e-01,-3.35676e-02,8.16873e-01,2.94811e-02,1.10533e+00,2.11679e-01,-4.52615e-01,2.62364e-01,-1.93428e-01,-1.04687e-01,-1.15049e-01,3.04979e-02,-6.64203e-01,-1.78743e-01,7.99589e-02,-4.29004e-02,4.01432e-02,2.15252e-01,-2.44096e-01,-4.43046e-02,3.21726e-01,1.15975e-01,-5.34140e-04,1.28407e+00,4.44223e-02,1.10111e-01,2.30838e-02,-1.61465e-01,-1.39184e-01,-1.67347e-01,-6.66045e-03,-3.56783e-02,
2.09396e-01,-3.30924e-02,2.03686e-01,-9.54411e-01,5.68918e-01,9.87609e-01,-1.88502e-01,4.79733e-01,-4.43967e-01,1.18038e+00,4.89168e-01,1.95787e-02,-1.48899e+00,6.82183e-01,-1.50342e+00,3.30630e-01,-1.66380e+00,-7.70321e-01,5.88702e-02,-8.94963e-03,-1.94332e-01,-2.16437e-02,2.24262e+00,2.07022e+00,1.43085e-01,-1.12045e-01,6.48724e-01,-4.40853e+00,2.19250e-01,-2.20369e-03,-2.06531e-01,-2.42960e+00,-3.40210e-01,-5.30385e-02,4.17854e-01,5.20055e-01,-2.34076e-01,-6.37877e-03,-1.59929e+00,-8.64415e-02,6.86578e-03,-4.31447e+00,1.27484e-01,7.20351e-02,2.73629e-02,4.67735e-01,-2.00842e-01,-3.74492e-01,-6.31362e-04,-1.90150e-02,
1.03651e+00,2.77101e-02,-9.37949e-01,-7.73827e-01,-1.85587e+00,-1.41372e+00,-9.52682e-02,-1.69170e+00,-7.05952e-01,-2.24585e+00,2.00029e+00,-4.95447e-02,5.31284e-01,-1.55238e-01,-2.90190e-01,3.72210e-01,3.63996e-01,1.13430e+00,1.04488e+00,1.85062e-02,-5.82347e-01,2.36473e-02,2.06187e+00,-2.65732e+00,-5.01907e-01,4.34126e-01,-6.51174e-01,-1.66706e+00,-1.67261e-01,-4.17859e-02,-1.57469e+00,-9.86188e-01,-2.67927e+00,1.36026e-02,-2.22723e+00,1.09562e+00,-1.29902e+00,-1.91232e+00,-1.75030e+00,-3.15493e-02,1.20059e+00,-2.31293e-02,-1.19105e+00,-3.64094e+00,5.42599e-03,2.06849e-01,-1.35225e-01,-8.27125e-01,2.11423e-02,-9.15585e-03,
2.37550e-01,-2.53796e-02,7.78036e-02,6.03921e-01,5.34243e-01,2.02919e-01,-2.69801e-02,-7.73589e-01,4.36545e-02,1.37837e+00,-1.66820e-01,-4.69319e-02,-1.08366e-01,1.69897e-01,5.28714e-01,-8.43145e-01,-6.27142e-02,2.46757e-01,-6.07511e-01,-2.12232e-02,-2.16815e-01,1.01735e-02,-8.53529e-01,-2.46156e-01,6.31215e-01,2.71419e-01,1.93938e-01,4.80036e-02,-5.43327e-02,3.19063e-02,-1.15853e-01,4.17230e-01,-2.76670e-01,3.39204e-02,-4.59894e-01,1.12313e-01,2.08399e-01,3.32363e-01,-1.40675e-01,-4.40387e-01,1.52641e-01,-1.13220e-01,5.30460e-01,-1.45655e-01,1.76228e-02,4.71091e-01,-1.57672e-01,-3.00491e-01,9.85737e-03,4.17533e-02,
-1.14388e+00,5.08130e-02,6.36386e-01,-6.74967e-02,-1.92164e-01,-3.95274e-01,-1.74900e-01,-3.49423e-01,8.57808e-01,1.04107e+00,6.79206e-01,1.67443e-02,-3.51002e-01,6.53875e-01,-2.20383e-01,3.36760e-01,1.19573e-01,1.84955e-01,4.97344e-01,2.09474e-02,-5.60126e-02,-8.77177e-03,5.47001e-01,-8.98566e-01,-1.74389e+00,6.42341e-01,-5.10768e-02,7.08851e-02,4.22476e-01,-2.57551e-02,2.56533e-01,-5.76769e-01,-1.05573e+00,-4.58028e-02,-4.11654e-01,-5.11122e-03,3.20384e-01,1.28638e+00,8.99772e-01,-1.82462e-01,1.11689e+00,8.39768e-01,5.19377e-01,-4.17019e-01,1.74283e-02,4.35351e-01,9.41966e-01,-1.92884e-01,3.79688e-02,9.86310e-03,
-2.38275e-01,4.07593e-02,8.52313e-01,-2.01888e+00,-4.08483e-02,-1.37338e+00,-1.64571e+00,-1.14824e+00,-2.42615e-01,-7.81884e-01,-5.70049e-01,-1.66135e-02,-5.75098e-01,-4.47513e-01,-9.35869e-01,7.54496e-02,-1.48348e-01,1.53402e-01,8.86607e-01,4.25188e-03,5.64961e-01,-2.48980e-03,-6.51303e-01,-1.00556e+00,3.54922e-01,9.79575e-02,-4.88182e-01,5.83543e-01,4.20087e-02,-3.03292e-03,-6.55051e-01,-4.67329e-01,-1.18608e-01,-4.56433e-03,4.13941e-01,-9.96395e-02,-2.72195e-01,1.07805e+00,1.61788e-01,-7.38916e-01,1.44683e+00,1.32828e+00,-1.37248e-01,-1.73429e+00,-2.42284e-02,-1.14162e-01,9.93000e-01,-1.62764e-01,1.47011e-02,-3.06834e-02,
-9.73989e-01,2.46780e-02,-3.34992e-01,-4.91687e-01,-1.17931e-01,1.33779e-02,-8.21918e-02,5.43844e-01,2.16362e-03,-1.95011e-01,-2.75822e-01,-1.71102e-02,-6.94676e-01,-6.71066e-02,-1.08924e+00,-4.21207e-02,5.22785e-02,5.05542e-02,-5.15212e-01,4.76138e-02,2.17058e-01,9.54901e-03,-2.42977e+00,-2.33579e-01,-2.51983e-01,2.82698e-01,-1.15602e-01,2.18857e-01,-2.21167e-01,2.23909e-02,4.82973e-01,3.89263e-01,6.15335e-01,1.72365e-02,-1.14583e+00,-9.26539e-02,-4.19535e-01,-1.07849e+00,1.35225e-01,7.82867e-01,-3.78851e-01,3.88251e-01,-2.08012e-02,2.03026e-01,2.50506e-02,-1.23125e-01,2.90870e-01,-4.61973e-02,-8.16046e-03,-4.86759e-02,
-1.09518e-02,-2.22061e-02,-2.11521e-03,4.32305e-02,4.06528e-02,5.36107e-03,2.54855e-02,1.94579e-02,1.99266e-02,-4.12208e-02,9.04645e-03,3.67017e-02,2.09218e-02,-3.73207e-02,-4.11353e-02,-4.67154e-02,-2.16071e-02,2.53726e-03,-4.73492e-02,3.48417e-02,8.22589e-03,-4.12159e-02,-4.85310e-02,2.15642e-02,-3.68661e-02,-5.67927e-03,-1.21985e-02,-5.17457e-02,3.66936e-02,1.49209e-02,1.62871e-02,-1.97135e-02,2.83842e-02,1.56170e-02,-2.81132e-02,-3.75350e-02,1.41480e-02,-2.31977e-02,-3.04187e-02,-2.97293e-02,-3.18646e-02,4.19620e-02,-3.68097e-02,-3.87998e-02,1.68347e-02,-4.84559e-02,1.04723e-02,-1.61190e-02,-4.36815e-02,-1.73211e-02,
3.47475e-01,3.06973e-03,3.20786e-01,-1.28495e+00,-6.22887e-01,5.20624e-01,-5.86513e-01,-6.16121e-01,-3.27051e-01,-1.17476e+00,-3.18751e-01,-3.35034e-03,-4.42896e-01,-1.39867e-01,5.31310e-01,9.85066e-02,3.98451e-01,-5.06219e-02,-1.51160e-01,3.54339e-02,-7.41437e-01,-1.69174e-02,-1.26369e+00,-1.40437e-01,-9.54493e-01,2.15768e-01,2.64789e-01,-2.38323e-01,2.32486e-01,1.44610e-02,2.39776e-01,7.68954e-03,-2.50665e-01,1.72877e-02,1.75809e-01,-2.43865e-01,1.32414e-01,5.32654e-01,-8.56223e-01,1.09313e-01,5.49358e-01,1.19246e-01,1.32566e-01,-1.64021e+00,1.87299e-03,7.63405e-02,2.64786e-01,-8.48627e-01,3.30810e-02,3.93235e-02,
6.10118e-01,-2.72037e-02,6.32195e-01,4.08541e-01,-1.97101e-01,1.82259e-01,-1.37496e-01,6.48027e-01,-5.05977e-01,-1.20327e-02,-2.62370e-01,-5.26517e-03,-1.62715e-01,1.82716e-01,4.16266e-01,3.91968e-02,7.88441e-02,7.49139e-02,-3.68689e-01,2.12431e-02,-3.36072e-02,1.03233e-02,-2.31681e-01,4.21407e-01,-1.08222e+00,1.15191e-01,2.52431e-01,5.91781e-02,7.04486e-02,-2.17796e-02,2.08864e-01,3.80083e-01,6.88727e-01,4.06512e-02,-6.42839e-01,2.06188e-01,-2.56498e-01,5.10723e-02,-5.03834e-01,4.00560e-02,5.65032e-02,-1.19647e-01,3.30722e-01,5.05998e-01,-4.27743e-02,1.70411e-01,3.76391e-01,5.83072e-02,4.16349e-02,-3.23587e-02,
-1.17817e-01,-2.09667e-02,-1.21564e-02,-8.36558e-01,-3.94618e-03,-1.55981e-01,7.37531e-02,-1.40184e-01,5.96634e-02,-3.68476e-01,-1.66028e-01,4.52061e-02,8.99039e-02,-9.76518e-02,-2.96023e-01,1.17504e-01,6.30311e-02,2.58765e-01,4.41042e-01,1.50421e-02,-2.23574e-01,-3.29104e-02,-4.74197e-01,-9.89320e-01,3.21670e-01,4.06201e-01,-1.37496e-01,-1.57764e-01,-5.97787e-01,-2.41149e-02,-6.27194e-01,-1.74366e-01,1.08816e+00,1.34464e-02,1.78487e-01,-6.02082e-01,1.46101e-01,1.14202e-01,-4.36635e-01,-1.03538e-01,2.97484e-01,-1.49368e-01,-1.60963e-01,-8.72930e-01,3.54372e-02,-2.15295e-01,7.49957e-02,4.01477e-02,1.39756e-02,2.87173e-03,
-5.56486e-02,-7.32597e-05,-1.89313e-01,-2.50019e-01,2.68263e-02,3.80410e-01,9.91151e-01,1.00920e-01,8.78486e-01,-3.85893e-01,-8.29107e-02,5.59435e-03,-5.72353e-01,1.08856e-01,7.70938e-01,1.40738e-02,1.54533e-03,-5.55965e-02,-2.30422e-01,-3.67441e-02,-7.09804e-03,-3.09474e-03,1.61165e+00,-4.05176e-01,-4.29015e-02,2.88783e-01,5.03571e-01,9.36382e-01,-1.24852e-01,2.80525e-02,1.84513e-01,-1.22977e-01,3.69047e-01,9.59057e-03,-6.62577e-01,-3.75412e-01,1.14318e-02,-7.69839e-03,-4.61070e-01,8.50897e-02,-4.17595e-01,7.47857e-02,1.48316e-01,1.01411e-02,9.24787e-03,6.46091e-01,3.35441e-01,-1.87649e-01,-1.21491e-02,-1.92495e-02,
-3.83817e-02,3.28646e-02,-4.79722e-02,3.36273e-02,2.13797e-02,2.69621e-02,-3.18782e-02,-4.49010e-02,2.76369e-02,-2.11312e-02,2.94087e-02,-3.39110e-03,-2.56442e-02,-7.08684e-03,-2.76060e-02,-2.90542e-02,-2.08850e-02,-1.24038e-02,-6.17938e-03,-5.55218e-03,1.14455e-02,-9.77359e-03,-8.48849e-03,-2.91534e-02,1.89853e-02,-3.73056e-02,-8.71031e-03,1.34763e-02,-3.03823e-02,-1.75362e-02,-2.09621e-02,-1.85929e-02,-2.12721e-02,-1.41343e-03,2.75721e-02,-1.67552e-02,-2.86960e-02,2.88700e-02,-5.46433e-02,-5.89454e-02,-3.21455e-03,-4.99986e-02,-1.09492e-02,9.66604e-03,1.78033e-02,-5.28080e-02,-3.10726e-02,2.94314e-02,1.24479e-02,7.87933e-03,
2.77669e-01,2.89982e-02,1.46044e-01,1.00075e+00,-4.04495e-01,6.18636e-03,4.52510e-02,-2.60326e-01,-4.72634e-01,6.46254e-02,-6.35030e-02,-3.49032e-02,2.86598e-01,2.31507e-01,-1.00889e+00,-3.77764e-01,-6.21939e-01,-3.21063e-02,-3.66733e-02,-4.07071e-02,-6.17286e-02,-2.01194e-02,-4.77500e-01,2.44693e-01,-5.58717e-01,-3.19942e-01,1.95518e-01,-6.13921e-01,7.77915e-02,-4.07150e-02,2.92902e-02,-6.31147e-01,-1.38058e+00,-4.29459e-02,6.33272e-01,2.96941e-01,5.25019e-01,4.36223e-01,-1.29271e-01,3.72478e-01,7.53982e-02,1.25157e-01,-3.37617e-01,-7.59722e-01,-1.07279e-02,-3.28086e-01,-5.57324e-01,4.03555e-01,-2.72562e-02,4.16735e-03,
6.43217e-01,-1.64328e-02,9.97062e-01,-2.81198e-01,7.47687e-01,3.49646e-01,-4.36135e-01,1.52964e-01,-1.21381e-01,-3.53025e-01,-3.44634e-01,7.88627e-03,-8.82608e-01,-3.94406e-01,-3.33127e-01,-4.95053e-01,4.26311e-01,-1.88709e-01,-1.19170e-01,2.45533e-02,1.47976e+00,-1.86308e-02,-3.24323e-02,-2.77718e-01,7.83163e-01,5.74935e-01,1.82923e-01,2.91184e-01,-5.35418e-03,1.48271e-02,1.02293e+00,-3.45600e-01,5.28151e-01,2.06805e-02,-3.89845e-01,-6.04183e-01,-3.23641e-01,5.34193e-01,-2.42667e-02,-5.79674e-01,1.88862e-01,3.52793e-01,-6.19328e-02,-1.09590e+00,1.30052e-02,1.35765e-01,4.27260e-01,-3.86176e-01,-4.23004e-02,-3.31443e-02,
2.88035e-01,-1.07907e-02,3.74407e-01,4.00380e-01,2.10802e-01,5.26217e-01,-2.03595e-01,1.06103e-01,-1.89196e-01,6.99149e-01,-5.69288e-01,1.66705e-02,-1.10502e-01,-3.47746e-02,7.93071e-01,-5.42600e-01,-4.05604e-01,-1.05904e-01,-2.31320e-01,3.69273e-02,6.49838e-01,-1.90263e-02,3.68609e-02,-4.75859e-01,-2.29613e-01,3.78209e-01,2.54738e-01,2.64308e-01,3.90889e-01,2.96657e-03,1.28355e+00,1.73245e-01,7.76475e-01,-9.84482e-03,-1.30107e+00,-3.86723e-01,-4.09727e-01,-3.67073e-01,1.92251e-01,-1.42495e+00,-4.51605e-01,4.33003e-01,-5.28771e-01,8.03457e-01,-1.23306e-02,2.73329e-01,-1.31104e-02,2.10262e-01,-4.26838e-02,4.62097e-02,
-6.08392e-02,-2.23761e-02,-2.24130e-02,2.15027e-02,-1.46050e-02,-3.15212e-02,-1.41794e-02,2.33694e-02,3.92254e-02,3.24504e-02,-4.32581e-02,8.67510e-03,-3.44324e-02,-4.30087e-02,4.10792e-02,1.71661e-02,-3.97247e-02,-2.68893e-02,3.34117e-02,1.39176e-02,1.65429e-02,4.74622e-02,2.66922e-02,9.87671e-03,-4.19392e-02,-4.08265e-02,-5.43098e-02,-3.44772e-02,6.56327e-03,-3.85965e-02,2.70825e-02,-1.27230e-02,-5.86033e-02,2.98600e-02,-5.08317e-02,5.83823e-03,-1.35925e-02,-4.80467e-02,-4.54431e-02,-1.44289e-03,-1.72050e-02,-1.32272e-02,2.96347e-02,-3.26012e-03,-2.11437e-02,3.46826e-02,-2.09135e-02,-3.13855e-02,-3.37986e-02,-4.22480e-03,
-1.68809e-01,2.92479e-02,-4.96866e-01,1.09754e+00,1.47649e-01,4.87915e-02,1.50227e-01,-4.96467e-01,4.89226e-03,-2.70799e-01,1.71883e-01,2.17164e-02,3.70484e-01,-2.75163e-01,-6.19175e-01,2.31399e-01,6.37557e-01,2.28753e-01,1.09773e-01,-1.05623e-02,3.13705e-01,-3.00186e-02,8.61067e-01,7.46091e-01,3.86765e-01,-7.15888e-04,-2.12854e-01,2.21971e-01,2.06036e-01,-3.66247e-03,-1.59415e-01,3.20378e-01,-7.86246e-01,3.76662e-02,2.72746e-01,5.35008e-01,2.80249e-01,1.51535e-01,-5.66420e-01,2.14614e-02,4.11040e-01,1.75704e-01,1.32179e-01,7.68036e-01,-2.75595e-02,-3.56925e-01,-3.60316e-01,-1.77856e-01,-5.27232e-02,-4.55845e-02,
-6.06944e-01,-1.41871e-02,7.29224e-01,-9.15202e-01,-5.38598e-01,-1.37601e-01,-1.39466e+00,9.20041e-01,4.58833e-02,1.12075e-01,-8.63903e-01,-3.87834e-02,1.49186e+00,3.55396e-01,-6.36008e-01,-4.03940e-01,9.19185e-02,1.20479e-01,-1.14649e+00,-3.89992e-02,2.81362e-01,3.91845e-02,6.22867e-02,-1.07262e+00,4.13084e-01,2.62596e-02,6.97555e-01,-9.60544e-01,-2.65970e-01,-2.63169e-02,4.57877e-02,-3.52957e-01,-3.53555e-01,1.05050e-03,-1.01516e+00,1.35627e-01,1.20925e+00,-3.78628e-01,-3.20379e-01,7.44893e-01,6.28981e-01,6.85376e-01,5.79811e-01,-1.83404e-01,4.16246e-02,-2.27532e-02,-3.29656e-01,-5.08865e-01,2.47451e-02,4.26710e-02,
7.15733e-02,-6.09989e-03,2.36077e-02,-9.95779e-02,-4.97252e-01,-8.85478e-03,2.28718e-02,-1.80837e-01,2.10430e-01,5.52490e-01,-2.48477e-01,-4.35385e-02,-3.36599e-01,-7.31928e-02,9.37868e-02,-7.85836e-02,-1.22481e-01,-3.68046e-01,1.54165e-01,2.01292e-02,-8.61535e-01,5.37087e-02,2.76969e-01,4.17525e-01,2.49240e-02,-1.90285e-01,-3.19420e-01,3.72499e-01,-3.18351e-01,1.82320e-03,1.79014e-02,3.87203e-01,3.40149e-01,-2.95086e-03,5.21465e-01,-2.53977e-01,1.71182e-01,-1.63101e-02,3.57277e-01,4.32102e-02,-2.79920e-01,1.27006e-01,1.21956e-01,2.04441e-01,-4.88300e-03,-2.95495e-02,1.04505e-01,1.84989e-02,1.64032e-02,-3.14298e-02,
1.72008e-01,-4.35041e-02,1.97400e-01,-6.59163e-01,-5.51053e-01,-5.34320e-02,-3.09407e-01,5.33120e-02,1.39348e-02,-1.55640e-01,-2.36891e-01,1.29369e-02,-1.99280e-01,-3.66304e-02,-8.47605e-01,-7.89772e-01,3.68777e-01,-3.10084e-01,4.82721e-01,3.33486e-02,-2.04111e-02,-9.65269e-03,-3.58779e-01,1.01779e+00,-4.35419e-01,1.72116e-01,2.58401e-01,3.23222e-01,-2.29812e-01,-1.64399e-02,1.02029e-01,3.14222e-01,-1.11111e+00,-3.54363e-02,1.13169e-01,2.08985e-01,3.09080e-01,9.46815e-01,2.82809e-01,6.87243e-01,4.88554e-01,-3.30196e-01,6.70044e-01,3.18596e-01,4.91930e-02,1.00429e-01,2.14915e-01,-3.91399e-01,-1.42592e-02,2.13146e-02,
3.68327e-01,-1.45556e-02,-8.47613e-01,-5.99183e-01,-6.86368e-02,1.42852e-01,7.33909e-01,-5.72394e-01,-8.98112e-03,9.90668e-01,3.75389e-01,-2.25285e-02,-7.59596e-01,2.63993e-01,-2.33179e-01,1.24497e+00,-2.62801e+00,-1.24826e-01,6.29013e-01,4.25269e-02,4.23075e-01,-4.45867e-02,7.44718e-01,3.60517e-01,-6.75454e-01,-2.57542e-01,1.10758e-01,-4.65593e+00,1.46187e-01,1.65792e-02,-2.00378e-01,2.48945e-01,-4.24276e-01,1.03973e-02,-8.27861e-01,3.01047e-03,-3.31570e-01,-8.97637e-01,2.12763e-01,3.67684e-01,-2.74799e-01,7.76516e-01,4.05951e-01,-4.56875e-01,-2.48471e-02,2.98249e-01,-4.28458e-01,-3.06788e-01,1.93831e-02,2.67154e-02,
-4.20085e-01,-2.47115e-02,-3.94364e-01,-6.59151e-01,3.27105e-01,3.18819e-01,5.41129e-02,1.36599e-01,3.46809e-01,-4.18481e-01,-3.18550e-01,-3.28220e-02,-8.38361e-02,8.20741e-02,-2.04792e-01,2.53606e-01,1.15408e-01,-1.90062e-02,-2.75040e-02,-3.03413e-02,-6.45604e-01,-5.37780e-02,-3.46182e-01,4.37360e-01,-6.40963e-01,1.08054e-01,1.97174e-01,1.20892e-02,-1.98943e-01,-1.86431e-02,4.30954e-01,4.31580e-01,-2.86047e-01,-3.82907e-02,1.26451e-01,-1.63607e-01,3.32935e-02,-4.90424e-01,-2.59820e-01,3.79331e-02,-9.73812e-02,2.75286e-01,2.38432e-01,3.46747e-01,-1.03081e-02,-1.71653e-01,-2.41185e-01,-1.73165e-01,-7.05182e-03,2.48079e-02,
5.71385e-02,3.26658e-02,1.33442e-01,-3.33998e-02,1.23179e+00,2.06270e-01,8.73020e-02,-1.60872e-01,-1.77282e-01,-5.18350e-01,-7.35308e-02,-3.09037e-02,-1.43520e-01,2.52069e-03,1.07581e-02,2.01200e-01,-8.81006e-02,-1.25508e-01,1.29238e-01,1.72305e-02,5.58944e-02,-1.16478e-02,-3.36182e-01,-6.20011e-01,-4.76657e-01,-8.75020e-02,-7.99997e-02,-2.43502e-01,-4.04297e-02,-9.22346e-03,5.31166e-01,-3.74179e-01,3.42412e-01,2.71811e-02,1.19586e-01,-1.71371e-02,-2.69362e-01,3.73838e-01,1.90357e-01,-2.84737e-01,-6.29630e-01,-6.26113e-02,-5.04313e-02,-7.86678e-01,3.08129e-02,2.41173e-02,7.12288e-01,-1.46588e+00,-3.56285e-02,-4.77915e-02,
7.08636e-01,4.89255e-02,6.69176e-02,-1.20048e+00,8.93458e-01,1.64614e-01,-5.54693e-02,1.49570e+00,-4.36505e-01,-2.24579e+00,-2.76334e-01,2.31706e-02,1.76767e-01,5.22529e-01,-2.34230e-01,3.57738e-01,-7.55004e-01,2.38416e-01,3.02690e-01,2.83434e-02,1.67629e+00,1.82670e-02,6.31584e-01,-3.50694e-01,-2.26571e-01,-1.62564e-01,6.59199e-01,-6.84460e-01,-3.99757e-01,-3.97323e-02,1.08715e+00,8.87915e-01,7.46229e-01,1.20818e-02,-5.27292e-01,-1.23337e+00,2.22787e-01,-5.08891e-01,-1.94318e-01,-1.54229e+00,-5.32314e-01,-5.26042e-01,-7.16638e-01,7.36608e-01,-2.38827e-03,-6.42207e-03,-7.27990e-02,1.58128e-01,8.98547e-03,5.25979e-02,
3.22015e-02,-1.81823e-02,4.92119e-01,-2.59254e-01,6.39272e-02,-3.43032e-02,3.83164e-01,4.38675e-01,-1.57240e-01,-1.47760e-01,-2.64042e-02,-1.74257e-03,-1.75992e-01,3.61971e-01,1.37842e-01,1.95763e-01,-1.57244e-01,-4.85140e-02,-6.92851e-02,9.25031e-03,1.01585e-02,-7.40598e-03,7.15679e-02,-2.60423e-02,-2.62290e-01,-2.86513e-02,1.52180e-01,1.62083e+00,1.81304e-01,-4.30521e-02,2.83008e-01,1.38793e-01,4.39646e-01,4.68665e-02,-6.54132e-01,-3.35289e-02,1.40032e-01,-3.09162e-01,-2.73259e-01,-9.33767e-02,-1.31120e-01,1.09714e+00,1.69266e-01,-1.55445e-01,-1.19245e-02,-1.50364e-01,1.35408e-01,-2.46157e-01,1.98175e-04,-3.29068e-02,
2.12063e-02,3.96805e-02,-1.81096e-01,-1.60482e+00,-5.73515e-01,-6.85686e-02,2.50666e-01,2.55741e-01,3.65938e-01,8.02525e-01,-3.40374e-01,2.02114e-02,-7.65706e-01,-8.97234e-02,4.01745e-01,1.93115e-01,-7.13243e-02,-6.30435e-01,1.46563e-01,-1.41108e-02,-5.94356e-01,-3.75607e-02,-3.45223e-01,2.46845e-01,-1.24717e-01,-6.08546e-01,-2.70548e-01,-9.37735e-02,-4.05141e-01,3.90519e-02,5.78468e-01,6.12485e-01,5.29155e-01,2.19330e-02,5.83629e-01,-4.65276e-01,-4.13585e-01,-1.17642e-01,4.87631e-01,2.62993e-01,-3.22015e-01,2.11623e-02,3.44952e-01,2.25944e-01,2.48157e-02,2.22098e-01,2.95254e-01,-2.78333e-01,-5.23512e-02,-3.34758e-02,
-3.39641e-01,-2.93229e-02,1.59975e-01,-1.54095e+00,-4.01693e-01,7.07737e-01,-3.49880e-01,9.15776e-01,-5.81533e-01,-9.14518e-01,9.12734e-02,-4.98884e-02,-7.83177e-01,-1.67412e+00,5.32761e-01,3.92164e-01,-9.42961e-02,-3.17358e-01,7.31335e-01,5.34450e-03,1.42085e-01,3.12755e-02,-7.79781e+00,-3.16728e-01,8.43626e-01,9.10528e-02,-9.13833e-01,-1.92567e-01,-3.10294e-02,3.75042e-02,-2.84108e-01,8.57316e-01,-5.43330e-01,1.62019e-03,5.42409e-02,4.02574e-01,7.86025e-01,5.80488e-01,2.20969e-01,3.36170e-01,1.30830e-02,2.03454e-02,-1.73253e-01,7.38180e-01,-2.73935e-02,-8.46517e-01,1.49935e-01,7.84354e-01,-2.98191e-03,-1.01004e-03,
-1.53969e+00,
-2.07685e-02,
-1.74994e-02,
-1.54577e+00,
4.80061e-02,
5.17682e-01,
4.56814e-02,
-6.04891e-01,
-1.51928e+00,
5.65497e-01,
-1.92141e-02,
1.29595e-01,
1.31501e-02,
4.25478e-01,
1.15792e+00,
-3.07926e-02,
4.37390e-01,
-2.44059e-01,
-1.52007e-01,
-6.05070e-02,
1.20973e-01,
-1.59512e+00,
-3.40828e-01,
-1.79612e+00,
3.37731e-01,
-1.54501e+00,
-6.59913e-01,
-3.81447e-03,
7.12234e-01,
-1.76094e-02,
7.76897e-01,
-1.13447e+00,
4.67401e-01,
7.09056e-01,
-2.80027e-02,
5.55404e-01,
-4.91305e-01,
-3.06307e-01,
-1.33513e-02,
-1.09292e-01,
1.08835e-01,
3.27033e-01,
4.92475e-01,
2.18693e-01,
7.11381e-01,
-1.59181e+00,
-9.32742e-02,
1.56043e-01,
6.94674e-01,
-1.46286e+00,
-3.50621e-01,-5.27434e-02,-2.56998e-02,-9.10515e-01,-3.27191e-01,-9.58111e-01,-4.21536e-01,8.90557e-02,2.87938e-01,4.36839e-01,-2.46524e-03,1.62396e-01,-3.75449e-01,1.70704e+00,2.13024e-01,-9.70562e-03,1.27138e+00,-5.13426e-01,5.14376e-01,6.59039e-01,-1.61599e-01,5.19583e-01,5.83444e-01,1.31608e+00,2.98418e-01,9.72140e-02,8.06092e-01,7.97461e-02,2.61221e+00,-4.55483e-02,-1.43312e+00,2.51916e-01,1.15278e+00,4.33848e-01,-1.08922e-02,1.59278e-01,1.53570e-01,-4.12481e+00,-1.92105e-02,-3.07347e-01,2.05891e-01,3.45146e+00,-7.98748e-01,2.77611e-01,-2.27759e+00,8.42835e-01,-8.66454e-01,-2.63282e-01,-2.57922e+00,-3.12530e-02,
-3.60355e-01,3.88302e-02,-1.90641e-03,1.05197e-01,-4.36251e-01,6.91084e-02,-6.40577e-01,-4.72141e-02,1.11074e+00,5.69809e-01,-1.40495e-02,-3.39609e-01,-3.85003e-01,6.72865e-01,3.77023e-01,3.82584e-02,3.81990e-01,1.23709e+00,-3.90673e-01,2.19381e-01,-3.18213e-01,2.88674e-01,-3.54015e-01,-3.99412e-01,-5.22711e-02,3.04239e-01,1.46335e-02,-8.78523e-02,1.81458e-01,4.24625e-02,2.02675e-01,6.27972e-01,1.11533e-01,4.25429e-01,-4.20648e-02,-8.68843e-02,9.67233e-01,1.74597e-01,-1.87619e-02,3.13178e-01,3.81568e-01,6.04112e-01,-3.83355e-01,1.59964e-01,2.33291e-01,-2.41402e-01,8.42399e-02,-1.56048e-01,1.23262e-01,-4.59437e-02,
8.92022e-01,-2.52048e-03,-4.55389e-02,8.10063e-02,-6.50841e-01,-7.75073e-01,-2.04712e+00,2.21962e-01,1.55378e+00,-2.73513e-01,2.74331e-02,-3.79278e-01,1.72812e-01,9.68473e-01,-2.16329e-01,1.01303e-02,2.75621e-02,-1.92518e-01,1.11641e-01,-7.70141e-01,-4.77984e-02,-3.82526e-01,4.83457e-01,1.59067e-01,-1.27455e-01,-1.36946e+00,-8.06059e-02,-1.02457e+00,1.44542e+00,-3.55633e-02,-1.34908e+00,3.70724e-01,-4.21883e-01,-2.10950e-01,2.31488e-02,-1.32491e+00,9.82874e-01,1.63443e+00,-3.79133e-02,5.02318e-01,2.71146e-01,-1.81122e+00,-1.52443e-01,4.64910e-01,3.07541e-01,1.05944e+00,-1.00745e+00,-5.64274e-01,-1.91912e-01,-3.70954e-02,
-9.79007e-01,-4.86810e-02,2.79660e-02,-1.27149e+00,-4.43080e-01,6.12659e-02,-6.70192e-01,-2.76267e-01,-9.14934e-02,8.53161e-01,2.94446e-02,-3.81662e-01,-8.18453e-02,5.94712e-01,1.85116e-01,-2.98206e-02,-6.07320e-01,-2.61697e+00,-7.06100e-01,2.09910e-01,8.62984e-01,4.51439e-01,-4.85829e-01,-8.05061e-01,6.42149e-01,-2.76514e-01,3.59135e-01,1.10429e-01,7.63017e-01,3.82922e-02,4.29092e-01,4.24593e-01,-9.20281e-01,9.58747e-02,2.15141e-02,3.48988e-02,-8.31981e-01,-3.49238e-01,-1.96199e-02,2.90939e-01,-5.94420e-02,5.92086e-01,1.02195e-01,-3.01962e-01,-8.99079e-01,-4.43890e+00,-6.79258e-01,1.35236e-02,-5.33616e-01,7.20232e-02,
3.37286e-01,4.31100e-02,2.14067e-02,-3.92415e-01,-2.06178e-01,-1.35724e-01,4.42275e-01,4.81644e-01,7.75315e-01,4.65311e-01,-8.76422e-04,-1.20374e+00,-4.73651e-01,4.60160e-01,1.31000e+00,-3.55488e-02,-9.33026e-03,-1.30170e+00,-2.69876e+00,3.63097e-01,-5.86566e-01,-4.21249e-01,1.19810e+00,-3.71219e-01,6.96733e-02,-1.80881e-01,4.08341e-01,-1.78753e-01,3.00735e-02,-1.09472e-02,-2.96940e-01,1.17505e+00,2.00894e+00,1.94163e-01,2.55543e-02,5.64693e-02,1.01643e+00,-1.13534e+00,3.59910e-02,4.04470e-02,-1.64765e+00,1.42833e+00,-8.63076e-01,-2.72511e-01,8.59856e-01,-7.90935e-02,1.38305e-01,1.44808e-01,-1.00900e+00,7.02759e-02,
-2.04468e-01,3.77359e-02,3.50064e-02,-7.55119e-02,-8.83242e-02,7.60690e-02,3.46806e-02,4.35883e-02,-4.47249e-02,-4.07582e-03,-4.32189e-02,7.95845e-02,1.42919e-01,-2.36758e-01,-8.68105e-02,7.27240e-03,1.21134e-02,5.01341e-02,-7.33236e-02,3.52187e-01,-6.58569e-02,-7.20094e-02,-3.38359e-02,-6.97315e-02,-8.54845e-02,-1.82919e-01,5.96259e-02,1.50107e-02,-1.18152e-01,2.46761e-02,-9.88745e-03,-5.17154e-02,-5.20993e-02,-1.55042e-01,2.69599e-02,-6.12581e-02,-6.55193e-02,5.47866e-02,3.99152e-02,-2.01996e-01,1.97605e-02,-1.96512e-01,-7.25717e-02,1.41850e-02,6.43705e-03,-2.19321e-01,4.79501e-02,-1.71433e-02,-1.24439e-01,-5.80959e-02,
6.63030e-01,2.83931e-02,-8.08537e-03,6.41513e-01,5.76069e-01,3.73457e-01,-1.30449e-01,-5.63827e-01,-1.27578e+00,-9.31891e-01,-3.67874e-02,1.53452e-01,-5.23558e-01,1.54441e-01,-5.28564e-01,2.69690e-02,2.80289e-01,1.24550e+00,1.34662e-01,-5.73357e-01,-2.79889e-01,5.96351e-01,-1.08258e+00,1.31726e+00,8.89859e-02,3.54004e-01,1.83249e-01,5.87520e-01,-2.36290e+00,-3.64871e-02,-2.70829e+00,-9.28971e-01,3.01907e-01,4.39337e-01,3.38082e-02,9.16739e-01,-2.75171e-01,8.70218e-01,5.88950e-03,-2.83801e-02,-1.00768e+00,1.58074e-01,1.18139e-01,-2.28431e-01,-1.69912e+00,-5.65500e-01,5.65973e-02,-3.59762e-02,-1.33898e+00,9.81255e-01,
-3.84133e-02,-5.61265e-02,3.05136e-02,1.61910e-01,9.37168e-02,3.27656e-01,-5.28178e-01,3.05834e-01,1.44138e+00,6.79332e-02,-7.40592e-03,2.03494e-01,2.77576e-01,9.79668e-01,1.46862e-01,4.93178e-04,5.28199e-01,-1.20975e-01,3.90789e-01,-3.36126e-01,-1.96588e-01,-3.17408e-01,2.94450e-01,-4.64829e-01,9.53796e-02,2.05139e-01,8.97995e-02,-1.17578e-01,-2.27658e-01,2.48800e-02,7.31642e-01,5.53459e-01,2.65024e-01,-2.11764e-01,5.90350e-02,-1.61407e-01,-5.60142e-01,2.10966e-01,3.27337e-02,-1.67685e-01,3.56268e-01,1.09373e+00,-8.83901e-02,2.17200e-01,4.92106e-01,2.25709e-01,2.47304e-01,-3.50327e-01,-1.54651e-01,-2.32980e-01,
-1.15425e-01,4.42711e-02,-5.07487e-02,1.00248e-01,5.41068e-02,4.02939e-01,-9.99484e-02,2.93253e-01,-1.55912e-01,-5.85905e-02,1.22887e-02,-1.56388e-01,3.72091e-01,5.73170e-01,-5.68311e-01,-4.91044e-02,-1.56407e-01,9.33359e-02,-9.69126e-02,2.47755e-01,6.12341e-02,4.77678e-02,-5.44272e-02,-9.50924e-02,-5.36006e-02,5.54568e-01,-4.07704e-02,2.67685e-01,-2.42559e-01,3.29135e-02,5.05650e-01,6.55923e-04,-3.32317e-01,-1.32343e-01,5.45994e-03,1.48488e-01,-1.62160e-01,3.05484e-01,-3.68257e-02,5.22510e-02,1.58741e-01,3.86627e-01,-1.33201e-01,5.33616e-02,4.06503e-01,-6.19686e-01,3.87335e-01,-5.14059e-02,5.84276e-01,-4.75240e-01,
-1.88575e-01,3.91693e-02,-3.37385e-02,-7.38508e-02,-1.95266e-01,1.34384e+00,-1.36939e+00,-2.16321e-01,-3.89269e-01,-5.64240e-01,-4.68538e-02,-9.18357e-01,2.23226e-01,1.74640e+00,-2.31952e-01,1.09422e-03,2.71419e-01,-3.28429e-02,1.59398e-01,-7.80284e-02,-9.08335e-01,5.03126e-01,6.83321e-01,-7.51744e-03,3.83568e-02,3.13058e-01,4.70255e-01,-9.60081e-02,-9.10047e-01,3.38725e-02,-4.79837e-04,-6.66389e-01,4.00319e-02,9.85196e-01,-2.84325e-02,-5.38147e-02,3.07031e-01,1.82174e-01,2.74196e-02,6.77702e-02,7.11452e-02,-1.14109e+00,4.39717e-01,-5.99571e-01,6.55708e-01,-1.87939e-01,-3.41306e-01,9.65755e-01,2.40475e-01,-1.86421e-01,
6.39556e-02,-2.50502e-02,-2.81645e-02,-9.75388e-02,-1.77843e-01,2.50981e-01,-1.63221e-01,-4.29078e-01,-2.19927e-01,4.81371e-01,1.27700e-02,2.82318e-02,-1.95394e-01,-9.04176e-02,-2.48493e-01,-3.35887e-02,2.38968e-01,1.07328e+00,2.63206e-01,-1.23825e+00,-7.47272e-01,2.70622e-01,-1.18881e-01,1.22492e-01,1.03515e-01,-1.47345e-01,-1.72492e-01,6.73395e-02,7.22260e-01,-3.79087e-02,3.58186e-01,-1.01846e-01,9.89501e-02,-7.36584e-02,-6.00225e-03,-7.73165e-02,-3.26121e-01,5.04175e-01,-2.50445e-02,1.59358e-02,3.55594e-01,-1.40759e-01,5.70654e-01,-1.02526e-02,-8.05758e-01,4.09737e-01,6.82810e-02,1.38565e-01,-2.17729e-02,2.38021e-02,
6.19185e-02,-3.54137e-02,3.01604e-02,1.84222e-02,6.02491e-02,1.63621e-01,1.84824e-01,-4.65702e-02,3.28006e-01,-3.43436e-01,-3.16163e-02,-2.38615e-02,4.90202e-02,-3.55146e-01,-1.09253e-01,-3.36063e-02,-9.81749e-02,1.08186e-01,1.16845e-01,-1.87457e-01,-4.00157e-01,-7.16740e-03,-3.42625e-01,-1.21229e-01,-1.52385e-02,2.20676e-01,3.51489e-02,1.50121e-01,1.10305e-01,2.70990e-02,-5.58883e-03,9.00467e-02,-4.32609e-01,-1.76849e-01,-9.16586e-03,-4.90788e-01,2.52471e-01,-5.49346e-01,3.58204e-02,4.15717e-02,1.87663e-01,4.42420e-02,-1.71703e-01,-3.16894e-02,-1.25816e-02,3.42057e-02,-9.43708e-02,5.80608e-02,1.78884e-01,-1.81249e-01,
2.35638e-01,-4.53467e-02,-1.62740e-02,-1.77923e-02,-4.18586e-01,-1.28483e-01,-3.43863e-01,1.28611e-01,-1.92347e+01,-1.28775e-02,4.06434e-02,2.25337e-01,8.85586e-02,2.10729e-01,2.42958e-01,1.12085e-03,-1.75221e-01,3.70808e-02,-1.07950e-02,5.01859e-01,6.82711e-02,8.72341e-02,8.55233e-01,-5.26059e-01,5.55459e-02,8.09902e-03,-1.33413e-01,-4.28783e-02,-3.64479e-01,-2.16779e-02,8.35559e-01,-3.48903e-01,-1.55256e-01,5.34688e-02,2.83051e-02,4.63310e-01,-3.23445e-01,4.39971e-01,5.43175e-02,5.80192e-01,1.71204e-02,1.11113e-01,3.72300e-02,3.04591e-01,1.75990e-01,-3.21867e-04,5.50665e-01,-2.10123e-01,5.23781e-02,8.60266e-03,
-8.84762e-02,-2.63854e-02,1.24942e-02,-1.27586e-01,-5.37505e-01,-2.73250e-02,-3.88285e-01,-1.51997e-01,2.19967e-01,-2.11864e-01,-5.69272e-03,-1.03212e-01,1.47971e-01,-3.98018e-01,2.24427e-01,-1.01692e-02,-1.70530e-01,-1.62190e-02,-5.38824e-02,-8.21310e-02,-2.16679e-01,-7.99307e-02,1.78809e-01,1.12804e-03,-8.34567e-03,3.24345e-02,1.01090e-01,-4.44887e-03,6.94951e-01,2.96830e-02,-2.33474e-01,1.77546e-01,5.59005e-01,-2.44668e-02,4.52277e-02,1.11538e-01,6.78013e-02,-4.94093e-03,7.63509e-03,-1.80716e-02,-9.59937e-02,-1.86154e-02,1.44806e-01,1.59103e-01,-9.88098e-02,-1.42252e-01,3.74992e-02,-2.58529e-02,-2.18606e-01,-2.97518e-01,
1.18796e-02,4.06529e-02,2.81768e-02,1.73089e-01,-5.02604e-01,-1.45874e-01,2.20649e-01,-1.72787e-01,-9.20108e-02,-8.73173e-03,4.17694e-02,2.11596e-02,5.78137e-02,5.80580e-01,-6.18460e-02,-5.24524e-02,8.95057e-02,5.15862e-01,-2.09598e-01,-1.37057e+00,-1.47028e-01,1.71093e-01,1.56817e-01,1.03442e-01,-7.24469e-02,-1.29945e-01,-9.09877e-02,-8.93715e-02,-2.30706e-01,2.12046e-02,-1.47878e-01,3.07303e-01,-1.41508e-01,2.86396e-01,2.05694e-02,4.20749e-01,-1.58251e-01,-3.28973e-02,3.84930e-02,4.37480e-01,-3.41466e-02,-3.40130e-01,-1.90857e-01,-9.35526e-02,-1.19957e-01,1.23414e-01,-1.07480e-01,4.89158e-01,1.45262e-01,3.74294e-02,
1.88849e-01,-8.82189e-03,-4.51110e-03,2.55585e-01,7.97002e-01,-6.00332e-01,-1.19574e+00,2.77605e-01,9.73736e-01,-5.51291e-01,-5.70671e-03,-2.32431e-01,1.86711e-01,-1.59300e+00,-2.15911e-01,4.16364e-02,-2.58744e-01,-3.27893e-01,3.11106e-02,6.54836e-01,-3.00024e-01,2.16438e-01,-3.11917e+00,-4.14103e-02,1.44755e-01,-2.28754e-01,-2.63236e-01,-5.16710e-01,-7.08464e-02,2.27938e-02,-1.26853e-01,-4.02305e-01,1.51844e-01,-7.12054e-01,-7.59851e-03,-5.10638e-01,6.11619e-01,-1.97218e-01,3.42182e-03,2.28192e-01,1.02671e-01,-2.17734e-01,1.24639e-01,-1.18935e-01,-1.31909e-01,-3.06382e-01,-1.31927e-01,-1.14021e+00,3.59047e-01,6.41547e-01,
8.38974e-04,1.17882e-02,1.33191e-02,-2.70821e-01,4.33605e-01,4.76870e-02,4.69075e-01,5.10604e-02,3.67501e-02,7.42099e-02,3.00861e-02,-8.76201e-02,2.71534e-01,-7.85343e-01,-2.08206e-01,7.86321e-03,-6.17346e-01,2.93645e-01,-5.41254e-01,-5.04639e-01,1.31260e-01,2.31235e-01,2.93570e-01,-8.23483e-02,-4.34238e-01,-5.80697e-01,-5.03709e-01,-5.89765e-01,5.19828e-01,2.73499e-02,-2.52268e-01,3.02095e-01,-7.53858e-01,-1.57216e-02,-1.70363e-03,-1.47285e-02,4.53673e-01,6.74881e-02,3.54028e-02,2.06565e-01,-4.56373e-02,-3.35272e-01,-4.38928e-01,-5.19652e-02,4.26986e-01,-5.04160e-01,7.13373e-01,1.12837e-01,1.28569e-01,5.84832e-02,
-5.58610e-01,-2.90391e-02,3.76289e-02,9.45976e-01,6.86685e-01,-1.39631e-01,-8.72467e-01,5.03242e-02,-1.55921e+01,-2.42188e-01,1.52209e-02,1.22204e+00,-1.11325e-01,-1.45116e+00,2.35909e-01,2.01898e-02,1.35985e-01,-1.71199e+00,-2.63421e-01,-4.03318e-01,-5.83634e-01,9.23438e-02,-9.07584e-01,-3.86412e-01,-1.46186e-01,-1.52694e-01,5.68937e-02,-4.43062e-02,5.20701e-01,3.46124e-03,6.75575e-02,-8.29258e-01,3.28100e-01,-1.21346e+00,2.74939e-02,-3.35781e-01,-3.77598e-01,5.09090e-01,-2.95675e-03,1.40991e-01,1.00028e-01,-4.44364e-01,2.30473e-01,-2.27994e-01,-2.63211e-01,4.12787e-01,4.15960e-01,9.64037e-01,1.46300e-01,4.48429e-01,
3.71735e-01,3.55179e-02,1.95992e-02,4.65374e-01,-5.90985e-01,3.69491e-01,9.03099e-01,-5.35209e-01,3.15537e+00,1.20375e-01,-3.90924e-02,-8.97914e-01,2.19778e-01,5.07085e-01,6.00294e-02,3.09348e-02,-6.79259e-01,-9.29125e-02,-4.25223e-01,3.08408e-01,5.64887e-01,1.35731e+00,2.01947e-01,6.00771e-01,9.48827e-02,5.86095e-01,-3.05004e-01,-4.56417e-01,-1.04657e+00,-4.92701e-02,-5.35964e-03,1.45761e-01,-6.91947e-01,1.88205e-01,2.71379e-02,7.21909e-01,-4.46425e-01,-3.23845e-01,2.21488e-02,6.49313e-01,-4.38415e-02,-8.75923e-01,3.51865e-03,-4.15642e-01,6.75842e-01,-9.57527e-01,-4.42123e-01,-3.89715e-01,-1.70598e-03,-1.15761e-01,
-1.12070e-02,-1.80210e-02,-3.92495e-02,-2.24950e-01,-2.66415e-01,1.09677e-01,-4.65485e-01,1.28082e-01,1.71256e-01,2.51907e-01,-4.66769e-03,1.60194e-01,-1.42925e-02,1.40264e-01,-8.03676e-02,1.93780e-02,1.15382e-02,3.37627e-03,6.52059e-02,3.88406e-01,1.80827e-01,3.17860e-02,-1.02754e-01,-7.89380e-02,8.39608e-02,3.39034e-02,8.70549e-02,5.32629e-02,-1.15776e-01,-4.18136e-02,4.66835e-01,-1.27346e-01,3.29796e-01,-4.47835e-01,7.16728e-03,1.62225e-01,-4.50939e-01,5.47671e-01,4.19459e-02,-3.56763e-01,-1.09486e-01,2.05218e-01,2.33604e-01,4.01787e-01,-9.41225e-02,4.67056e-01,2.01649e-01,4.04105e-01,-1.56637e-01,-1.92685e-01,
7.54345e-01,2.57354e-02,1.45131e-03,4.03517e-01,-7.27116e-01,-4.97587e-01,2.32130e+00,3.15030e-01,3.81875e-01,-5.92417e-01,-4.08159e-02,1.44667e-01,3.13368e-01,4.44072e-01,-9.62449e-02,-1.92754e-02,4.15407e-01,-2.81213e-01,8.37517e-02,-2.42595e+00,1.60593e-01,-4.12531e-01,1.38142e-01,4.54047e-01,-1.79858e-01,4.76965e-01,-1.12684e-01,-2.30543e-01,-5.04873e-01,-4.76320e-03,-9.34592e-01,-3.90119e-01,-4.86691e-01,-5.28612e-02,-4.04210e-02,-1.15835e+00,4.71112e-01,-2.24162e+00,-6.56691e-03,3.56900e-01,3.40172e-01,-8.01581e-01,-4.38807e-01,9.36046e-03,-2.71286e+00,6.47389e-01,-6.33007e-01,-1.96990e-01,-4.94208e-01,-5.82680e-01,
-2.39782e-02,1.09404e-02,-2.76473e-02,3.30240e-02,3.72524e-01,1.85145e-01,-4.94380e-01,3.32637e-02,1.61114e-01,2.80657e-01,4.40163e-02,-1.93810e-01,1.23221e-01,-1.12473e+00,-3.09337e-01,4.58248e-02,-5.31497e-01,4.44562e-01,-3.40371e-02,-6.11014e-01,1.83576e-01,4.67168e-01,4.01238e-01,-6.21224e-02,1.37486e-01,-1.14333e-01,-2.48189e-01,1.88148e-01,1.98223e+00,-1.80499e-03,-4.28235e-02,2.03081e-01,-4.67294e-01,2.34441e-02,3.70369e-02,-1.89754e-01,1.15076e-01,-6.96112e-01,3.84607e-02,4.92352e-02,1.43203e-01,-2.32006e-01,9.43906e-02,1.26766e-01,-6.24960e-01,-7.21305e-01,-8.95690e-02,-1.68159e-01,-1.31989e-01,4.52537e-02,
6.67879e-01,3.57996e-02,3.97595e-02,-2.26277e-01,-1.58164e+00,-4.66170e-01,2.05287e-01,-4.25892e-01,-1.49227e+00,1.94837e-01,-6.51331e-04,-6.42573e-02,-1.73684e-02,-3.21680e-01,2.53013e-01,1.22152e-02,-6.74937e-03,-1.29634e+00,-5.58053e-01,-1.22896e+00,2.33181e-01,-5.78418e-02,8.93699e-02,-4.80023e-01,1.03430e-01,-4.03857e-02,-2.79238e-01,-5.05627e-01,-7.08836e-01,4.66885e-02,-1.40842e+00,3.52405e-01,-2.24543e-01,3.05943e-01,2.63879e-02,-2.85024e-01,-7.71102e-02,1.37261e-01,1.84477e-02,5.09983e-01,2.91990e-01,4.74978e-01,-1.07366e+00,2.16578e-01,2.97159e-01,-4.30077e-01,-6.78049e-01,-6.09086e-01,-5.13784e-01,5.56828e-01,
-4.68976e-01,-3.51018e-02,-2.81400e-02,-4.06401e-01,8.32221e-01,-7.43736e-01,2.74334e-01,-5.55080e-01,4.09388e-02,6.44755e-02,2.69685e-02,-2.02552e-01,2.20027e-02,8.30427e-01,-3.68712e-01,2.73737e-02,-2.81601e-01,5.10541e-01,-1.68391e-01,8.02670e-01,-5.79158e-04,-4.00093e-01,-4.08330e-02,-2.28219e-01,-8.11761e-02,-4.51272e-01,-1.78511e-01,1.21507e-01,-3.24184e-01,2.27410e-02,-3.81153e-01,1.10044e+00,-7.10827e-02,-4.10298e-04,-5.97585e-03,3.37868e-01,1.59049e-01,-3.56140e-02,3.35901e-02,1.00421e+00,4.54352e-02,-1.01202e+00,-4.80927e-01,1.42982e-01,2.63327e-01,-4.70317e-01,4.36206e-01,2.42151e-03,5.57993e-01,-1.19538e-01,
-1.32607e+00,-3.99616e-02,-2.23238e-02,-8.66511e+00,-2.55363e-01,2.38605e-02,5.41662e-01,3.09281e-01,-1.99740e+00,-1.70957e-01,-3.98027e-02,3.88749e-01,-2.85762e-01,8.23700e-01,-1.73001e+00,2.06056e-02,5.45449e-01,2.46640e+00,1.16113e+00,-1.11386e+00,-3.12311e-01,1.13460e+00,-1.43982e+00,-2.15333e-02,2.34510e-01,-7.82670e-03,4.04355e-01,4.08270e-01,2.10473e+00,9.71727e-03,-6.19742e-01,-3.11931e+00,6.15810e-02,9.60068e-02,2.14395e-02,3.22515e-01,4.22325e-01,1.11090e-01,4.28550e-02,-6.73263e-01,8.15308e-01,3.75674e-01,-2.55964e+00,-2.38936e+00,1.79486e-01,-3.55959e-02,3.95327e-01,-2.87646e-01,-6.41006e-01,4.36799e-01,
-4.54232e-02,-2.18713e-02,-3.35843e-02,-7.75108e-02,-1.69076e+00,4.47151e-01,-9.16937e-01,-3.33630e-01,1.46683e-01,-5.86016e-01,2.34075e-02,7.53996e-01,-6.23398e-01,3.26770e-01,2.12269e-01,2.14235e-02,1.47611e-01,-1.68228e+00,1.62603e-01,-3.96586e-01,3.82970e-01,1.02299e+00,1.49822e-01,-1.20217e-01,3.33731e-01,-4.25316e-01,2.18847e-01,4.21318e-01,1.83450e+00,2.73803e-02,-2.09698e+00,-6.54276e-01,-5.50539e-01,3.45067e-01,-2.99234e-02,-3.98514e-01,-3.41390e-02,1.36192e+00,-3.27569e-02,-4.42733e-01,1.33043e-01,-3.79689e-01,1.25545e-01,7.61537e-02,5.20072e-01,7.11556e-01,-8.86186e-01,-5.63081e-02,-1.02655e+00,-3.97536e-01,
1.48107e-01,1.69833e-02,-3.37865e-02,-8.06199e-01,6.26296e-01,1.10619e-01,4.80949e-02,1.02751e-01,1.96188e-01,2.33181e-01,-3.23037e-02,-1.94978e-01,-3.72376e-01,-1.41816e-01,7.13634e-01,1.64710e-02,3.40289e-01,-3.51538e-01,-1.49190e-01,3.51894e-02,1.87564e-01,6.68230e-02,-2.82203e-01,-2.72062e-01,-1.51632e-01,-3.84327e-01,1.49490e-01,8.15709e-02,4.92646e-01,2.83232e-02,-1.84320e-01,-6.42323e-01,4.72927e-02,-1.04223e-02,1.20475e-02,3.18975e-01,9.76998e-03,-1.27513e+00,-4.31713e-02,-5.68820e-03,-2.22330e-01,-3.84072e-01,-8.95761e-02,-1.10348e-01,-9.56291e-01,-2.64393e-01,-2.93136e-01,3.57138e-01,-2.11203e-01,1.37995e-01,
3.84698e-01,-1.70671e-02,-2.43004e-03,5.84225e-01,1.30552e+00,1.74451e-01,1.41278e-02,2.13213e-02,4.14130e-01,1.44231e-02,-2.95759e-02,-1.54572e-02,1.18789e-01,3.44006e-01,-1.11993e-01,-3.85568e-02,1.11933e-01,-2.04315e-01,1.23809e-02,-4.27492e-02,2.13225e-01,-3.95049e-02,-7.59762e-01,5.52159e-01,2.58489e-01,-2.97321e-01,-1.76189e-01,-8.63058e-02,1.10656e-02,2.17856e-02,-5.91795e-01,5.14580e-01,-7.11129e-01,1.21370e-01,-6.46613e-02,3.35560e-01,3.52526e-01,-1.78908e-01,-7.15915e-03,7.28978e-02,-1.22076e-01,1.02884e+00,-2.45484e-01,-2.49791e-01,5.09176e-01,2.03100e-01,-6.59315e-02,-2.26138e-01,-1.73637e-01,-3.25159e-01,
-3.95485e-01,-2.25193e-02,4.25657e-04,8.82132e-02,4.80838e-01,1.90179e-01,2.14012e-01,-1.52363e-01,-2.05756e-01,-7.16906e-01,-2.95533e-02,-8.13314e-01,5.24210e-02,2.92479e-01,-8.51155e-02,7.59330e-03,-9.05585e-02,-3.78349e-01,3.01127e-01,-1.58973e-01,-2.25808e-02,-7.23376e-02,-2.93494e-01,-3.04052e-01,-5.88414e-02,3.72620e-01,4.98707e-01,-1.93120e-01,-6.21311e-01,1.22027e-02,-1.23347e+00,-1.80719e-01,4.54122e-02,-4.14319e-02,3.90295e-02,3.78177e-01,5.02987e-01,2.88329e-01,3.16987e-02,4.09258e-01,-7.25781e-02,-2.34880e-01,9.16534e-02,-2.75000e-01,4.52174e-02,-3.08248e+00,-4.53043e+00,-2.21551e-01,-5.25979e-01,5.91246e-01,
1.53298e-01,2.62147e-03,-1.06446e-02,-9.69422e-01,-1.32285e+00,-2.09758e-01,-3.50078e-01,1.06389e-01,-2.74020e-01,-2.43417e-01,-2.58750e-02,-9.20742e-01,-1.23143e-01,1.35394e+00,-3.20313e-01,-3.50425e-02,1.19454e-02,-1.83473e-01,-9.69400e-01,-1.05392e-01,-2.02956e-01,-5.45802e-01,1.96944e-02,-2.54308e-02,1.80400e-01,-1.81881e-01,-1.14445e-01,6.30508e-02,1.18339e+00,4.06222e-02,-2.09671e-01,1.65375e-01,-5.03162e-01,1.37176e-01,2.58482e-03,5.73358e-02,-5.55246e-01,8.88785e-01,3.24203e-02,-1.11332e-01,5.60861e-02,-8.32784e-01,-1.38866e-01,-4.48696e-01,1.09574e+00,4.39922e-01,7.27416e-01,-1.00035e-01,-5.68089e-02,5.46320e-01,
-5.15719e-01,-4.08470e-02,-1.98534e-02,-1.31517e-01,-5.04622e-01,-1.36938e-01,-1.14181e+00,-3.59044e-01,6.28792e-01,-3.74365e-02,-1.41893e-02,-1.66216e-02,3.03509e-01,-6.92604e-01,-2.26285e-01,3.59568e-02,5.88115e-01,1.03433e-01,1.01311e-01,-1.00988e+00,-6.29143e-01,-1.49790e-01,2.56130e-01,-1.78694e-01,1.62520e-03,2.66127e-02,3.35390e-01,7.40376e-02,1.04018e+00,-2.11328e-02,-2.01227e-01,2.15783e-01,6.66234e-01,5.34300e-01,6.45050e-03,-4.11271e-01,5.55928e-02,-9.27053e-01,-2.81058e-02,-6.14542e-01,-5.17455e-02,5.65844e-01,-4.63485e-01,2.01683e-01,-8.70336e-01,-3.02851e-01,-3.15259e-01,4.21269e-01,-4.27193e-01,-2.31681e-01,
-3.27671e-01,2.57419e-02,1.63304e-03,-6.38067e-01,7.28546e-01,5.56158e-02,4.38519e-01,-1.61893e-01,-3.17055e-02,-1.83855e+00,-4.45707e-02,5.54064e-01,-1.86174e-01,8.79699e-01,2.73569e-01,-1.83311e-03,4.85192e-01,1.70997e+00,1.66845e-01,-1.09263e+00,5.56746e-01,1.47540e-01,4.00686e-01,6.16068e-02,-3.31962e-01,4.42984e-01,-1.38911e-03,2.48874e-01,-1.48674e+00,2.94129e-02,2.03937e-01,-4.97989e-01,1.04961e-01,-5.52282e-01,1.27480e-02,-1.09080e-01,-4.48765e-02,1.28222e+00,-3.70704e-02,4.68915e-01,-4.06253e-01,-3.31306e-01,-1.43116e-01,-4.74022e-01,6.78166e-01,-1.85971e-01,-1.01179e+00,5.22598e-01,-2.80593e-01,4.69812e-01,
6.96531e-02,-4.79051e-02,-3.98542e-03,3.25555e-02,-1.56877e-01,-2.04818e-01,4.83740e-01,-1.43547e-02,7.37495e-03,4.21844e-01,6.45652e-03,-3.40262e-01,-7.75156e-02,6.86276e-01,4.16925e-01,-2.66801e-02,6.90372e-02,-2.33134e-01,-2.09685e-01,-1.32224e-02,-2.79761e-01,-2.64761e-01,2.78376e-03,1.58893e-01,-6.50941e-02,9.70263e-02,1.93392e-01,6.51265e-03,3.85055e-01,-1.95651e-04,2.34943e-02,5.73617e-02,4.83265e-01,2.36783e-01,3.36012e-02,-6.27377e-02,2.21926e-01,1.45572e-01,2.40848e-02,2.36487e-01,-1.74198e-01,1.09965e+00,-2.77802e-01,-2.80282e-01,1.76221e-01,-6.12532e-02,8.57550e-02,4.29934e-01,-4.35762e-01,6.09399e-02,
-1.69163e-01,-4.02657e-02,-2.32971e-02,-3.24384e-01,-8.05993e-01,-1.29555e-02,4.21025e-01,3.78715e-01,6.51030e-01,-1.30486e-01,1.41516e-02,-9.68496e-02,-4.28175e-01,-1.99587e-01,-7.94826e-02,-2.32660e-02,-1.36249e+00,1.93162e-01,-9.93583e-01,4.58677e-01,3.69812e-01,-4.01806e+00,1.87640e-01,-6.69580e-01,-1.54110e-01,3.86760e-01,-1.92434e-01,-2.41904e-01,-1.15794e+00,-5.50322e-03,3.25069e-01,-2.35440e-03,7.52366e-01,-2.85177e-01,-3.34161e-02,6.32665e-01,3.80933e-01,-2.98027e-01,-1.10188e-02,3.40127e-01,2.64263e-01,9.92030e-04,-1.88240e-02,-4.21482e-01,-7.73403e-02,-8.48614e-01,4.89728e-01,5.77923e-01,-1.99813e-01,-5.19040e-03,
-3.17505e-02,-2.80853e-02,2.51193e-02,2.89941e-01,4.92108e-01,-4.91324e-02,6.14072e-01,6.30895e-01,2.26064e-01,5.61801e-01,-1.00894e-02,9.82732e-01,1.01201e-01,-9.58393e-01,8.87843e-02,-3.32797e-02,3.50993e-01,-3.05135e-01,-3.16773e-04,-4.09850e-01,2.06784e-01,-9.44029e-02,3.39584e-01,-2.38646e-01,2.35270e-01,2.72271e-01,3.20693e-02,4.96733e-01,-2.04841e-01,3.32402e-02,1.53099e-01,9.94569e-01,-1.72883e-01,3.39285e-01,-2.16654e-02,5.29933e-01,1.45079e-02,-3.77881e-01,2.94610e-02,1.97741e-01,4.80861e-01,2.84633e-01,-2.47927e-01,-4.94260e-01,-4.58916e-01,-6.73251e-02,-3.57233e-02,-1.98147e-01,5.05577e-01,3.46889e-02,
-4.61510e-01,-1.63944e-02,-2.20012e-02,3.37598e-01,3.37929e-02,-4.37854e-01,-4.02462e-01,-1.99789e-02,2.64247e-01,2.24160e-02,9.12301e-03,-8.73663e-02,-8.38248e-02,3.12758e-01,-3.83197e-01,2.05525e-02,4.33192e-02,5.75338e-01,1.13746e-02,-1.29624e-03,6.72822e-01,-5.24894e-01,-4.44067e-01,-1.69816e-01,4.93024e-02,4.04054e-01,3.51359e-01,4.02198e-01,6.90884e-01,8.56591e-03,5.28630e-01,6.55991e-01,5.01240e-01,5.22057e-01,4.01053e-02,-4.03215e-02,-4.25386e-01,5.81115e-01,-3.12233e-02,3.51214e-01,8.29937e-01,1.00718e+00,-1.21729e-01,-7.13086e-02,-3.74119e-01,-1.42152e+00,2.55207e-01,-3.37083e-01,2.83908e-01,5.01260e-01,
-8.80083e-02,-3.41703e-02,4.90944e-03,1.68948e-01,-3.68451e-01,5.00783e-02,-2.56568e-01,-2.83791e-02,1.80284e-01,-1.16679e-02,-2.71200e-02,9.53278e-02,4.51003e-02,5.55929e-02,-1.59076e-02,-7.99926e-03,1.15156e-01,2.71718e-01,2.13818e-01,3.00674e-01,-8.57143e-01,-8.71933e-04,1.76883e-01,-1.96788e-01,-2.81256e-03,-7.11981e-02,1.14197e-01,1.00681e-01,-3.84443e-03,3.54822e-03,-8.30297e-03,1.90942e-02,1.33744e-01,9.41287e-02,6.67340e-03,-9.82946e-02,1.85330e-01,8.34106e-02,1.30667e-02,1.82650e-01,1.25963e-01,2.74745e-01,3.01316e-02,9.79763e-02,-1.40863e-02,3.93940e-02,-2.69499e-02,-2.83473e-02,-3.58505e-02,-4.83752e-02,
2.10556e-02,2.57861e-02,-2.20761e-02,-4.27208e-01,-7.15657e-01,1.21735e-01,4.33305e-02,-2.31737e-01,3.91888e-03,1.47582e-01,-1.43995e-02,-1.17578e-01,-5.04251e-02,-1.11997e+00,6.22539e-01,3.28170e-02,-2.16305e-01,9.78875e-02,1.50274e-01,4.78410e-01,-2.62618e-01,-3.28050e-01,1.06891e+00,-2.33466e-01,2.42046e-01,-1.09472e-01,-1.57634e-01,2.76401e-01,-5.69236e-01,-7.61636e-03,1.07948e-01,-1.43260e-01,-6.99449e-02,1.74074e-01,-3.69485e-03,5.88421e-01,-1.48237e-01,3.69044e-01,2.52864e-02,5.98723e-01,-2.15360e-01,-5.90102e-01,3.61063e-01,-4.01220e-01,-2.53934e-01,3.28049e-01,-5.37925e-01,-3.29786e-02,1.02562e-01,-2.21436e-01,
8.31394e-02,3.75600e-03,3.44222e-02,-5.55878e-03,2.05953e-01,-2.28919e-01,-4.28829e-01,2.84723e-01,7.46038e-01,-5.45641e-02,6.33537e-03,-6.26488e-01,8.46368e-03,-1.98288e-02,1.03188e-02,-2.40040e-02,-2.49539e-01,-1.66354e-01,-2.93209e-01,3.01572e-01,2.72169e-01,-4.61598e-01,-1.52378e-01,1.34288e-01,-9.11810e-02,3.89085e-01,1.00459e-01,1.40951e-01,2.91531e-01,-4.40878e-02,3.12684e-01,2.16431e-01,-2.60574e-01,-6.86710e-02,1.35835e-02,1.84768e-01,-2.00437e-01,5.64043e-01,5.49655e-03,4.38648e-01,-6.71320e-02,4.45689e-01,3.10690e-02,-2.77197e-01,1.40280e-01,1.66259e-02,2.33426e-01,-7.51441e-02,1.44002e-01,1.54639e-01,
3.69082e-01,7.51268e-03,8.16134e-03,1.77978e-01,-3.45579e+00,-1.98312e-01,2.08376e-01,9.25809e-01,1.03176e+00,-4.10803e-01,-6.42501e-03,-2.94136e-01,2.06317e-02,-5.31938e-01,-6.65540e-01,-1.84503e-03,-1.16238e+00,-1.69534e+00,4.68466e-01,6.95186e-02,-5.29731e-01,4.95385e-01,3.45948e-01,-1.00945e+00,5.33126e-01,1.08696e+00,-9.20651e-02,3.54880e-01,-1.49617e+00,-4.80804e-02,6.97990e-01,-8.60685e-01,-1.97384e+00,-9.19311e-01,6.52580e-03,3.94864e-01,-1.68436e+00,2.43250e-01,1.43627e-02,6.59017e-01,4.59161e-01,7.82332e-02,4.85962e-01,8.32916e-01,-3.34035e-02,4.43519e-01,-8.44312e-03,1.53036e-02,1.27498e-01,5.20792e-01,
-5.41423e-02,-2.40446e-02,1.82588e-02,-5.31648e-02,-2.50647e-02,1.29532e-02,-5.20460e-03,-4.27078e-02,-3.77067e-02,1.80316e-02,-3.14998e-02,-3.37261e-02,2.42003e-02,-1.89203e-02,3.20830e-02,-3.61903e-02,1.71532e-03,-1.50190e-03,-6.38582e-02,-2.67339e-02,-7.29149e-02,4.21175e-02,-4.96692e-02,-1.96989e-02,8.38855e-03,-1.02478e-02,5.76175e-03,-1.44609e-02,1.24834e-02,4.92760e-02,-2.66015e-02,-2.10027e-02,2.75717e-02,-6.01386e-02,1.76250e-02,-4.68866e-02,2.41629e-02,9.62937e-03,-1.67761e-02,1.55942e-02,3.70166e-03,-3.01051e-02,-1.01118e-02,2.82189e-02,-5.36061e-02,1.62482e-02,2.82737e-03,-5.69941e-02,-7.50484e-03,-4.02342e-03,
-1.98134e-01,-1.75873e-02,4.07407e-02,4.43340e-01,-3.74738e-02,-8.78858e-01,1.39699e+00,-4.51999e-01,-4.55529e+00,1.88512e-01,-2.14262e-02,-1.67195e-01,-2.06630e-02,-1.27740e+00,-2.34309e-02,-1.49413e-02,1.04148e-02,-2.68090e-01,3.19320e-01,-4.27315e-01,8.85578e-01,-1.44095e-01,-6.31709e-01,-2.79429e-01,-1.95585e-02,-3.04422e-01,1.47364e-01,3.93365e-01,8.34859e-01,-1.28135e-02,-3.18424e-01,-2.82083e-01,4.42820e-01,-2.31321e-01,-4.16679e-02,-4.16970e-01,2.85632e-01,1.08635e+00,1.41913e-02,-2.93221e-01,3.70142e-01,-5.68776e-01,-8.14094e-02,1.23322e-01,-2.73996e-01,5.16659e-02,-3.58046e-01,-1.89645e-01,3.47559e-01,1.18404e+00,
-2.89879e-01,1.13805e-02,8.90711e-03,2.28831e-01,-2.18929e-01,-5.16764e-02,-5.08532e-01,-8.27907e-02,-4.10770e+00,-1.97202e-02,9.66278e-03,-6.98413e-02,-4.89240e-02,4.18150e-01,-2.45669e-01,-3.89348e-02,-2.76905e-02,6.90047e-02,1.05456e-01,-2.74352e-01,3.43595e-01,1.70981e-03,-1.00760e-01,5.05803e-02,1.37758e-01,2.71132e-01,-1.18166e-01,2.84150e-01,5.00185e-01,-3.11778e-02,5.49245e-01,-2.86982e-01,-5.12722e-01,6.25875e-02,1.49959e-02,1.34269e-01,-2.62540e-01,6.10294e-01,-3.37072e-02,1.77125e-01,3.63822e-01,-2.26433e-01,8.54601e-02,1.55559e-01,3.29912e-01,-3.87140e-01,2.59566e-01,-2.33106e-01,4.45892e-01,2.37256e-01,
-2.06784e-01,-3.36834e-02,4.52119e-02,3.16371e-01,4.21096e-01,-2.07625e-01,-3.13483e-01,-5.54232e-02,-1.96366e-01,1.84349e-01,3.34109e-02,2.61160e-01,-1.28526e-01,6.55821e-01,-3.20515e-01,-4.16108e-02,2.70868e-01,-1.42633e-01,-2.34649e-01,6.62379e-02,2.04478e-01,-1.35700e-01,-1.61472e-01,-1.94565e-01,-6.56743e-02,2.52042e-01,4.86748e-02,1.70959e-01,3.45043e-01,-3.47689e-03,6.50244e-01,-4.37209e-01,-3.35142e-02,-4.60594e-03,-3.70914e-02,-5.76244e-02,-3.88286e-01,-1.13596e+00,3.45565e-02,2.68907e-01,8.84097e-02,-4.99938e-01,1.95493e-01,-5.91316e-01,-4.53287e-01,3.54256e-02,-1.53445e-01,1.45866e-01,3.24893e-01,8.10559e-02,
2.59971e-01,-8.93026e-03,2.64822e-02,6.13950e-01,8.03108e-02,1.65278e-01,1.20950e-02,-3.42471e-02,-1.10776e+00,1.23702e-02,6.93947e-03,1.34534e-02,-4.77570e-02,4.20324e-01,1.96277e-01,-1.00474e-02,-1.54392e-01,2.00525e-01,2.75936e-01,2.04503e-01,4.30113e-01,4.81904e-01,4.02873e-01,5.53226e-02,2.58983e-02,1.52671e-01,-2.94694e-01,-6.70880e-02,-3.49034e-01,3.65659e-02,1.41537e-01,-7.73683e-01,-2.34788e-01,-8.54493e-02,-3.47607e-03,5.22362e-01,-1.00148e-01,-2.13507e-01,-3.47809e-02,3.24146e-01,-1.32084e-01,5.91344e-01,1.96788e-01,3.55703e-01,5.07147e-01,-1.69207e-01,7.00405e-02,-7.10764e-02,-3.82106e-01,3.19238e-01,
3.57006e-02,1.81127e-02,-2.08165e-02,-9.70209e-01,-2.19753e+00,-3.19461e-03,-4.62497e-02,7.67082e-02,2.08448e-02,-8.32367e-02,-2.52924e-02,-2.95512e-02,-1.79429e-02,7.06347e-01,1.52582e-01,-1.49959e-02,1.13729e-02,-1.26613e-01,-2.20348e-01,6.41701e-01,2.72472e-01,-1.72172e-01,-9.26413e-02,-6.57403e-02,-1.16751e-01,-1.18587e+00,1.11676e-01,-8.28979e-02,5.22839e-01,-4.63598e-02,-6.79696e-02,2.44666e-01,1.48905e-01,-2.35750e-01,-9.78014e-04,-8.75809e-02,2.89365e-01,-9.47886e-02,1.30817e-02,-5.69492e-02,-3.41861e-02,-2.34573e-01,-8.10281e-02,1.33619e-01,1.66775e-01,3.63223e-01,-4.04235e-01,2.91104e-02,-9.37705e-01,-2.98375e-02,
-3.73633e-01,9.73256e-03,-4.11438e-02,3.61753e-01,-3.04558e+00,-1.11931e-01,-5.71560e-01,6.99853e-01,-8.99790e+00,2.99631e-01,-2.62201e-02,1.13754e+00,-5.90925e-01,6.31172e-01,-2.13409e-01,-2.04239e-02,4.10849e-01,4.16463e-01,-4.74923e+00,2.50169e-01,-6.65834e-01,-1.21294e-01,1.68450e+00,2.35263e-01,2.06866e-01,2.93636e-01,-3.53006e-02,-4.15191e-01,-9.04801e-01,3.83982e-02,3.26248e-01,4.52030e-01,6.77907e-01,-7.54517e-01,1.28466e-02,-6.62743e-01,-5.66662e-01,1.23983e+00,-4.75224e-02,-2.72338e-01,2.90674e-01,-4.93538e-01,1.13154e+00,-6.95029e-01,6.31028e-01,7.19881e-01,1.33769e-01,1.29734e-01,2.46633e-01,9.02188e-02,
-4.66274e-01,-4.23800e-02,1.99140e-02,5.96074e-01,1.08989e-01,-3.41953e-01,3.91250e-01,5.03620e-01,-1.85680e+00,-4.25856e-01,-3.98264e-02,-4.96156e-01,-1.61951e-01,1.90978e-01,-2.48122e-01,2.80111e-02,-4.62749e-02,-6.03066e-01,-3.05215e-01,-3.98516e-01,7.79995e-01,-1.10401e-01,4.10324e-01,3.23526e-01,-2.73357e-01,1.12064e+00,2.25185e-02,-3.93720e-02,-5.20408e-01,-1.17481e-03,5.31903e-01,-9.71206e-02,4.73636e-01,1.29080e-01,1.12197e-02,-5.35805e-02,-4.58518e-01,4.72173e-01,7.52799e-04,-1.75354e-01,-1.19933e-01,3.56163e-02,-1.23031e-01,-9.54374e-02,9.87744e-01,-1.00833e+00,2.29619e-01,-1.59559e-01,5.82566e-01,9.76862e-01,
-3.13639e-01,-2.60046e-02,-1.70086e-02,6.89343e-01,8.47003e-01,-1.48851e-01,1.36462e-01,1.99288e-01,-1.85320e+00,1.68595e-01,-3.04251e-02,-6.03371e-01,2.05012e-01,6.68955e-01,3.60263e-02,3.29692e-02,-1.32728e+00,-4.37170e-01,3.21848e-01,-1.00680e+00,-1.01165e+00,-4.19416e-01,-3.19892e-01,-1.67778e-02,-1.13915e-01,-4.02230e-01,-1.71377e-01,7.70122e-02,-1.39473e+00,-8.72688e-04,-1.91943e-01,-1.49060e-01,1.63527e-01,-2.07987e-01,2.01251e-03,6.83012e-01,-4.11396e-01,5.74436e-01,-4.18559e-02,7.48505e-01,-1.78092e-01,-7.32191e-01,3.02476e-02,-6.29217e-01,1.59096e+00,7.13404e-01,5.18976e-01,-2.59744e-02,4.98903e-01,2.71275e-01,
-8.74708e-01,2.81489e-02,3.15443e-02,9.88750e-02,-4.34223e-01,-3.33391e-01,-3.02627e-01,-2.42477e-01,-5.51399e-01,1.11585e-01,1.25294e-02,-1.14072e-01,-6.55324e-01,6.51827e-01,-6.55851e-02,-2.77493e-02,-7.54065e-01,1.67054e-01,-1.42978e+00,6.91764e-01,4.34012e-01,-1.75037e-01,-4.62093e-01,-7.29517e-02,9.09141e-02,-1.46224e-01,-7.89715e-02,3.30471e-01,-8.00606e-01,4.44136e-02,-1.85073e+00,-9.67978e-01,-1.69316e-01,2.67099e-01,-2.98019e-02,1.05666e+00,6.03874e-01,1.57744e+00,7.79302e-04,-3.01758e-02,8.87823e-03,-1.92848e+00,2.41056e-01,-8.21404e-01,6.98226e-01,8.68485e-02,4.95574e-01,4.43175e-01,4.61010e-01,6.34809e-01,
-9.42118e-01,
-7.95600e-01,
-5.18884e-01,
3.35786e-01,
3.92779e-01,
5.72135e-01,
-1.06112e+00,
-9.61513e-01,
-1.36937e-01,
1.31185e+00,
8.38544e-01,
6.53565e-01,
-2.43637e-01,
4.36088e-01,
3.17762e-01,
9.64157e-02,
6.72074e-01,
9.17707e-01,
-1.63359e+00,
-2.60650e-01,
-5.10155e-01,
1.52069e-01,
4.61225e-01,
2.92174e-01,
-8.96218e-01,
1.18442e+00,
-2.90247e-01,
-4.10745e-01,
-7.44634e-01,
4.97051e-01,
3.38173e+00,
-7.12568e-01,
-4.99792e-01,
-6.81321e-01,
-2.07123e+00,
-9.94733e-01,
6.94910e-02,
-2.36400e-01,
-8.75004e-01,
