// Neural Network File Format by Kyle Julian, Stanford 2016
7,5,5,50,
5,50,50,50,50,50,50,5,
0,
0.0,-3.141593,-3.141593,100.0,0.0,
60760.0,3.141593,3.141593,1200.0,1200.0,
19791.091,0.0,0.0,650.0,600.0,7.5188840201005975,
60261.0,6.28318530718,6.28318530718,1100.0,1200.0,373.94992,
8.40894e-01,-2.85268e-02,4.08537e-02,-3.00944e-01,-5.67237e-01,
-5.35993e-01,6.48152e-03,7.78808e-03,-1.54037e-01,1.05616e-01,
-2.89033e-02,7.02812e-03,3.23454e-03,-4.82995e-04,1.85547e-03,
1.56702e-01,8.10524e-01,-6.77775e-02,3.35769e-02,-5.67938e-02,
-3.01389e-02,-4.28714e-01,4.07178e-01,-4.27956e-03,-1.80918e-01,
-1.91632e-01,-7.73171e-03,1.70847e-03,1.96668e-01,1.93922e-01,
1.10925e-01,-1.19050e-01,-3.12655e-01,2.36553e-01,1.18757e-01,
3.61131e-02,3.07208e-01,4.08198e-01,-1.60427e-01,-4.39205e-02,
5.54269e-01,2.02214e-01,1.92203e-01,2.30595e-01,1.58361e-01,
-7.36613e-02,1.86786e-01,-1.34595e-01,2.37065e-01,-3.36064e-01,
-6.99940e-01,-4.16731e-02,-4.69100e-02,1.22553e-01,2.45293e-01,
-7.17877e-01,1.83390e-02,-5.61485e-03,2.30580e-02,-3.31962e-01,
9.37320e-04,-6.06178e-03,-1.03161e-03,1.03784e-03,1.37573e-02,
6.36873e-02,-8.53091e-01,-5.27007e-02,2.29844e-01,-2.46025e-01,
-3.99347e-01,2.66101e-01,2.61157e-02,1.17431e-01,1.11246e-01,
-2.70186e-02,-6.28441e-01,8.49813e-01,1.10653e-01,-2.83554e-01,
3.97872e-01,3.69656e-02,-2.98722e-02,1.00223e-01,-6.89239e-01,
-1.57849e-01,-4.80330e-02,-5.81511e-03,4.59280e-01,-3.57907e-01,
1.44413e-02,-4.30577e-02,-1.73073e-02,-5.82334e-01,-4.57718e-01,
-1.07725e+00,9.34480e-03,-2.78965e-03,1.52406e-02,2.85033e-03,
-3.68530e-02,1.72046e-01,9.31752e-02,-4.23765e-01,-4.93802e-01,
-1.32260e-01,-9.60557e-03,1.61088e-01,-3.86669e-01,4.63179e-01,
9.20622e-04,1.43213e-02,9.88242e-03,2.72810e-01,-2.04630e-01,
3.23336e-02,7.25829e-01,-3.18453e-01,2.26747e-01,-1.68149e-01,
6.65777e-01,5.67571e-02,8.03373e-02,-5.60859e-02,-1.01151e-01,
-1.88056e-02,1.48850e-01,-6.26569e-01,1.37176e-01,-2.89726e-01,
1.27011e-01,1.44818e+00,-4.16684e-02,2.10837e-02,-1.01178e-01,
2.70464e-02,8.18542e-01,-9.05424e-01,9.29532e-02,1.03022e-01,
3.26604e-02,7.28594e-01,-7.36614e-01,4.14528e-02,9.55012e-02,
3.64546e-01,-1.00236e-03,4.13207e-03,3.49192e-01,-2.20484e-01,
3.59600e-01,-3.11559e-02,-8.37607e-02,1.14986e-01,-1.88629e-01,
6.07897e-01,2.13551e-03,1.04091e-03,6.92189e-02,-4.71573e-03,
2.32127e-03,-8.24952e-01,8.25766e-01,1.73234e-02,1.22138e-01,
5.65236e-02,-3.17741e-01,-3.90112e-01,-1.69100e-01,1.65663e-01,
2.22433e-03,7.57100e-04,2.03666e-03,1.88308e-01,2.63411e-04,
2.19694e-02,-6.24330e-01,6.25713e-01,1.35543e-01,1.44540e-01,
-1.42310e-01,7.22638e-02,1.36818e-01,2.55494e-01,5.50259e-02,
6.88393e-01,2.19402e-03,-2.74749e-04,2.14667e-02,8.80397e-03,
5.57383e-02,4.66809e-03,-1.06902e-03,9.00817e-03,-8.62107e-01,
-5.64552e-02,-6.75157e-02,-1.41684e-01,-7.32515e-01,-1.67412e-01,
7.43656e-02,-8.73317e-01,8.24170e-01,1.13592e-01,3.07194e-02,
-8.30337e-03,3.01007e-01,2.78806e-01,-1.60580e-01,1.40838e-01,
-4.86176e-03,-7.55977e-03,1.04729e-02,3.79836e-03,4.47246e-03,
-1.21763e-01,8.55558e-01,1.00137e+00,4.74358e-01,-1.13848e-02,
-5.07097e-02,-6.95036e-02,1.81924e-01,1.45477e-01,-2.17801e-01,
2.21036e-01,4.78400e-02,2.17304e-01,4.70230e-01,-6.78468e-01,
-7.93836e-02,-3.62160e-02,1.54405e+00,2.97833e-02,-2.94600e-03,
-1.35985e-01,-2.61896e-02,-1.43573e+00,-1.11365e-01,1.99979e-01,
1.39461e-02,-1.23982e+00,1.69680e-02,1.54190e-03,5.78849e-04,
-9.64068e-01,4.45538e-02,3.69498e-02,3.49683e-02,-3.21845e-02,
2.71393e-02,
-5.79071e-02,
-1.78582e-02,
9.06859e-02,
-8.16655e-03,
1.03588e-01,
-2.21096e-02,
3.56573e-02,
-9.43082e-02,
1.40443e-02,
1.27148e-02,
-3.05819e-01,
-1.49865e-02,
1.05222e-02,
-2.32075e-02,
-1.79591e-01,
-1.02724e-01,
1.37847e-01,
-3.97034e-01,
-1.53956e-01,
-4.07327e-01,
4.17696e-03,
2.14530e-02,
-1.11223e-01,
2.56584e-02,
1.02262e-01,
3.71568e-02,
-2.39761e-01,
-2.78136e-01,
1.81376e-01,
5.07431e-02,
2.31702e-01,
-3.23989e-01,
3.49969e-02,
9.15077e-02,
-1.09220e-01,
-2.57337e-02,
2.39476e-01,
-3.08112e-01,
-2.80652e-01,
-2.60210e-01,
2.47523e-02,
-1.49422e-02,
-1.34983e-01,
1.96171e-02,
1.07494e-01,
3.61257e-02,
1.82700e-02,
-5.06965e-03,
-2.22165e-01,
-2.08978e-01,-4.40119e-01,2.87580e-02,-2.29274e-02,-4.67634e-01,-2.72114e-01,-3.24253e-01,1.84883e-01,1.13850e-01,-4.72165e-01,3.22360e-01,-1.45309e-01,4.08185e-02,-1.00410e+00,7.82917e-02,-4.79839e-01,-6.23400e-01,-2.05912e-01,-6.16049e-01,-1.55628e-01,-6.02754e-01,5.09751e-01,2.08794e+00,2.48009e-01,2.12098e-01,-2.96611e-01,-6.79943e-02,-2.48182e-01,7.87984e-01,4.98880e-02,2.34790e-01,1.51541e-01,-1.86014e+00,-2.72985e-01,-6.21657e-01,-8.85417e-01,1.00326e-01,3.15957e-01,-4.55705e-01,5.79880e-01,-1.41739e+00,5.30924e-02,-1.54434e-02,-5.17967e-01,-4.27031e-01,-1.37321e-01,1.20705e-02,9.55173e-02,-4.03638e-02,-3.48667e-02,
-2.74952e-01,8.11228e-02,4.90329e-02,2.20381e-02,1.27381e-01,-1.73718e-01,2.15876e-01,6.83361e-02,5.16872e-02,-1.90103e-01,1.97724e-01,-3.58921e-01,-3.35461e-02,5.10430e-01,-6.07390e-02,6.97349e-02,-1.84756e-01,-1.77491e-01,5.01654e-01,-1.76315e-01,-1.77755e-01,-6.67951e-01,1.04765e-01,2.03920e-01,1.83802e-01,2.03608e-01,1.44325e-01,1.15432e-01,-2.51831e-01,-2.14405e-01,-7.81398e-01,3.44799e-01,-4.70202e-01,-9.05148e-02,1.23820e-01,-3.71931e-01,1.16975e-01,4.94916e-01,-5.55676e-01,-2.31415e-01,-2.83867e-01,5.06885e-03,5.47152e-02,-3.14034e-02,1.95351e-01,-8.36973e-02,5.67756e-02,-3.83764e-01,1.34064e-01,2.50775e-01,
-2.08075e-01,1.75532e-01,-5.42639e-02,-1.16194e-01,-1.53935e-01,-4.28295e-01,-1.26502e-01,-1.75070e-01,1.11218e-01,1.15678e-01,8.59381e-02,4.05052e-03,-3.73894e-03,-1.75845e-01,9.86449e-02,-1.62189e-01,-1.02580e-01,-3.25390e-02,5.08900e-01,-4.67430e-01,2.83861e-01,-1.69327e-01,6.11011e-01,-1.40407e-01,-3.32011e-01,5.70201e-01,2.70234e-02,7.02535e-02,5.24911e-01,-3.73570e-01,9.29442e-02,-9.73536e-02,1.80145e-03,3.17537e-01,2.86956e-01,-3.94617e-01,-2.60598e-01,2.55433e-01,1.93207e-02,-3.90127e-01,5.37691e-01,-2.17447e-01,-3.61170e-02,6.00023e-01,2.12046e-01,-1.17248e-02,1.38725e-01,-2.77601e-01,1.14281e-01,-3.18697e-01,
-1.33601e-01,1.98995e-01,-2.44837e-02,3.04966e-01,2.42174e-02,6.03970e-01,9.62513e-01,-2.10420e-01,4.30224e-01,1.64478e-01,3.60132e-02,1.96261e-01,-2.19415e-02,-4.66115e-02,4.17315e-01,-4.69506e-01,4.12473e-02,1.11366e-01,1.59240e-02,-1.87332e-01,-9.19877e-01,-5.92848e-01,1.85315e-01,2.04393e-01,-2.45259e-01,-1.59700e-01,-1.87214e-01,9.31728e-02,-4.67116e-01,3.73415e-01,-3.23855e-01,1.50295e-02,-7.63669e-02,7.88826e-02,4.60317e-01,3.23972e-01,3.71274e-02,-3.51248e-02,6.31277e-01,-1.34052e-01,3.82720e-01,6.17423e-01,-2.59542e-02,-4.85182e-03,1.53230e-01,2.17549e-01,9.16359e-02,-6.83591e-02,5.10861e-02,-4.83993e-01,
3.09438e-02,4.41277e-01,1.65944e-02,4.03719e-02,1.90884e-01,-2.21868e-01,-1.25823e+00,-2.17987e-02,-3.98728e-01,-2.88556e-02,-1.58843e-01,-3.45433e+00,2.25188e-02,2.76431e-01,-8.22776e-02,1.61908e-02,3.32228e-01,1.76575e-01,-5.64425e-01,-6.24284e-01,-8.35964e-01,-2.02979e-01,1.37342e-01,2.60942e-01,-1.88302e-01,9.99253e-02,3.58173e-01,1.38813e+00,1.51356e+00,4.98677e-01,4.08703e-01,3.82871e-02,1.77712e+00,-1.35154e-01,-1.12847e-01,5.74799e-02,-6.84193e-02,-9.85348e-03,-1.21028e+00,1.79996e-01,1.13799e+00,-1.22405e-01,-2.31221e-03,-7.27785e-01,-1.65840e-01,1.99044e-01,3.63927e-01,9.78160e-02,1.84752e-01,-8.97449e-01,
-1.37058e-01,2.58996e-01,-3.73838e-02,-1.09177e-01,-2.49113e-01,1.14663e-01,9.19497e-02,1.92533e-01,-1.62823e-01,2.55886e-01,5.53057e-01,-2.62033e-02,1.61950e-02,2.33874e-01,1.79577e-01,-1.95419e-01,-1.58746e-01,1.33564e-01,-7.57006e-01,1.27567e-01,1.63694e-01,-2.81473e-01,-5.59847e-01,7.67189e-03,-2.10663e-01,-1.44112e-02,-9.79951e-02,1.07812e-01,2.46006e-01,-3.89856e-02,5.05367e-02,2.16893e-01,1.42188e-02,-2.36291e-01,4.82558e-01,-3.12428e-02,-1.64451e-01,2.27285e-01,5.44392e-02,-1.55012e-01,-2.16355e-01,-7.60025e-02,5.10351e-02,1.61720e-01,-2.47455e-01,1.24912e-01,8.84303e-02,3.35349e-02,1.42795e-01,-6.79335e-02,
-6.14570e-01,3.10839e-02,-4.34966e-02,6.66750e-01,8.73183e-01,-9.04726e-02,3.23754e-01,-3.09790e-01,5.72009e-01,2.02262e-01,3.15513e-01,3.69103e-02,-9.16779e-03,8.94184e-02,6.34929e-01,1.01017e-01,3.91242e-01,-9.07076e-02,-4.07267e-01,3.35124e-01,-4.29254e-01,-3.86421e-01,-2.37299e-01,-7.10365e-01,2.39817e-01,3.23691e-01,2.49830e-01,9.61276e-02,2.18585e-01,-5.78517e-02,-3.75820e-01,-3.41274e-02,1.02400e+00,1.41549e-01,-1.05465e-01,2.55683e-01,-2.67592e-01,-7.80064e-02,-2.28125e+00,4.10824e-02,7.94807e-01,-2.96996e-01,-8.15524e-03,5.03253e-01,6.24433e-01,-3.73279e-01,8.02113e-01,6.24162e-01,1.01078e-02,-3.98025e-01,
3.94098e-01,-2.27989e-01,2.64042e-02,2.38085e-01,2.36192e-01,-2.39153e-01,8.45584e-01,-1.04203e-01,-1.24401e-01,1.15769e-01,-8.07852e-01,4.43754e-01,-4.31245e-02,4.91879e-01,3.09548e-01,-3.62602e-01,2.29919e-01,3.72498e-01,1.44738e+00,3.63510e-01,-3.95626e-01,2.26707e-01,-2.21855e+00,-4.33438e-01,2.03127e-01,6.16430e-01,-9.82638e-02,1.76102e-01,-1.30509e-01,-5.78352e-01,4.31274e-02,-2.54125e-03,9.87320e-03,-2.11971e-01,-4.26878e-01,-1.98992e-01,-1.72450e-01,7.35900e-02,4.91403e-01,1.90629e-01,5.09350e-02,2.75517e-01,-2.15088e-02,2.08844e-01,3.11397e-01,-2.34502e-02,1.96830e-01,-7.70869e-02,1.78301e-01,-3.04069e-01,
-8.08833e-02,-1.09877e-01,-1.10868e-02,7.35127e-02,3.98467e-02,-2.32046e-01,-1.00086e+00,-7.42525e-02,-2.32007e-02,-1.48767e-01,1.79136e-01,3.19262e-01,3.53274e-02,-1.46966e-01,-2.20228e-01,-1.87638e-01,3.36512e-02,-4.62375e-01,-6.79760e-01,3.03923e-02,-2.16601e-01,2.07025e-01,-2.95702e-01,-3.03778e-01,-3.60616e-01,-1.11634e-01,-1.02885e-01,-3.68113e-01,-1.48229e-01,-4.80682e-01,1.98231e-01,1.37447e-01,-2.50915e-01,2.21851e-02,-5.43707e-01,-8.31146e-01,3.17048e-01,1.98634e-01,5.28259e-01,2.88662e-01,1.45785e-01,-9.95484e-02,-4.24995e-02,7.94728e-02,-1.72110e-01,3.51831e-02,-1.19178e-02,-1.23844e-01,-3.21772e-01,-5.51803e-01,
-3.59885e-02,-2.21562e-01,9.88076e-03,9.80579e-02,-1.60904e-02,-9.22206e-02,-7.30370e-02,-1.20386e-01,1.51148e-02,3.92913e-01,6.98031e-02,5.85212e-01,-1.49839e-02,2.44957e-01,-2.35516e-01,4.76288e-01,1.56061e-01,4.88690e-01,2.97999e-01,-2.64582e-02,-7.90679e-01,-4.88739e-01,-2.66245e-02,5.07322e-01,1.53619e-01,4.87686e-01,2.48148e-01,1.73681e+00,2.09825e+00,1.11318e-01,2.24711e-02,-1.31036e-01,1.72975e+00,-3.27307e-01,2.13394e-01,4.02210e-01,-1.32860e-01,-2.51968e-01,2.88138e-01,-3.84797e-01,1.30031e+00,-1.93252e-01,3.16348e-02,-3.86013e-01,1.94421e-01,1.10021e-01,2.21847e-01,-1.33398e-01,2.89747e-01,6.95639e-02,
-1.00127e-02,-2.00584e-02,3.73482e-02,1.42069e-03,-1.41261e-03,-8.14931e-03,2.18538e-02,-2.77996e-03,1.51789e-02,2.06079e-02,-1.85658e-02,-1.44829e-02,-5.45965e-02,-2.42985e-02,-5.77363e-02,2.04458e-02,-1.69663e-02,-4.90994e-02,-5.23363e-02,1.75027e-02,6.68399e-03,2.58453e-02,-1.43675e-02,-4.67473e-02,-5.72687e-02,-1.77699e-02,3.26316e-02,2.78973e-02,-2.46212e-02,-5.27407e-02,-9.38895e-03,-6.00987e-02,-5.47635e-05,1.29491e-02,-4.40414e-02,-3.28991e-02,9.28455e-03,-1.32130e-02,-3.46528e-02,-2.12300e-02,-8.12502e-03,1.10967e-03,3.55025e-02,-4.44662e-02,-3.49391e-02,1.55221e-02,2.27265e-02,-9.74240e-03,-5.47616e-02,2.66024e-02,
1.04042e-01,6.14357e-01,-4.20529e-02,7.71906e-02,1.58280e+00,3.98814e-01,4.27837e-01,-2.06875e-01,1.09328e-01,-9.91587e-02,-2.39989e-01,-5.05645e-02,-2.34786e-02,-2.18578e-01,1.97638e-01,1.61527e+00,6.92372e-02,-6.36729e-02,-1.34605e-01,3.75762e-01,-8.35411e-01,-4.31107e-01,-1.58653e-01,-4.00294e-02,-6.74789e-02,8.03002e-01,4.56373e-02,1.22260e-01,-6.04837e-01,2.60658e-01,-4.70618e-02,2.00279e-02,1.25418e+00,-3.40750e-01,7.87421e-01,-2.08434e-01,1.36419e-01,-4.92009e-02,4.07624e-02,2.47859e-01,1.30380e+00,-3.15645e-02,2.05686e-02,-2.03646e-01,5.13385e-02,-1.85840e-01,-1.37884e+00,1.02679e+00,-2.42170e+00,2.19031e-01,
-1.50517e-01,1.28866e-01,-4.46339e-02,1.36748e-01,-3.50899e+00,8.60249e-01,-7.68070e-02,5.04179e-01,-1.07510e-01,2.58261e-01,-2.52397e-01,5.76015e-01,-5.49532e-02,3.35108e-03,-1.01774e+00,-2.08361e-01,1.26282e+00,2.64316e-01,-1.64126e-01,-4.20800e-01,-5.87231e-01,1.32852e-01,-4.63236e-01,-1.09133e-01,-3.02670e-01,-1.30947e-01,-2.62906e-01,-9.84001e-01,-4.73611e-02,6.56542e-01,1.81631e-01,6.60979e-01,-1.37865e+00,3.11691e-01,8.55275e-01,-3.62662e+00,1.28410e-01,6.35035e-01,-2.17885e+00,3.41092e-01,-8.97139e+00,2.38892e-01,-5.34227e-02,2.87248e-01,-1.65559e+00,-1.18704e+00,-3.99598e+00,-3.95578e-01,-2.85590e+00,-6.15618e-01,
7.46456e-02,-7.29654e-02,1.69006e-02,4.60367e-01,6.86730e-01,-6.24384e-01,4.81269e-01,3.43474e-01,6.96469e-01,5.12064e-01,6.43953e-02,-1.52107e+00,1.46837e-02,7.26935e-02,-2.87755e-01,7.63686e-01,-8.15043e-02,-2.62673e-01,5.93198e-01,1.30058e-01,-1.96966e-01,-4.09000e-02,1.34350e+00,7.76884e-01,3.84126e-01,3.71220e-01,5.09452e-01,1.38670e-01,-1.02414e+00,-1.03660e+00,4.25960e-01,-3.25064e-01,-9.19604e-01,6.90083e-01,-9.05604e-02,8.33508e-01,-1.74631e-01,-2.69388e-01,-2.48290e+00,2.20437e-01,-3.70536e-01,-1.25812e-01,3.20196e-03,-4.42467e-01,-3.34094e-01,-5.87405e-01,5.43432e-01,2.98988e-01,2.75289e-01,-4.59654e-01,
-4.91152e-02,-1.93727e-03,4.21646e-02,-4.84569e-02,3.86137e-02,-3.28017e-02,-1.30488e-02,4.26638e-02,-4.06761e-02,1.75565e-02,-3.29796e-02,-2.16183e-02,-4.48385e-02,4.87855e-05,-3.30173e-03,-4.21672e-02,-3.43102e-02,-8.17612e-03,1.00782e-02,-4.46000e-02,1.15758e-02,-4.30411e-02,-2.30514e-02,-2.66392e-03,-1.95858e-02,-3.42449e-02,-3.95071e-02,1.60534e-02,2.65490e-02,-3.75309e-02,-1.61205e-02,-4.03328e-02,3.39442e-02,-2.61369e-02,-2.14833e-02,-4.91196e-02,-3.60111e-02,-4.82431e-03,2.73903e-02,1.22180e-02,3.53096e-02,4.82827e-03,6.41641e-03,1.94531e-02,-2.63846e-02,-3.41772e-02,-1.20121e-02,1.05584e-02,2.93417e-02,-4.92152e-02,
-8.42461e-02,-9.59908e-04,2.98641e-02,3.46128e-01,2.34754e-01,5.33686e-01,-2.17181e-01,8.53676e-01,2.75594e-01,4.86734e-01,4.82763e-01,-1.65386e-01,2.90267e-02,5.71755e-01,-6.46744e-02,5.03477e-01,-5.37476e-01,3.53759e-03,4.93646e-01,2.48824e-01,-1.57569e-01,-2.46528e-01,-1.21552e+00,5.42529e-01,-6.52617e-01,8.94028e-02,4.17033e-01,-6.86751e-01,3.74560e-01,-1.41519e+00,5.61698e-01,7.02097e-02,8.75110e-01,3.72295e-01,8.34908e-01,1.77998e-01,-3.05859e-01,3.70323e-02,-8.12152e-01,-5.43159e-01,2.67742e-01,5.83391e-01,-2.46851e-03,6.01864e-01,5.87666e-01,-3.57641e-01,-1.06580e+00,-2.58152e-01,6.81198e-01,-3.24043e-01,
7.86287e-02,4.37197e-01,-3.08130e-02,2.23012e-01,-5.98502e-01,2.15866e-01,-5.66842e-02,-1.17756e-02,-1.49797e-01,-1.09387e-01,-1.84217e-01,-6.96735e-01,-1.84175e-02,-7.09807e-01,1.99568e-02,-7.31835e-01,2.33894e-02,-5.96846e-03,3.83364e-01,-3.23862e-01,3.13237e-01,1.54479e-01,-2.19297e-01,-5.53280e-01,-2.65886e-01,-5.18106e-01,4.43357e-02,-1.12016e+00,-1.36991e+00,9.44176e-03,-5.92368e-02,2.83644e-01,-1.73327e+00,4.82067e-01,1.76679e-01,-4.34729e-01,9.60281e-02,3.44324e-01,-5.54859e-01,2.33597e-01,-1.28011e+00,6.26712e-02,3.70015e-02,5.48090e-01,3.54896e-03,2.38906e-02,2.78542e-01,-7.05972e-01,-9.60867e-01,-4.20497e-02,
5.91204e-02,-1.93664e-01,2.89033e-02,7.35772e-02,7.86189e-02,-1.86992e-01,9.90337e-02,1.30366e-02,1.27448e-01,7.49898e-02,2.18467e-01,-3.50655e-01,-2.32872e-02,4.30862e-02,-1.98785e-02,4.19522e-02,1.37201e-01,2.55951e-02,-1.97400e-02,-1.14859e+00,-1.62606e-01,5.86266e-02,2.42202e-02,-7.31935e-03,-8.07868e-01,6.99931e-02,1.09860e-01,6.23101e-02,1.68582e-01,4.65680e-02,-6.03252e-02,5.15019e-01,1.33404e-01,-2.01937e-01,-1.53604e-01,2.24657e-02,-7.38389e-02,1.27630e+00,6.62190e-02,1.94443e-02,-2.00596e-02,-5.49590e-02,2.50502e-02,-1.23473e-01,2.03007e-01,-8.68539e-02,1.25953e-01,2.41104e-02,3.28603e-02,-1.15079e+00,
1.62854e-02,7.57900e-03,-1.07919e-02,-1.47487e-02,-1.73348e-02,-5.58942e-02,6.20054e-03,-3.54800e-02,1.79761e-02,-4.37717e-02,-3.14613e-03,-1.66271e-02,3.03274e-02,-1.67069e-02,-2.15764e-02,9.44108e-03,1.31485e-03,-4.99788e-02,-4.86846e-02,-2.06670e-02,4.05649e-02,-3.95153e-02,1.11277e-02,3.66828e-03,-3.01729e-02,-4.02385e-02,2.52187e-02,2.71682e-02,-4.50802e-02,-4.94328e-02,2.82793e-02,1.70130e-02,1.01442e-02,-1.29344e-03,-4.73179e-02,1.29403e-04,-3.55410e-02,-5.41487e-02,4.23301e-02,-4.52736e-02,3.23849e-02,-1.55918e-02,-3.41638e-02,2.13710e-02,-8.12883e-03,-1.62197e-02,6.31249e-03,1.01693e-02,-5.49673e-02,-6.31768e-03,
-7.63839e-02,5.44779e-02,1.11860e-02,-8.86816e-01,-3.27649e-02,9.02620e-02,4.12836e-02,1.68214e-02,-1.26942e+00,-1.36140e-01,1.66869e-01,7.14172e-02,-3.43885e-02,-5.54960e-02,3.01640e-01,-7.69042e-02,3.98909e-02,-9.23148e-02,7.49265e-02,1.86512e-01,4.63649e-02,1.11711e-01,-5.52787e-02,8.22408e-01,-1.35270e-01,1.25999e-01,-1.68259e-01,-1.54719e-02,-4.64252e-01,-2.15904e-01,1.48174e-02,-1.47780e-01,-1.69886e-01,-1.08431e-01,-1.89890e-02,-1.93617e-02,-1.17524e-02,-1.38083e-01,-5.60775e-03,-6.73233e-02,-1.18339e-01,-6.43587e-02,1.74698e-02,1.10819e-01,-3.78285e-02,-2.64559e-01,1.36689e-01,-4.26580e-01,1.94959e-02,1.92964e-01,
4.36654e-01,-4.33675e-01,3.99665e-02,-3.78770e-02,-1.03632e-01,-1.27336e-01,-3.25407e-01,2.89393e-01,9.45701e-02,1.42569e-01,-4.54044e-01,-1.51927e+00,2.93750e-02,1.37730e-01,1.72301e-02,-5.12928e-03,1.34979e+00,-9.29505e-02,-3.59396e-01,-3.16806e-01,6.55259e-01,-2.77147e-01,6.99442e-01,9.98566e-01,-2.74527e-01,8.71562e-02,-1.01160e-01,5.07985e-01,-1.96222e-01,-1.85602e-01,-9.54947e-03,1.65965e-02,1.14341e+00,5.06724e-01,-4.37534e-01,2.55059e-01,-4.07598e-03,-1.11347e-01,2.60846e+00,5.97564e-02,2.35390e-01,-3.21812e-03,-2.28398e-02,-1.29294e-01,3.41990e-01,1.00350e+00,-6.07404e-01,1.60035e-01,1.32638e-01,-2.35906e-01,
-1.06145e-01,5.27701e-01,-9.33932e-03,-6.26703e-01,-4.92573e-01,2.44627e-02,3.28876e-01,2.62376e-01,-3.60037e-01,4.13804e-01,-1.85202e-01,-7.23539e-01,1.35931e-02,-4.07867e-02,1.33352e+00,-9.19342e-01,1.27439e+00,-5.01541e-01,-8.38778e-02,-7.77127e-01,2.63100e-01,1.35432e-01,-1.19664e+00,-7.36002e-01,3.23991e-01,2.50286e-01,-9.85578e-01,1.57943e-01,-1.20605e+00,-7.07375e-02,3.27566e-01,9.20906e-02,-2.06639e+00,4.06603e-01,-2.29731e-01,-5.33639e-01,-1.17655e-01,5.24453e-02,5.45931e-01,5.34441e-01,-1.24046e+00,4.49453e-01,-3.65755e-02,1.13983e+00,-7.25017e-01,4.58194e-03,-3.67462e-01,-3.07317e-03,-6.32386e-02,-7.30730e-01,
-3.59056e-02,3.78263e-02,-3.94832e-02,-3.66430e-02,3.27508e-03,-3.99022e-02,-4.56659e-02,-5.06602e-02,-2.95132e-02,-6.87359e-03,1.41962e-02,-1.94344e-02,3.18082e-02,-4.99225e-02,-5.20420e-02,-3.01363e-03,2.58662e-02,-4.71046e-02,-9.19012e-03,-1.60222e-02,-2.10492e-02,-1.89219e-02,-4.45005e-03,-3.77837e-03,-1.04358e-02,-3.38504e-02,4.14513e-02,2.60768e-02,-5.75459e-03,1.16811e-04,-2.46942e-02,-2.39934e-02,-1.56333e-03,-5.12283e-02,-4.22103e-02,7.22589e-03,-8.02632e-03,-1.77602e-02,2.16389e-02,4.18404e-02,-1.04723e-02,-8.02830e-03,3.98556e-02,1.13644e-02,-1.45318e-02,2.25285e-02,2.89943e-03,-4.26072e-02,-4.97484e-02,-2.23704e-02,
3.33133e-01,-4.07101e-01,-9.20509e-03,2.80521e-01,-2.30865e-01,-2.15324e-01,2.63930e-01,-7.32409e-01,1.47811e-01,5.60629e-01,-5.13524e-01,-1.34548e+00,-2.72280e-03,-4.68520e-01,3.48672e-01,1.48344e-01,1.63993e-01,-4.91314e-02,1.80486e-01,-2.62173e-01,5.59215e-01,-1.02347e-01,-7.15982e-01,1.90285e-01,-8.16100e-01,1.73316e-01,7.75453e-01,2.81864e-01,6.08995e-01,-2.95102e-01,6.94559e-02,-6.00080e-03,3.43444e-01,3.38666e-01,-6.82202e-01,1.17358e-01,1.70166e-01,6.86915e-02,7.35557e-01,1.84526e-01,9.80896e-01,-5.24669e-02,4.79941e-02,4.60929e-01,5.10103e-02,4.90112e-01,-1.43114e-01,2.72061e-01,4.82008e-01,2.48542e-01,
2.42796e-01,4.32411e-01,9.79632e-03,-5.79395e-01,-3.16147e-01,-2.02746e+00,5.52884e-01,4.23824e-01,1.88949e-01,3.36801e-01,-7.34490e-01,2.15706e-01,-7.77844e-03,-6.03404e-01,1.11002e+00,-2.35555e-01,5.58443e-01,-8.14165e-02,7.42188e-02,3.04756e-01,4.46855e-01,-5.12783e-01,7.80499e-01,7.79039e-01,-1.06964e+00,-2.25522e-01,-8.41528e-01,-1.28417e-01,-5.25496e-02,-9.86124e-04,7.28670e-01,-3.38733e-01,1.28293e+00,-2.33255e-01,-7.06661e-01,4.13747e-01,-4.92009e-02,-2.77452e-01,7.20857e-02,3.37838e-01,1.94009e-01,-3.72189e-01,-7.12496e-03,2.75907e-01,-3.02960e-01,4.04433e-01,2.92127e-01,-2.62306e-01,5.68759e-02,1.32001e-01,
-8.68330e-02,5.54986e-02,3.07396e-03,3.38412e-01,5.04351e-01,-3.79691e+00,-1.56902e+00,8.28174e-04,-7.97757e-01,5.27041e-01,-3.08435e-01,1.98428e+00,1.65597e-03,2.06097e-01,-2.80773e-01,4.38422e-01,7.38718e-01,1.99360e-01,-2.85997e-02,1.81937e-01,2.72405e-01,-7.65491e-02,-3.90188e-01,2.04150e-01,-1.30881e+00,2.74054e-01,2.92710e-01,6.68744e-01,-1.17056e-01,5.87437e-02,2.62028e-01,-1.97973e-01,-3.49955e-01,-5.66674e-01,-9.16364e-01,6.83187e-01,1.26588e+00,-9.77477e-02,5.58070e-01,3.29523e-01,-3.14827e-01,-8.95441e-02,-2.14152e-02,-1.13812e-01,-1.95070e-01,-5.07991e-01,4.81537e-01,3.47172e-01,3.77949e-01,4.74936e-01,
9.42168e-03,-1.32298e-02,3.41243e-02,1.30829e-02,-4.28167e-02,-3.62813e-02,1.92850e-02,-4.84991e-02,-4.25796e-02,-1.17031e-02,1.01511e-03,-7.99071e-03,-3.70587e-03,-3.21533e-02,-2.83969e-02,8.14250e-03,-4.16511e-02,3.47134e-02,1.26268e-02,-5.19183e-02,-3.37494e-02,1.24125e-02,-2.18932e-02,7.90994e-04,-2.09492e-02,3.90954e-02,3.28248e-02,-4.55024e-02,4.42350e-02,-6.28332e-02,-3.12453e-02,-6.35868e-02,4.61751e-02,-3.97259e-02,-2.24954e-02,-1.46272e-02,-5.36784e-02,-2.64337e-02,-5.54097e-03,-2.09322e-02,1.98546e-02,-2.76417e-04,1.48809e-02,-6.10565e-02,-1.90949e-02,-4.12707e-02,-8.61563e-03,-3.57003e-02,2.29484e-02,3.40905e-03,
-7.46627e-02,8.94112e-02,-4.64022e-04,-3.92992e-02,4.13225e-01,-4.17625e-01,-1.54075e-01,-7.17124e-02,1.25921e-01,2.63557e-02,1.79207e-01,1.14141e-01,-3.59390e-02,-4.27146e-01,1.88894e-01,-3.46230e-01,-6.25634e-02,1.30517e-01,-9.51390e-01,-9.76329e-02,-1.93284e+00,1.56969e-01,1.32330e+00,-4.36227e-01,-2.07871e-01,2.13567e-01,-5.38959e-01,5.22895e-02,-2.46742e-01,-2.55592e-01,-1.83973e-01,1.44483e-01,-4.79140e-01,-6.44766e-01,4.07948e-01,7.77783e-01,-2.11988e-02,2.14727e-01,-3.64698e-01,-2.38742e-01,-3.27667e-01,-3.04800e-02,-7.48217e-03,-3.74755e-01,2.89480e-01,-8.96146e-02,4.16578e-01,3.42057e-02,-9.45796e-01,-1.02045e+00,
2.89993e-01,5.98718e-02,-8.04682e-04,-8.09806e-02,-2.58644e-01,3.63462e-01,-5.04858e-01,6.42942e-02,4.73624e-02,4.03472e-01,-1.01008e+00,-5.02439e-01,-8.49492e-03,-2.58260e-01,-1.33685e-01,-3.27107e-01,4.37523e-03,-2.68372e-01,-1.31472e+00,-1.13350e-01,-5.59634e-01,-1.40594e-02,-4.30336e-01,-6.31820e-03,-2.62322e-01,1.79484e-01,5.23495e-02,-2.73258e-01,-5.32983e-01,-2.31087e-01,-2.94485e-01,-1.92176e-02,-5.24403e-01,2.05232e-01,-1.08644e-01,1.93644e-02,2.51503e-01,1.32072e-01,-1.30595e+00,2.02476e-01,8.57564e-02,-2.94179e-04,-1.56236e-02,-7.53822e-01,1.01872e-01,3.99414e-01,3.36565e-01,1.12241e-02,-4.30377e-01,4.56442e-01,
-5.19139e-02,-2.54046e-02,-7.34461e-04,-3.34155e-02,-1.91995e-02,-4.27104e-02,-2.50337e-02,-4.19053e-02,-2.40633e-02,-3.99728e-02,-2.61080e-02,4.09066e-03,1.77526e-02,-3.12365e-02,-2.69468e-02,-1.99618e-02,-2.13935e-04,-9.24334e-03,-2.75385e-02,1.59216e-02,1.32853e-02,2.49212e-02,-2.79758e-02,3.55060e-02,-1.84356e-02,-3.95281e-02,-4.74798e-02,-5.73874e-03,-4.98890e-02,-3.20364e-03,-1.17894e-02,8.96868e-03,-1.46389e-03,-6.01734e-02,-5.95482e-02,1.26214e-02,-2.27407e-02,-4.12737e-02,2.11313e-02,2.43208e-02,3.25010e-02,1.26182e-02,1.19619e-02,3.00280e-02,-1.99353e-02,-3.50557e-02,3.25211e-02,-3.06915e-02,-4.56510e-03,3.28349e-02,
1.30540e-01,3.83059e-01,-3.93635e-02,5.80801e-01,6.12441e-01,-7.34289e-02,1.49604e-01,-8.24515e-01,8.67445e-02,8.29542e-01,2.19850e-01,-1.19495e+00,-1.83644e-02,9.20893e-02,-3.54088e-01,6.06068e-01,1.19680e-01,4.06577e-01,-1.50196e-01,3.01651e-02,8.36082e-01,8.84669e-01,4.28235e-01,-5.44656e-02,6.12798e-02,1.05053e-01,4.34817e-01,-6.87022e-01,-1.15503e+00,-6.30672e-01,-2.59625e-01,1.83230e-01,6.54022e-01,-9.01207e-02,-3.83089e-01,-2.74363e-01,2.29766e-02,2.83168e-01,-2.82499e-01,-6.22856e-02,-8.32835e-02,-8.15944e-01,2.07983e-02,-4.51007e-01,-2.72798e-01,-3.61745e-01,8.68965e-02,-7.00697e-02,4.58762e-01,-1.77383e-01,
-7.84181e-02,2.03794e-01,1.11850e-02,2.72559e-01,-5.70037e-01,1.14296e+00,1.26529e+00,-6.26839e-01,7.33775e-01,-4.78152e-02,-5.44767e-02,-3.88042e-02,2.58302e-02,-8.06619e-01,2.03167e-01,-4.38398e-01,-2.71695e-01,-1.04182e-01,-2.40187e-02,-6.24315e-01,-5.93809e-02,2.85901e-01,1.07860e+00,-1.04218e+00,-5.58656e-02,-1.34437e+00,1.05063e-02,8.99101e-01,-7.79012e-02,-9.42485e-01,-1.97701e-01,5.21065e-01,-2.45153e-01,1.80473e-02,6.68598e-01,4.63451e-01,6.01721e-01,3.64041e-01,-7.79245e-02,6.06471e-01,1.09723e+00,-2.70203e-02,3.67557e-02,1.25665e-01,-7.94965e-01,-1.21652e+00,-1.54538e-01,-8.77925e-02,-6.28687e-03,-4.97911e-02,
-2.25716e-02,3.31492e-01,3.02354e-02,-7.48260e-03,1.01564e-01,3.02657e-01,1.22370e-01,2.47480e-02,2.06296e-01,5.18863e-02,2.29292e-01,5.10743e-03,5.52664e-02,-4.83935e-02,2.61625e-03,2.47953e-02,-1.20823e-01,8.62568e-02,7.60439e-02,9.20325e-01,-5.32896e-02,-3.91432e-02,2.09485e-01,-9.70833e-02,-2.20243e-01,9.99990e-02,5.17801e-02,1.41813e-02,1.17554e-01,-1.51840e-01,1.77948e-01,-2.52488e+00,2.87779e-02,-1.86973e-01,5.77504e-01,7.27247e-02,1.93051e-02,-4.28972e+00,6.79976e-02,4.01197e-02,3.77485e-03,-1.38950e-01,-3.36515e-03,-2.73082e-02,1.96062e-01,-5.55224e-02,1.01325e-02,1.99852e-02,6.02704e-02,9.62654e-01,
-2.81169e-01,1.60059e-01,-2.79495e-02,1.49466e+00,-1.01869e-01,2.77028e-02,-8.58388e-02,1.51688e-01,2.03250e-01,-1.96826e-01,2.58610e-01,2.28719e-01,2.45085e-03,-2.99143e-01,8.91429e-02,-1.53832e-01,3.60740e-01,-2.30678e-01,-3.14074e-01,2.87856e-01,-8.97122e-01,2.58637e-01,3.71252e-01,8.36200e-02,3.36805e-01,-2.28848e-01,1.41588e+00,-1.56710e-01,-4.03825e-01,-1.82870e-01,5.25261e-01,-1.60155e-01,-9.33793e-01,-1.26112e-01,3.67721e-01,-2.97398e-02,7.59522e-02,-2.35981e-01,1.83461e-01,-1.56076e-01,-6.66220e-02,1.96230e-01,6.09618e-02,2.28685e-01,6.77190e-02,-9.78827e-02,1.06185e-02,-1.88698e-01,-6.42960e-02,-1.12519e-02,
-2.57293e-01,2.52168e-02,1.66240e-02,1.01004e-02,-4.83574e-02,1.21372e-01,6.42748e-02,1.33274e-02,9.14807e-02,-4.95559e-01,1.39400e-01,7.63097e-02,1.74596e-02,-5.63309e-01,1.62379e-01,-1.18788e-01,-6.16175e-02,-2.92562e-01,5.29211e-02,4.10356e-02,-2.63626e-01,7.59661e-02,-6.52035e-01,-1.40850e-01,-4.24634e-02,-2.96125e-01,-1.59132e-02,1.07807e-01,4.91361e-02,-5.16341e-02,-2.30616e-01,-9.07985e-02,1.08161e-01,-2.10103e-01,1.31928e-02,6.97853e-02,3.02559e-01,-1.03533e-01,-7.02534e-02,-2.60483e-01,7.87506e-02,5.50467e-02,-4.85202e-03,2.41848e-01,-1.20134e-01,-4.21986e-01,3.92693e-02,-2.80991e-02,-8.35320e-02,1.19210e-01,
1.91400e-01,-1.69438e-01,-3.71922e-02,9.93495e-02,3.89918e-01,-6.73216e-01,-3.45160e-01,-2.89592e-01,-1.82462e-02,9.21590e-02,-4.53792e-01,9.80872e-01,4.53787e-02,-5.63114e-02,2.04477e-01,2.19376e-01,8.08401e-01,-1.61197e-01,-1.13430e+00,-7.36045e-01,-2.36638e-01,-1.93648e-01,-3.38902e-01,5.10889e-01,-5.84049e-01,6.88767e-01,-8.54884e-03,-5.20534e-01,-5.74326e-01,-1.68248e-02,1.16330e-01,7.34655e-01,-1.28918e+00,-6.10018e-02,1.15657e-01,8.53678e-01,2.29283e-01,7.71809e-01,-7.57085e-01,-2.47177e-02,1.53433e-01,-8.69200e-02,4.43238e-02,3.48010e-01,5.19917e-01,3.79996e-01,-6.68938e-02,3.32248e-02,1.36779e-01,3.14305e-01,
2.40688e-01,8.55688e-02,1.92539e-02,-2.10626e-01,2.63511e-01,-5.19819e-01,7.04042e-01,5.92904e-01,-4.02475e-01,1.61322e-02,-9.68308e-02,1.03715e+00,8.95404e-03,-2.35169e+00,2.42819e-01,-7.92062e-01,7.94238e-02,-1.79837e-01,-8.55756e-01,-1.56373e-01,-1.99485e-02,2.82568e-01,2.57402e+00,1.75605e-01,-2.52428e-01,2.78349e-01,-2.22753e-03,5.72898e-01,1.32542e+00,5.46880e-01,-4.47298e-01,-9.49367e-02,1.12768e+00,7.91923e-01,-9.17165e-01,-8.59124e-02,-1.38722e-01,7.87858e-03,3.71011e-01,-8.09924e-02,5.20024e-01,4.83531e-02,3.04425e-02,-8.35229e-02,9.57839e-02,5.06181e-01,2.91664e-01,-1.35126e-01,-2.59944e+00,-4.33530e-01,
1.37624e-03,-2.52305e-02,-5.39540e-02,-2.76111e-02,-1.31111e-01,-4.75294e-01,-9.45543e-01,-1.85772e-01,-1.54832e-02,2.27676e-01,6.00420e-02,-2.54987e-01,3.24373e-02,8.71070e-02,2.55318e-01,3.47227e-01,-1.25152e-01,1.16884e-01,2.27389e-02,8.39294e-02,8.43293e-02,-5.50386e-01,-2.27029e-01,-5.05926e-01,1.19869e-02,1.46153e-01,-3.48451e-01,5.38419e-02,4.56593e-01,-7.92805e-02,1.37748e-01,-1.80593e-01,-2.72476e-01,6.26796e-02,3.29120e-02,-1.23672e-01,7.07844e-01,-2.12705e-01,-2.24790e-01,-5.73845e-02,-9.50318e-02,1.74995e-02,-3.83940e-02,-6.68539e-01,4.81857e-03,1.13795e-01,8.85842e-02,6.26427e-02,-1.75224e-01,1.76757e-01,
3.08641e-01,-1.79322e-01,3.20798e-02,-1.32922e-01,1.22046e-01,2.53819e-01,-3.54092e-01,6.73755e-02,-3.56219e-01,1.10906e-01,-3.86914e-01,1.87395e+00,-7.23402e-03,-2.81939e-02,3.60041e-01,-9.17270e-03,-5.79359e-02,-3.13687e-01,7.61684e-01,-2.95584e-02,3.32382e-01,-4.12082e-01,-5.82128e+00,-3.02129e-02,-1.71206e+00,2.68662e-01,-3.83026e-01,9.20520e-01,-5.52524e-01,-1.23924e-01,-1.51013e+00,-1.47161e-01,5.37392e-02,-5.85493e-02,-3.35444e+00,-1.06384e-01,1.15309e-01,-2.40931e-01,1.00064e+00,3.38025e-01,6.60894e-01,-3.43009e-01,-3.06167e-02,-7.15641e-01,9.77060e-02,-1.99950e-01,3.87269e-01,1.39417e-01,-3.22545e-01,2.21668e-02,
-1.30953e+00,6.78526e-02,-2.25436e-02,2.91536e-01,5.22239e-01,8.08461e-02,5.72304e-02,-9.29970e-01,-3.37335e+00,-1.03253e+00,-8.30482e-02,-4.74197e-01,-2.71835e-03,-2.55935e-01,4.19842e-01,-7.54544e-02,-2.53263e+00,-5.42460e-01,-1.04996e+00,-5.04276e-01,-3.38329e+00,-2.46697e-01,5.91377e-01,-7.16326e-01,-2.20684e+00,5.82405e-01,1.44034e-01,4.70783e-01,4.81701e-01,-3.88149e-01,3.83780e-01,-2.83431e-01,1.20636e+00,2.35397e-01,-1.04816e-02,1.29212e-01,1.74145e-01,-2.46969e-01,-6.94151e-01,4.99776e-01,8.16542e-01,-5.01890e-02,-3.15267e-02,-6.42911e-02,-1.04515e+00,-1.65544e-01,1.44760e-01,-2.81002e-01,-1.78087e-01,1.08488e-01,
-1.65863e-01,1.56159e-02,-4.42792e-02,5.22069e-01,5.41093e-01,-6.38496e-01,4.34708e-01,2.95455e-02,-4.92410e-01,-2.19681e-01,-2.34757e-01,2.22305e-01,3.92070e-02,5.81333e-01,-1.99055e-01,-2.61660e-01,-5.45944e-01,-4.62610e-01,-1.19076e+00,-3.56618e-01,-1.34676e-01,4.92863e-01,1.21788e+00,5.65395e-02,7.83537e-01,-5.61602e-01,7.07523e-01,1.57060e-01,4.33779e-01,-2.37987e-01,-4.70299e-01,-4.85844e-01,-1.20949e-01,3.29080e-01,-6.73459e-01,5.99156e-01,2.13327e-01,-3.76667e-01,1.69283e-01,8.49553e-01,-3.39532e-01,2.78794e-02,2.60368e-02,2.79113e-01,-6.00714e-02,-4.11381e-01,-2.49159e-01,-2.05175e-01,4.78242e-01,2.31394e-01,
3.61445e-01,-1.04691e-01,1.19325e-02,8.83281e-02,-1.95478e-01,-3.22605e-02,-2.65748e-01,-3.43041e-02,-4.06997e-01,-2.00027e-01,-4.32561e-01,1.28576e+00,4.89492e-02,-2.14524e-01,-1.91496e-01,-1.78573e-01,-9.80020e-02,3.52130e-01,-4.70036e-01,-2.75925e-01,-4.44266e-01,-1.05051e+00,-2.49963e-01,-4.94587e-02,1.69688e-01,8.71386e-02,2.06933e-01,-2.93270e-01,-1.16177e+00,8.76435e-02,-6.57293e-01,-1.46631e-02,-4.51461e-01,-5.64315e-01,7.26674e-01,2.03627e-01,-2.41411e-01,-1.42743e-01,3.97152e-01,8.51382e-02,3.38883e-02,-4.67470e-01,-1.96150e-02,4.62625e-02,6.50326e-02,4.82070e-01,-3.65932e-01,-2.16076e-01,4.33651e-01,-7.29593e-02,
-7.06295e-03,-3.30931e-01,-3.47406e-02,1.33584e-01,-9.38957e-01,-5.46106e-01,1.89102e-02,2.55570e-01,-1.92085e-01,1.21562e-01,6.72262e-01,-2.00723e-01,3.97635e-02,5.79930e-02,-9.16744e-01,6.83148e-01,2.83417e-02,-1.08810e-01,7.25376e-01,6.32400e-03,2.78578e-01,3.01726e-02,2.26154e-01,-1.31062e-01,1.30651e-01,-2.43012e-01,-2.13530e-01,-1.22753e+00,1.41124e-01,-5.13338e-01,-2.03531e-01,2.41809e-01,2.29868e+00,-3.98057e-01,2.25999e-01,-7.78915e-01,2.29753e-02,2.37902e-01,-1.40270e+00,-3.98556e-01,5.15431e-01,-3.68463e-01,3.32978e-02,1.78755e-01,-1.96392e-01,-5.78645e-01,-3.40162e-01,-1.49717e-01,-6.53833e-01,4.21354e-01,
1.46928e-01,-3.95662e-02,-1.08972e-02,-4.87421e-01,-7.89771e-02,2.32184e-01,3.14821e-01,3.75856e-01,1.71295e-01,-8.18735e-01,-8.92238e-02,-1.17013e+00,-1.74804e-02,9.38147e-04,1.83322e-01,5.35825e-02,-8.49216e-01,4.71270e-02,4.37699e-01,-3.05630e-01,3.84480e-01,2.10358e-01,9.37417e-01,-8.39272e-01,-2.40818e-01,1.22296e-01,-1.00395e+00,-1.41309e+00,-2.52273e+00,-1.00891e-01,-2.90480e-01,3.98210e-01,-6.42374e-01,-5.22270e-02,-8.88748e-03,-6.17845e-01,-7.20161e-02,5.01994e-01,-1.31557e+00,9.15619e-02,-1.09214e+00,6.71200e-01,-2.43954e-02,-4.01641e-01,-1.03016e-01,9.62198e-02,-1.33912e+00,4.82503e-01,3.14036e-01,-1.78981e-01,
-4.18929e-02,-3.03834e-02,3.80945e-02,-9.38740e-04,3.42243e-02,1.57204e-02,-6.57355e-03,1.34066e-02,5.85426e-03,-7.70825e-02,-1.11812e-03,-2.64625e-02,3.29311e-02,-4.06067e-03,8.17590e-03,7.57163e-03,-5.46304e-02,-1.52005e-03,-2.42972e-02,2.23393e-02,2.62734e-02,4.71376e-03,-2.90911e-02,2.70193e-02,-6.35123e-02,1.37076e-02,-4.83999e-03,5.73940e-05,1.11145e-02,-7.77218e-02,-1.29052e-02,-5.22544e-02,2.41798e-02,2.16504e-02,-3.51133e-02,-3.38554e-02,-6.90799e-02,-1.78312e-02,-1.81205e-02,-3.85568e-02,4.69738e-03,-5.88480e-02,-6.26320e-03,-8.81846e-02,3.52062e-03,-7.02497e-05,-3.04893e-02,-1.55797e-02,1.69023e-02,1.58472e-02,
5.42578e-01,-1.20229e-01,1.92160e-02,9.68142e-04,7.30153e-01,-6.78362e-01,-8.52325e-01,6.53102e-01,2.42286e-01,2.17244e-01,-3.37321e-01,-3.11769e-01,-5.98693e-03,-7.18599e-01,-3.91206e-01,-2.49463e-01,-6.53041e-01,3.92964e-01,-5.01750e-01,-1.80867e-01,1.26224e+00,2.89361e-01,1.00239e+00,2.39739e-01,2.79263e-01,-6.28627e-02,-2.31123e-01,-4.01038e-01,1.36639e+00,-6.34367e-01,-2.09021e-01,-2.61581e-01,7.98842e-01,3.72622e-02,-2.00144e+00,3.40172e-02,2.71870e-01,-7.54342e-02,-5.05011e-01,-1.39186e-01,6.19177e-01,4.05657e-01,-8.39830e-03,2.12912e-01,-2.78643e-01,7.43854e-01,-9.18625e-01,4.21088e-01,3.94888e-01,8.83381e-02,
7.75810e-01,-5.16144e-01,-3.53143e-02,-1.32337e-01,7.13014e-02,8.01031e-01,-5.53697e-01,-8.73478e-02,-7.82436e-02,3.42325e-01,-9.89724e-01,-1.00590e+00,3.43424e-02,2.87717e-01,9.08365e-02,6.84017e-01,6.26808e-01,-2.24282e-01,7.96541e-01,-1.14740e+00,6.51585e-01,-5.63704e-02,-1.50705e+00,5.94221e-01,-3.00595e-01,1.96819e-01,1.15251e-01,-4.44244e-02,-2.17754e-01,-1.08447e+00,-9.72797e-03,4.15361e-01,-6.17381e-01,-2.87886e-01,-1.84707e+00,-9.24604e-03,5.35683e-01,5.54738e-01,3.10825e-01,5.87910e-01,-3.90737e-01,-5.65155e-02,3.41078e-03,-8.14266e-02,-1.20070e-01,5.36545e-01,-1.58515e-01,-7.34380e-02,2.69779e-01,1.53822e-01,
2.93456e-01,-2.13112e-01,3.48281e-02,2.09368e-01,-3.67589e-01,1.04017e-01,-2.64677e-01,-3.31165e-02,-8.79738e-02,2.28089e-01,9.79709e-02,-3.63781e-01,2.76500e-02,1.12273e-01,-6.19266e-01,2.23099e-01,3.45872e-01,4.28241e-01,1.15466e-01,-2.70857e-01,5.32863e-01,4.49353e-03,-5.73475e-01,4.53004e-01,-6.16755e-02,-3.80855e-02,-1.25962e+00,-3.51912e-03,2.57223e-01,1.05864e-01,-2.15828e-01,3.35906e-01,3.08249e-01,-2.52763e-01,-1.26371e-01,1.62044e-01,-8.89872e-02,5.76882e-01,-3.71479e-02,-3.44364e-02,-3.08818e-01,-4.33735e-01,-2.48325e-02,-6.72911e-02,-3.11965e-01,-2.35148e-02,1.44371e-01,-1.94480e-01,-1.80047e+00,-1.60666e-01,
3.21466e-02,-1.30166e+00,-3.42065e-02,1.58131e-01,-8.85922e-02,1.32902e-01,2.88321e-01,-3.88595e-01,2.19711e-01,-5.08418e-01,-3.91837e-02,-7.39256e-01,1.74830e-02,-1.48240e-01,-2.54021e-01,-2.26608e-03,8.22103e-01,-2.85801e-01,9.74079e-01,-4.08892e-01,5.56141e-01,-2.42931e-01,-2.99488e-01,6.52952e-02,-1.17635e-01,-1.27233e-01,1.68957e-01,1.50899e-01,-7.12991e-02,8.76437e-02,2.87586e-02,1.18769e-01,-4.57213e-01,-2.92544e-01,4.88996e-02,-4.85703e-02,3.43705e-01,9.63987e-02,2.98805e-01,2.13788e-02,1.00116e-01,-1.78676e-01,2.00394e-02,1.46049e-01,-5.83818e-01,-2.81266e-01,-6.72556e-02,-1.36864e-01,2.42615e-01,1.26043e-01,
-1.04088e+00,1.46359e-01,2.78833e-03,4.51109e-01,-2.02099e-01,-4.58740e-01,3.01883e-01,-8.23808e-01,-6.23630e-02,-6.57699e-01,-3.81165e-01,4.27018e-01,-2.28234e-02,-1.14166e-01,-5.77562e-01,-9.50158e-02,-6.61856e-02,-3.40198e-01,-1.94061e-01,4.72355e-01,-7.98040e-01,7.58700e-01,1.49073e+00,4.97420e-01,-9.48136e-01,-2.50496e-01,4.04670e-01,-1.94130e-01,-5.11784e-01,1.34088e+00,-9.60649e-01,-1.32976e+00,-9.36507e-01,2.31822e-01,-2.93150e-01,2.27923e-01,-2.16140e-04,-1.53280e+00,5.64715e-01,-5.93766e-03,-2.30276e-01,-1.88317e-02,-5.25386e-03,-3.46852e-01,-2.23491e-01,-2.20361e-01,8.59714e-01,5.31956e-01,3.69546e-01,7.98760e-01,
4.03499e-01,
9.87666e-02,
1.01295e-01,
-4.03473e-01,
-2.83682e-01,
-1.42410e-02,
-3.52300e-01,
-3.19337e-02,
1.39876e-01,
-2.02497e-01,
-1.78082e-02,
1.19936e-01,
1.25391e-01,
-4.61673e-01,
-5.27838e-03,
-4.55257e-01,
2.66665e-01,
2.75508e-01,
-5.54497e-03,
-4.30607e-03,
2.35672e-02,
4.90679e-01,
-5.56259e-03,
-1.69883e-01,
2.99754e-02,
-3.97007e-01,
-8.65872e-03,
3.31771e-01,
1.33201e-01,
-2.40026e-02,
-9.47102e-02,
-2.60296e-01,
-6.43500e-02,
1.96223e-01,
-6.62939e-02,
-1.21700e-01,
-2.42356e-01,
-2.48542e-03,
-1.42344e-01,
-1.10969e-02,
-1.07943e-01,
2.26369e-01,
4.72928e-01,
3.05106e-01,
-2.02601e-02,
-1.01488e-01,
-2.02299e-01,
3.02782e-01,
-1.32553e-02,
8.28081e-02,
-3.78042e-01,4.26274e-01,1.02813e-01,-4.46328e+00,2.23951e-02,5.38542e-01,-8.57801e-01,3.20269e-01,-5.60721e-01,-1.16944e+00,4.60560e-02,-4.53971e-01,1.52862e-01,1.97170e-01,-1.62210e-02,-5.28195e-01,-3.73453e-01,5.74702e-01,-2.10529e-03,1.24925e-01,-5.96048e-01,-4.67613e-02,3.85189e-02,2.50591e-01,5.24166e-01,8.82087e-02,-2.43705e-04,-4.76013e-01,-2.34555e-01,1.39372e-02,5.11982e-01,-3.30497e-01,-1.11886e-01,5.89562e-01,2.02889e-01,2.31001e-01,1.16922e-01,-2.23384e-01,-7.99729e-01,8.26759e-01,3.04010e-01,2.01556e-01,-6.69923e-02,-7.29149e-02,-4.02166e-02,-9.01320e-01,3.00953e-01,-9.62022e-01,-5.93226e-01,1.87380e-01,
6.90107e-01,-9.18324e-01,3.32855e-01,9.32293e-02,5.13190e-01,-3.38194e-01,-2.60424e-01,2.69753e-01,1.09770e-02,3.91764e-01,-1.80330e-02,-4.36957e-01,5.08520e-01,1.58088e-01,2.22679e-02,-4.58605e-01,2.91701e-01,-1.72679e-01,-1.32741e-02,1.29768e-01,-1.13292e-01,1.93075e-02,2.17804e-02,-6.97394e-02,-6.48319e-01,4.31588e-03,-5.00327e-02,-4.68163e-02,2.34121e-01,-2.05676e-02,3.25870e-01,1.06651e-01,1.00857e-01,1.22269e-01,-2.36088e-02,2.49745e-01,1.15852e-01,-2.04155e-01,-4.45434e-01,-6.89668e-02,-3.59183e-01,4.45340e-02,-8.52652e-02,3.89000e-01,4.74640e-03,4.82268e-01,7.77399e-02,-2.16480e-01,4.80845e-01,7.96088e-01,
2.82106e-01,-4.88055e-01,2.32516e-01,8.59226e-01,-2.67473e-01,6.96690e-01,-1.20980e-01,-2.00502e-01,1.35075e-01,-6.02594e-01,4.61752e-02,7.99212e-02,4.05361e-01,-1.11734e-01,-1.04774e-02,-4.53065e-01,2.41047e-01,-8.47409e-04,3.39223e-03,1.05190e-01,-5.14054e-01,1.47464e-01,7.55612e-03,-1.97733e-01,-1.72034e+00,2.19893e-01,3.97038e-02,-2.92396e-01,1.83529e-01,-2.17392e-02,2.48808e-01,-3.98417e-01,4.70163e-01,-1.65502e-02,3.60518e-01,2.63745e-01,6.45495e-01,2.99249e-01,-1.59030e+00,-2.99861e-01,-4.34944e-01,2.97898e-01,5.63402e-01,-1.00054e-01,9.22617e-03,-3.63245e-02,-3.86987e-01,-3.08520e-01,-2.73069e-01,-9.84297e-02,
-2.59799e-02,-2.27101e-02,3.58908e-02,-3.98473e-02,-4.77294e-02,-2.07597e-02,1.57343e-03,-3.31049e-03,9.81599e-03,-4.01775e-02,1.55420e-03,1.03784e-02,-4.14074e-02,1.22840e-03,-2.12996e-02,3.48071e-02,1.56266e-03,-9.90163e-03,-1.17292e-02,3.02791e-02,-4.29110e-02,-1.98086e-02,3.05345e-02,-6.46811e-02,-5.06614e-02,1.56700e-02,2.48685e-03,-1.12573e-02,1.41957e-02,3.74026e-02,2.56839e-02,3.13308e-02,-5.10537e-02,1.64389e-02,-3.00634e-02,-3.50029e-02,2.33728e-02,-5.84080e-03,-1.20323e-03,-4.61548e-02,1.82555e-05,3.57020e-02,-3.97516e-02,-9.90627e-03,-5.18594e-02,2.78672e-03,4.12905e-02,2.25431e-02,1.62139e-02,-5.14618e-02,
1.32483e-01,6.96478e-02,8.33950e-02,-1.27036e+00,5.60802e-01,8.10596e-01,2.20042e-01,-2.47540e-01,-1.42067e-01,1.68640e+00,-3.84492e-02,-5.35825e-01,-4.91696e-03,-3.12328e-01,-3.68032e-02,-6.00995e-01,8.33087e-01,1.66433e-01,1.85865e-02,-3.32686e-01,3.54311e-01,2.60413e-01,-1.53184e-02,3.33361e-01,-5.63004e-01,-1.21522e-01,-3.84768e-02,-2.47207e-01,-1.71317e-01,-2.72763e-02,-7.54701e-02,4.01792e-01,-3.42778e-01,3.85043e-01,-1.78045e-01,4.69004e-02,4.41966e-01,2.02767e-01,-3.56769e-01,7.66235e-01,-4.52180e-01,5.35277e-01,-5.45742e-02,2.43704e-01,-3.69033e-02,-2.09544e-01,3.29417e-01,-8.85644e-02,3.47535e-01,6.67235e-01,
-6.65973e-02,-5.19731e-01,-2.78748e-01,-1.12109e+00,-4.59729e-01,1.50989e-01,-1.03595e-01,-4.18672e-01,6.76221e-01,2.57862e-01,-3.90907e-02,-1.56952e-01,-1.30662e-01,-1.56392e-01,5.21937e-03,-1.02309e-01,6.90481e-01,4.27869e-01,-2.65245e-02,-1.87697e-01,1.77831e-01,-1.34324e-01,1.67546e-02,2.13305e-01,-1.29255e-01,-6.24853e-02,7.13606e-03,-8.53282e-01,4.31377e-01,4.35023e-02,-2.31997e-01,7.44265e-01,-6.27178e-01,-8.68395e-02,-3.81805e-01,-3.07976e-01,-4.66898e-01,1.40616e-01,4.17690e-01,6.72687e-01,-1.95007e-01,-6.47482e-01,-2.40335e-01,-2.23403e-01,6.56025e-03,-2.95948e-01,1.01260e-01,-1.71854e-01,-2.00091e-03,2.78157e-01,
2.37684e-01,-1.04560e+00,-6.83677e-01,-2.10507e-01,-1.44183e+00,-7.17737e-01,-1.75286e+00,-2.54646e-01,7.28558e-02,-1.49582e+00,-2.25633e-02,-5.30537e-02,1.08290e-01,-1.11823e-01,3.22084e-02,-1.80597e-01,-7.20968e-01,2.66953e-01,1.02197e-02,-2.96811e-01,-1.18815e-01,1.12975e+00,-1.62048e-02,-4.06582e-01,-1.47842e+00,-8.15922e-02,3.62947e-02,-3.48594e-01,2.48710e-01,-1.40188e-02,3.86356e-01,-7.23202e-01,-2.65973e-01,1.36703e-01,5.49829e-02,-6.21422e-01,-5.14751e-01,-1.38732e+00,-1.06688e+00,-1.13690e-01,4.03885e-01,4.17428e-02,7.39987e-01,-3.93342e-01,4.58187e-03,6.72379e-02,-4.26089e-01,3.59126e-01,2.99544e-01,-3.42044e-01,
1.76147e-02,4.12724e-02,3.72826e-02,1.57091e-02,1.56587e-02,-3.12931e-02,-1.69782e-03,-1.67730e-02,1.49463e-03,-2.93699e-02,1.95164e-02,-2.26232e-02,-2.85585e-02,-4.93770e-02,4.44435e-02,2.52081e-02,-3.26989e-02,-4.55648e-02,-4.84249e-02,2.04245e-02,3.81865e-02,-1.28126e-02,-1.77042e-02,1.27787e-02,-5.24979e-02,3.61557e-02,-2.30461e-02,-1.39160e-02,-4.14005e-03,2.09392e-03,-3.02240e-02,5.75224e-03,2.84880e-02,-5.18211e-02,3.18939e-02,-3.85848e-02,-3.36710e-02,4.06722e-02,1.98699e-02,1.95750e-03,-4.78106e-02,-2.49616e-02,-1.45058e-02,-3.63371e-02,-3.95010e-02,-2.61974e-02,2.36172e-02,-1.47261e-02,4.15702e-02,-2.90699e-02,
-1.05880e+00,1.57354e-01,-2.44323e-01,-2.89617e-01,-3.94134e-01,-1.41766e-02,-3.38972e-02,1.89699e-01,2.23701e-01,2.98464e-01,-3.73858e-02,1.52422e-01,6.86633e-01,-1.80196e-01,2.14621e-02,1.14537e-01,-8.30352e-01,1.24113e-01,1.08884e-03,8.43290e-02,1.57258e-01,4.91070e-01,-2.25661e-02,-1.24596e+00,2.80315e-01,2.06665e-01,1.67319e-02,1.83187e-01,-2.48074e-01,-2.33099e-02,-4.45053e-01,2.33358e-01,-5.71500e-01,-1.22906e+00,-4.95757e-02,1.14547e-01,-2.93338e-01,1.03070e-01,4.64485e-01,-4.28542e-01,-2.59437e-01,2.06715e-01,-1.03491e-02,1.55222e+00,-2.63527e-02,-6.99300e-01,-1.94325e-01,1.55053e-01,1.20725e-01,-2.90454e-01,
-2.49351e-01,2.02329e-01,-5.27079e-01,6.22983e-01,-5.58434e-01,2.10719e-02,-1.05792e+00,1.40217e-01,6.69379e-01,-9.30103e-01,3.54664e-02,-1.33798e-01,-2.46463e-02,-2.55318e-01,-2.35093e-02,1.65861e-01,-2.91369e-01,4.35254e-01,-3.67910e-02,3.93171e-02,-2.95779e-01,4.67393e-01,-4.26491e-02,-5.86209e-01,3.56868e-01,-7.31563e-01,-3.41169e-02,-6.83563e-01,4.67452e-01,1.28258e-02,-7.35856e-01,1.07095e-01,-1.24219e+00,-9.58339e-02,-4.71956e-01,-1.01491e-01,-4.94494e-01,3.42163e-01,-3.96845e-01,-1.23253e-01,-3.60916e-02,-6.39695e-02,3.81280e-01,1.89355e-01,4.16858e-02,-1.96082e+00,4.00348e-02,2.20326e-02,-6.60875e-01,-3.26458e-02,
2.42848e-01,5.60655e-01,2.34516e-01,-3.46744e-02,6.23326e-01,5.74525e-01,4.42853e-01,1.95162e-01,1.66945e-01,-7.07092e-01,-2.51015e-02,1.68022e-02,-4.98084e-01,-4.17031e-02,-4.08516e-02,6.72629e-01,3.75408e-01,1.40651e-01,2.49072e-02,-5.02973e-01,3.63513e-02,-1.19631e-01,2.42458e-02,1.24942e-01,-4.07815e-01,5.54446e-03,5.07197e-03,-4.28913e-01,1.99512e-01,-4.03453e-02,2.52368e-01,9.57527e-02,-3.15201e-01,-1.62985e-01,2.35884e-01,2.33430e-01,8.19743e-01,-3.16200e-01,2.88353e-01,8.79732e-02,1.82219e-01,2.98442e-01,-5.34830e-01,-8.37763e-03,-1.05023e-02,-2.66755e-01,-1.05148e-01,1.14078e-01,-2.47955e-01,-2.98590e-01,
4.12181e-01,3.39865e-01,-1.99208e-01,1.15791e-01,5.74554e-01,1.70132e-01,-2.64235e-01,-4.98114e-02,2.90067e-02,-1.31456e+00,3.21249e-02,1.20672e-01,-3.99715e-01,-5.81058e-03,4.45231e-02,7.38307e-02,-7.11909e-01,3.78614e-01,1.89695e-02,1.88562e-01,9.35570e-02,1.05874e-01,2.31021e-02,4.10377e-02,-4.55077e-01,9.52019e-02,-3.55001e-02,-4.68533e-01,1.65911e-01,-1.80338e-02,2.86870e-01,-1.75984e-02,5.61415e-01,4.85450e-01,-1.92507e-02,-1.00144e-01,-1.71661e-01,8.79382e-01,-1.61858e-01,1.41796e-01,4.06525e-03,-2.29875e-01,1.77046e-01,2.78483e-02,-2.72629e-03,-2.01971e-01,-8.98488e-02,-5.44692e-01,-4.05046e-01,-2.24238e-01,
1.76297e-01,-1.41195e-01,1.29682e-01,-2.19081e-02,-2.43821e-01,-3.63713e-04,-2.87591e-01,1.76563e-01,5.00317e-01,5.42485e-01,-3.53752e-02,-4.14039e-01,-3.71714e-01,-2.37977e-01,-6.36365e-03,-7.48917e-01,6.93596e-01,1.12984e-01,-2.72511e-02,-5.87868e-02,-6.70149e-02,6.07026e-01,-3.86521e-02,-4.74643e-03,1.11271e-01,2.05419e-01,-2.89383e-02,-3.79475e-01,5.61432e-02,3.85240e-02,-3.96293e-02,2.99688e-01,-9.10058e-01,-1.46379e-02,-1.58215e-01,2.99731e-01,-5.16865e-01,3.70780e-01,9.50906e-01,2.81877e-01,1.21038e-01,-8.08557e-02,2.35841e-01,3.08876e-01,-1.73566e-02,-4.23323e-01,-6.66081e-02,3.19407e-01,-1.09936e-01,1.94453e-01,
4.11185e-01,3.72717e-01,-1.01931e-01,6.80134e-02,3.10712e-01,6.26453e-01,-2.82898e-01,7.93891e-02,-3.48306e-01,-1.28544e+00,-5.10739e-02,3.77224e-02,-3.66283e-02,4.21015e-01,-2.71250e-02,-2.04057e-01,1.36398e+00,6.17873e-02,4.99733e-02,-6.14361e-01,-8.22187e-01,3.79723e-02,2.73037e-02,4.13524e-02,-5.95942e-01,1.66740e-01,6.51279e-04,2.39604e-01,2.22604e-01,2.55101e-02,6.76731e-02,9.21977e-02,-3.31625e-01,-5.96590e-01,7.65954e-02,1.86896e-01,-6.65476e-01,-8.52762e-02,-1.11747e-01,-6.03854e-02,-8.89493e-01,-1.39901e+00,-1.38705e-02,1.09478e-01,1.22063e-02,4.69108e-03,1.05989e+00,8.14191e-01,6.02760e-02,-6.25053e-01,
2.10171e-01,4.25824e-01,-1.47982e-01,2.85474e-01,-1.20164e-01,-1.90480e-01,6.94899e-02,1.28257e-01,7.80443e-02,1.71676e-01,2.53494e-02,-6.78919e-02,-4.63347e-02,-3.37635e-01,1.36304e-03,-1.11209e-01,1.45921e-01,-1.07087e-01,4.47634e-02,2.18908e-02,-1.43811e-01,2.01505e-01,2.06497e-02,-1.29430e-01,-2.55048e-01,2.59234e-01,1.00375e-03,1.16530e-01,4.88133e-01,2.16888e-02,3.39254e-01,-1.07444e-01,-1.44446e+00,2.15578e-01,2.43828e-02,-2.26564e-01,7.05331e-02,-1.80756e-02,-2.03596e-01,1.78952e-02,-2.84046e-01,1.83054e-02,1.44559e-01,1.07259e-01,-4.07315e-02,7.22322e-02,8.11183e-01,5.94915e-01,1.47157e-01,-2.61996e-01,
4.58287e-01,3.63976e-01,-4.97459e-02,-1.29438e-01,-3.66731e-01,1.08020e-01,2.01032e-01,-2.42389e-01,-4.02204e-01,1.00648e-01,-3.48109e-02,9.41648e-02,4.78185e-01,4.22431e-01,-3.85357e-02,1.87345e-01,-4.22710e-02,3.25964e-01,3.48622e-02,1.12057e-02,1.71274e-01,2.88574e-01,1.02363e-02,4.22985e-02,-1.32248e+00,-2.06871e-01,2.29931e-02,4.82122e-01,5.28859e-02,2.34839e-04,4.75481e-01,1.91762e-01,1.24504e+00,-5.34555e-01,-1.52737e-02,-1.08850e-01,-5.14785e-01,-1.18338e-01,-1.92809e-01,-1.68151e-01,2.33911e-01,-3.24163e-01,-2.26743e-01,-1.53748e-01,5.65403e-02,-3.52427e-01,3.03215e-01,-1.04693e-01,3.94382e-01,2.20236e-01,
-5.20756e-01,7.70844e-01,2.53850e-02,2.98071e-01,-2.18598e-01,2.79804e-01,-2.30962e-01,3.37274e-01,-3.41823e-01,-3.04288e-02,-1.33916e-02,2.89137e-01,-3.75421e-01,3.65952e-01,-4.57989e-02,-3.65975e-01,-9.60772e-02,2.16664e-01,1.00400e-02,2.73109e-03,-1.48031e-01,-7.74548e-02,3.16824e-02,3.94183e-01,2.07278e-02,-2.01263e-01,-3.80930e-02,-7.77789e-03,2.15488e-01,4.26975e-02,4.03653e-02,-1.95426e-01,-1.47647e-01,1.03897e-01,4.45987e-02,-1.37345e-01,-8.21354e-02,-4.28057e-01,-8.32089e-02,7.74259e-01,9.95591e-02,8.54981e-02,5.18950e-01,-2.51725e-02,1.86763e-02,2.10481e-01,5.96744e-02,4.31602e-01,-1.14051e-01,4.76630e-01,
-2.08751e-01,-2.80859e-01,-1.51755e-01,1.04223e+00,4.56854e-02,8.45822e-02,-2.30061e-01,-4.22495e-01,-1.38516e-01,-3.13227e-01,1.78141e-02,-3.00528e-03,2.98737e-03,4.89807e-01,2.62413e-02,1.51799e-01,2.36204e-01,2.30223e-01,-2.94862e-02,-8.57193e-01,-2.93211e-01,2.88265e-01,-1.03993e-03,3.55385e-01,6.58448e-01,-2.37461e-02,-3.47008e-03,1.64924e-01,-4.55741e-01,-1.92519e-02,9.01361e-02,-2.50267e-01,1.78391e-01,2.87266e-01,9.32911e-02,1.74818e-01,-2.49967e-01,-5.80254e-02,-3.54465e-01,-1.21890e-01,8.88384e-02,1.47506e-01,-9.78504e-01,-5.79483e+00,-5.87875e-02,-1.18704e-01,4.53358e-01,-9.54155e-01,-3.56380e-01,6.35596e-02,
2.67740e-01,2.67014e-01,-3.51052e-01,-2.10831e+00,-4.19315e-01,2.44146e-01,-5.72359e-01,-9.32924e-02,-1.44468e-01,5.57665e-01,-3.62775e-02,-2.50758e-01,4.85314e-01,5.25829e-01,-7.71499e-03,-3.35883e-01,-6.26194e-01,-1.69303e-01,-1.78424e-02,-4.99440e-02,-1.87688e-01,-7.25733e-01,-2.71315e-02,2.08980e-01,7.35533e-03,1.04050e-01,-1.96243e-02,-1.86634e+00,-2.36620e-01,2.14593e-03,-2.16298e-01,-4.10986e-01,-6.82860e-02,2.42490e-01,2.27429e-01,-7.67071e-01,6.25977e-01,1.99777e-01,-8.59572e-01,5.94602e-01,5.32726e-01,2.22597e-01,-3.16229e-01,4.41026e-01,-4.40812e-02,6.14520e-01,5.20276e-01,1.24941e+00,-3.42502e-02,-2.30510e-01,
-1.40445e-01,-2.68419e-01,4.46141e-01,-1.17538e+00,-2.61753e-01,-9.00036e-01,5.24663e-01,1.98422e-01,7.97355e-01,1.12401e+00,-7.71172e-03,2.53880e-01,2.21178e-01,2.29862e-01,-1.67437e-02,5.81109e-01,3.20941e-01,-3.11481e-01,-4.21539e-02,-3.82746e-01,1.74511e-01,3.63115e-01,1.19361e-02,-7.47096e-01,-1.64216e-01,-1.77875e-01,3.96555e-02,1.62464e-01,-2.41756e-01,1.39359e-02,-6.03086e-01,3.45328e-01,-2.40264e-01,2.25488e-01,-9.51239e-02,-1.78606e-01,1.24175e+00,-2.71469e-01,1.08098e+00,4.09965e-01,-2.42982e-01,6.59213e-01,-6.77406e-01,1.85099e-01,2.40769e-02,4.22550e-01,-4.42291e-01,9.99640e-01,-1.46338e-01,3.19472e-01,
9.03329e-03,2.50263e-01,-2.53465e-01,-1.16819e-01,1.02778e-01,6.31172e-01,-2.41647e-02,3.58417e-01,-3.00006e-01,4.03123e-01,3.24084e-02,4.86602e-02,6.23587e-01,9.67845e-02,-3.85786e-02,2.32755e-01,1.01606e+00,7.22835e-02,1.26367e-02,1.65108e-01,-2.75240e-01,-2.15168e-01,-1.10587e-02,2.99364e-02,-2.70676e-01,-6.10134e-01,-8.96031e-03,-2.15540e-01,1.66515e-01,-3.99657e-02,3.13119e-01,2.46981e-01,-2.97122e-01,-1.67145e-01,-9.66024e-02,9.23061e-02,-4.80770e-01,3.69756e-01,-3.03363e-01,1.49089e-01,4.34048e-03,5.74328e-01,1.01594e-01,-1.02735e+00,-3.74068e-03,5.33252e-01,-7.69658e-02,-2.50366e-01,2.71463e-01,1.77066e-01,
5.33081e-01,-5.41527e-01,2.72116e-01,2.91865e-01,2.19919e-01,3.28599e-01,2.32947e-01,-3.67361e-01,-5.81519e-01,-2.87825e-02,-2.21365e-02,1.03413e-01,4.54287e-01,5.76488e-01,-4.69213e-02,-2.25998e-01,2.17125e-01,1.08827e-01,-4.39015e-02,1.21560e-01,3.82000e-02,2.97817e-01,4.59372e-03,-2.67654e-01,1.31334e-01,2.66590e-01,3.87192e-02,3.90224e-01,3.19993e-01,-1.06452e-02,5.20158e-01,-4.51388e-01,-2.00977e+00,-3.56667e-01,-3.02614e-01,-3.46168e-01,2.89230e-01,-1.82290e-01,-9.05588e-01,-5.39145e-01,2.15703e-01,-7.74323e-01,1.23087e+00,4.66884e-01,-1.05379e-02,2.60068e-01,2.01472e-02,6.45184e-01,1.37228e-01,7.35393e-03,
-1.16419e-01,1.93382e-01,-1.49119e-01,-3.24342e-01,2.39656e-01,-1.66483e-02,3.61101e-01,-1.97117e-01,-1.19631e+00,2.03932e-01,-5.33213e-02,-7.13889e-02,1.39433e-01,-6.42563e-01,3.53610e-02,1.44683e-01,1.42451e-02,7.13955e-02,-5.86240e-03,-3.60504e-01,1.48231e-01,-4.28268e-02,2.06982e-02,4.01168e-01,-4.23567e-02,2.09549e-01,-5.39757e-02,2.63772e-01,4.84038e-01,-1.35165e-02,-1.98994e-01,3.73400e-02,1.64029e-01,-6.51059e-02,2.05209e-01,-1.53150e-01,1.98475e-01,7.38988e-01,-6.28155e-01,-8.59540e-02,-6.96692e-02,1.22008e-01,7.86063e-03,-1.20807e-01,-6.51453e-03,-3.57697e-01,2.02871e-01,-3.37432e-02,-4.18371e-01,8.56358e-02,
-1.05078e-01,-9.01076e-02,-4.61575e-01,-5.44235e-01,5.40755e-01,-5.93287e-01,2.25057e-01,7.39489e-02,-2.58532e-01,9.06213e-01,1.16543e-02,-2.38710e-01,-8.90147e-01,-5.61980e-01,-1.43462e-02,-3.00995e-01,-1.59613e+00,4.63991e-01,1.86978e-02,2.79522e-01,6.21640e-03,2.03304e-01,-9.17399e-03,2.82100e-01,3.18031e-01,-7.30673e-01,3.70279e-03,-2.38999e-02,7.54312e-02,-4.04031e-02,-3.86883e-01,9.50293e-02,-4.92835e-01,5.74799e-02,9.33946e-02,-2.51184e-01,-2.11662e-01,5.45831e-01,-6.01417e-01,2.10600e-02,1.35102e-01,6.22547e-01,-3.03273e-02,-1.19988e+00,-3.04928e-02,1.03100e+00,3.78107e-01,-2.92890e-01,1.69808e-01,2.72185e-01,
-2.77866e-01,-1.43931e-01,-7.85931e-01,4.15472e-01,-1.47285e-02,2.40307e-01,-4.34443e-02,-6.18019e-02,-2.54811e-02,1.14830e-01,4.87637e-02,-5.18391e-01,-1.93767e+00,-3.08198e-01,1.37105e-02,4.87794e-02,-1.14627e+00,2.31315e-01,-6.37716e-03,1.07755e-01,-1.91809e-01,5.59528e-01,3.44113e-02,-1.36427e+00,-1.23522e-01,-2.23005e+00,1.57030e-02,1.54787e-01,4.42833e-01,3.67591e-03,-8.27603e-03,-4.57534e-02,5.73921e-01,3.38386e-01,-1.74764e-01,-3.17605e-01,1.82903e-01,4.01301e-02,-2.50824e+00,-1.08294e-01,1.43786e-01,2.80627e-01,-2.71988e-01,1.51789e-01,3.05432e-02,9.20895e-01,-1.74441e+00,1.05706e-01,1.94697e-01,1.38426e-01,
2.35408e-01,4.34768e-01,1.39402e-01,-1.57394e+00,-3.16690e-02,-1.28881e-01,-6.50607e-01,9.16131e-02,4.84835e-01,-2.05753e+00,-2.24468e-02,4.94851e-01,5.53011e-01,6.80780e-01,-2.34919e-02,1.98601e-01,-1.73307e-01,4.93310e-02,1.82942e-02,5.95111e-02,-1.69157e-01,-5.52429e-01,2.03255e-02,-2.64361e-01,-2.34051e-01,4.73029e-01,-9.70578e-03,5.48485e-01,-1.18203e-01,3.08907e-02,4.96645e-01,8.96152e-01,-6.35159e-01,-7.21494e-02,-2.91767e-01,-1.22121e-02,-2.15609e-01,4.94028e-01,-8.62930e-01,5.85639e-01,-9.33396e-02,3.30364e-01,-6.43608e-01,-2.70007e-01,-2.45659e-03,1.96531e-01,8.15617e-01,4.77704e-01,-4.47287e-01,4.83745e-02,
-4.81457e-02,-3.92941e-01,1.13840e-01,9.38506e-01,-1.60488e-01,1.49036e-01,1.05138e-01,-2.84862e-01,3.40643e-01,-7.41487e-01,8.99349e-03,1.07222e-01,-5.72644e-01,3.23707e-01,-4.45073e-02,1.02737e-01,-2.04445e+00,5.93008e-02,-3.91831e-02,-3.27594e-01,-4.15879e-01,-1.40077e-01,-2.77446e-02,3.29292e-01,3.63213e-01,1.22273e-01,4.06318e-02,-1.10199e-01,-1.12255e-02,-4.83743e-02,3.65516e-01,-3.79762e-01,1.66724e-01,7.50748e-01,2.07158e-01,-6.89062e-01,1.00623e+00,-2.95455e-02,-3.91339e-01,-3.83045e-01,1.28964e-01,-6.26643e-01,6.32228e-01,1.14306e+00,4.63457e-02,-7.84070e-02,1.93466e-01,8.10331e-01,-5.32501e-01,-8.07587e-02,
1.95604e-01,-2.29327e-01,-3.58154e-02,6.12778e-02,-9.32181e-02,-1.22742e+00,2.17038e-01,2.86848e-01,-1.24984e-01,4.97909e-01,2.52539e-02,-1.45469e-01,2.40291e-01,3.81596e-01,1.95289e-03,-5.96378e-01,9.21943e-01,1.15351e-01,2.64092e-02,-6.41528e-02,-1.91469e-01,-5.63621e-02,-4.09568e-02,2.07258e-01,-7.52450e-01,-1.19044e-02,-1.29585e-03,-1.59470e-01,-2.18557e-01,-4.77657e-02,6.70618e-01,-2.15832e-02,-5.79682e-02,2.51421e-01,1.90073e-02,5.73995e-02,4.61420e-01,-3.41364e-01,4.94308e-01,-9.48520e-02,-3.08023e-01,2.03040e-01,4.06619e-02,-3.78599e-01,1.23248e-02,7.74484e-01,3.75430e-01,-7.77707e-01,-3.58621e-01,-2.64161e-01,
1.39716e-01,3.53873e-01,-3.85440e-02,-1.66359e-01,-5.69252e-01,1.10027e-01,-3.20037e-02,7.20072e-02,5.03569e-01,2.24187e-01,-5.19777e-02,-1.80963e-01,2.73255e-01,-4.56736e-01,-2.96362e-02,-6.15352e-02,1.32686e+00,-1.90803e-01,-4.85692e-02,7.52892e-03,2.14522e-01,-2.38011e-02,-3.00221e-02,-9.89454e-02,-1.83550e-01,-2.12614e-02,-2.06861e-02,-2.97180e-01,1.18029e-01,7.15214e-03,2.13837e-01,2.38481e-01,-5.07085e-01,1.97173e-02,1.04239e-01,5.65893e-01,1.12648e-02,-4.51806e-01,4.06805e-01,-8.01018e-01,-2.69951e-01,1.21219e-01,2.49004e-01,3.90545e-01,-2.45537e-02,4.97797e-01,4.33528e-01,-5.26289e-01,-3.53279e-01,-4.86855e-01,
-8.29204e-02,3.58568e-01,3.91188e-01,5.39338e-01,-3.14179e-01,-7.38924e-01,-3.58298e-01,4.19542e-01,-9.74498e-01,1.37783e-01,-4.63457e-02,-2.97501e-01,9.78912e-02,-5.84793e-02,-3.35144e-02,-1.15656e-01,-4.19090e-02,-5.95981e-01,2.22288e-02,-3.57848e-01,-2.40581e-01,2.08031e-01,-4.05043e-02,3.23573e-01,-4.79960e-01,6.94115e-01,-5.64904e-03,4.24170e-01,-3.11223e-01,-1.72416e-02,1.75987e-01,-3.09908e-01,1.18817e-01,2.87490e-01,-3.63699e-02,-1.70489e+00,-4.62265e-01,-2.30213e-01,3.56501e-01,-1.36978e+00,1.01978e-02,-2.17467e-01,6.30649e-01,3.87155e-01,-2.15944e-03,3.33760e-01,-1.18102e-01,-9.59238e-02,-1.15394e+00,-9.05515e-01,
2.83151e-01,3.05808e-01,-2.35870e-02,3.18009e-01,4.88489e-01,1.01292e+00,-2.00985e-01,-3.93269e-01,-8.03431e-01,-2.76205e-01,-4.64025e-02,2.91180e-01,-1.08506e-01,-7.29589e-02,7.77216e-03,7.65751e-03,-3.89421e-02,-2.09237e-01,4.41206e-02,-8.62240e-02,-4.05101e-01,-4.07769e-01,-4.78532e-02,-3.29917e-01,2.41083e-01,3.70967e-01,4.96038e-03,-2.35699e-01,1.51706e-01,3.45746e-02,3.92521e-01,-3.18280e-01,3.84630e-01,-1.76622e-01,4.34177e-01,4.14542e-01,1.68361e-01,5.40240e-01,7.73734e-01,7.08332e-01,-3.88019e-01,1.85712e-01,-2.95443e-01,2.06269e-01,-4.60654e-02,-1.25304e-01,5.99394e-01,2.31738e-01,3.00288e-02,-1.26426e-01,
-1.72522e-01,-5.46682e-01,-4.59611e-01,2.61321e-01,-3.45215e-01,2.36907e-01,1.95272e-01,-3.15813e-01,4.95967e-01,-2.53195e-01,-1.36595e-02,1.79556e-01,-1.19197e-01,2.55186e-02,-1.03553e-02,-3.52831e-01,-5.58499e-01,1.76547e-01,2.40534e-03,2.24446e-01,1.46972e-01,1.74941e-01,1.64140e-02,1.11920e-01,3.15279e-02,-2.93578e-01,1.53219e-02,4.26137e-01,-7.01153e-01,-2.04462e-02,1.78557e-01,-6.11443e-01,4.88205e-01,-8.32545e-02,-1.18914e-01,-3.06283e-01,9.86673e-02,1.11076e-02,-9.19071e-02,5.02340e-01,2.88406e-01,-5.27445e-02,-2.28948e-01,-6.90415e-01,1.96973e-02,4.86325e-01,2.19804e-01,-3.85984e-01,-1.03442e-01,1.41359e-01,
-4.56972e-02,2.21280e-01,-1.78196e-01,5.30966e-02,-4.02260e-02,1.55148e-01,5.59800e-02,3.86736e-02,-7.39221e-01,1.42430e-01,8.50320e-03,4.83042e-02,4.13205e-01,1.72484e-01,-4.86992e-02,1.43568e-01,1.28515e-01,-1.99060e-01,-2.31174e-02,-4.58567e-02,9.20014e-03,4.55966e-02,3.57876e-02,7.59428e-02,2.41853e-01,8.62799e-03,1.40985e-02,1.55294e-01,4.13669e-01,3.09730e-03,-7.14198e-02,3.70205e-03,-7.35950e-01,-9.16649e-02,-3.04451e-02,-5.49944e-02,-6.56972e-02,-7.09397e-02,-2.17709e-01,-5.88337e-02,1.60348e-02,8.61964e-02,-2.41732e-02,-9.22152e-02,-3.84071e-02,-5.76922e-02,1.95522e-02,-2.24804e-01,-1.65475e-01,-2.71152e-02,
-2.20908e-01,4.87732e-01,3.49159e-02,1.05944e-01,-9.85456e-02,5.41511e-01,-1.00175e-01,5.67394e-02,-1.32396e+00,-2.17129e-01,3.31121e-02,-4.29464e-01,8.96240e-02,1.58626e-01,-4.80199e-02,1.70128e-02,7.54514e-01,-3.90846e-01,-4.47584e-02,4.27566e-02,-2.03622e-01,-1.75991e-01,1.07534e-02,-5.17039e-03,-3.21573e-01,-6.11357e-01,-2.35430e-02,6.88146e-01,-2.57030e-01,-4.42898e-02,-1.57292e-01,1.15335e-01,1.34471e-01,2.07750e-01,-2.81729e-02,3.13411e-02,9.19935e-02,4.84458e-01,4.22968e-01,-6.25962e-01,6.42089e-01,3.32670e-01,-3.71148e-01,2.98764e-01,-3.04535e-02,2.49712e-01,-2.18905e-02,4.68647e-01,-2.14030e-01,-2.70083e-01,
2.43904e-01,1.46469e-01,2.85645e-01,2.09220e-02,2.01406e-02,7.84110e-01,-5.07743e-01,-3.18548e-01,3.79324e-01,2.01271e-01,-4.73462e-03,-5.31066e-01,1.27157e-01,3.22975e-01,-3.72881e-02,2.32604e-01,-5.27351e-02,-1.36934e-02,1.69077e-03,-4.61138e-01,-1.81434e-01,3.60442e-01,2.15761e-02,-2.37454e-01,-8.19262e-01,1.30292e-02,-5.89957e-02,-3.21206e-01,3.37074e-01,1.86267e-02,-1.30195e-01,-2.46858e-01,2.13832e-01,1.53428e-01,-1.94695e-02,-1.28065e-01,1.42688e-01,-5.96309e-01,-7.42422e-01,5.96521e-02,-4.65956e-01,-3.02810e-01,3.34548e-01,7.81101e-01,5.83667e-02,-4.69852e-01,-2.70011e-01,2.27573e-01,-3.81148e-01,-5.11075e-02,
6.68701e-02,4.09554e-01,9.38753e-02,-8.05580e-02,-4.81464e-01,5.59259e-01,-3.50223e-01,1.27360e-01,2.57347e-01,-4.74651e-01,1.82659e-02,1.43066e-01,-7.69118e-01,-2.01236e-01,-4.70568e-02,1.13369e-01,1.08818e-01,3.97354e-02,-5.90176e-03,-9.07976e-03,-8.15217e-02,-1.27976e-01,-1.90656e-02,-6.28859e-01,6.69872e-01,-5.24432e-01,-3.33455e-02,-1.95647e-02,9.34671e-02,-3.62526e-02,2.20645e-01,1.64126e-02,3.98315e-01,-4.40262e-02,3.28097e-01,-2.29389e-01,4.98900e-01,2.19135e-02,-1.96904e-01,3.12276e-01,4.17497e-02,-2.90522e-01,3.27494e-01,-1.59711e-01,-2.22766e-02,-2.27566e+00,-1.65532e-01,-2.75574e-01,-6.77725e-01,-9.58855e-02,
2.66770e-01,-3.95544e-01,3.52709e-01,1.41783e+00,-1.08733e+00,-1.25768e-01,-3.58748e-01,-1.64451e-01,4.80507e-01,-8.81635e-01,1.01519e-02,3.03526e-01,8.68381e-01,-2.79629e-01,-1.85478e-02,1.00153e+00,-5.82222e-01,-1.78674e-01,-3.05333e-02,-2.45729e-01,-5.28008e-01,6.23900e-02,-3.78923e-02,-5.32838e-01,2.17997e-01,-6.10207e-01,4.64718e-02,8.64751e-03,8.59382e-02,4.74370e-03,3.09361e-01,-3.81251e-01,-6.00370e-01,1.73461e-02,-1.82421e-01,3.74810e-01,-5.03939e-01,3.28146e-01,-7.90500e-01,-3.87464e-01,9.40748e-02,-4.41481e-01,-2.60685e-01,1.20064e+00,4.27543e-02,-5.74741e-01,4.32527e-01,-1.98743e-01,-2.62957e-01,-3.73606e-03,
3.37571e-01,-5.68659e-02,5.03038e-01,-2.23192e-01,2.06416e-01,2.13769e-01,-2.78853e-01,-4.52323e-01,1.32816e-01,4.81910e-01,3.95624e-02,8.59107e-02,-4.31496e-01,-2.06182e-01,-1.84399e-02,-1.15443e-01,4.02268e-01,3.29369e-02,-4.37066e-02,-3.55630e-02,2.00488e-01,-3.81299e-02,-4.00069e-02,2.26620e-01,7.53400e-02,5.84771e-01,2.63789e-02,-2.92312e-01,-1.43127e-01,1.32973e-02,5.20179e-01,-7.75586e-02,-2.09595e+00,-1.94795e-01,-3.49872e-02,1.34215e-01,2.76799e-01,1.76598e-01,1.80174e-01,-7.92104e-01,2.64471e-02,5.66113e-01,2.05637e-01,-2.18292e-01,-5.26823e-03,2.37195e-01,7.54820e-01,5.48799e-01,3.05042e-01,-6.52460e-01,
1.88035e-01,2.28117e-01,5.93146e-02,-4.40947e-01,3.03108e-01,8.31767e-01,6.77333e-02,3.82653e-02,4.31518e-01,3.22281e-01,-5.04160e-02,1.00593e-02,6.07611e-01,4.96108e-03,-2.30585e-02,6.00507e-01,6.14343e-02,-5.76041e-01,-2.03998e-02,1.57979e-01,6.83121e-01,-1.48607e-01,-3.52956e-02,-1.50851e-01,3.46578e-01,4.47785e-02,4.06372e-02,7.92594e-01,-8.43025e-01,2.69758e-02,-7.17556e-01,1.36077e-01,1.75486e-01,-7.53383e-01,-1.11534e-02,2.23600e-01,-2.75460e-01,-1.78850e-01,7.90231e-02,-4.19856e-01,4.46069e-01,1.21239e-01,3.09105e-02,2.63476e-01,3.72816e-02,1.08134e+00,-2.87474e-01,-5.60445e-02,2.65933e-01,-9.27751e-02,
-1.49517e-02,-4.60362e-02,-4.56831e-02,1.75000e-02,-1.05511e-02,-2.82346e-03,-4.74150e-04,-6.45169e-03,1.92679e-02,2.23141e-03,-2.85272e-02,-9.03376e-03,-3.32558e-02,-3.84890e-02,-3.27203e-03,-2.87087e-03,-5.47389e-03,4.92324e-03,-2.14752e-02,-1.68624e-02,2.67710e-02,1.96995e-02,3.73418e-02,-4.71513e-02,-5.01309e-03,-3.99039e-02,1.57031e-03,-1.07610e-02,1.57673e-02,2.36007e-02,9.08507e-03,1.52753e-02,-5.30439e-02,-4.05273e-02,3.69561e-02,-1.91414e-02,-9.69548e-03,-5.01327e-02,3.98916e-02,-3.55096e-02,1.09308e-02,-5.04036e-02,-2.42847e-02,-7.25226e-03,4.96313e-02,4.01727e-02,-3.49327e-02,-1.14384e-02,-4.56006e-02,-2.91862e-02,
-1.80881e-01,-2.16069e-01,-1.58478e-01,-2.30427e-03,-2.76166e-01,5.45251e-01,3.35490e-01,9.25603e-02,-5.52761e-01,-2.06717e-01,8.49614e-05,2.65353e-01,-2.39281e-02,3.68707e-01,-1.34462e-02,-7.64583e-02,-2.11611e-01,-3.24640e-01,-3.77472e-02,-2.34389e-01,-3.38052e-02,-3.12648e-01,-2.49476e-02,-1.68306e-01,-8.49983e-02,-2.30350e-01,2.32152e-02,3.48393e-01,2.46922e-02,5.05721e-02,-1.33431e-02,-9.21989e-02,9.91982e-01,7.38701e-02,2.73624e-01,-8.71844e-02,2.03168e-01,-3.09253e-01,-1.84743e-02,2.36238e-01,-2.78566e-01,2.55269e-01,-2.07594e-01,-3.40460e-01,1.23635e-02,2.25159e-01,-3.19438e-01,-4.71440e-01,6.99142e-01,2.71290e-01,
-1.77887e-01,-9.84792e-01,-1.07546e-01,-3.70880e-01,-2.45996e-01,2.25846e-01,1.93534e-01,-5.95259e-01,-3.86997e-01,6.44156e-01,-2.54855e-02,8.10457e-02,-1.67399e-01,-1.41609e-01,-4.31613e-02,-6.49932e-01,5.51692e-01,-2.31763e-01,-2.55311e-02,1.65173e-01,-1.85726e-01,1.82917e-01,-1.64146e-03,-5.23426e-01,-7.68405e-01,-3.36406e-01,2.39197e-02,3.99022e-01,-3.20928e-01,-4.46698e-03,3.29978e-01,6.94811e-02,-5.00596e-01,1.53810e-01,-1.47513e-01,-1.16448e-01,-2.44517e-01,8.77183e-02,2.36172e-01,3.21335e-01,1.86068e-01,-2.43315e-01,-2.35015e-01,2.28684e-01,-1.04880e-02,1.07263e-01,3.47575e-01,3.67906e-01,2.44585e-01,4.34989e-01,
-1.63432e-01,7.38508e-01,3.39638e-01,-4.91603e-01,-7.98442e-02,-1.29465e-03,3.36646e-01,-2.55526e-01,-1.30355e-01,-3.18364e-01,2.86033e-02,2.62087e-01,2.00627e-01,-9.48832e-03,6.40922e-03,-3.12505e-01,-1.63923e-01,1.89095e-01,-4.90431e-02,-2.33840e-01,8.30222e-02,-4.65768e-01,-2.52141e-02,6.44353e-02,9.74076e-02,3.17997e-01,-1.44566e-02,2.17921e-01,-3.08747e-02,-3.56618e-02,6.07015e-01,1.68417e-01,-2.18088e-01,1.31452e-01,1.78586e-02,-1.72673e-03,2.91869e-01,2.16168e-01,-8.87091e-03,3.24331e-01,-2.11291e-01,3.14033e-01,-5.83871e-01,-6.14576e-01,-3.04456e-03,-4.96709e-01,-5.36411e-01,-5.39188e-01,-4.61694e-01,-2.16762e-01,
4.76798e-02,-7.98550e-02,1.89957e-01,-1.37580e-02,-3.39072e-02,-1.30277e-01,-2.06908e-02,-5.14572e-02,2.23189e-01,-3.28684e-02,1.11172e-02,6.33629e-03,2.74418e-02,2.45900e-02,3.23306e-02,-9.53188e-03,4.62618e-02,1.20776e+00,4.80397e-02,-1.53636e-02,-2.47619e-02,2.54105e-02,3.51152e-02,-2.56391e-02,6.33902e-03,-5.49865e-03,2.04587e-02,2.11343e-02,-1.94350e-01,1.92442e-02,-8.94638e-04,1.82453e-02,-1.22264e+00,-1.06305e-03,-1.46623e-02,3.26965e-02,-2.40121e-03,-4.05741e-02,5.00738e-02,6.00470e-03,7.75271e-03,7.25320e-02,2.11281e-02,-1.98076e-02,1.87344e-02,9.36636e-02,3.33148e-02,-1.45848e-01,-3.47476e-01,-8.68083e-02,
-3.28341e-01,8.32227e-01,-4.84463e-01,1.14243e+00,1.34758e-01,-5.65365e-01,-2.96549e-01,1.44810e-03,-1.04629e+00,-4.73834e-02,2.69930e-02,-7.35719e-02,3.07584e-01,-1.26622e-01,6.43973e-03,3.25717e-02,7.81271e-02,-3.77445e-01,-2.96924e-02,6.92240e-02,-1.25392e-01,6.36563e-02,-3.68031e-02,3.43389e-01,1.40915e-01,1.19572e-01,4.82328e-02,-4.64190e-01,-9.78686e-01,1.01716e-02,1.40176e-01,-1.01337e-02,3.21377e-01,-7.07427e-02,2.91609e-01,-1.00058e+00,3.77330e-01,2.25236e-01,5.09046e-01,-1.59962e-01,-1.29953e-02,1.83476e-01,2.88154e-01,-2.06166e-01,-2.00821e-02,-1.02190e-01,2.50242e-01,6.53269e-01,-8.51752e-01,-6.84580e-02,
4.77976e-01,4.31369e-01,1.37847e-01,-1.65285e-01,5.16009e-01,-2.16139e-01,-6.30330e-01,4.03864e-01,2.58852e-01,-8.94439e-02,-1.13768e-02,-4.60013e-02,1.87160e-01,8.29693e-01,-2.99895e-02,7.70497e-01,-1.97402e-01,2.46622e-01,-4.01696e-02,-1.62890e-01,-2.68113e-01,2.65438e-01,-5.03244e-02,-8.77326e-01,1.16355e-01,-4.66011e-01,4.31149e-02,-1.79700e-01,3.84703e-01,5.97195e-03,2.33821e-01,6.67897e-01,-9.32028e-03,-9.69809e-02,3.76689e-01,9.12249e-01,3.27216e-01,6.11621e-01,8.37517e-01,-2.83716e+00,-1.23662e+00,1.09060e-01,1.52863e-01,-2.68625e-01,-2.09460e-02,-3.12236e-01,1.51599e-01,-9.59658e-04,7.98783e-02,3.49928e-01,
-1.51943e-02,-6.10060e-02,-6.96701e-02,-2.14761e-02,2.48670e-02,-6.05225e-02,-1.20824e-01,9.26500e-03,-1.86739e-02,-2.95964e-02,3.39353e-02,7.78465e-03,-3.83925e-02,2.57267e-02,-2.83805e-02,-1.37805e-02,1.16025e-02,-3.77427e-02,4.51788e-03,-1.32594e-03,-2.76285e-02,-1.86624e-02,-3.11307e-02,2.55044e-02,3.18528e-02,5.93066e-03,4.43071e-02,-6.58126e-02,-4.07119e-02,-1.05304e-02,-1.25282e-02,-1.95750e-02,-3.86923e-02,2.06875e-02,-1.09744e-02,-8.66174e-02,4.10158e-02,3.20942e-02,2.64730e-02,-7.73845e-03,-3.94264e-02,-1.85365e-02,-6.39946e-02,1.59874e-02,-3.47304e-02,4.42648e-03,5.55533e-02,2.02616e-02,-2.49549e-02,-2.25230e-02,
9.29934e-02,1.84158e-01,-1.85675e-01,1.80040e-01,2.62488e-01,-5.61486e-03,-5.68207e-02,-5.38322e-02,1.97132e-01,3.65266e-01,-2.25723e-02,-1.77147e-01,-3.68984e-01,-2.09560e-01,-1.32294e-02,-3.31078e-01,2.52235e-01,5.41106e-01,4.19339e-02,-2.76438e-01,-4.31408e-03,1.52537e-02,2.26639e-02,4.51614e-02,-2.34478e-01,-4.37807e-02,3.81083e-02,-5.16540e-01,1.06670e-01,1.27449e-02,-1.50395e-02,-7.70271e-02,-9.41201e-01,8.93858e-02,2.81726e-01,7.00939e-02,6.94047e-02,-5.57811e-02,1.03028e-01,3.01651e-01,-5.10717e-01,7.91637e-03,8.65689e-02,4.06431e-01,1.90635e-02,-2.21405e-01,5.60647e-01,-3.49034e-01,-4.22604e-01,1.05891e-01,
-3.55661e-01,1.05427e-01,1.55247e-01,-3.83164e-01,1.61442e-01,4.12090e-01,6.34579e-02,9.49337e-02,4.85912e-01,-4.93485e-01,-5.46299e-03,1.69891e-01,1.64709e-01,2.30446e-01,-4.37865e-02,-2.73682e-01,-4.15184e-01,-1.20884e-02,6.60287e-03,4.47443e-02,-4.52734e-01,5.09292e-02,-1.18634e-02,-5.47804e-01,-2.72577e-01,2.18489e-01,3.24945e-02,5.04496e-01,2.86426e-01,4.47027e-02,7.42808e-02,2.95015e-01,-4.95709e-01,-4.83723e-01,-1.71015e-01,4.36898e-01,-4.21290e-02,6.62589e-03,7.92349e-03,-8.40867e-02,-3.68002e-02,1.76448e-01,4.44979e-02,-3.39630e-01,1.98901e-02,2.30908e-02,4.96752e-01,-2.86185e-01,3.16163e-01,1.51710e-02,
5.26361e-01,2.94581e-01,-2.28151e-01,1.41436e+00,-8.75521e-01,1.11535e-01,-2.80503e-01,-4.75621e-01,5.13902e-01,-1.97855e+00,2.59438e-02,-8.25500e-01,-2.92586e-01,2.99120e-01,-1.63474e-02,9.30149e-02,9.35997e-01,-1.50103e-01,-4.81771e-03,7.45193e-03,5.74382e-02,-1.93853e-01,-4.94625e-02,-1.75451e-02,5.14513e-02,-4.19262e-01,4.03737e-02,5.59243e-01,5.11941e-01,-1.71509e-02,-8.04791e-02,-4.47366e-01,-5.00100e-01,4.74068e-01,-5.71804e-02,3.35439e-01,-1.17190e+00,5.52407e-01,-6.75593e-01,-1.19449e+00,2.48045e-01,-2.63694e-01,3.40013e-01,-2.12832e-01,-4.01247e-02,-9.09193e-02,-2.08791e-02,2.29067e-01,4.85474e-02,2.06133e-01,
-4.17031e-01,
5.14170e-02,
-1.92200e-01,
-2.47399e-02,
3.21873e-01,
5.48720e-02,
1.38219e-01,
-8.63862e-03,
2.21917e-01,
2.79427e-01,
-1.24957e-01,
-4.01002e-01,
-5.84683e-03,
-1.96719e-01,
-1.10633e-01,
-5.03530e-01,
-2.78268e-01,
-3.26999e-01,
-4.20536e-01,
-4.99791e-01,
-2.74785e-03,
-5.95558e-01,
-2.47802e-01,
-4.93604e-02,
-2.94870e-01,
1.96781e-02,
-2.26843e-01,
3.23293e-01,
1.60880e-01,
-3.85993e-02,
-2.18260e-01,
2.69466e-01,
1.49888e-01,
-3.32400e-01,
2.42362e-01,
-7.57378e-02,
1.71473e-01,
-8.56460e-02,
-1.25595e-01,
-1.88447e-02,
-1.39528e-01,
2.91113e-01,
-3.87667e-02,
3.17320e-01,
4.04408e-02,
-4.07877e-01,
-4.29780e-02,
1.06694e-01,
1.60088e-01,
7.63025e-02,
-1.11567e+00,-9.24212e-01,-5.21843e-01,2.27323e-02,7.64513e-02,-2.03148e-01,-1.24612e+00,-2.92247e-02,2.85204e-01,-5.49943e-01,-3.53993e-01,8.93334e-02,-1.19152e-01,2.94783e-01,1.64017e-01,9.48537e-02,-2.60037e-01,-7.74066e-02,2.80068e-02,-3.39323e-01,-1.50651e-01,-3.90385e-01,-8.03271e-01,9.69518e-01,1.63560e+00,-1.24509e-01,1.29755e-01,1.63134e-01,-4.93884e-01,4.96601e-01,1.00821e+00,-3.35275e-01,1.91326e-01,-2.22625e+00,1.44244e-01,-2.65759e-01,-4.77522e-01,-4.94592e-01,-2.96343e-01,-3.11291e-02,2.39802e-01,3.08330e-01,4.20629e-01,3.69614e-01,5.89389e-01,5.31853e-01,4.89470e-02,1.09846e-01,-9.31205e-01,5.44055e-02,
-1.21398e-01,-4.05213e-01,2.43292e-01,-2.91933e-02,-8.47101e-01,-8.42337e-01,1.06679e-01,2.85579e-02,-6.63234e-02,1.73819e-01,-2.79849e-01,5.23405e-01,4.61819e-01,2.22627e-01,-5.87101e-01,-4.13447e-01,1.60326e-01,4.23738e-01,-5.68130e-01,2.76248e-01,2.21608e-01,-5.52037e-01,4.54840e-01,4.80679e-01,1.85779e+00,5.31883e-01,2.85567e-01,2.52668e-01,9.00915e-01,4.37710e-01,-2.42935e-01,-6.04633e-01,3.31655e-01,-5.55052e-01,1.61806e-01,-4.88937e-01,-3.74033e-01,-4.78184e-01,1.28812e-01,4.09970e-02,-1.63221e-01,-3.15749e-01,1.48650e-01,-1.15230e-01,3.02817e-01,-2.59453e-03,-8.06418e-02,3.95877e-01,-7.81536e-02,-3.25635e-01,
2.55425e-01,-3.55206e-01,1.50915e-02,7.63654e-03,-5.17180e-02,-1.62266e+00,6.34553e-01,-2.84366e-02,-1.31429e-01,-5.89723e-01,-5.43913e-01,3.88508e-01,-3.61329e-01,-2.86937e-02,-2.94656e+00,4.18793e-01,-4.52500e-02,4.39512e-01,2.89494e-01,2.84206e-01,-1.25437e-01,-1.94483e-01,2.64087e-02,2.58746e-01,8.98908e-01,7.93319e-01,-2.75876e-01,-2.08529e-01,2.14211e-01,-1.11874e-01,-2.37687e-01,3.55220e-01,-2.06831e+00,5.45592e-01,-1.70274e-01,3.13242e-01,4.69998e-01,1.07606e-01,-3.90260e-01,-3.77803e-02,-1.67377e-01,-5.10825e-01,-1.95352e-01,-2.65110e-01,3.04763e-01,-1.77925e-01,-1.15186e-02,-2.05079e-01,-1.27415e+00,1.42709e-01,
-4.94632e-01,8.86792e-02,2.24079e-01,-6.78392e-03,2.41130e-01,1.74595e-01,1.95138e-01,4.27811e-02,1.08037e-01,7.58411e-02,1.60908e-01,2.62804e-02,1.77655e-01,-1.80412e-01,3.74740e-01,-2.30513e-01,4.19912e-01,-2.42497e-01,-2.03776e-01,-9.92466e-02,1.93328e-01,1.56305e-01,1.94137e-01,2.51946e-01,2.31948e-01,9.17534e-02,-1.09476e-01,-7.28413e-02,5.29633e-01,4.57307e-01,-5.81660e-02,-4.26669e-01,6.17156e-02,1.75833e-01,-5.57575e-02,-5.44182e-01,7.59868e-03,-1.93684e-01,-1.93187e-01,-1.36793e-02,-2.01815e-01,-3.50419e-01,1.44773e-02,7.21098e-02,2.06395e-01,4.00212e-01,-6.53733e-03,2.94755e-02,-5.30678e-01,-1.26289e-01,
-1.23671e-01,5.93692e-02,2.19429e-01,4.88621e-04,1.98410e-01,-1.70342e-01,3.39243e-01,-1.74492e-02,1.98590e-01,2.00463e-01,-2.01564e-01,-1.09354e-01,1.27214e-01,-2.37207e-01,-6.21207e-01,1.31574e-01,-1.51541e-01,1.29752e-01,-1.77211e-01,-6.10406e-02,2.99564e-02,7.09891e-02,-1.13608e-01,1.67443e-01,3.35960e-02,-2.71121e-02,-1.27799e-01,1.44837e-01,3.16226e-01,9.76514e-02,1.75583e-01,-1.70273e-01,-8.29943e-01,-2.62929e-01,1.03182e-01,-9.54430e-03,8.62640e-02,-4.35628e-02,-2.08591e-02,4.19614e-02,1.66378e-01,-2.06254e-01,3.54959e-02,-6.04763e+00,1.87997e-01,-3.17443e-01,4.81589e-02,-7.32466e-01,-7.92240e-01,4.08546e-02,
4.41062e-02,4.59540e-01,-4.03575e-01,-4.21451e-02,-8.35876e-01,-3.28795e-01,6.33211e-01,3.60620e-02,-3.37264e-01,-2.83839e-01,-1.10316e-01,5.82623e-01,4.65985e-01,-7.02406e-02,2.18306e-01,8.76120e-02,-2.33192e-01,4.27661e-01,-4.15822e-01,4.72311e-01,3.33945e-01,-2.34405e-01,1.07753e+00,-1.15188e+00,-3.36440e-01,5.87548e-02,-1.17790e-01,-1.50581e-01,-5.97049e-03,5.21717e-01,-3.72696e-01,3.58526e-01,-3.21948e-01,-7.07722e-02,5.23507e-01,1.03017e+00,8.17639e-01,-1.96048e-01,3.39610e-02,2.53570e-02,3.32608e-01,-2.12904e-01,-8.82542e-01,5.07906e-01,-2.14869e-01,-5.93972e-01,6.15500e-02,2.15660e-01,4.87248e-01,5.06511e-01,
-1.96197e-01,-4.77503e-01,8.27628e-01,-6.74648e-03,2.93359e-01,3.75655e-01,9.07102e-02,-6.46256e-03,8.82188e-01,-1.16894e+00,-4.54953e-01,-8.66051e-02,-5.24841e-02,-4.85809e-01,-3.88264e-01,-2.22895e-01,-4.15524e-01,-6.54888e-01,4.67330e-01,-5.07028e-01,-1.03907e-01,3.90589e-01,-4.51621e-01,6.01997e-01,-1.16505e+00,-2.98286e-01,5.28098e-01,3.36203e-01,-1.66266e-01,-3.47155e-01,2.74898e-01,-4.44056e-01,-3.24392e-01,-1.47736e+00,1.31606e-01,-5.62101e-01,4.16793e-01,-6.42685e-01,7.30439e-01,2.10237e-02,-6.17721e-01,-1.11674e-01,-3.71215e-01,-6.65113e-02,-9.50708e-02,2.19279e-01,-3.57200e-02,2.26073e-01,9.52006e-01,-9.29131e-01,
-1.30345e-01,7.68783e-02,-4.80359e-01,-4.78774e-03,-3.39420e-01,3.65162e-01,2.81479e-01,-4.72457e-02,2.52139e-02,-2.54133e-01,-1.97754e-02,2.43903e-01,-1.63587e-01,-2.55565e-02,2.45448e-01,1.52969e-01,1.42135e-01,1.70693e-02,5.28602e-01,-2.60430e-01,-2.46387e-01,-3.05747e-01,2.01081e-01,-1.51220e-02,-8.68708e-01,1.52259e-01,-8.01945e-02,-2.73614e-01,-3.09842e-01,2.92317e-01,-4.92380e-01,-2.30601e-01,2.18440e-01,-5.18231e-02,-1.58493e-01,1.15801e+00,4.17384e-01,-1.32471e-01,8.55145e-02,1.56245e-02,2.03580e-01,-1.03074e-01,2.15027e-01,3.41963e-01,3.99532e-01,-2.55984e-01,1.79502e-02,3.75734e-02,3.98237e-01,3.59204e-01,
-8.57481e-02,1.12731e-01,1.26032e+00,-3.50801e-02,-4.52422e-01,-3.75701e-01,-1.37936e+00,3.89114e-02,5.88924e-02,2.12781e-01,-1.56719e-02,1.34919e-01,-1.14794e-01,-2.00170e-01,2.87014e-01,-5.86948e-01,-4.93018e-01,-6.66098e-02,-4.96720e-01,1.69261e-01,4.04585e-01,3.35834e-01,5.81398e-02,-1.33473e-01,-1.96355e+00,-2.05651e-01,3.52611e-01,2.83613e-01,-1.69080e-01,5.28938e-01,-2.22013e-01,3.03796e-01,-2.13419e-01,-1.23502e+00,-1.45577e-01,-3.41773e-01,-1.51190e+00,4.83625e-01,-1.38020e-01,2.30922e-03,6.23650e-01,-1.10195e-01,4.72171e-01,2.97488e-01,7.20733e-01,-3.59730e-01,2.81176e-02,1.94075e-01,3.97159e-01,-2.40811e+00,
2.94134e-01,-6.05437e-01,-1.27354e+00,1.81155e-03,2.20510e-01,4.57710e-01,-4.67186e-01,6.09080e-03,-1.20298e+00,1.58666e+00,-2.91212e-01,4.46454e-01,-1.07853e+00,2.42525e-01,-9.04002e-02,-7.88768e-01,3.30998e-01,-9.58550e-01,7.80519e-01,-5.21848e-01,5.09562e-01,1.57935e-01,7.34887e-02,1.17230e-01,-2.70925e+00,-6.53048e-02,4.85500e-01,4.19018e-02,1.90208e-01,-3.57628e-01,4.00670e-01,-8.38776e-02,2.12306e-01,-4.23635e+00,-4.19925e-01,-2.03731e-01,-1.16343e+00,-9.15899e-02,-3.28834e-01,4.82550e-02,2.91295e-01,-5.08761e-01,7.93955e-01,9.55291e-02,1.46480e+00,2.78590e-01,-3.41672e-02,4.69431e-02,1.00388e+00,-1.47470e+00,
9.92311e-02,-4.30119e-01,4.00532e-01,-2.15287e-02,-1.83414e-01,5.24186e-01,-1.95552e+00,-4.29011e-02,-6.41441e-01,7.34478e-01,-9.89886e-02,2.80977e-02,-2.24676e-01,-4.40443e-01,4.03481e-01,2.27227e-01,-6.84162e-02,6.87112e-01,-1.16769e-01,3.33780e-01,-6.78404e-01,-1.82480e-01,-2.42685e-02,-7.09660e-02,-1.70404e+00,-1.65616e-01,5.30172e-01,-5.17626e-01,-3.28224e-01,1.09269e+00,-1.74357e-01,2.37392e-01,3.57754e-02,4.99236e-01,4.81011e-01,8.94855e-02,-5.63760e-01,-3.15205e-02,8.20664e-01,1.00333e-02,-3.54314e-01,-1.07670e-01,-6.21159e-01,2.36161e-01,-1.54689e-01,9.34734e-01,-3.75930e-02,-9.37412e-02,4.03938e-01,-1.42391e-01,
5.30766e-03,-3.11475e-02,2.24259e-02,-2.71242e-02,-5.79354e-02,-3.15552e-02,1.62828e-02,-2.22532e-02,-4.06175e-02,3.22572e-02,-2.22164e-02,-2.57751e-02,-3.46684e-02,1.92582e-02,-3.92662e-02,-6.66863e-03,-1.06620e-02,-3.60657e-02,-1.57104e-03,-3.56055e-02,3.59536e-03,-2.67214e-02,2.01882e-02,-1.28641e-02,1.69483e-03,1.51714e-02,-2.74612e-03,-4.28810e-02,-3.09857e-02,1.09672e-02,-4.92148e-02,1.51370e-02,2.05830e-02,1.08023e-02,-5.84262e-02,3.21021e-02,-4.18656e-02,3.24012e-02,2.24548e-02,3.43768e-02,-1.16288e-02,-6.70756e-03,-2.66617e-02,-2.75672e-02,3.88113e-02,-4.54156e-02,-2.67391e-03,3.70520e-02,2.38590e-02,4.03198e-02,
3.40791e-01,1.83402e-02,-4.89585e-01,-4.19239e-02,-4.77794e-01,-1.49689e-02,1.41803e-01,4.70031e-03,-3.36467e-02,-3.97360e-01,2.03165e-01,-8.37313e-02,-3.23477e-01,8.24173e-02,6.91291e-02,3.07728e-01,-1.46436e-01,1.49991e-01,2.43744e-02,9.15558e-02,4.64940e-02,1.09300e-01,-3.82622e-02,-2.66802e-01,2.04218e-01,3.39609e-02,9.42121e-02,1.34660e-01,2.04907e-02,3.18411e-02,-5.04779e-01,-8.97111e-02,-2.38153e-01,-5.15390e-02,-6.28376e-02,8.45364e-01,-2.20498e-01,-2.67841e-02,2.24881e-01,1.50198e-02,1.54514e-01,-2.75692e-01,-3.34627e-02,2.09983e-01,2.99785e-01,-1.31455e-01,-2.66297e-02,3.03420e-01,-3.70618e-02,-1.35227e-01,
6.65874e-01,-3.61570e-01,-1.69192e-01,-1.24054e-02,6.92815e-02,-7.92737e-01,1.46476e-01,-1.63885e-02,-3.18385e-02,6.65039e-02,1.34378e-01,2.87822e-04,3.34083e-01,-1.53928e-01,1.70074e-01,-2.16515e-01,-5.95279e-02,-2.81240e-01,2.24742e-01,3.65594e-01,-1.73135e-02,2.22143e-01,-1.44765e-01,1.15874e-01,4.79516e-01,7.41812e-02,-1.68999e-01,-1.76403e-01,-2.08393e-01,-8.60884e-02,-2.14358e-01,-1.56958e-01,-1.93556e-01,6.76676e-02,-5.13446e-01,-1.05423e+00,5.51406e-01,2.30628e-01,-1.95059e-01,-3.20854e-02,-2.20516e-01,-6.11523e-02,-4.43625e-01,-2.83485e-01,1.63068e-01,-3.73794e-01,2.31277e-02,-4.20403e-01,-1.51948e-01,6.25152e-02,
3.15369e-01,2.58945e-01,2.98826e-01,-3.66406e-02,-1.56253e-01,-8.00468e-02,5.53757e-01,3.50265e-02,5.92998e-01,-3.18013e-01,1.57610e-01,3.17995e-01,4.77294e-01,-2.37742e-01,-2.40146e-01,-2.59195e-01,-2.07467e-01,2.88294e-01,6.81110e-01,-3.34067e-02,1.62485e-01,-4.59865e-02,1.70344e-01,3.90310e-01,-1.09384e+00,-1.18100e-01,3.76934e-01,-1.88790e-01,1.99212e-02,-2.77120e-01,4.55223e-01,7.41571e-01,5.68289e-01,-8.41637e-01,1.84550e-02,7.48049e-02,3.29404e-01,-2.02272e-01,3.72856e-02,5.52481e-02,1.58213e-01,5.11789e-01,-1.13669e-01,-7.38060e-02,7.27784e-01,3.87894e-01,-6.79783e-03,8.10932e-03,5.54404e-02,-3.48525e-01,
2.57612e-02,1.02117e-01,-1.77412e-02,-8.51322e-03,-8.84402e-02,-5.88315e-02,-2.23386e-01,-2.28069e-02,3.62796e-02,-1.20630e+00,3.35699e-01,2.01106e-01,-1.00712e-01,-3.69607e-01,1.27600e-01,-4.37630e-02,2.33779e-02,4.93595e-01,-1.90236e-01,1.01469e-01,9.84130e-02,-2.87753e-03,2.28583e-01,6.23959e-02,2.65456e-01,8.16016e-02,5.16831e-02,-2.41809e-02,-1.07058e+00,1.90783e-01,-6.41870e-01,4.39085e-01,-1.87219e-01,2.45317e-01,2.69395e-01,-1.83900e-01,1.21465e-01,-1.08769e-01,1.41138e-01,2.94065e-02,3.96639e-02,-5.17849e-02,-2.58029e-01,1.27141e-01,2.07323e-01,1.13757e-01,3.34365e-02,-3.77002e-02,5.34573e-02,-2.01602e-01,
-6.79130e-02,-3.36944e-02,-3.10222e-01,7.76935e-03,-4.90301e-01,-9.04862e-02,-3.26998e-01,1.04044e-02,-4.66168e-02,-7.38128e-02,-2.33949e-01,-4.00249e-01,1.74283e-01,-2.26456e-01,2.72419e-01,-5.59199e-01,-1.47493e-01,6.72224e-01,1.27142e+00,-4.74928e-01,3.46460e-02,2.43865e-02,-3.18798e-01,-3.12373e-02,7.25370e-01,-1.60079e-01,-7.69810e-01,-1.19881e-01,7.02632e-02,2.28940e-01,6.24298e-02,2.56805e-01,-2.80096e-03,3.54854e-01,2.78854e-01,1.00819e+00,9.02725e-02,5.56975e-02,3.14614e-02,2.87519e-03,-1.82454e-01,5.54078e-01,-1.26920e-01,3.00177e-01,4.98812e-01,-1.37050e-02,1.52419e-02,2.82353e-01,2.33212e-01,1.00237e-01,
-8.35135e-02,-2.72534e-01,2.92498e-01,5.23765e-02,-8.76994e-02,2.34577e-01,1.41944e-01,-9.62945e-03,4.13359e-02,-1.31069e-01,1.72312e-01,2.77707e-01,4.06533e-02,1.53176e-01,7.91714e-02,-1.51782e-01,3.14976e-01,2.88719e-02,5.57340e-01,4.82647e-02,-1.53112e-01,1.46776e-01,1.37053e-01,1.72124e-01,-4.68780e-01,-1.19783e-01,-2.59036e-01,-5.84669e-02,-2.15974e-01,1.32815e-01,1.86967e-01,1.21422e-01,2.16538e-01,2.35865e-01,1.06173e-01,4.29218e-01,6.80166e-03,5.95076e-02,-3.80620e-01,-2.33963e-03,3.72359e-01,-2.29928e-01,1.97647e-01,1.64200e-01,2.46757e-01,2.14199e-01,-2.38978e-02,-1.75029e-01,2.82963e-01,-2.30339e-02,
1.79629e-01,7.57313e-02,5.94635e-01,4.54307e-02,-2.44656e-01,3.48994e-01,-6.63720e-01,-5.30592e-03,-7.92782e-01,4.40051e-01,-2.65932e-01,4.97720e-02,-5.87911e-01,-1.59808e-01,-1.72279e-01,2.66236e-01,5.04870e-02,2.08791e-01,2.50533e-01,1.54715e-01,4.15180e-01,3.61905e-01,-2.24261e-01,3.68756e-01,-1.97308e-01,-1.10745e-01,-1.15428e-01,-5.10365e-02,-2.52066e-01,-1.04318e-01,-8.79689e-01,-7.79439e-01,2.21546e-01,-1.79288e-01,2.69265e-01,8.18491e-02,-1.02885e+00,2.73377e-01,-7.57544e-02,2.44488e-02,1.46812e+00,3.99909e-02,3.43637e-01,5.65080e-01,-1.28389e+00,-5.28213e-02,3.15673e-02,5.00070e-01,2.56493e-01,-1.13924e+00,
-1.34082e-01,3.18447e-01,-4.24598e-01,2.38298e-02,2.96525e-01,1.95813e-01,1.74555e-01,3.30678e-02,1.64681e-01,4.18133e-02,-9.50669e-02,-2.90655e-01,6.26053e-02,6.79066e-02,-8.50193e-02,-2.97022e-01,-8.73810e-03,-4.52933e-01,4.23838e-02,-1.04612e-01,1.54484e-01,5.51009e-02,-2.34872e-01,1.93896e-01,-1.40509e-01,-9.60992e-02,6.07357e-02,-3.19198e-02,1.44843e-01,-5.15422e-01,2.12072e-01,4.19848e-01,7.56576e-02,3.05646e-01,2.71110e-02,-4.05871e-01,6.55650e-02,-6.33197e-02,-1.90582e-01,5.14050e-02,1.12757e-01,2.88474e-01,1.54190e-01,-5.75955e-01,-8.99327e-02,2.28742e-01,3.05025e-02,-1.37907e-01,-5.64132e-02,6.57967e-03,
2.50548e-01,1.84436e-01,-6.58575e-01,-2.64567e-02,-7.63518e-01,7.58345e-01,6.18636e-02,-2.28862e-02,-1.16457e-01,-3.34853e+00,2.68928e-01,-2.81749e-01,1.48070e-02,-3.70348e+00,3.86696e-02,-2.13821e+00,1.00974e-01,8.19138e-01,4.92749e-01,-4.86539e-01,-2.22376e-01,4.56159e-01,5.88569e-01,3.78613e-01,4.54563e-01,2.18674e-01,-2.58326e-01,2.30965e-01,3.31267e-01,3.79396e-01,-2.99002e+00,9.40980e-01,3.86678e-01,-1.11798e+00,-3.59612e-01,-5.41144e-01,-3.75493e-02,-2.21623e-02,-3.80892e+00,-3.30908e-02,2.04541e-01,1.17877e-02,2.60062e-01,6.67959e-02,-7.93861e-01,-5.96338e-01,5.91316e-02,-3.92301e-03,-1.87846e+00,1.76189e-01,
-1.66167e-01,1.90947e-01,-3.01647e-01,-7.77869e-03,-3.96834e-01,-2.14605e-01,-1.08747e-01,-4.16353e-02,-2.10825e-01,3.03263e-01,1.61531e-01,5.93838e-01,1.43770e-01,-9.95274e-02,-2.13868e-01,-3.59632e-01,1.92818e-01,1.36675e-01,8.82288e-01,2.47914e-01,3.65008e-01,-2.85573e-01,5.00172e-01,-4.05599e-02,2.92725e-01,9.27529e-02,-3.14210e-01,-2.87837e-02,-2.39062e-01,1.36721e-01,-1.18922e-01,5.33723e-02,4.21272e-01,1.04842e-02,5.49217e-01,5.64992e-03,-1.70276e-01,-3.67338e-01,-6.86154e-03,-1.40322e-02,-7.26686e-02,1.37049e-01,1.83317e-01,-8.22562e-02,4.79409e-01,-1.81569e+00,-2.76924e-02,-3.91128e-01,2.34765e-01,-2.42392e-02,
-3.71604e-01,-1.36710e-01,-9.08936e-01,-3.10290e-02,-1.09554e-02,-2.26855e-01,-3.35686e-01,-4.10026e-02,-1.29539e+00,-9.70182e-02,3.19162e-01,5.50257e-02,-7.75378e-01,4.96124e-01,-3.84060e-01,-3.92832e-01,1.86564e-02,8.26111e-02,-9.95574e-01,8.93940e-01,3.03680e-01,-4.10258e-01,1.90913e-01,-4.67783e-01,1.14452e+00,9.40061e-02,-6.04779e-01,6.51228e-02,4.52790e-02,-3.47195e-02,-5.08403e-01,7.85607e-02,-5.02178e-02,1.07685e+00,-2.13968e-01,2.11149e-01,-9.09682e-01,1.24339e-01,-1.09930e+00,-3.98935e-02,-5.14367e-01,1.93556e-02,1.73690e-02,3.09484e-01,7.46934e-01,-7.37938e-02,1.41961e-02,-3.37710e-01,-1.01969e+00,6.37405e-01,
5.48709e-02,-6.73731e-02,2.39545e-01,7.90127e-03,-1.08436e-01,-6.47922e-01,2.76205e-01,-1.75978e-02,-5.11814e-02,-2.38456e-01,-7.14688e-01,1.53290e-01,2.72853e-01,-2.10426e-01,8.73560e-01,-4.10298e-01,-2.85917e-01,7.37193e-01,-5.75498e-01,1.53224e-01,2.69487e-01,-3.44167e-01,-3.30903e-01,-7.11287e-02,1.79431e-01,-1.28136e-01,1.12304e-01,2.24696e-01,7.53913e-02,-1.37312e-01,5.81337e-01,-1.74616e-02,2.78344e-01,-4.31497e-01,6.26824e-01,2.84565e-01,5.45120e-01,-9.96689e-02,9.44674e-02,-5.60005e-02,-4.88009e-01,-2.48924e-01,-2.69006e-01,1.74357e-01,-7.12004e-02,1.45627e-01,-5.64135e-02,-2.87847e-01,-1.87157e-02,-4.49965e-01,
-4.34099e-02,3.49426e-01,-1.07648e+00,-4.02311e-02,-1.76856e-01,-2.81570e-02,5.00907e-01,2.02017e-02,-9.97694e-01,-8.13256e-02,-1.65555e-01,-3.88715e-01,-5.21065e-01,1.10553e+00,-1.53189e-01,1.53275e-01,-1.50636e-01,-3.31853e-01,-1.16703e+00,8.45231e-01,5.45270e-01,-5.53128e-01,3.47943e-02,-4.20575e-01,9.62291e-01,-8.38790e-02,-6.29453e-01,1.53768e-02,9.34452e-02,-2.02004e-01,-2.14424e-01,-8.49704e-02,5.93292e-02,9.41564e-01,9.64312e-02,5.73978e-01,-9.82898e-01,3.70974e-01,-9.23479e-01,2.41428e-02,-8.51556e-01,-2.08564e-01,1.18930e-01,2.69970e-01,8.14475e-01,-3.88304e-01,2.46233e-02,-5.33935e-02,-9.21659e-01,7.43091e-01,
4.09560e-01,5.10886e-01,-3.70975e-01,-1.74272e-02,-1.46072e-01,6.10216e-02,6.58489e-02,-1.69842e-02,4.29152e-01,3.90887e-01,5.34865e-01,-3.30813e-01,-1.23444e-01,1.03739e-02,4.92153e-01,-6.63076e-01,-4.02602e-01,1.70273e-01,-2.17121e-01,6.42494e-03,2.66934e-01,-2.94740e-02,-4.32666e-01,1.11979e-01,2.92608e-01,-2.85191e-01,-6.80256e-03,3.40233e-02,-7.54906e-02,2.40362e-01,3.13551e-01,4.14655e-02,2.46827e-01,1.07732e-01,-3.33002e-02,7.03030e-01,-2.54844e-01,4.12440e-02,3.25466e-02,4.92028e-02,-2.46598e-01,2.58838e-02,2.17350e-02,-2.57739e-01,2.33642e-01,-2.37672e-01,3.42919e-02,4.87823e-02,3.75481e-01,2.85747e-01,
1.54144e-01,-1.34453e-02,1.51586e-01,2.33927e-02,1.83418e-01,-3.79659e-01,-5.03427e-02,1.16881e-02,-1.51776e-01,-1.85915e-02,-2.72974e-01,8.73877e-02,-3.85001e-01,1.15704e-01,-9.50918e-02,-6.16893e-02,-5.87760e-01,1.30473e-01,1.21154e-01,-9.40648e-02,-2.94899e-01,-5.59934e-02,-3.07793e-01,-1.67408e-01,-4.04347e-01,-2.49459e-02,1.42098e-01,-7.62738e-02,-1.68796e-01,-5.59908e-01,1.03072e-01,3.31334e-01,1.47371e-01,-7.30157e-03,-4.18789e-01,-1.66093e-01,1.45485e-01,-4.52718e-02,1.64271e-01,2.86586e-02,1.40985e-01,5.00406e-01,3.36067e-02,-2.51485e-01,6.62955e-03,-5.36153e-01,-5.35927e-02,-3.86728e-01,1.46336e-01,2.70880e-02,
-1.03797e-01,-8.28939e-02,-8.15057e-02,8.52497e-03,-5.90020e-04,7.64761e-01,4.61024e-01,3.85594e-02,-2.24413e-01,-1.55540e-01,3.55425e-01,2.10901e-01,6.61224e-01,1.38499e-01,-3.92327e-01,-5.18912e-01,5.12088e-03,1.41022e-01,6.61295e-02,6.23628e-02,-2.57312e-01,7.54663e-02,-3.23314e-01,-1.41474e-01,-1.60521e+00,1.00825e+00,-2.38690e-02,8.86809e-02,-2.18015e-01,-9.48722e-01,-5.80404e-02,-7.87043e-02,4.13612e-01,-3.88459e-01,2.38599e-01,4.70575e-01,5.65274e-02,-1.08720e-01,-7.81622e-02,-3.05494e-02,8.49811e-01,4.43795e-01,-4.71077e-01,-1.38403e-01,-3.07763e+00,-3.69640e-01,2.79097e-02,2.21814e-01,1.35782e-01,-1.27430e-01,
3.24649e-01,-2.39028e-01,-2.67763e-01,1.41379e-02,-1.07799e-01,1.97929e-01,3.10476e-01,4.97710e-02,-2.64248e-01,-1.86109e-01,-9.91434e-02,2.08869e-01,-3.26482e-01,-6.88020e-02,4.96011e-01,-4.03633e-01,1.97038e-01,8.45222e-02,-5.93487e-01,1.65431e-01,3.59768e-01,-1.08011e+00,3.87894e-02,-4.01564e-01,-2.65499e+00,3.33851e-01,-2.15595e-01,-3.07639e-01,2.26585e-01,4.96817e-01,-5.67021e-01,-4.48388e-01,1.75359e-01,-2.26091e-01,3.36130e-01,-1.36353e-01,-1.77014e-01,-3.58417e-02,1.42499e-01,-1.41246e-02,-4.07267e-01,-1.44282e-02,9.79606e-02,1.87984e-01,3.49906e-01,1.61637e-02,-2.08952e-02,3.54715e-01,-3.98276e-01,1.87371e-01,
-2.91874e-01,8.17463e-02,5.09188e-02,-2.18952e-02,4.39522e-02,-1.19479e-01,-2.69701e-02,2.88643e-02,5.32480e-02,3.97283e-01,6.50742e-03,-6.49618e-02,-1.78130e-01,-1.69145e-02,2.65213e-01,-1.00093e-01,-6.28581e-03,1.43480e-01,-9.07279e-02,6.23432e-02,2.97975e-01,-1.18240e-02,-2.12266e-01,9.29677e-02,2.90293e-01,-1.69038e-01,5.29603e-02,-9.29691e-02,1.52239e-01,-1.59369e-01,1.17714e-02,1.98817e-02,-3.60759e-01,5.35729e-02,3.62769e-01,4.33863e-01,1.72061e-01,1.65209e-01,2.50466e-02,-5.38282e-02,-1.07437e-01,-3.49692e-01,2.13878e-01,-2.60226e-01,-4.02445e-01,-2.30272e-01,5.51450e-02,-2.80124e-01,1.27434e-01,1.84189e-01,
6.80158e-02,-1.65352e-01,5.95138e-01,-3.59657e-03,2.32169e-01,-8.52028e-01,-4.06126e-02,3.19116e-02,8.87319e-02,-1.30435e-01,-3.30798e-01,4.36514e-01,9.54326e-02,-4.91327e-01,7.52771e-03,-4.48448e-02,4.55716e-02,5.21730e-01,-2.06450e-01,2.91122e-02,-3.98743e-02,4.84851e-02,-3.03023e-02,-2.27562e-01,-1.97022e-01,1.40558e-01,-9.95859e-02,-1.40410e-01,3.15773e-01,-1.63172e-01,4.25214e-01,-7.09791e-01,-7.09289e-01,-6.30197e-01,7.88549e-02,-4.89067e-01,4.21626e-01,1.62756e-02,1.15934e-01,9.68816e-03,-6.22968e-01,1.43751e-02,4.07246e-01,-2.22195e-01,2.20347e-01,1.04309e-02,3.85083e-02,-3.41979e-01,-5.62181e-02,1.84402e-01,
-2.61607e-01,-4.15022e-01,2.45252e-02,1.78876e-02,3.98782e-02,5.34731e-01,4.49080e-01,-4.88862e-02,-1.70441e-01,-2.22366e+00,3.89874e-01,-4.71439e-01,-2.19399e-01,-2.33301e-01,-1.11862e-01,1.60169e-01,7.66099e-03,-5.74652e-01,-5.13602e-01,2.42542e-01,-1.88972e-01,-3.09639e-01,-1.95103e-01,1.10048e-02,-5.24393e+00,-1.00134e-01,1.36479e-01,3.17559e-02,1.36710e-01,2.57832e-01,-1.47349e+00,2.02880e-01,4.99729e-01,9.76045e-01,1.46385e-02,2.18345e+00,-1.21091e+00,2.57452e-01,-2.12999e-01,-4.44280e-02,7.71251e-02,-8.61186e-01,-3.60239e-01,8.20624e-01,9.34429e-01,-5.82602e-01,5.69461e-02,4.17861e-02,-2.57175e-03,1.20593e-01,
1.25750e-01,2.16469e-01,-1.09633e+00,1.27066e-02,5.26502e-02,-1.65158e-01,-1.41211e-01,-3.17105e-02,-5.64955e-01,3.72840e-01,-2.64064e-01,-3.46648e-01,-2.84000e-01,4.24100e-01,1.13159e-01,-3.77386e-02,-2.57758e-01,2.49625e-01,-5.80880e-01,5.95095e-01,2.76125e-01,-5.75305e-01,1.84920e-01,-2.13454e-01,4.63659e-01,2.52581e-02,-4.94345e-01,-3.99306e-02,1.78579e-01,3.54284e-01,-1.76448e-01,9.05205e-02,-2.18688e-02,9.02687e-01,-9.34694e-02,2.83830e-01,-4.49546e-01,4.17910e-01,-1.04768e+00,4.97602e-02,2.05118e-01,3.26210e-02,-4.17287e-01,3.86074e-02,-4.03433e-01,-4.54814e-01,-1.56190e-02,6.22669e-03,-7.99873e-01,9.41713e-01,
-1.59282e-01,2.24026e-01,-4.58511e-01,4.78135e-02,3.71571e-01,-9.79367e-03,1.07193e-01,-1.96049e-02,8.44559e-01,5.15815e-01,1.14647e-01,-8.60748e-01,1.56286e-01,2.08697e-01,2.33523e-01,-5.28369e-01,9.15196e-02,-5.86710e-01,-2.76729e-01,-2.90316e-01,2.93296e-01,3.90302e-01,-3.25336e-01,5.73310e-01,-6.92417e-02,-2.52277e-01,6.97107e-02,2.24869e-01,3.21296e-01,1.57833e-01,4.86368e-01,1.60590e-01,-2.90440e-01,1.29555e-01,-6.20460e-02,4.29379e-02,3.35707e-01,-3.67443e-01,-2.96579e-01,-3.44835e-02,1.29243e-01,-7.29393e-01,2.80763e-01,6.71788e-01,4.03648e-01,-1.61494e-01,-3.71028e-02,3.84863e-01,-2.04356e-01,1.61771e-01,
-9.88838e-03,-4.87100e-02,-1.28672e-02,1.93328e-02,-4.75255e-02,1.49405e-02,-3.08483e-02,4.34067e-02,-1.30028e-02,-3.81377e-02,3.82285e-02,1.65445e-02,-5.34618e-02,-4.43736e-02,3.12904e-02,1.96066e-02,-1.28619e-02,-3.50552e-02,-2.14158e-02,1.43426e-02,2.21579e-02,1.38044e-02,-1.96252e-02,4.24343e-02,-1.25905e-02,2.85525e-02,-3.70238e-03,-2.41230e-02,8.68957e-03,2.27053e-02,-2.58692e-02,-1.12635e-03,2.64183e-03,-1.79285e-03,-3.43519e-02,1.27990e-02,-2.79352e-02,-2.69281e-02,-3.17992e-02,-3.94214e-02,-3.15397e-02,-5.63501e-02,-8.93910e-03,-2.12499e-02,-1.38371e-02,-3.46668e-02,-2.98142e-03,2.50683e-02,-3.06751e-02,-4.64686e-02,
-1.79499e-01,-4.71350e-02,-1.16986e-01,5.39063e-02,7.42503e-01,3.72923e-02,2.83603e-01,3.68533e-02,4.26412e-01,1.76974e-01,9.04055e-02,-5.77990e-01,4.34188e-01,8.16559e-02,3.77462e-01,1.11309e-01,-1.79792e-01,-2.72789e-01,-4.81402e-02,-4.13521e-01,8.19556e-02,1.76582e-01,-2.73924e-01,4.31197e-01,1.09346e+00,2.85289e-03,8.01196e-02,-8.73081e-02,4.92548e-01,1.92878e-01,-6.09350e-03,2.14003e-01,-2.34542e-01,-2.27970e-01,3.28237e-01,-8.54461e-02,3.39725e-02,9.11353e-03,-1.17150e-01,-2.93268e-02,3.15902e-01,2.51872e-01,2.60229e-01,7.34776e-01,-3.12839e-01,4.12751e-01,-8.34513e-03,4.75969e-01,-3.03299e-01,-1.35963e-02,
-2.22943e-01,3.00067e-01,-1.58605e-01,3.93572e-02,-2.50445e-01,-1.71459e-01,-2.96109e-01,2.21599e-02,-8.97602e-01,6.00238e-02,5.02512e-01,2.43823e-01,-1.74590e-01,-3.51397e-01,3.35492e-01,-4.58670e-02,4.41709e-01,2.76818e-01,2.18616e-01,1.48740e-01,-1.38318e-01,-3.70593e-01,-6.72220e-01,4.07953e-02,-1.18530e-01,1.59030e-01,-4.97386e-01,-2.19300e-01,2.83762e-01,5.91541e-01,-4.86088e-01,-3.85581e-01,5.54908e-01,-7.63945e-01,3.22823e-01,2.81891e-01,3.44496e-02,-1.49084e-01,1.27069e-01,-3.10267e-02,8.73916e-01,-1.13486e-01,-1.22216e-01,5.29651e-01,8.81858e-01,-1.01296e-01,-2.10686e-02,1.18207e-01,-8.08997e-01,7.09936e-02,
1.97196e-01,-6.47325e-02,-8.63545e-03,2.48093e-02,1.03314e-01,3.29481e-01,-1.61635e-01,1.96735e-02,-1.35439e-02,-6.78508e-01,-3.39518e-01,2.17910e-01,5.44303e-02,1.27107e-01,-3.94109e-01,1.15107e-01,-3.09561e-01,-5.26905e-02,-7.29137e-02,-1.50505e-02,-6.87291e-02,-1.65615e-01,3.05981e-01,-2.43883e-01,-4.03958e-01,2.95377e-01,-3.64800e-02,2.42885e-02,5.25839e-03,-3.11460e-01,2.02306e-01,5.60228e-01,-2.91072e-01,2.81651e-01,-1.77661e-01,-4.50698e-01,2.10752e-01,1.46855e-01,1.05022e-02,-3.75936e-02,-3.98405e-02,5.41476e-02,-7.49951e-02,-1.99247e+00,-4.50967e-01,5.70159e-01,-7.72326e-02,-6.80222e-01,-4.12128e-02,-4.61817e-02,
3.07000e-02,-4.65150e-03,2.76481e-03,1.93530e-02,-2.63297e-02,-4.86930e-02,-4.24930e-02,-3.64753e-03,-2.87253e-02,-4.53594e-02,2.37063e-02,-1.17023e-02,1.62227e-02,3.84917e-02,8.54050e-04,-2.86232e-02,2.63864e-02,-3.72681e-02,-2.87162e-02,-4.70095e-03,-3.39617e-02,-3.72421e-02,3.14946e-02,8.66006e-03,3.51785e-02,-9.68061e-03,3.19969e-02,-5.48056e-02,1.18120e-02,-1.52276e-02,4.16022e-02,-5.50644e-02,-6.81912e-02,-8.63937e-03,-3.34762e-02,2.14819e-02,-2.68146e-02,2.72578e-02,-3.34247e-02,-4.01226e-03,8.43693e-03,-4.28930e-02,1.28737e-02,2.61622e-02,-1.66866e-02,-5.49583e-02,3.93163e-02,-4.74006e-02,3.27741e-02,-2.39599e-02,
1.11277e-02,2.05708e-01,-2.44589e-01,-4.67162e-02,2.05461e-01,-1.35820e+00,4.68444e-01,-2.96803e-02,2.93480e-01,4.25489e-01,-4.67600e-01,-9.72756e-02,1.22291e-01,4.42754e-01,1.14617e+00,-2.00584e-01,-2.62280e-01,-9.26687e-03,-4.42739e-01,3.29669e-01,2.43212e-01,-3.68575e-01,-5.18193e-01,1.11212e-01,7.52075e-01,-1.09683e+00,-2.21392e-01,1.95526e-01,4.60176e-02,1.24536e+00,4.11100e-01,3.76785e-01,7.20396e-03,-3.57600e-02,-6.93162e-02,8.52729e-01,3.31769e-01,-3.40950e-01,-9.57218e-02,-8.74901e-03,-6.91932e-01,-5.84087e-01,6.42117e-01,-2.50212e+00,9.58248e-01,3.76896e-01,1.73554e-02,-1.07535e-01,-9.11042e-01,1.15407e-01,
-2.22114e-01,-7.64163e-02,-2.13553e-01,-3.41556e-02,2.74514e-01,8.68725e-01,3.67113e-01,-1.28813e-02,-6.62072e-02,-2.47146e-02,1.09002e-01,-3.42896e-01,-3.13945e-02,3.28870e-01,-3.11120e-01,3.67826e-01,1.22939e-01,-5.75472e-01,1.33133e-01,-2.97707e-01,-1.20448e-01,1.11090e-01,-2.59696e-01,-1.98905e-03,-1.15629e+00,-3.60486e-01,3.80501e-02,1.17957e-01,3.99095e-01,1.96665e-01,7.10153e-02,-1.31891e-03,2.44557e-01,-3.38867e-01,-1.86020e-01,6.88083e-02,-1.76749e-01,-1.54764e-01,-7.62934e-02,5.15319e-02,-4.05805e-01,5.64175e-02,2.49299e-01,2.25402e-01,-2.95215e-02,-2.33956e-01,-4.80004e-03,2.26196e-01,-2.60837e-01,2.65282e-01,
-2.29184e-01,-2.85046e-01,2.94696e-01,-2.71374e-02,-3.98500e-01,-2.49560e-01,-2.77626e-01,-5.14744e-02,-5.40279e-03,-6.86030e-01,-1.01727e-01,-8.97867e-02,-2.06334e-01,-3.37046e-01,3.40354e-01,4.79719e-02,1.99694e-01,4.09783e-01,-3.46913e+00,3.90314e-02,-4.94998e-02,-4.78782e-02,7.05345e-02,-7.10744e-01,-6.56121e-01,1.37492e-01,-1.85144e-01,-2.01781e-01,-3.53229e-02,-2.65971e-01,-2.03945e-01,-3.25964e-02,-2.46523e-01,5.42399e-02,2.34492e-01,5.08368e-02,4.16635e-01,-2.92140e-02,3.62419e-01,-4.52845e-02,-1.45256e-01,4.76715e-01,-7.99330e-01,1.55122e-01,1.21274e-01,-2.05801e-02,1.28937e-03,2.54844e-01,-3.68903e-01,3.37231e-01,
-8.46123e-01,5.12168e-01,-7.47198e-01,-2.52148e-02,-3.21388e-01,-1.14557e+00,4.97767e-01,-3.98549e-02,7.50473e-02,6.63272e-01,-2.71022e-01,-1.32961e-01,3.64410e-02,7.44655e-02,2.24208e-01,-6.76698e-01,2.25782e-01,-9.77179e-02,5.58365e-01,2.50985e-01,2.14085e-02,-5.50790e-02,-3.59501e-01,5.59946e-01,-8.65660e-01,1.36502e-01,-1.04132e-01,6.38714e-01,-3.56373e-01,2.76619e-02,-4.14534e-01,6.21372e-01,-2.89691e-01,7.31317e-01,-2.71312e-01,-3.59415e-01,2.61428e-01,-2.18150e-01,1.14124e-01,-4.76220e-02,-3.94432e-01,-8.49835e-02,-3.94754e-01,-4.53740e-02,-1.55693e-01,1.05832e+00,1.94112e-03,3.28222e-01,-1.05247e-01,3.29014e-01,
8.29948e-02,-1.67614e-01,3.46297e-01,8.47016e-03,2.03361e-01,1.32534e-01,-1.52683e-01,1.58116e-02,-1.49302e-01,-4.68059e-01,4.20623e-02,5.99946e-02,1.27481e-01,-9.30517e-02,-6.21913e-01,3.84050e-02,-9.36553e-02,-2.69666e-01,-1.50362e-01,-1.79126e-01,-3.45478e-02,-2.62965e-01,1.91376e-01,-2.85369e-01,-2.69184e-01,5.64497e-01,3.45653e-02,-7.85579e-02,-3.47121e-01,1.58322e-01,1.06481e-01,2.70506e-01,-1.91886e-01,1.23643e-01,-9.31396e-02,-4.14623e-01,1.51791e-01,8.88726e-02,1.18608e-01,-4.11667e-02,5.67392e-01,2.99101e-01,-4.08705e-01,-1.93652e-01,5.20076e-01,3.15848e-01,-2.44567e-02,-2.52879e-01,2.80579e-01,-1.71268e-02,
9.11557e-02,-5.47415e-01,1.30509e-01,1.32520e-02,7.58857e-02,-1.24863e-01,-1.56364e-01,-4.48324e-02,3.03428e-01,5.47164e-01,1.95203e-01,-1.58623e-01,1.99864e-01,-3.40756e-01,1.70978e-01,-4.33052e-01,-5.46965e-02,5.65591e-02,4.82539e-01,-9.03257e-02,-1.03119e-02,3.67297e-02,3.09609e-01,2.28564e-01,-2.98951e-01,2.30437e-01,-9.94885e-02,-2.51507e-01,3.27979e-01,3.03743e-01,3.20911e-01,-4.85288e-01,-1.15492e-01,-1.28986e-01,1.54139e-01,7.43428e-01,1.37849e-01,-1.14223e-02,-7.23271e-02,4.03887e-02,-4.84259e-01,-2.79603e-01,-3.27815e-01,4.78768e-01,4.02284e-03,7.08367e-01,1.44230e-02,-1.06965e-01,-4.72192e-01,-2.27972e-01,
2.43818e-01,-3.23775e-01,-1.12439e-01,6.58753e-03,-1.37223e-02,-1.61872e-01,1.30241e-01,-1.05583e-02,-2.89345e-02,2.16796e-02,-1.60181e-01,1.02641e-01,-2.29748e-01,-2.11951e-01,4.12168e-01,1.46267e-02,-1.34601e-01,1.03062e-01,-1.12504e+00,-9.04068e-03,-2.13137e-01,-5.65706e-02,-5.86474e-01,-9.24267e-02,-1.33012e-01,3.01176e-01,-2.21790e-01,-2.72284e-02,4.28315e-01,1.57923e-01,-8.68767e-01,-5.81235e-01,-2.07209e-01,-6.94544e-01,1.85184e-01,1.06931e-01,7.04068e-02,-1.28816e-01,2.61701e-01,9.46990e-03,-3.71559e-01,2.66082e-02,-7.89469e-02,-1.64530e-01,-2.44125e-01,3.71823e-01,-4.92261e-04,-7.77141e-02,-1.15772e-01,5.02693e-02,
-8.48944e-02,-1.24903e-01,-2.18115e-01,1.16348e-02,3.04155e-01,-7.44258e-01,1.16014e-01,-3.20132e-02,2.23272e-01,1.13909e-01,-6.64880e-02,-6.74163e-01,3.37196e-01,1.73753e-02,1.37930e-01,-2.13494e-02,-1.64003e-01,-2.26265e-01,-2.09987e-01,-2.52276e-01,-2.37082e-01,7.37833e-02,-1.53267e-01,1.27749e-01,4.21327e-01,2.72644e-02,1.18742e-02,3.49084e-01,-1.33257e-01,5.13594e-01,-5.53239e-02,2.06278e-01,3.32216e-01,-7.92793e-02,-1.13183e-01,2.60698e-01,-6.28589e-02,4.22551e-02,-9.57186e-02,-3.92288e-02,-1.02858e-01,-3.15596e-01,2.19218e-01,-3.12974e-01,-5.35124e-01,-1.07682e-01,-1.95647e-02,3.99039e-01,-6.98240e-02,7.13915e-02,
-1.69124e-01,1.59363e-01,1.92828e-01,2.94966e-02,-3.56597e-01,4.89914e-01,-4.75839e-02,1.00973e-02,-2.63982e-01,4.79850e-02,7.38515e-02,2.25111e-01,-2.35421e-01,-5.04665e-02,-1.37731e-01,4.84036e-02,2.02712e-01,-6.32112e-02,-5.60750e-01,1.56932e-01,-2.32491e-02,-2.30654e-01,1.32397e-01,-1.68474e-01,-7.39100e-02,-3.89707e-03,-7.18729e-02,-3.07430e-01,5.85222e-02,1.37184e-01,1.93003e-01,1.26458e-01,6.56714e-02,-1.12331e-01,-3.12002e-02,2.63963e-01,-2.20400e-01,-8.09829e-02,1.69129e-01,-3.93625e-02,-3.49966e-01,1.09288e-01,1.35931e-01,3.69831e-01,-2.73495e-01,-5.95026e-02,4.35805e-02,4.01500e-02,1.48238e-01,-3.91311e-02,
-6.06568e-01,-6.18622e-02,5.25360e-01,-1.05789e-02,5.26847e-01,-6.40969e-01,-2.69247e-01,-2.10231e-02,7.82180e-01,-2.43890e-01,3.98795e-01,-8.64196e-01,-1.62693e-01,-2.96564e-01,2.75922e-01,6.43985e-01,-5.46982e-01,5.56624e-01,-2.74998e-01,-5.36362e-01,1.17457e-01,2.67504e-01,-1.20120e-01,6.60573e-01,6.99859e-01,1.62610e-01,1.31526e-01,1.88250e-01,4.02820e-01,-6.01479e-02,1.42887e-01,-4.11078e-01,-1.80479e+00,-6.27262e-01,2.10611e-01,2.74535e-01,1.90885e-01,-2.69150e-01,2.44038e-01,-1.62641e-02,1.53888e-01,-8.85213e-02,-2.30945e-01,-1.60691e-01,-1.22294e+00,-4.67280e-01,-8.33652e-02,1.95699e-01,-1.37659e-01,5.33523e-01,
-5.73967e-01,3.27195e-01,1.68477e-01,2.66032e-02,-7.59656e-02,1.42731e-01,9.85501e-02,2.76260e-02,-1.07390e-01,-3.11167e-01,-7.88453e-01,5.69246e-01,-7.81176e-02,1.04419e-01,-4.81999e-02,5.62910e-03,5.89964e-01,-4.72562e-01,6.53389e-01,1.30788e-01,-1.04506e-01,-3.91426e-01,5.12033e-01,-2.32807e-01,-1.27891e+00,-1.05564e-01,3.97051e-01,-3.16932e-01,-9.11916e-03,-2.61190e-01,3.74384e-01,-2.41628e-01,1.76749e-01,-1.15999e-01,-6.20049e-01,-3.21013e-01,-1.32767e-01,-2.42824e-01,6.70327e-02,4.97738e-02,5.33481e-01,7.96422e-01,5.23439e-02,-1.47667e-01,-2.05536e-01,4.37272e-01,-1.30882e-04,-6.41538e-01,-3.63006e-01,-1.64041e-01,
-3.80714e-01,
7.69237e-01,
1.12942e-01,
-2.98996e-01,
-1.37694e-01,
-2.20087e-01,
-6.67924e-02,
-1.03572e-01,
-4.38194e-01,
-1.97092e-01,
-2.34353e-02,
-1.31679e-02,
2.95812e-01,
2.06774e-01,
-8.25669e-01,
-1.48973e-01,
-1.21241e-01,
-1.64738e-01,
-5.28072e-01,
2.46094e-01,
1.11023e-01,
8.86637e-02,
4.47465e-01,
4.99511e-02,
4.77865e-01,
-1.71527e-01,
3.38030e-01,
-3.18321e-01,
-3.02984e-01,
7.48341e-02,
-7.16897e-02,
-6.88290e-01,
4.36629e-01,
-9.86028e-01,
-7.02441e-03,
-6.75674e-01,
-4.72779e-01,
7.66563e-01,
