// Neural Network File Format by Kyle Julian, Stanford 2016
7,5,5,50,
5,50,50,50,50,50,50,5,
0,
0.0,-3.141593,-3.141593,100.0,0.0,
60760.0,3.141593,3.141593,1200.0,1200.0,
19791.091,0.0,0.0,650.0,600.0,7.5188840201005975,
60261.0,6.28318530718,6.28318530718,1100.0,1200.0,373.94992,
-2.22855e-01,1.30501e+00,-1.30661e+00,8.28063e-02,3.05915e-02,
1.95194e-02,4.62198e-01,5.15122e-01,-4.68222e-01,1.92038e-01,
3.30779e-02,-1.61683e-01,1.66124e-01,-1.87362e-01,-1.31829e+00,
-2.30620e+00,-1.58867e-02,-1.73714e-02,-1.87201e-03,6.73971e-03,
5.32321e-03,1.77680e-01,-2.07813e-01,-1.04244e+00,9.35431e-01,
-1.76766e-03,-2.21671e-01,2.20767e-01,-9.26404e-01,3.16601e-01,
-3.80532e-02,-7.81352e-02,-1.51946e+00,3.94449e-02,-1.43626e-03,
2.41963e-03,5.09587e-02,-4.81859e-02,-1.42910e+00,-1.59826e+00,
6.65798e-03,2.31007e-04,1.92621e-03,-9.27014e-03,-9.72813e-03,
-1.20577e-01,8.77886e-01,-1.06810e+00,1.05590e-01,3.65287e-01,
-9.16869e-03,2.46555e-01,-7.01472e-01,2.02283e-01,-3.38841e-01,
5.83856e-05,3.25542e-01,-3.60677e-01,-8.49961e-01,-9.09871e-04,
2.59845e-02,8.28467e-01,4.91010e-01,-7.61007e-01,3.13165e-01,
5.62117e-03,7.34265e-03,1.44727e-02,6.35832e-01,-5.06283e-01,
5.97610e-01,-1.15129e-01,7.71688e-03,-2.66453e-02,2.45971e-01,
-8.92237e-02,1.56760e-01,-2.69978e-01,-3.17830e-01,-1.63959e+00,
9.44171e-04,-5.33830e-02,-2.16776e+00,1.82082e-02,-8.50468e-03,
-1.34592e+00,1.40203e-02,6.07954e-02,-2.87676e-01,1.39013e-01,
8.72316e-02,2.19117e+00,-5.57755e-02,7.53797e-02,-8.91723e-02,
-1.21924e+00,1.85313e-01,-1.12762e-01,-1.87675e-01,-3.10770e-01,
1.45827e-02,-8.17472e-02,8.69302e-02,8.49197e-02,-1.45664e+00,
-4.22156e-02,-2.40999e-01,3.35812e-01,4.23451e-01,-1.31228e+00,
4.69477e-02,-2.55701e+00,3.84445e-02,1.27178e-02,-6.93992e-03,
-2.91299e-03,8.27701e-03,-3.32315e-03,1.30001e-02,1.47425e-03,
-1.58783e-02,-2.72880e-01,1.71706e-01,-1.37680e+00,-2.62433e-01,
-5.44462e-02,1.76671e-01,-2.69726e-01,-1.25792e+00,-1.72680e+00,
-3.40124e-01,-8.45291e-01,8.66384e-01,1.38625e-01,-4.13012e-01,
-1.39791e-03,1.68592e-02,-6.85928e-04,1.03780e-02,-2.67887e-03,
-1.34465e+00,-6.32641e-03,-3.17836e-02,-1.57953e-01,-3.48036e-01,
-3.15217e-01,-1.64075e-01,-3.40793e-02,-7.02048e-01,1.90682e-01,
-2.30043e-02,-2.85947e-01,3.26761e-01,-1.81977e+00,-2.76022e-01,
-1.33189e+00,-2.80779e-01,3.94929e-01,1.57406e-03,-2.42678e-01,
8.49639e-02,-1.36872e+00,1.37381e+00,-1.32048e-02,-1.16034e-02,
-4.03845e-02,1.24091e+00,1.20103e+00,5.09267e-01,-2.62368e-01,
-9.00330e-02,-7.32492e-01,-8.06438e-03,-6.38924e-01,-3.32632e-01,
5.68498e-03,-8.26344e-03,-1.35485e-02,-8.04313e-01,-1.19133e+00,
-2.16748e+00,1.11483e-01,-1.11406e-01,6.85279e-03,8.27154e-03,
4.35869e-01,9.24209e-01,5.17794e-01,9.65043e-02,-1.16430e-01,
-1.53745e-02,5.76013e-04,2.13445e-03,1.18427e-02,-1.94059e-02,
9.23904e-03,6.13580e-02,-7.37718e-02,-4.98909e-01,-1.52993e+00,
-1.13619e+00,8.88219e-02,-6.96679e-03,4.20608e-02,1.36811e-02,
8.52650e-02,1.52453e+00,-9.67213e-01,1.05327e-01,-2.69480e-01,
-9.95590e-03,2.72448e-01,-1.70777e-01,-5.17710e-01,-1.52048e+00,
-1.20532e-02,-5.83115e-01,-5.33420e-01,-2.43926e-01,1.31444e-01,
-3.68668e-02,-2.29680e-01,2.47007e-01,8.86779e-01,-1.09375e+00,
-2.90000e-02,-1.59411e+00,1.97804e+00,-2.61063e-01,3.51247e-01,
-1.67219e+00,9.43753e-02,8.06309e-01,-1.35352e-02,8.38431e-02,
5.02803e-02,-1.01415e-01,1.16926e-01,-1.17835e+00,-3.55472e-01,
7.38240e-01,-9.84287e-01,4.11015e-01,-9.79869e-02,-2.04225e-01,
1.24115e-01,-7.31443e-01,-6.59550e-01,1.53762e-01,-6.78359e-02,
-4.97040e-01,
5.10209e-02,
-3.38024e-01,
-6.03275e-01,
9.33015e-02,
-4.80102e-01,
1.47400e-01,
-1.49482e-01,
-1.73349e-02,
-8.10528e-02,
1.33444e-01,
-1.91930e-01,
-1.90037e-01,
5.08148e-01,
2.59246e-01,
-4.31840e-01,
6.29194e-02,
-3.66229e-01,
7.66321e-02,
-3.37852e-01,
3.56543e-01,
-2.61251e-01,
-2.05228e-02,
-1.88352e-02,
-4.16597e-01,
-6.40702e-01,
1.47881e-01,
-2.32312e-02,
-4.86526e-01,
-2.73053e-01,
4.07871e-01,
-3.25931e-01,
-4.44535e-01,
-2.21766e-01,
-1.07116e-01,
-8.53633e-01,
-3.17863e-01,
2.05267e-01,
-2.38780e-02,
6.16819e-01,
1.47966e-02,
-1.52100e-01,
-4.65798e-02,
-2.38390e-02,
3.82644e-01,
-2.65257e-01,
-4.48097e-01,
-5.69333e-01,
9.49498e-02,
8.35462e-02,
7.43474e-02,3.48913e-02,3.83724e-03,2.57409e-02,1.61647e-02,2.94717e-02,-1.59822e-01,5.01063e-02,1.63896e-02,8.64163e-02,5.38781e-02,-1.73238e-02,5.64005e-02,-6.54154e-02,-1.17018e-01,2.80864e-02,-1.28177e-01,1.00930e-03,-6.38997e-02,-1.05688e-02,6.62010e-02,6.55012e-02,-5.41877e-02,3.06306e-02,1.66597e-02,-1.01189e-02,6.18475e-02,2.22269e-02,9.77097e-02,4.46877e-02,-1.82621e-02,5.06108e-02,7.03313e-02,5.08476e-02,6.20451e-03,2.76687e-03,5.54589e-02,-1.80075e-01,-1.91519e-03,-1.15868e-01,-7.84876e-03,-8.91096e-02,1.51156e-02,3.11699e-02,3.15233e-02,-1.18532e-02,5.36645e-02,-1.63301e-02,-1.61304e-01,3.63894e-03,
4.60455e-01,4.90599e-01,1.21004e+00,9.45960e-02,-4.26633e-01,-6.05293e+00,-2.12018e-01,1.80756e-01,-2.23158e-02,-4.69087e-01,4.24982e-01,-3.36333e-01,-4.22036e-01,3.56473e-01,9.25176e-02,4.22636e-01,-6.20029e-01,4.85119e-01,3.76607e-01,6.64446e-01,1.96880e-01,-5.78411e-01,-1.89733e+00,-2.11718e-02,-5.56913e-01,1.53857e-01,-8.13067e-01,3.58938e-02,3.65945e-01,6.19590e-01,-9.00998e-02,-9.22418e-01,1.49521e+00,1.21370e+00,5.56072e-01,-3.02561e-01,-2.15064e-01,5.24145e-01,-1.26570e-02,-3.87831e-02,-1.86266e-02,1.15297e-01,1.23673e-01,1.30923e+00,-3.69650e-01,-5.74570e-01,-7.29691e-02,5.37303e-01,-9.41332e-01,4.42247e-01,
1.44462e-01,5.08270e-01,-5.49128e-01,-2.48088e-01,-2.44884e-01,4.54739e-01,-3.31695e-01,-3.94786e-01,-4.88972e-02,-2.44612e-01,1.39504e+00,-2.42056e+00,3.64954e-01,-1.69829e-01,-1.39880e+00,-1.35406e+00,-9.57828e-01,8.02023e-01,-4.19859e-01,-7.50690e-01,-2.37793e-01,-7.21440e-01,3.12918e-01,3.96828e-02,-3.97144e-01,-2.94062e-02,1.69305e-01,1.40746e-02,9.11564e-01,6.07367e-01,1.81362e-01,6.73271e-01,4.74022e-01,2.26879e-01,2.37861e-01,-1.39766e+00,1.99667e-01,-1.48570e-01,-5.28945e-02,9.18903e-02,-2.37790e-01,1.30470e+00,7.50175e-01,3.82279e-02,-1.00665e-01,-2.97456e-01,1.03827e+00,5.62731e-02,4.30581e-01,6.03263e-01,
-9.47186e-04,-1.04462e-02,8.59017e-03,-3.00492e-03,1.53479e-02,-2.71853e-02,8.51758e-04,-1.64430e-02,-5.43604e-02,9.71356e-03,-2.05084e-02,-3.87743e-02,-5.35509e-02,1.54361e-02,-6.40837e-02,1.96601e-02,-3.64097e-02,-2.06101e-02,-3.38499e-02,2.08810e-02,1.28339e-02,-3.57225e-02,2.33604e-02,-9.34526e-03,3.88090e-02,6.01614e-03,1.70287e-02,1.08875e-02,5.63050e-03,-4.87548e-02,-4.39776e-02,-3.78121e-02,-2.00115e-02,1.09877e-03,1.56605e-02,4.00562e-02,2.47458e-02,-5.16843e-02,5.31225e-03,-4.78018e-02,6.08787e-03,2.59697e-03,-1.54344e-02,1.23073e-02,-3.90416e-02,1.14215e-02,-3.62680e-03,3.72876e-02,-3.37704e-03,-5.98091e-02,
1.53145e-01,2.20586e-01,1.73967e-01,4.77309e-01,-1.82774e-01,1.37574e+00,3.77828e-01,5.05644e-01,4.12686e-02,-3.28241e-01,-7.28384e-02,-2.47414e-01,-7.34049e-01,-5.83035e-01,-1.28301e-01,6.38177e-01,-1.10216e+00,-8.48195e-01,1.07583e+00,3.11213e-01,-8.79533e-02,4.35697e-01,-4.34191e-01,-9.94801e-03,-1.10556e+00,-2.25805e-01,-3.43385e-01,5.02629e-02,-2.83262e-01,3.69579e-01,-1.11157e-01,-8.67714e-03,-3.71984e-01,-7.82583e-02,-3.23970e-01,1.49075e+00,3.28133e-01,2.30681e-02,-9.44081e-03,2.89220e-02,3.47284e-01,-4.02086e-01,-3.31069e-01,1.11776e+00,5.89903e-01,-5.31414e-01,1.25369e-01,2.65873e-01,1.18615e-01,2.66153e-01,
4.69740e-01,2.21328e-01,-2.03233e-01,8.35583e-01,8.03386e-01,-9.06826e-02,7.16151e-01,3.73288e-02,5.29954e-02,6.28843e-01,-1.27776e-01,-1.70209e-01,-6.13676e-02,-3.24207e-01,-9.40933e-01,7.04358e-01,2.90356e-01,2.99129e-01,5.56071e-01,4.07280e-02,-5.38360e-01,5.02274e-01,-2.78207e-01,-2.72373e-02,2.74143e-01,-7.76945e-01,-1.87949e-01,5.61079e-02,4.44271e-01,-5.96290e-01,-8.66723e-01,4.12270e-01,5.30689e-01,-2.08805e-01,-1.28660e-01,-8.50887e-01,9.92558e-01,-3.74314e-01,4.71122e-02,1.05998e+00,9.27785e-01,3.53372e-01,4.31322e-02,-1.48242e-01,-8.41441e-02,1.05555e-01,-1.55800e+00,1.27272e-01,5.67696e-01,1.22026e-02,
1.24276e+00,2.11513e-02,-6.62542e-01,1.05611e+00,-3.87485e-01,-7.51537e-01,-5.41748e-01,4.74565e-01,2.28218e-02,-1.44640e-01,-6.02194e-01,-4.73520e-01,2.23307e-01,-2.54457e-01,-1.26539e-01,-6.22098e-01,-4.40206e-01,3.95987e-01,-4.44367e-01,-1.48637e-01,3.19213e-01,1.94308e-01,-7.16867e-02,-3.14088e-02,-1.23754e-01,7.60667e-01,3.04127e-01,-3.04440e-02,-3.39452e-01,-1.73049e-01,3.51202e-01,6.75338e-01,-2.23511e-01,-2.15584e-01,-8.24828e-01,-8.71922e-02,9.95514e-02,-1.23506e-02,-1.17972e-02,-4.59565e-01,-2.02196e-01,7.02212e-01,-4.34634e-01,3.63986e-04,5.05910e-02,-1.29547e-01,4.94883e-01,-3.72089e-01,-4.32804e-02,4.57905e-02,
-9.81761e-01,3.22693e-01,6.57560e-02,4.51752e-02,2.87380e-01,3.55506e-02,4.33438e-01,3.76559e-01,2.75467e-02,-9.39204e-01,1.83407e-01,3.81675e-01,-1.80482e-01,-2.25118e-02,-4.09709e-03,-1.32502e+00,4.79481e-02,4.09966e-01,6.11302e-01,-1.82444e-01,-9.53872e-01,-2.13368e-01,-4.09424e-01,-6.62932e-04,-1.24096e-01,5.22200e-01,-1.22086e+00,-3.34848e-04,1.97560e-01,1.80427e-01,4.02520e-01,9.33833e-02,-1.50257e+00,4.73427e-01,2.81672e-01,-6.43972e+00,-1.27883e-01,2.00110e-01,-1.96684e-02,2.46590e-01,-3.66335e-02,-1.69135e+00,-6.35535e-01,8.41716e-01,2.31118e-01,-9.57190e-01,1.16206e-01,1.54702e+00,-2.52413e-01,3.53796e-01,
-2.11528e+00,4.20411e-01,7.56112e-01,-7.82452e-01,5.50958e-02,1.65836e-01,-1.19170e+00,-2.48333e-01,1.91962e-02,8.41946e-02,-1.65258e+00,-1.28740e+00,6.18012e-03,2.12956e-01,-2.80868e-01,-2.17579e-01,-6.15023e+00,5.16723e-01,6.36598e-01,-3.64931e-01,-3.82082e-01,7.15047e-01,-2.68380e-02,4.80014e-03,5.09363e-01,-4.81271e-01,-9.92192e-01,1.61831e-02,1.59252e+00,2.32059e-01,1.97152e-01,-6.70416e-01,-7.00981e-01,1.14259e+00,3.17016e-01,-9.52230e-01,1.23965e-01,2.28191e-03,-2.89454e-02,3.00386e-01,-1.87123e-01,-1.14267e+00,-8.82578e-02,-1.32800e+00,1.22823e-01,2.94184e-01,-3.37718e-01,1.32421e+00,-1.03328e+00,1.81378e+00,
-2.93494e-01,5.85061e-01,-3.13363e-01,-1.65117e-01,-5.89732e-02,-4.15223e+00,2.40983e-01,-7.45027e-01,3.81074e-02,1.35417e-01,3.03529e-01,8.13392e-01,-3.29677e-01,-5.99063e-01,-1.23476e-01,2.14489e-01,-6.28006e-02,3.28347e-01,-9.00041e-03,-2.21739e-01,1.30475e+00,-6.14755e-01,-4.50048e-01,-4.40586e-02,-1.74212e-01,-4.02300e-01,1.67939e+00,-3.88320e-02,-1.08042e+00,1.57808e-01,4.47475e-01,-9.01491e-02,4.33518e-02,4.54089e-01,1.57986e-01,-1.20571e+00,-1.33419e-01,1.81919e-02,-3.57881e-02,-9.34503e-01,7.19506e-02,4.95676e-01,1.05207e+00,-2.37528e-01,-6.54222e-01,-1.45307e+00,-1.05384e-02,7.75239e-01,-1.56561e-01,2.45935e-01,
3.56759e-01,1.45586e-01,1.05178e-01,1.56059e+00,2.31285e-01,1.97182e+00,7.62362e-01,-1.85351e-03,-2.51258e-02,-1.19090e+00,-4.83196e-01,-4.49136e-01,-4.22089e-01,-2.20065e-01,-3.93541e-02,1.99390e-01,-3.02461e-01,7.63650e-01,2.46053e-01,9.00259e-01,-2.67936e-01,-1.21766e-01,3.74314e-01,8.10859e-03,3.37847e-01,8.27105e-02,2.26285e-02,-3.67926e-02,-2.91717e-03,2.86755e-01,-2.49299e-02,6.46824e-01,1.64832e-01,1.43892e+00,9.87195e-01,9.01146e-01,1.35471e+00,-3.86516e-01,-1.36904e-03,9.80489e-02,5.07925e-01,1.16082e-01,-3.74904e-01,2.24735e-01,-1.37206e-01,-2.12596e-01,1.35497e+00,2.35767e+00,-3.15921e-01,3.34655e-01,
-1.69325e-01,5.74565e-01,-7.44395e-01,-5.63513e-01,-7.54365e-02,-5.07093e-01,-1.15949e-02,1.55459e-01,3.25127e-02,3.90778e-02,9.86670e-02,-6.28934e-03,2.53791e-01,-9.67387e-04,2.49329e-01,3.48485e-02,-1.08187e-01,4.23690e-02,6.02105e-02,-4.85149e-01,4.84508e-01,2.84551e-01,4.11847e-02,7.66561e-03,-6.94424e-02,2.75916e-02,5.90266e-01,-4.48188e-02,8.85263e-01,5.83406e-01,1.76267e-01,-3.59456e-01,1.25278e+00,-4.10462e-02,-1.30906e+00,-2.28147e+00,3.51514e-01,3.45397e-01,4.81972e-02,1.65354e-01,-2.20525e-01,1.00409e+00,-1.23186e-01,1.58155e+00,-1.38381e+00,-1.37628e-01,4.70806e-01,2.60657e-01,-7.47862e-02,-1.38093e-01,
6.01583e-01,-1.84965e-01,6.31718e-01,4.29804e-01,4.25197e-03,8.69653e-01,6.93709e-02,6.47021e-01,5.83353e-02,-7.13708e-01,-7.82675e-02,-9.06490e-01,-5.24607e-01,2.25726e-01,-1.22467e-01,4.88522e-02,-3.98361e-01,6.94789e-02,-1.47680e-01,-2.52111e-01,5.56718e-02,-4.31855e-01,-3.35983e-01,-2.89213e-02,-7.76647e-01,5.39930e-01,3.29598e-01,-2.84291e-02,3.55091e-01,3.84073e-01,-1.01201e-02,-1.78952e-01,8.09381e-01,-2.61928e-02,-3.99859e-01,1.55235e+00,7.77489e-02,4.30953e-01,4.92346e-02,5.02366e-01,-9.44788e-02,4.49699e-02,-8.63028e-02,2.29139e-01,-7.70634e-01,-8.62808e-01,2.53225e-01,9.98156e-01,-2.04929e-01,2.47137e-01,
1.31802e+00,2.35413e-01,-3.88465e-02,-1.36403e+00,-6.55468e-01,-1.07470e+00,-2.85940e-01,1.33273e-01,-1.29857e-02,-1.22304e-01,1.05273e+00,6.02869e-01,-1.01838e+00,-5.22660e-01,7.00722e-01,8.78083e-01,-2.49067e-02,-4.62911e-01,-1.62701e+00,4.38466e-01,-2.07379e-01,1.05784e+00,-7.36282e-01,-6.09682e-03,1.82606e-01,5.86289e-01,4.63922e-01,-3.16477e-02,-1.40139e-01,1.98077e+00,-2.23769e-01,5.92365e-01,5.13937e-01,1.12475e-02,4.34757e-01,1.62624e+00,-1.79137e-01,6.67513e-01,-1.96147e-02,-2.82723e-01,1.94569e-01,-1.04293e-01,8.99505e-02,1.02515e-02,-3.32458e-02,-2.17129e-01,4.08885e-01,-2.20378e-01,2.52692e-01,-3.74386e-01,
2.43130e-01,-2.07803e-01,5.70427e-02,2.33406e-05,-1.09953e+00,-1.20801e+00,-1.72831e+00,-6.67557e-01,2.68872e-02,6.14065e-03,1.02663e-01,-2.84950e+00,2.14244e-01,-6.18953e-01,-1.24577e-01,1.78830e+00,-3.38045e+00,4.17387e-01,-1.56644e+00,-2.62059e-01,1.61177e+00,-3.58464e-01,6.42354e-01,-3.17501e-02,5.49012e-01,-5.51183e-01,5.00761e-01,2.91079e-02,1.20522e-01,-7.60161e-01,-3.38427e-01,-1.42119e-01,1.59575e+00,-5.55492e-01,1.54781e-01,1.93768e+00,4.23052e-01,-2.86363e-01,-4.17591e-02,-9.31601e-01,-1.22873e-01,-1.11902e+00,5.81701e-01,-5.22005e-01,3.04554e-01,1.37928e+00,2.05176e-01,-3.26935e-01,7.49051e-01,-4.75025e-01,
7.04351e-01,-8.30528e-02,-1.90942e-01,-7.54874e-01,1.05495e-01,-7.94931e-01,-9.58570e-02,-4.82847e-01,3.04455e-02,3.50745e-01,-2.03545e-01,-1.77343e+00,4.15675e-01,-1.28107e-01,4.74972e-01,6.70738e-02,-8.93014e-01,4.61489e-01,5.67857e-01,2.22203e-01,3.96616e-01,-1.01552e+00,4.04993e-01,-2.49252e-02,5.30981e-01,3.47441e-01,8.10420e-01,8.84995e-04,8.92442e-02,-2.19528e-01,2.31622e-02,-3.46097e-01,-5.79716e-01,1.92518e-01,-1.26766e-01,3.34379e-01,-2.36498e-01,-6.40787e-01,1.44461e-02,-1.16192e-01,-1.87001e-01,9.00774e-01,3.76554e-01,3.08563e-01,-5.16386e-02,2.75390e-01,2.05628e-01,4.24322e-01,3.74291e-01,4.10904e-01,
2.11952e-01,-4.43270e-01,6.31230e-02,1.52658e-01,-1.51516e-01,8.63653e-01,-9.66183e-03,3.11793e-02,-4.03620e-02,-4.28703e-02,-5.67702e-01,2.81474e-01,2.67906e-01,-5.21879e-01,1.38160e+00,-1.91717e-01,3.52486e-02,1.18541e-01,5.33029e-01,-2.38153e-01,6.98832e-01,5.76590e-02,1.37051e-01,-4.72462e-02,3.16530e-01,-9.47029e-02,2.79214e-01,-4.91347e-02,-6.33551e-01,-3.69119e-01,-9.62251e-01,-4.26627e-01,-3.18424e-01,3.73415e-01,7.17271e-01,-9.49930e-01,-2.19954e-01,1.07473e-01,-1.63750e-02,5.54784e-01,-1.65587e-01,-1.60714e-01,-6.33570e-02,-1.94843e-01,-7.42602e-01,-4.98874e-01,6.51862e-01,1.03077e+00,-4.63880e-01,3.72162e-01,
2.89084e-01,4.41240e-01,-3.46459e-01,2.34269e-01,-3.52654e-01,6.25144e-01,5.42242e-01,-2.69478e-01,5.35913e-03,-2.98790e-01,1.84557e-01,4.54447e-01,1.17371e+00,-2.43642e-01,-4.48756e-01,2.60109e-01,-8.96489e-01,5.18977e-01,-3.58028e-01,-1.74644e-01,2.06401e-01,3.55038e-01,1.86954e+00,-1.38588e-02,1.37263e+00,-1.10612e-01,-1.50776e-01,6.45324e-03,8.46665e-01,-4.65570e-01,2.15630e-01,4.09067e-01,8.13619e-01,5.83939e-01,9.46629e-01,-1.24677e+00,7.68015e-02,-6.67373e-01,6.25130e-03,-1.21040e-01,1.69130e-02,1.21836e+00,-2.93492e-01,4.14109e-02,-1.70663e-01,-4.93116e-01,-1.22330e-01,1.62278e+00,3.60320e-01,5.33212e-03,
1.45586e-01,3.14958e-01,-7.04482e-01,1.09411e-01,1.41440e-01,1.29657e+00,2.21330e-01,2.27656e+00,-1.05347e-02,-5.12503e-03,-3.95322e-01,2.29421e-01,1.32839e-01,1.29443e-01,9.20828e-02,-2.51601e+00,-9.57483e-02,2.80065e-01,-4.99450e-01,-4.33034e-02,-2.41013e+00,-6.69718e-01,1.55736e-01,-1.65125e-02,-1.15098e-01,4.65358e-01,-8.90092e-02,1.39525e-02,-3.98924e-01,1.95815e-01,2.17562e-02,-9.98875e-02,4.08396e-01,2.41359e-01,1.31236e-01,-2.51335e-02,-5.00730e-02,4.52189e-02,1.10342e-02,-2.57497e-01,-4.49465e-02,5.33531e-01,2.71252e-01,5.42495e-02,6.04731e-01,1.31558e-01,2.59173e-02,5.55127e-01,-1.88491e-02,4.26835e-03,
-6.02294e-01,-3.26032e-01,-4.04920e-01,4.49024e+00,5.10585e-02,-7.63869e-02,-5.80279e-01,-1.15949e-01,2.96803e-02,2.12901e-01,-1.34225e-01,5.05308e-02,-1.40476e-03,3.59807e-01,-6.49602e-01,2.79114e-02,6.30499e-01,4.53656e-01,-2.42082e-01,6.71868e-01,-6.57672e-02,5.90502e-02,8.05050e-02,4.08082e-02,2.71244e-02,-6.05549e-02,8.88447e-01,2.32821e-02,1.42225e+00,3.67850e-01,1.82549e-01,1.53856e-02,-5.58832e-01,-1.46695e-01,-6.21925e-02,-1.00225e+00,1.78062e+00,-1.90172e-01,-4.99435e-02,-1.77046e-01,1.27231e+00,8.61375e-02,4.85996e-02,-2.86103e-01,-2.82313e-01,4.65417e-01,7.90506e-01,-1.97057e-01,-7.79637e-02,-2.36559e-01,
2.84242e-01,6.98819e-01,-8.57630e-01,3.65995e-01,5.96920e-02,-5.07571e+00,1.99710e-01,3.82035e-01,1.82159e-02,-3.51187e-02,-9.76688e-02,5.78339e-01,5.21252e-01,-4.01780e-01,1.22421e-01,1.85939e-01,4.58684e-01,1.38328e+00,4.22591e-01,1.29692e-01,1.25525e-01,3.36282e+00,-1.68671e-02,-3.42804e-02,8.61363e-01,1.20341e+00,-6.03828e-01,-1.42520e-02,-5.39912e-01,5.05922e-01,-2.83054e-01,7.10981e-01,-1.17698e+00,1.37546e+00,7.92601e-01,-1.81777e+00,4.00993e-01,-3.98054e-01,1.88672e-02,-2.15284e-01,-5.30819e-01,-6.67915e-01,-7.65410e-02,-3.56072e-01,-7.67400e-01,2.14158e-01,-1.31107e+00,3.24951e-01,-5.04392e-01,-8.62070e-02,
7.63796e-01,-2.51126e-01,1.98680e-01,2.67919e-01,4.26995e-02,-2.14587e+00,2.41524e-01,-4.72620e-01,-7.54632e-03,4.79065e-01,1.94860e-01,3.22330e-01,-6.62571e-01,-4.99084e-01,5.47534e-01,1.32384e+00,2.58457e-01,-4.50212e-01,6.80532e-01,-1.83525e-01,2.44445e-01,-3.88541e-01,1.45839e+00,3.11147e-02,1.60506e-01,-7.38885e-01,3.57051e-01,2.48322e-02,-2.10269e-01,3.83236e-01,-3.22040e-01,3.68698e-01,-1.22253e-01,-2.64196e-01,-4.03832e-01,1.22672e+00,8.93325e-02,-1.04780e-01,6.99475e-03,3.20939e-01,-2.07622e-01,9.76174e-01,4.61182e-01,-2.39519e-01,6.13414e-01,2.77008e-01,-1.29500e-01,-1.66389e+00,-3.48181e-01,-4.11636e-01,
3.80308e-01,-3.36236e-01,1.24252e+00,7.54314e-01,2.31708e-01,2.73243e+00,2.87285e-01,1.71422e-01,-2.58749e-02,-7.00997e-02,8.44013e-01,-1.46600e-01,-6.23572e-01,-2.60774e-01,4.58964e-01,2.84694e-01,-2.88410e-02,-1.09993e+00,-2.69204e-01,-2.17675e-01,1.57111e-01,-2.01257e-01,-4.95457e-02,-5.52104e-03,-1.11689e+00,-2.76794e-01,7.12138e-01,-4.27537e-02,1.39786e+00,6.85935e-02,-2.10427e-01,1.31245e+00,2.42396e-01,-4.85485e-01,8.91458e-02,5.16743e-02,1.40870e+00,3.09079e-01,-2.12684e-02,1.20032e-01,1.30939e-01,-1.92489e-01,-1.30856e-01,-3.75974e-01,7.13320e-02,-6.36239e-01,4.39080e-01,-1.54389e-01,-3.17886e-01,-6.00808e-01,
-6.11499e-01,2.06988e-01,-6.01723e-01,-7.78615e-01,-5.31188e-01,-9.94516e-01,6.54848e-01,5.61730e-01,3.44295e-02,-6.19576e-01,-3.84281e-01,-2.56058e-01,3.08469e-01,3.69916e-01,-1.75731e+00,-1.52757e-02,3.19861e-01,2.61584e+00,6.16644e-01,-4.35950e-01,-9.80791e-01,1.64308e+00,1.17658e-01,1.90507e-03,-8.14989e-01,2.56211e-01,-4.86142e-01,-1.35986e-02,1.27709e-01,2.87941e-01,9.77569e-01,-9.65031e-01,-4.45739e-01,5.56283e-02,-1.46614e-01,1.24339e+00,1.23281e+00,-9.30589e-01,-7.81518e-03,-3.66962e-01,4.89395e-01,-6.43701e-01,-6.10941e-01,-7.64749e-01,-3.16042e-01,-7.35604e-05,-1.32388e-01,3.81683e-01,4.03177e-01,6.73283e-01,
8.59860e-03,7.31290e-01,5.94671e-01,1.32079e+00,-1.57160e-01,8.21886e-01,1.13701e+00,3.84051e-01,-3.11481e-02,-1.13815e-01,1.40674e-01,-7.66005e-01,2.54915e-01,2.20625e-01,-4.85263e-02,2.91821e-02,6.08161e-01,-4.52659e-01,-4.01411e-01,-3.11405e-01,3.35213e-01,9.52323e-01,7.38739e-01,1.01961e-02,-5.82666e-01,-1.47348e-02,-7.60353e-01,-2.39374e-03,-2.06322e-01,-4.19015e-01,-1.03847e-01,-6.72848e-01,-6.34281e-02,3.29407e-01,2.31862e-02,1.48570e-01,7.18473e-01,-3.39315e-01,-2.94838e-03,6.75320e-02,3.14547e-02,-1.51507e+00,-2.52314e-01,-2.60596e-03,-5.40215e-01,-5.38117e-01,-1.24598e+00,1.75267e-01,-3.73199e-02,1.57207e+00,
8.39095e-01,3.13852e-01,1.35551e+00,-2.88082e-01,-5.51777e-01,-2.41236e+00,-2.64724e-01,-1.16322e+00,-4.59979e-02,4.30574e-02,-5.99843e-01,7.60211e-01,7.42988e-01,-2.36551e-01,-2.33347e-01,1.48767e-01,-2.35431e+00,5.90165e-01,-2.93666e-01,-1.42699e+00,8.08018e-01,-1.08318e+00,1.73800e-01,-4.06500e-02,1.82013e+00,5.06793e-01,-1.68692e-01,4.98164e-03,1.79193e+00,-1.66399e+00,-3.53886e-02,-4.40538e-01,-1.17630e-01,1.27704e-01,4.73632e-01,-2.10799e-02,1.23751e-01,-6.48207e-02,-3.68330e-02,-6.69382e-02,1.89229e-03,7.85529e-01,-9.35587e+00,-1.88577e-01,2.84580e-01,-1.51192e-01,1.65624e-01,2.93195e-01,1.72223e-01,-2.19637e-01,
-1.77529e-02,-1.74793e-02,-3.55447e-02,1.01063e-02,-2.39631e-02,-4.21984e-02,2.61256e-02,5.44308e-03,3.02550e-02,3.56173e-02,-1.34721e-02,2.54569e-02,-5.27396e-02,-3.96357e-02,-4.04858e-02,-1.33140e-02,-5.16007e-02,-8.54126e-03,-3.09390e-02,-1.96408e-02,-4.51345e-03,1.74356e-02,1.89922e-03,-2.11135e-02,-3.06873e-02,1.49246e-02,-5.02907e-02,-4.79255e-02,2.29746e-02,2.17170e-02,-3.56463e-02,-3.42800e-02,1.33098e-02,1.54599e-02,-2.46663e-02,-2.95671e-02,4.97741e-03,3.41552e-02,2.19040e-02,-5.01791e-02,1.23944e-02,-4.26844e-02,1.93989e-02,3.92994e-02,6.61089e-03,2.24326e-02,4.06463e-02,-2.51753e-02,-2.46449e-02,1.09167e-02,
-6.70925e+00,5.91619e-01,2.99560e-01,3.13570e-02,-2.77476e-02,1.66145e+00,-1.70088e-01,-4.51570e-02,3.37201e-02,-1.35575e+00,-8.66490e-01,4.21498e-01,-6.48534e-01,-2.91643e-01,-2.41676e-02,1.64250e-01,-2.15284e+00,1.19804e-01,-1.88022e-01,1.07252e-01,4.25444e-02,-1.59825e+00,5.04881e-01,1.52825e-02,-2.52176e-01,-5.12507e-01,6.28978e-01,-4.33725e-02,1.29957e+00,-9.86903e-01,-5.37018e-01,-1.76780e-01,5.41636e-01,3.96131e-01,6.72002e-01,-3.44876e-01,1.06261e+00,-7.98145e-02,-1.38551e-02,-9.47578e-02,1.13957e+00,-5.44467e-01,3.36207e-01,3.60319e-01,-1.19703e-02,-2.78165e-02,3.02880e-01,1.07380e-01,-7.72181e-01,-4.77455e-01,
-1.27771e+00,-7.23381e-01,-1.29841e+00,-9.79213e-02,-6.66204e-01,-4.22168e-01,-6.09656e-01,-6.75433e-01,1.94043e-02,8.53829e-01,2.13735e+00,-2.57625e+00,-5.12216e-01,4.52280e-01,-3.23433e-01,1.73957e+00,2.39115e-01,3.83256e-03,-8.45811e-01,2.99707e-01,6.49758e-01,-4.48060e-02,-2.61548e-01,-1.39483e-02,1.14143e+00,-7.01741e-01,5.66067e-01,-4.48766e-02,4.00997e-01,-1.36707e-01,8.84318e-01,1.57908e-01,1.90552e+00,-3.37813e-01,-6.16129e-01,-8.03598e-01,-1.98308e-01,-3.50155e-01,-3.43611e-02,-1.06413e+00,-9.86337e-03,-2.22809e+00,6.63614e-01,-6.76085e-01,-4.42789e-01,6.08766e-01,8.70358e-02,2.31349e-01,5.13386e-01,2.77256e-01,
-3.70298e-01,7.11916e-02,1.50333e+00,5.64512e-01,-9.74842e-01,6.62695e-01,1.06375e+00,5.01723e-01,-1.31486e-02,-1.57347e+00,1.14089e+00,-9.17869e-01,-7.01123e-01,-8.60327e-02,5.47250e-01,-5.23466e-02,-1.31608e+00,-1.03353e+00,6.31456e-01,-9.90322e-01,1.33987e-01,-5.44760e-01,1.48188e+00,4.45802e-03,-1.03484e+00,5.07624e-01,-1.01660e+00,1.28569e-02,-2.76639e-01,-1.49820e+00,2.27084e-01,-6.17550e-01,1.60413e-01,4.44447e-01,-8.33360e-01,4.88122e+00,-4.04166e-01,5.59592e-01,-1.93831e-02,1.36191e-01,-1.11143e+00,6.75203e-01,-4.31820e-01,-3.91709e-01,5.69337e-01,-5.41178e-01,2.32964e-01,-8.70405e-02,-3.41218e-02,2.70025e-02,
-1.59357e-01,-2.25921e-01,1.25545e+00,9.29979e-01,-4.20795e-01,-1.21252e+00,1.14475e+00,-4.39822e-01,1.51032e-02,-3.27664e-01,1.41659e+00,5.44371e-02,4.89288e-01,-5.54180e-01,-8.35419e-01,7.85195e-01,-3.20415e-01,-1.23462e-01,-9.23823e-02,1.33837e+00,1.07164e+00,-2.04729e-01,6.24216e-01,-3.39279e-02,4.58223e-01,-5.25122e-01,-7.86469e-01,4.38297e-02,1.72564e+00,-8.92537e-01,3.84974e-02,3.67186e-01,5.92183e-01,7.14608e-02,6.07295e-01,7.46436e-01,1.54392e-01,-1.02808e+00,-1.49734e-02,-4.13626e-01,1.13233e+00,-4.79268e-01,7.93361e-02,-4.17338e-01,8.51236e-01,8.99631e-01,-8.23913e-01,1.35563e-02,2.77506e-01,-1.56120e-01,
5.42863e-01,-4.87848e-02,-6.86053e-03,3.94217e-01,-4.65599e-01,2.19965e+00,-2.73590e-02,3.51041e-01,3.10340e-02,-7.13664e-01,-1.98815e-01,1.30469e+00,2.04557e-01,-1.24115e+00,2.82845e-01,6.20192e-01,-4.08352e-01,2.42080e-01,4.24398e-02,1.97592e-01,-4.04808e-01,1.75210e+00,1.34921e-01,2.15892e-02,-2.82025e-01,4.52473e-01,-2.19164e-01,-3.38433e-02,1.25426e+00,-2.84315e-01,5.49229e-01,8.73870e-01,-1.22698e+00,2.91150e-01,-1.70780e-01,1.50804e+00,7.67363e-01,2.69958e-01,1.03636e-02,-1.36055e-01,1.94091e-01,7.53554e-01,-1.29236e-01,6.22101e-01,-9.80525e-01,-1.03764e+00,1.12743e+00,-1.52434e-01,2.03026e-01,-3.15945e-01,
-1.48646e-01,-1.00775e-01,1.97282e+00,5.84494e-02,-1.25870e+00,-3.19007e-02,1.73807e-01,-2.44355e+00,-3.05067e-02,4.30766e-02,5.54330e-01,4.16900e-01,-2.46678e-01,5.19088e-01,-6.14275e-02,8.97799e-01,-2.08907e-01,8.08688e-02,-5.74783e-02,1.24593e-01,1.34119e+00,6.65629e-01,-1.59908e-03,-3.14544e-02,-2.33277e-02,-2.56987e-01,-2.30768e-01,-3.06223e-02,3.72285e-01,3.44997e-01,1.94702e-01,-2.75201e-02,-1.13603e-01,1.35762e-01,6.61310e-01,-3.00680e-02,-6.61313e-02,4.09821e-02,-5.22196e-02,-1.02131e+00,8.22032e-02,2.54369e-01,-1.44062e+00,7.65734e-02,-7.64097e-01,-1.05365e-01,-2.96031e-02,-2.81925e-03,-1.18312e-01,-2.28888e-02,
6.19436e-01,-4.63681e-01,-6.63581e-01,4.08247e+00,-1.79802e-01,-4.60520e-01,4.18753e-01,2.17696e-01,-2.59006e-02,1.49261e-01,-1.29440e-01,-4.20499e-01,5.32565e-01,-3.03377e-01,2.73376e-01,-4.50148e-01,-5.73448e-01,2.67935e-01,5.74175e-01,-4.23769e-01,-2.62748e-01,3.11995e-01,8.24119e-01,-2.27953e-02,4.66457e-01,1.91735e-01,-4.33408e-01,2.88274e-02,1.24608e+00,-2.87932e-02,1.73605e-01,8.05408e-01,7.50706e-01,-2.15786e-01,3.18858e-01,1.58779e+00,1.66705e+00,5.75456e-02,7.18374e-03,2.46062e-02,5.55857e-01,3.28333e-01,-5.86124e-02,-5.24537e-02,1.08599e-01,-7.46200e-01,8.51961e-01,-5.30069e-02,-3.45402e-01,1.50376e-01,
-2.26505e-01,-5.11316e-01,-1.58171e+00,-1.19782e-01,6.05161e-01,6.43796e-01,1.54124e-01,-1.00726e-01,-3.04688e-02,7.35179e-01,-7.80280e-02,3.55994e-01,-4.31091e-03,-3.36973e-01,1.16727e-01,5.19839e-01,3.24355e-01,-1.80498e-01,4.47813e-01,9.73729e-03,-1.61290e+00,-2.14447e+00,-2.19649e-01,3.23286e-02,2.37506e-01,-7.20222e-01,1.51628e+00,-6.84928e-03,3.81988e-01,-9.18100e-02,-7.71736e-01,-3.92813e-01,2.98061e-02,-4.87501e-01,2.88421e-01,7.80706e-01,-1.88287e-01,2.61129e-02,3.36255e-02,9.97149e-01,-1.05390e-01,7.31925e-01,1.16560e+00,-1.73468e-01,1.57621e-01,4.36393e-03,-2.68793e-01,2.34959e+00,1.64410e-01,6.09222e-03,
-2.39114e-01,-5.45575e-01,6.59262e-01,-3.27867e-01,-5.81496e-01,1.12949e+00,6.30127e-02,4.52632e-01,-3.41486e-02,-6.85163e-01,-2.46626e-01,-4.76704e-01,2.82359e-01,-3.86411e-01,-1.52151e-01,2.89420e-02,1.07997e+00,-5.00010e-02,5.93361e-01,-3.00565e-01,1.81029e-03,1.94324e+00,-6.04200e-02,3.68681e-02,-9.34426e-01,5.95913e-01,3.57360e-01,-3.80971e-02,2.85873e-01,3.93943e-01,2.97685e-02,-1.74777e-01,-6.84097e-01,-2.61897e-01,2.62746e-03,2.37848e+00,-1.17837e-01,3.36209e-01,-2.01711e-02,-6.24260e-02,-1.93168e-01,3.45450e-02,2.32222e-01,-6.20717e-01,-1.28978e+00,7.04663e-01,-9.69241e-02,2.78557e-01,3.79600e-01,-1.36855e-01,
-9.55375e-01,-2.44510e-01,5.09479e-01,-8.43286e-01,-2.14962e+00,-5.95870e-01,2.51264e-01,2.08439e-01,-3.51369e-02,2.93701e-02,-2.45823e-01,-5.55620e-01,4.41302e-01,-2.45879e-01,2.43347e-03,4.10686e-01,-3.86321e-01,1.22845e+00,2.67728e-01,-3.86034e-01,-6.84611e-02,1.04992e+00,-3.20734e-01,1.13208e-02,-2.88506e-01,8.17651e-01,-3.04362e-01,2.50062e-02,1.53533e+00,2.44343e-01,7.41064e-02,-3.72326e-02,1.00752e+00,2.73461e-01,2.78664e-01,-7.91618e-01,5.69565e-02,-3.83167e-01,-1.13765e-02,-2.18358e-01,4.49280e-01,3.20794e-01,1.07917e-01,-8.43327e-02,2.75906e-01,-3.44722e-01,-2.78672e-01,-7.82831e-01,-6.34791e-01,2.81930e-01,
2.02518e-01,1.15535e-01,8.75078e-01,-2.58780e-01,-7.30167e-01,-1.91861e-02,-1.75058e-01,-2.80103e-01,-5.20292e-02,3.56653e-02,2.47590e-01,-2.98077e-02,2.72057e-01,-1.44820e-01,3.58252e-01,3.62546e-02,-6.25491e-01,-3.57477e-01,-4.50418e-01,1.34796e-01,-1.15540e-01,-1.17303e-01,-1.80279e-02,-5.26722e-02,2.78086e-02,-6.62794e-01,-1.31602e-01,2.95228e-02,2.57227e-01,-5.43873e-02,-5.05674e-01,5.84831e-02,-2.02629e-01,1.33182e-01,-1.50011e-01,6.71726e-03,-1.30382e-02,-2.71413e-01,3.19885e-03,3.37166e-01,1.21223e-02,3.94329e-01,6.97506e-02,2.17360e-03,1.19229e-01,1.12939e-01,5.10011e-02,-1.76527e-02,-1.27451e-01,-1.37772e-01,
-1.38771e+00,6.58504e-01,8.02003e-01,-7.41028e-01,-6.37938e-01,-4.38277e+00,7.21571e-01,-5.54078e-01,4.00651e-02,-4.70606e-01,1.66775e+00,-2.35542e+00,7.75209e-01,-9.74699e-02,-6.21752e-01,4.97900e-01,1.13928e+00,5.49608e-01,-1.06531e+00,3.41015e-01,1.61431e-01,7.87476e-01,-1.73364e+00,-1.04582e-03,1.49025e+00,1.85647e-01,-1.12508e+00,-3.22300e-02,1.45604e-01,2.47552e-02,-9.72108e-01,9.71549e-02,2.02851e+00,5.27160e-01,-3.07883e-01,2.77496e+00,4.69115e-02,-7.33330e-01,4.80485e-03,-1.36481e-01,5.47966e-01,-1.03696e-01,1.73180e+00,-1.49824e+00,4.88653e-01,3.73395e-01,-6.54530e-01,-9.03114e-01,7.93694e-01,-6.29457e-02,
9.92370e-01,-9.08318e-01,1.70471e+00,4.18769e-01,-4.08476e-01,2.26065e+00,1.48645e-01,-1.60286e+00,-1.14451e-02,-2.16964e-01,1.57819e-02,-1.36260e+00,-6.42587e-02,-3.07230e-01,-7.10909e-01,6.81900e-01,-4.26545e-01,-1.13304e+00,-4.33982e-01,1.14250e-01,5.13377e-01,1.74497e+00,-1.71080e-01,-1.19060e-02,-7.21811e-01,1.70167e+00,-4.00288e-01,2.47374e-02,-6.28111e-01,7.72714e-01,5.68926e-01,4.32282e-01,1.87972e-01,-1.41291e-01,1.08205e+00,1.19795e+00,1.74374e-01,-1.64802e-02,-1.68766e-02,-3.89779e-01,-7.87323e-01,9.53129e-01,-3.45654e-01,3.75677e-01,3.10438e-01,-4.61864e-01,-1.02549e-01,8.42813e-01,-2.34292e-01,2.30329e-01,
-1.16322e+00,2.63749e-01,1.10740e-02,1.03688e-01,-6.55476e-01,8.68009e-02,-9.95905e-01,-2.57119e-02,-1.02595e-02,-1.76555e+00,-5.13940e-02,-9.08825e-02,-7.72693e-02,2.45766e-02,-1.42630e+00,-2.28353e-01,4.54434e-01,-8.38091e-01,1.17256e+00,-2.05575e-01,7.15852e-02,-1.63740e-02,3.83777e-01,-4.18812e-02,1.61626e-01,-1.65939e-01,-9.80640e-01,-3.33058e-02,1.66260e+00,4.01476e-01,-3.19882e-01,4.04449e-01,5.63299e-01,3.71989e-01,5.22350e-01,2.13547e-01,2.47110e-01,1.25595e+00,-2.97054e-02,6.08978e-03,-2.08265e-01,-1.34541e+00,3.49457e-01,1.99183e+00,4.06340e-01,3.20954e-01,-1.53312e-01,-9.52881e-01,-1.77079e-01,-1.97675e-01,
3.64126e-01,7.42069e-01,-4.78591e-01,5.24918e-01,5.24959e-02,-3.35388e-01,3.16159e-01,-2.18030e-02,-4.09851e-02,-6.24125e-01,-1.02840e+00,-3.61999e-02,-2.01832e-01,-8.38164e-02,5.54975e-01,-1.07509e-01,-1.28798e-01,1.62755e+00,-2.81367e-02,-6.13132e-01,2.97057e-02,8.93474e-02,-2.87713e-01,1.76739e-02,1.71843e-01,-3.48333e-01,-8.44902e-01,9.93442e-03,-7.14443e-01,-2.86008e-01,4.87701e-03,1.02137e-01,9.01721e-01,-4.10483e-02,-2.04006e-01,-1.17640e+00,-1.12752e+00,1.07364e-01,1.61631e-02,2.54462e-01,-4.82978e-01,2.22418e-01,2.67621e-01,1.40212e-01,1.49534e-01,-6.78604e-01,-1.34800e-01,5.87456e-01,6.90667e-01,1.91212e-01,
-2.22565e-02,1.43335e-01,2.42457e-01,-1.27220e+00,-1.65851e-01,3.24918e-01,-3.07993e-01,-1.06606e-01,4.27903e-02,1.11192e+00,7.28871e-01,1.86814e+00,-1.70641e-01,-4.02289e-01,5.87266e-01,7.38057e-01,-7.81102e-01,1.24338e-01,-9.92351e-01,-3.15500e-01,3.14368e-01,1.26241e+00,-3.87788e-01,-2.78249e-02,-2.71134e-02,-3.45161e-01,9.53796e-01,1.18393e-02,1.13805e+00,5.99118e-01,-4.41099e-01,1.29135e-01,-8.77445e-01,4.86441e-01,1.67500e-01,-3.79814e-01,-2.88879e-01,2.19049e-01,-4.10235e-02,-1.91897e-01,3.23205e-01,5.56392e-01,6.97384e-01,7.03234e-01,1.76801e-02,2.91909e-01,6.92745e-02,4.58242e-01,1.89421e-01,-7.51870e-01,
-5.85293e-02,2.07956e-01,9.18439e-01,3.02947e+00,-1.83319e-01,-1.00730e+00,8.53118e-02,1.26911e-02,3.08428e-02,3.29895e-01,1.57784e-02,4.79043e-01,-7.56443e-02,-5.82793e-01,-2.38209e+00,6.42949e-01,-3.45143e-01,1.45707e+00,3.41925e-01,4.73164e-01,-2.06061e-01,4.04900e-01,1.70026e-01,-4.72696e-03,2.34498e-01,5.36555e-01,1.58041e-01,5.93544e-03,9.98562e-01,-5.12035e-02,-2.59108e-01,6.48275e-01,5.00706e-01,5.26349e-03,-6.09209e-03,2.22414e+00,9.51249e-01,-2.80953e-01,-8.25692e-03,-4.78849e-01,6.76948e-03,-2.70008e-01,1.01095e-01,3.65259e-01,-1.13755e-01,-1.10652e-02,-5.02072e-01,7.42389e-01,-3.40201e-01,1.43345e-01,
1.89039e-02,5.94736e-01,5.10393e-01,2.90889e-01,-8.05563e-01,-5.62622e-01,-5.81083e-01,-1.40951e-01,-2.43705e-02,8.86288e-02,-7.67287e-02,-7.74317e-02,-3.98249e-01,-4.31529e-01,-3.54666e-01,1.16028e+00,5.22069e-02,-1.95457e-01,-4.56911e+00,-1.15717e-01,3.52976e-01,-1.46015e-01,6.07397e-01,3.30744e-02,-1.33582e-01,1.59480e-01,-3.12123e-01,2.48176e-02,2.00368e-01,-2.63198e-01,-1.26535e-02,2.68887e-01,-5.13233e-02,7.48333e-02,3.37017e-02,-5.28692e-01,3.41506e-01,-3.98241e-01,5.49536e-02,-9.89832e-02,-2.37106e-02,3.94855e-01,-3.34885e-01,-4.23996e-01,-4.10779e-02,2.33826e-01,-5.15193e-01,7.25344e-01,9.12408e-01,-7.33076e-01,
-1.03750e+00,1.19983e-01,1.76445e-01,-1.48632e-01,-6.19372e-01,-5.39707e+00,3.00252e-01,-7.00774e-02,-2.04792e-02,4.70264e-01,4.55213e-01,-2.71312e+00,-1.02012e+00,-8.13854e-02,-2.47941e-01,5.77196e-01,4.60426e-01,-1.54347e+00,-3.08392e+00,3.71404e-01,4.09354e-01,-1.05399e+00,7.37372e-01,-9.76966e-03,4.41861e-01,2.84177e-01,6.63205e-01,-2.41733e-02,5.79699e-01,-6.71685e-01,-6.24479e-01,9.60096e-02,5.16749e-02,-3.21264e-01,3.74789e-01,4.14956e+00,-2.12990e-01,-4.88683e-01,4.68159e-02,2.57057e-01,-4.43726e-01,-1.38673e+00,2.08221e-01,-6.87277e-01,9.56784e-01,-4.67559e-01,3.38050e-01,-8.56394e-01,9.13621e-01,3.79320e-01,
-5.57547e-02,1.73325e-02,-2.89486e-02,-6.93611e-03,4.69801e-04,2.70596e-02,-2.78799e-03,3.39974e-04,2.09680e-03,-5.96848e-02,-6.06649e-02,1.63002e-02,-4.26006e-02,-4.13912e-02,-6.76355e-02,1.79564e-02,-1.91194e-02,4.81924e-02,-7.68090e-02,-1.05402e-02,2.54801e-02,-3.20969e-02,8.20412e-03,-1.82402e-02,3.97634e-02,-1.44146e-02,-2.48552e-02,2.71423e-02,-7.36534e-03,4.74310e-02,1.92145e-02,-7.20282e-04,2.83547e-02,-2.27157e-02,-1.98102e-02,-1.30683e-02,-7.39433e-03,-4.17724e-02,3.30394e-02,8.62506e-05,-4.31151e-02,-6.75595e-02,-1.93563e-02,-6.14811e-02,-4.30155e-02,-3.71011e-02,4.29338e-02,3.59239e-02,-9.24053e-03,-3.92414e-02,
-2.41696e-01,1.13585e+00,1.26383e+00,-1.70139e-01,2.01538e-02,-2.25986e-01,1.01160e-01,8.23293e-01,5.70612e-03,-1.30243e+00,-7.19898e-01,-8.29395e-01,1.91312e-01,9.62015e-01,1.62003e-01,-1.81227e+00,-3.85874e-01,3.67539e-01,-8.54928e-01,-2.71596e-01,7.03800e-03,-2.80372e-01,4.58782e-01,1.09918e-02,-5.83122e-01,1.13207e+00,-1.19674e+00,1.65262e-02,-2.03808e-01,-3.33161e-01,6.42127e-01,-6.36297e-01,-1.60609e+00,6.62577e-01,4.60402e-02,-1.21368e+00,1.47415e-01,1.90403e-01,-5.78785e-02,-4.05337e-01,1.23018e-01,-9.13841e-01,-1.11601e+00,4.42430e-01,-4.42521e-01,-1.33322e+00,-2.96469e-01,9.18028e-01,1.64573e-01,6.12602e-01,
-6.90821e-01,1.99228e-02,-8.11447e-01,1.12765e-01,2.98969e-01,-4.92905e-01,1.97042e-01,-2.05528e-01,-4.62409e-02,1.53132e+00,6.57607e-01,3.85814e-01,-1.04688e+00,-2.03938e-01,2.42107e-01,8.38927e-01,8.45117e-01,3.38195e-01,3.71313e-01,-1.03181e-01,2.09448e-01,1.27920e+00,3.31207e-01,2.17873e-02,1.01310e-01,-4.90235e-01,1.07664e-01,2.74759e-02,1.23393e-01,-3.10813e-01,1.34461e-02,-2.24315e-01,1.07884e-01,-3.41676e-01,-3.42353e-01,-3.58922e-01,-3.16669e-01,3.84181e-01,-2.78793e-02,4.38484e-01,5.90386e-03,2.45226e-01,9.24999e-03,9.92813e-01,2.52490e-02,8.30646e-01,-8.35657e-01,6.64342e-01,-2.54763e-01,-4.27448e-01,
4.31640e-02,2.21293e-01,-8.67086e-01,6.37292e-01,-3.27834e-02,-9.51688e-01,-2.34563e-01,-9.21112e-02,3.84070e-02,-1.58861e-01,-3.32377e-01,-5.60047e-01,-4.17360e-01,1.50864e-01,1.24724e-01,5.56880e-01,-1.26061e-01,-4.13264e-01,3.83472e-02,-3.91318e-01,4.44722e-01,-5.56044e-01,5.52058e-01,-1.80659e-02,1.42318e-01,-2.19883e-01,4.10321e-01,3.13783e-02,6.38515e-01,7.32590e-01,2.29774e-01,5.56475e-01,-2.03709e-01,1.04546e-01,-4.88715e-01,-9.46077e-01,5.19811e-01,2.52931e-01,5.44108e-02,-3.90913e-01,1.28570e-01,-2.47411e-01,3.31365e-01,1.48011e-01,-2.71258e-01,2.84429e-01,-8.14855e-01,4.25585e-01,-5.20978e-02,1.31458e-01,
-1.07077e-01,
-5.40759e-01,
-6.79918e-01,
-2.22551e-02,
4.18455e-01,
-3.93732e-01,
1.17694e-01,
8.53424e-01,
9.45162e-02,
-4.22592e-01,
-1.34034e+00,
-8.76821e-01,
6.06671e-01,
-7.51195e-01,
-4.68569e-01,
-1.06614e+00,
4.73352e-01,
2.80317e-01,
-8.25063e-01,
-2.64839e-01,
-1.03837e+00,
-8.19173e-01,
-5.66668e-01,
-3.40478e-01,
2.81168e-01,
2.45791e-04,
-1.45390e-02,
1.71216e-02,
-6.08431e-01,
1.35634e-01,
5.57562e-01,
-7.21230e-01,
2.00349e-01,
-1.14086e+00,
-7.71508e-01,
-4.93927e-01,
-4.25353e-01,
1.54399e-01,
-7.16625e-01,
-6.56948e-01,
5.12156e-02,
1.72706e-01,
-7.63136e-01,
-8.70563e-01,
-3.33619e-01,
-5.76794e-01,
-2.12333e-02,
7.78575e-01,
-1.29528e+00,
-6.91971e-01,
8.33223e-02,7.90506e-01,-7.61692e-01,1.30004e-02,4.83958e-01,-8.00735e-01,8.81528e-01,7.61079e-01,3.73305e-01,-1.82444e+00,2.57746e-01,-7.52258e-01,7.78772e-01,-1.01024e+00,-1.42028e+00,7.55703e-01,-2.01779e-01,5.61635e-02,-4.66720e+00,-2.03926e-01,-3.57467e-01,-1.62955e+00,-1.74364e-01,-6.30866e-02,-1.13185e+00,1.27665e+00,-4.47193e-02,1.39187e-01,-2.76437e+00,2.55678e-02,-7.77614e-01,-4.88907e-01,-1.14326e+00,5.65565e-02,-1.89770e+00,3.48959e-01,-1.83511e-01,1.42326e+00,1.28414e+00,2.68576e-01,4.79834e-01,-7.27558e-02,-2.33445e-01,8.75925e-02,-1.15364e-01,-4.20332e-01,-7.97800e-03,2.11466e-01,-5.41676e-01,-1.49892e+00,
3.19058e-02,2.59402e-01,-9.85417e-01,2.92775e-02,2.04432e-03,-6.81498e-01,-3.36835e-01,7.72255e-01,-1.76253e-01,-6.29542e-01,1.86357e-01,4.14840e-01,-2.65241e-01,-2.72505e+00,6.96248e-01,-3.74402e-01,6.06455e-01,2.02141e-01,-7.57341e-02,-5.74891e-01,-4.53706e-01,4.66941e-02,-7.91773e-01,1.27165e+00,7.18766e-02,-1.95912e-01,3.25534e-02,-4.38879e-01,1.00590e-01,-8.82190e-01,-9.16686e-02,7.24361e-02,-1.68437e+00,7.62981e-01,-1.45414e+00,4.67692e-01,1.23658e+00,-2.95773e-01,4.26022e-01,2.03954e+00,6.43526e-02,6.01266e-01,-1.52958e+00,-2.10443e+00,-9.71001e-01,-3.90730e-01,2.41353e-02,3.15106e-01,-9.33212e-02,7.14074e-01,
-5.18094e-02,1.45651e-02,2.24982e-02,1.42803e-02,-1.00378e-02,-5.33618e-02,2.70481e-02,-2.80357e-03,-3.49991e-02,1.55387e-02,3.28289e-02,2.42873e-02,-1.85724e-02,-8.17936e-03,-2.05358e-02,4.50990e-03,-6.38431e-03,-8.62986e-04,-2.91737e-02,-1.24189e-02,3.55873e-02,-6.78430e-02,-2.62317e-02,2.61854e-02,-6.21351e-03,3.76125e-02,-5.14951e-03,-4.37557e-02,3.72244e-03,2.97854e-02,-3.24725e-02,-2.17528e-02,-5.06342e-02,-1.92729e-03,9.53035e-03,-5.37517e-02,-3.87362e-02,-1.07332e-02,2.51826e-02,-4.80832e-03,-1.89544e-02,-1.81392e-03,1.50219e-02,-4.20688e-03,6.83750e-03,-2.36703e-02,-3.39084e-02,-2.68583e-02,-5.36929e-02,1.79341e-02,
6.02380e-02,5.06493e-01,2.75468e-01,2.62389e-02,6.58128e-01,-3.57357e-01,-1.43277e+00,5.10820e-01,-3.13544e-01,8.18965e-02,-2.88028e-01,-4.98451e-01,4.37649e-01,2.02951e-01,7.79224e-01,-1.14629e+00,1.71616e-01,2.40556e-01,-3.85943e+00,4.92416e-01,5.43779e-02,4.25166e-01,-4.27007e-01,4.64084e-01,1.38455e-01,-1.53493e+00,-4.20460e-02,-2.67737e-01,-5.57645e-01,-8.10753e-02,-5.13652e-01,9.56847e-03,-2.79564e-01,2.35908e-01,-4.08006e-01,1.24951e+00,-6.11382e-01,-3.90062e-01,-1.86748e-02,5.54029e-01,1.29564e+00,-1.28827e+00,-6.07123e-01,6.76447e-01,4.28843e-01,1.01702e-01,3.30733e-02,4.98033e-01,7.88473e-01,-1.92414e+00,
3.69366e-02,-1.81115e-01,-5.60620e-01,7.17584e-03,-6.74604e-01,3.09298e-02,9.72182e-01,8.67459e-01,9.30927e-01,1.61017e-01,-9.87583e-02,-5.70808e-01,6.79266e-01,-4.48756e+00,-1.20144e+00,9.28783e-01,8.08242e-01,2.37907e-02,-1.19806e+00,2.42638e-01,-4.40215e-01,9.50670e-01,-5.26564e-01,-2.39476e-02,3.87779e-01,3.08359e-01,-4.24924e-02,-1.37363e-01,1.51034e+00,-7.66023e-01,-3.80653e-01,5.98689e-01,1.45379e+00,-3.17391e-01,1.36832e-01,-5.97974e-01,-1.01217e+00,-8.49798e-01,9.96479e-02,-5.68666e-01,4.35824e-01,-2.22125e-01,-1.08691e+00,-1.72209e+00,1.39165e+00,-9.87532e-01,3.22044e-02,1.52228e+00,-4.53764e-01,-9.86206e-01,
5.82216e-02,-7.90231e-02,-2.36633e+00,3.47313e-02,4.44909e-01,3.10740e-01,2.13500e-01,1.80505e-01,-4.23760e-01,-2.97377e-01,1.08059e+00,5.23572e-02,1.81795e-01,1.14892e+00,-5.40833e-01,1.08642e+00,-3.62899e-01,-3.84384e-01,-5.50235e+00,-2.67687e-01,-1.58764e-01,-9.57347e-02,6.13385e-01,7.29451e-01,2.12269e-02,-6.45274e-02,3.52672e-02,5.69323e-01,9.51462e-01,-5.80239e-01,-2.19715e-01,2.40487e-01,8.31900e-02,1.58231e-01,-2.60882e-01,1.72184e-01,6.51778e-02,-5.43686e-02,5.64774e-02,8.54431e-01,-3.33834e-01,-2.38576e+00,2.90223e-01,1.68676e+00,-4.97148e-01,-2.63554e-01,-3.27524e-03,-6.60317e-01,6.81170e-02,1.88237e+00,
8.66190e-02,8.08426e-01,3.03914e+00,1.50039e-03,2.37479e-01,-1.28843e+00,1.75776e+00,7.50404e-01,1.47612e+00,-6.67722e+00,-4.57346e-01,-1.96499e+00,7.54375e-01,9.59360e-01,8.89566e-01,5.32328e-01,-1.10900e+00,-3.27672e-01,1.87293e+00,4.21915e-01,-8.66769e-01,4.26087e-01,1.13967e-01,-1.42813e+00,1.25013e+00,-3.36287e+00,1.03410e-02,-1.68592e+00,2.16759e-01,1.79520e-01,-5.66434e-01,6.70473e-02,-1.09421e+00,1.48365e-01,-4.14730e+00,1.54328e+00,6.39136e-01,2.99182e+00,3.39143e-01,6.38674e-01,-6.10584e-02,-7.84415e-01,6.20970e-01,1.98730e-01,-1.20938e+00,-1.77175e-01,-2.26826e-03,3.80736e-01,-7.27412e-01,-9.50557e-01,
5.96460e-02,-1.58849e-01,8.96075e-01,4.87793e-02,5.40775e-01,-7.27725e-02,6.59547e-01,-1.63956e-01,5.17690e-02,-2.98143e-01,2.01638e-01,9.55578e-01,6.62141e-02,6.14889e-01,5.53692e-01,7.74462e-01,-2.51532e-01,-1.62895e-01,1.58602e+00,-3.03155e-01,1.87317e-01,3.43763e-01,5.44107e-01,8.08542e-01,2.50543e-02,-1.89855e+00,2.54448e-02,-3.85775e-01,6.01662e-01,9.50578e-02,-1.60707e-01,-1.88526e-01,-1.38733e+00,1.37795e-01,9.09672e-01,9.40050e-01,1.00206e+00,1.35020e+00,-2.57681e-01,5.84110e-02,7.22268e-02,-3.11874e+00,3.56567e-01,-1.00608e-01,1.15965e+00,3.86890e-01,-7.08396e-03,3.37941e-01,4.10611e-01,-1.03156e+00,
1.09334e-02,6.79608e-01,1.11283e+00,2.50902e-02,2.54118e-02,-2.16891e-01,-1.71687e-01,-6.13554e-02,-2.19278e-01,-1.04336e-01,2.34093e-01,-1.12229e-01,9.81997e-03,-1.72934e-01,1.32983e-01,3.38085e-01,5.26677e-01,-1.00047e-02,-1.27360e+00,-2.15082e-01,-2.43308e-01,-8.47012e-02,-3.42575e-01,1.66160e-01,-1.17761e-01,3.21907e-01,1.68253e-02,3.24654e-01,-3.05361e-01,-8.20265e-02,2.06559e-01,2.62256e-01,3.85443e-02,-3.73656e-01,3.55060e-01,1.83817e-01,2.77228e-01,-1.10213e+00,2.65972e-02,6.50137e-01,-2.61947e-01,4.94366e-01,3.87961e-01,-8.14967e-02,-1.28427e+00,-1.08316e-01,-7.08802e-04,-3.11763e-01,6.16835e-02,-3.86886e-02,
1.18553e-01,-1.02700e-01,7.33296e-01,-3.90716e-02,9.69687e-01,-1.20782e-01,-5.57624e-01,-3.25859e+00,-2.37507e-01,-3.97898e-01,-1.30968e-01,-9.98569e-02,-5.93664e-01,-2.11570e-01,1.38932e-01,2.09909e+00,-1.85103e+00,1.98271e-01,5.23018e+00,2.61428e-02,5.20887e-02,-7.33696e-01,-1.41510e-02,3.29168e-01,3.36309e-01,-5.69377e-01,2.18808e-02,-1.71836e-01,6.09098e-01,-4.37759e-01,8.10917e-02,7.36676e-01,-2.40695e+00,-9.26577e-02,-1.02191e+00,-8.15071e-01,-5.90171e-02,-2.32246e+00,1.74580e-02,4.50517e-01,-5.22486e-01,-1.02037e+00,2.44180e-01,-4.76144e-01,9.96603e-01,5.71430e-01,1.95870e-03,-7.30740e-01,-8.82281e-01,1.22559e+00,
1.30341e-02,2.78706e-01,2.55074e-01,4.94039e-02,3.17760e-01,1.16592e-01,-8.82588e-01,-7.63447e-02,3.57872e-01,2.20553e-01,-1.59267e-01,3.23955e-01,1.41198e-01,9.99034e-01,-2.43087e-01,-4.23480e-02,-8.43836e-02,3.39540e-01,-1.70251e-02,-5.09925e-03,3.39008e-01,-1.02394e-01,-3.18078e-01,-1.56635e-01,2.19964e-02,-3.53360e-01,-2.55645e-02,-4.43840e-02,-1.94756e-01,-3.00370e-01,1.90157e-01,-1.37039e-01,6.13343e-01,-8.07962e-02,-7.08971e-02,1.10986e-01,-3.54042e-01,-1.24670e+00,1.09300e-01,1.08504e+00,-3.91692e-01,-2.48343e-01,5.14715e-01,-3.33117e-01,5.43483e-01,1.22975e+00,-7.02975e-03,-2.76893e-01,-4.57550e-01,-5.25916e-01,
1.13044e-01,6.01371e-01,-3.62552e-01,4.92300e-03,-1.66850e-01,-2.39582e-01,-8.06094e-01,1.93313e-01,-5.81554e-01,-1.98657e+00,4.80250e-01,-3.96246e-01,2.26824e-01,-2.10641e+00,1.82972e-01,9.64298e-01,-2.02249e-01,-2.73811e-01,2.41536e-01,6.81025e-01,3.28753e-01,-4.11412e-02,4.21066e-02,-9.33439e-02,-4.12672e-01,-1.24540e+00,4.67147e-02,-3.01160e-01,-1.69792e-02,-3.57459e-01,1.57487e-01,-3.72106e-02,-6.52445e-02,7.09750e-01,6.11317e-01,-7.15632e-01,-4.88989e-01,-6.16468e+00,3.68970e-01,-2.24330e-01,1.84579e-01,1.42358e+00,-4.01566e-02,3.84130e-01,7.04341e-01,4.13495e-01,9.19611e-02,1.57071e-01,-9.02075e-02,-4.73884e-01,
7.25208e-02,6.13844e-01,5.31777e-02,-4.71563e-04,-6.17687e-01,-1.93584e-01,-2.15944e-02,-7.81790e-02,-3.74026e-01,-1.74884e-01,-4.87534e-01,2.58632e-01,2.03049e-01,-6.85585e-01,3.65272e-01,-5.42470e-01,3.34272e-01,4.38866e-02,8.77719e-01,-3.37449e-01,1.79357e-01,1.32634e-01,-2.58918e-01,1.06605e+00,-1.90016e-01,-7.49546e-01,-1.72394e-02,-7.92547e-02,7.49915e-01,1.08873e-01,2.32424e-01,-5.26374e-01,-1.27077e+00,-1.67135e-01,1.67124e-01,-5.99897e-02,3.77296e-01,1.39060e+00,-2.81088e-02,-7.56573e-01,-3.75955e-01,6.57849e-01,-5.67509e-01,-4.42137e-01,1.69138e-01,-3.68735e-01,-2.37022e-02,-6.32803e-02,5.93947e-01,5.95155e-01,
-5.52316e-02,2.39634e-01,-5.25888e+00,2.55607e-02,3.74731e-01,-3.12302e-01,-3.19497e+00,4.74164e-01,-8.21148e-01,-2.99811e+00,5.29009e-02,-4.56070e+00,-1.23035e+00,7.07978e-01,3.48309e-01,-2.28471e+00,3.60747e-02,-9.02957e-01,4.75893e+00,-3.10915e-01,-5.07043e+00,2.83489e-01,-5.14137e-01,1.23072e-01,-6.79956e-02,-9.85817e-01,-2.37680e-02,7.84406e-01,1.06045e-01,6.78874e-01,2.05577e-01,3.08729e-01,6.74577e-01,2.46325e-01,-1.08147e+00,-6.46437e+00,-6.04558e-01,-1.03079e+00,4.76874e-02,1.80359e+00,-1.90287e-01,-8.07379e-01,1.92071e-01,2.42407e-02,-4.51979e+00,5.02703e-01,-6.29338e-03,3.89870e-01,-6.71778e-01,-1.13493e-01,
1.19998e-01,2.44727e-01,1.14325e+00,-2.68573e-02,1.03403e-01,-4.64438e-01,-2.47868e-01,6.22369e-01,-4.80410e-01,2.62373e-01,5.58757e-01,-6.15457e-01,-2.98821e-01,6.26855e-02,-1.20955e-01,-9.32462e-01,-1.26425e+00,-4.52348e-01,-2.24095e-01,2.71134e-01,2.23916e-01,-4.56534e-02,5.34516e-01,5.00817e-01,-1.76868e-01,2.16787e-01,-2.28135e-02,5.00350e-01,-2.67162e-01,2.68452e-01,1.96835e-02,1.52166e-01,2.93748e-01,1.28409e+00,-3.31089e-02,3.65343e-01,-1.15941e-01,-2.39988e-02,-1.04736e-01,-6.07658e-05,-3.65374e-02,-5.74089e-01,-8.81376e-02,1.99782e+00,-4.87761e-01,1.19291e-01,1.33781e-02,-8.24384e-01,1.28403e-01,-2.00800e-01,
7.49317e-02,1.33628e-01,1.82419e+00,-3.40072e-02,3.83587e-01,5.33913e-02,1.18558e+00,8.00049e-01,-2.77800e-01,4.10749e-01,1.12921e-01,-1.01844e+00,-3.25550e-01,6.67320e-01,1.61918e-01,-9.60658e-02,1.22340e-01,3.82232e-01,7.31030e-01,1.43584e-01,7.43054e-01,-6.55491e-02,-7.65219e-02,-3.75349e-01,4.44699e-01,-3.36681e-01,3.36995e-02,-5.42463e-01,1.53547e-03,1.89828e-01,-3.36828e-02,-1.53580e-01,-2.05406e-02,-5.72849e-01,1.37610e+00,2.63768e-01,7.41213e-01,-5.92389e+00,3.32170e-02,5.73570e-01,-1.17472e-01,-5.07826e-01,-4.86837e-01,-1.44819e-01,-7.76317e-01,-1.23239e-01,2.47602e-02,3.78566e-01,-6.54822e-01,1.28305e+00,
3.90192e-02,2.43690e-01,-6.96537e-01,2.31112e-02,-6.49011e-01,-3.21971e-02,-1.60360e-01,-7.75552e-02,-5.00550e-01,-1.29846e+00,5.24697e-01,-1.72183e-02,-7.13428e-01,3.35263e-02,3.32170e-01,-1.60748e+00,-5.46579e-01,-7.94237e-01,1.66989e-02,5.70651e-01,4.62759e-01,-1.36814e-01,9.14227e-02,-3.35386e-01,3.19243e-01,-4.46210e+00,-3.48209e-02,3.91093e-01,-1.47614e-01,-3.00719e-02,5.14511e-05,6.29486e-01,-6.31560e-01,1.84004e+00,-1.59128e-01,-1.48034e-01,-1.37857e-01,-4.11254e-01,1.85093e-03,6.76276e-01,-2.18510e-01,1.21491e-02,-3.00878e-01,1.04485e+00,-2.17372e-01,2.19582e-01,-5.63064e-03,2.03684e-01,-2.89478e-01,-3.13143e-01,
1.40068e-01,6.49628e-01,-1.72404e+00,-8.17749e-03,-1.71519e+00,-4.72077e-02,1.75019e+00,5.29629e-01,9.17016e-01,3.76652e-01,-1.16815e-01,7.13195e-01,-1.55045e-01,4.13018e-01,-5.61331e-01,7.77733e-01,7.27540e-02,4.42438e-01,3.21979e-01,-5.31887e-02,1.21053e-01,2.09947e-01,2.28463e-01,4.30480e-02,3.10515e-01,-3.00758e+00,-3.14032e-02,-1.95043e-02,3.10670e-01,-1.78073e-02,-6.79773e-02,-7.05263e-01,3.32122e-01,-3.42996e-03,4.72767e-01,3.88603e-01,5.57685e-01,-3.96934e-01,4.62451e-01,-8.16708e-01,-1.36419e-01,-1.58161e-02,-3.88446e-02,2.27522e-01,6.51540e-01,3.72655e-01,1.92537e-02,-5.01312e-01,4.91644e-02,4.65902e-01,
-3.19370e-02,-4.32269e-02,-2.40465e-02,4.00669e-02,1.95064e-02,-1.72432e-02,-4.16270e-02,-1.07882e-02,2.83233e-03,-4.62398e-02,-5.20007e-02,3.21885e-02,1.53069e-02,3.45859e-02,1.75580e-02,-4.12556e-02,-2.48136e-02,-1.67860e-02,-1.08842e-02,-4.20417e-02,6.86609e-03,-5.02874e-02,2.86406e-02,-2.62398e-02,1.58867e-02,-3.99511e-02,-4.24673e-02,-1.55217e-02,-1.96412e-02,-4.13042e-02,-2.17928e-02,1.14652e-02,2.21225e-02,-4.53228e-02,4.08525e-02,1.43819e-02,2.21271e-02,-2.95301e-02,1.73406e-02,-3.97218e-02,1.54319e-02,5.09311e-03,-4.26442e-02,2.10799e-02,-5.36940e-02,-4.38200e-02,1.36194e-02,-5.17302e-02,-1.48159e-02,8.29234e-03,
-2.40640e-02,2.38940e-01,3.33136e+00,-4.80376e-02,6.33947e-01,3.94098e-02,-4.92330e-01,-1.50019e-01,-2.95712e-01,5.26016e-01,-3.79950e-01,5.34491e-01,5.17982e-03,-1.46533e+00,3.23186e-02,-4.56510e-01,-1.78196e-01,2.28555e-01,-2.18238e+00,-2.57031e-01,-2.75829e-01,-1.43307e-01,3.79209e-01,6.48592e-01,1.80377e-01,2.20456e-01,-4.65983e-02,3.00454e-01,-5.30784e-01,-5.99710e-02,3.81176e-02,4.44058e-01,-2.53988e+00,-3.93786e-01,1.09595e-01,-3.65620e-02,-2.16045e-01,-7.38681e+00,-5.96511e-01,-9.07736e-01,-8.72865e-02,1.98598e-01,1.59504e+00,-5.47785e-01,9.83037e-01,8.16904e-01,-1.65746e-02,1.93120e-01,-1.42540e-01,-7.71733e-01,
-1.37965e-02,-7.66171e-01,3.75278e-01,-3.29157e-02,-2.02083e+00,3.31172e-01,-3.45731e-01,5.38933e-01,-4.75984e-01,-1.26365e+00,-2.71315e-01,-7.21324e-02,-4.92987e-01,-1.92010e+00,7.89872e-01,-2.81791e+00,5.64019e-02,6.52176e-01,-1.98023e+00,-5.06861e-02,2.29856e-01,-5.13305e-01,2.49777e-01,-2.86013e-01,8.00611e-01,-2.04013e+00,-4.66460e-02,-2.61869e-01,4.15984e-02,1.67187e-01,-2.87813e-01,1.95293e-01,-1.89547e+00,2.10554e-01,-1.92368e+00,-1.04682e+00,-2.55701e-01,-5.29665e-01,-2.25444e-01,2.55502e+00,9.50023e-02,5.70194e-01,2.18664e-01,7.17065e-02,-6.44684e-01,1.44945e+00,-5.79296e-05,5.87821e-01,-1.11839e+00,-6.34953e-01,
3.36032e-03,-2.75681e-01,3.06031e-01,-1.27710e-03,-9.93187e-01,-6.56419e-01,7.10213e-02,8.63569e-01,-3.33945e-01,-1.79619e+00,-2.11431e-01,4.64004e-01,-5.35036e-01,1.62096e+00,1.19219e+00,2.84093e-01,7.21955e-04,1.49146e-01,4.41215e-02,-2.33596e-01,-6.76871e-01,-2.07617e+00,6.02586e-01,-1.27613e-01,1.06018e+00,-2.29876e+00,-3.95411e-02,-3.78796e-01,5.51322e-01,2.13998e-01,2.85112e-01,5.49308e-02,-3.06256e+00,-2.04804e-03,-2.11450e+00,-2.33255e-01,-1.40129e+00,4.12137e-02,2.09534e-01,3.00154e+00,-7.87204e-01,4.22785e-02,4.40353e-01,4.77935e-01,-1.39328e+00,1.37511e+00,-7.34810e-03,-8.14936e-01,-3.91508e-01,-1.45563e+00,
-3.54507e-02,-1.28197e+00,3.02986e+00,-4.19932e-02,-5.45226e-01,6.49834e-01,7.95679e-01,-5.98288e-01,-3.60377e-01,1.34189e+00,-5.50724e-01,4.83648e-01,5.11122e-02,1.46448e+00,6.70997e-01,1.17348e-01,3.33813e-01,-1.58846e+00,1.76209e+00,-8.07882e-01,1.17648e+00,-2.79758e-01,7.54895e-01,1.12747e+00,1.23570e-01,-1.00348e+00,-4.40972e-02,6.69003e-02,1.83691e+00,1.54327e-01,1.58663e+00,2.42106e-02,7.19383e-01,-4.39900e-01,6.84864e-01,3.57560e-01,4.01442e-01,-1.05465e+00,-3.17684e-01,1.18297e+00,-1.16463e-01,5.88766e-01,5.27743e-01,-1.47185e-01,5.16740e-01,6.39659e-01,5.51415e-03,-4.74531e-01,-5.96657e-01,9.48933e-01,
-1.82336e-02,7.37234e-01,-3.61876e+00,4.74519e-02,5.23198e-01,8.55453e-01,-1.14098e+00,1.29233e-01,-1.35861e+00,7.62363e-01,-6.15258e-01,3.87329e-01,3.70092e-02,-2.38861e+00,2.04365e-01,8.19762e-01,5.63473e-01,-4.78472e-02,2.39213e-01,-3.12123e-01,4.54185e-01,1.23353e-01,2.82870e-01,-3.36949e-01,-1.63218e-01,-3.54143e-01,-5.15244e-03,-3.56360e-01,-2.98870e-02,-6.52597e-03,-3.55675e-01,-1.08003e+00,1.10980e+00,4.77947e-01,-7.74399e-02,6.16886e-03,-1.60474e+00,1.74675e-01,-1.11682e-01,1.50898e-01,8.33497e-01,2.17210e-01,-3.73666e-01,6.52783e-01,-3.88550e-01,5.23067e-01,5.07760e-03,1.75396e-01,-7.87303e-02,3.39527e+00,
8.77261e-02,4.96269e-02,-7.58679e-01,3.43585e-02,4.60780e-01,-1.10978e-01,3.99858e-01,-1.00249e+00,1.24076e-01,3.46333e-01,6.79432e-02,1.88171e-01,-2.98650e-01,-3.82009e-01,2.61779e-02,-6.97155e-01,-1.76110e-01,3.98161e-01,4.13482e-01,3.66043e-01,-1.78826e-01,-4.04749e-01,2.64972e-01,1.96288e-01,-4.56068e-01,-8.78967e-01,-4.41159e-02,3.96641e-01,-9.92297e-01,-3.23288e-01,-8.88105e-02,1.86728e-01,2.54933e-01,-1.63009e-01,5.51422e-01,-9.40349e-03,1.33396e-01,-1.69746e-01,9.28133e-02,-1.65923e-02,2.68794e-01,-2.65493e-01,-2.73302e-01,-5.33179e-02,4.84207e-01,5.18545e-01,-2.19773e-03,3.39245e-01,8.11936e-01,-6.85654e-01,
2.61118e-02,2.62774e-01,-5.71666e-01,1.48815e-04,7.87101e-01,-1.19274e+00,-1.13967e-01,8.35611e-01,7.12326e-02,-9.39436e-01,-2.04067e-01,-6.21079e-01,6.58960e-01,1.42225e+00,6.64639e-01,-1.08133e+00,1.01214e+00,-5.75255e-02,-2.31151e+00,-5.60706e-01,-4.44204e-01,1.45143e+00,-1.08778e+00,-1.24256e-01,1.03143e-02,-5.74723e-01,1.05370e-02,-2.63919e-01,-8.47757e-01,5.55042e-01,-1.14215e-01,-6.67792e-01,-2.46191e-01,-4.38770e-01,-5.11919e-01,1.65959e+00,-1.06544e+00,-1.99975e+00,-1.24247e-01,3.89941e-02,3.20812e-01,1.11939e-01,-5.51182e-01,-8.27448e-01,1.30083e+00,2.52330e-01,2.21649e-02,9.15574e-01,2.94516e-01,-1.06355e+00,
1.25994e-01,-2.08464e+00,-2.39589e-01,-3.30671e-02,-7.75621e-01,-3.62252e-01,-4.81045e-01,-1.07007e+00,-1.91193e+00,-8.10148e-02,-4.41266e-01,5.30760e-01,1.57706e-01,-7.26120e-01,3.85607e-02,7.36900e-01,4.76579e-01,4.59448e-01,-1.66569e-01,9.22669e-02,3.89717e-01,1.30977e+00,-7.91426e-01,-6.76716e-01,-1.14163e-01,-1.49870e+00,1.54427e-02,6.08540e-01,7.52485e-02,1.22945e-02,-5.73319e-01,7.52521e-01,3.47929e+00,2.91916e-01,-3.95223e+00,2.94085e-01,-1.23793e+00,5.58388e-01,-1.16844e+00,7.22258e-01,4.15399e-01,1.82366e-01,-7.88813e-01,6.11352e-01,4.26038e-01,-3.61236e-01,-3.05553e-02,-1.80148e-01,-4.41043e-01,8.83420e-01,
6.84966e-02,5.91937e-01,9.41332e-01,2.45865e-02,-3.58919e-01,-2.71742e-01,1.62081e+00,1.47008e-01,-1.48432e+00,7.25055e-02,-1.27605e+00,6.80687e-02,-1.42743e-01,1.42548e-01,-5.11869e-01,-2.51748e+00,2.42539e-03,-3.48956e-01,-3.87385e+00,3.33727e-02,2.95423e-01,5.89624e-01,-3.80935e-01,-2.96124e-01,2.61400e-01,1.33898e+00,1.04975e-02,1.31790e-01,3.16481e-01,-1.71017e-01,4.53008e-01,4.67140e-01,-4.01046e-01,1.20827e+00,-1.96320e-01,3.84665e-01,-1.09882e-01,2.50942e+00,-4.17973e-01,2.58035e-02,1.21118e-01,1.08053e+00,-3.91213e-01,1.14550e+00,-2.76626e+00,-6.12669e-01,7.47532e-03,-4.01774e-01,-3.71444e-01,-3.11245e+00,
2.34228e-02,-9.64751e-01,-9.96868e-01,9.39523e-03,-1.28474e-01,-4.88171e-01,-5.32751e-01,6.33915e-01,-7.40188e-01,-1.26102e+00,2.03609e-01,5.37516e-01,-6.19032e-01,-1.98157e+00,4.10784e-01,5.92242e-01,-4.08384e-01,3.35659e-01,-8.48948e-01,2.56261e-01,-9.87785e-01,-8.38863e-01,-3.34693e-01,-1.28481e-01,-7.38456e-01,-9.49729e-01,-3.28474e-03,7.00050e-01,-5.41480e-01,-3.42837e-01,-9.77624e-03,-6.38637e-01,4.31505e-01,1.00796e-01,-2.10269e+00,-9.92139e-01,-3.47811e+00,-5.67760e-01,6.14889e-01,-7.17418e-01,-4.00702e-01,-1.81429e-01,-4.12569e-01,1.43143e-01,-3.68744e-01,5.83406e-02,1.27786e-02,-2.98775e-01,8.82245e-01,-1.46252e-02,
7.49494e-03,2.02476e-01,1.17522e+00,-3.18181e-02,4.08260e-01,1.45871e-01,-5.69736e-01,-1.23860e-01,3.15172e-01,-2.96692e-01,-4.95260e-01,-4.75508e-01,-2.58605e-02,-1.71135e+00,-5.06764e-01,7.92470e-01,-1.41956e+00,2.10225e-02,-6.00032e-01,3.91070e-01,3.78151e-01,4.76903e-01,-3.62351e-01,-2.21502e-01,-1.00619e-01,5.21437e-01,3.83871e-02,-4.55699e-01,-2.02481e-01,-3.37974e-01,-3.25905e-01,-1.46568e-01,-1.21491e-01,-4.88700e-01,6.19951e-02,-7.13576e-01,-3.44768e-01,1.26080e+00,3.52552e-01,-8.95246e-01,1.56249e-01,4.48983e-01,2.19873e-01,4.78010e-01,1.93801e+00,1.32602e-01,-1.72181e-02,6.08208e-01,-2.61387e-01,-4.90112e-03,
8.74101e-02,7.77752e-01,7.16938e-01,-2.29121e-02,9.90480e-01,-7.04588e-01,-1.41147e-02,-7.92374e-02,-6.20256e-02,4.09770e-01,9.54437e-02,5.53141e-01,-4.57434e-01,2.74058e-01,5.87919e-01,9.02952e-01,7.25956e-01,1.93797e-01,-1.31786e+00,2.68539e-01,-1.15467e+00,2.74894e-01,2.18775e-01,-3.35816e-02,6.55942e-01,-1.70227e-01,-3.75355e-03,-6.16207e-01,-1.35920e+00,-6.56086e-01,1.28619e-01,4.33334e-01,-1.61634e+00,-2.26175e-02,1.54986e+00,3.24352e-01,-3.50477e-01,-3.03143e-01,1.65419e-01,8.71129e-01,-1.47750e-01,1.60083e-01,-5.86518e-01,3.51191e-02,-6.73250e-01,-4.25514e-01,-1.70593e-02,8.29600e-01,-5.70898e-01,1.80814e+00,
-3.86503e-02,-2.65777e-02,-3.58219e-02,-4.26445e-02,-2.52660e-03,-9.63155e-03,-3.12750e-02,-1.95726e-02,-4.54024e-02,4.20251e-02,1.15169e-02,-3.65523e-02,1.05821e-02,2.07111e-02,3.21753e-02,-1.11760e-02,1.82211e-02,3.26557e-03,1.01645e-02,-3.24009e-02,1.54650e-02,-3.91227e-02,-2.23739e-02,-1.71879e-02,-6.07929e-03,4.20867e-02,4.49222e-02,2.09502e-02,5.84566e-03,-6.00637e-02,-5.60406e-02,4.40567e-02,-1.51529e-02,1.79018e-03,-3.27578e-02,-5.83492e-02,7.86928e-03,-3.11051e-02,-3.74862e-02,3.72020e-02,3.69019e-02,-2.02398e-03,-2.84835e-02,-3.68950e-02,1.55604e-02,1.97632e-02,1.40382e-02,-1.18455e-02,7.72382e-03,-7.64586e-04,
2.76969e-02,-5.58210e-01,9.46072e-01,2.10858e-02,-1.10840e+00,5.82710e-02,1.54756e-01,-3.89171e-01,2.53771e-02,5.21808e-01,1.10813e-01,-5.70154e-02,3.68768e-01,3.41153e-01,-5.00688e-02,-1.57408e+00,-3.11298e-01,-7.20101e-01,2.36251e+00,1.37864e-02,7.58513e-02,-1.19201e+00,6.63356e-01,1.12909e-02,2.71337e-01,-7.16854e-02,-3.28522e-02,-2.21805e-01,1.05749e-01,-6.00198e-02,-4.29792e-01,-1.34885e+00,1.22894e+00,-8.65795e-02,1.89089e+00,2.41722e-01,-2.35859e-01,7.90654e-01,-2.51895e-02,-2.83842e-01,-3.20545e-01,-1.69433e-01,3.34370e-01,9.96317e-01,7.50131e-01,5.33812e-01,-2.33451e-02,-2.75054e-01,-5.85784e-01,1.12774e+00,
4.76770e-02,1.04718e+00,8.87132e-01,7.74953e-03,3.91545e-01,-8.21815e-01,9.75814e-01,3.67071e-01,-3.07084e-01,1.67963e+00,7.29642e-03,7.92703e-01,3.09749e-02,1.22496e+00,-1.33870e-01,2.72327e+00,8.73941e-01,-7.58011e-01,-1.62113e+00,1.12980e-01,2.03348e-01,-2.70959e-01,3.03652e-01,-2.70636e-01,1.12981e-01,8.26727e-01,-3.79562e-02,1.55308e-01,-3.20573e-01,-8.74127e-01,2.78130e-01,-5.36311e-01,4.60897e-01,5.26305e-03,5.54376e-01,9.13242e-01,1.04339e+00,-1.50430e-01,6.26199e-02,4.04441e-01,-9.98906e-01,1.07468e-01,6.78356e-01,1.58805e+00,-2.44542e-01,1.28924e-01,-5.06751e-02,3.98646e-01,2.08382e-01,1.57607e+00,
2.03119e-02,1.25728e-01,1.03184e+00,-4.76635e-02,-4.00579e-02,6.17670e-01,-1.98272e-01,9.39234e-01,-3.06981e-01,-1.55983e-01,-9.54766e-02,-1.62446e-01,4.53861e-01,-6.16493e-01,-4.07350e-02,2.86275e-01,7.99610e-02,-8.62305e-03,4.54543e-01,-7.68941e-02,2.30801e-01,-6.01479e-02,-3.37847e-01,-4.07174e-02,1.77435e-01,8.81754e-01,1.46192e-02,3.67325e-01,6.67632e-01,-2.65386e-01,-2.28280e-01,2.53885e-02,2.78853e-01,-2.23562e-02,-6.67460e-01,-1.93927e-01,8.48467e-02,-3.98206e-01,-2.77335e-01,-7.12246e-01,-1.36327e-01,3.59740e-01,8.31270e-01,3.98926e-02,-2.68910e-01,4.04518e-01,-2.22699e-02,-8.98720e-01,-2.54264e-01,7.15649e-01,
2.52666e-02,-8.84028e-02,8.35955e-01,3.41194e-02,8.91613e-01,5.85958e-01,1.98442e-01,-1.02944e+00,-2.45483e-02,1.57448e+00,-3.36758e-01,3.41117e-01,-2.84655e-01,-3.12125e-01,7.22049e-01,-7.60473e-01,3.75256e-01,-2.21253e-02,3.45265e+00,-2.12851e-01,6.87696e-01,1.63975e+00,2.02247e-01,1.56400e-01,-7.24425e-01,-1.28961e+00,2.87760e-02,3.19347e-01,1.20917e+00,4.71975e-01,4.33404e-01,-2.82887e-01,1.45831e+00,1.52765e-03,1.56764e+00,8.71214e-01,8.17257e-01,-9.07219e-01,-8.53528e-01,-5.99422e-01,3.24307e-01,-4.53871e-02,-6.71985e-01,7.76714e-02,9.86425e-01,8.52272e-02,-3.80756e-02,-7.91316e-02,7.55095e-01,6.90545e-01,
3.11393e-02,-1.85522e-01,-9.07078e-01,2.59130e-02,-8.11167e-01,6.67541e-01,4.85728e-01,-3.09375e-02,4.72328e-01,4.69755e-01,-2.36596e-01,3.99439e-01,-4.48539e-01,5.32397e-01,-4.92138e-01,-3.20260e+00,-6.11112e-01,-4.93434e-02,4.64100e-01,3.87178e-01,-1.31681e-01,9.04799e-01,-1.70809e-01,-2.52450e-01,6.48123e-01,1.29710e+00,2.77089e-02,-6.87133e-01,-5.12352e-01,1.13771e-01,2.21814e-01,4.02158e-01,-3.53470e-03,1.50622e-01,2.25481e-01,1.16483e-01,1.37254e-01,-4.45842e-01,-4.39759e-01,6.13089e-01,-1.09109e-01,4.70347e-01,6.65050e-01,6.84860e-01,2.45028e-01,8.19577e-01,-2.54591e-02,-6.59999e-02,-4.66449e-01,-3.08837e+00,
4.56964e-02,-3.77009e-02,-3.37894e-01,-2.02789e-02,5.16788e-01,-1.16038e+00,-4.99877e-01,-8.65151e-01,-4.83477e-01,-4.74247e-01,1.65294e-01,9.31546e-01,-4.32603e-01,2.43705e-01,4.20139e-01,-8.04467e-01,-6.58712e-01,3.76853e-01,1.18983e+00,-1.89187e-01,-8.02783e-01,2.07172e-01,2.22269e-01,6.73188e-02,1.41268e-01,-8.36112e-01,3.35383e-02,5.75603e-01,-3.27021e-01,-3.30443e-01,-1.80770e-01,-3.63897e-01,1.00848e+00,2.55808e-01,3.15497e-01,-4.76807e-02,-2.75262e-01,7.01324e-01,-2.44379e-02,1.17192e+00,-1.79939e-01,-8.67624e-01,-1.24408e-01,4.34481e-02,-1.99486e-01,2.23461e-01,4.61068e-02,-4.73902e-02,-1.99018e-01,1.41736e+00,
-3.42567e-02,-9.91573e-01,9.09864e-01,-4.52707e-02,-7.52569e-01,-4.61706e-01,-1.03500e-01,-1.34258e+00,-1.49905e+00,1.32552e+00,1.31184e-01,2.58949e-01,-1.78442e-01,-6.55894e-02,-6.63143e-01,-3.97830e-01,2.31127e-01,4.05511e-02,1.26688e+00,-3.84053e-01,-4.59195e+00,-8.34167e-01,6.00390e-01,-1.56968e+00,3.49813e-01,4.86167e-01,-4.57258e-03,2.65650e-01,-8.74671e-02,2.85473e-01,6.50709e-01,-2.14873e-01,-7.41559e-01,-6.80084e-01,-1.19926e+00,-3.36949e-01,-1.52681e+00,8.84381e-01,-1.07931e-01,4.69857e-01,-1.80361e-01,9.31723e-01,2.21144e-02,8.61000e-01,-2.93281e-01,-2.71762e-01,-1.43968e-02,-1.71985e-01,-1.62560e-01,-3.76324e-01,
-6.23575e-02,4.83430e-01,-2.23941e+00,1.71425e-02,-2.75249e-01,3.39702e-01,-1.56202e+00,7.96138e-02,3.46622e-01,9.95334e-01,-1.59227e-01,-1.57732e-02,1.93398e-02,1.62327e+00,-9.04235e-02,7.86543e-01,-6.02755e-02,-1.98916e-01,1.21798e+00,4.42833e-01,2.61015e-01,9.07623e-01,-3.49765e-01,1.49141e-01,2.52930e-01,-1.34866e+00,-4.52598e-02,8.69905e-01,6.94586e-01,1.09949e-01,3.27632e-03,-1.78765e-01,1.32796e+00,-4.18295e-01,1.42763e+00,2.18368e-01,-3.48018e-01,3.22132e-01,-4.68826e-01,-1.35645e+00,3.16255e-01,-2.81292e-02,-6.62048e-01,5.75788e-01,-3.88319e+00,-5.11584e-01,-1.91252e-02,1.29452e-02,-3.58187e-02,-1.32175e+00,
2.48979e-02,8.46725e-01,5.86851e-01,-1.24035e-02,5.05736e-01,-1.76243e-01,-1.35213e-01,-4.52375e-01,-2.76983e-01,6.83586e-02,-2.92895e-02,-4.98229e-01,-3.52137e-01,-8.73074e-02,-2.08491e-01,1.19503e+00,5.32268e-01,-1.22789e-01,1.15690e+00,-2.68619e-01,1.76021e-03,1.00335e-01,4.77968e-01,3.22277e-01,2.66223e-01,-6.61057e-01,7.95716e-03,1.57590e-01,-4.22843e-01,-9.40160e-02,2.84602e-01,4.01246e-01,-5.49609e-01,-3.37785e-01,-7.44004e-02,2.12727e-01,-2.92910e-01,-1.51611e+00,-2.24365e-01,4.95281e-01,4.03038e-01,-1.90908e-01,3.35294e-02,-1.11209e+00,9.03950e-01,-6.83438e-01,-4.48980e-02,8.62965e-02,3.34743e-01,3.15075e-01,
1.57408e-01,5.02252e-01,1.49665e+00,3.51962e-02,-4.72966e-01,5.31256e-01,-8.27946e-01,-9.64205e-01,1.62525e+00,2.39216e-01,2.29764e-01,-5.88115e-01,-2.47922e-01,1.88961e-01,-6.67984e-01,-1.65938e+00,-1.30122e+00,1.87981e-01,-3.14918e-01,1.92178e-01,-1.43907e-01,6.33869e-01,-7.33042e-01,-6.19881e-01,-7.40274e-02,-7.93877e-01,2.39503e-02,4.32728e-01,6.16052e-01,5.37381e-01,9.33556e-02,-2.01586e-01,-4.33716e-01,2.16041e-01,1.71124e-01,3.26012e-01,-7.66633e-01,-1.20244e+00,-5.65119e-01,3.34164e-01,1.42632e-01,6.69112e-01,2.91288e-01,4.12572e-02,4.82237e-01,7.08750e-01,4.16727e-02,-3.71870e-01,6.23255e-02,-1.68495e+00,
3.26642e-02,2.05234e-01,-4.55044e-01,-1.73491e-02,1.64278e-01,-2.31599e-01,3.95380e-01,-3.14335e-01,1.99471e-01,2.48332e-01,3.43290e-01,3.52921e-01,3.70707e-01,-3.96282e-02,-7.38994e-02,-1.67223e-01,-7.34795e-02,3.04534e-01,-2.68732e-01,-6.43825e-02,-1.75785e-01,-2.60191e-01,3.54323e-02,1.52060e-01,-2.50858e-01,-3.87761e-01,1.16967e-02,-2.50350e-01,-7.45280e-01,-2.41237e-01,5.74331e-01,3.03424e-01,-6.93318e-01,-6.99350e-02,5.23778e-01,1.13170e-02,-1.39286e-02,1.32182e-01,1.26719e-02,-1.54971e-01,-1.54288e-01,-3.74299e-01,-2.00040e-01,1.25188e-01,1.58706e-01,-2.53797e-01,-1.54150e-02,2.81770e-02,4.47221e-01,5.02247e-01,
-2.63722e-02,-4.50563e-02,2.20538e-01,3.68255e-02,1.26720e-01,5.20209e-01,1.38689e-01,3.07929e-01,-6.44122e-02,5.71716e-02,3.49520e-01,4.50908e-02,1.08994e-01,5.93546e-01,-4.62157e-02,5.30060e-01,2.17367e-01,-9.76195e-02,7.65995e-02,1.54234e+00,-4.98174e-02,-2.89982e-01,3.72878e-01,1.11462e-01,1.22262e-01,2.91262e-01,-2.71627e-02,1.22133e-01,-4.54706e-01,-1.05480e-01,3.33342e-01,1.19685e-01,2.15501e-01,3.81873e-01,-2.81119e-01,-3.35683e-01,1.02634e-01,1.45462e-01,-1.76824e-02,3.89407e-02,-1.52588e-01,2.89857e-01,-7.82243e-02,1.45475e-01,-2.74363e-01,-1.24104e-01,-3.81036e-02,5.90669e-02,-3.46141e-01,4.63818e-01,
2.25406e-02,2.46996e-01,-3.89543e-01,2.59594e-02,-1.12744e-01,5.97483e-01,9.38209e-01,-5.03829e-01,-5.09866e-01,3.38127e-01,6.55958e-01,-1.51635e-01,-7.84547e-01,2.71455e-01,-2.75578e-01,-4.88637e-01,-1.76279e-02,-1.72574e-01,-1.59407e-01,1.13907e+00,-6.53412e-02,-6.34777e-01,8.89133e-01,9.48257e-01,1.82971e-01,3.26085e-01,-1.63572e-02,3.99784e-01,-7.09460e-01,-5.05764e-01,6.75400e-02,6.72954e-01,1.93282e-01,-6.20932e-03,-3.89256e-01,-1.93579e+00,1.08993e+00,1.32878e+00,2.11444e-02,-2.22402e-01,6.21589e-02,4.56370e-01,1.17929e-01,5.16371e-02,-3.19665e-01,-1.73931e-01,-3.49748e-02,-8.50173e-01,1.94551e-02,2.39466e-01,
1.43978e-01,-9.41220e-01,-1.72671e+00,-3.92836e-02,-5.89744e-01,-5.89944e-01,-3.13263e+00,3.84589e-01,4.57934e-01,-4.63438e-01,4.60420e-01,-2.31264e+00,2.60352e-03,7.86622e-01,-1.24980e+00,-1.22837e+00,-4.45274e-01,2.25187e-01,-6.69245e+00,3.36075e-01,-6.64376e-01,-6.10719e-01,-6.94841e-01,-6.25194e-01,1.42287e+00,1.44416e+00,-2.92050e-02,-1.27237e+00,-4.34870e+00,-2.81707e-01,-9.90018e-02,1.74749e-01,-1.43534e+00,-3.48074e-01,-2.21434e-01,3.92594e-02,-7.18539e-01,1.48932e+00,2.51037e-01,3.31709e-01,-8.55802e-01,7.11578e-01,4.93753e-01,-2.06822e-01,-8.53439e-01,1.05802e-02,-3.20165e-03,-1.50815e-01,-1.56076e+00,1.36156e+00,
2.66051e-03,-4.09536e-01,4.36070e-02,1.69942e-02,-1.27517e-02,6.50626e-01,1.37671e+00,7.07901e-01,2.30855e-01,3.16890e-01,4.48157e-01,-4.42170e-01,2.31460e-01,2.39196e-01,-3.72813e-02,1.07340e+00,-2.01839e-01,2.78976e-01,2.88695e-01,-3.27938e-01,4.22150e-01,1.05965e+00,7.08914e-01,-3.78897e-01,-3.20384e-01,2.24925e-01,-1.72915e-02,4.99166e-01,1.92991e-01,9.20623e-01,-8.20387e-02,-2.41038e-01,1.38304e+00,-6.32942e-02,1.08759e-01,-1.01847e+00,1.57300e-01,-6.12552e-01,5.18906e-01,-5.00224e-01,6.50938e-02,-4.64149e-01,2.48118e-01,8.37206e-01,5.64926e-01,-3.59605e-01,6.84157e-02,-1.13199e-01,3.39491e-01,-4.18826e-01,
4.18206e-02,2.77341e-01,9.13464e-01,-1.40033e-02,-4.41300e-01,2.96945e-01,-4.36026e-01,-6.62610e-01,8.56547e-01,-5.61390e+00,5.00118e-02,-3.95757e-01,9.58976e-01,-3.69242e+00,-2.70575e+00,-6.54572e+00,7.07396e-01,-1.42697e+00,-9.98739e-01,4.63854e-01,-8.64454e-01,-2.36606e+00,5.27483e-01,7.70242e-01,-1.83673e+00,1.75617e+00,-9.58602e-03,2.68839e-01,-2.59850e+00,8.22259e-01,-8.19599e-01,4.43851e-01,3.59511e-01,-1.16459e+00,-2.49946e+00,-1.84759e-01,-3.31544e+00,9.86272e-01,1.73448e+00,7.84704e-01,1.53805e+00,-6.41845e-01,-7.95798e-01,-3.38267e+00,1.71528e+00,-1.63504e+00,-1.66163e-02,-1.82214e-01,3.55054e-02,2.86236e+00,
4.87177e-02,1.11721e+00,4.62816e-01,-2.76811e-02,-9.30387e-01,2.00373e-01,-1.15134e+00,3.63451e-01,-9.97359e-01,7.83464e-01,-1.52279e-02,-1.26952e+00,2.25186e-01,-1.03815e+00,3.13443e-01,2.22433e+00,-2.85765e-01,-6.35765e-01,1.47723e+00,-1.35677e-02,4.47283e-02,2.00301e-01,-2.47431e-01,-3.40512e-01,2.62247e-01,-4.17067e+00,1.45272e-02,4.94897e-01,4.14071e-01,-3.53540e-01,4.76152e-01,1.31503e+00,-7.29326e-01,-3.18994e-01,4.00051e-01,1.36414e-01,1.29100e-01,2.06298e+00,1.06450e-01,9.10022e-01,1.43116e-02,4.99191e-01,-1.12374e+00,7.47933e-02,4.20358e-01,-3.01247e-01,-2.53498e-02,4.57435e-01,3.71132e-01,3.08747e-01,
5.93240e-02,1.87718e-01,4.23171e-01,-1.13415e-02,-4.45009e-01,-8.66756e-01,-1.39369e-02,-1.31546e+00,8.97957e-01,1.97553e+00,5.55270e-01,-2.78429e-01,-4.87259e-02,1.00157e+00,-7.79338e-01,-1.38527e+00,-8.56544e-01,2.89452e-01,1.81801e-01,-1.93079e-01,3.85480e-01,-3.54278e-01,-2.03836e-01,1.09927e+00,1.32611e-01,-3.84431e+00,1.78594e-02,2.97181e-01,-4.78587e-01,-3.65381e-01,-3.98554e-03,-9.05665e-01,1.74616e+00,5.51994e-02,3.65266e-01,3.96526e-01,6.33511e-01,2.41081e+00,-2.34802e-02,-1.29811e+00,-5.57588e-02,-7.41005e-01,1.85096e-01,1.50933e-01,-2.33127e-01,6.45253e-01,3.83877e-02,4.43254e-01,4.75502e-01,4.89101e-02,
1.45703e+00,
2.69341e-01,
-2.34063e-02,
-1.55863e+00,
-5.78284e-01,
-7.99029e-01,
-1.99558e+00,
-2.19429e+00,
-2.36774e-01,
-7.19871e-01,
-1.07470e-01,
-1.54881e+00,
-1.01874e+00,
-3.28845e-01,
-1.91800e+00,
-1.38178e+00,
-1.72134e+00,
-1.36270e+00,
-7.11070e-03,
-8.58007e-01,
2.33023e-01,
6.19696e-01,
4.78331e-01,
-1.48737e+00,
4.99203e-01,
1.54994e-01,
-7.22414e-01,
-9.49382e-01,
7.88308e-02,
6.66451e-01,
2.49839e-01,
-3.07759e-02,
6.04834e-01,
-1.92368e+00,
-3.33158e-01,
-5.80324e-01,
-4.22525e-01,
-1.35871e+00,
-5.05814e-01,
-1.09911e+00,
2.45720e-01,
-1.05998e+00,
1.05678e-01,
-5.12559e-01,
-5.38860e-01,
3.35861e-01,
-2.21011e+00,
1.14690e+00,
-2.13619e+00,
-1.10200e+00,
-4.03319e-02,-1.47552e-01,-2.16223e-02,-4.30471e-01,-4.78991e-01,2.62955e-01,3.55097e-01,-6.07849e-01,2.67499e-01,-1.13198e-01,1.79594e-01,4.75375e-01,4.68149e-02,-7.46482e-02,-1.55352e-01,2.28868e-01,2.82416e-01,-1.28187e-01,-2.12041e-02,-2.53260e-01,-9.67171e-02,-2.92188e-01,2.82565e-01,7.09380e-04,4.54366e-03,-2.35607e-02,-3.07570e-01,-2.40898e-01,-1.19813e-01,-6.24761e-02,-9.09795e-02,-1.01018e-02,7.99312e-02,-3.21491e-01,4.65780e-01,-4.16210e-01,-4.03638e-01,6.50881e-01,-1.06441e-01,8.59052e-02,4.84865e-01,2.70868e-01,3.60991e-01,9.32133e-02,-3.61935e-01,1.55526e-01,3.16119e-01,3.52455e-02,-8.10169e-02,4.94220e-01,
-6.76723e-01,-1.26043e+00,-3.03215e-02,-4.32949e-01,6.82657e-01,8.42785e-01,-2.45971e-01,-5.62859e-01,-1.33203e-01,-5.73777e-01,-2.04580e-01,1.45683e+00,-1.37061e+00,4.61584e-01,1.04186e+00,2.66095e-01,-1.18409e+00,-1.36357e-01,-9.22929e-03,-5.84240e-01,-5.53534e-01,-5.80754e-01,4.18611e-01,-3.43785e-01,1.76380e-01,2.67289e-01,-3.72606e-01,2.43135e-02,-7.23528e+00,-3.64656e-01,2.69087e-01,3.76429e-04,1.58672e+00,1.88982e-01,3.84116e-02,6.30365e-02,-3.33781e-01,4.10668e+00,1.31566e+00,1.11841e-01,-9.12200e-01,9.34306e-01,-5.03356e-01,-4.78458e-01,-3.58264e-01,-1.58169e+00,2.96752e-01,2.55148e-01,2.81429e-01,1.92776e+00,
-2.31785e+00,-1.68464e+00,1.40122e-03,2.11377e-02,2.13038e+00,-3.42779e-01,5.99226e-01,-1.00834e+00,4.95305e-01,-1.18905e+01,1.79515e+00,1.21130e+00,-1.25495e+00,2.78056e-01,-1.30668e+00,-6.76867e-02,-7.63729e-01,-2.26658e-01,2.54877e-03,-7.45557e-01,4.29570e-01,-1.41531e+00,-1.42921e-01,-2.12626e+00,-1.27340e+00,-4.45728e-03,-4.28378e+00,-2.45846e+00,-2.44753e+00,-6.71171e-01,-5.82658e-02,3.86942e-02,1.40130e-01,1.39835e-01,2.70351e-01,2.59793e+00,3.67244e-01,-4.99863e-02,2.61126e+00,1.44995e+00,-2.42724e+00,-4.97190e-01,-7.08137e-01,-1.27757e+00,-1.93063e+00,-5.78197e-01,-7.38907e-01,7.10675e-01,-6.93941e-02,-1.58206e+00,
-5.61006e-01,-2.79918e-01,-8.00962e-03,3.03121e-01,-1.22217e-01,5.50693e-01,5.35927e-01,3.55057e-01,-1.08747e+00,-9.59635e-02,2.98261e-01,3.80852e-01,8.95873e-01,1.27967e+00,-2.48684e-01,-7.51731e-02,3.79790e-01,3.64013e-01,-1.12071e-02,1.13002e-01,3.52718e-02,-5.93714e-01,-2.41687e-01,5.03629e-01,-6.79105e-01,-6.27357e-01,3.30950e-01,1.16327e-01,-1.06383e+00,1.10009e-01,3.03034e-01,7.86085e-03,1.40266e+00,-4.12103e-01,-2.55529e-02,-4.83622e-01,-2.45484e-01,3.64752e-01,-2.37117e+00,-1.59754e-02,-3.19133e-01,5.81768e-01,3.95428e-01,6.07391e-01,-8.08944e-01,-4.02212e-01,-5.92609e-01,6.30297e-02,4.87376e-01,2.61133e-01,
-2.56605e-01,-1.64679e-01,-4.10684e-02,-5.82904e-02,2.81249e-02,8.30638e-01,1.32400e-01,1.69981e-02,2.73962e-01,1.25716e-01,4.07977e-01,8.39095e-02,3.61234e-01,7.72367e-01,4.35813e-01,-2.98880e-01,1.24528e+00,8.26106e-02,-2.63047e-04,-1.04742e-01,8.72659e-02,4.17749e-02,3.24231e-02,1.68746e-01,-8.56658e-03,1.68277e-01,1.46406e-01,4.03218e-01,-2.23673e-01,3.39046e-02,-2.47671e-01,-2.99756e-02,-2.74458e-01,1.15099e+00,6.56913e-01,-2.38735e-01,-4.00689e-01,-5.01208e-01,8.20837e-01,3.24116e-01,-1.53721e-01,-4.63363e-02,1.61476e+00,3.74269e-01,-9.05889e-01,-5.66915e-02,-3.42950e-02,2.14881e-02,6.20291e-01,-3.10073e-03,
1.90225e-01,-2.87718e-02,-3.85011e-02,-3.76394e-01,7.67038e-02,2.27313e+00,3.08902e-01,6.86222e-01,-1.22073e-01,3.72268e-03,-1.73496e-01,5.78886e-01,2.38564e-01,-2.15177e-01,-5.50003e+00,-6.59145e-01,-1.48838e+00,-1.25952e-01,4.05184e-02,1.63028e-01,-1.21703e-02,1.75633e-01,-4.22490e-01,1.69886e-01,4.75378e-01,7.39767e-02,3.34858e-01,7.96348e-01,1.57618e-01,9.95319e-02,-4.00939e-01,1.53179e-02,9.65566e-02,-4.14712e+00,-4.98517e-01,3.93698e-02,2.57263e-01,1.35636e-02,-4.09980e-01,-1.40243e-01,-1.03307e-01,-3.46348e-01,4.74127e-02,-1.07802e-01,-3.03421e-01,2.49326e-01,-1.09894e+00,2.24222e-01,8.49160e-01,5.72722e-01,
-1.81891e-01,5.49254e-01,-3.53637e-02,-7.39549e-02,2.70388e-01,8.81056e-01,4.94998e-01,-9.77265e-01,1.77348e+00,-8.45230e-01,-4.72125e-01,-1.88348e+00,-1.78797e-03,2.80296e-01,1.30791e-01,3.65917e-02,2.00014e+00,9.42228e-02,2.56265e-02,-6.37468e-01,-7.14548e-01,-6.89239e-01,1.14832e-01,-2.12178e-01,-2.14984e-01,-1.71734e-01,-6.18058e-01,-2.48313e-01,-6.56528e-01,-8.76949e-02,-7.67891e-01,-3.79123e-02,2.86025e-01,-1.85891e-01,-2.27752e-01,8.08665e-01,-2.89692e-01,2.25099e+00,8.76899e-01,-2.65567e-01,1.09224e-01,-1.41546e+00,1.06433e-01,8.42927e-03,-7.27736e-01,1.00330e+00,5.35631e-02,3.01924e-01,9.32799e-02,9.66374e-01,
-4.75522e-01,-4.12692e-01,7.90448e-03,1.45635e-02,7.13476e-02,-2.04887e+00,-7.36642e-01,-5.98852e-01,1.22513e+00,-6.04271e-01,-1.26170e-01,1.98785e-01,4.05344e-01,6.14500e-01,-4.65541e+00,4.33685e-02,-8.45635e-01,-6.45049e-02,-4.32650e-02,2.43091e-01,-4.58575e-01,1.77612e-01,-1.51841e-01,2.72456e-01,-2.54856e-03,-3.52209e-01,-4.91775e-01,2.33377e-01,-4.81999e-02,1.54943e-01,-1.92607e-02,1.00362e-02,1.05615e-01,5.64834e-01,1.17025e+00,-3.04078e-02,-6.98651e-02,-3.87270e-01,1.10956e+00,-9.84017e-01,-2.61116e-01,-2.64619e-01,1.01806e-01,6.92158e-02,1.07163e-01,-5.87333e-03,-1.80450e-02,-2.77932e-01,1.28287e-01,1.03280e+00,
8.86579e-02,-5.74067e-02,-1.97647e-02,-7.49331e-02,-4.04599e-01,-1.59888e-01,4.78785e-01,3.13332e-01,-4.62006e-02,1.26413e-02,-2.19395e-01,-1.44231e-01,5.23481e-01,-1.40516e-01,1.02292e-01,1.22272e-01,-1.36403e+00,-3.80283e-01,-1.94483e-02,-3.95579e-01,-1.51589e-02,-8.71539e-01,3.08516e-01,7.85576e-01,1.47677e-01,3.74293e-01,1.42999e+00,4.95496e-01,-6.65896e-01,4.43023e-02,-4.88910e-02,-8.48048e-03,5.19966e-01,-2.48110e-01,6.15948e-02,-7.32699e-01,-6.44494e-02,6.55297e-01,3.43529e-01,5.20746e-01,1.93207e-01,-4.57069e-01,3.35523e-01,-3.17439e-01,4.21219e-01,-6.10674e-01,3.75320e-01,-4.61630e-01,-1.40266e-01,4.08108e-01,
2.02019e-02,1.56530e-01,1.97986e-03,1.11588e-01,-1.45608e-01,-8.20652e-01,2.91378e-01,-4.66266e-01,6.77999e-01,-1.87028e-01,1.06944e-02,6.29093e-02,-2.11442e-01,4.86273e-01,-1.59834e-01,2.00086e-01,-6.21289e-01,6.57411e-02,-1.06175e-02,2.66045e-02,-7.34180e-02,3.78286e-02,2.82548e-01,4.69749e-01,2.86008e-01,-2.09679e-01,-5.33746e-03,3.17651e-01,1.70677e-01,3.67160e-01,4.60483e-02,9.45585e-03,3.30112e-02,5.94389e-01,1.68726e-03,-9.06016e-03,-1.75208e-01,-6.65515e-02,4.77021e-01,2.84806e-01,-2.43534e-01,-2.12024e-02,2.56216e-01,1.21704e+00,-1.70847e-01,1.27373e-01,-7.92276e-02,3.52132e-01,2.12195e-01,1.82053e-01,
8.20894e-01,7.79383e-01,-1.49732e-03,3.48474e-01,3.41027e-01,1.82033e-01,-7.89952e-01,1.05726e+00,4.78140e-01,8.59572e-01,8.94977e-02,-4.96838e-01,-5.04897e-01,-1.64797e+00,-1.03313e+00,1.90673e-01,-1.52056e-03,1.58306e-01,4.51701e-02,-1.37035e-01,6.72917e-01,4.14243e-02,-1.95848e-01,1.85941e-01,-5.57328e-01,-4.98976e-01,2.83820e-02,2.43138e-01,7.51395e-01,3.39868e-01,2.15687e-01,2.70610e-02,-8.13813e-02,-1.06853e+00,1.47646e-01,-9.75448e-02,1.53649e-01,5.09327e-01,-8.40709e-01,-8.50179e-01,3.54996e-01,4.90811e-01,4.60409e-01,-1.22780e-01,4.69084e-01,-6.56930e-01,-7.96321e-01,-1.50257e-01,7.95554e-01,3.72331e-01,
3.13232e-01,8.39115e-02,-7.56061e-03,1.20916e-02,-5.48874e-02,-4.88186e-01,-1.72763e-02,7.72733e-02,-1.69393e+00,-5.76816e-02,2.78684e-01,9.32815e-01,1.23835e+00,1.58295e-01,-9.35752e-01,-3.60207e-01,1.25103e+00,8.62598e-02,-2.53766e-03,1.21521e-01,1.43384e-01,1.15185e-01,-1.84265e-01,7.09748e-02,1.36130e-03,5.22904e-01,2.82584e-01,2.99716e-01,-2.38601e-01,3.08117e-01,2.90726e-01,4.98734e-03,-3.54037e-01,4.31795e-02,-3.70431e-01,1.83490e-01,8.06336e-02,6.16857e-01,-3.97964e-01,-6.61843e-02,-4.74027e-02,3.65918e-01,7.00003e-02,2.48732e-01,-4.70355e-02,6.09805e-01,-6.99965e-02,-3.06216e-01,-1.07032e-02,3.04506e-01,
-8.02872e-03,1.11289e-01,-4.99454e-02,7.80105e-02,3.98766e-01,-2.56555e+00,-1.64200e-01,-1.15632e+00,5.72352e-01,-2.10116e+00,6.53085e-02,7.88392e-01,-1.02346e+00,-7.71703e-02,-3.06452e+00,-1.08589e-01,-2.68711e+00,6.45265e-01,-1.03342e-02,5.55874e-01,-1.74376e-01,1.42025e-02,-1.73812e-01,-9.16221e-01,4.58160e-01,9.47691e-02,-3.37672e-02,1.86623e-01,1.59096e-01,-3.02488e-01,-3.84323e-01,-3.78361e-02,-8.61728e-02,7.05180e-01,4.77888e-01,-4.82100e-01,-3.74231e-01,5.38450e-01,-3.75629e-01,-5.42243e-01,4.14503e-01,7.67004e-02,-5.43766e-01,2.69085e-02,2.15403e-01,5.74936e-01,6.43778e-01,-6.66879e-02,1.66055e-01,-4.65793e-01,
-3.72654e-01,-5.24236e-01,9.34889e-03,5.65123e-01,6.57245e-02,5.50228e-01,-1.11066e-01,-4.67029e-01,9.36035e-01,3.70133e-01,2.66740e-02,5.11271e-01,2.94057e-01,-1.69624e-01,2.91145e-01,-2.57048e-01,-1.24464e+00,2.44161e-01,-2.95643e-02,2.19511e-01,3.04493e-01,-9.04359e-03,-7.28127e-02,7.62515e-01,-6.58792e-01,-3.87984e-01,2.77671e-01,-5.93783e-02,-6.91093e-01,8.05263e-01,1.99969e-01,4.52016e-02,-1.24822e-01,8.51752e-01,5.86378e-02,1.81574e-01,-3.84759e-01,-2.89615e-01,1.25262e-01,-8.09637e-01,-6.46221e-01,1.43457e-01,8.04287e-01,1.44239e-01,-7.84149e-01,1.87919e-01,3.09304e-01,2.90866e-01,4.44657e-02,1.04059e-01,
9.08282e-02,1.57733e-01,1.85523e-02,-2.19369e-01,1.43767e-01,8.94874e-01,9.64638e-02,8.16976e-02,-9.32452e-01,3.78405e-01,2.39711e-01,5.48026e-01,-5.42825e-01,-4.85457e-01,5.23078e-01,3.35364e-01,-1.17113e+00,3.83398e-02,-1.10130e-03,-1.85438e-01,7.38244e-02,-2.21191e-01,2.38917e-01,-4.47468e-02,3.03808e-01,-9.09427e-01,-3.49252e-02,-1.20895e-01,1.62876e-01,9.48953e-02,-4.01487e-01,4.51846e-02,3.65627e-01,3.38268e-01,3.49300e-01,-1.67274e-01,-3.87517e-02,-7.69673e-01,3.43511e-01,5.73403e-01,1.24257e-01,-3.51264e-01,4.45560e-01,1.87742e-02,-6.06173e-01,1.54409e-01,-9.21701e-02,1.50104e-01,1.65815e-02,-6.40149e-01,
-9.75658e-02,-5.83259e-02,5.46479e-02,7.71844e-02,-2.48504e-01,-1.29633e-01,1.98408e-02,-4.15767e-01,-1.14184e-01,-1.49893e-01,-7.12409e-02,1.04546e-02,-3.16098e-02,1.61119e-01,-6.38533e-01,-4.43651e-02,-2.35008e-01,-7.70582e-02,4.97216e-03,-6.02619e-01,1.27661e-01,1.02993e-01,-1.76190e-01,3.18548e-01,-5.84860e-02,-1.98046e-01,-3.60593e-02,1.06111e-01,6.32543e-02,6.63165e-01,2.24878e-01,3.35504e-02,4.52880e-01,3.00708e-01,-1.05250e-01,-1.55321e-01,-1.00150e-01,4.47243e-01,2.15253e-01,-5.96668e-01,-5.91750e-03,4.58303e-01,3.06184e-01,7.21399e-02,-1.18559e-01,-2.32748e-01,-4.01964e-01,-1.36702e-02,2.69180e-01,-3.09813e-01,
4.21602e-02,4.58603e-01,1.78966e-02,-4.40287e-01,2.59319e-01,2.58893e-01,-1.59226e+00,-1.65909e+00,-2.29931e+00,-2.42844e-01,5.45082e-01,8.81071e-01,-2.37038e+00,-1.83952e+00,-6.90687e-01,2.76876e-01,1.27713e+00,6.99606e-01,1.42166e-02,-6.98139e-01,-1.49759e-01,-7.87831e-01,-2.87707e-01,2.36930e-01,8.38902e-02,-1.46830e-01,1.39353e+00,1.15404e+00,2.92017e-01,3.51650e-01,-2.60829e-01,-5.25967e-02,-3.64390e-01,-1.12916e+00,3.52070e-02,1.22581e-01,-5.73968e-01,-7.17800e-01,1.40941e+00,7.90556e-01,2.29599e-01,-2.53510e-01,1.72708e-03,2.69971e-02,-1.57225e-01,5.21550e-01,5.40013e-01,3.10068e-01,-1.80207e+00,1.68284e+00,
3.22489e-01,1.14724e-01,-2.28397e-02,1.49661e-02,-3.78206e-01,6.63026e-01,-2.47126e+00,-1.27624e+00,-8.34193e-01,-1.68694e-01,2.49950e-01,-5.85954e-02,5.55725e-01,9.56554e-01,-4.78178e+00,3.14420e-01,-1.40229e+00,9.46622e-01,-4.56252e-02,4.15937e-01,1.36520e-01,1.39768e-02,-4.12832e-01,7.58755e-01,8.03597e-01,-7.51777e-01,4.57303e-01,6.42708e-01,-8.72968e-01,5.80699e-02,-4.17414e-01,-4.46196e-02,1.14326e-01,-1.11377e+00,3.04837e-01,-5.48538e-01,-5.14415e-01,-8.22747e-01,-1.46804e+00,4.50306e-01,6.26592e-01,7.25257e-02,1.14260e-02,-5.60131e-02,-3.56060e-02,-1.07248e-01,-2.80556e-01,-5.79777e-01,-6.82810e-01,-4.11321e-01,
-8.26200e-01,-8.88400e-01,2.34653e-02,4.81002e-02,-8.32957e-01,7.19819e-01,7.42363e-02,2.26140e+00,1.18446e+00,-3.37659e+00,5.56023e-01,-1.07446e+00,1.58138e+00,5.30995e-01,-1.19223e+00,-1.22968e+00,-1.03950e+00,-9.15193e-01,4.38905e-03,3.71092e-01,4.95911e-01,-4.53369e-01,-2.17765e-01,1.38121e+00,-4.74680e-01,-9.76998e-03,-2.30982e-01,-1.02747e+00,-5.28424e+00,1.36073e-01,3.82551e-01,-2.85415e-02,3.23978e-02,5.68784e-01,-3.19714e-01,-1.75956e+00,1.53745e-01,4.09851e-01,5.28130e-01,-5.24269e-01,1.20357e+00,-4.07578e-01,-5.48972e-02,-4.29499e-02,-9.34967e-01,4.99007e-01,8.07431e-01,5.62159e-03,3.58233e-01,-3.57849e-01,
-3.65045e-02,1.10459e-01,4.92801e-02,-6.96974e-02,3.42726e-02,4.52380e-01,-4.81801e-01,-7.82653e+00,1.19776e-02,-1.39432e-01,2.73594e-01,7.07162e-02,4.07189e-01,-9.72359e-01,-4.01779e-01,-2.28260e-02,8.96633e-02,-2.25540e-01,5.05099e-02,-6.67670e-03,-2.84227e-02,-8.43331e-02,-1.24049e-01,8.19943e-01,4.87085e-01,3.22476e-02,6.95914e-02,-1.80308e-01,-1.32060e-01,-4.25603e-01,6.04360e-02,7.22152e-03,-8.97489e-02,-5.88045e-01,-1.02911e+00,-6.43693e-01,2.40699e-01,-2.65800e-01,-4.87053e-01,-2.39484e-01,4.17611e-01,1.23303e-01,-7.38885e-02,-1.92802e-01,-1.73750e-01,3.45173e-03,-1.35167e+00,-1.02975e-01,1.31715e+00,3.83990e-01,
3.97416e-01,-6.44408e-03,2.55488e-02,7.29059e-02,3.82340e-01,-1.53491e+00,4.18226e-01,-3.70238e-01,-2.87649e-01,-2.28036e-01,3.74030e-03,9.56023e-02,-6.37124e-01,-1.87052e-01,1.63121e-01,4.31688e-03,9.24460e-03,5.50963e-01,-2.03417e-03,-7.41906e-02,4.16127e-01,-1.95653e-01,-6.45556e-01,-7.60724e-01,-2.16856e+00,-3.61073e-01,-1.76416e+00,-8.68892e-02,-3.32161e-01,7.12438e-01,-8.56512e-01,4.88178e-02,4.21469e-01,5.49677e-01,3.11863e-01,1.15608e+00,-3.95245e-01,7.06306e-01,-8.00488e-01,-1.43301e-01,3.89008e-01,-3.56762e-01,5.21502e-01,4.19393e-01,-5.97939e-01,-4.24212e-01,-1.92754e-01,2.19458e-01,1.50443e-01,1.54605e+00,
2.25980e-01,4.79256e-01,4.49661e-02,3.79311e-01,-4.07765e-02,-4.79651e-01,7.25735e-01,-1.70046e+00,-1.75797e+00,-1.08206e-01,8.83340e-01,3.53609e-01,-1.69694e+00,3.74026e-01,2.33876e+00,1.85080e+00,1.65508e+00,1.44993e-01,-1.19839e-02,-3.88592e-01,-6.94645e-01,-1.18103e-01,1.42419e-01,-2.62009e-01,4.87639e-01,-6.60828e-01,-9.26331e-01,-5.54831e-01,-4.37913e-01,-6.87076e-01,-3.97834e-01,4.12152e-02,-1.13408e-01,-5.57068e-01,-1.64553e-02,9.16781e-01,-2.75338e-01,-1.22231e-01,3.21114e+00,7.57488e-02,-4.61862e-01,-2.92919e-01,2.28049e-03,-6.26246e-01,-1.21576e-01,-1.18294e+00,2.28802e-01,5.23250e-01,-3.95646e-01,2.27807e+00,
1.58085e-01,4.15962e-01,-4.33534e-02,-3.41812e-01,9.04376e-02,-7.08402e-02,-1.73731e+00,2.80265e+00,5.80583e-01,4.23937e-01,3.57954e-01,-4.46200e-01,-5.57529e-01,-1.02990e+00,5.24302e-01,-3.90044e-01,1.06973e+00,1.36342e+00,-5.49491e-03,-4.11383e-01,4.49168e-01,-6.33763e-01,-2.05192e-01,3.13433e-01,-3.66095e-01,-7.95749e-02,4.78639e-01,-4.37372e-01,4.02989e-02,-5.00169e-01,8.56697e-02,-1.07547e-02,5.47586e-01,2.09386e-01,6.76870e-01,-3.25593e-01,-6.51995e-01,-4.28588e-01,4.01528e-01,9.61550e-01,-2.92447e-01,-4.66818e-01,2.08625e-01,-1.01879e-01,8.57653e-04,1.33031e-01,-1.81817e+00,-5.71782e-01,8.66880e-01,1.13947e+00,
3.47538e-01,6.98539e-01,-2.47962e-03,1.48720e-01,8.04403e-01,6.12873e-01,3.17448e-01,-1.45529e-01,8.50044e-01,-4.42901e-01,6.74929e-01,9.08049e-01,2.02715e+00,-3.58523e-01,2.01968e+00,2.30988e-01,4.27772e-01,-7.38660e-01,-3.73637e-03,6.47431e-01,-9.74166e-02,6.20018e-01,-5.99363e-01,5.43815e-01,-1.62021e+00,-9.33356e-02,-6.52325e-01,-1.66289e+00,4.38959e-01,-2.76947e-02,-3.97631e-01,-2.18188e-02,-2.25418e-01,3.72698e-01,-5.98804e-01,9.91780e-01,8.94612e-01,2.51656e+00,-1.24983e+00,-9.22515e-02,-1.04622e+00,5.17459e-01,1.78828e-01,-1.66258e+00,-8.52127e-01,9.64014e-01,8.15709e-01,1.02868e+00,-1.85024e+00,4.37452e-02,
2.34458e-02,-2.25110e-02,-4.59819e-02,-1.29325e-03,2.96201e-02,1.18800e-02,-9.14275e-03,2.29114e-02,-4.73720e-02,8.83500e-03,3.32598e-02,3.65267e-02,2.39581e-03,1.43044e-03,-3.61461e-03,-3.42445e-02,8.52502e-03,3.91685e-03,2.09142e-02,-4.55866e-02,2.01690e-02,-5.26689e-02,1.42755e-02,4.59332e-02,-4.03537e-02,-5.36985e-02,-4.04442e-02,-4.44354e-02,-2.25473e-03,-1.49095e-02,1.37237e-02,-1.14036e-02,-2.17238e-02,-8.28178e-03,-2.51766e-02,-7.04691e-03,-5.14845e-02,-1.62060e-02,3.71858e-02,-3.99137e-02,-6.65296e-03,-3.88539e-02,-2.43062e-02,-5.22015e-02,-3.25436e-02,-3.11690e-02,-3.71294e-02,-1.07862e-02,-4.34321e-02,-1.30684e-02,
1.82773e-01,3.58442e-02,-3.90815e-02,-6.77306e-01,-9.19725e-01,1.55474e-01,-6.60205e-01,-9.51186e-01,1.11642e+00,1.45853e-01,-1.09970e-01,7.72781e-01,2.90715e-01,9.44013e-02,-4.30188e-01,4.89701e-01,2.84452e+00,9.23277e-01,-2.67835e-02,-4.90056e-01,-3.23967e-01,-3.10485e-03,3.18534e-01,3.58712e-01,-8.07028e-01,5.16266e-01,4.38560e-01,1.06343e+00,-7.50670e-01,8.90657e-01,-2.90921e-01,4.23355e-02,7.17594e-01,4.60732e-02,7.42086e-02,-4.30897e-01,-1.15517e+00,1.55411e+00,2.99955e-01,7.40835e-01,-3.66210e-01,-2.25178e+00,-3.96729e-01,2.58548e-01,-4.35922e-01,3.77398e-02,2.38907e-01,2.80014e-01,-1.36952e+00,1.57557e+00,
-1.12326e+00,-1.03593e+00,-3.99015e-02,3.64384e-01,-2.85715e-01,-1.22161e+00,-1.39913e-02,5.20094e-01,-5.35186e-01,8.31042e-02,-2.85638e-01,6.83086e-01,7.83354e-01,5.53381e-01,9.73125e-01,-2.96384e-01,-1.71204e-01,-2.88159e-01,1.56408e-02,5.79217e-04,3.04911e-01,-6.49004e-01,2.23725e-01,2.81795e-01,5.13693e-01,-6.00392e-01,2.57263e-02,-1.53322e-01,1.14624e-01,6.05725e-01,7.30756e-02,3.69533e-03,8.25007e-01,4.61907e-01,3.78243e-01,-4.67375e-01,1.73081e-01,1.59112e-02,-7.06588e-01,-2.02663e-01,3.39676e-01,-1.82734e-01,-1.06192e-01,-2.22207e-01,-3.09329e-01,-4.86709e-01,-9.36650e-02,2.31537e-01,3.09837e-01,4.33736e-01,
-3.89127e-01,2.81480e-01,-4.50097e-02,-1.36098e-01,-1.31123e-01,7.03519e-01,-8.19003e-02,3.18712e-01,-1.76821e+00,-8.49873e-01,2.56006e-01,-1.22317e-01,-5.51412e-01,1.77266e-01,9.48513e-02,1.16678e+00,-7.74536e-01,-2.74282e-01,-6.34681e-03,-2.40502e-01,-8.19791e-02,-3.13895e-02,-3.52888e-01,3.33783e-01,7.96641e-02,1.95279e-01,2.01978e-01,2.55279e-01,-5.45446e-01,8.14907e-01,-2.55325e-01,3.88465e-02,2.23792e+00,-5.82475e-01,-8.20004e-03,1.07877e-01,3.56496e-02,1.81146e-01,-6.77992e-01,-2.48053e-01,5.56985e-02,-2.78804e-01,8.68282e-01,-6.49132e-02,-2.89249e-01,3.79636e-01,5.71790e-01,-1.61208e+00,-5.75176e-01,-1.35481e+00,
-2.15046e-01,1.18525e-01,-6.98935e-03,1.24246e-01,2.36560e-01,-1.26146e-01,1.41178e-01,-3.02973e-01,8.67226e-01,2.19352e-01,-9.24426e-01,8.97105e-01,5.44304e-01,4.18741e-01,-1.20418e-01,4.04501e-01,-3.82285e-01,-2.44492e-01,-6.69130e-04,3.63035e-01,1.29417e-01,-2.13008e-01,-4.03073e-01,8.50499e-01,-2.50949e-02,-1.01100e-02,1.10696e+00,6.28771e-03,-1.44888e+00,-2.26522e-01,-2.69682e-01,-2.17281e-02,-2.86814e-01,5.73738e-01,4.94962e-02,-3.63208e-01,-5.74793e-01,-5.99720e-01,1.02887e+00,3.69844e-01,-1.08542e-02,3.68867e-01,-1.46292e-01,4.33038e-01,-3.11948e-01,-3.08500e-01,-3.64703e-01,-2.45832e-01,1.02514e+00,9.31346e-01,
-2.72459e-01,-1.22949e-01,1.65958e-02,-4.45588e-01,-1.26691e-02,-1.14660e-01,-2.63274e-01,1.31836e-01,-5.60717e-01,-3.34779e-01,2.71537e-01,-1.35815e-02,6.21207e-01,-1.01399e-01,2.44549e-01,-1.24100e-01,-6.48136e-01,1.51128e-01,-3.05143e-02,1.09085e-01,-3.83951e-01,2.85271e-01,2.66622e-02,3.11598e-01,1.45484e-01,-1.90226e-01,-4.74354e-03,-3.11471e-01,-2.23512e-01,-1.56130e-02,2.27017e-01,-3.58850e-02,-3.99351e-01,-1.16393e-01,-2.00904e-01,-1.77190e-01,-3.50848e-01,4.29413e-01,-4.99638e-01,1.14283e-01,-1.32767e-01,3.01437e-01,3.31854e-02,-1.32795e-01,-2.60418e-03,9.80825e-02,9.67035e-02,-3.92652e-01,4.02608e-01,1.85523e-01,
-4.75247e-01,-9.74948e-02,-4.26898e-02,-6.63572e-01,-1.69103e-01,-5.38825e-01,4.82757e-01,-4.79622e-02,-5.25836e-02,-1.87823e-02,1.29171e-01,1.49364e+00,5.65330e-01,-3.40219e-02,-4.38844e-01,-2.45191e+00,6.40428e-01,3.05778e-01,2.86882e-03,5.09455e-01,-4.31779e-01,-1.62208e-01,2.42378e-01,-1.99299e+00,-4.91187e-01,3.37513e-02,-5.29700e-02,-1.08074e+00,1.01854e-02,-5.04080e-01,3.94831e-01,4.77870e-02,-1.31836e+00,-3.16661e-01,-6.89628e-01,4.93438e-01,-3.24256e-01,-4.07740e-01,1.75529e+00,2.31060e-01,2.73884e-01,4.74585e-01,-5.68659e-01,-3.11050e-01,1.45363e-01,4.73903e-01,2.11218e-01,2.11570e-01,-1.55798e-01,1.77170e+00,
-1.55124e+00,6.75807e-01,-2.22968e-02,-7.04609e-01,-1.45074e+00,9.60130e-01,-2.73784e-01,3.54005e-01,-1.46760e+00,-4.47990e-01,2.21125e-01,8.57864e-01,-2.30778e+00,-7.35498e-01,-3.08749e+00,-8.73610e-01,-5.77707e-02,-8.15329e-01,-5.11349e-03,4.53998e-02,-3.05012e-01,6.46047e-01,-2.91034e-01,-4.15265e-01,6.78818e-01,-2.13926e-01,-1.21467e-01,-9.14737e-01,-1.36906e+00,-9.41989e-01,7.03455e-01,-5.76249e-03,-8.83997e-01,1.38858e-01,-6.13212e-01,1.22454e-02,5.65627e-01,-1.31073e-01,-8.12320e-01,-5.12564e-01,5.46181e-01,6.70348e-02,-1.57755e-02,-5.15828e-01,1.34620e-01,-7.30671e-01,-2.71551e-01,-2.22378e+00,4.44578e-01,-2.74792e-01,
-6.82543e-02,-3.42720e-02,-5.24910e-03,3.94632e-02,-3.94864e-01,-1.34685e-01,-1.72360e+00,1.21079e-01,1.89636e-01,1.51710e-01,3.77351e-01,-3.90160e-01,-1.78183e-01,1.19130e+00,3.71873e-01,1.78247e-01,-1.35204e+00,2.27822e-01,-2.15351e-02,6.71200e-01,2.39696e-02,-2.52521e-01,-5.11904e-01,-6.74760e-02,-2.11501e-01,-2.45895e-02,2.01583e-01,1.08035e-01,6.04141e-01,2.61300e-01,1.09275e-01,-2.22158e-02,3.63174e-01,2.05926e-01,5.36973e-01,-1.22993e-02,8.65158e-03,1.59114e-02,2.72180e-01,-1.22236e-01,1.63668e-01,2.98268e-01,1.53697e-02,-1.06715e-01,2.40055e-01,-9.54098e-03,6.37810e-01,1.60104e-01,-8.38592e-01,-2.02543e-01,
1.61816e-01,7.44427e-01,-6.98730e-04,-1.47105e-01,7.96718e-01,-1.89146e-01,-6.11418e-01,-3.33469e-01,1.77394e+00,4.79104e-01,4.13010e-01,-1.40735e+00,1.09925e+00,4.51585e-01,-3.06361e-01,-7.08018e-01,-5.53588e-01,3.81471e-01,-4.36178e-02,1.76714e-01,2.05951e-01,8.02521e-01,-2.81703e-01,-4.31393e-02,-1.91083e-01,5.71346e-01,-3.89097e-01,-1.12068e+00,3.59439e-01,1.75257e-02,1.65203e-01,-5.18150e-02,-7.34897e-01,5.51394e-01,-5.34918e-01,9.30005e-01,-1.66921e-01,-2.89545e-01,1.76910e+00,4.04185e-02,-2.94558e-02,2.23411e-01,3.75110e-01,-6.98657e-01,-5.49447e-01,6.13497e-01,-2.87473e-01,4.10752e-01,2.98846e-01,3.97501e-01,
4.45914e-01,-2.14664e-01,4.17001e-03,-2.63143e-02,6.39716e-01,-1.47538e-01,-3.44738e-01,7.29852e-01,5.77338e-01,1.25314e-01,1.23241e-01,3.82901e-01,8.53031e-01,-8.42676e-01,1.45494e-01,2.24372e-01,1.47206e+00,-2.81673e-02,-4.16278e-02,-1.75792e-01,3.92057e-01,-4.29522e-02,-3.30801e-01,-2.11664e-01,-3.30141e-01,-4.69069e-03,-2.54377e-01,3.80547e-01,3.81979e-01,-3.77303e-01,-3.76687e-01,-3.70807e-02,-1.37150e-01,3.25638e-01,-3.34593e-01,6.09157e-01,3.54529e-01,-8.73839e-01,1.74789e-01,4.16138e-03,1.72155e-01,-2.50060e-01,-4.19265e-01,4.30347e-01,-7.29215e-02,-1.91023e-01,-2.86696e-01,5.44294e-02,-3.78739e-01,-3.24240e-01,
-5.86666e-02,1.94775e-01,-3.81402e-02,4.80402e-01,-6.88670e-01,7.66112e-01,1.56882e-01,1.58031e-01,1.88481e-01,-2.85676e-01,3.44500e-01,7.34397e-01,2.16956e-01,1.25102e-01,1.18488e+00,4.80508e-01,1.43246e+00,1.08131e-01,-5.78275e-03,-7.99062e-01,3.55091e-02,-1.98123e-01,-2.32746e-01,6.85798e-01,2.03580e-01,-5.76696e-01,-4.27818e-01,-4.54941e-02,7.09115e-01,-3.49957e-01,-9.26686e-02,-8.27976e-03,1.84587e-01,8.48093e-01,3.12698e-01,-2.95426e-01,-3.89632e-01,9.26805e-01,-6.52531e-01,5.62103e-01,-3.13801e-01,3.08321e-01,1.06799e-01,5.43505e-02,-9.35646e-01,7.27333e-02,1.15126e-01,9.75113e-02,5.54165e-01,9.75302e-02,
5.69869e-01,4.03333e-01,9.69813e-03,-2.54278e-01,6.31915e-01,-1.15009e+00,2.18195e-01,-1.28057e+00,1.27286e+00,4.13543e-01,1.09557e-01,4.74737e-01,7.64306e-01,4.36971e-01,-2.45407e+00,1.04305e-01,-2.63496e-01,5.95782e-02,-4.15394e-02,3.79877e-02,2.36187e-01,2.99322e-01,1.60744e-01,4.44680e-01,-1.45218e-01,2.99088e-01,4.64581e-01,1.68534e-01,1.08293e+00,5.45147e-01,-1.59957e-01,-5.47442e-02,3.39096e-01,3.32619e-01,-2.54430e-01,6.13251e-01,6.30275e-02,-8.14296e-01,9.11533e-01,1.83482e-01,-4.23318e-02,-5.25990e-01,-5.80984e-01,-2.43308e-01,7.14031e-01,7.37394e-01,-1.32556e-01,6.51491e-01,-1.29909e-01,1.30471e-01,
2.77418e-03,1.52390e-03,4.02141e-02,-2.04753e-01,1.13936e-01,-3.41894e-01,2.32825e-01,-2.55008e-02,-1.87083e-01,-3.83754e-01,4.24037e-01,-4.55494e-01,-1.36596e-01,2.74895e-01,-3.72604e-01,4.33530e-01,9.60326e-01,-1.64403e-01,-8.39946e-03,-2.66588e-01,3.01640e-03,-2.52209e-01,4.49416e-01,4.01083e-01,3.53570e-01,-1.51598e-01,8.83323e-01,6.00380e-01,-4.79720e-01,1.53306e-02,-9.88670e-02,4.65801e-02,7.10969e-01,5.67635e-01,2.34215e-01,-3.26277e-01,-2.35017e-01,-4.86411e-01,1.48681e-01,2.11281e-01,-1.83057e-01,-1.14085e+00,2.28315e-01,-1.24768e-01,-8.10748e-02,-5.80482e-02,-5.41686e-02,6.06022e-02,5.77437e-01,2.20869e-02,
4.12060e-01,7.33155e-02,5.11096e-02,4.58831e-01,-4.82276e-01,8.85956e-01,-4.59698e-01,-8.71654e-01,4.10372e-01,-3.21344e-01,3.62171e-01,1.95903e-01,1.00700e+00,2.74777e-01,-1.14364e+00,-1.52834e-01,-1.76430e+00,2.74470e-01,-3.90877e-02,-3.28933e-02,-4.04264e-01,3.75398e-02,-1.55251e-01,2.50344e-01,-1.47167e-02,8.52168e-02,-4.75972e-01,5.20105e-01,-4.64083e-01,7.48333e-01,3.57098e-01,-1.81607e-02,1.81794e-01,4.38441e-01,6.18830e-01,-7.06337e-02,-6.42429e-01,1.00966e+00,-9.67311e-01,-1.86740e+00,-1.25302e-01,5.91647e-01,3.44718e-02,2.11468e-01,-5.36071e-01,2.67047e-01,-7.31024e-01,-1.56825e-01,2.13862e-01,-6.94377e-01,
7.47523e-03,-9.38375e-01,-1.56434e-02,-3.90981e-01,3.47428e-01,-9.75967e-01,-2.49523e+00,2.26789e-01,-3.84557e-01,1.12761e+00,3.40225e-01,-4.23672e-01,9.75096e-01,7.88698e-01,-5.50104e+00,-1.85996e+00,-1.43922e+00,-1.86345e-01,-4.03752e-02,-3.27948e-01,7.72938e-01,1.43877e-01,-2.41444e-01,6.06597e-01,-1.15287e+00,-6.84446e-02,2.18341e-01,3.28041e-01,-2.99457e-01,-2.60327e-01,2.22589e-01,-6.91487e-02,-6.30597e-01,-1.31261e+00,-6.37580e-01,-2.13946e-01,-9.91899e-01,-4.75769e-01,4.63327e-01,1.06758e+00,6.13428e-01,1.57305e-01,-2.46950e-01,5.78644e-01,-3.67097e-01,-1.12998e-01,1.41030e-01,1.26206e-01,-6.43072e-01,-5.24906e-01,
5.62029e-01,1.21948e-01,2.34250e-04,-2.91261e-01,-2.04528e-01,-9.83642e-01,1.05369e+00,1.51425e+00,6.24223e-01,-1.27572e+00,4.30065e-01,1.54772e+00,6.71698e-02,5.71311e-02,1.66894e-01,7.04171e-01,2.71949e-02,8.20261e-01,-1.84504e-02,1.33268e+00,-2.61730e-01,-2.18047e-01,-4.22873e-01,4.71722e-01,2.66018e-01,5.69715e-02,4.75660e-01,1.67167e+00,8.86073e-02,-6.56896e-02,4.70618e-01,1.15054e-02,-3.43746e+00,-7.50002e-01,4.15738e-01,-2.56063e-01,1.53061e-01,1.78227e+00,1.28916e+00,3.62509e-01,-1.02498e-01,2.59492e-01,-6.38956e-01,-7.43671e-02,-3.67379e-01,8.39673e-01,9.08908e-01,-6.11901e-01,-3.87001e-01,4.62173e-01,
-5.08576e-01,5.87444e-02,-1.75599e-02,-8.94998e-01,8.85931e-01,-4.16246e-01,-3.88588e+00,2.88388e-01,3.17247e-02,3.77015e-01,-8.44250e-01,4.42079e-01,1.56440e-01,2.28665e+00,8.81114e-02,7.21573e-01,3.28536e+00,6.01652e-01,-2.84645e-02,2.35081e+00,-7.58995e-01,6.04637e-01,-3.58742e-01,1.19335e+00,-1.03602e-01,-6.25706e-01,-4.25276e-01,8.33154e-01,-1.13097e-01,4.12161e-02,2.71021e-01,2.30120e-02,-9.59481e-02,-1.47388e+00,-1.04434e+00,1.86261e-01,-4.72194e-01,-4.14889e-01,-2.07247e+00,-2.43943e-01,-1.33195e+00,5.73090e-01,9.13442e-01,-8.94722e-01,5.79622e-01,7.87735e-01,4.70863e-01,-9.78516e-01,5.64160e-02,1.55898e+00,
-2.06870e-02,-7.97644e-02,1.90646e-02,1.52531e-01,-6.40437e-02,-8.83947e-01,-4.63807e-02,-7.30190e-01,1.82609e-01,2.66515e-01,-7.75152e-02,1.12486e-01,-2.95686e-01,-2.66616e-01,-2.67619e-01,-3.23356e-01,-9.98614e-01,2.08491e-01,3.46614e-02,1.20974e-01,3.19907e-02,6.64298e-02,-5.19479e-02,-2.59703e-01,-9.28199e-02,-3.60733e-02,-6.63644e-02,-2.28710e-01,-9.01965e-02,2.00405e-01,-1.13647e-03,1.90992e-03,-1.63141e-02,2.39532e-01,7.10595e-02,4.35448e-01,-1.03038e-01,-6.59064e-01,7.42016e-01,-9.06378e-02,-1.04602e-01,-3.26053e-01,-1.83584e-01,1.38922e-01,-7.53955e-02,1.05766e-01,-1.65963e-02,-1.47446e-02,-2.53459e-01,4.39322e-01,
3.48795e-01,-2.39602e-01,-3.91337e-03,-5.90987e-01,-1.41409e-01,-4.42998e+00,-1.50791e-01,3.56928e-01,-7.73078e-01,-9.08408e-01,1.33193e-01,2.04459e+00,-7.44777e-01,-3.04302e-01,-2.91497e+00,-4.42002e-01,-1.37148e+00,5.44304e-01,1.87935e-02,5.26878e-01,7.18890e-01,-8.78719e-02,-5.97234e-01,1.09841e+00,-9.00475e-01,-7.99355e-02,-6.38648e-01,4.26686e-01,3.47780e-01,5.90614e-01,4.49928e-01,-8.54848e-04,-2.68020e-01,-6.82018e-01,-4.93274e+00,1.08853e-01,-4.43883e-01,6.10138e-01,1.05884e+00,9.52875e-01,-9.15212e-01,-7.89483e-01,1.52921e-01,-8.64412e-01,2.69734e-01,-1.39216e-01,-3.01689e-01,2.84296e-01,1.89203e+00,-4.40413e-01,
8.57628e-01,-1.38245e+00,4.25131e-02,5.17305e-01,-3.98213e-01,6.31399e-02,1.78149e+00,-6.25052e-01,-5.78927e-01,1.30870e+00,-1.57579e+00,-2.20269e+00,-2.07386e+00,-9.70203e-01,-1.31202e+00,6.21150e-02,-2.37861e+00,-3.18095e+00,-2.26965e-02,-4.42751e+00,-3.16806e-01,-2.55427e+00,-1.33051e-02,-1.00651e+00,-1.91730e+00,1.82974e-01,7.65661e-01,2.01646e+00,-7.98459e-01,8.31526e-01,-7.99605e-01,-1.17088e-02,3.04570e+00,4.60451e-02,-5.89976e+00,4.87583e-01,-1.27535e+00,-1.46861e-01,6.06159e-02,-6.82525e-01,1.14950e+00,-1.75757e+00,-3.58493e-01,8.69858e-02,9.95936e-01,-2.50507e+00,2.41338e+00,2.19337e-01,4.33431e-02,9.33717e-01,
1.65327e-01,-4.17992e-01,-2.57075e-02,2.83134e-01,-2.94578e-02,2.48473e-01,3.89183e-02,-6.93866e-01,-5.87373e-01,3.26115e-01,2.56735e-01,-2.12895e-02,-2.25002e-02,-3.12915e-01,-3.53717e-01,-2.32820e-01,-9.68171e-01,-2.63858e-01,4.60543e-02,-2.85027e-01,1.11287e-01,-1.13330e-01,5.68965e-02,-3.07756e-01,-1.72407e-01,8.30135e-02,2.72310e-01,4.49564e-02,4.19560e-03,-4.85397e-02,2.09781e-01,1.26268e-02,-2.91396e-01,-2.56068e-01,-5.59245e-01,6.45670e-02,-6.42535e-01,1.38000e-01,9.74608e-01,-2.75670e-02,2.15908e-01,4.04215e-01,1.11084e-01,7.71323e-02,-3.40706e-02,-6.60676e-01,4.71457e-01,-5.21350e-02,3.11098e-01,-2.45805e-01,
-9.56869e-01,1.19628e+00,1.18782e-02,-1.34504e-02,-4.35872e-01,7.91755e-01,-4.66540e-01,-6.23216e-01,-4.27316e+00,-6.62185e+00,-5.09623e-01,3.11279e-01,-1.12457e+00,1.68701e+00,-9.70053e-01,8.50169e-01,-2.41009e+00,3.52188e-01,6.49623e-03,-8.61124e-01,-9.00882e-01,2.98877e-01,-2.10688e-01,-3.63491e-02,2.85843e-01,1.87266e-01,2.77652e+00,1.39836e-01,-3.81654e-01,2.24033e-01,-9.00787e-01,6.70625e-03,9.26277e-01,2.63720e-01,-4.53808e-01,-3.11616e+00,-4.68394e-01,4.90981e-01,1.42034e+00,-1.56918e+00,-8.14311e-02,2.62295e-01,-8.26598e-03,6.38348e-01,-5.21389e-01,-1.07568e-01,-7.02417e-01,-1.21485e-01,8.71024e-01,1.85074e+00,
-2.03420e-03,-1.43757e-01,9.64628e-03,-7.66144e-01,-9.38084e-03,5.78550e-01,3.15839e-01,-9.22117e-01,-1.76450e+00,-1.76618e-01,1.67368e-01,6.20946e-01,4.07656e-01,6.54307e-01,-4.58507e+00,-4.70311e-01,-1.40718e+00,9.96921e-01,1.53237e-02,-1.09923e+00,-7.11239e-01,-5.15456e-01,1.40027e-01,1.31864e-01,3.46850e-01,-2.89918e-02,-2.84545e-01,-2.32680e-01,-1.17308e+00,7.97245e-02,4.37506e-01,2.34017e-02,1.35189e+00,2.32875e-01,3.26686e-01,-5.38320e-01,-9.71631e-01,-8.57757e-01,4.78079e-01,2.72085e-01,9.98930e-01,-1.19509e+00,-1.74752e-01,1.57514e-01,-7.41153e-01,-4.94478e-01,7.57968e-01,-3.75960e-02,-3.09647e-01,-2.82297e-01,
-2.07045e+00,-2.23395e+00,-3.47303e-02,1.39990e-02,-2.17631e+00,7.46169e-01,-8.98214e-01,-2.81716e+00,-2.01128e+00,-1.77107e+00,-2.13738e-01,-1.18336e+00,1.27498e+00,1.09714e+00,-1.90443e+00,-4.69546e+00,-7.44038e+00,-5.81743e+00,3.42389e-02,1.00779e-01,4.60012e-02,5.83789e-01,-1.18444e+00,-2.84706e+00,-1.87911e-01,1.20065e+00,6.69966e-01,-1.32729e-01,-9.32617e-01,6.79235e-01,-6.61976e-01,-1.94079e-02,-1.48547e+00,1.01033e+00,1.78066e-02,1.50307e+00,-3.18142e-01,7.20843e-01,-2.02814e-02,-2.91852e+00,-8.60433e-01,-9.84575e-01,7.59080e-01,2.66846e-02,1.64047e-01,-3.38293e+00,-1.36738e+00,9.20248e-01,-7.32687e-01,-1.06774e-01,
-1.83649e-01,6.39906e-05,-2.29690e-02,1.63449e-01,1.29828e-02,2.87996e-01,-3.70158e-01,2.99527e-01,-1.88765e+00,2.29708e-01,-4.16641e-01,8.09612e-02,-2.47716e-01,5.52749e-01,-9.80411e-01,-4.62994e-01,-3.83553e-02,-2.69139e-01,1.20003e-02,1.88025e-01,7.53018e-02,-3.71770e-02,1.42908e-01,2.15778e-01,-7.59176e-02,-1.35034e-01,7.35586e-01,-3.71586e-01,2.48124e-01,-6.18884e-03,-1.88063e-01,-8.00252e-03,-1.27338e-01,6.39280e-01,6.43317e-01,-6.36677e-01,1.19842e-01,-5.09649e-01,1.06468e-01,-1.32168e-01,2.02068e-01,8.43475e-01,2.52948e-01,-1.48616e-01,1.40067e-01,1.23485e-01,1.42203e-01,6.36740e-02,-1.25782e-01,1.37105e-01,
7.14931e-01,
2.43462e-02,
-1.10546e+00,
7.55139e-02,
1.08874e-01,
3.47268e-01,
2.46087e-01,
8.67190e-03,
9.45804e-01,
-1.17065e+00,
-5.64641e-01,
-7.79118e-01,
-4.10744e-01,
7.10671e-01,
8.94309e-01,
-4.08289e-01,
-2.18846e+00,
1.02401e+00,
1.00393e+00,
4.03766e-01,
1.50859e+00,
-1.29666e+00,
5.47647e-01,
-2.28696e+00,
-1.22070e-02,
-3.03917e-01,
1.25356e+00,
-5.62554e-01,
-1.21570e-01,
6.90341e-01,
-1.09913e-01,
4.22112e-01,
-4.57382e-01,
-2.74576e-01,
3.05531e-01,
-1.10612e+00,
9.05713e-01,
2.75381e-01,
-2.37575e-01,
7.94572e-01,
-1.90459e+00,
1.63246e-01,
1.11227e-01,
1.03263e+00,
1.50727e+00,
