// Neural Network File Format by Kyle Julian, Stanford 2016
7,5,5,50,
5,50,50,50,50,50,50,5,
0,
0.0,-3.141593,-3.141593,100.0,0.0,
60760.0,3.141593,3.141593,1200.0,1200.0,
19791.091,0.0,0.0,650.0,600.0,7.5188840201005975,
60261.0,6.28318530718,6.28318530718,1100.0,1200.0,373.94992,
-2.23088e-01,1.30501e+00,-1.29345e+00,8.28063e-02,3.05915e-02,
1.95194e-02,4.64652e-01,5.15122e-01,-4.66643e-01,1.92038e-01,
3.25438e-02,-1.58029e-01,1.67583e-01,-1.89192e-01,-1.30924e+00,
-2.27645e+00,-1.58862e-02,-1.73714e-02,-1.91719e-03,6.63003e-03,
5.28749e-03,1.77680e-01,-2.08935e-01,-1.06119e+00,9.42892e-01,
-1.76766e-03,-2.21671e-01,2.20767e-01,-9.08341e-01,3.15525e-01,
-3.71725e-02,-7.73126e-02,-1.51946e+00,4.00817e-02,-1.41451e-03,
2.41963e-03,5.09587e-02,-4.81859e-02,-1.42910e+00,-1.59826e+00,
6.65798e-03,2.31007e-04,1.88433e-03,-9.21872e-03,-9.90696e-03,
-1.20577e-01,8.77886e-01,-1.06810e+00,1.03911e-01,3.69267e-01,
-9.11864e-03,2.54571e-01,-6.99553e-01,1.99283e-01,-3.41429e-01,
5.83856e-05,3.26675e-01,-3.61167e-01,-8.37412e-01,-9.09871e-04,
2.58634e-02,8.28467e-01,4.91010e-01,-7.61007e-01,3.13165e-01,
5.61088e-03,7.34265e-03,1.48588e-02,6.36591e-01,-5.19283e-01,
5.97610e-01,-1.15129e-01,7.69681e-03,-2.67812e-02,2.47167e-01,
-8.79217e-02,1.57642e-01,-2.69978e-01,-3.17424e-01,-1.63959e+00,
9.44171e-04,-5.33830e-02,-2.18388e+00,1.82082e-02,-8.50468e-03,
-1.34176e+00,1.37120e-02,6.07954e-02,-2.95102e-01,1.35034e-01,
8.72316e-02,2.19117e+00,-5.57755e-02,7.53797e-02,-8.91723e-02,
-1.23029e+00,1.85418e-01,-1.11873e-01,-1.89467e-01,-3.10770e-01,
1.45827e-02,-8.21443e-02,8.73114e-02,8.60203e-02,-1.45126e+00,
-4.11516e-02,-2.39083e-01,3.39204e-01,4.16469e-01,-1.32273e+00,
4.69477e-02,-2.55701e+00,3.92077e-02,1.27178e-02,-6.93992e-03,
-2.92310e-03,8.27701e-03,-3.40252e-03,1.30001e-02,1.49736e-03,
-1.60335e-02,-2.72880e-01,1.70195e-01,-1.37680e+00,-2.62433e-01,
-5.34505e-02,1.79618e-01,-2.68513e-01,-1.25792e+00,-1.72680e+00,
-3.43276e-01,-8.45291e-01,8.66384e-01,1.38625e-01,-4.05460e-01,
-1.39791e-03,1.69472e-02,-6.85928e-04,1.03780e-02,-2.67887e-03,
-1.34465e+00,-6.32641e-03,-3.17836e-02,-1.55898e-01,-3.48036e-01,
-3.14234e-01,-1.64075e-01,-3.40793e-02,-7.02048e-01,1.90682e-01,
-2.29649e-02,-2.85947e-01,3.33844e-01,-1.81378e+00,-2.77910e-01,
-1.35771e+00,-2.80779e-01,3.94929e-01,1.57015e-03,-2.41839e-01,
8.40421e-02,-1.36872e+00,1.38514e+00,-1.33372e-02,-1.16034e-02,
-4.16564e-02,1.24930e+00,1.20103e+00,4.98511e-01,-2.60208e-01,
-9.00330e-02,-7.39631e-01,-7.96296e-03,-6.42868e-01,-3.30574e-01,
5.57986e-03,-8.30925e-03,-1.39478e-02,-8.03092e-01,-1.19897e+00,
-2.16748e+00,1.11483e-01,-1.11406e-01,6.82233e-03,8.27154e-03,
4.30715e-01,9.24889e-01,5.17794e-01,9.65043e-02,-1.16430e-01,
-1.52315e-02,5.76013e-04,2.14281e-03,1.18427e-02,-1.88647e-02,
9.23904e-03,6.13580e-02,-7.37718e-02,-4.98909e-01,-1.51100e+00,
-1.13619e+00,8.88219e-02,-6.96679e-03,4.20608e-02,1.36288e-02,
8.52650e-02,1.52453e+00,-9.75977e-01,1.04900e-01,-2.69311e-01,
-9.95590e-03,2.70561e-01,-1.70777e-01,-5.17710e-01,-1.52048e+00,
-1.21685e-02,-5.83115e-01,-5.36385e-01,-2.47735e-01,1.31444e-01,
-3.57026e-02,-2.29680e-01,2.47007e-01,8.74460e-01,-1.09650e+00,
-2.88671e-02,-1.59411e+00,1.97804e+00,-2.67478e-01,3.51012e-01,
-1.65707e+00,9.36609e-02,8.06309e-01,-1.37617e-02,8.43667e-02,
5.02803e-02,-1.02480e-01,1.14525e-01,-1.15767e+00,-3.55472e-01,
7.38240e-01,-9.78042e-01,4.11015e-01,-9.79869e-02,-2.04225e-01,
1.24115e-01,-7.30278e-01,-6.59550e-01,1.53762e-01,-6.78359e-02,
-4.97040e-01,
5.10209e-02,
-3.38024e-01,
-6.03275e-01,
9.33015e-02,
-4.80102e-01,
1.47400e-01,
-1.49482e-01,
-1.73349e-02,
-8.10528e-02,
1.33444e-01,
-1.91930e-01,
-1.90037e-01,
5.08148e-01,
2.59246e-01,
-4.31840e-01,
6.29194e-02,
-3.66229e-01,
7.66321e-02,
-3.37852e-01,
3.56543e-01,
-2.61251e-01,
-2.05228e-02,
-1.88352e-02,
-4.16597e-01,
-6.40702e-01,
1.47881e-01,
-2.32312e-02,
-4.86526e-01,
-2.73053e-01,
4.07871e-01,
-3.25931e-01,
-4.44535e-01,
-2.21766e-01,
-1.07116e-01,
-8.53633e-01,
-3.17863e-01,
2.05267e-01,
-2.38780e-02,
6.16819e-01,
1.47966e-02,
-1.52100e-01,
-4.65798e-02,
-2.38390e-02,
3.82644e-01,
-2.65257e-01,
-4.48097e-01,
-5.69333e-01,
9.49498e-02,
8.35462e-02,
7.43474e-02,3.47121e-02,3.83724e-03,2.57409e-02,1.60394e-02,2.97342e-02,-1.55118e-01,5.01063e-02,1.63896e-02,8.64163e-02,5.30229e-02,-1.73238e-02,5.67103e-02,-6.54154e-02,-1.17018e-01,2.82060e-02,-1.29397e-01,1.00930e-03,-6.38997e-02,-1.04399e-02,6.42200e-02,6.55012e-02,-5.44368e-02,3.04030e-02,1.60662e-02,-1.01189e-02,6.18475e-02,2.23782e-02,9.76327e-02,4.49185e-02,-1.81061e-02,5.06108e-02,6.98923e-02,5.08476e-02,6.20451e-03,2.76687e-03,5.54589e-02,-1.80075e-01,-1.91519e-03,-1.18506e-01,-7.93269e-03,-8.91096e-02,1.51156e-02,3.02467e-02,3.15222e-02,-1.18532e-02,5.36645e-02,-1.63301e-02,-1.61304e-01,3.63953e-03,
4.60455e-01,4.90599e-01,1.21004e+00,9.45960e-02,-4.27323e-01,-6.05293e+00,-2.07152e-01,1.82545e-01,-2.23158e-02,-4.69087e-01,4.24982e-01,-3.41201e-01,-4.23438e-01,3.52264e-01,9.51690e-02,4.22636e-01,-6.20029e-01,4.85775e-01,3.80299e-01,6.64446e-01,1.96880e-01,-5.78411e-01,-1.89733e+00,-2.10902e-02,-5.56913e-01,1.54135e-01,-8.13067e-01,3.60864e-02,3.65945e-01,6.19590e-01,-9.01982e-02,-9.22418e-01,1.49521e+00,1.25032e+00,5.40489e-01,-3.02561e-01,-2.15064e-01,5.24145e-01,-1.26570e-02,-3.83984e-02,-1.86266e-02,1.14196e-01,1.23673e-01,1.30246e+00,-3.67188e-01,-5.70621e-01,-7.16660e-02,5.37984e-01,-9.20472e-01,4.42247e-01,
1.41738e-01,5.09308e-01,-5.49128e-01,-2.47997e-01,-2.44884e-01,4.54822e-01,-3.31695e-01,-3.94497e-01,-4.88972e-02,-2.46074e-01,1.39002e+00,-2.38448e+00,3.69753e-01,-1.67168e-01,-1.39880e+00,-1.39105e+00,-9.57828e-01,7.96472e-01,-4.19143e-01,-7.62793e-01,-2.33254e-01,-7.21440e-01,3.09996e-01,3.96828e-02,-3.97144e-01,-2.97012e-02,1.69305e-01,1.40746e-02,9.11564e-01,6.07367e-01,1.81362e-01,6.73271e-01,4.74022e-01,2.26467e-01,2.35594e-01,-1.39766e+00,2.00224e-01,-1.48570e-01,-5.28945e-02,9.42320e-02,-2.37790e-01,1.30470e+00,7.50175e-01,3.84007e-02,-9.91414e-02,-2.91702e-01,1.03494e+00,5.62731e-02,4.30581e-01,6.00536e-01,
-9.47186e-04,-1.04317e-02,8.78627e-03,-3.00492e-03,1.53479e-02,-2.71645e-02,8.50817e-04,-1.69311e-02,-5.39918e-02,9.71356e-03,-2.06074e-02,-3.87743e-02,-5.31266e-02,1.54361e-02,-6.40837e-02,1.97652e-02,-3.64097e-02,-2.03423e-02,-3.38499e-02,2.08810e-02,1.29257e-02,-3.54839e-02,2.33604e-02,-9.30581e-03,3.84858e-02,5.87924e-03,1.70287e-02,1.06129e-02,5.69952e-03,-4.87548e-02,-4.39776e-02,-3.75913e-02,-2.04610e-02,1.10769e-03,1.61283e-02,4.00562e-02,2.43678e-02,-5.16843e-02,5.31495e-03,-4.78018e-02,6.08787e-03,2.52140e-03,-1.54344e-02,1.23073e-02,-3.90416e-02,1.14215e-02,-3.62680e-03,3.70964e-02,-3.37704e-03,-5.98091e-02,
1.55610e-01,2.18591e-01,1.73967e-01,4.73396e-01,-1.82774e-01,1.37574e+00,3.80093e-01,5.16717e-01,4.09696e-02,-3.25105e-01,-7.32738e-02,-2.47414e-01,-7.34049e-01,-5.67040e-01,-1.28266e-01,6.38177e-01,-1.09910e+00,-8.48195e-01,1.05698e+00,3.04462e-01,-8.61255e-02,4.32080e-01,-4.43392e-01,-9.94801e-03,-1.10556e+00,-2.25805e-01,-3.43385e-01,5.02629e-02,-2.83262e-01,3.72213e-01,-1.11080e-01,-8.70727e-03,-3.67928e-01,-7.97469e-02,-3.23970e-01,1.49075e+00,3.28133e-01,2.26982e-02,-9.44081e-03,2.92430e-02,3.47284e-01,-4.02086e-01,-3.24426e-01,1.11617e+00,5.89903e-01,-5.31414e-01,1.25369e-01,2.58374e-01,1.18615e-01,2.64695e-01,
4.56888e-01,2.21328e-01,-2.02100e-01,8.35583e-01,8.03386e-01,-9.06826e-02,7.16151e-01,3.73288e-02,5.29954e-02,6.25605e-01,-1.31566e-01,-1.70209e-01,-6.17745e-02,-3.24207e-01,-9.40933e-01,6.94152e-01,2.90356e-01,3.00300e-01,5.56943e-01,4.07280e-02,-5.38360e-01,5.02274e-01,-2.78207e-01,-2.72373e-02,2.74143e-01,-7.76945e-01,-1.87949e-01,5.63136e-02,4.44271e-01,-6.01825e-01,-8.66723e-01,4.02360e-01,5.30689e-01,-2.08805e-01,-1.30084e-01,-8.50887e-01,9.92558e-01,-3.71683e-01,4.72468e-02,1.03861e+00,9.27785e-01,3.53127e-01,4.35435e-02,-1.48242e-01,-8.41441e-02,1.05555e-01,-1.55373e+00,1.27272e-01,5.67696e-01,1.22089e-02,
1.24276e+00,2.11173e-02,-6.57647e-01,1.05611e+00,-3.90078e-01,-7.65099e-01,-5.58753e-01,4.76300e-01,2.28501e-02,-1.42217e-01,-6.02194e-01,-4.73520e-01,2.23307e-01,-2.50163e-01,-1.23662e-01,-6.20154e-01,-4.43523e-01,3.95638e-01,-4.43749e-01,-1.48637e-01,3.19427e-01,2.00726e-01,-7.09586e-02,-3.23475e-02,-1.26731e-01,7.60667e-01,2.97715e-01,-3.01614e-02,-3.33328e-01,-1.72137e-01,3.44947e-01,6.75338e-01,-2.24048e-01,-2.15584e-01,-8.24828e-01,-8.78085e-02,9.95514e-02,-1.22094e-02,-1.17972e-02,-4.71662e-01,-2.01944e-01,6.96802e-01,-4.37947e-01,3.53231e-04,5.05910e-02,-1.29421e-01,4.80333e-01,-3.78899e-01,-4.31109e-02,4.64992e-02,
-9.81761e-01,3.24980e-01,6.57560e-02,4.64416e-02,2.87380e-01,3.55506e-02,4.33438e-01,3.76483e-01,2.76078e-02,-9.25821e-01,1.83407e-01,3.81675e-01,-1.81828e-01,-2.25118e-02,-4.09709e-03,-1.28802e+00,4.82520e-02,4.09517e-01,6.07671e-01,-1.82444e-01,-9.53872e-01,-2.13368e-01,-4.09360e-01,-6.62932e-04,-1.24096e-01,5.25850e-01,-1.22086e+00,-3.34848e-04,1.97560e-01,1.80796e-01,4.02520e-01,9.43115e-02,-1.51971e+00,4.73427e-01,2.81672e-01,-6.43972e+00,-1.27883e-01,2.01666e-01,-1.96684e-02,2.46590e-01,-3.66034e-02,-1.68443e+00,-6.46346e-01,8.37730e-01,2.32768e-01,-9.57190e-01,1.16206e-01,1.54702e+00,-2.49307e-01,3.50421e-01,
-2.12213e+00,4.21746e-01,7.56112e-01,-7.89343e-01,5.50958e-02,1.67474e-01,-1.19170e+00,-2.54230e-01,1.93356e-02,8.41946e-02,-1.65258e+00,-1.29492e+00,6.18012e-03,2.13008e-01,-2.80868e-01,-2.16650e-01,-6.04023e+00,5.15412e-01,6.35658e-01,-3.66198e-01,-3.82093e-01,7.20596e-01,-2.71762e-02,4.79838e-03,4.92291e-01,-4.81271e-01,-9.92192e-01,1.60099e-02,1.56673e+00,2.27705e-01,1.97146e-01,-6.70416e-01,-6.85034e-01,1.14104e+00,3.18539e-01,-9.58172e-01,1.23159e-01,2.29923e-03,-2.89454e-02,3.00386e-01,-1.85400e-01,-1.14267e+00,-8.85377e-02,-1.32800e+00,1.25991e-01,2.94184e-01,-3.37718e-01,1.32421e+00,-1.03328e+00,1.84353e+00,
-2.93494e-01,5.85061e-01,-3.10463e-01,-1.65117e-01,-5.86203e-02,-4.14363e+00,2.48169e-01,-7.45027e-01,3.81074e-02,1.34682e-01,3.03529e-01,8.10079e-01,-3.29677e-01,-5.99063e-01,-1.24068e-01,2.12371e-01,-6.28006e-02,3.28347e-01,-9.04889e-03,-2.20888e-01,1.29439e+00,-6.14755e-01,-4.42863e-01,-4.32335e-02,-1.70589e-01,-4.03980e-01,1.67939e+00,-3.90916e-02,-1.08042e+00,1.57808e-01,4.45721e-01,-9.09194e-02,4.33518e-02,4.52443e-01,1.55144e-01,-1.20571e+00,-1.33380e-01,1.81919e-02,-3.55678e-02,-9.34503e-01,7.26575e-02,4.91014e-01,1.04173e+00,-2.37528e-01,-6.54222e-01,-1.45307e+00,-1.05195e-02,7.75811e-01,-1.56561e-01,2.45935e-01,
3.56759e-01,1.48185e-01,1.04997e-01,1.56411e+00,2.30039e-01,1.97182e+00,7.68204e-01,-1.85351e-03,-2.51258e-02,-1.18898e+00,-4.83196e-01,-4.51119e-01,-4.22089e-01,-2.19024e-01,-3.93933e-02,1.94464e-01,-3.02461e-01,7.63650e-01,2.46053e-01,9.00259e-01,-2.67936e-01,-1.21766e-01,3.74314e-01,8.10859e-03,3.38990e-01,8.27264e-02,2.26285e-02,-3.64527e-02,-2.91717e-03,2.86755e-01,-2.50846e-02,6.46824e-01,1.64832e-01,1.43892e+00,9.56156e-01,9.01146e-01,1.35471e+00,-3.86516e-01,-1.34068e-03,9.75297e-02,5.10104e-01,1.16082e-01,-3.85321e-01,2.24735e-01,-1.37206e-01,-2.13009e-01,1.36074e+00,2.36535e+00,-3.16890e-01,3.31619e-01,
-1.66739e-01,5.74565e-01,-7.44395e-01,-5.65624e-01,-7.54365e-02,-4.97544e-01,-1.14147e-02,1.56047e-01,3.25048e-02,3.79710e-02,9.85341e-02,-6.10719e-03,2.50703e-01,-9.67387e-04,2.49329e-01,3.48485e-02,-1.08800e-01,4.15874e-02,6.02105e-02,-4.85149e-01,4.70496e-01,2.78496e-01,4.14108e-02,7.64281e-03,-6.94424e-02,2.75916e-02,6.06398e-01,-4.52131e-02,8.83284e-01,5.83406e-01,1.71430e-01,-3.59456e-01,1.25278e+00,-4.13271e-02,-1.34519e+00,-2.26005e+00,3.51514e-01,3.45397e-01,4.81972e-02,1.66935e-01,-2.20525e-01,1.00409e+00,-1.21847e-01,1.59366e+00,-1.37590e+00,-1.41353e-01,4.70806e-01,2.63183e-01,-7.47862e-02,-1.36690e-01,
6.01583e-01,-1.81817e-01,6.31718e-01,4.36282e-01,4.24484e-03,8.69653e-01,6.93709e-02,6.45752e-01,5.83353e-02,-7.09795e-01,-7.82675e-02,-9.06490e-01,-5.24607e-01,2.23755e-01,-1.22427e-01,4.89208e-02,-3.98361e-01,6.94789e-02,-1.47333e-01,-2.52111e-01,5.56718e-02,-4.31855e-01,-3.36763e-01,-2.89213e-02,-7.76647e-01,5.45697e-01,3.29598e-01,-2.84291e-02,3.55091e-01,3.84073e-01,-1.01201e-02,-1.78952e-01,8.09381e-01,-2.61666e-02,-3.99859e-01,1.58994e+00,7.81887e-02,4.28281e-01,4.91987e-02,4.99164e-01,-9.68056e-02,4.50134e-02,-8.63028e-02,2.29139e-01,-7.70634e-01,-8.62808e-01,2.53225e-01,9.98156e-01,-2.04929e-01,2.45134e-01,
1.31802e+00,2.33956e-01,-3.94172e-02,-1.36403e+00,-6.60898e-01,-1.07470e+00,-2.81004e-01,1.33273e-01,-1.29857e-02,-1.22914e-01,1.05531e+00,6.02869e-01,-1.01838e+00,-5.12571e-01,7.10162e-01,8.78083e-01,-2.48901e-02,-4.62911e-01,-1.61778e+00,4.38466e-01,-2.07379e-01,1.05784e+00,-7.36282e-01,-6.20752e-03,1.80305e-01,5.76692e-01,4.63922e-01,-3.15088e-02,-1.40139e-01,1.96260e+00,-2.21121e-01,5.73574e-01,5.22121e-01,1.14186e-02,4.34757e-01,1.62624e+00,-1.78127e-01,6.67513e-01,-1.96147e-02,-2.82723e-01,1.97315e-01,-1.03197e-01,9.05972e-02,9.97323e-03,-3.29917e-02,-2.17129e-01,4.08885e-01,-2.20378e-01,2.57923e-01,-3.79790e-01,
2.43130e-01,-2.11521e-01,5.78831e-02,2.33406e-05,-1.09953e+00,-1.21377e+00,-1.71263e+00,-6.67557e-01,2.68872e-02,6.14065e-03,1.00822e-01,-2.84950e+00,2.13900e-01,-6.18953e-01,-1.24577e-01,1.77197e+00,-3.45866e+00,4.08388e-01,-1.58075e+00,-2.62059e-01,1.61177e+00,-3.58464e-01,6.30669e-01,-3.24404e-02,5.49012e-01,-5.48534e-01,5.01172e-01,2.91079e-02,1.17650e-01,-7.60161e-01,-3.38623e-01,-1.45476e-01,1.59575e+00,-5.56292e-01,1.53980e-01,1.93768e+00,4.14149e-01,-2.86363e-01,-4.17591e-02,-9.03350e-01,-1.22873e-01,-1.13948e+00,5.81701e-01,-5.18799e-01,3.04554e-01,1.38755e+00,2.05176e-01,-3.26935e-01,7.55741e-01,-4.89126e-01,
7.03180e-01,-8.13260e-02,-1.90837e-01,-7.61772e-01,1.06105e-01,-7.94931e-01,-9.58570e-02,-4.81094e-01,3.03018e-02,3.50745e-01,-2.03545e-01,-1.72742e+00,4.12696e-01,-1.28107e-01,4.87235e-01,6.70738e-02,-8.93014e-01,4.58602e-01,5.67857e-01,2.22203e-01,3.96616e-01,-1.01552e+00,4.04993e-01,-2.49252e-02,5.30981e-01,3.47441e-01,8.10420e-01,8.84995e-04,8.92442e-02,-2.19528e-01,2.31622e-02,-3.46097e-01,-5.71947e-01,1.98423e-01,-1.27304e-01,3.34379e-01,-2.36498e-01,-6.40787e-01,1.44461e-02,-1.16996e-01,-1.90230e-01,8.91711e-01,3.76554e-01,3.08563e-01,-5.16386e-02,2.75390e-01,2.05628e-01,4.24931e-01,3.74099e-01,4.10904e-01,
2.11952e-01,-4.43270e-01,6.31230e-02,1.52455e-01,-1.51516e-01,8.56980e-01,-9.66183e-03,3.10162e-02,-4.03620e-02,-4.32129e-02,-5.51511e-01,2.78198e-01,2.73721e-01,-5.22137e-01,1.38160e+00,-1.90858e-01,3.52486e-02,1.18822e-01,5.33029e-01,-2.38153e-01,6.98832e-01,5.76590e-02,1.34647e-01,-4.72462e-02,3.19249e-01,-9.47029e-02,2.82030e-01,-4.88274e-02,-6.33551e-01,-3.69119e-01,-9.62251e-01,-4.26627e-01,-3.12541e-01,3.73415e-01,7.38407e-01,-9.49930e-01,-2.19954e-01,1.07473e-01,-1.65131e-02,5.57698e-01,-1.65587e-01,-1.60714e-01,-6.31930e-02,-1.96628e-01,-7.42602e-01,-4.98874e-01,6.50136e-01,1.03077e+00,-4.63880e-01,3.64131e-01,
2.89084e-01,4.37167e-01,-3.46459e-01,2.39022e-01,-3.47211e-01,6.07261e-01,5.42242e-01,-2.70400e-01,5.19883e-03,-3.06049e-01,1.84557e-01,4.54249e-01,1.16345e+00,-2.43642e-01,-4.44775e-01,2.60109e-01,-8.95484e-01,5.18977e-01,-3.58028e-01,-1.74644e-01,2.06401e-01,3.56650e-01,1.86954e+00,-1.38588e-02,1.40832e+00,-1.10612e-01,-1.49952e-01,6.45324e-03,8.46665e-01,-4.65570e-01,2.15630e-01,4.09067e-01,8.13619e-01,5.83939e-01,9.46629e-01,-1.24677e+00,7.68015e-02,-6.67373e-01,6.25130e-03,-1.21040e-01,1.67563e-02,1.21836e+00,-2.93492e-01,4.07608e-02,-1.70663e-01,-4.93116e-01,-1.23499e-01,1.62278e+00,3.56546e-01,5.38093e-03,
1.45586e-01,3.17792e-01,-6.85282e-01,1.09411e-01,1.41440e-01,1.29657e+00,2.23219e-01,2.27656e+00,-1.05347e-02,-5.12503e-03,-3.95322e-01,2.29421e-01,1.32839e-01,1.28457e-01,9.06939e-02,-2.51601e+00,-9.61311e-02,2.75347e-01,-4.99450e-01,-4.29452e-02,-2.41013e+00,-6.74365e-01,1.55736e-01,-1.65095e-02,-1.15098e-01,4.73816e-01,-8.90092e-02,1.39025e-02,-3.97617e-01,1.99586e-01,2.17562e-02,-9.83821e-02,4.08396e-01,2.48532e-01,1.32026e-01,-2.51335e-02,-5.01763e-02,4.52189e-02,1.10342e-02,-2.57497e-01,-4.50097e-02,5.33531e-01,2.71252e-01,5.42495e-02,6.04731e-01,1.31558e-01,2.59173e-02,5.55127e-01,-1.88491e-02,4.26835e-03,
-5.99486e-01,-3.35287e-01,-4.04920e-01,4.46350e+00,5.05725e-02,-7.63869e-02,-5.80279e-01,-1.15949e-01,2.96803e-02,2.12901e-01,-1.34225e-01,5.17940e-02,-1.40476e-03,3.59807e-01,-6.49675e-01,2.79114e-02,6.37194e-01,4.53656e-01,-2.46908e-01,6.66707e-01,-6.57672e-02,5.90502e-02,8.05050e-02,4.04052e-02,2.79196e-02,-6.01346e-02,8.89732e-01,2.32821e-02,1.42225e+00,3.65525e-01,1.80746e-01,1.53856e-02,-5.58832e-01,-1.46695e-01,-6.16807e-02,-1.00969e+00,1.79198e+00,-1.88259e-01,-4.99435e-02,-1.77046e-01,1.27231e+00,8.61917e-02,5.02521e-02,-2.92009e-01,-2.81090e-01,4.65417e-01,7.91717e-01,-1.97057e-01,-7.79637e-02,-2.36576e-01,
2.81079e-01,6.98819e-01,-8.57630e-01,3.65995e-01,5.96920e-02,-5.06144e+00,1.99710e-01,3.82035e-01,1.79626e-02,-3.50249e-02,-9.76688e-02,5.61465e-01,5.13953e-01,-4.01780e-01,1.22421e-01,1.85939e-01,4.69846e-01,1.38424e+00,4.22591e-01,1.29692e-01,1.25525e-01,3.36282e+00,-1.68671e-02,-3.42804e-02,8.57168e-01,1.17230e+00,-6.03828e-01,-1.42520e-02,-5.39912e-01,5.10255e-01,-2.81912e-01,7.10981e-01,-1.17729e+00,1.37546e+00,8.13535e-01,-1.81777e+00,4.00993e-01,-3.98054e-01,1.85266e-02,-2.15284e-01,-5.26215e-01,-6.70348e-01,-7.65410e-02,-3.58971e-01,-7.77533e-01,2.14158e-01,-1.31107e+00,3.24951e-01,-5.04392e-01,-8.62070e-02,
7.70484e-01,-2.51126e-01,1.98680e-01,2.67919e-01,4.26995e-02,-2.14587e+00,2.43280e-01,-4.61731e-01,-7.54632e-03,4.79065e-01,1.95935e-01,3.20662e-01,-6.80216e-01,-5.11538e-01,5.34879e-01,1.32605e+00,2.62205e-01,-4.59098e-01,6.80532e-01,-1.80816e-01,2.42851e-01,-3.88541e-01,1.44666e+00,3.11147e-02,1.60113e-01,-7.53698e-01,3.56423e-01,2.46263e-02,-2.10269e-01,3.84506e-01,-3.24352e-01,3.68698e-01,-1.22253e-01,-2.62020e-01,-4.03832e-01,1.20781e+00,8.86739e-02,-1.05804e-01,6.99475e-03,3.20939e-01,-2.07622e-01,9.76174e-01,4.61182e-01,-2.37574e-01,6.13414e-01,2.77008e-01,-1.25978e-01,-1.66555e+00,-3.45980e-01,-4.13093e-01,
3.85136e-01,-3.30137e-01,1.25417e+00,7.54314e-01,2.31708e-01,2.73243e+00,2.83068e-01,1.71422e-01,-2.58749e-02,-7.00997e-02,8.38921e-01,-1.47243e-01,-6.23572e-01,-2.60414e-01,4.58964e-01,2.84694e-01,-2.88410e-02,-1.07606e+00,-2.71536e-01,-2.13908e-01,1.57111e-01,-2.01723e-01,-4.96744e-02,-5.53717e-03,-1.11084e+00,-2.76794e-01,7.05396e-01,-4.27537e-02,1.39786e+00,6.89601e-02,-2.10427e-01,1.32419e+00,2.42396e-01,-4.85485e-01,8.91458e-02,5.09856e-02,1.39819e+00,3.09079e-01,-2.17085e-02,1.20032e-01,1.29696e-01,-1.95854e-01,-1.30856e-01,-3.75974e-01,7.13320e-02,-6.32036e-01,4.52091e-01,-1.55797e-01,-3.15718e-01,-6.00808e-01,
-6.10957e-01,2.06988e-01,-5.88588e-01,-7.78615e-01,-5.37533e-01,-9.94516e-01,6.50185e-01,5.61730e-01,3.44295e-02,-6.19576e-01,-3.85394e-01,-2.48887e-01,3.08469e-01,3.69916e-01,-1.74528e+00,-1.52618e-02,3.19861e-01,2.64528e+00,6.07803e-01,-4.35950e-01,-9.80791e-01,1.60008e+00,1.17658e-01,1.91828e-03,-8.25639e-01,2.59694e-01,-4.87663e-01,-1.37241e-02,1.28995e-01,2.79852e-01,9.65594e-01,-9.28102e-01,-4.44238e-01,5.56283e-02,-1.46807e-01,1.24339e+00,1.23281e+00,-9.30589e-01,-7.82261e-03,-3.66962e-01,4.89395e-01,-6.47498e-01,-6.30819e-01,-7.64749e-01,-3.16042e-01,-7.35604e-05,-1.32388e-01,3.84434e-01,3.95462e-01,6.73283e-01,
8.57489e-03,7.34729e-01,6.12714e-01,1.31101e+00,-1.58053e-01,8.14399e-01,1.15902e+00,3.84051e-01,-3.11481e-02,-1.13815e-01,1.40674e-01,-7.66005e-01,2.50399e-01,2.22036e-01,-4.88504e-02,2.90881e-02,6.08161e-01,-4.52659e-01,-4.09564e-01,-3.10722e-01,3.33608e-01,9.52323e-01,7.53606e-01,1.01961e-02,-5.82666e-01,-1.47348e-02,-7.60353e-01,-2.44804e-03,-2.06322e-01,-4.19015e-01,-1.03364e-01,-6.72848e-01,-6.33885e-02,3.29407e-01,2.32299e-02,1.48950e-01,7.17629e-01,-3.39315e-01,-2.93916e-03,6.49554e-02,3.13564e-02,-1.51507e+00,-2.50492e-01,-2.67174e-03,-5.45446e-01,-5.38117e-01,-1.24703e+00,1.71775e-01,-3.66961e-02,1.59715e+00,
8.39095e-01,3.13852e-01,1.35445e+00,-2.90771e-01,-5.47334e-01,-2.46806e+00,-2.64724e-01,-1.13610e+00,-4.57331e-02,4.34445e-02,-5.97206e-01,7.37835e-01,7.42489e-01,-2.40551e-01,-2.36133e-01,1.48767e-01,-2.35431e+00,5.90165e-01,-2.93666e-01,-1.42699e+00,8.08018e-01,-1.05677e+00,1.73333e-01,-4.06500e-02,1.83444e+00,5.06793e-01,-1.70364e-01,4.98164e-03,1.78537e+00,-1.65690e+00,-3.56176e-02,-4.37795e-01,-1.17630e-01,1.29315e-01,4.75144e-01,-2.10799e-02,1.20650e-01,-6.49001e-02,-3.68330e-02,-6.69382e-02,1.89229e-03,7.86328e-01,-9.27643e+00,-1.88577e-01,2.84580e-01,-1.50119e-01,1.65624e-01,2.93193e-01,1.67532e-01,-2.19637e-01,
-1.75628e-02,-1.74793e-02,-3.55447e-02,1.01063e-02,-2.39631e-02,-4.21984e-02,2.61256e-02,5.48489e-03,3.05234e-02,3.55945e-02,-1.33464e-02,2.55601e-02,-5.29858e-02,-4.01112e-02,-4.06362e-02,-1.33140e-02,-5.16007e-02,-8.54369e-03,-3.00591e-02,-1.96705e-02,-4.51345e-03,1.68734e-02,1.89922e-03,-2.11547e-02,-3.06873e-02,1.50531e-02,-5.03151e-02,-4.88403e-02,2.29746e-02,2.17170e-02,-3.56282e-02,-3.40093e-02,1.36239e-02,1.53637e-02,-2.46525e-02,-2.95671e-02,4.93048e-03,3.41552e-02,2.19040e-02,-4.93628e-02,1.23944e-02,-4.29451e-02,1.93989e-02,3.94733e-02,6.52569e-03,2.26838e-02,4.16794e-02,-2.53273e-02,-2.46449e-02,1.09167e-02,
-6.57844e+00,5.95695e-01,2.97793e-01,3.12744e-02,-2.77476e-02,1.66976e+00,-1.68415e-01,-4.50998e-02,3.37201e-02,-1.34969e+00,-8.60215e-01,4.24080e-01,-6.43185e-01,-2.91643e-01,-2.41676e-02,1.64250e-01,-2.15284e+00,1.19804e-01,-1.88154e-01,1.07252e-01,4.25444e-02,-1.59825e+00,5.09564e-01,1.52825e-02,-2.52160e-01,-5.17106e-01,6.25724e-01,-4.32251e-02,1.26252e+00,-9.77255e-01,-5.37018e-01,-1.76780e-01,5.43556e-01,3.98163e-01,6.72002e-01,-3.44876e-01,1.06261e+00,-8.09612e-02,-1.38551e-02,-9.47578e-02,1.14382e+00,-5.44467e-01,3.33873e-01,3.62159e-01,-1.19703e-02,-2.78165e-02,3.02880e-01,1.10123e-01,-7.72181e-01,-4.77455e-01,
-1.27771e+00,-7.29065e-01,-1.32265e+00,-9.82144e-02,-6.66204e-01,-4.22168e-01,-6.15454e-01,-6.74718e-01,1.94043e-02,8.54031e-01,2.13735e+00,-2.57625e+00,-5.12216e-01,4.52280e-01,-3.27876e-01,1.72976e+00,2.37304e-01,3.83256e-03,-8.50802e-01,3.05612e-01,6.51157e-01,-4.45476e-02,-2.61548e-01,-1.39483e-02,1.14143e+00,-7.06422e-01,5.69231e-01,-4.48766e-02,4.03989e-01,-1.36831e-01,8.78631e-01,1.57970e-01,1.87737e+00,-3.45156e-01,-6.16083e-01,-8.03598e-01,-1.96143e-01,-3.50155e-01,-3.43611e-02,-1.06100e+00,-9.79822e-03,-2.24150e+00,6.45944e-01,-6.76085e-01,-4.43553e-01,6.08766e-01,8.70358e-02,2.32348e-01,5.12815e-01,2.71119e-01,
-3.67072e-01,7.33084e-02,1.49933e+00,5.70420e-01,-9.89895e-01,6.50948e-01,1.08797e+00,4.98524e-01,-1.31325e-02,-1.57794e+00,1.14706e+00,-9.17869e-01,-7.06730e-01,-8.60327e-02,5.51800e-01,-5.23466e-02,-1.30195e+00,-1.03353e+00,6.31456e-01,-9.90322e-01,1.33987e-01,-5.44760e-01,1.48188e+00,4.45483e-03,-1.03484e+00,5.07624e-01,-1.01067e+00,1.29405e-02,-2.76639e-01,-1.50011e+00,2.27084e-01,-6.18009e-01,1.61874e-01,4.52197e-01,-8.30876e-01,4.88581e+00,-4.04166e-01,5.59592e-01,-1.93831e-02,1.36191e-01,-1.10489e+00,6.57927e-01,-4.31497e-01,-3.93846e-01,5.69337e-01,-5.43091e-01,2.32964e-01,-8.70405e-02,-3.35567e-02,2.64054e-02,
-1.59357e-01,-2.23549e-01,1.25545e+00,9.20979e-01,-4.20795e-01,-1.21252e+00,1.15211e+00,-4.28915e-01,1.51032e-02,-3.27281e-01,1.41659e+00,5.42757e-02,4.89288e-01,-5.54180e-01,-8.35419e-01,7.99933e-01,-3.17302e-01,-1.23462e-01,-9.18657e-02,1.36552e+00,1.05838e+00,-2.04890e-01,6.26008e-01,-3.42358e-02,4.58223e-01,-5.14054e-01,-7.65856e-01,4.34247e-02,1.73942e+00,-8.92537e-01,3.84974e-02,3.68366e-01,5.92183e-01,7.14608e-02,6.07295e-01,7.50851e-01,1.53584e-01,-1.03740e+00,-1.48260e-02,-4.19672e-01,1.14126e+00,-4.89688e-01,7.97021e-02,-4.17338e-01,8.26358e-01,8.91671e-01,-8.22233e-01,1.35563e-02,2.76941e-01,-1.56120e-01,
5.29955e-01,-5.01333e-02,-6.81928e-03,3.86252e-01,-4.73735e-01,2.19567e+00,-2.73590e-02,3.51041e-01,3.04992e-02,-7.06922e-01,-1.98815e-01,1.27797e+00,2.04557e-01,-1.21491e+00,2.84070e-01,6.20192e-01,-4.08352e-01,2.38502e-01,4.30259e-02,1.99383e-01,-4.00986e-01,1.74165e+00,1.31971e-01,2.15892e-02,-2.82025e-01,4.56717e-01,-2.19164e-01,-3.41746e-02,1.25426e+00,-2.84315e-01,5.51535e-01,8.73870e-01,-1.22698e+00,2.97980e-01,-1.70780e-01,1.50804e+00,7.63382e-01,2.65454e-01,1.03636e-02,-1.35790e-01,1.94091e-01,7.53554e-01,-1.29236e-01,6.17568e-01,-9.80525e-01,-1.03764e+00,1.09964e+00,-1.52434e-01,2.03026e-01,-3.15945e-01,
-1.48413e-01,-1.02640e-01,1.97282e+00,5.73472e-02,-1.25870e+00,-3.22432e-02,1.73118e-01,-2.44355e+00,-3.05277e-02,4.30766e-02,5.56033e-01,4.16900e-01,-2.46678e-01,5.19088e-01,-6.14275e-02,8.97799e-01,-2.04248e-01,8.08688e-02,-5.74783e-02,1.26949e-01,1.34119e+00,6.67721e-01,-1.59908e-03,-3.11714e-02,-2.33277e-02,-2.59147e-01,-2.30768e-01,-3.06223e-02,3.84528e-01,3.42379e-01,1.99116e-01,-2.75201e-02,-1.13603e-01,1.34166e-01,6.61310e-01,-3.09128e-02,-6.69112e-02,4.03179e-02,-5.19429e-02,-1.00096e+00,8.21611e-02,2.54369e-01,-1.43354e+00,7.65734e-02,-7.62921e-01,-1.05365e-01,-2.89094e-02,-2.85726e-03,-1.18312e-01,-2.28888e-02,
6.19436e-01,-4.63681e-01,-6.63581e-01,4.09262e+00,-1.79469e-01,-4.56391e-01,4.18753e-01,2.17696e-01,-2.59006e-02,1.49261e-01,-1.28917e-01,-4.13816e-01,5.32565e-01,-3.03372e-01,2.75479e-01,-4.49357e-01,-5.81961e-01,2.59164e-01,5.74175e-01,-4.23769e-01,-2.57573e-01,3.11995e-01,8.24119e-01,-2.29884e-02,4.66457e-01,1.93482e-01,-4.33408e-01,2.88274e-02,1.25250e+00,-2.82308e-02,1.73605e-01,8.00998e-01,7.74537e-01,-2.15786e-01,3.18858e-01,1.58779e+00,1.66959e+00,5.76160e-02,7.20110e-03,2.46062e-02,5.72966e-01,3.28333e-01,-5.86124e-02,-5.33948e-02,1.08599e-01,-7.46200e-01,8.57525e-01,-5.30069e-02,-3.45402e-01,1.50376e-01,
-2.26505e-01,-5.25759e-01,-1.61052e+00,-1.19782e-01,6.10196e-01,6.43796e-01,1.57203e-01,-1.00726e-01,-3.04688e-02,7.32114e-01,-7.63363e-02,3.55994e-01,-4.31091e-03,-3.33586e-01,1.16727e-01,5.19839e-01,3.23316e-01,-1.82764e-01,4.47813e-01,9.73729e-03,-1.61402e+00,-2.14447e+00,-2.20272e-01,3.23286e-02,2.37506e-01,-7.20222e-01,1.51628e+00,-6.68833e-03,3.79958e-01,-9.14679e-02,-7.70037e-01,-3.92813e-01,2.98061e-02,-4.87501e-01,2.89609e-01,7.68359e-01,-1.91835e-01,2.68327e-02,3.41250e-02,9.70613e-01,-1.05390e-01,7.31925e-01,1.17120e+00,-1.73468e-01,1.60722e-01,4.38343e-03,-2.70409e-01,2.34959e+00,1.63523e-01,5.94706e-03,
-2.39114e-01,-5.37798e-01,6.70085e-01,-3.26985e-01,-5.81496e-01,1.12300e+00,6.30127e-02,4.52632e-01,-3.41486e-02,-6.81742e-01,-2.41153e-01,-4.94430e-01,2.82359e-01,-3.86411e-01,-1.52151e-01,2.90213e-02,1.07997e+00,-5.00010e-02,6.01817e-01,-3.00443e-01,1.81029e-03,1.90462e+00,-6.10417e-02,3.68681e-02,-9.34426e-01,5.95913e-01,3.60906e-01,-3.78197e-02,2.89910e-01,3.93943e-01,2.97685e-02,-1.74777e-01,-6.84097e-01,-2.63145e-01,2.59103e-03,2.37848e+00,-1.18384e-01,3.36209e-01,-2.01711e-02,-6.25848e-02,-1.92371e-01,3.45450e-02,2.33122e-01,-6.26577e-01,-1.29564e+00,7.04663e-01,-9.63558e-02,2.78557e-01,3.76613e-01,-1.36855e-01,
-9.55375e-01,-2.44510e-01,5.04363e-01,-8.50972e-01,-2.08574e+00,-5.95870e-01,2.51264e-01,2.08439e-01,-3.51369e-02,2.93701e-02,-2.45802e-01,-5.55620e-01,4.35765e-01,-2.45879e-01,2.45878e-03,4.10686e-01,-3.86321e-01,1.19706e+00,2.67728e-01,-3.84559e-01,-6.84611e-02,1.04912e+00,-3.18075e-01,1.13354e-02,-2.88506e-01,8.17651e-01,-3.04362e-01,2.50062e-02,1.53533e+00,2.41196e-01,7.41064e-02,-3.72326e-02,1.00752e+00,2.72827e-01,2.78664e-01,-7.91618e-01,5.69565e-02,-3.83167e-01,-1.13765e-02,-2.17079e-01,4.38124e-01,3.21797e-01,1.07917e-01,-8.43327e-02,2.69697e-01,-3.43108e-01,-2.84482e-01,-7.82831e-01,-6.17592e-01,2.79852e-01,
2.00672e-01,1.16083e-01,8.75078e-01,-2.63480e-01,-7.30167e-01,-1.91861e-02,-1.75823e-01,-2.77258e-01,-5.20292e-02,3.52055e-02,2.54149e-01,-2.97118e-02,2.77485e-01,-1.44820e-01,3.58252e-01,3.59430e-02,-6.25491e-01,-3.57477e-01,-4.50418e-01,1.34796e-01,-1.15540e-01,-1.16551e-01,-1.80279e-02,-5.14002e-02,2.74532e-02,-6.62794e-01,-1.31602e-01,2.95228e-02,2.58744e-01,-5.28654e-02,-5.05674e-01,5.84831e-02,-2.02629e-01,1.34236e-01,-1.48773e-01,6.71726e-03,-1.32077e-02,-2.71413e-01,3.19885e-03,3.39545e-01,1.20257e-02,3.88818e-01,6.97202e-02,2.17360e-03,1.20126e-01,1.12939e-01,5.10011e-02,-1.76527e-02,-1.28205e-01,-1.41615e-01,
-1.38771e+00,6.54745e-01,7.98027e-01,-7.40648e-01,-6.37938e-01,-4.39542e+00,6.99826e-01,-5.55156e-01,4.00651e-02,-4.58887e-01,1.63738e+00,-2.35542e+00,7.83520e-01,-9.74699e-02,-6.06848e-01,4.97900e-01,1.13388e+00,5.49608e-01,-1.06864e+00,3.40012e-01,1.57824e-01,7.77794e-01,-1.73364e+00,-1.04582e-03,1.49182e+00,1.87179e-01,-1.12508e+00,-3.21870e-02,1.45604e-01,2.47552e-02,-9.72108e-01,9.71549e-02,2.02851e+00,5.27160e-01,-3.07883e-01,2.75460e+00,4.66470e-02,-7.37630e-01,4.80485e-03,-1.36481e-01,5.47966e-01,-1.02734e-01,1.73180e+00,-1.49824e+00,4.88313e-01,3.73395e-01,-6.54530e-01,-9.02912e-01,7.79018e-01,-6.29457e-02,
9.85746e-01,-9.08318e-01,1.70471e+00,4.18769e-01,-4.09376e-01,2.26406e+00,1.48645e-01,-1.60286e+00,-1.14451e-02,-2.16964e-01,1.58839e-02,-1.39202e+00,-6.30122e-02,-3.01788e-01,-7.10909e-01,6.88418e-01,-4.27059e-01,-1.13304e+00,-4.36211e-01,1.13673e-01,5.13377e-01,1.72475e+00,-1.71080e-01,-1.20872e-02,-7.22475e-01,1.70167e+00,-4.01622e-01,2.47374e-02,-6.28111e-01,7.85681e-01,5.68926e-01,4.32282e-01,1.86561e-01,-1.41291e-01,1.07692e+00,1.18488e+00,1.74285e-01,-1.65943e-02,-1.68766e-02,-3.89779e-01,-7.79811e-01,9.53129e-01,-3.45654e-01,3.75677e-01,3.10438e-01,-4.61864e-01,-1.02549e-01,8.45288e-01,-2.34493e-01,2.29146e-01,
-1.17480e+00,2.62211e-01,1.10740e-02,1.03688e-01,-6.55476e-01,8.68009e-02,-9.95905e-01,-2.56008e-02,-1.01625e-02,-1.78296e+00,-5.13940e-02,-9.08825e-02,-7.72693e-02,2.45766e-02,-1.39205e+00,-2.28353e-01,4.54434e-01,-8.38091e-01,1.17256e+00,-2.05341e-01,7.15852e-02,-1.65174e-02,3.83777e-01,-4.18812e-02,1.58866e-01,-1.66130e-01,-9.85402e-01,-3.33058e-02,1.66260e+00,4.01476e-01,-3.19882e-01,4.04374e-01,5.75114e-01,3.71989e-01,5.33147e-01,2.13547e-01,2.47110e-01,1.24275e+00,-2.97325e-02,6.13011e-03,-2.07615e-01,-1.32655e+00,3.51007e-01,1.99183e+00,4.06340e-01,3.20954e-01,-1.50561e-01,-9.52881e-01,-1.76120e-01,-2.01488e-01,
3.64126e-01,7.42069e-01,-4.85922e-01,5.24918e-01,5.24959e-02,-3.35388e-01,3.16159e-01,-2.22584e-02,-4.11266e-02,-6.22975e-01,-1.03808e+00,-3.61999e-02,-2.01832e-01,-8.38164e-02,5.65307e-01,-1.06516e-01,-1.32032e-01,1.62755e+00,-2.79578e-02,-6.14704e-01,2.97057e-02,8.93474e-02,-2.97960e-01,1.77010e-02,1.71266e-01,-3.48333e-01,-8.31272e-01,9.93442e-03,-6.96252e-01,-2.86008e-01,4.75476e-03,1.02137e-01,9.21921e-01,-4.11492e-02,-2.04817e-01,-1.17640e+00,-1.12535e+00,1.07093e-01,1.58143e-02,2.55815e-01,-4.75174e-01,2.18547e-01,2.67621e-01,1.40212e-01,1.49534e-01,-6.60809e-01,-1.34800e-01,5.75571e-01,6.90667e-01,1.90437e-01,
-2.20581e-02,1.43335e-01,2.40229e-01,-1.26669e+00,-1.65851e-01,3.25289e-01,-3.18700e-01,-1.06606e-01,4.18549e-02,1.11192e+00,7.28871e-01,1.86814e+00,-1.70641e-01,-4.02725e-01,5.87266e-01,7.32872e-01,-7.81102e-01,1.24338e-01,-9.92351e-01,-3.15500e-01,3.14368e-01,1.25581e+00,-3.87788e-01,-2.78249e-02,-2.71134e-02,-3.47874e-01,9.49023e-01,1.15730e-02,1.13805e+00,5.99118e-01,-4.41099e-01,1.32686e-01,-8.71586e-01,4.86441e-01,1.67500e-01,-3.79265e-01,-2.88879e-01,2.17908e-01,-4.10235e-02,-1.95357e-01,3.31388e-01,5.56392e-01,6.98071e-01,7.03234e-01,1.76801e-02,2.91909e-01,6.90905e-02,4.52670e-01,1.86131e-01,-7.30819e-01,
-5.85293e-02,2.06627e-01,9.18439e-01,3.02947e+00,-1.83319e-01,-1.00730e+00,8.53118e-02,1.26911e-02,3.11292e-02,3.29895e-01,1.57784e-02,4.80691e-01,-7.63784e-02,-5.82793e-01,-2.38860e+00,6.26815e-01,-3.45143e-01,1.45707e+00,3.41925e-01,4.73164e-01,-2.08724e-01,4.08789e-01,1.70026e-01,-4.71638e-03,2.36650e-01,5.51179e-01,1.57449e-01,5.91680e-03,9.96453e-01,-5.12035e-02,-2.59108e-01,6.32065e-01,4.90707e-01,5.16468e-03,-6.09209e-03,2.22414e+00,9.42029e-01,-2.80953e-01,-8.25588e-03,-4.78849e-01,6.64607e-03,-2.70008e-01,1.01095e-01,3.65259e-01,-1.17144e-01,-1.10652e-02,-5.02313e-01,7.42389e-01,-3.40201e-01,1.42145e-01,
1.89039e-02,5.98788e-01,5.10667e-01,2.91309e-01,-8.05563e-01,-5.62622e-01,-5.81083e-01,-1.43829e-01,-2.43705e-02,8.87220e-02,-7.84911e-02,-7.78077e-02,-3.98249e-01,-4.28144e-01,-3.55328e-01,1.16157e+00,5.18817e-02,-1.96792e-01,-4.68340e+00,-1.15717e-01,3.52976e-01,-1.44710e-01,6.07397e-01,3.30744e-02,-1.30265e-01,1.58287e-01,-3.17515e-01,2.48693e-02,1.98991e-01,-2.61874e-01,-1.24487e-02,2.61868e-01,-5.17697e-02,7.48333e-02,3.37017e-02,-5.28380e-01,3.42029e-01,-3.97205e-01,5.49536e-02,-9.89832e-02,-2.37106e-02,3.94855e-01,-3.34885e-01,-4.26259e-01,-4.12407e-02,2.28882e-01,-5.02217e-01,7.25344e-01,9.12408e-01,-7.33076e-01,
-1.04401e+00,1.20535e-01,1.76445e-01,-1.48632e-01,-6.28590e-01,-5.39707e+00,3.00252e-01,-7.04430e-02,-2.07772e-02,4.70264e-01,4.55213e-01,-2.71312e+00,-1.04398e+00,-7.94237e-02,-2.48242e-01,5.77196e-01,4.64398e-01,-1.54347e+00,-3.08392e+00,3.79370e-01,4.09354e-01,-1.05399e+00,7.37372e-01,-9.76966e-03,4.41861e-01,2.84177e-01,6.63205e-01,-2.45949e-02,5.71028e-01,-6.71685e-01,-6.24479e-01,9.60096e-02,5.14759e-02,-3.21264e-01,3.74789e-01,4.18246e+00,-2.12990e-01,-4.81753e-01,4.68159e-02,2.57057e-01,-4.48391e-01,-1.38673e+00,2.06725e-01,-6.87277e-01,9.56784e-01,-4.78920e-01,3.35241e-01,-8.47968e-01,9.13621e-01,3.79479e-01,
-5.57547e-02,1.74398e-02,-2.89486e-02,-6.93611e-03,4.69801e-04,2.71755e-02,-2.76686e-03,3.37990e-04,2.09680e-03,-6.02592e-02,-6.06649e-02,1.63002e-02,-4.26006e-02,-4.13912e-02,-6.71600e-02,1.78816e-02,-1.90711e-02,4.81924e-02,-7.90112e-02,-1.05402e-02,2.54801e-02,-3.20414e-02,8.06181e-03,-1.84023e-02,4.00563e-02,-1.45907e-02,-2.50680e-02,2.71423e-02,-7.36534e-03,4.74310e-02,1.95750e-02,-7.41418e-04,2.83547e-02,-2.27157e-02,-1.98102e-02,-1.30683e-02,-7.45634e-03,-4.17724e-02,3.30949e-02,8.72048e-05,-4.31151e-02,-6.72496e-02,-1.92010e-02,-6.14811e-02,-4.41889e-02,-3.70515e-02,4.29338e-02,3.59239e-02,-9.24053e-03,-3.92414e-02,
-2.41696e-01,1.16008e+00,1.27409e+00,-1.70139e-01,2.01429e-02,-2.25986e-01,1.01160e-01,8.23293e-01,5.79675e-03,-1.30243e+00,-7.00057e-01,-8.29395e-01,1.91312e-01,9.62015e-01,1.59196e-01,-1.81227e+00,-3.85874e-01,3.59969e-01,-8.77246e-01,-2.72633e-01,6.98367e-03,-2.80372e-01,4.57062e-01,1.09918e-02,-5.80679e-01,1.13207e+00,-1.19674e+00,1.65819e-02,-2.05834e-01,-3.33161e-01,6.42127e-01,-6.36297e-01,-1.60609e+00,6.62577e-01,4.60402e-02,-1.25200e+00,1.47415e-01,1.90403e-01,-5.84182e-02,-4.01421e-01,1.23018e-01,-9.13841e-01,-1.11792e+00,4.42430e-01,-4.38704e-01,-1.31965e+00,-2.96469e-01,9.18028e-01,1.64573e-01,6.13324e-01,
-7.08302e-01,2.03008e-02,-8.11447e-01,1.12765e-01,2.95746e-01,-4.92905e-01,1.97042e-01,-2.07026e-01,-4.66275e-02,1.57279e+00,6.57607e-01,3.85814e-01,-1.04688e+00,-2.03938e-01,2.38051e-01,8.32027e-01,8.53306e-01,3.45150e-01,3.74105e-01,-1.05662e-01,2.10368e-01,1.30627e+00,3.31207e-01,2.17873e-02,1.01994e-01,-4.78952e-01,1.07447e-01,2.76326e-02,1.23543e-01,-3.17475e-01,1.37151e-02,-2.24315e-01,1.08830e-01,-3.41676e-01,-3.42353e-01,-3.56072e-01,-3.16669e-01,3.84181e-01,-2.76462e-02,4.38484e-01,5.90386e-03,2.45226e-01,9.28348e-03,1.01301e+00,2.52490e-02,8.44987e-01,-8.35657e-01,6.64342e-01,-2.53324e-01,-4.27448e-01,
4.31640e-02,2.21293e-01,-8.68455e-01,6.43280e-01,-3.22526e-02,-9.59322e-01,-2.29850e-01,-9.20452e-02,3.80635e-02,-1.59471e-01,-3.32377e-01,-5.60047e-01,-4.16703e-01,1.51684e-01,1.24564e-01,5.56880e-01,-1.25169e-01,-4.07933e-01,3.84475e-02,-3.94233e-01,4.44722e-01,-5.56044e-01,5.45427e-01,-1.84804e-02,1.45486e-01,-2.19883e-01,4.10270e-01,3.13783e-02,6.38515e-01,7.32590e-01,2.29774e-01,5.68543e-01,-2.03709e-01,1.04546e-01,-5.00942e-01,-9.46077e-01,5.19811e-01,2.52931e-01,5.38986e-02,-3.83532e-01,1.27649e-01,-2.47411e-01,3.26851e-01,1.48763e-01,-2.68842e-01,2.84239e-01,-8.14855e-01,4.28060e-01,-5.20978e-02,1.30853e-01,
-1.07077e-01,
-5.40759e-01,
-6.79918e-01,
-2.22551e-02,
4.18455e-01,
-3.93732e-01,
1.17694e-01,
8.53424e-01,
9.45162e-02,
-4.22592e-01,
-1.34034e+00,
-8.76821e-01,
6.06671e-01,
-7.51195e-01,
-4.68569e-01,
-1.06614e+00,
4.73352e-01,
2.80317e-01,
-8.25063e-01,
-2.64839e-01,
-1.03837e+00,
-8.19173e-01,
-5.66668e-01,
-3.40478e-01,
2.81168e-01,
2.45791e-04,
-1.45390e-02,
1.71216e-02,
-6.08431e-01,
1.35634e-01,
5.57562e-01,
-7.21230e-01,
2.00349e-01,
-1.14086e+00,
-7.71508e-01,
-4.93927e-01,
-4.25353e-01,
1.54399e-01,
-7.16625e-01,
-6.56948e-01,
5.12156e-02,
1.72706e-01,
-7.63136e-01,
-8.70563e-01,
-3.33619e-01,
-5.76794e-01,
-2.12333e-02,
7.78575e-01,
-1.29528e+00,
-6.91971e-01,
8.48445e-02,7.90506e-01,-7.61692e-01,1.30004e-02,4.71849e-01,-8.00735e-01,8.81528e-01,7.61079e-01,3.73305e-01,-1.86274e+00,2.57009e-01,-7.49986e-01,7.78772e-01,-1.01024e+00,-1.42028e+00,7.55703e-01,-2.01691e-01,5.77070e-02,-4.73814e+00,-2.03926e-01,-3.57467e-01,-1.62955e+00,-1.74364e-01,-6.34249e-02,-1.12269e+00,1.27661e+00,-4.47193e-02,1.40512e-01,-2.76437e+00,2.55678e-02,-7.77614e-01,-4.93148e-01,-1.14326e+00,5.70421e-02,-1.89641e+00,3.48959e-01,-1.78518e-01,1.39593e+00,1.28985e+00,2.68576e-01,4.92379e-01,-7.27558e-02,-2.32677e-01,8.77318e-02,-1.15364e-01,-4.24079e-01,-7.97800e-03,2.11466e-01,-5.25513e-01,-1.47293e+00,
3.19058e-02,2.59402e-01,-9.85417e-01,2.92775e-02,2.04432e-03,-6.62818e-01,-3.29158e-01,7.72255e-01,-1.79580e-01,-6.26541e-01,1.85203e-01,4.12553e-01,-2.65241e-01,-2.72000e+00,7.02610e-01,-3.74402e-01,6.02613e-01,2.02141e-01,-7.52018e-02,-5.90040e-01,-4.49545e-01,4.66941e-02,-7.89729e-01,1.30618e+00,7.18766e-02,-1.95912e-01,3.25534e-02,-4.38879e-01,1.01332e-01,-8.85496e-01,-9.31351e-02,7.24361e-02,-1.68066e+00,7.62981e-01,-1.42551e+00,4.67086e-01,1.23658e+00,-2.89971e-01,4.26022e-01,2.03954e+00,6.45075e-02,6.15208e-01,-1.51879e+00,-2.10443e+00,-9.77399e-01,-3.90730e-01,2.34762e-02,3.15106e-01,-9.33212e-02,7.10777e-01,
-5.18094e-02,1.45651e-02,2.24982e-02,1.42803e-02,-1.00378e-02,-5.31550e-02,2.68218e-02,-2.79628e-03,-3.46774e-02,1.55387e-02,3.28289e-02,2.42873e-02,-1.87158e-02,-8.24949e-03,-2.05358e-02,4.55537e-03,-6.39232e-03,-8.62986e-04,-2.91737e-02,-1.24189e-02,3.58079e-02,-6.98085e-02,-2.62317e-02,2.65554e-02,-6.21351e-03,3.79730e-02,-5.14951e-03,-4.37009e-02,3.72244e-03,2.97854e-02,-3.22233e-02,-2.17528e-02,-5.02463e-02,-1.92729e-03,9.53035e-03,-5.37517e-02,-3.87362e-02,-1.07332e-02,2.57202e-02,-4.84591e-03,-1.89544e-02,-1.81662e-03,1.50219e-02,-4.17532e-03,6.80723e-03,-2.36703e-02,-3.39084e-02,-2.70404e-02,-5.52985e-02,1.79341e-02,
5.93598e-02,5.02359e-01,2.75468e-01,2.61947e-02,6.59245e-01,-3.57357e-01,-1.42846e+00,5.07453e-01,-3.13544e-01,8.18965e-02,-2.84130e-01,-4.97767e-01,4.37649e-01,1.98359e-01,7.79224e-01,-1.14629e+00,1.71616e-01,2.40556e-01,-3.85943e+00,4.93143e-01,5.43779e-02,4.25166e-01,-4.22756e-01,4.64084e-01,1.34793e-01,-1.53493e+00,-4.20782e-02,-2.67737e-01,-5.70903e-01,-8.10911e-02,-5.13652e-01,9.37829e-03,-2.79564e-01,2.35908e-01,-4.08006e-01,1.24951e+00,-6.10688e-01,-3.90062e-01,-1.86748e-02,5.68672e-01,1.29564e+00,-1.29759e+00,-6.07123e-01,6.56335e-01,4.29298e-01,1.01702e-01,3.30733e-02,4.92241e-01,8.07096e-01,-1.92414e+00,
3.69366e-02,-1.81668e-01,-5.55918e-01,7.17584e-03,-6.82612e-01,3.09298e-02,9.72182e-01,8.75918e-01,9.30927e-01,1.61718e-01,-1.00960e-01,-5.67346e-01,6.95605e-01,-4.48756e+00,-1.20889e+00,9.21558e-01,8.08242e-01,2.37907e-02,-1.20306e+00,2.44058e-01,-4.27631e-01,9.50670e-01,-5.26564e-01,-2.39483e-02,3.80330e-01,2.99856e-01,-4.31998e-02,-1.37363e-01,1.52699e+00,-7.66075e-01,-3.81465e-01,5.98689e-01,1.44263e+00,-3.17391e-01,1.36832e-01,-5.99671e-01,-1.01735e+00,-8.45114e-01,1.00328e-01,-5.68666e-01,4.27675e-01,-2.16779e-01,-1.08691e+00,-1.72209e+00,1.38174e+00,-9.98140e-01,3.19962e-02,1.55260e+00,-4.53764e-01,-9.94111e-01,
5.77220e-02,-8.03100e-02,-2.36633e+00,3.53556e-02,4.52705e-01,3.10740e-01,2.15038e-01,1.80505e-01,-4.23760e-01,-2.97377e-01,1.08059e+00,5.13903e-02,1.81795e-01,1.15812e+00,-5.40833e-01,1.08642e+00,-3.65952e-01,-3.84384e-01,-5.50235e+00,-2.64836e-01,-1.58764e-01,-9.56569e-02,6.25460e-01,7.29451e-01,2.12269e-02,-6.45274e-02,3.52672e-02,5.69323e-01,9.56076e-01,-5.84487e-01,-2.19715e-01,2.40487e-01,8.31900e-02,1.58231e-01,-2.65399e-01,1.72184e-01,6.51778e-02,-5.43686e-02,5.69975e-02,8.49497e-01,-3.35064e-01,-2.38576e+00,2.90223e-01,1.64462e+00,-4.97148e-01,-2.68432e-01,-3.27524e-03,-6.60317e-01,6.84884e-02,1.90108e+00,
8.66190e-02,8.08426e-01,3.03914e+00,1.49032e-03,2.37479e-01,-1.28843e+00,1.75776e+00,7.63702e-01,1.45212e+00,-6.67722e+00,-4.57346e-01,-1.96499e+00,7.54375e-01,9.59360e-01,8.92274e-01,5.32328e-01,-1.10900e+00,-3.27672e-01,1.87293e+00,4.28641e-01,-8.66769e-01,4.22613e-01,1.13436e-01,-1.38590e+00,1.24375e+00,-3.36287e+00,1.04133e-02,-1.68592e+00,2.16759e-01,1.80975e-01,-5.66434e-01,6.70473e-02,-1.08401e+00,1.47161e-01,-4.11403e+00,1.54777e+00,6.39136e-01,2.99182e+00,3.39143e-01,6.38674e-01,-6.28284e-02,-8.00161e-01,6.16277e-01,1.93617e-01,-1.20938e+00,-1.77175e-01,-2.28031e-03,3.89697e-01,-7.33969e-01,-9.28514e-01,
5.96460e-02,-1.59046e-01,8.96075e-01,4.87793e-02,5.40775e-01,-7.27725e-02,6.50763e-01,-1.62902e-01,5.17690e-02,-3.06934e-01,2.01638e-01,9.55578e-01,6.62141e-02,6.14041e-01,5.53692e-01,7.71998e-01,-2.49037e-01,-1.60121e-01,1.58602e+00,-3.05683e-01,1.87317e-01,3.42714e-01,5.44107e-01,8.17784e-01,2.51364e-02,-1.92791e+00,2.54448e-02,-3.85775e-01,6.01958e-01,9.50578e-02,-1.60707e-01,-1.83464e-01,-1.39143e+00,1.38937e-01,8.96436e-01,9.39479e-01,1.00206e+00,1.35020e+00,-2.56000e-01,5.84110e-02,7.45175e-02,-3.11874e+00,3.48621e-01,-1.00608e-01,1.14391e+00,3.86890e-01,-6.94805e-03,3.46289e-01,4.10611e-01,-1.03156e+00,
1.07402e-02,6.79608e-01,1.11283e+00,2.50902e-02,2.54118e-02,-2.16891e-01,-1.71687e-01,-6.13554e-02,-2.19278e-01,-1.05287e-01,2.35954e-01,-1.12229e-01,9.81997e-03,-1.73816e-01,1.32983e-01,3.36185e-01,5.26677e-01,-1.01545e-02,-1.27360e+00,-2.15082e-01,-2.43308e-01,-8.47511e-02,-3.33946e-01,1.66160e-01,-1.18204e-01,3.14025e-01,1.68253e-02,3.24654e-01,-3.05361e-01,-8.20265e-02,2.06559e-01,2.61253e-01,3.87873e-02,-3.73656e-01,3.64581e-01,1.83817e-01,2.84074e-01,-1.09434e+00,2.65972e-02,6.50137e-01,-2.61947e-01,4.94366e-01,3.86631e-01,-8.14967e-02,-1.28427e+00,-1.08422e-01,-7.08802e-04,-3.11291e-01,6.16835e-02,-3.93507e-02,
1.18226e-01,-1.05732e-01,7.33296e-01,-3.87238e-02,9.67986e-01,-1.20782e-01,-5.57624e-01,-3.24755e+00,-2.37507e-01,-3.92575e-01,-1.30968e-01,-1.00323e-01,-5.93664e-01,-2.12786e-01,1.38707e-01,2.09909e+00,-1.85103e+00,1.94707e-01,5.23136e+00,2.65554e-02,5.16179e-02,-7.31404e-01,-1.45561e-02,3.29168e-01,3.37521e-01,-5.69377e-01,2.17895e-02,-1.71836e-01,6.05921e-01,-4.37163e-01,8.10917e-02,7.36676e-01,-2.40695e+00,-9.26577e-02,-1.03254e+00,-8.10701e-01,-5.89842e-02,-2.32246e+00,1.76049e-02,4.50517e-01,-5.26800e-01,-1.02859e+00,2.44180e-01,-4.76144e-01,9.92775e-01,5.72259e-01,1.95870e-03,-7.31468e-01,-8.73562e-01,1.23558e+00,
1.30341e-02,2.78706e-01,2.53880e-01,4.90429e-02,3.11684e-01,1.17250e-01,-8.79107e-01,-7.63447e-02,3.54666e-01,2.18387e-01,-1.59267e-01,3.23152e-01,1.40904e-01,1.00207e+00,-2.42884e-01,-4.23480e-02,-8.43836e-02,3.39540e-01,-1.70251e-02,-5.09925e-03,3.39008e-01,-1.02394e-01,-3.18078e-01,-1.57892e-01,2.21157e-02,-3.55235e-01,-2.55645e-02,-4.44173e-02,-1.94756e-01,-3.00370e-01,1.90683e-01,-1.38479e-01,6.13343e-01,-8.24973e-02,-7.10673e-02,1.10986e-01,-3.60531e-01,-1.23619e+00,1.11537e-01,1.11563e+00,-3.86313e-01,-2.47572e-01,5.21602e-01,-3.36339e-01,5.47726e-01,1.22975e+00,-6.87258e-03,-2.79759e-01,-4.62028e-01,-5.25916e-01,
1.14858e-01,6.01371e-01,-3.67867e-01,4.92300e-03,-1.66850e-01,-2.39582e-01,-8.21863e-01,1.93313e-01,-5.68225e-01,-1.98657e+00,4.75758e-01,-3.93050e-01,2.26824e-01,-2.03553e+00,1.82972e-01,9.64298e-01,-2.05494e-01,-2.73811e-01,2.41536e-01,6.81025e-01,3.28461e-01,-4.11412e-02,4.21066e-02,-9.34888e-02,-4.15272e-01,-1.24540e+00,4.67147e-02,-3.03803e-01,-1.69792e-02,-3.60082e-01,1.57419e-01,-3.72106e-02,-6.52445e-02,7.07851e-01,6.10840e-01,-7.13906e-01,-4.88267e-01,-6.16033e+00,3.68970e-01,-2.24330e-01,1.84579e-01,1.42358e+00,-4.11694e-02,3.72913e-01,7.12734e-01,4.13495e-01,9.15489e-02,1.53413e-01,-9.02075e-02,-4.73884e-01,
7.25208e-02,6.13865e-01,5.46381e-02,-4.71563e-04,-6.14861e-01,-1.93584e-01,-2.15944e-02,-7.71706e-02,-3.74026e-01,-1.74884e-01,-4.93085e-01,2.61478e-01,2.03049e-01,-6.91833e-01,3.65272e-01,-5.41067e-01,3.34272e-01,4.38866e-02,8.77719e-01,-3.38094e-01,1.79357e-01,1.32528e-01,-2.60851e-01,1.06605e+00,-1.90016e-01,-7.49546e-01,-1.72394e-02,-7.91707e-02,7.31069e-01,1.10396e-01,2.32424e-01,-5.35079e-01,-1.26514e+00,-1.67135e-01,1.67753e-01,-5.98515e-02,3.74275e-01,1.38673e+00,-2.81088e-02,-7.78187e-01,-3.73026e-01,6.52302e-01,-5.67509e-01,-4.42137e-01,1.69138e-01,-3.71047e-01,-2.37022e-02,-6.40797e-02,5.93947e-01,5.98275e-01,
-5.52316e-02,2.39056e-01,-5.25888e+00,2.57235e-02,3.73729e-01,-3.16277e-01,-3.17138e+00,4.74164e-01,-8.21148e-01,-2.96143e+00,5.25607e-02,-4.56070e+00,-1.25567e+00,7.09920e-01,3.48309e-01,-2.30217e+00,3.62767e-02,-9.04749e-01,4.73756e+00,-3.08024e-01,-5.07043e+00,2.83489e-01,-5.18063e-01,1.22973e-01,-6.73242e-02,-9.76119e-01,-2.37680e-02,7.90849e-01,1.06045e-01,6.78874e-01,2.05577e-01,3.11619e-01,6.82706e-01,2.45959e-01,-1.07867e+00,-6.46437e+00,-6.02059e-01,-1.03079e+00,4.72010e-02,1.80359e+00,-1.90287e-01,-8.07379e-01,1.92071e-01,2.42407e-02,-4.66618e+00,5.02703e-01,-6.33437e-03,3.89870e-01,-6.71778e-01,-1.13493e-01,
1.19998e-01,2.44727e-01,1.11189e+00,-2.65666e-02,1.02781e-01,-4.64438e-01,-2.47868e-01,6.22369e-01,-4.84253e-01,2.67853e-01,5.61512e-01,-6.15457e-01,-3.01775e-01,6.26855e-02,-1.20955e-01,-9.32462e-01,-1.27338e+00,-4.52348e-01,-2.24416e-01,2.71134e-01,2.23916e-01,-4.56534e-02,5.34516e-01,5.00817e-01,-1.76162e-01,2.14516e-01,-2.28135e-02,4.88625e-01,-2.67162e-01,2.68452e-01,2.00368e-02,1.48856e-01,2.99224e-01,1.30337e+00,-3.31702e-02,3.66059e-01,-1.16372e-01,-2.39988e-02,-1.04736e-01,-6.07658e-05,-3.67583e-02,-5.74089e-01,-8.76371e-02,2.03586e+00,-4.87761e-01,1.16747e-01,1.34022e-02,-8.19571e-01,1.26435e-01,-2.00800e-01,
7.54143e-02,1.37468e-01,1.80885e+00,-3.40072e-02,3.83587e-01,5.33913e-02,1.18558e+00,7.86820e-01,-2.72042e-01,4.07822e-01,1.13768e-01,-1.01844e+00,-3.28412e-01,6.67320e-01,1.61918e-01,-9.35233e-02,1.21246e-01,3.71856e-01,7.27764e-01,1.43584e-01,7.33798e-01,-6.70451e-02,-7.68500e-02,-3.75349e-01,4.31832e-01,-3.43071e-01,3.36847e-02,-5.42463e-01,1.55195e-03,1.89828e-01,-3.40721e-02,-1.49167e-01,-1.99347e-02,-5.72849e-01,1.38829e+00,2.65885e-01,7.41213e-01,-5.92389e+00,3.31267e-02,5.73570e-01,-1.16393e-01,-5.07826e-01,-4.87864e-01,-1.44819e-01,-7.76317e-01,-1.24592e-01,2.41105e-02,3.81478e-01,-6.34455e-01,1.28305e+00,
3.90192e-02,2.43690e-01,-7.01825e-01,2.31112e-02,-6.47921e-01,-3.21971e-02,-1.60360e-01,-7.89885e-02,-4.92258e-01,-1.27353e+00,5.27284e-01,-1.72183e-02,-7.28499e-01,3.35263e-02,3.32170e-01,-1.61636e+00,-5.50808e-01,-8.08734e-01,1.65481e-02,5.70651e-01,4.62759e-01,-1.35734e-01,9.14227e-02,-3.35815e-01,3.20677e-01,-4.46210e+00,-3.47700e-02,3.91673e-01,-1.47614e-01,-3.00719e-02,5.14511e-05,6.37393e-01,-6.35451e-01,1.83394e+00,-1.59128e-01,-1.48034e-01,-1.38620e-01,-4.04031e-01,1.81756e-03,6.76750e-01,-2.18135e-01,1.21491e-02,-2.98058e-01,1.04175e+00,-2.15908e-01,2.21497e-01,-5.49528e-03,2.04895e-01,-2.89415e-01,-3.18789e-01,
1.40068e-01,6.48332e-01,-1.69105e+00,-8.17749e-03,-1.71519e+00,-4.72077e-02,1.73038e+00,5.29629e-01,9.23406e-01,3.76652e-01,-1.17344e-01,7.13195e-01,-1.57076e-01,4.12801e-01,-5.72703e-01,7.66874e-01,7.28937e-02,4.41754e-01,3.22606e-01,-5.31887e-02,1.21053e-01,2.09947e-01,2.26565e-01,4.30480e-02,3.08787e-01,-2.95518e+00,-3.14032e-02,-1.95652e-02,3.10670e-01,-1.77157e-02,-6.79773e-02,-7.07449e-01,3.32122e-01,-3.42996e-03,4.72767e-01,3.88603e-01,5.63161e-01,-3.96934e-01,4.63612e-01,-8.16708e-01,-1.38696e-01,-1.55914e-02,-3.88446e-02,2.27522e-01,6.45274e-01,3.68433e-01,1.90376e-02,-5.01312e-01,4.77718e-02,4.79876e-01,
-3.21807e-02,-4.32151e-02,-2.37638e-02,3.97119e-02,1.95064e-02,-1.77387e-02,-4.16270e-02,-1.07882e-02,2.85134e-03,-4.62398e-02,-5.28790e-02,3.21885e-02,1.53069e-02,3.45859e-02,1.75580e-02,-4.12556e-02,-2.56622e-02,-1.67860e-02,-1.07334e-02,-4.17574e-02,7.07003e-03,-5.02874e-02,2.82694e-02,-2.62398e-02,1.60283e-02,-3.99511e-02,-4.35605e-02,-1.55217e-02,-1.96412e-02,-4.15918e-02,-2.17928e-02,1.15980e-02,2.21806e-02,-4.53228e-02,4.10271e-02,1.43819e-02,2.21271e-02,-2.98233e-02,1.73726e-02,-3.90697e-02,1.53055e-02,5.09311e-03,-4.26442e-02,2.10799e-02,-5.36940e-02,-4.47327e-02,1.34635e-02,-5.07230e-02,-1.45441e-02,8.31177e-03,
-2.39917e-02,2.38940e-01,3.33136e+00,-4.89990e-02,6.33947e-01,3.94098e-02,-4.92330e-01,-1.50019e-01,-2.97340e-01,5.35381e-01,-3.79950e-01,5.34491e-01,5.24634e-03,-1.50663e+00,3.23186e-02,-4.65319e-01,-1.82792e-01,2.28555e-01,-2.16557e+00,-2.57031e-01,-2.75829e-01,-1.43307e-01,3.83443e-01,6.65201e-01,1.80377e-01,2.20456e-01,-4.56389e-02,3.00454e-01,-5.30784e-01,-5.98221e-02,3.82797e-02,4.41362e-01,-2.53988e+00,-3.93786e-01,1.09595e-01,-3.64483e-02,-2.14028e-01,-7.56178e+00,-5.99334e-01,-9.30852e-01,-8.72865e-02,1.98598e-01,1.59529e+00,-5.47785e-01,9.81008e-01,8.16904e-01,-1.64319e-02,1.93821e-01,-1.41372e-01,-7.65919e-01,
-1.37965e-02,-7.66171e-01,3.75278e-01,-3.29157e-02,-2.02083e+00,3.31172e-01,-3.50020e-01,5.36058e-01,-4.72549e-01,-1.26365e+00,-2.72974e-01,-7.21324e-02,-4.85441e-01,-1.92010e+00,7.77172e-01,-2.82526e+00,5.64019e-02,6.50185e-01,-2.01587e+00,-5.13692e-02,2.29856e-01,-5.13305e-01,2.56247e-01,-2.86013e-01,8.04223e-01,-2.04013e+00,-4.66460e-02,-2.61869e-01,4.23177e-02,1.67576e-01,-2.87813e-01,1.95293e-01,-1.87773e+00,2.12249e-01,-1.91293e+00,-1.04225e+00,-2.58771e-01,-5.29665e-01,-2.25444e-01,2.54638e+00,9.24867e-02,5.70194e-01,2.18664e-01,7.17065e-02,-6.44684e-01,1.44945e+00,-5.83155e-05,5.87821e-01,-1.11839e+00,-6.34486e-01,
3.38741e-03,-2.77077e-01,3.06031e-01,-1.28842e-03,-9.93187e-01,-6.60334e-01,7.10213e-02,8.63569e-01,-3.33945e-01,-1.79619e+00,-2.11431e-01,4.63303e-01,-5.38194e-01,1.58417e+00,1.19219e+00,2.84093e-01,7.39397e-04,1.49146e-01,4.41215e-02,-2.32456e-01,-6.76871e-01,-2.11447e+00,6.02586e-01,-1.27613e-01,1.05761e+00,-2.29876e+00,-3.96996e-02,-3.78796e-01,5.51322e-01,2.13281e-01,2.85112e-01,5.49308e-02,-2.98820e+00,-2.04796e-03,-2.11450e+00,-2.33255e-01,-1.40092e+00,4.18635e-02,2.09534e-01,3.01201e+00,-7.88960e-01,4.22785e-02,4.42494e-01,4.60848e-01,-1.40132e+00,1.38793e+00,-7.54768e-03,-8.14936e-01,-3.95426e-01,-1.45563e+00,
-3.54507e-02,-1.28197e+00,3.02986e+00,-4.19932e-02,-5.45226e-01,6.49834e-01,7.95679e-01,-5.98288e-01,-3.51340e-01,1.34189e+00,-5.58277e-01,4.92132e-01,4.97079e-02,1.49787e+00,6.70997e-01,1.17348e-01,3.29822e-01,-1.58846e+00,1.76209e+00,-8.15408e-01,1.17648e+00,-2.79758e-01,7.53481e-01,1.12776e+00,1.23873e-01,-9.88239e-01,-4.38961e-02,6.58710e-02,1.83691e+00,1.55752e-01,1.58663e+00,2.42516e-02,7.13440e-01,-4.40106e-01,6.84864e-01,3.57560e-01,4.09031e-01,-1.06834e+00,-3.17416e-01,1.18297e+00,-1.16463e-01,5.84265e-01,5.31579e-01,-1.51158e-01,5.07018e-01,6.57812e-01,5.62378e-03,-4.74531e-01,-5.97898e-01,9.48933e-01,
-1.82336e-02,7.46223e-01,-3.61876e+00,4.67987e-02,5.23198e-01,8.55453e-01,-1.14098e+00,1.29233e-01,-1.37163e+00,7.62363e-01,-6.10498e-01,3.87329e-01,3.70092e-02,-2.38861e+00,2.04528e-01,8.19762e-01,5.63473e-01,-4.77713e-02,2.45199e-01,-3.12123e-01,4.54185e-01,1.23353e-01,2.83657e-01,-3.38810e-01,-1.63218e-01,-3.54143e-01,-5.17718e-03,-3.64172e-01,-3.00816e-02,-6.46665e-03,-3.55675e-01,-1.09185e+00,1.09196e+00,4.79350e-01,-7.74399e-02,6.16886e-03,-1.60474e+00,1.74580e-01,-1.11682e-01,1.50898e-01,8.33799e-01,2.14334e-01,-3.73125e-01,6.52783e-01,-3.90647e-01,5.23067e-01,5.22297e-03,1.71763e-01,-7.87303e-02,3.39527e+00,
8.77261e-02,4.95536e-02,-7.58679e-01,3.40452e-02,4.60780e-01,-1.11936e-01,3.99858e-01,-1.02533e+00,1.22097e-01,3.46333e-01,6.83161e-02,1.88171e-01,-2.98341e-01,-3.82009e-01,2.59424e-02,-6.95665e-01,-1.76110e-01,3.94303e-01,4.13482e-01,3.61972e-01,-1.83206e-01,-4.04749e-01,2.61084e-01,1.97998e-01,-4.59431e-01,-9.09116e-01,-4.53282e-02,3.96641e-01,-1.00076e+00,-3.23288e-01,-8.96676e-02,1.86728e-01,2.56865e-01,-1.63009e-01,5.51422e-01,-9.40349e-03,1.32802e-01,-1.69746e-01,9.28133e-02,-1.64477e-02,2.68794e-01,-2.65568e-01,-2.72559e-01,-5.33179e-02,4.83273e-01,5.18545e-01,-2.21370e-03,3.39245e-01,8.11936e-01,-6.80360e-01,
2.61118e-02,2.62774e-01,-5.54890e-01,1.48815e-04,7.85215e-01,-1.19274e+00,-1.13967e-01,8.35611e-01,6.99313e-02,-9.39436e-01,-2.04067e-01,-6.16491e-01,6.58960e-01,1.42225e+00,6.58193e-01,-1.08777e+00,1.02761e+00,-5.75255e-02,-2.27345e+00,-5.60706e-01,-4.44204e-01,1.45143e+00,-1.09071e+00,-1.22546e-01,1.03143e-02,-5.70674e-01,1.05370e-02,-2.62437e-01,-8.47757e-01,5.46888e-01,-1.14215e-01,-6.67792e-01,-2.46191e-01,-4.38770e-01,-5.20918e-01,1.67119e+00,-1.06544e+00,-1.99975e+00,-1.24713e-01,3.84397e-02,3.11698e-01,1.12491e-01,-5.51182e-01,-8.39280e-01,1.30083e+00,2.51026e-01,2.21649e-02,9.15574e-01,2.96572e-01,-1.06355e+00,
1.25370e-01,-2.09486e+00,-2.37632e-01,-3.30940e-02,-7.64791e-01,-3.62252e-01,-4.85492e-01,-1.07007e+00,-1.85785e+00,-8.15620e-02,-4.41266e-01,5.33840e-01,1.57706e-01,-7.32218e-01,3.83741e-02,7.20005e-01,4.76579e-01,4.57507e-01,-1.68136e-01,9.22669e-02,3.89717e-01,1.30977e+00,-7.78053e-01,-6.75193e-01,-1.14163e-01,-1.51323e+00,1.54427e-02,6.08540e-01,7.46928e-02,1.22214e-02,-5.73319e-01,7.66847e-01,3.47929e+00,2.91916e-01,-3.98235e+00,2.97427e-01,-1.20890e+00,5.61097e-01,-1.16844e+00,7.28771e-01,4.19170e-01,1.82366e-01,-7.88813e-01,6.11352e-01,4.26038e-01,-3.61236e-01,-3.03302e-02,-1.80148e-01,-4.32952e-01,8.88995e-01,
6.84966e-02,5.91937e-01,9.24953e-01,2.45865e-02,-3.58919e-01,-2.66795e-01,1.62081e+00,1.47008e-01,-1.48432e+00,7.26417e-02,-1.27605e+00,6.80687e-02,-1.43859e-01,1.43332e-01,-5.11869e-01,-2.51748e+00,2.41263e-03,-3.48956e-01,-3.87385e+00,3.33727e-02,2.95423e-01,5.89624e-01,-3.80935e-01,-2.96124e-01,2.65841e-01,1.33898e+00,1.03526e-02,1.33097e-01,3.13445e-01,-1.73073e-01,4.38208e-01,4.67140e-01,-4.01046e-01,1.20827e+00,-1.96645e-01,3.84665e-01,-1.09882e-01,2.51107e+00,-4.10165e-01,2.58035e-02,1.21058e-01,1.08134e+00,-3.94748e-01,1.14784e+00,-2.75521e+00,-6.12669e-01,7.29978e-03,-4.01774e-01,-3.62202e-01,-3.11245e+00,
2.34228e-02,-9.64751e-01,-9.96868e-01,9.33242e-03,-1.28474e-01,-4.88171e-01,-5.34073e-01,6.34550e-01,-7.61377e-01,-1.25262e+00,2.02978e-01,5.48122e-01,-6.15989e-01,-1.98157e+00,4.10784e-01,5.92242e-01,-4.08555e-01,3.36553e-01,-8.48948e-01,2.55815e-01,-9.81588e-01,-8.38863e-01,-3.26875e-01,-1.25961e-01,-7.40428e-01,-9.49729e-01,-3.28474e-03,7.00050e-01,-5.43948e-01,-3.42837e-01,-9.82717e-03,-6.30191e-01,4.31505e-01,1.03157e-01,-2.10269e+00,-9.94864e-01,-3.44386e+00,-5.67760e-01,6.14889e-01,-7.17418e-01,-4.00702e-01,-1.80984e-01,-4.12569e-01,1.48129e-01,-3.69872e-01,5.95871e-02,1.28471e-02,-3.06433e-01,8.88877e-01,-1.46252e-02,
7.49494e-03,2.08946e-01,1.15640e+00,-3.19103e-02,4.08260e-01,1.46778e-01,-5.69116e-01,-1.23188e-01,3.15172e-01,-2.94568e-01,-4.95260e-01,-4.81401e-01,-2.55952e-02,-1.71135e+00,-4.94757e-01,7.86718e-01,-1.41956e+00,2.10225e-02,-6.00032e-01,3.84396e-01,3.78151e-01,4.76903e-01,-3.62719e-01,-2.19573e-01,-1.00780e-01,5.21437e-01,3.85662e-02,-4.55699e-01,-2.02481e-01,-3.37974e-01,-3.25905e-01,-1.45130e-01,-1.21491e-01,-4.92286e-01,6.28641e-02,-7.07038e-01,-3.44768e-01,1.26080e+00,3.52552e-01,-8.95029e-01,1.56249e-01,4.48983e-01,2.19873e-01,4.77540e-01,1.93801e+00,1.31449e-01,-1.72181e-02,6.08208e-01,-2.61387e-01,-4.90112e-03,
8.74101e-02,7.73380e-01,7.12360e-01,-2.33204e-02,9.90480e-01,-7.04588e-01,-1.40471e-02,-7.91277e-02,-6.22149e-02,4.05969e-01,9.53234e-02,5.53141e-01,-4.57434e-01,2.74058e-01,5.91111e-01,8.88122e-01,7.13713e-01,1.92027e-01,-1.31786e+00,2.68539e-01,-1.13926e+00,2.80303e-01,2.18775e-01,-3.35816e-02,6.55942e-01,-1.70559e-01,-3.73716e-03,-6.06757e-01,-1.37105e+00,-6.49989e-01,1.29100e-01,4.26742e-01,-1.61634e+00,-2.26175e-02,1.55850e+00,3.24352e-01,-3.50477e-01,-2.94548e-01,1.64800e-01,8.64333e-01,-1.47750e-01,1.60083e-01,-5.82448e-01,3.51191e-02,-6.73250e-01,-4.25514e-01,-1.70593e-02,8.29600e-01,-5.83029e-01,1.80814e+00,
-3.86467e-02,-2.65777e-02,-3.61361e-02,-4.26445e-02,-2.53366e-03,-9.63155e-03,-3.12750e-02,-1.95726e-02,-4.65366e-02,4.19791e-02,1.15169e-02,-3.65523e-02,1.06064e-02,2.07111e-02,3.21753e-02,-1.11304e-02,1.82211e-02,3.24558e-03,1.01304e-02,-3.20604e-02,1.54650e-02,-3.91227e-02,-2.23739e-02,-1.71879e-02,-6.07929e-03,4.21155e-02,4.54883e-02,2.05117e-02,5.84566e-03,-5.98789e-02,-5.60406e-02,4.40567e-02,-1.51529e-02,1.79312e-03,-3.27578e-02,-5.81702e-02,7.71637e-03,-3.18678e-02,-3.78343e-02,3.72020e-02,3.69019e-02,-2.02684e-03,-2.82405e-02,-3.68950e-02,1.58494e-02,1.97632e-02,1.40382e-02,-1.17811e-02,7.72382e-03,-7.66274e-04,
2.76969e-02,-5.64984e-01,9.46072e-01,2.09479e-02,-1.10840e+00,5.82710e-02,1.54756e-01,-3.99172e-01,2.57194e-02,5.09153e-01,1.11150e-01,-5.75103e-02,3.71060e-01,3.41153e-01,-5.00688e-02,-1.60900e+00,-3.11298e-01,-7.20101e-01,2.37774e+00,1.39023e-02,7.58513e-02,-1.21414e+00,6.63356e-01,1.12469e-02,2.76200e-01,-7.26395e-02,-3.28522e-02,-2.21805e-01,1.05749e-01,-6.00198e-02,-4.29792e-01,-1.34885e+00,1.22275e+00,-8.65795e-02,1.89089e+00,2.42336e-01,-2.35859e-01,7.93281e-01,-2.51895e-02,-2.80970e-01,-3.20545e-01,-1.66483e-01,3.31604e-01,9.88283e-01,7.50131e-01,5.33812e-01,-2.39075e-02,-2.75054e-01,-5.85784e-01,1.09845e+00,
4.76770e-02,1.05738e+00,8.82561e-01,7.80062e-03,3.91322e-01,-8.21815e-01,9.94710e-01,3.66897e-01,-3.02827e-01,1.71410e+00,7.26551e-03,7.80365e-01,3.16160e-02,1.21667e+00,-1.33870e-01,2.72327e+00,8.48207e-01,-7.53485e-01,-1.62113e+00,1.13107e-01,2.03730e-01,-2.71144e-01,3.01308e-01,-2.76213e-01,1.12981e-01,8.17508e-01,-3.79562e-02,1.53799e-01,-3.20573e-01,-8.74127e-01,2.76030e-01,-5.23529e-01,4.56435e-01,5.26305e-03,5.54376e-01,9.13242e-01,1.04778e+00,-1.50964e-01,6.24868e-02,4.04441e-01,-1.00027e+00,1.08596e-01,6.78356e-01,1.54422e+00,-2.44542e-01,1.28924e-01,-4.94521e-02,3.98646e-01,2.07993e-01,1.57607e+00,
2.03119e-02,1.25728e-01,1.03184e+00,-4.76635e-02,-4.00579e-02,6.17670e-01,-2.00140e-01,9.39234e-01,-3.11388e-01,-1.55983e-01,-9.54766e-02,-1.62446e-01,4.50401e-01,-6.16493e-01,-4.07350e-02,2.86275e-01,7.95502e-02,-8.42879e-03,4.54543e-01,-7.67794e-02,2.28654e-01,-6.01479e-02,-3.35709e-01,-4.07174e-02,1.77435e-01,8.64909e-01,1.47632e-02,3.67325e-01,6.67632e-01,-2.65386e-01,-2.28280e-01,2.54236e-02,2.80153e-01,-2.23562e-02,-6.49230e-01,-1.93927e-01,8.48467e-02,-3.98595e-01,-2.77335e-01,-7.12246e-01,-1.35034e-01,3.59740e-01,8.24628e-01,3.88068e-02,-2.68910e-01,4.04518e-01,-2.27034e-02,-8.98720e-01,-2.54264e-01,7.15649e-01,
2.52666e-02,-8.84318e-02,8.35955e-01,3.42006e-02,8.91613e-01,5.87749e-01,1.96294e-01,-1.03037e+00,-2.50006e-02,1.57448e+00,-3.33860e-01,3.41117e-01,-2.83473e-01,-3.17450e-01,7.22049e-01,-7.60473e-01,3.75256e-01,-2.22410e-02,3.45265e+00,-2.12851e-01,6.88364e-01,1.63805e+00,2.02988e-01,1.53271e-01,-7.24425e-01,-1.28679e+00,2.92268e-02,3.21650e-01,1.20734e+00,4.71975e-01,4.37345e-01,-2.82485e-01,1.48042e+00,1.54885e-03,1.56928e+00,8.94574e-01,8.17257e-01,-9.07219e-01,-8.53528e-01,-5.93557e-01,3.21865e-01,-4.53871e-02,-6.70216e-01,7.76714e-02,9.86425e-01,8.50046e-02,-3.80756e-02,-7.92314e-02,7.55095e-01,6.90545e-01,
3.11444e-02,-1.85522e-01,-9.07078e-01,2.59130e-02,-8.11167e-01,6.67541e-01,4.85728e-01,-3.09375e-02,4.72328e-01,4.69755e-01,-2.42027e-01,3.98683e-01,-4.51770e-01,5.32397e-01,-4.79083e-01,-3.20260e+00,-5.97110e-01,-4.91719e-02,4.64100e-01,3.87178e-01,-1.31010e-01,8.88964e-01,-1.68780e-01,-2.52450e-01,6.29608e-01,1.28302e+00,2.77642e-02,-6.87133e-01,-5.12352e-01,1.13771e-01,2.20771e-01,4.12477e-01,-3.53470e-03,1.50363e-01,2.25481e-01,1.19953e-01,1.37254e-01,-4.45842e-01,-4.28381e-01,6.27518e-01,-1.09109e-01,4.70347e-01,6.73307e-01,6.84610e-01,2.41879e-01,8.39835e-01,-2.54591e-02,-6.64887e-02,-4.67377e-01,-3.10006e+00,
4.54818e-02,-3.77009e-02,-3.38521e-01,-2.03758e-02,5.08176e-01,-1.16038e+00,-4.99877e-01,-8.65151e-01,-4.83477e-01,-4.74247e-01,1.65294e-01,9.26856e-01,-4.32603e-01,2.43705e-01,4.19927e-01,-8.04467e-01,-6.54255e-01,3.73587e-01,1.18983e+00,-1.89187e-01,-8.22726e-01,2.07172e-01,2.22269e-01,6.73188e-02,1.42293e-01,-8.35101e-01,3.35383e-02,5.71613e-01,-3.30176e-01,-3.30443e-01,-1.80770e-01,-3.63897e-01,1.00848e+00,2.55808e-01,3.16997e-01,-4.76807e-02,-2.72907e-01,7.13118e-01,-2.44379e-02,1.17192e+00,-1.79939e-01,-8.67624e-01,-1.24408e-01,4.45928e-02,-1.99753e-01,2.25157e-01,4.61068e-02,-4.73902e-02,-1.99018e-01,1.41736e+00,
-3.39348e-02,-9.91573e-01,9.04517e-01,-4.52707e-02,-7.52569e-01,-4.65228e-01,-1.04185e-01,-1.34258e+00,-1.47501e+00,1.28725e+00,1.31184e-01,2.50988e-01,-1.77582e-01,-6.48244e-02,-6.57121e-01,-3.97027e-01,2.33884e-01,4.03630e-02,1.27144e+00,-3.87658e-01,-4.54486e+00,-8.30248e-01,6.00390e-01,-1.58607e+00,3.49813e-01,4.86167e-01,-4.56444e-03,2.65650e-01,-8.80645e-02,2.85473e-01,6.50709e-01,-2.13392e-01,-7.41559e-01,-6.80084e-01,-1.19926e+00,-3.36949e-01,-1.50357e+00,9.18130e-01,-1.08741e-01,4.69729e-01,-1.80361e-01,9.31723e-01,2.21021e-02,8.61000e-01,-2.85407e-01,-2.71757e-01,-1.43968e-02,-1.74822e-01,-1.62560e-01,-3.79727e-01,
-6.08268e-02,4.82958e-01,-2.23941e+00,1.69743e-02,-2.81588e-01,3.39702e-01,-1.56526e+00,7.79218e-02,3.46622e-01,9.95334e-01,-1.57144e-01,-1.57240e-02,1.93398e-02,1.62327e+00,-8.96642e-02,7.94465e-01,-5.86817e-02,-1.93844e-01,1.21798e+00,4.42833e-01,2.61015e-01,9.01442e-01,-3.54469e-01,1.49141e-01,2.52930e-01,-1.36207e+00,-4.54760e-02,8.69905e-01,6.94586e-01,1.08562e-01,3.30739e-03,-1.79048e-01,1.32796e+00,-4.18295e-01,1.42592e+00,2.22423e-01,-3.48018e-01,3.19653e-01,-4.60062e-01,-1.35645e+00,3.16255e-01,-2.81292e-02,-6.67075e-01,5.75788e-01,-3.88319e+00,-5.08252e-01,-1.91252e-02,1.30665e-02,-3.58187e-02,-1.31430e+00,
2.46841e-02,8.46725e-01,5.88319e-01,-1.22991e-02,5.05736e-01,-1.74948e-01,-1.35213e-01,-4.54361e-01,-2.78616e-01,6.87450e-02,-2.92895e-02,-5.04824e-01,-3.52137e-01,-8.67891e-02,-2.06881e-01,1.17343e+00,5.32268e-01,-1.22789e-01,1.15690e+00,-2.61035e-01,1.80322e-03,9.93752e-02,4.77425e-01,3.22277e-01,2.66223e-01,-6.77379e-01,7.93499e-03,1.57590e-01,-4.13163e-01,-9.40160e-02,2.84602e-01,4.01246e-01,-5.44845e-01,-3.37785e-01,-7.39348e-02,2.12727e-01,-2.95444e-01,-1.50806e+00,-2.24365e-01,4.95281e-01,3.99140e-01,-1.94613e-01,3.35294e-02,-1.11825e+00,9.03950e-01,-6.86053e-01,-4.48980e-02,8.62965e-02,3.34743e-01,3.15075e-01,
1.57408e-01,5.02252e-01,1.45885e+00,3.47961e-02,-4.72966e-01,5.31256e-01,-8.27946e-01,-9.55644e-01,1.64051e+00,2.40339e-01,2.29764e-01,-5.88115e-01,-2.47967e-01,1.88961e-01,-6.54613e-01,-1.65938e+00,-1.30122e+00,1.87981e-01,-3.14918e-01,1.92178e-01,-1.43907e-01,6.18939e-01,-7.36286e-01,-6.19881e-01,-7.40274e-02,-7.93877e-01,2.41417e-02,4.32728e-01,6.17490e-01,5.37381e-01,9.33556e-02,-2.05240e-01,-4.33716e-01,2.16041e-01,1.71124e-01,3.16871e-01,-7.66633e-01,-1.19545e+00,-5.70134e-01,3.34164e-01,1.42398e-01,6.65757e-01,2.84327e-01,4.12572e-02,4.86264e-01,7.08750e-01,4.16727e-02,-3.74633e-01,6.36902e-02,-1.70087e+00,
3.21953e-02,2.07939e-01,-4.55044e-01,-1.73491e-02,1.63523e-01,-2.31728e-01,3.96290e-01,-3.23503e-01,1.99471e-01,2.48332e-01,3.39569e-01,3.50917e-01,3.80135e-01,-3.96282e-02,-7.52985e-02,-1.64335e-01,-7.31704e-02,3.09391e-01,-2.68732e-01,-6.43825e-02,-1.74277e-01,-2.65982e-01,3.54323e-02,1.51225e-01,-2.50858e-01,-3.84173e-01,1.16967e-02,-2.56907e-01,-7.45280e-01,-2.34114e-01,5.64819e-01,3.03424e-01,-6.85291e-01,-6.99350e-02,5.23778e-01,1.13170e-02,-1.38018e-02,1.32182e-01,1.26719e-02,-1.54971e-01,-1.54288e-01,-3.74299e-01,-2.00040e-01,1.25188e-01,1.57050e-01,-2.53451e-01,-1.54150e-02,2.81770e-02,4.47221e-01,4.88597e-01,
-2.63722e-02,-4.45047e-02,2.17219e-01,3.68255e-02,1.26720e-01,5.20209e-01,1.37428e-01,3.02967e-01,-6.49773e-02,5.73542e-02,3.49520e-01,4.38863e-02,1.08353e-01,5.91226e-01,-4.55571e-02,5.30060e-01,2.16279e-01,-9.76195e-02,7.65995e-02,1.51774e+00,-4.98174e-02,-2.89982e-01,3.72878e-01,1.11462e-01,1.20179e-01,2.88630e-01,-2.66389e-02,1.23159e-01,-4.54706e-01,-1.07034e-01,3.33342e-01,1.17387e-01,2.16987e-01,3.81873e-01,-2.80777e-01,-3.35914e-01,1.02634e-01,1.45462e-01,-1.74190e-02,3.89407e-02,-1.52588e-01,2.89857e-01,-7.82243e-02,1.45475e-01,-2.65920e-01,-1.24104e-01,-3.81036e-02,5.90669e-02,-3.46141e-01,4.63818e-01,
2.25406e-02,2.50141e-01,-3.89543e-01,2.60446e-02,-1.12744e-01,5.97483e-01,9.38209e-01,-5.03829e-01,-5.19161e-01,3.38127e-01,6.55958e-01,-1.54716e-01,-7.86396e-01,2.71455e-01,-2.75578e-01,-4.89795e-01,-1.80033e-02,-1.73914e-01,-1.55233e-01,1.13907e+00,-6.53412e-02,-6.37044e-01,9.15080e-01,9.48257e-01,1.82971e-01,3.26085e-01,-1.63572e-02,3.99784e-01,-7.02697e-01,-5.05764e-01,6.75400e-02,6.72954e-01,1.93282e-01,-6.20932e-03,-3.88809e-01,-1.93579e+00,1.08993e+00,1.31844e+00,2.11444e-02,-2.22402e-01,6.21589e-02,4.60393e-01,1.18761e-01,5.16371e-02,-3.20321e-01,-1.72904e-01,-3.49748e-02,-8.50173e-01,1.94551e-02,2.40168e-01,
1.42699e-01,-9.34142e-01,-1.71756e+00,-3.92580e-02,-5.80708e-01,-5.89944e-01,-3.22647e+00,3.88165e-01,4.51611e-01,-4.63438e-01,4.60420e-01,-2.30101e+00,2.59233e-03,7.92548e-01,-1.24980e+00,-1.22837e+00,-4.44454e-01,2.23578e-01,-6.69245e+00,3.36075e-01,-6.68167e-01,-6.10719e-01,-7.11357e-01,-6.43256e-01,1.42287e+00,1.44416e+00,-2.92050e-02,-1.24922e+00,-4.35225e+00,-2.81105e-01,-9.73491e-02,1.74835e-01,-1.42805e+00,-3.48074e-01,-2.21434e-01,3.95274e-02,-7.18539e-01,1.48932e+00,2.44090e-01,3.31709e-01,-8.55802e-01,7.11578e-01,4.93753e-01,-2.01565e-01,-8.53439e-01,1.08219e-02,-3.17597e-03,-1.50815e-01,-1.56076e+00,1.37976e+00,
2.66051e-03,-4.06787e-01,4.36070e-02,1.69942e-02,-1.27517e-02,6.47118e-01,1.38388e+00,7.16958e-01,2.30855e-01,3.13268e-01,4.48157e-01,-4.42170e-01,2.29224e-01,2.39196e-01,-3.70981e-02,1.05530e+00,-2.01839e-01,2.80523e-01,2.88435e-01,-3.27938e-01,4.19088e-01,1.06453e+00,7.08914e-01,-3.78897e-01,-3.19750e-01,2.24925e-01,-1.72915e-02,5.03724e-01,1.94814e-01,9.19245e-01,-8.17012e-02,-2.38053e-01,1.39929e+00,-6.49996e-02,1.11013e-01,-1.02101e+00,1.55768e-01,-6.27045e-01,5.18906e-01,-5.00224e-01,6.50938e-02,-4.80282e-01,2.51169e-01,8.37206e-01,5.59243e-01,-3.68918e-01,6.81777e-02,-1.12367e-01,3.31807e-01,-4.18826e-01,
4.26900e-02,2.77341e-01,9.08204e-01,-1.40033e-02,-4.41300e-01,2.91169e-01,-4.36026e-01,-6.63505e-01,8.32399e-01,-5.59823e+00,4.98963e-02,-3.93499e-01,9.58976e-01,-3.63608e+00,-2.72411e+00,-6.54572e+00,7.07396e-01,-1.41354e+00,-1.00297e+00,4.64097e-01,-8.64454e-01,-2.34305e+00,5.43117e-01,7.72490e-01,-1.83673e+00,1.75617e+00,-9.58602e-03,2.68839e-01,-2.59311e+00,8.17519e-01,-8.19599e-01,4.51596e-01,3.59511e-01,-1.15527e+00,-2.57939e+00,-1.84759e-01,-3.31544e+00,9.76234e-01,1.75964e+00,7.84704e-01,1.53805e+00,-6.41845e-01,-7.95798e-01,-3.36184e+00,1.71528e+00,-1.66337e+00,-1.64406e-02,-1.82214e-01,3.63643e-02,2.82484e+00,
4.87177e-02,1.10601e+00,4.65147e-01,-2.76811e-02,-9.33499e-01,2.00373e-01,-1.13414e+00,3.63451e-01,-9.97359e-01,7.83464e-01,-1.52279e-02,-1.25933e+00,2.25302e-01,-1.03815e+00,3.13443e-01,2.21797e+00,-2.90811e-01,-6.35765e-01,1.49423e+00,-1.35677e-02,4.47283e-02,2.00946e-01,-2.47431e-01,-3.40512e-01,2.65628e-01,-4.15638e+00,1.45272e-02,4.99110e-01,4.12321e-01,-3.53540e-01,4.76152e-01,1.31503e+00,-7.35892e-01,-3.18994e-01,3.99033e-01,1.36414e-01,1.28470e-01,2.06298e+00,1.03395e-01,9.10022e-01,1.43116e-02,4.99191e-01,-1.11859e+00,7.43604e-02,4.20358e-01,-3.02833e-01,-2.53498e-02,4.57435e-01,3.71132e-01,3.08747e-01,
5.93240e-02,1.88280e-01,4.23171e-01,-1.13415e-02,-4.47474e-01,-8.66756e-01,-1.39369e-02,-1.31261e+00,8.98103e-01,2.02152e+00,5.55270e-01,-2.78429e-01,-4.87259e-02,1.00646e+00,-7.96624e-01,-1.38527e+00,-8.51225e-01,2.87635e-01,1.81801e-01,-1.93079e-01,3.85480e-01,-3.54210e-01,-2.00550e-01,1.10158e+00,1.32611e-01,-3.83174e+00,1.82964e-02,2.97181e-01,-4.81208e-01,-3.57286e-01,-3.95526e-03,-8.80796e-01,1.73204e+00,5.59311e-02,3.74430e-01,3.96526e-01,6.35301e-01,2.40034e+00,-2.34378e-02,-1.28709e+00,-5.57588e-02,-7.41005e-01,1.85096e-01,1.50933e-01,-2.39855e-01,6.27864e-01,3.79560e-02,4.35219e-01,4.75502e-01,4.95944e-02,
1.45703e+00,
2.69341e-01,
-2.34063e-02,
-1.55863e+00,
-5.78284e-01,
-7.99029e-01,
-1.99558e+00,
-2.19429e+00,
-2.36774e-01,
-7.19871e-01,
-1.07470e-01,
-1.54881e+00,
-1.01874e+00,
-3.28845e-01,
-1.91800e+00,
-1.38178e+00,
-1.72134e+00,
-1.36270e+00,
-7.11070e-03,
-8.58007e-01,
2.33023e-01,
6.19696e-01,
4.78331e-01,
-1.48737e+00,
4.99203e-01,
1.54994e-01,
-7.22414e-01,
-9.49382e-01,
7.88308e-02,
6.66451e-01,
2.49839e-01,
-3.07759e-02,
6.04834e-01,
-1.92368e+00,
-3.33158e-01,
-5.80324e-01,
-4.22525e-01,
-1.35871e+00,
-5.05814e-01,
-1.09911e+00,
2.45720e-01,
-1.05998e+00,
1.05678e-01,
-5.12559e-01,
-5.38860e-01,
3.35861e-01,
-2.21011e+00,
1.14690e+00,
-2.13619e+00,
-1.10200e+00,
-4.03319e-02,-1.46613e-01,-2.16223e-02,-4.43421e-01,-4.78991e-01,2.61868e-01,3.55097e-01,-6.08024e-01,2.67499e-01,-1.13198e-01,1.79594e-01,4.75375e-01,4.81559e-02,-7.46482e-02,-1.55352e-01,2.28868e-01,2.82416e-01,-1.28954e-01,-2.12041e-02,-2.53260e-01,-9.67171e-02,-2.92874e-01,2.88014e-01,7.05665e-04,4.58617e-03,-2.35607e-02,-3.08298e-01,-2.36586e-01,-1.20817e-01,-6.23699e-02,-9.30308e-02,-1.01018e-02,7.99615e-02,-3.20138e-01,4.65780e-01,-4.16210e-01,-4.03638e-01,6.38621e-01,-1.06441e-01,8.54112e-02,4.81809e-01,2.68044e-01,3.61694e-01,9.32133e-02,-3.61733e-01,1.55526e-01,3.17994e-01,3.61672e-02,-8.10169e-02,4.94220e-01,
-6.72981e-01,-1.26043e+00,-3.03215e-02,-4.22569e-01,6.82657e-01,8.42785e-01,-2.45971e-01,-5.62859e-01,-1.33203e-01,-5.73777e-01,-2.05167e-01,1.48937e+00,-1.31939e+00,4.65214e-01,1.04186e+00,2.66095e-01,-1.18409e+00,-1.36357e-01,-9.32755e-03,-5.85250e-01,-5.49240e-01,-5.73065e-01,4.18611e-01,-3.43785e-01,1.76380e-01,2.67289e-01,-3.70870e-01,2.44594e-02,-7.23528e+00,-3.56191e-01,2.69087e-01,3.76429e-04,1.62226e+00,1.88982e-01,3.84116e-02,6.30365e-02,-3.33781e-01,4.02920e+00,1.31566e+00,1.11228e-01,-9.12409e-01,9.19748e-01,-5.03356e-01,-4.78458e-01,-3.58264e-01,-1.56696e+00,2.99642e-01,2.48930e-01,2.81429e-01,1.92776e+00,
-2.31785e+00,-1.68464e+00,1.40122e-03,2.11377e-02,2.11235e+00,-3.42779e-01,5.99226e-01,-1.00834e+00,4.95305e-01,-1.16271e+01,1.79515e+00,1.22337e+00,-1.25495e+00,2.78056e-01,-1.30668e+00,-6.88977e-02,-7.57724e-01,-2.26658e-01,2.54877e-03,-7.45557e-01,4.29346e-01,-1.39141e+00,-1.42921e-01,-2.12626e+00,-1.27340e+00,-4.46666e-03,-4.27435e+00,-2.39657e+00,-2.44753e+00,-6.71171e-01,-5.81148e-02,3.83845e-02,1.40034e-01,1.39835e-01,2.73457e-01,2.53423e+00,3.68554e-01,-4.99863e-02,2.60721e+00,1.45054e+00,-2.44599e+00,-4.97190e-01,-7.08137e-01,-1.27757e+00,-1.93876e+00,-5.78197e-01,-7.38907e-01,7.10675e-01,-6.87335e-02,-1.57159e+00,
-5.61006e-01,-2.84999e-01,-8.00962e-03,3.03160e-01,-1.22217e-01,5.50693e-01,5.35927e-01,3.55057e-01,-1.08747e+00,-9.56816e-02,2.98261e-01,3.82151e-01,8.95873e-01,1.26313e+00,-2.46503e-01,-7.51731e-02,3.79790e-01,3.64013e-01,-1.08915e-02,1.14505e-01,3.52718e-02,-5.92306e-01,-2.35612e-01,5.03629e-01,-6.79105e-01,-6.21525e-01,3.30950e-01,1.15217e-01,-1.06383e+00,1.10009e-01,3.01437e-01,7.86085e-03,1.41432e+00,-4.12103e-01,-2.53840e-02,-4.87590e-01,-2.45484e-01,3.64752e-01,-2.31898e+00,-1.59754e-02,-3.21640e-01,5.85279e-01,3.95428e-01,6.07391e-01,-8.04530e-01,-4.02212e-01,-5.85898e-01,6.30297e-02,4.83258e-01,2.61133e-01,
-2.56605e-01,-1.64679e-01,-4.07308e-02,-5.82904e-02,2.81071e-02,8.34075e-01,1.32400e-01,1.68624e-02,2.75753e-01,1.25716e-01,4.20000e-01,8.47897e-02,3.51926e-01,7.72367e-01,4.34048e-01,-2.98880e-01,1.24528e+00,8.26106e-02,-2.63047e-04,-1.01363e-01,8.81382e-02,4.19746e-02,3.24231e-02,1.65755e-01,-8.49802e-03,1.68277e-01,1.46406e-01,4.01633e-01,-2.24335e-01,3.39046e-02,-2.53371e-01,-2.99756e-02,-2.68744e-01,1.15099e+00,6.56913e-01,-2.37024e-01,-4.00689e-01,-5.01208e-01,8.20837e-01,3.28919e-01,-1.53721e-01,-4.65787e-02,1.60749e+00,3.80990e-01,-9.05889e-01,-5.66915e-02,-3.46088e-02,2.13720e-02,6.20291e-01,-3.10067e-03,
1.90225e-01,-2.88448e-02,-3.85011e-02,-3.76394e-01,7.67038e-02,2.27288e+00,3.08860e-01,6.86222e-01,-1.22073e-01,3.71037e-03,-1.73942e-01,5.76381e-01,2.36740e-01,-2.15177e-01,-5.57423e+00,-6.55188e-01,-1.44476e+00,-1.26683e-01,4.08218e-02,1.64497e-01,-1.21703e-02,1.74374e-01,-4.18382e-01,1.74968e-01,4.75378e-01,7.39767e-02,3.38092e-01,7.96348e-01,1.57618e-01,9.95319e-02,-4.01588e-01,1.53099e-02,9.93320e-02,-4.15328e+00,-5.06302e-01,3.93698e-02,2.57263e-01,1.36232e-02,-4.09980e-01,-1.40243e-01,-1.02460e-01,-3.46267e-01,4.74127e-02,-1.05404e-01,-3.03421e-01,2.42134e-01,-1.09894e+00,2.24671e-01,8.49475e-01,5.72722e-01,
-1.80416e-01,5.61112e-01,-3.53637e-02,-7.46115e-02,2.69343e-01,8.73660e-01,4.99295e-01,-9.77265e-01,1.77348e+00,-8.45230e-01,-4.70064e-01,-1.88348e+00,-1.79508e-03,2.80296e-01,1.30791e-01,3.65917e-02,2.00184e+00,9.25154e-02,2.56265e-02,-6.53096e-01,-7.11025e-01,-6.83149e-01,1.13195e-01,-2.12178e-01,-2.14984e-01,-1.69213e-01,-6.20937e-01,-2.50756e-01,-6.40122e-01,-8.76949e-02,-7.61101e-01,-3.79123e-02,2.86025e-01,-1.85891e-01,-2.27752e-01,8.17554e-01,-2.89692e-01,2.25099e+00,8.54046e-01,-2.66942e-01,1.09224e-01,-1.42304e+00,1.06433e-01,8.50660e-03,-7.27736e-01,9.90376e-01,5.35631e-02,3.01937e-01,9.33664e-02,9.66374e-01,
-4.75522e-01,-4.10011e-01,7.84457e-03,1.45635e-02,7.27232e-02,-2.03734e+00,-7.31643e-01,-5.98852e-01,1.22513e+00,-6.04271e-01,-1.26170e-01,1.98785e-01,4.05344e-01,6.14500e-01,-4.65541e+00,4.33685e-02,-8.45635e-01,-6.35614e-02,-4.31051e-02,2.48699e-01,-4.58575e-01,1.79259e-01,-1.51841e-01,2.77253e-01,-2.54856e-03,-3.52209e-01,-4.95799e-01,2.33377e-01,-4.83960e-02,1.55089e-01,-1.92607e-02,1.02491e-02,1.04847e-01,5.47186e-01,1.20473e+00,-3.04078e-02,-6.98639e-02,-3.90555e-01,1.10956e+00,-9.76553e-01,-2.66753e-01,-2.59523e-01,1.01806e-01,6.92158e-02,1.06695e-01,-5.87333e-03,-1.77655e-02,-2.77932e-01,1.30221e-01,1.02481e+00,
8.86579e-02,-5.69479e-02,-1.97647e-02,-7.46616e-02,-4.07170e-01,-1.59888e-01,4.75543e-01,3.13332e-01,-4.57309e-02,1.25798e-02,-2.18705e-01,-1.44231e-01,5.36109e-01,-1.41651e-01,1.04915e-01,1.20907e-01,-1.36403e+00,-3.80283e-01,-1.94483e-02,-3.91115e-01,-1.51589e-02,-8.69793e-01,3.13544e-01,8.08893e-01,1.47664e-01,3.66433e-01,1.42999e+00,4.95496e-01,-6.65896e-01,4.41526e-02,-4.88910e-02,-8.33731e-03,5.19966e-01,-2.50214e-01,6.15948e-02,-7.32699e-01,-6.44494e-02,6.40372e-01,3.42782e-01,5.13129e-01,1.93145e-01,-4.42433e-01,3.36722e-01,-3.08501e-01,4.22945e-01,-6.20515e-01,3.80310e-01,-4.63026e-01,-1.40266e-01,4.07133e-01,
1.95342e-02,1.56530e-01,1.97986e-03,1.11588e-01,-1.42333e-01,-8.04197e-01,2.91378e-01,-4.66266e-01,6.77999e-01,-1.87028e-01,1.06944e-02,6.29093e-02,-2.14837e-01,4.86273e-01,-1.64045e-01,2.01734e-01,-6.26768e-01,6.57411e-02,-1.06175e-02,2.73477e-02,-7.34180e-02,3.78286e-02,2.74074e-01,4.69749e-01,2.84659e-01,-2.09679e-01,-5.33746e-03,3.17651e-01,1.70677e-01,3.66701e-01,4.60483e-02,9.45585e-03,3.31301e-02,5.94389e-01,1.68726e-03,-9.09716e-03,-1.75208e-01,-6.59325e-02,4.76885e-01,2.84806e-01,-2.43534e-01,-2.14161e-02,2.57646e-01,1.22430e+00,-1.70847e-01,1.28162e-01,-7.92276e-02,3.52132e-01,2.12195e-01,1.82053e-01,
8.11878e-01,7.85862e-01,-1.49732e-03,3.44556e-01,3.41027e-01,1.84197e-01,-8.09098e-01,1.06151e+00,4.70176e-01,8.59572e-01,8.94977e-02,-4.91296e-01,-5.04897e-01,-1.64797e+00,-1.03313e+00,1.90673e-01,-1.52056e-03,1.58306e-01,4.51701e-02,-1.37035e-01,6.90397e-01,4.04178e-02,-1.95848e-01,1.85941e-01,-5.57328e-01,-4.98976e-01,2.88335e-02,2.44253e-01,7.51395e-01,3.39868e-01,2.13553e-01,2.73251e-02,-8.20648e-02,-1.06853e+00,1.47646e-01,-9.75448e-02,1.53649e-01,5.09327e-01,-8.26891e-01,-8.34389e-01,3.51617e-01,4.88309e-01,4.60409e-01,-1.22780e-01,4.69084e-01,-6.56930e-01,-7.96321e-01,-1.50257e-01,7.95554e-01,3.72331e-01,
3.10520e-01,8.32311e-02,-7.51915e-03,1.20916e-02,-5.34654e-02,-4.87368e-01,-1.72763e-02,7.65550e-02,-1.67908e+00,-5.83529e-02,2.78399e-01,9.32815e-01,1.23222e+00,1.58295e-01,-9.35752e-01,-3.62255e-01,1.28371e+00,8.65130e-02,-2.53766e-03,1.20450e-01,1.43384e-01,1.15185e-01,-1.84410e-01,7.09748e-02,1.36130e-03,5.34655e-01,2.79799e-01,2.99716e-01,-2.38601e-01,3.16040e-01,2.85125e-01,5.02311e-03,-3.58385e-01,4.34947e-02,-3.74087e-01,1.83490e-01,8.06336e-02,6.21488e-01,-4.05888e-01,-6.61843e-02,-4.74027e-02,3.65918e-01,7.01652e-02,2.48732e-01,-4.70355e-02,6.09411e-01,-7.02884e-02,-3.09261e-01,-1.06500e-02,3.01491e-01,
-8.02872e-03,1.12412e-01,-4.99454e-02,7.77356e-02,3.98766e-01,-2.56555e+00,-1.63338e-01,-1.15632e+00,5.63458e-01,-2.10654e+00,6.68893e-02,7.65425e-01,-1.01352e+00,-7.92740e-02,-3.09271e+00,-1.08589e-01,-2.74266e+00,6.49033e-01,-1.03482e-02,5.55874e-01,-1.74376e-01,1.42025e-02,-1.73812e-01,-9.25207e-01,4.58160e-01,9.47691e-02,-3.37672e-02,1.86623e-01,1.57436e-01,-3.02488e-01,-3.84323e-01,-3.77154e-02,-8.61728e-02,7.05180e-01,4.77888e-01,-4.82100e-01,-3.74046e-01,5.38450e-01,-3.75629e-01,-5.46604e-01,4.14503e-01,7.89533e-02,-5.43766e-01,2.67067e-02,2.14305e-01,5.74936e-01,6.43438e-01,-6.74229e-02,1.64817e-01,-4.65793e-01,
-3.83573e-01,-5.29742e-01,9.39189e-03,5.57728e-01,6.37844e-02,5.50228e-01,-1.11215e-01,-4.72995e-01,9.36035e-01,3.80389e-01,2.66740e-02,5.10433e-01,2.94202e-01,-1.69624e-01,2.86701e-01,-2.57048e-01,-1.24464e+00,2.44161e-01,-2.95882e-02,2.19511e-01,3.04493e-01,-9.04359e-03,-7.28127e-02,7.50342e-01,-6.67993e-01,-3.87984e-01,2.84409e-01,-5.83200e-02,-6.95021e-01,8.05263e-01,1.99969e-01,4.52016e-02,-1.24822e-01,8.51752e-01,5.84463e-02,1.81285e-01,-3.84759e-01,-2.81194e-01,1.21847e-01,-8.29580e-01,-6.46221e-01,1.39747e-01,7.97157e-01,1.44239e-01,-7.84149e-01,1.87919e-01,3.09304e-01,2.90866e-01,4.35758e-02,1.04059e-01,
9.05815e-02,1.57733e-01,1.85523e-02,-2.24465e-01,1.43767e-01,9.17766e-01,9.64638e-02,8.16976e-02,-9.32452e-01,3.80589e-01,2.39711e-01,5.51660e-01,-5.40630e-01,-4.77132e-01,5.18021e-01,3.35461e-01,-1.17113e+00,3.83398e-02,-1.10130e-03,-1.80345e-01,7.38244e-02,-2.21191e-01,2.38917e-01,-4.47468e-02,2.99192e-01,-9.09946e-01,-3.49252e-02,-1.19397e-01,1.62876e-01,9.33560e-02,-4.05667e-01,4.47424e-02,3.64529e-01,3.38268e-01,3.49190e-01,-1.67274e-01,-3.87517e-02,-7.69673e-01,3.43511e-01,5.73403e-01,1.24257e-01,-3.51264e-01,4.45560e-01,1.88294e-02,-6.00418e-01,1.55471e-01,-9.21701e-02,1.50104e-01,1.67217e-02,-6.58291e-01,
-9.77874e-02,-5.70677e-02,5.46479e-02,7.71844e-02,-2.48504e-01,-1.28641e-01,1.99549e-02,-4.07447e-01,-1.14373e-01,-1.49893e-01,-7.12409e-02,1.04546e-02,-3.16098e-02,1.60650e-01,-6.31811e-01,-4.43651e-02,-2.35008e-01,-7.70582e-02,4.97216e-03,-6.02619e-01,1.27661e-01,1.02200e-01,-1.76190e-01,3.18176e-01,-5.97303e-02,-2.00441e-01,-3.53866e-02,1.06111e-01,6.27282e-02,6.63165e-01,2.22102e-01,3.29191e-02,4.52880e-01,2.96458e-01,-1.04416e-01,-1.55321e-01,-1.00607e-01,4.44994e-01,2.15253e-01,-5.96668e-01,-5.86587e-03,4.50230e-01,3.06184e-01,7.22558e-02,-1.18559e-01,-2.30952e-01,-4.01964e-01,-1.35856e-02,2.69180e-01,-3.09813e-01,
4.22712e-02,4.58603e-01,1.78555e-02,-4.33691e-01,2.53356e-01,2.58893e-01,-1.59226e+00,-1.65909e+00,-2.29931e+00,-2.44597e-01,5.45082e-01,8.76073e-01,-2.38992e+00,-1.84516e+00,-6.90891e-01,2.84353e-01,1.25352e+00,6.97001e-01,1.40656e-02,-6.98139e-01,-1.46638e-01,-7.94656e-01,-2.93255e-01,2.35275e-01,8.38902e-02,-1.45389e-01,1.39353e+00,1.16323e+00,2.92017e-01,3.51650e-01,-2.60829e-01,-5.24168e-02,-3.64390e-01,-1.12916e+00,3.61835e-02,1.21191e-01,-5.79156e-01,-7.17800e-01,1.40941e+00,7.90556e-01,2.29599e-01,-2.53510e-01,1.70821e-03,2.74665e-02,-1.57225e-01,5.22648e-01,5.52814e-01,3.10068e-01,-1.80812e+00,1.68284e+00,
3.22489e-01,1.14724e-01,-2.28397e-02,1.49587e-02,-3.75790e-01,6.51007e-01,-2.49585e+00,-1.27624e+00,-8.34193e-01,-1.68694e-01,2.50763e-01,-5.87697e-02,5.55725e-01,9.56554e-01,-4.78178e+00,3.12945e-01,-1.39058e+00,9.39115e-01,-4.53237e-02,4.15937e-01,1.37892e-01,1.39768e-02,-4.23711e-01,7.60402e-01,8.03597e-01,-7.51777e-01,4.64694e-01,6.28950e-01,-8.72968e-01,5.80699e-02,-4.02797e-01,-4.46196e-02,1.14326e-01,-1.11157e+00,3.10235e-01,-5.33386e-01,-5.14415e-01,-8.22747e-01,-1.46804e+00,4.50306e-01,6.38020e-01,7.25257e-02,1.14260e-02,-5.56394e-02,-3.54301e-02,-1.09397e-01,-2.80556e-01,-5.79777e-01,-6.77971e-01,-4.06959e-01,
-8.21544e-01,-8.88400e-01,2.41233e-02,4.81002e-02,-8.31512e-01,7.15794e-01,7.42363e-02,2.26140e+00,1.18446e+00,-3.47290e+00,5.56023e-01,-1.07446e+00,1.60095e+00,5.30995e-01,-1.18298e+00,-1.22968e+00,-1.02701e+00,-9.15193e-01,4.33406e-03,3.66194e-01,4.95911e-01,-4.53369e-01,-2.17765e-01,1.38121e+00,-4.74680e-01,-9.76998e-03,-2.29731e-01,-1.02394e+00,-5.25302e+00,1.37315e-01,3.82551e-01,-2.92123e-02,3.24176e-02,5.68784e-01,-3.19714e-01,-1.75956e+00,1.53745e-01,4.09851e-01,5.28130e-01,-5.24269e-01,1.16793e+00,-4.07578e-01,-5.48972e-02,-4.28516e-02,-9.34967e-01,4.96554e-01,8.02183e-01,5.76812e-03,3.50677e-01,-3.57849e-01,
-3.55249e-02,1.08453e-01,4.89787e-02,-6.96974e-02,3.41160e-02,4.52380e-01,-4.81801e-01,-7.88873e+00,1.19776e-02,-1.39432e-01,2.73594e-01,7.07162e-02,4.07189e-01,-9.65510e-01,-4.01779e-01,-2.26777e-02,9.15597e-02,-2.25540e-01,5.04441e-02,-6.67670e-03,-2.88731e-02,-8.43331e-02,-1.23642e-01,8.19943e-01,4.87085e-01,3.22476e-02,6.95914e-02,-1.80876e-01,-1.33030e-01,-4.25603e-01,6.04360e-02,7.17758e-03,-8.97489e-02,-5.95831e-01,-1.02911e+00,-6.29380e-01,2.40699e-01,-2.68194e-01,-4.87053e-01,-2.40249e-01,4.20808e-01,1.23303e-01,-7.38885e-02,-1.92436e-01,-1.74181e-01,3.48879e-03,-1.35167e+00,-1.02975e-01,1.28707e+00,3.83990e-01,
4.11576e-01,-6.44408e-03,2.55488e-02,7.29059e-02,3.82340e-01,-1.53491e+00,4.18226e-01,-3.70238e-01,-2.86878e-01,-2.28036e-01,3.75662e-03,9.53605e-02,-6.37124e-01,-1.90350e-01,1.63323e-01,4.31688e-03,8.97503e-03,5.50963e-01,-2.09507e-03,-7.41906e-02,4.06560e-01,-2.00015e-01,-6.46849e-01,-7.60724e-01,-2.18152e+00,-3.54284e-01,-1.77411e+00,-8.59906e-02,-3.30037e-01,7.08248e-01,-8.31595e-01,4.94256e-02,4.21469e-01,5.49677e-01,3.07703e-01,1.16360e+00,-3.95245e-01,6.90043e-01,-7.96210e-01,-1.42099e-01,3.88593e-01,-3.56762e-01,5.21502e-01,4.16445e-01,-5.97939e-01,-4.24212e-01,-1.88378e-01,2.19458e-01,1.50443e-01,1.52892e+00,
2.25587e-01,4.79256e-01,4.49661e-02,3.88631e-01,-4.07765e-02,-4.83972e-01,7.21135e-01,-1.70046e+00,-1.75797e+00,-1.08206e-01,8.58924e-01,3.53609e-01,-1.68649e+00,3.74026e-01,2.33876e+00,1.83107e+00,1.65300e+00,1.45072e-01,-1.21494e-02,-3.79635e-01,-6.95892e-01,-1.18103e-01,1.42419e-01,-2.62009e-01,4.87639e-01,-6.55839e-01,-9.34632e-01,-5.53310e-01,-4.37913e-01,-6.87076e-01,-3.97834e-01,4.12780e-02,-1.14310e-01,-5.62604e-01,-1.62674e-02,9.43964e-01,-2.75338e-01,-1.22231e-01,3.21114e+00,7.54794e-02,-4.61862e-01,-2.92919e-01,2.22342e-03,-6.22076e-01,-1.24960e-01,-1.15539e+00,2.28802e-01,5.09901e-01,-3.95355e-01,2.21025e+00,
1.58085e-01,4.09606e-01,-4.33534e-02,-3.41557e-01,9.11477e-02,-7.22478e-02,-1.74540e+00,2.80265e+00,5.81986e-01,4.23937e-01,3.57954e-01,-4.38926e-01,-5.56788e-01,-1.02990e+00,5.24302e-01,-3.90044e-01,1.06973e+00,1.36342e+00,-5.45195e-03,-4.12391e-01,4.49168e-01,-6.51643e-01,-2.05192e-01,3.14290e-01,-3.66341e-01,-7.95749e-02,4.78639e-01,-4.37372e-01,4.02989e-02,-5.00169e-01,8.63596e-02,-1.07671e-02,5.47586e-01,2.04176e-01,6.89484e-01,-3.25593e-01,-6.43399e-01,-4.32538e-01,4.01528e-01,9.61550e-01,-2.92447e-01,-4.66818e-01,2.08807e-01,-1.01879e-01,8.57653e-04,1.33031e-01,-1.81817e+00,-5.71782e-01,8.58723e-01,1.11183e+00,
3.47538e-01,6.98539e-01,-2.41957e-03,1.48720e-01,8.04403e-01,6.03182e-01,3.17050e-01,-1.46036e-01,8.50044e-01,-4.42901e-01,6.74929e-01,9.10792e-01,2.03277e+00,-3.58523e-01,1.99643e+00,2.30988e-01,4.27772e-01,-7.31320e-01,-3.73637e-03,6.47431e-01,-9.70008e-02,6.18940e-01,-5.99363e-01,5.59850e-01,-1.62021e+00,-9.33356e-02,-6.47870e-01,-1.67534e+00,4.38959e-01,-2.76947e-02,-3.87305e-01,-2.18188e-02,-2.25418e-01,3.72698e-01,-5.98804e-01,9.91780e-01,8.94612e-01,2.53780e+00,-1.24401e+00,-9.22515e-02,-1.01087e+00,5.21748e-01,1.76775e-01,-1.62170e+00,-8.55124e-01,9.63441e-01,8.15709e-01,1.00954e+00,-1.85024e+00,4.33447e-02,
2.34170e-02,-2.25110e-02,-4.58420e-02,-1.29325e-03,2.96428e-02,1.18800e-02,-9.05400e-03,2.29114e-02,-4.73720e-02,8.55696e-03,3.30441e-02,3.65267e-02,2.39581e-03,1.43044e-03,-3.61461e-03,-3.42445e-02,8.46271e-03,3.91685e-03,2.09142e-02,-4.59912e-02,2.01690e-02,-5.26689e-02,1.41459e-02,4.59919e-02,-4.15002e-02,-5.36985e-02,-4.04442e-02,-4.40484e-02,-2.24087e-03,-1.49095e-02,1.34828e-02,-1.16000e-02,-2.21265e-02,-8.28178e-03,-2.51766e-02,-7.00149e-03,-5.16010e-02,-1.62060e-02,3.71858e-02,-4.00866e-02,-6.52020e-03,-3.88539e-02,-2.42677e-02,-5.22015e-02,-3.25919e-02,-3.11690e-02,-3.71294e-02,-1.07862e-02,-4.24475e-02,-1.30684e-02,
1.82773e-01,3.58442e-02,-3.88189e-02,-6.87394e-01,-8.97766e-01,1.55193e-01,-6.60205e-01,-9.51186e-01,1.11642e+00,1.45853e-01,-1.09970e-01,7.76961e-01,2.98207e-01,9.44013e-02,-4.30188e-01,4.86645e-01,2.75802e+00,9.23277e-01,-2.71157e-02,-4.85216e-01,-3.26040e-01,-3.10485e-03,3.21513e-01,3.60482e-01,-8.23949e-01,5.04114e-01,4.44105e-01,1.06343e+00,-7.50670e-01,8.90657e-01,-2.90921e-01,4.17983e-02,7.17594e-01,4.48128e-02,7.42086e-02,-4.32980e-01,-1.16104e+00,1.58610e+00,2.99955e-01,7.38450e-01,-3.71440e-01,-2.19048e+00,-3.96729e-01,2.58548e-01,-4.35922e-01,3.77398e-02,2.31326e-01,2.80732e-01,-1.35571e+00,1.57557e+00,
-1.12767e+00,-1.03593e+00,-4.03588e-02,3.64329e-01,-2.85715e-01,-1.22155e+00,-1.40749e-02,5.20809e-01,-5.35186e-01,8.31042e-02,-2.85638e-01,6.88138e-01,7.77558e-01,5.49439e-01,9.73125e-01,-3.00235e-01,-1.70957e-01,-2.84978e-01,1.57541e-02,5.75195e-04,3.04911e-01,-6.49004e-01,2.23725e-01,2.77993e-01,5.09224e-01,-6.00392e-01,2.57263e-02,-1.52879e-01,1.11746e-01,6.00665e-01,7.32629e-02,3.69533e-03,8.25007e-01,4.61907e-01,3.73229e-01,-4.67375e-01,1.73081e-01,1.63219e-02,-7.07115e-01,-2.04243e-01,3.39043e-01,-1.82734e-01,-1.06192e-01,-2.22207e-01,-3.09329e-01,-4.72622e-01,-9.36650e-02,2.31537e-01,3.14744e-01,4.36769e-01,
-3.89127e-01,2.79417e-01,-4.50097e-02,-1.36763e-01,-1.31123e-01,7.00743e-01,-8.41957e-02,3.18712e-01,-1.73454e+00,-8.47996e-01,2.63122e-01,-1.22751e-01,-5.51412e-01,1.77266e-01,9.48513e-02,1.16409e+00,-7.74536e-01,-2.73173e-01,-6.30164e-03,-2.33855e-01,-8.11066e-02,-3.13895e-02,-3.58923e-01,3.33783e-01,7.95027e-02,1.95279e-01,1.99505e-01,2.55279e-01,-5.45446e-01,8.17885e-01,-2.55325e-01,3.88465e-02,2.23792e+00,-5.77991e-01,-8.09734e-03,1.07877e-01,3.52929e-02,1.81146e-01,-6.72450e-01,-2.48744e-01,5.57690e-02,-2.78804e-01,8.56866e-01,-6.49132e-02,-2.82382e-01,3.79875e-01,5.70213e-01,-1.61208e+00,-5.75176e-01,-1.35481e+00,
-2.15046e-01,1.18525e-01,-6.99969e-03,1.23104e-01,2.37494e-01,-1.28704e-01,1.39952e-01,-3.02973e-01,8.69286e-01,2.22524e-01,-9.24426e-01,9.11212e-01,5.44304e-01,4.27140e-01,-1.20418e-01,4.08554e-01,-3.71040e-01,-2.44492e-01,-6.69130e-04,3.63035e-01,1.29032e-01,-2.13008e-01,-4.03073e-01,8.50499e-01,-2.44719e-02,-1.01100e-02,1.08856e+00,6.30172e-03,-1.45169e+00,-2.22141e-01,-2.68677e-01,-2.17281e-02,-2.85084e-01,5.73738e-01,5.05228e-02,-3.63208e-01,-5.71046e-01,-6.00118e-01,1.02887e+00,3.69844e-01,-1.10602e-02,3.68867e-01,-1.48691e-01,4.36400e-01,-3.10520e-01,-3.08500e-01,-3.64703e-01,-2.45832e-01,1.02514e+00,9.31346e-01,
-2.72231e-01,-1.22043e-01,1.62803e-02,-4.45588e-01,-1.26691e-02,-1.14660e-01,-2.65969e-01,1.31836e-01,-5.56682e-01,-3.26248e-01,2.71537e-01,-1.33317e-02,6.32146e-01,-1.01899e-01,2.44549e-01,-1.24140e-01,-6.54150e-01,1.51128e-01,-3.05143e-02,1.09085e-01,-3.83585e-01,2.88001e-01,2.58555e-02,3.14076e-01,1.45101e-01,-1.90226e-01,-4.74354e-03,-3.06881e-01,-2.23512e-01,-1.56196e-02,2.27017e-01,-3.58850e-02,-4.05293e-01,-1.16206e-01,-2.00904e-01,-1.77190e-01,-3.50055e-01,4.28459e-01,-4.95522e-01,1.14283e-01,-1.32767e-01,3.08138e-01,3.28219e-02,-1.31369e-01,-2.60418e-03,9.67737e-02,9.56240e-02,-3.95750e-01,4.09707e-01,1.85523e-01,
-4.75247e-01,-9.74948e-02,-4.15847e-02,-6.71500e-01,-1.68361e-01,-5.38825e-01,4.82757e-01,-4.79622e-02,-5.34161e-02,-1.87823e-02,1.31805e-01,1.49499e+00,5.65330e-01,-3.40219e-02,-4.36083e-01,-2.45198e+00,6.36016e-01,3.05128e-01,2.86882e-03,5.03475e-01,-4.31779e-01,-1.65814e-01,2.42378e-01,-1.99299e+00,-4.91187e-01,3.37513e-02,-5.29700e-02,-1.08074e+00,1.02843e-02,-5.04080e-01,3.94831e-01,4.90580e-02,-1.31836e+00,-3.16137e-01,-6.89628e-01,5.05964e-01,-3.24256e-01,-4.19720e-01,1.75529e+00,2.31060e-01,2.81216e-01,4.74585e-01,-5.65456e-01,-3.13570e-01,1.45363e-01,4.73903e-01,2.11918e-01,2.09082e-01,-1.52569e-01,1.75466e+00,
-1.55124e+00,6.75807e-01,-2.23793e-02,-7.07472e-01,-1.45074e+00,9.25923e-01,-2.73262e-01,3.54005e-01,-1.47002e+00,-4.47990e-01,2.21125e-01,8.57864e-01,-2.30778e+00,-7.35498e-01,-3.08749e+00,-8.73610e-01,-5.65802e-02,-8.09378e-01,-5.23512e-03,4.51565e-02,-3.03826e-01,6.46047e-01,-2.89741e-01,-4.11961e-01,6.72970e-01,-2.13926e-01,-1.21467e-01,-9.14737e-01,-1.38061e+00,-9.41519e-01,7.16849e-01,-5.76249e-03,-8.73154e-01,1.40254e-01,-6.13212e-01,1.23514e-02,5.66701e-01,-1.31073e-01,-8.08664e-01,-5.12564e-01,5.46181e-01,6.66227e-02,-1.58716e-02,-5.15185e-01,1.34411e-01,-7.30728e-01,-2.80623e-01,-2.20765e+00,4.55174e-01,-2.67401e-01,
-6.86099e-02,-3.42720e-02,-5.24910e-03,3.94632e-02,-3.93848e-01,-1.34685e-01,-1.74913e+00,1.21079e-01,1.89827e-01,1.49129e-01,3.77351e-01,-3.90160e-01,-1.78183e-01,1.19130e+00,3.71873e-01,1.81990e-01,-1.34392e+00,2.27822e-01,-2.14042e-02,6.71200e-01,2.39696e-02,-2.50529e-01,-5.11904e-01,-6.70499e-02,-2.11501e-01,-2.45895e-02,2.06955e-01,1.08035e-01,6.04141e-01,2.61300e-01,1.09275e-01,-2.22158e-02,3.59815e-01,2.07355e-01,5.36973e-01,-1.25752e-02,8.63795e-03,1.59114e-02,2.72180e-01,-1.22236e-01,1.63668e-01,2.98268e-01,1.53855e-02,-1.06801e-01,2.42035e-01,-9.54098e-03,6.46397e-01,1.59273e-01,-8.38592e-01,-2.07489e-01,
1.61816e-01,7.27960e-01,-6.98730e-04,-1.47550e-01,7.96718e-01,-1.88820e-01,-6.11418e-01,-3.27727e-01,1.80011e+00,4.79813e-01,4.13010e-01,-1.40735e+00,1.09925e+00,4.51585e-01,-3.08199e-01,-7.08018e-01,-5.57973e-01,3.72137e-01,-4.46482e-02,1.71809e-01,2.05455e-01,8.02521e-01,-2.81703e-01,-4.31393e-02,-1.91083e-01,5.71346e-01,-3.88902e-01,-1.12934e+00,3.59439e-01,1.75257e-02,1.65203e-01,-5.16669e-02,-7.34897e-01,5.46019e-01,-5.31321e-01,9.30005e-01,-1.66921e-01,-2.89545e-01,1.78254e+00,4.06001e-02,-2.94558e-02,2.21355e-01,3.75110e-01,-6.98657e-01,-5.39657e-01,6.23083e-01,-2.87473e-01,4.10752e-01,2.98846e-01,4.07748e-01,
4.45914e-01,-2.19104e-01,4.17001e-03,-2.63143e-02,6.44086e-01,-1.47538e-01,-3.44136e-01,7.29852e-01,5.77338e-01,1.21779e-01,1.26190e-01,3.82901e-01,8.44781e-01,-8.43798e-01,1.45412e-01,2.24787e-01,1.47206e+00,-2.74262e-02,-4.16278e-02,-1.76018e-01,3.81081e-01,-4.21556e-02,-3.30801e-01,-2.11701e-01,-3.30141e-01,-4.68660e-03,-2.54377e-01,3.80547e-01,3.81979e-01,-3.77303e-01,-3.76687e-01,-3.73518e-02,-1.37150e-01,3.25638e-01,-3.36857e-01,6.09157e-01,3.56494e-01,-8.98287e-01,1.74789e-01,4.03691e-03,1.73795e-01,-2.50060e-01,-4.19265e-01,4.30347e-01,-7.34408e-02,-1.88536e-01,-2.89862e-01,5.44294e-02,-3.78739e-01,-3.24240e-01,
-5.86666e-02,1.99709e-01,-3.90429e-02,4.92279e-01,-7.06470e-01,7.66112e-01,1.56882e-01,1.58031e-01,1.88481e-01,-2.85676e-01,3.52635e-01,7.34397e-01,2.16956e-01,1.27776e-01,1.19111e+00,4.78921e-01,1.42971e+00,1.08131e-01,-5.79622e-03,-7.99062e-01,3.59002e-02,-1.98123e-01,-2.26127e-01,6.85798e-01,2.03580e-01,-5.76696e-01,-4.27818e-01,-4.50759e-02,7.09115e-01,-3.49966e-01,-9.32197e-02,-8.22529e-03,1.80788e-01,8.48093e-01,3.20060e-01,-2.96876e-01,-3.87033e-01,9.03674e-01,-6.61821e-01,5.62103e-01,-3.07946e-01,3.08321e-01,1.06799e-01,5.40927e-02,-9.35646e-01,7.20691e-02,1.15994e-01,9.75113e-02,5.54165e-01,9.75302e-02,
5.69869e-01,4.03333e-01,9.69813e-03,-2.54278e-01,6.47449e-01,-1.15009e+00,2.18195e-01,-1.28848e+00,1.27240e+00,4.10658e-01,1.07788e-01,4.74737e-01,7.64306e-01,4.36971e-01,-2.49865e+00,1.04305e-01,-2.63496e-01,5.93565e-02,-4.15394e-02,3.79877e-02,2.38246e-01,2.99322e-01,1.60744e-01,4.42603e-01,-1.45218e-01,2.99088e-01,4.64581e-01,1.68534e-01,1.08293e+00,5.45147e-01,-1.56416e-01,-5.47442e-02,3.30320e-01,3.30328e-01,-2.53529e-01,6.13251e-01,6.23618e-02,-8.14296e-01,9.11533e-01,1.82103e-01,-4.27102e-02,-5.25990e-01,-5.80984e-01,-2.45696e-01,7.16314e-01,7.29848e-01,-1.32556e-01,6.51491e-01,-1.29909e-01,1.27271e-01,
2.69365e-03,1.52756e-03,4.02141e-02,-2.04753e-01,1.10267e-01,-3.41894e-01,2.33054e-01,-2.57017e-02,-1.85452e-01,-3.83754e-01,4.24037e-01,-4.59209e-01,-1.36596e-01,2.74895e-01,-3.72604e-01,4.34464e-01,9.69891e-01,-1.64403e-01,-8.39946e-03,-2.66588e-01,3.01640e-03,-2.44768e-01,4.49416e-01,4.01083e-01,3.53570e-01,-1.52826e-01,9.04098e-01,6.00380e-01,-4.79720e-01,1.53306e-02,-1.00778e-01,4.65801e-02,7.14235e-01,5.67635e-01,2.32051e-01,-3.35853e-01,-2.35017e-01,-4.82426e-01,1.48681e-01,2.15349e-01,-1.83057e-01,-1.14708e+00,2.30430e-01,-1.24768e-01,-8.10744e-02,-5.77515e-02,-5.56312e-02,6.05525e-02,5.77437e-01,2.20869e-02,
4.12060e-01,7.30080e-02,5.11096e-02,4.58831e-01,-4.82276e-01,8.85956e-01,-4.61105e-01,-8.71654e-01,4.10372e-01,-3.30794e-01,3.62171e-01,1.90200e-01,9.93138e-01,2.74777e-01,-1.14364e+00,-1.52834e-01,-1.76589e+00,2.74470e-01,-4.00462e-02,-3.28933e-02,-4.04264e-01,3.75477e-02,-1.55251e-01,2.50344e-01,-1.47167e-02,8.39921e-02,-4.75972e-01,5.20105e-01,-4.67778e-01,7.47297e-01,3.61740e-01,-1.83390e-02,1.85042e-01,4.38441e-01,6.17320e-01,-7.01591e-02,-6.42429e-01,1.00197e+00,-9.87403e-01,-1.86740e+00,-1.25222e-01,5.91647e-01,3.44718e-02,2.08064e-01,-5.36071e-01,2.67047e-01,-7.31024e-01,-1.56825e-01,2.11372e-01,-6.94377e-01,
7.49612e-03,-9.20197e-01,-1.56898e-02,-3.85153e-01,3.37642e-01,-9.70624e-01,-2.50624e+00,2.26789e-01,-3.86347e-01,1.12761e+00,3.40225e-01,-4.23672e-01,9.95131e-01,7.96662e-01,-5.49896e+00,-1.85387e+00,-1.43922e+00,-1.86345e-01,-4.03752e-02,-3.27948e-01,7.79485e-01,1.43877e-01,-2.37038e-01,6.06597e-01,-1.15287e+00,-6.84446e-02,2.18341e-01,3.22694e-01,-3.02040e-01,-2.67640e-01,2.22307e-01,-6.92348e-02,-6.24550e-01,-1.31997e+00,-6.41785e-01,-2.13946e-01,-9.85810e-01,-4.75718e-01,4.63327e-01,1.07304e+00,6.10687e-01,1.57305e-01,-2.46950e-01,5.82816e-01,-3.57872e-01,-1.12998e-01,1.40539e-01,1.27375e-01,-6.36878e-01,-5.09321e-01,
5.62029e-01,1.20256e-01,2.34250e-04,-2.91261e-01,-2.04528e-01,-9.81010e-01,1.07202e+00,1.53270e+00,6.13493e-01,-1.27572e+00,4.30065e-01,1.54673e+00,6.71698e-02,5.71311e-02,1.66894e-01,7.20855e-01,2.71949e-02,8.00604e-01,-1.89874e-02,1.33268e+00,-2.60832e-01,-2.18047e-01,-4.22873e-01,4.73175e-01,2.69598e-01,5.65517e-02,4.75660e-01,1.63832e+00,8.83770e-02,-6.56896e-02,4.70618e-01,1.15005e-02,-3.41904e+00,-7.52136e-01,4.15738e-01,-2.56063e-01,1.53061e-01,1.79209e+00,1.28916e+00,3.63189e-01,-1.02398e-01,2.60677e-01,-6.38956e-01,-7.43671e-02,-3.67379e-01,8.49503e-01,9.08908e-01,-6.11901e-01,-3.93148e-01,4.62173e-01,
-5.08576e-01,5.87444e-02,-1.77853e-02,-8.94998e-01,9.05372e-01,-4.27001e-01,-3.88588e+00,2.88388e-01,3.26381e-02,3.81060e-01,-8.44250e-01,4.40060e-01,1.56440e-01,2.28665e+00,8.81114e-02,7.21573e-01,3.26504e+00,6.01652e-01,-2.86086e-02,2.35081e+00,-7.72316e-01,6.04637e-01,-3.58742e-01,1.20398e+00,-1.05377e-01,-6.26686e-01,-4.15710e-01,8.35730e-01,-1.15952e-01,4.00306e-02,2.77478e-01,2.30120e-02,-9.59481e-02,-1.47388e+00,-1.02161e+00,1.86261e-01,-4.72629e-01,-4.14889e-01,-2.07247e+00,-2.43938e-01,-1.33195e+00,5.73090e-01,8.90441e-01,-8.91986e-01,5.89721e-01,7.93244e-01,4.56891e-01,-9.78516e-01,5.64160e-02,1.56878e+00,
-2.10535e-02,-7.89038e-02,1.90646e-02,1.51158e-01,-6.40437e-02,-8.99116e-01,-4.63807e-02,-7.25468e-01,1.82609e-01,2.66515e-01,-7.75152e-02,1.09519e-01,-2.95686e-01,-2.65596e-01,-2.65174e-01,-3.23356e-01,-1.00844e+00,2.03319e-01,3.50436e-02,1.20698e-01,3.21708e-02,6.64298e-02,-5.19479e-02,-2.62137e-01,-9.28199e-02,-3.62429e-02,-6.58807e-02,-2.28710e-01,-9.01965e-02,2.00405e-01,-1.13647e-03,1.91445e-03,-1.63141e-02,2.41751e-01,7.10595e-02,4.47867e-01,-1.03038e-01,-6.74947e-01,7.48044e-01,-8.86509e-02,-1.06865e-01,-3.26927e-01,-1.87703e-01,1.38922e-01,-7.53061e-02,1.06536e-01,-1.66613e-02,-1.47446e-02,-2.53459e-01,4.39322e-01,
3.49881e-01,-2.39022e-01,-3.98291e-03,-5.80487e-01,-1.37988e-01,-4.42998e+00,-1.52101e-01,3.57191e-01,-7.73078e-01,-9.26492e-01,1.33193e-01,2.04459e+00,-7.60620e-01,-3.04302e-01,-2.91497e+00,-4.42002e-01,-1.38704e+00,5.44304e-01,1.82396e-02,5.23114e-01,7.18890e-01,-8.78719e-02,-5.81008e-01,1.09841e+00,-8.97640e-01,-8.18498e-02,-6.38648e-01,4.33290e-01,3.47780e-01,5.90614e-01,4.48462e-01,-8.54848e-04,-2.68020e-01,-6.82018e-01,-4.80528e+00,1.08853e-01,-4.43557e-01,6.10138e-01,1.07589e+00,9.52875e-01,-9.37193e-01,-7.89483e-01,1.52921e-01,-8.64263e-01,2.63798e-01,-1.39216e-01,-3.01689e-01,2.83960e-01,1.89203e+00,-4.40413e-01,
8.57628e-01,-1.38245e+00,4.21851e-02,5.21544e-01,-3.91795e-01,6.10207e-02,1.77816e+00,-6.25052e-01,-5.78927e-01,1.30870e+00,-1.60983e+00,-2.20269e+00,-2.11849e+00,-9.70203e-01,-1.31202e+00,6.34533e-02,-2.37861e+00,-3.18095e+00,-2.31715e-02,-4.43277e+00,-3.14755e-01,-2.55427e+00,-1.33769e-02,-1.00651e+00,-1.90225e+00,1.82974e-01,7.65661e-01,2.05280e+00,-7.98459e-01,8.27885e-01,-7.99605e-01,-1.17088e-02,3.04570e+00,4.64709e-02,-5.89976e+00,4.91467e-01,-1.28228e+00,-1.46861e-01,6.06159e-02,-6.74988e-01,1.18222e+00,-1.76833e+00,-3.58493e-01,8.69858e-02,1.02275e+00,-2.50507e+00,2.41338e+00,2.19337e-01,4.42110e-02,9.37411e-01,
1.65327e-01,-4.20380e-01,-2.61902e-02,2.83994e-01,-2.90986e-02,2.45971e-01,3.90292e-02,-6.96069e-01,-5.87373e-01,3.26115e-01,2.56735e-01,-2.16166e-02,-2.24324e-02,-3.12915e-01,-3.53569e-01,-2.35670e-01,-9.70740e-01,-2.65791e-01,4.60543e-02,-2.83109e-01,1.12260e-01,-1.13330e-01,5.68965e-02,-3.07756e-01,-1.72407e-01,8.30135e-02,2.66851e-01,4.48928e-02,4.24067e-03,-4.85397e-02,2.11475e-01,1.21984e-02,-2.92844e-01,-2.49044e-01,-5.57784e-01,6.45670e-02,-6.39652e-01,1.38000e-01,9.74667e-01,-2.73919e-02,2.15908e-01,4.14622e-01,1.13900e-01,7.62406e-02,-3.40706e-02,-6.46562e-01,4.71457e-01,-5.21350e-02,3.15094e-01,-2.39627e-01,
-9.56869e-01,1.18206e+00,1.18782e-02,-1.32410e-02,-4.35872e-01,7.91755e-01,-4.66540e-01,-6.35274e-01,-4.27316e+00,-6.44717e+00,-5.05017e-01,3.11279e-01,-1.10652e+00,1.68965e+00,-9.77333e-01,8.50169e-01,-2.43147e+00,3.52188e-01,6.65080e-03,-8.61124e-01,-9.00882e-01,2.92556e-01,-2.09127e-01,-3.66878e-02,2.92238e-01,1.87079e-01,2.74150e+00,1.39836e-01,-3.79392e-01,2.24033e-01,-8.96613e-01,6.57462e-03,9.26277e-01,2.58139e-01,-4.53808e-01,-3.11616e+00,-4.74509e-01,4.90981e-01,1.42034e+00,-1.61026e+00,-8.14311e-02,2.62295e-01,-8.06108e-03,6.38348e-01,-5.18932e-01,-1.04869e-01,-7.08671e-01,-1.21578e-01,8.96435e-01,1.85074e+00,
-2.03420e-03,-1.43757e-01,9.67630e-03,-7.66144e-01,-9.38084e-03,5.78550e-01,3.14399e-01,-9.22117e-01,-1.73124e+00,-1.76059e-01,1.67368e-01,6.26802e-01,4.07471e-01,6.55281e-01,-4.56693e+00,-4.71314e-01,-1.42823e+00,9.96921e-01,1.53237e-02,-1.08086e+00,-7.11239e-01,-5.22220e-01,1.40027e-01,1.27846e-01,3.40725e-01,-2.93892e-02,-2.85025e-01,-2.32680e-01,-1.17308e+00,7.97245e-02,4.34117e-01,2.32513e-02,1.35189e+00,2.32152e-01,3.26686e-01,-5.53923e-01,-9.87614e-01,-8.57757e-01,4.80706e-01,2.72085e-01,9.82258e-01,-1.19509e+00,-1.73547e-01,1.53732e-01,-7.41153e-01,-4.90579e-01,7.53307e-01,-3.74659e-02,-3.09647e-01,-2.78078e-01,
-2.07045e+00,-2.23395e+00,-3.47303e-02,1.41803e-02,-2.17631e+00,7.42774e-01,-8.95596e-01,-2.73845e+00,-1.97661e+00,-1.77107e+00,-2.12615e-01,-1.18215e+00,1.27498e+00,1.10598e+00,-1.95215e+00,-4.82481e+00,-7.35521e+00,-5.81743e+00,3.40597e-02,1.03648e-01,4.60012e-02,5.71961e-01,-1.21669e+00,-2.86386e+00,-1.87911e-01,1.20065e+00,6.69966e-01,-1.32614e-01,-9.12702e-01,6.79235e-01,-6.61976e-01,-1.94079e-02,-1.48547e+00,9.93449e-01,1.78066e-02,1.50307e+00,-3.12943e-01,7.20843e-01,-1.99001e-02,-2.91852e+00,-8.52457e-01,-9.57314e-01,7.55502e-01,2.66846e-02,1.64047e-01,-3.32350e+00,-1.36738e+00,9.20562e-01,-7.12763e-01,-1.06810e-01,
-1.83649e-01,6.39906e-05,-2.28830e-02,1.64580e-01,1.26109e-02,2.88959e-01,-3.70158e-01,2.99527e-01,-1.88765e+00,2.29708e-01,-4.15458e-01,7.92655e-02,-2.47716e-01,5.40674e-01,-9.80411e-01,-4.62994e-01,-3.83553e-02,-2.69160e-01,1.20003e-02,1.89783e-01,7.56934e-02,-3.68650e-02,1.40120e-01,2.15325e-01,-7.74558e-02,-1.38480e-01,7.35586e-01,-3.71586e-01,2.48124e-01,-6.29276e-03,-1.88063e-01,-8.08124e-03,-1.27338e-01,6.38344e-01,6.54703e-01,-6.36677e-01,1.21456e-01,-5.20712e-01,1.06468e-01,-1.29280e-01,2.02653e-01,8.48846e-01,2.57334e-01,-1.48616e-01,1.40067e-01,1.25263e-01,1.42203e-01,6.38366e-02,-1.25782e-01,1.37105e-01,
7.14931e-01,
2.43462e-02,
-1.10546e+00,
7.55139e-02,
1.08874e-01,
3.47268e-01,
2.46087e-01,
8.67190e-03,
9.45804e-01,
-1.17065e+00,
-5.64641e-01,
-7.79118e-01,
-4.10744e-01,
7.10671e-01,
8.94309e-01,
-4.08289e-01,
-2.18846e+00,
1.02401e+00,
1.00393e+00,
4.03766e-01,
1.50859e+00,
-1.29666e+00,
5.47647e-01,
-2.28696e+00,
-1.22070e-02,
-3.03917e-01,
1.25356e+00,
-5.62554e-01,
-1.21570e-01,
6.90341e-01,
-1.09913e-01,
4.22112e-01,
-4.57382e-01,
-2.74576e-01,
3.05531e-01,
-1.10612e+00,
9.05713e-01,
2.75381e-01,
-2.37575e-01,
7.94572e-01,
-1.90459e+00,
1.63246e-01,
1.11227e-01,
1.03263e+00,
1.50727e+00,
