// Neural Network File Format by Kyle Julian, Stanford 2016
7,5,5,50,
5,50,50,50,50,50,50,5,
0,
0.0,-3.141593,-3.141593,100.0,0.0,
60760.0,3.141593,3.141593,1200.0,1200.0,
19791.091,0.0,0.0,650.0,600.0,7.5188840201005975,
60261.0,6.28318530718,6.28318530718,1100.0,1200.0,373.94992,
-2.23088e-01,1.31238e+00,-1.33790e+00,8.28063e-02,3.14403e-02,
1.95194e-02,4.74015e-01,5.06791e-01,-4.66643e-01,1.93356e-01,
3.30779e-02,-1.61896e-01,1.66124e-01,-1.89192e-01,-1.28371e+00,
-2.24704e+00,-1.58862e-02,-1.75730e-02,-1.87201e-03,6.69979e-03,
5.20819e-03,1.77680e-01,-2.07813e-01,-1.03892e+00,9.52791e-01,
-1.76766e-03,-2.21671e-01,2.24161e-01,-9.26476e-01,3.15525e-01,
-3.80532e-02,-7.78112e-02,-1.51946e+00,3.94449e-02,-1.43626e-03,
2.41963e-03,5.24460e-02,-4.81859e-02,-1.42910e+00,-1.59826e+00,
6.65798e-03,2.24799e-04,1.92621e-03,-9.45739e-03,-9.72813e-03,
-1.20577e-01,8.64681e-01,-1.06810e+00,1.05590e-01,3.67471e-01,
-9.23438e-03,2.41924e-01,-6.87729e-01,2.04920e-01,-3.41429e-01,
5.83856e-05,3.23354e-01,-3.61167e-01,-8.50471e-01,-9.09871e-04,
2.55147e-02,8.16749e-01,4.91010e-01,-7.45209e-01,3.13165e-01,
5.57845e-03,7.30556e-03,1.46508e-02,6.36591e-01,-5.06283e-01,
6.02865e-01,-1.15129e-01,7.68502e-03,-2.63984e-02,2.45489e-01,
-8.92237e-02,1.60439e-01,-2.64135e-01,-3.16262e-01,-1.68660e+00,
9.44171e-04,-5.33830e-02,-2.18388e+00,1.78804e-02,-8.55725e-03,
-1.34899e+00,1.37004e-02,6.07954e-02,-2.87676e-01,1.36066e-01,
8.72316e-02,2.24277e+00,-5.53234e-02,7.63888e-02,-8.87950e-02,
-1.21236e+00,1.84202e-01,-1.11873e-01,-1.89467e-01,-3.10770e-01,
1.43067e-02,-8.21443e-02,8.69302e-02,8.49197e-02,-1.48859e+00,
-4.22156e-02,-2.39748e-01,3.39204e-01,4.21692e-01,-1.31432e+00,
4.79473e-02,-2.55701e+00,3.84445e-02,1.27178e-02,-6.93992e-03,
-2.94920e-03,8.27701e-03,-3.23004e-03,1.32773e-02,1.47425e-03,
-1.57301e-02,-2.67204e-01,1.70195e-01,-1.37680e+00,-2.68670e-01,
-5.56228e-02,1.76671e-01,-2.69346e-01,-1.25792e+00,-1.70439e+00,
-3.43276e-01,-8.39718e-01,8.75766e-01,1.38625e-01,-4.13012e-01,
-1.43277e-03,1.68592e-02,-6.85928e-04,1.03780e-02,-2.67887e-03,
-1.34465e+00,-6.36744e-03,-3.17836e-02,-1.58444e-01,-3.54481e-01,
-3.14234e-01,-1.64075e-01,-3.49233e-02,-7.02048e-01,1.90682e-01,
-2.24453e-02,-2.85947e-01,3.31393e-01,-1.81378e+00,-2.77910e-01,
-1.31900e+00,-2.80779e-01,4.00210e-01,1.55872e-03,-2.41839e-01,
8.25447e-02,-1.39233e+00,1.38514e+00,-1.34144e-02,-1.16034e-02,
-4.03471e-02,1.27078e+00,1.17803e+00,5.09267e-01,-2.58439e-01,
-9.01766e-02,-7.39631e-01,-8.06438e-03,-6.21699e-01,-3.30574e-01,
5.68498e-03,-8.30925e-03,-1.35485e-02,-7.84016e-01,-1.19133e+00,
-2.16094e+00,1.11483e-01,-1.11406e-01,6.82233e-03,8.42026e-03,
4.38251e-01,9.30344e-01,5.17794e-01,9.65043e-02,-1.17367e-01,
-1.53745e-02,5.76013e-04,2.17142e-03,1.15641e-02,-1.88322e-02,
9.11294e-03,6.13580e-02,-7.35420e-02,-4.98909e-01,-1.49083e+00,
-1.13619e+00,8.96909e-02,-7.03490e-03,4.20608e-02,1.32629e-02,
8.52650e-02,1.52453e+00,-9.80312e-01,1.06678e-01,-2.69072e-01,
-9.95590e-03,2.65611e-01,-1.70777e-01,-5.17710e-01,-1.54475e+00,
-1.17888e-02,-5.83115e-01,-5.23237e-01,-2.43926e-01,1.30981e-01,
-3.63860e-02,-2.29680e-01,2.52534e-01,8.86779e-01,-1.09650e+00,
-2.87663e-02,-1.61944e+00,1.99436e+00,-2.55434e-01,3.51525e-01,
-1.68936e+00,9.43753e-02,8.06309e-01,-1.36160e-02,8.53533e-02,
4.91847e-02,-1.01275e-01,1.15326e-01,-1.18641e+00,-3.55472e-01,
7.27197e-01,-9.78042e-01,4.12411e-01,-9.79869e-02,-2.03914e-01,
1.26717e-01,-7.52279e-01,-6.70920e-01,1.53762e-01,-6.84677e-02,
-4.97040e-01,
5.10209e-02,
-3.38024e-01,
-6.03275e-01,
9.33015e-02,
-4.80102e-01,
1.47400e-01,
-1.49482e-01,
-1.73349e-02,
-8.10528e-02,
1.33444e-01,
-1.91930e-01,
-1.90037e-01,
5.08148e-01,
2.59246e-01,
-4.31840e-01,
6.29194e-02,
-3.66229e-01,
7.66321e-02,
-3.37852e-01,
3.56543e-01,
-2.61251e-01,
-2.05228e-02,
-1.88352e-02,
-4.16597e-01,
-6.40702e-01,
1.47881e-01,
-2.32312e-02,
-4.86526e-01,
-2.73053e-01,
4.07871e-01,
-3.25931e-01,
-4.44535e-01,
-2.21766e-01,
-1.07116e-01,
-8.53633e-01,
-3.17863e-01,
2.05267e-01,
-2.38780e-02,
6.16819e-01,
1.47966e-02,
-1.52100e-01,
-4.65798e-02,
-2.38390e-02,
3.82644e-01,
-2.65257e-01,
-4.48097e-01,
-5.69333e-01,
9.49498e-02,
8.35462e-02,
7.57429e-02,3.42629e-02,3.83724e-03,2.57409e-02,1.61196e-02,2.94717e-02,-1.58293e-01,4.99364e-02,1.66240e-02,8.67789e-02,5.38781e-02,-1.73238e-02,5.69815e-02,-6.73295e-02,-1.17018e-01,2.82060e-02,-1.28559e-01,1.00930e-03,-6.37046e-02,-1.06217e-02,6.62010e-02,6.53819e-02,-5.44368e-02,3.05963e-02,1.64093e-02,-1.01189e-02,6.18475e-02,2.23782e-02,1.00371e-01,4.56488e-02,-1.81073e-02,5.03456e-02,6.98923e-02,4.94390e-02,6.20451e-03,2.76687e-03,5.54377e-02,-1.83946e-01,-1.95542e-03,-1.16166e-01,-7.84876e-03,-9.14424e-02,1.51156e-02,3.17899e-02,3.18473e-02,-1.17152e-02,5.36645e-02,-1.63301e-02,-1.61304e-01,3.63953e-03,
4.60455e-01,4.96287e-01,1.21004e+00,9.45960e-02,-4.27323e-01,-5.89682e+00,-2.06302e-01,1.85251e-01,-2.20996e-02,-4.69087e-01,4.24982e-01,-3.29887e-01,-4.28614e-01,3.49284e-01,9.27781e-02,4.12384e-01,-6.11061e-01,4.85775e-01,3.79597e-01,6.55410e-01,1.96880e-01,-5.78411e-01,-1.89733e+00,-2.06570e-02,-5.56913e-01,1.51073e-01,-7.94033e-01,3.62530e-02,3.65945e-01,6.19590e-01,-8.99149e-02,-9.46561e-01,1.49521e+00,1.22430e+00,5.39589e-01,-3.02561e-01,-2.15064e-01,5.24145e-01,-1.26570e-02,-3.85548e-02,-1.86266e-02,1.13539e-01,1.23673e-01,1.29797e+00,-3.64429e-01,-5.70621e-01,-7.37169e-02,5.40014e-01,-9.64059e-01,4.42247e-01,
1.41357e-01,5.08270e-01,-5.50778e-01,-2.52482e-01,-2.44884e-01,4.44326e-01,-3.41381e-01,-3.94786e-01,-4.88972e-02,-2.53389e-01,1.39504e+00,-2.40534e+00,3.55218e-01,-1.68767e-01,-1.39880e+00,-1.33353e+00,-9.74464e-01,8.04687e-01,-4.19143e-01,-7.40051e-01,-2.37793e-01,-7.21440e-01,3.09996e-01,3.96828e-02,-3.97144e-01,-2.97815e-02,1.72816e-01,1.40746e-02,9.32462e-01,6.07367e-01,1.81362e-01,6.64826e-01,4.87593e-01,2.23722e-01,2.31325e-01,-1.39766e+00,2.03729e-01,-1.51140e-01,-5.28945e-02,9.04991e-02,-2.44845e-01,1.30470e+00,7.50175e-01,3.87326e-02,-1.01354e-01,-2.89581e-01,1.06861e+00,5.68644e-02,4.30581e-01,6.11309e-01,
-9.47186e-04,-1.04317e-02,8.47874e-03,-3.00201e-03,1.54095e-02,-2.71645e-02,8.46879e-04,-1.69333e-02,-5.47499e-02,9.87271e-03,-2.06917e-02,-3.87743e-02,-5.35509e-02,1.54139e-02,-6.40837e-02,1.97652e-02,-3.64097e-02,-2.06101e-02,-3.40901e-02,2.08810e-02,1.28339e-02,-3.60571e-02,2.27753e-02,-9.30596e-03,3.88211e-02,6.05179e-03,1.70287e-02,1.08875e-02,5.60505e-03,-4.82549e-02,-4.39776e-02,-3.86355e-02,-2.00115e-02,1.10601e-03,1.56605e-02,3.90797e-02,2.54622e-02,-5.09119e-02,5.27607e-03,-4.68194e-02,6.12987e-03,2.59697e-03,-1.54860e-02,1.23073e-02,-3.88880e-02,1.14215e-02,-3.59059e-03,3.72876e-02,-3.28631e-03,-5.95504e-02,
1.53145e-01,2.18591e-01,1.75081e-01,4.73396e-01,-1.83126e-01,1.37574e+00,3.80093e-01,5.18810e-01,4.16417e-02,-3.29864e-01,-7.28384e-02,-2.47414e-01,-7.23491e-01,-5.90329e-01,-1.31508e-01,6.38177e-01,-1.09910e+00,-8.27165e-01,1.07583e+00,3.11840e-01,-8.59438e-02,4.37806e-01,-4.40770e-01,-9.94801e-03,-1.10556e+00,-2.25805e-01,-3.50752e-01,5.02629e-02,-2.83262e-01,3.69579e-01,-1.11080e-01,-8.94750e-03,-3.71984e-01,-8.04498e-02,-3.23970e-01,1.47462e+00,3.28133e-01,2.30681e-02,-9.44081e-03,2.89220e-02,3.55810e-01,-4.02086e-01,-3.34381e-01,1.11617e+00,5.89903e-01,-5.26703e-01,1.25369e-01,2.65873e-01,1.18615e-01,2.64695e-01,
4.69740e-01,2.21328e-01,-2.04309e-01,8.35583e-01,8.01803e-01,-9.06826e-02,7.16151e-01,3.71571e-02,5.15370e-02,6.41719e-01,-1.27776e-01,-1.67872e-01,-6.17745e-02,-3.24207e-01,-9.40933e-01,6.84062e-01,2.82836e-01,3.00300e-01,5.58991e-01,4.07280e-02,-5.38360e-01,4.87688e-01,-2.74354e-01,-2.65732e-02,2.74143e-01,-7.76945e-01,-1.86659e-01,5.62691e-02,4.44271e-01,-6.01825e-01,-8.81973e-01,4.03688e-01,5.34383e-01,-2.08805e-01,-1.25805e-01,-8.50887e-01,9.92558e-01,-3.74314e-01,4.67882e-02,1.05998e+00,9.27785e-01,3.53127e-01,4.35435e-02,-1.48019e-01,-8.41441e-02,1.05555e-01,-1.55373e+00,1.27272e-01,5.62470e-01,1.21789e-02,
1.24276e+00,2.11173e-02,-6.57647e-01,1.05239e+00,-3.91903e-01,-7.58332e-01,-5.46104e-01,4.67029e-01,2.28501e-02,-1.42338e-01,-5.85109e-01,-4.73520e-01,2.23307e-01,-2.48131e-01,-1.26539e-01,-6.04249e-01,-4.40206e-01,3.96878e-01,-4.43749e-01,-1.48637e-01,3.19427e-01,1.99633e-01,-7.04616e-02,-3.14088e-02,-1.23754e-01,7.60667e-01,3.02624e-01,-3.11411e-02,-3.39452e-01,-1.71468e-01,3.49551e-01,6.75338e-01,-2.24048e-01,-2.11702e-01,-8.24828e-01,-8.72382e-02,9.95514e-02,-1.22611e-02,-1.17972e-02,-4.59565e-01,-2.01944e-01,7.02212e-01,-4.37947e-01,3.63515e-04,5.17021e-02,-1.29421e-01,4.93821e-01,-3.72089e-01,-4.31109e-02,4.64353e-02,
-9.81761e-01,3.22857e-01,6.57560e-02,4.51752e-02,2.86700e-01,3.62039e-02,4.39116e-01,3.76483e-01,2.75467e-02,-9.39204e-01,1.83407e-01,3.81675e-01,-1.80482e-01,-2.19921e-02,-4.05092e-03,-1.30509e+00,4.88007e-02,4.09517e-01,6.02318e-01,-1.82444e-01,-9.74025e-01,-2.13368e-01,-4.09360e-01,-6.46992e-04,-1.24096e-01,5.25850e-01,-1.25622e+00,-3.34848e-04,1.97560e-01,1.80427e-01,4.02520e-01,9.43115e-02,-1.46728e+00,4.64446e-01,2.81518e-01,-6.43972e+00,-1.27883e-01,2.01666e-01,-1.96684e-02,2.46590e-01,-3.72222e-02,-1.68443e+00,-6.33083e-01,8.41716e-01,2.29234e-01,-9.45896e-01,1.16206e-01,1.50789e+00,-2.52413e-01,3.39913e-01,
-2.07172e+00,4.21746e-01,7.56112e-01,-7.86761e-01,5.61788e-02,1.67584e-01,-1.19170e+00,-2.43163e-01,1.93356e-02,8.50477e-02,-1.65258e+00,-1.25469e+00,6.18012e-03,2.13008e-01,-2.83200e-01,-2.16650e-01,-6.15023e+00,5.09655e-01,6.36598e-01,-3.62455e-01,-3.82093e-01,7.09359e-01,-2.68380e-02,4.79838e-03,5.10571e-01,-4.70698e-01,-9.92192e-01,1.62656e-02,1.58819e+00,2.32059e-01,1.97146e-01,-6.84893e-01,-7.17414e-01,1.16488e+00,3.20612e-01,-9.58172e-01,1.23159e-01,2.29923e-03,-2.89454e-02,3.00386e-01,-1.83960e-01,-1.14267e+00,-8.86375e-02,-1.34344e+00,1.22982e-01,2.94184e-01,-3.37718e-01,1.32421e+00,-1.03328e+00,1.82547e+00,
-3.00660e-01,5.85061e-01,-3.10463e-01,-1.63348e-01,-5.76739e-02,-4.14363e+00,2.39027e-01,-7.45027e-01,3.81074e-02,1.34682e-01,3.10853e-01,8.10079e-01,-3.29677e-01,-5.99063e-01,-1.20737e-01,2.09335e-01,-6.28006e-02,3.25239e-01,-9.04889e-03,-2.17365e-01,1.32459e+00,-6.28521e-01,-4.50048e-01,-4.43414e-02,-1.78986e-01,-3.95176e-01,1.68983e+00,-3.90916e-02,-1.08042e+00,1.57541e-01,4.49626e-01,-9.32866e-02,4.26163e-02,4.52443e-01,1.61208e-01,-1.19921e+00,-1.30436e-01,1.81919e-02,-3.63395e-02,-9.34503e-01,7.26575e-02,5.09838e-01,1.08264e+00,-2.35708e-01,-6.63298e-01,-1.43395e+00,-1.05384e-02,7.68223e-01,-1.56326e-01,2.49456e-01,
3.56759e-01,1.45498e-01,1.02470e-01,1.59033e+00,2.36325e-01,1.97182e+00,7.68204e-01,-1.87383e-03,-2.56039e-02,-1.19090e+00,-4.72789e-01,-4.60608e-01,-4.18415e-01,-2.19024e-01,-3.89662e-02,1.99254e-01,-2.99474e-01,7.52902e-01,2.46053e-01,8.86590e-01,-2.67936e-01,-1.22598e-01,3.74314e-01,7.89917e-03,3.40741e-01,8.19932e-02,2.26285e-02,-3.64527e-02,-2.84991e-03,2.86755e-01,-2.49299e-02,6.41727e-01,1.69766e-01,1.43892e+00,9.66299e-01,9.01146e-01,1.35471e+00,-3.84792e-01,-1.35404e-03,9.46766e-02,4.96967e-01,1.16082e-01,-3.73009e-01,2.24735e-01,-1.33562e-01,-2.11386e-01,1.37767e+00,2.35767e+00,-3.15921e-01,3.34655e-01,
-1.69325e-01,5.77502e-01,-7.44395e-01,-5.73837e-01,-7.51666e-02,-5.07093e-01,-1.15949e-02,1.56831e-01,3.25048e-02,3.90778e-02,9.86312e-02,-6.28934e-03,2.52752e-01,-9.46632e-04,2.49329e-01,3.44469e-02,-1.07122e-01,4.30565e-02,6.02105e-02,-4.85149e-01,4.84508e-01,2.77621e-01,4.14108e-02,7.64281e-03,-6.94424e-02,2.82638e-02,5.81588e-01,-4.51481e-02,8.88282e-01,5.82821e-01,1.76267e-01,-3.63499e-01,1.27700e+00,-4.15841e-02,-1.30906e+00,-2.28440e+00,3.46791e-01,3.55093e-01,4.85240e-02,1.66935e-01,-2.20525e-01,1.03282e+00,-1.23186e-01,1.59366e+00,-1.37590e+00,-1.37531e-01,4.70806e-01,2.60657e-01,-7.47862e-02,-1.42234e-01,
6.08662e-01,-1.84965e-01,6.31718e-01,4.24451e-01,4.12474e-03,8.69653e-01,6.93709e-02,6.35390e-01,5.92827e-02,-7.09795e-01,-7.82675e-02,-9.14355e-01,-5.24607e-01,2.18686e-01,-1.19072e-01,4.82160e-02,-3.98361e-01,6.94789e-02,-1.49532e-01,-2.54087e-01,5.56718e-02,-4.31855e-01,-3.39561e-01,-2.83157e-02,-7.74851e-01,5.34928e-01,3.37108e-01,-2.84291e-02,3.55091e-01,3.84073e-01,-9.98762e-03,-1.78952e-01,8.09381e-01,-2.61928e-02,-3.99859e-01,1.56049e+00,7.81887e-02,4.28281e-01,4.91987e-02,5.00518e-01,-9.53274e-02,4.49755e-02,-8.63028e-02,2.27467e-01,-7.87566e-01,-8.38004e-01,2.53225e-01,9.98156e-01,-2.03448e-01,2.46814e-01,
1.32484e+00,2.33956e-01,-3.95211e-02,-1.40085e+00,-6.72772e-01,-1.07470e+00,-2.85940e-01,1.31172e-01,-1.29857e-02,-1.24170e-01,1.04800e+00,5.99953e-01,-1.01012e+00,-5.23952e-01,6.92957e-01,8.66999e-01,-2.48901e-02,-4.62911e-01,-1.65261e+00,4.38466e-01,-2.07552e-01,1.04658e+00,-7.36427e-01,-6.09682e-03,1.81057e-01,6.01425e-01,4.63922e-01,-3.15088e-02,-1.42898e-01,2.00523e+00,-2.24199e-01,5.87679e-01,5.18738e-01,1.11644e-02,4.39133e-01,1.59574e+00,-1.78127e-01,6.67513e-01,-1.96147e-02,-2.77099e-01,1.94272e-01,-1.01327e-01,9.05972e-02,1.02515e-02,-3.22361e-02,-2.17129e-01,4.03302e-01,-2.21713e-01,2.51925e-01,-3.72228e-01,
2.43130e-01,-2.07803e-01,5.70427e-02,2.33406e-05,-1.11687e+00,-1.21377e+00,-1.77790e+00,-6.67557e-01,2.68872e-02,6.15246e-03,1.02663e-01,-2.84950e+00,2.13900e-01,-6.26391e-01,-1.24577e-01,1.77197e+00,-3.33625e+00,4.17387e-01,-1.61067e+00,-2.61917e-01,1.61177e+00,-3.53330e-01,6.25572e-01,-3.26361e-02,5.49012e-01,-5.48534e-01,4.93160e-01,2.91079e-02,1.20522e-01,-7.60161e-01,-3.32284e-01,-1.43385e-01,1.55170e+00,-5.56406e-01,1.53980e-01,1.94549e+00,4.14485e-01,-2.86363e-01,-4.17591e-02,-9.44466e-01,-1.22458e-01,-1.12893e+00,5.81701e-01,-5.18799e-01,3.01692e-01,1.42092e+00,2.05176e-01,-3.26935e-01,7.49051e-01,-4.75025e-01,
7.03122e-01,-8.14641e-02,-1.90942e-01,-7.52397e-01,1.06105e-01,-7.88752e-01,-9.55284e-02,-4.92032e-01,3.04455e-02,3.50745e-01,-2.00862e-01,-1.77343e+00,4.23833e-01,-1.27447e-01,4.74972e-01,6.83071e-02,-9.10652e-01,4.69448e-01,5.50842e-01,2.22203e-01,3.97426e-01,-1.01552e+00,4.04993e-01,-2.45825e-02,5.27483e-01,3.47441e-01,8.21313e-01,9.03206e-04,8.92442e-02,-2.19528e-01,2.31622e-02,-3.40616e-01,-5.82735e-01,1.96361e-01,-1.25241e-01,3.27996e-01,-2.36498e-01,-6.40787e-01,1.41918e-02,-1.16758e-01,-1.84731e-01,9.00774e-01,3.79217e-01,3.02177e-01,-5.29403e-02,2.75390e-01,2.02436e-01,4.32252e-01,3.80156e-01,4.10904e-01,
2.11952e-01,-4.43270e-01,6.35144e-02,1.49242e-01,-1.51516e-01,8.63653e-01,-9.76553e-03,3.10162e-02,-3.94364e-02,-4.32129e-02,-5.67702e-01,2.77226e-01,2.61438e-01,-5.22137e-01,1.38917e+00,-1.91333e-01,3.52486e-02,1.15438e-01,5.30368e-01,-2.37894e-01,6.82986e-01,5.92340e-02,1.42104e-01,-4.62971e-02,3.12544e-01,-9.47029e-02,2.74936e-01,-4.75749e-02,-6.23526e-01,-3.65128e-01,-9.62251e-01,-4.14217e-01,-3.18424e-01,3.78914e-01,7.05216e-01,-9.49930e-01,-2.19954e-01,1.06729e-01,-1.65131e-02,5.57698e-01,-1.65587e-01,-1.60714e-01,-6.15032e-02,-1.98989e-01,-7.42602e-01,-4.98874e-01,6.46129e-01,1.05027e+00,-4.63880e-01,3.72162e-01,
2.89084e-01,4.37118e-01,-3.46459e-01,2.34958e-01,-3.52654e-01,6.08367e-01,5.42242e-01,-2.70400e-01,5.35913e-03,-2.98790e-01,1.84557e-01,4.51071e-01,1.14804e+00,-2.46194e-01,-4.57945e-01,2.60109e-01,-8.95484e-01,5.18977e-01,-3.58028e-01,-1.79158e-01,2.06401e-01,3.56650e-01,1.88244e+00,-1.38588e-02,1.41339e+00,-1.13663e-01,-1.49952e-01,6.45324e-03,8.46665e-01,-4.65570e-01,2.15630e-01,4.06764e-01,8.32215e-01,5.83939e-01,9.46629e-01,-1.24677e+00,7.63846e-02,-6.76271e-01,6.25130e-03,-1.23034e-01,1.67563e-02,1.21836e+00,-2.93492e-01,4.11824e-02,-1.73972e-01,-5.03363e-01,-1.22330e-01,1.65018e+00,3.60320e-01,5.49203e-03,
1.45586e-01,3.18025e-01,-7.04482e-01,1.07365e-01,1.40513e-01,1.29657e+00,2.23219e-01,2.27656e+00,-1.07599e-02,-5.12503e-03,-3.95322e-01,2.29421e-01,1.29249e-01,1.28457e-01,9.20828e-02,-2.51601e+00,-9.75412e-02,2.80065e-01,-4.99450e-01,-4.29122e-02,-2.41013e+00,-6.69718e-01,1.56503e-01,-1.65095e-02,-1.16757e-01,4.65358e-01,-9.13086e-02,1.43669e-02,-3.87627e-01,1.97881e-01,2.11445e-02,-9.99364e-02,4.04510e-01,2.44485e-01,1.32026e-01,-2.49287e-02,-5.01763e-02,4.61698e-02,1.10342e-02,-2.57497e-01,-4.50097e-02,5.41689e-01,2.71252e-01,5.42495e-02,6.04731e-01,1.31558e-01,2.62728e-02,5.55127e-01,-1.85450e-02,4.26835e-03,
-6.12291e-01,-3.27697e-01,-4.07523e-01,4.45473e+00,5.26296e-02,-7.63869e-02,-5.80279e-01,-1.15949e-01,2.96803e-02,2.12901e-01,-1.32192e-01,5.05308e-02,-1.40476e-03,3.59807e-01,-6.51385e-01,2.79114e-02,6.27817e-01,4.66835e-01,-2.42776e-01,6.66707e-01,-6.47303e-02,5.90502e-02,8.05050e-02,4.16694e-02,2.72544e-02,-6.12646e-02,8.88447e-01,2.27648e-02,1.42336e+00,3.65000e-01,1.82641e-01,1.55666e-02,-5.59378e-01,-1.47214e-01,-6.16807e-02,-1.00969e+00,1.82191e+00,-1.93028e-01,-5.08387e-02,-1.81266e-01,1.23613e+00,8.68911e-02,4.90261e-02,-2.86103e-01,-2.87427e-01,4.77790e-01,7.74348e-01,-2.00595e-01,-7.67159e-02,-2.31432e-01,
2.83463e-01,6.98819e-01,-8.57630e-01,3.65995e-01,5.81674e-02,-5.06144e+00,1.99710e-01,3.82035e-01,1.82159e-02,-3.50249e-02,-9.76688e-02,5.78339e-01,5.11299e-01,-4.01780e-01,1.20608e-01,1.85939e-01,4.60907e-01,1.38424e+00,4.22591e-01,1.29692e-01,1.28825e-01,3.43760e+00,-1.69346e-02,-3.32759e-02,8.32768e-01,1.20341e+00,-6.15386e-01,-1.42520e-02,-5.31927e-01,5.10255e-01,-2.90263e-01,7.31129e-01,-1.18436e+00,1.37546e+00,7.96770e-01,-1.78328e+00,3.99408e-01,-3.98054e-01,1.89441e-02,-2.15284e-01,-5.37929e-01,-6.67915e-01,-7.65410e-02,-3.65932e-01,-7.52962e-01,2.08653e-01,-1.32627e+00,3.27593e-01,-5.04392e-01,-8.73646e-02,
7.63796e-01,-2.51126e-01,1.98680e-01,2.69889e-01,4.17163e-02,-2.14587e+00,2.41524e-01,-4.72620e-01,-7.54632e-03,4.80344e-01,1.96313e-01,3.20662e-01,-6.62571e-01,-5.00824e-01,5.44962e-01,1.32384e+00,2.58377e-01,-4.51684e-01,6.60734e-01,-1.80547e-01,2.44430e-01,-3.84310e-01,1.49245e+00,3.13283e-02,1.62912e-01,-7.38885e-01,3.56423e-01,2.50317e-02,-2.04251e-01,3.84506e-01,-3.24352e-01,3.69648e-01,-1.21821e-01,-2.62020e-01,-4.05447e-01,1.22672e+00,8.68469e-02,-1.04780e-01,6.85287e-03,3.13162e-01,-2.08683e-01,9.76174e-01,4.61182e-01,-2.36936e-01,6.13414e-01,2.77008e-01,-1.27380e-01,-1.63843e+00,-3.45980e-01,-4.03467e-01,
3.80308e-01,-3.32230e-01,1.22818e+00,7.58430e-01,2.31708e-01,2.73243e+00,2.87285e-01,1.71422e-01,-2.51347e-02,-6.94196e-02,8.38921e-01,-1.45218e-01,-6.23572e-01,-2.60414e-01,4.49149e-01,2.86442e-01,-2.93836e-02,-1.10177e+00,-2.65092e-01,-2.19682e-01,1.57111e-01,-2.03046e-01,-4.96744e-02,-5.43293e-03,-1.11084e+00,-2.77740e-01,7.11731e-01,-4.27537e-02,1.42689e+00,6.89601e-02,-2.10427e-01,1.31245e+00,2.44476e-01,-4.91403e-01,8.80217e-02,5.16743e-02,1.40578e+00,3.18284e-01,-2.12381e-02,1.23391e-01,1.33499e-01,-1.92489e-01,-1.30856e-01,-3.75974e-01,7.13320e-02,-6.37152e-01,4.41301e-01,-1.55797e-01,-3.15768e-01,-6.00808e-01,
-6.27161e-01,2.01423e-01,-6.01723e-01,-7.78615e-01,-5.20281e-01,-9.94516e-01,6.49580e-01,5.61730e-01,3.44295e-02,-6.19576e-01,-3.85394e-01,-2.53806e-01,3.08469e-01,3.69916e-01,-1.79857e+00,-1.52757e-02,3.19861e-01,2.61584e+00,6.12827e-01,-4.35950e-01,-1.00600e+00,1.64308e+00,1.18040e-01,1.96943e-03,-8.14989e-01,2.56211e-01,-4.87595e-01,-1.37241e-02,1.28995e-01,2.87941e-01,9.77569e-01,-9.56349e-01,-4.34457e-01,5.54946e-02,-1.46807e-01,1.24339e+00,1.24564e+00,-9.49891e-01,-8.04205e-03,-3.67597e-01,4.89395e-01,-6.47498e-01,-6.16071e-01,-7.70012e-01,-3.24995e-01,-7.24402e-05,-1.35119e-01,3.84434e-01,3.95959e-01,6.82526e-01,
8.59860e-03,7.31290e-01,6.16219e-01,1.29773e+00,-1.58053e-01,8.14399e-01,1.13701e+00,3.73221e-01,-3.11481e-02,-1.13815e-01,1.40674e-01,-7.58386e-01,2.60066e-01,2.19189e-01,-4.95675e-02,2.90768e-02,6.04685e-01,-4.45686e-01,-4.01411e-01,-3.02672e-01,3.27650e-01,9.46994e-01,7.57981e-01,1.01961e-02,-5.65731e-01,-1.47348e-02,-7.60353e-01,-2.33970e-03,-2.06322e-01,-4.19015e-01,-1.03364e-01,-6.72848e-01,-6.51369e-02,3.29407e-01,2.33756e-02,1.44672e-01,7.17629e-01,-3.39315e-01,-2.93916e-03,6.69355e-02,3.12796e-02,-1.55819e+00,-2.48749e-01,-2.59451e-03,-5.32479e-01,-5.38117e-01,-1.23897e+00,1.75267e-01,-3.63590e-02,1.58741e+00,
8.17480e-01,3.13852e-01,1.32464e+00,-2.90771e-01,-5.47334e-01,-2.46837e+00,-2.64724e-01,-1.15615e+00,-4.57331e-02,4.34445e-02,-5.97206e-01,7.60211e-01,7.42988e-01,-2.41533e-01,-2.33347e-01,1.48767e-01,-2.35431e+00,5.90165e-01,-2.93666e-01,-1.39848e+00,8.08018e-01,-1.08318e+00,1.73333e-01,-4.01910e-02,1.83444e+00,5.06793e-01,-1.75128e-01,5.02783e-03,1.78537e+00,-1.65690e+00,-3.53886e-02,-4.37795e-01,-1.17630e-01,1.27704e-01,4.80270e-01,-2.10799e-02,1.23751e-01,-6.48574e-02,-3.68330e-02,-6.60704e-02,1.94766e-03,7.87544e-01,-9.27943e+00,-1.91126e-01,2.84580e-01,-1.48938e-01,1.65624e-01,2.93193e-01,1.71123e-01,-2.19637e-01,
-1.77529e-02,-1.74793e-02,-3.50057e-02,1.02123e-02,-2.39631e-02,-4.21984e-02,2.61256e-02,5.48489e-03,3.12806e-02,3.55945e-02,-1.32086e-02,2.49670e-02,-5.29858e-02,-3.95729e-02,-4.01957e-02,-1.29551e-02,-5.16007e-02,-8.78801e-03,-3.09390e-02,-1.98368e-02,-4.38949e-03,1.68946e-02,1.87194e-03,-2.14980e-02,-3.10835e-02,1.50531e-02,-4.99377e-02,-4.79255e-02,2.29746e-02,2.17170e-02,-3.65330e-02,-3.44115e-02,1.34029e-02,1.54337e-02,-2.50926e-02,-2.91579e-02,5.00379e-03,3.41552e-02,2.15919e-02,-4.90852e-02,1.23944e-02,-4.29451e-02,1.94832e-02,3.94733e-02,6.65555e-03,2.30968e-02,4.06463e-02,-2.54285e-02,-2.46449e-02,1.09167e-02,
-6.70925e+00,6.11391e-01,2.99560e-01,3.19851e-02,-2.71895e-02,1.70197e+00,-1.68415e-01,-4.59538e-02,3.37201e-02,-1.34969e+00,-8.63066e-01,4.24080e-01,-6.54826e-01,-2.89737e-01,-2.42791e-02,1.64250e-01,-2.15293e+00,1.16917e-01,-1.87474e-01,1.07252e-01,4.25444e-02,-1.56878e+00,5.09564e-01,1.52825e-02,-2.51370e-01,-5.12507e-01,6.09173e-01,-4.33725e-02,1.32660e+00,-9.74654e-01,-5.22003e-01,-1.75981e-01,5.43556e-01,3.89534e-01,6.72002e-01,-3.48042e-01,1.06261e+00,-8.01438e-02,-1.38551e-02,-9.47880e-02,1.13627e+00,-5.50976e-01,3.33873e-01,3.62159e-01,-1.17690e-02,-2.73102e-02,3.02880e-01,1.07380e-01,-7.87110e-01,-4.82716e-01,
-1.24217e+00,-7.29065e-01,-1.30033e+00,-9.80890e-02,-6.53104e-01,-4.27966e-01,-6.01725e-01,-6.79117e-01,1.94043e-02,8.66889e-01,2.13735e+00,-2.57625e+00,-4.97408e-01,4.52280e-01,-3.21252e-01,1.77523e+00,2.42829e-01,3.88039e-03,-8.46804e-01,2.99707e-01,6.51157e-01,-4.55116e-02,-2.60837e-01,-1.41640e-02,1.14143e+00,-7.00260e-01,5.69231e-01,-4.48766e-02,4.09044e-01,-1.35288e-01,8.70043e-01,1.57908e-01,1.90832e+00,-3.37957e-01,-6.16129e-01,-8.03598e-01,-1.98308e-01,-3.50155e-01,-3.52815e-02,-1.06100e+00,-9.79822e-03,-2.24150e+00,6.56104e-01,-6.85700e-01,-4.30002e-01,6.08766e-01,8.87740e-02,2.32348e-01,5.22202e-01,2.80468e-01,
-3.72805e-01,7.21528e-02,1.48650e+00,5.53064e-01,-9.57695e-01,6.64786e-01,1.06375e+00,4.88625e-01,-1.31325e-02,-1.59232e+00,1.16938e+00,-9.29818e-01,-7.12532e-01,-8.78487e-02,5.51800e-01,-5.23466e-02,-1.31608e+00,-1.00268e+00,6.18052e-01,-9.82906e-01,1.33987e-01,-5.44760e-01,1.48188e+00,4.52528e-03,-1.03484e+00,5.07624e-01,-1.01067e+00,1.29786e-02,-2.77458e-01,-1.52509e+00,2.23373e-01,-6.18009e-01,1.57139e-01,4.46430e-01,-8.30876e-01,4.91409e+00,-4.15493e-01,5.59927e-01,-1.93831e-02,1.38612e-01,-1.10489e+00,6.75203e-01,-4.31497e-01,-3.93846e-01,5.69337e-01,-5.42057e-01,2.32964e-01,-8.75114e-02,-3.41218e-02,2.76234e-02,
-1.59357e-01,-2.24973e-01,1.25545e+00,9.12929e-01,-4.20795e-01,-1.21252e+00,1.15910e+00,-4.39822e-01,1.50798e-02,-3.21486e-01,1.38447e+00,5.42757e-02,4.89288e-01,-5.51821e-01,-8.35419e-01,7.85195e-01,-3.17302e-01,-1.23462e-01,-9.24523e-02,1.35434e+00,1.06990e+00,-2.04266e-01,6.24216e-01,-3.44929e-02,4.58223e-01,-5.25122e-01,-7.89349e-01,4.42081e-02,1.72564e+00,-8.92537e-01,3.84974e-02,3.67186e-01,5.89594e-01,7.20574e-02,6.07295e-01,7.50851e-01,1.52716e-01,-1.02808e+00,-1.52583e-02,-4.20592e-01,1.14126e+00,-4.72435e-01,7.97021e-02,-4.17338e-01,8.51236e-01,8.83845e-01,-8.22233e-01,1.39038e-02,2.76941e-01,-1.56120e-01,
5.49891e-01,-4.78105e-02,-6.84537e-03,3.93568e-01,-4.65599e-01,2.19567e+00,-2.73590e-02,3.51041e-01,3.10340e-02,-7.06922e-01,-1.92948e-01,1.30469e+00,2.10496e-01,-1.23160e+00,2.89936e-01,6.20192e-01,-4.08352e-01,2.43589e-01,4.33068e-02,2.00554e-01,-4.04808e-01,1.71834e+00,1.33290e-01,2.15892e-02,-2.82025e-01,4.52473e-01,-2.19164e-01,-3.43018e-02,1.25426e+00,-2.84315e-01,5.51535e-01,8.73870e-01,-1.23633e+00,2.91149e-01,-1.70780e-01,1.50804e+00,7.67363e-01,2.68403e-01,1.01498e-02,-1.35790e-01,1.99782e-01,7.59135e-01,-1.29236e-01,6.11430e-01,-9.80525e-01,-1.05789e+00,1.14965e+00,-1.54558e-01,2.03026e-01,-3.09755e-01,
-1.48646e-01,-1.00518e-01,1.97282e+00,5.84540e-02,-1.25870e+00,-3.25632e-02,1.73118e-01,-2.44355e+00,-2.96609e-02,4.38750e-02,5.54330e-01,4.16900e-01,-2.46678e-01,5.19088e-01,-6.23049e-02,8.97799e-01,-2.03906e-01,8.08688e-02,-5.86554e-02,1.24593e-01,1.34119e+00,6.67575e-01,-1.57343e-03,-3.16540e-02,-2.33277e-02,-2.62323e-01,-2.30768e-01,-3.06223e-02,3.75607e-01,3.35523e-01,1.91964e-01,-2.75201e-02,-1.13991e-01,1.37315e-01,6.61310e-01,-3.03894e-02,-6.55663e-02,4.11621e-02,-5.22196e-02,-1.02131e+00,8.21611e-02,2.54369e-01,-1.43728e+00,7.65734e-02,-7.71421e-01,-1.05365e-01,-2.96031e-02,-2.89869e-03,-1.20973e-01,-2.28888e-02,
6.19436e-01,-4.63681e-01,-6.47353e-01,4.15067e+00,-1.78403e-01,-4.53258e-01,4.18753e-01,2.20558e-01,-2.65254e-02,1.46376e-01,-1.32003e-01,-4.20499e-01,5.32565e-01,-3.03372e-01,2.82188e-01,-4.50133e-01,-5.66228e-01,2.60537e-01,5.74175e-01,-4.23769e-01,-2.64438e-01,3.11995e-01,8.08548e-01,-2.29884e-02,4.66457e-01,1.93482e-01,-4.42469e-01,2.88274e-02,1.27426e+00,-2.87610e-02,1.75538e-01,8.05408e-01,7.52320e-01,-2.15786e-01,3.18858e-01,1.58779e+00,1.66728e+00,5.76160e-02,7.24692e-03,2.52476e-02,5.46808e-01,3.19398e-01,-5.86124e-02,-5.26605e-02,1.08599e-01,-7.46200e-01,8.70294e-01,-5.30069e-02,-3.45325e-01,1.47050e-01,
-2.25147e-01,-5.11316e-01,-1.58171e+00,-1.19782e-01,6.07109e-01,6.61115e-01,1.52746e-01,-1.00726e-01,-3.04688e-02,7.18096e-01,-8.00460e-02,3.49134e-01,-4.31091e-03,-3.32384e-01,1.19024e-01,5.19839e-01,3.18518e-01,-1.80855e-01,4.47813e-01,9.73729e-03,-1.61267e+00,-2.14447e+00,-2.23595e-01,3.25426e-02,2.37126e-01,-7.13448e-01,1.51850e+00,-6.80764e-03,3.78331e-01,-9.18100e-02,-7.91180e-01,-3.89717e-01,2.95745e-02,-4.99203e-01,2.94924e-01,7.79702e-01,-1.90008e-01,2.57205e-02,3.39521e-02,9.90895e-01,-1.05390e-01,7.13716e-01,1.16529e+00,-1.73468e-01,1.57621e-01,4.36393e-03,-2.70409e-01,2.34959e+00,1.62419e-01,6.07195e-03,
-2.39114e-01,-5.55885e-01,6.61476e-01,-3.26985e-01,-5.93337e-01,1.11180e+00,6.42692e-02,4.52632e-01,-3.31627e-02,-6.85163e-01,-2.49885e-01,-4.89830e-01,2.82359e-01,-3.89762e-01,-1.51186e-01,2.86817e-02,1.07997e+00,-5.14259e-02,5.93361e-01,-2.95316e-01,1.76486e-03,1.94742e+00,-5.94519e-02,3.70143e-02,-9.19764e-01,5.95913e-01,3.57360e-01,-3.78869e-02,2.87552e-01,3.88517e-01,3.03608e-02,-1.75177e-01,-6.79223e-01,-2.61897e-01,2.62746e-03,2.38234e+00,-1.18384e-01,3.33076e-01,-2.01711e-02,-6.13888e-02,-1.92371e-01,3.45450e-02,2.33122e-01,-6.26577e-01,-1.28978e+00,7.06657e-01,-9.44046e-02,2.82183e-01,3.76613e-01,-1.36855e-01,
-9.82047e-01,-2.44510e-01,5.09479e-01,-8.43410e-01,-2.14962e+00,-5.81317e-01,2.51264e-01,2.13974e-01,-3.44393e-02,2.90270e-02,-2.47494e-01,-5.45557e-01,4.46221e-01,-2.45879e-01,2.43347e-03,4.10686e-01,-3.86321e-01,1.22845e+00,2.67728e-01,-3.80312e-01,-6.84611e-02,1.04912e+00,-3.18075e-01,1.13354e-02,-2.80778e-01,8.29241e-01,-3.10397e-01,2.49389e-02,1.53533e+00,2.44343e-01,7.24551e-02,-3.72326e-02,1.01223e+00,2.80453e-01,2.75507e-01,-7.83499e-01,5.69565e-02,-3.83167e-01,-1.13765e-02,-2.18358e-01,4.59092e-01,3.24697e-01,1.06800e-01,-8.68305e-02,2.75906e-01,-3.43108e-01,-2.79102e-01,-7.77309e-01,-6.18528e-01,2.79852e-01,
2.00672e-01,1.16083e-01,8.75078e-01,-2.62300e-01,-7.30167e-01,-1.91861e-02,-1.75826e-01,-2.80103e-01,-5.20292e-02,3.62362e-02,2.40688e-01,-3.00036e-02,2.70550e-01,-1.44820e-01,3.47686e-01,3.52404e-02,-6.25491e-01,-3.52150e-01,-4.41704e-01,1.30828e-01,-1.15540e-01,-1.16551e-01,-1.80279e-02,-5.21517e-02,2.78086e-02,-6.76740e-01,-1.31602e-01,3.02422e-02,2.65792e-01,-5.41154e-02,-4.99677e-01,5.84550e-02,-2.00599e-01,1.34236e-01,-1.51790e-01,6.87100e-03,-1.33501e-02,-2.79110e-01,3.19885e-03,3.39545e-01,1.20050e-02,3.94064e-01,6.97202e-02,2.17360e-03,1.19673e-01,1.12939e-01,5.10011e-02,-1.76527e-02,-1.29193e-01,-1.34505e-01,
-1.38771e+00,6.43451e-01,8.17119e-01,-7.41028e-01,-6.37938e-01,-4.39542e+00,7.31718e-01,-5.48229e-01,4.00651e-02,-4.70606e-01,1.66775e+00,-2.37564e+00,7.80301e-01,-9.46946e-02,-6.21752e-01,4.93352e-01,1.10816e+00,5.49608e-01,-1.06531e+00,3.45227e-01,1.56921e-01,7.67663e-01,-1.73540e+00,-1.04582e-03,1.47217e+00,1.81494e-01,-1.11258e+00,-3.22121e-02,1.42482e-01,2.47552e-02,-9.60724e-01,9.71549e-02,2.04390e+00,5.27160e-01,-3.07883e-01,2.75460e+00,4.66470e-02,-7.59422e-01,4.80723e-03,-1.32464e-01,5.47966e-01,-1.01041e-01,1.72333e+00,-1.52541e+00,4.82134e-01,3.82137e-01,-6.72852e-01,-8.89705e-01,7.93694e-01,-6.47578e-02,
9.78994e-01,-9.08318e-01,1.72415e+00,4.16320e-01,-4.17126e-01,2.26065e+00,1.44405e-01,-1.62461e+00,-1.14451e-02,-2.16964e-01,1.61211e-02,-1.36402e+00,-6.46010e-02,-3.07230e-01,-7.10909e-01,6.82007e-01,-4.27059e-01,-1.13304e+00,-4.38232e-01,1.13673e-01,5.13377e-01,1.73847e+00,-1.71080e-01,-1.19060e-02,-7.22475e-01,1.70167e+00,-4.01622e-01,2.41909e-02,-6.31276e-01,7.61772e-01,5.68926e-01,4.30647e-01,1.86561e-01,-1.41291e-01,1.07692e+00,1.19795e+00,1.74285e-01,-1.61715e-02,-1.68766e-02,-3.89779e-01,-7.79811e-01,9.52487e-01,-3.43857e-01,3.75677e-01,3.10438e-01,-4.61864e-01,-1.02549e-01,8.36928e-01,-2.34493e-01,2.29146e-01,
-1.17480e+00,2.54438e-01,1.10740e-02,1.04684e-01,-6.55476e-01,8.91789e-02,-9.95905e-01,-2.55948e-02,-1.01528e-02,-1.78296e+00,-5.09137e-02,-9.08825e-02,-7.71617e-02,2.45766e-02,-1.42630e+00,-2.28353e-01,4.67701e-01,-8.38091e-01,1.14513e+00,-1.99514e-01,7.26891e-02,-1.65174e-02,3.83777e-01,-4.18812e-02,1.58319e-01,-1.61625e-01,-9.85402e-01,-3.33058e-02,1.66260e+00,3.93685e-01,-3.19882e-01,4.09855e-01,5.63299e-01,3.78203e-01,5.11318e-01,2.13547e-01,2.48578e-01,1.25595e+00,-2.90393e-02,6.13011e-03,-2.05064e-01,-1.34541e+00,3.44617e-01,1.97088e+00,3.99409e-01,3.20954e-01,-1.50889e-01,-9.52881e-01,-1.79511e-01,-1.94729e-01,
3.59689e-01,7.42069e-01,-4.78591e-01,5.29336e-01,5.25234e-02,-3.35388e-01,3.16159e-01,-2.12577e-02,-4.11266e-02,-6.15669e-01,-1.02840e+00,-3.71682e-02,-2.01832e-01,-8.38915e-02,5.54288e-01,-1.03493e-01,-1.31824e-01,1.61529e+00,-2.82318e-02,-6.13132e-01,2.97057e-02,8.93474e-02,-2.90249e-01,1.77010e-02,1.71266e-01,-3.48333e-01,-8.36093e-01,1.01365e-02,-7.32918e-01,-2.86008e-01,4.87701e-03,1.02137e-01,9.06536e-01,-4.10483e-02,-2.04006e-01,-1.17640e+00,-1.12535e+00,1.05037e-01,1.61631e-02,2.60378e-01,-4.70649e-01,2.22418e-01,2.67621e-01,1.40212e-01,1.50335e-01,-6.73913e-01,-1.36100e-01,5.84830e-01,6.90667e-01,1.93252e-01,
-2.25017e-02,1.42319e-01,2.40229e-01,-1.26872e+00,-1.64039e-01,3.25295e-01,-3.09640e-01,-1.07923e-01,4.27903e-02,1.11192e+00,7.47693e-01,1.82039e+00,-1.73117e-01,-4.02725e-01,5.71711e-01,7.37895e-01,-7.64667e-01,1.26709e-01,-9.92351e-01,-3.18246e-01,3.17024e-01,1.25581e+00,-3.87788e-01,-2.77234e-02,-2.74160e-02,-3.52535e-01,9.49023e-01,1.18393e-02,1.13805e+00,5.99118e-01,-4.46870e-01,1.29135e-01,-8.71586e-01,4.97875e-01,1.67500e-01,-3.89814e-01,-2.88879e-01,2.17908e-01,-4.10235e-02,-1.90577e-01,3.22805e-01,5.54680e-01,6.89200e-01,7.03234e-01,1.73005e-02,2.94607e-01,6.90905e-02,4.58242e-01,1.87558e-01,-7.51870e-01,
-5.96908e-02,2.08051e-01,9.06594e-01,3.02555e+00,-1.82667e-01,-9.91905e-01,8.36204e-02,1.26911e-02,3.11292e-02,3.22951e-01,1.59992e-02,4.82799e-01,-7.63784e-02,-5.85012e-01,-2.41234e+00,6.38606e-01,-3.40342e-01,1.49276e+00,3.41925e-01,4.73164e-01,-2.11259e-01,4.11830e-01,1.72175e-01,-4.78237e-03,2.32260e-01,5.36555e-01,1.57449e-01,5.91680e-03,9.75238e-01,-5.07346e-02,-2.64194e-01,6.38117e-01,5.00706e-01,5.26349e-03,-6.19905e-03,2.24841e+00,9.51249e-01,-2.80953e-01,-8.47959e-03,-4.88196e-01,6.66083e-03,-2.70008e-01,9.96188e-02,3.57575e-01,-1.13755e-01,-1.10652e-02,-4.99124e-01,7.33363e-01,-3.40201e-01,1.42145e-01,
1.90370e-02,5.98788e-01,5.11155e-01,2.91309e-01,-8.05563e-01,-5.60854e-01,-5.83661e-01,-1.40238e-01,-2.36788e-02,8.86288e-02,-7.67287e-02,-7.74317e-02,-4.04871e-01,-4.33480e-01,-3.45572e-01,1.16157e+00,5.23207e-02,-1.92214e-01,-4.56911e+00,-1.14083e-01,3.52976e-01,-1.48627e-01,6.13526e-01,3.36392e-02,-1.36454e-01,1.58287e-01,-3.12123e-01,2.48510e-02,1.99693e-01,-2.63058e-01,-1.28494e-02,2.76699e-01,-5.17697e-02,7.48333e-02,3.34121e-02,-5.25232e-01,3.48552e-01,-3.89714e-01,5.49536e-02,-9.89832e-02,-2.30259e-02,3.94855e-01,-3.34885e-01,-4.13649e-01,-4.10917e-02,2.33826e-01,-5.15787e-01,7.30775e-01,9.21654e-01,-7.35617e-01,
-1.05429e+00,1.20535e-01,1.77139e-01,-1.51079e-01,-6.04860e-01,-5.39707e+00,3.00252e-01,-7.00774e-02,-2.04792e-02,4.62314e-01,4.55213e-01,-2.71312e+00,-1.01547e+00,-8.20773e-02,-2.47941e-01,5.70382e-01,4.50802e-01,-1.54347e+00,-3.00667e+00,3.70286e-01,4.00185e-01,-1.02701e+00,7.37372e-01,-9.74182e-03,4.41861e-01,2.77469e-01,6.69376e-01,-2.41655e-02,5.62324e-01,-6.71685e-01,-6.32491e-01,9.60096e-02,5.04922e-02,-3.18364e-01,3.74789e-01,4.17243e+00,-2.12990e-01,-4.91435e-01,4.70081e-02,2.58060e-01,-4.43681e-01,-1.40862e+00,2.09316e-01,-6.87277e-01,9.60245e-01,-4.56934e-01,3.42823e-01,-8.47968e-01,9.13621e-01,3.79479e-01,
-5.45036e-02,1.74398e-02,-2.84526e-02,-6.91214e-03,4.69801e-04,2.71755e-02,-2.76686e-03,3.40707e-04,2.09680e-03,-5.95583e-02,-6.06649e-02,1.63002e-02,-4.36880e-02,-4.13912e-02,-6.60349e-02,1.76724e-02,-1.90711e-02,4.87327e-02,-7.68090e-02,-1.03599e-02,2.54801e-02,-3.11089e-02,8.35379e-03,-1.79523e-02,4.00563e-02,-1.46045e-02,-2.53948e-02,2.71423e-02,-7.36534e-03,4.75319e-02,1.92145e-02,-7.24997e-04,2.83547e-02,-2.27157e-02,-1.98102e-02,-1.29418e-02,-7.39433e-03,-4.27516e-02,3.24412e-02,8.44804e-05,-4.30039e-02,-6.74487e-02,-1.92010e-02,-6.14811e-02,-4.30155e-02,-3.66718e-02,4.35326e-02,3.59239e-02,-9.39773e-03,-3.92414e-02,
-2.41696e-01,1.14213e+00,1.24504e+00,-1.67354e-01,2.01429e-02,-2.19911e-01,1.01230e-01,8.46238e-01,5.75215e-03,-1.30554e+00,-7.27193e-01,-8.36312e-01,1.93909e-01,9.41231e-01,1.66314e-01,-1.83898e+00,-3.88009e-01,3.67539e-01,-8.80156e-01,-2.74176e-01,6.89761e-03,-2.80372e-01,4.61017e-01,1.09392e-02,-5.97483e-01,1.13207e+00,-1.19674e+00,1.65262e-02,-2.05834e-01,-3.36048e-01,6.42127e-01,-6.40284e-01,-1.59045e+00,6.62577e-01,4.60402e-02,-1.23946e+00,1.50444e-01,1.89475e-01,-5.93278e-02,-4.02412e-01,1.23018e-01,-9.13841e-01,-1.10268e+00,4.50411e-01,-4.38704e-01,-1.33322e+00,-2.96469e-01,9.04972e-01,1.64573e-01,6.13324e-01,
-7.06026e-01,2.03717e-02,-8.11447e-01,1.12765e-01,2.99360e-01,-4.92905e-01,1.94632e-01,-2.05184e-01,-4.70946e-02,1.50191e+00,6.57607e-01,3.85814e-01,-1.04688e+00,-2.05752e-01,2.42107e-01,8.46280e-01,8.53306e-01,3.38195e-01,3.74105e-01,-1.03181e-01,2.10368e-01,1.26050e+00,3.31207e-01,2.14827e-02,1.01994e-01,-4.99217e-01,1.09224e-01,2.75921e-02,1.22769e-01,-3.16689e-01,1.34461e-02,-2.26414e-01,1.07884e-01,-3.34242e-01,-3.36286e-01,-3.52187e-01,-3.21037e-01,3.82318e-01,-2.81674e-02,4.38484e-01,5.90386e-03,2.49252e-01,9.28348e-03,9.98848e-01,2.45099e-02,8.22807e-01,-8.26421e-01,6.82587e-01,-2.55032e-01,-4.27448e-01,
4.30106e-02,2.20275e-01,-8.45080e-01,6.43280e-01,-3.23121e-02,-9.59322e-01,-2.32671e-01,-8.97917e-02,3.87884e-02,-1.59471e-01,-3.32377e-01,-5.60047e-01,-4.16703e-01,1.51684e-01,1.24564e-01,5.56880e-01,-1.25169e-01,-4.13264e-01,3.76246e-02,-3.89848e-01,4.41052e-01,-5.56044e-01,5.66794e-01,-1.81630e-02,1.42318e-01,-2.19883e-01,4.08846e-01,3.13783e-02,6.38515e-01,7.50295e-01,2.24569e-01,5.62375e-01,-2.03709e-01,1.04546e-01,-4.83918e-01,-9.59207e-01,5.11927e-01,2.49254e-01,5.44108e-02,-3.93572e-01,1.27649e-01,-2.51780e-01,3.36707e-01,1.48585e-01,-2.74510e-01,2.84414e-01,-8.08449e-01,4.32949e-01,-5.18838e-02,1.30441e-01,
-1.07077e-01,
-5.40759e-01,
-6.79918e-01,
-2.22551e-02,
4.18455e-01,
-3.93732e-01,
1.17694e-01,
8.53424e-01,
9.45162e-02,
-4.22592e-01,
-1.34034e+00,
-8.76821e-01,
6.06671e-01,
-7.51195e-01,
-4.68569e-01,
-1.06614e+00,
4.73352e-01,
2.80317e-01,
-8.25063e-01,
-2.64839e-01,
-1.03837e+00,
-8.19173e-01,
-5.66668e-01,
-3.40478e-01,
2.81168e-01,
2.45791e-04,
-1.45390e-02,
1.71216e-02,
-6.08431e-01,
1.35634e-01,
5.57562e-01,
-7.21230e-01,
2.00349e-01,
-1.14086e+00,
-7.71508e-01,
-4.93927e-01,
-4.25353e-01,
1.54399e-01,
-7.16625e-01,
-6.56948e-01,
5.12156e-02,
1.72706e-01,
-7.63136e-01,
-8.70563e-01,
-3.33619e-01,
-5.76794e-01,
-2.12333e-02,
7.78575e-01,
-1.29528e+00,
-6.91971e-01,
8.33223e-02,7.90506e-01,-7.61692e-01,1.30004e-02,4.79847e-01,-8.00735e-01,9.01792e-01,7.69277e-01,3.73305e-01,-1.82476e+00,2.57009e-01,-7.57091e-01,7.78772e-01,-1.01024e+00,-1.42028e+00,7.55703e-01,-2.01651e-01,5.61635e-02,-4.69792e+00,-2.07021e-01,-3.66934e-01,-1.63171e+00,-1.69751e-01,-6.34249e-02,-1.12269e+00,1.29987e+00,-4.40342e-02,1.40001e-01,-2.76437e+00,2.55678e-02,-7.77614e-01,-4.81017e-01,-1.11503e+00,5.79013e-02,-1.89641e+00,3.48959e-01,-1.80639e-01,1.42146e+00,1.26202e+00,2.68576e-01,4.79834e-01,-7.27558e-02,-2.35051e-01,8.88754e-02,-1.13580e-01,-4.20332e-01,-7.97800e-03,2.11466e-01,-5.41676e-01,-1.47045e+00,
3.19058e-02,2.59402e-01,-9.85417e-01,2.98373e-02,1.98922e-03,-6.76025e-01,-3.38355e-01,7.72255e-01,-1.76253e-01,-6.31399e-01,1.81210e-01,4.16199e-01,-2.65241e-01,-2.72505e+00,7.02610e-01,-3.74402e-01,6.06455e-01,2.05864e-01,-7.57341e-02,-5.68981e-01,-4.49545e-01,4.67269e-02,-7.91059e-01,1.27255e+00,7.18766e-02,-1.94553e-01,3.19782e-02,-4.38879e-01,1.00590e-01,-8.85496e-01,-9.02807e-02,7.24361e-02,-1.64199e+00,7.62981e-01,-1.48738e+00,4.67593e-01,1.23658e+00,-2.95773e-01,4.19577e-01,2.02886e+00,6.43526e-02,6.01266e-01,-1.56677e+00,-2.12112e+00,-9.66743e-01,-3.90730e-01,2.41353e-02,3.17573e-01,-9.24629e-02,7.14074e-01,
-5.18094e-02,1.43756e-02,2.19666e-02,1.42803e-02,-1.00378e-02,-5.38795e-02,2.60803e-02,-2.80357e-03,-3.40340e-02,1.55387e-02,3.35991e-02,2.42873e-02,-1.90365e-02,-8.24949e-03,-2.05358e-02,4.50990e-03,-6.39232e-03,-8.62986e-04,-2.85497e-02,-1.24830e-02,3.51445e-02,-6.78430e-02,-2.62317e-02,2.60053e-02,-6.34855e-03,3.79371e-02,-5.18746e-03,-4.37009e-02,3.68036e-03,3.03295e-02,-3.22233e-02,-2.12044e-02,-5.10114e-02,-1.90230e-03,9.53035e-03,-5.23047e-02,-3.89860e-02,-1.05263e-02,2.47792e-02,-4.82831e-03,-1.90092e-02,-1.81662e-03,1.52918e-02,-4.27379e-03,6.80723e-03,-2.36703e-02,-3.47644e-02,-2.69791e-02,-5.26260e-02,1.78928e-02,
6.08225e-02,5.02359e-01,2.75468e-01,2.60182e-02,6.69697e-01,-3.61952e-01,-1.39108e+00,5.26847e-01,-3.11097e-01,8.18965e-02,-2.86316e-01,-5.02549e-01,4.37565e-01,2.02951e-01,7.81919e-01,-1.17350e+00,1.72053e-01,2.40556e-01,-3.85943e+00,4.95627e-01,5.57221e-02,4.27537e-01,-4.27007e-01,4.64084e-01,1.38455e-01,-1.53493e+00,-4.20782e-02,-2.67737e-01,-5.44973e-01,-8.05660e-02,-5.13652e-01,9.56847e-03,-2.75797e-01,2.35908e-01,-4.06826e-01,1.22741e+00,-6.12938e-01,-3.90062e-01,-1.86748e-02,5.54336e-01,1.29564e+00,-1.30013e+00,-6.23713e-01,6.76447e-01,4.40585e-01,1.04501e-01,3.39010e-02,4.94388e-01,7.85254e-01,-1.92414e+00,
3.67300e-02,-1.86455e-01,-5.48076e-01,7.11681e-03,-6.93266e-01,3.09126e-02,9.77965e-01,8.95280e-01,9.05532e-01,1.59041e-01,-9.87583e-02,-5.66339e-01,6.79266e-01,-4.48756e+00,-1.19078e+00,9.21558e-01,8.08242e-01,2.37907e-02,-1.23080e+00,2.39347e-01,-4.41044e-01,9.50670e-01,-5.26564e-01,-2.39483e-02,3.90507e-01,3.13841e-01,-4.13462e-02,-1.35713e-01,1.46600e+00,-7.66023e-01,-3.92650e-01,5.98689e-01,1.44263e+00,-3.17391e-01,1.36832e-01,-5.99671e-01,-1.01735e+00,-8.48070e-01,9.94117e-02,-5.72308e-01,4.35824e-01,-2.22125e-01,-1.10243e+00,-1.72209e+00,1.40717e+00,-9.87532e-01,3.21757e-02,1.55356e+00,-4.63729e-01,-9.94111e-01,
5.87103e-02,-7.86264e-02,-2.37337e+00,3.47313e-02,4.38446e-01,3.10740e-01,2.13500e-01,1.85428e-01,-4.23760e-01,-2.89354e-01,1.08059e+00,5.23572e-02,1.80001e-01,1.13188e+00,-5.40833e-01,1.08506e+00,-3.68222e-01,-3.75772e-01,-5.50235e+00,-2.66501e-01,-1.60511e-01,-9.56569e-02,6.19460e-01,7.29451e-01,2.12269e-02,-6.58173e-02,3.52672e-02,5.55564e-01,9.51462e-01,-5.74724e-01,-2.16417e-01,2.40487e-01,8.31900e-02,1.55960e-01,-2.66830e-01,1.72184e-01,6.37941e-02,-5.43686e-02,5.81058e-02,8.49497e-01,-3.43163e-01,-2.38576e+00,2.97487e-01,1.68571e+00,-4.97148e-01,-2.56561e-01,-3.27524e-03,-6.64734e-01,6.84884e-02,1.90108e+00,
8.66190e-02,8.08426e-01,3.03914e+00,1.49032e-03,2.43701e-01,-1.28843e+00,1.75776e+00,7.30114e-01,1.51123e+00,-6.54515e+00,-4.59395e-01,-1.99490e+00,7.54375e-01,9.51649e-01,9.07008e-01,5.21279e-01,-1.10900e+00,-3.27672e-01,1.83726e+00,4.10343e-01,-8.66769e-01,4.21217e-01,1.13436e-01,-1.41702e+00,1.24434e+00,-3.34385e+00,1.04133e-02,-1.68592e+00,2.16759e-01,1.81229e-01,-5.73900e-01,6.70473e-02,-1.08732e+00,1.47558e-01,-4.21267e+00,1.52186e+00,6.39136e-01,2.99182e+00,3.37665e-01,6.25070e-01,-6.10584e-02,-8.03068e-01,6.12931e-01,1.99116e-01,-1.20938e+00,-1.77175e-01,-2.28031e-03,3.80736e-01,-7.33969e-01,-9.50951e-01,
5.96460e-02,-1.62002e-01,8.96075e-01,4.86856e-02,5.40775e-01,-7.27725e-02,6.77331e-01,-1.62902e-01,5.32866e-02,-3.04957e-01,2.01638e-01,9.27592e-01,6.78588e-02,6.18617e-01,5.53692e-01,7.71998e-01,-2.51532e-01,-1.64804e-01,1.58602e+00,-3.03155e-01,1.84355e-01,3.42714e-01,5.42342e-01,8.20422e-01,2.50543e-02,-1.93520e+00,2.60792e-02,-3.85775e-01,6.01958e-01,9.69555e-02,-1.57074e-01,-1.88526e-01,-1.42532e+00,1.38882e-01,9.02198e-01,9.30404e-01,9.93764e-01,1.35020e+00,-2.61094e-01,5.90498e-02,7.25501e-02,-3.06116e+00,3.56567e-01,-1.00608e-01,1.16872e+00,3.85507e-01,-7.22173e-03,3.29121e-01,4.15985e-01,-1.03156e+00,
1.12509e-02,6.79608e-01,1.10353e+00,2.52282e-02,2.59962e-02,-2.23254e-01,-1.71687e-01,-6.08076e-02,-2.16651e-01,-1.04336e-01,2.35954e-01,-1.08988e-01,9.81997e-03,-1.73816e-01,1.32717e-01,3.36185e-01,5.23647e-01,-1.02211e-02,-1.30057e+00,-2.11097e-01,-2.43308e-01,-8.47012e-02,-3.32769e-01,1.66160e-01,-1.18900e-01,3.21907e-01,1.71429e-02,3.25027e-01,-3.05361e-01,-8.08090e-02,2.11294e-01,2.63318e-01,3.87873e-02,-3.73656e-01,3.45132e-01,1.83817e-01,2.70438e-01,-1.12244e+00,2.61706e-02,6.62348e-01,-2.64439e-01,4.83850e-01,3.93635e-01,-8.14967e-02,-1.30157e+00,-1.06784e-01,-7.02169e-04,-3.05248e-01,6.03782e-02,-3.75688e-02,
1.18226e-01,-1.03015e-01,7.17168e-01,-3.87931e-02,9.49040e-01,-1.23884e-01,-5.55987e-01,-3.28122e+00,-2.35015e-01,-4.03820e-01,-1.30735e-01,-9.98569e-02,-6.09467e-01,-2.06998e-01,1.34649e-01,2.09909e+00,-1.79584e+00,2.00862e-01,5.24714e+00,2.56690e-02,5.16179e-02,-7.21628e-01,-1.40262e-02,3.33233e-01,3.26219e-01,-5.73740e-01,2.12194e-02,-1.70903e-01,6.17528e-01,-4.39917e-01,8.21308e-02,7.36676e-01,-2.37758e+00,-9.26577e-02,-1.01509e+00,-8.11628e-01,-5.96051e-02,-2.32246e+00,1.79708e-02,4.59718e-01,-5.26800e-01,-1.02859e+00,2.45415e-01,-4.86851e-01,9.73492e-01,5.72259e-01,1.95870e-03,-7.30740e-01,-8.61842e-01,1.20208e+00,
1.30341e-02,2.78706e-01,2.50933e-01,4.78250e-02,3.09723e-01,1.14799e-01,-8.57559e-01,-7.63447e-02,3.54666e-01,2.22689e-01,-1.59013e-01,3.16830e-01,1.41603e-01,9.72611e-01,-2.40277e-01,-4.23480e-02,-8.27705e-02,3.39540e-01,-1.70866e-02,-5.09925e-03,3.39008e-01,-1.03755e-01,-3.18078e-01,-1.56635e-01,2.21157e-02,-3.53360e-01,-2.55645e-02,-4.36353e-02,-1.97970e-01,-3.05613e-01,1.90683e-01,-1.35545e-01,6.13343e-01,-8.07962e-02,-7.10673e-02,1.09180e-01,-3.54042e-01,-1.24670e+00,1.06428e-01,1.06020e+00,-3.88189e-01,-2.40992e-01,5.14715e-01,-3.36339e-01,5.47726e-01,1.24561e+00,-6.94291e-03,-2.79531e-01,-4.62028e-01,-5.27959e-01,
1.12151e-01,5.97732e-01,-3.62552e-01,4.92300e-03,-1.66850e-01,-2.35104e-01,-8.06094e-01,1.93313e-01,-5.78208e-01,-1.98100e+00,4.80250e-01,-3.88632e-01,2.30838e-01,-2.09843e+00,1.82972e-01,9.77738e-01,-2.02249e-01,-2.73811e-01,2.41536e-01,6.81025e-01,3.19770e-01,-4.11412e-02,4.12217e-02,-9.33439e-02,-4.12672e-01,-1.21415e+00,4.67147e-02,-2.99273e-01,-1.65368e-02,-3.57459e-01,1.57419e-01,-3.72106e-02,-6.66522e-02,7.07851e-01,6.01892e-01,-7.13906e-01,-4.88267e-01,-6.16033e+00,3.75943e-01,-2.30873e-01,1.84579e-01,1.42358e+00,-4.01566e-02,3.84130e-01,7.04341e-01,4.13495e-01,9.15489e-02,1.55041e-01,-9.02075e-02,-4.73884e-01,
7.24851e-02,6.18219e-01,5.31777e-02,-4.71563e-04,-6.30914e-01,-1.93584e-01,-2.15944e-02,-7.83020e-02,-3.66834e-01,-1.74884e-01,-4.83570e-01,2.60045e-01,2.06871e-01,-6.91833e-01,3.65272e-01,-5.41067e-01,3.34272e-01,4.38866e-02,8.77719e-01,-3.38094e-01,1.78092e-01,1.32528e-01,-2.54591e-01,1.08889e+00,-1.90016e-01,-7.46105e-01,-1.72394e-02,-7.91707e-02,7.44828e-01,1.05662e-01,2.38648e-01,-5.32442e-01,-1.26731e+00,-1.67135e-01,1.67753e-01,-6.17140e-02,3.74275e-01,1.38673e+00,-2.81221e-02,-7.61123e-01,-3.76683e-01,6.43696e-01,-5.67509e-01,-4.38682e-01,1.69578e-01,-3.73674e-01,-2.37022e-02,-6.32803e-02,5.93947e-01,5.83874e-01,
-5.53405e-02,2.39056e-01,-5.29841e+00,2.57235e-02,3.75955e-01,-3.12302e-01,-3.11609e+00,4.72884e-01,-8.14203e-01,-3.02313e+00,5.25607e-02,-4.49625e+00,-1.23035e+00,7.18241e-01,3.48309e-01,-2.30217e+00,3.71776e-02,-9.25675e-01,4.75893e+00,-3.10915e-01,-5.07043e+00,2.79364e-01,-5.31103e-01,1.22973e-01,-6.83349e-02,-9.90180e-01,-2.43202e-02,7.96045e-01,1.06045e-01,6.78874e-01,2.01793e-01,3.11619e-01,6.74577e-01,2.46325e-01,-1.07867e+00,-6.46437e+00,-6.02995e-01,-1.00641e+00,4.88824e-02,1.80359e+00,-1.93598e-01,-8.07379e-01,1.95310e-01,2.40017e-02,-4.46506e+00,5.02703e-01,-6.13782e-03,3.89870e-01,-6.71778e-01,-1.15349e-01,
1.19998e-01,2.47748e-01,1.12213e+00,-2.68573e-02,1.02781e-01,-4.64438e-01,-2.47868e-01,6.22369e-01,-4.80506e-01,2.58831e-01,5.61512e-01,-6.15457e-01,-3.01775e-01,6.26855e-02,-1.20955e-01,-9.28938e-01,-1.27338e+00,-4.60570e-01,-2.20088e-01,2.71134e-01,2.23916e-01,-4.56534e-02,5.34516e-01,5.00817e-01,-1.76868e-01,2.15306e-01,-2.24199e-02,5.00350e-01,-2.67162e-01,2.69073e-01,1.91216e-02,1.52166e-01,2.96128e-01,1.29038e+00,-3.31702e-02,3.66059e-01,-1.15693e-01,-2.39988e-02,-1.04885e-01,-6.07658e-05,-3.61021e-02,-5.74089e-01,-8.86165e-02,1.99782e+00,-4.79287e-01,1.19763e-01,1.34022e-02,-8.19571e-01,1.31066e-01,-1.99122e-01,
7.71510e-02,1.33732e-01,1.80885e+00,-3.40072e-02,3.75642e-01,5.48777e-02,1.18558e+00,8.17011e-01,-2.77800e-01,4.07822e-01,1.16077e-01,-9.93218e-01,-3.28412e-01,6.67320e-01,1.58390e-01,-9.60658e-02,1.23479e-01,3.82232e-01,7.39895e-01,1.43584e-01,7.43054e-01,-6.55491e-02,-7.68500e-02,-3.79556e-01,4.44699e-01,-3.26735e-01,3.36847e-02,-5.42463e-01,1.52398e-03,1.92040e-01,-3.28549e-02,-1.53580e-01,-2.00000e-02,-5.72849e-01,1.37905e+00,2.60485e-01,7.56813e-01,-5.74793e+00,3.35823e-02,5.79168e-01,-1.18819e-01,-5.07826e-01,-4.86837e-01,-1.43370e-01,-7.76317e-01,-1.21087e-01,2.47602e-02,3.85205e-01,-6.51438e-01,1.28305e+00,
3.90192e-02,2.43690e-01,-7.01825e-01,2.26674e-02,-6.47921e-01,-3.21971e-02,-1.64724e-01,-7.75552e-02,-5.02757e-01,-1.27823e+00,5.34835e-01,-1.75036e-02,-7.13428e-01,3.35263e-02,3.33088e-01,-1.61636e+00,-5.50808e-01,-8.01375e-01,1.67475e-02,5.70212e-01,4.51057e-01,-1.37265e-01,8.99080e-02,-3.35815e-01,3.19243e-01,-4.46210e+00,-3.47700e-02,4.01495e-01,-1.47614e-01,-2.92831e-02,5.26964e-05,6.29486e-01,-6.33021e-01,1.79328e+00,-1.59128e-01,-1.45432e-01,-1.39521e-01,-4.11254e-01,1.86431e-03,6.84368e-01,-2.18135e-01,1.23993e-02,-2.98058e-01,1.03536e+00,-2.15110e-01,2.24940e-01,-5.47007e-03,2.02296e-01,-2.83999e-01,-3.13143e-01,
1.39169e-01,6.51040e-01,-1.69138e+00,-8.17749e-03,-1.68616e+00,-4.69226e-02,1.75019e+00,5.29629e-01,9.19416e-01,3.66557e-01,-1.17379e-01,7.13195e-01,-1.54623e-01,4.12801e-01,-5.56137e-01,7.75352e-01,7.18306e-02,4.45596e-01,3.22606e-01,-5.31419e-02,1.24676e-01,2.09947e-01,2.28463e-01,4.29421e-02,3.02222e-01,-3.01572e+00,-3.14032e-02,-1.98750e-02,3.10670e-01,-1.77157e-02,-6.86617e-02,-7.07449e-01,3.32500e-01,-3.42996e-03,4.66324e-01,3.88603e-01,5.57685e-01,-3.92018e-01,4.70842e-01,-8.13918e-01,-1.36419e-01,-1.58155e-02,-3.88446e-02,2.27522e-01,6.62815e-01,3.69162e-01,1.92537e-02,-5.01312e-01,4.91644e-02,4.61531e-01,
-3.13565e-02,-4.32151e-02,-2.40465e-02,3.97251e-02,1.93993e-02,-1.73880e-02,-4.16270e-02,-1.05922e-02,2.81444e-03,-4.62398e-02,-5.20007e-02,3.20878e-02,1.49672e-02,3.45859e-02,1.79253e-02,-4.18639e-02,-2.49852e-02,-1.69126e-02,-1.09296e-02,-4.17574e-02,6.76256e-03,-5.04418e-02,2.86406e-02,-2.62398e-02,1.57207e-02,-4.00497e-02,-4.34723e-02,-1.55217e-02,-1.97476e-02,-4.19431e-02,-2.17928e-02,1.14652e-02,2.26350e-02,-4.49903e-02,4.10271e-02,1.46210e-02,2.16686e-02,-3.04045e-02,1.69776e-02,-3.97218e-02,1.53055e-02,5.09311e-03,-4.33067e-02,2.10799e-02,-5.23320e-02,-4.38200e-02,1.36194e-02,-5.23313e-02,-1.44265e-02,8.28193e-03,
-2.38539e-02,2.42992e-01,3.41165e+00,-4.74670e-02,6.33947e-01,3.95887e-02,-4.79896e-01,-1.53584e-01,-2.97340e-01,5.26016e-01,-3.88745e-01,5.43061e-01,5.13262e-03,-1.46533e+00,3.31757e-02,-4.45363e-01,-1.83260e-01,2.27017e-01,-2.16557e+00,-2.50241e-01,-2.76093e-01,-1.43307e-01,3.84019e-01,6.37538e-01,1.82987e-01,2.16627e-01,-4.61721e-02,3.07453e-01,-5.30784e-01,-5.98221e-02,3.88614e-02,4.41362e-01,-2.53988e+00,-3.90366e-01,1.09595e-01,-3.64483e-02,-2.21003e-01,-7.38681e+00,-5.96511e-01,-9.01005e-01,-8.72865e-02,1.96865e-01,1.56655e+00,-5.47785e-01,9.81008e-01,8.16904e-01,-1.62900e-02,1.93821e-01,-1.42540e-01,-7.77886e-01,
-1.37148e-02,-7.46672e-01,3.76524e-01,-3.29157e-02,-1.96877e+00,3.31172e-01,-3.46603e-01,5.34610e-01,-4.71079e-01,-1.26365e+00,-2.72974e-01,-7.21324e-02,-4.84419e-01,-1.92010e+00,7.90987e-01,-2.86867e+00,5.64019e-02,6.68250e-01,-1.93855e+00,-5.09260e-02,2.29856e-01,-5.13305e-01,2.45075e-01,-2.94044e-01,7.81555e-01,-2.01079e+00,-4.66460e-02,-2.57162e-01,4.14767e-02,1.65868e-01,-2.80766e-01,1.95293e-01,-1.89042e+00,2.12249e-01,-1.96828e+00,-1.04225e+00,-2.55701e-01,-5.44664e-01,-2.31628e-01,2.54638e+00,9.40317e-02,5.82385e-01,2.18664e-01,7.17065e-02,-6.44684e-01,1.45135e+00,-5.79296e-05,5.87821e-01,-1.10143e+00,-6.34953e-01,
3.38741e-03,-2.77077e-01,3.06031e-01,-1.31206e-03,-9.82986e-01,-6.60334e-01,7.00352e-02,8.63569e-01,-3.27481e-01,-1.79619e+00,-2.11431e-01,4.63303e-01,-5.35036e-01,1.62096e+00,1.19219e+00,2.84093e-01,7.21955e-04,1.49146e-01,4.42881e-02,-2.28972e-01,-6.76871e-01,-2.08769e+00,5.85307e-01,-1.27613e-01,1.05761e+00,-2.34384e+00,-3.92607e-02,-3.89828e-01,5.58788e-01,2.16995e-01,2.90330e-01,5.33652e-02,-3.05205e+00,-2.03117e-03,-2.07956e+00,-2.29855e-01,-1.40092e+00,4.12137e-02,2.09534e-01,2.96161e+00,-8.01469e-01,4.22785e-02,4.46403e-01,4.62491e-01,-1.40132e+00,1.38349e+00,-7.37197e-03,-8.14936e-01,-3.84585e-01,-1.45563e+00,
-3.48243e-02,-1.28197e+00,3.02986e+00,-4.20754e-02,-5.49410e-01,6.39101e-01,8.04840e-01,-6.04724e-01,-3.60377e-01,1.33184e+00,-5.50724e-01,4.83648e-01,5.11122e-02,1.46448e+00,6.70997e-01,1.14499e-01,3.35776e-01,-1.58846e+00,1.76209e+00,-8.15713e-01,1.17648e+00,-2.79758e-01,7.63108e-01,1.16107e+00,1.23873e-01,-9.96500e-01,-4.40972e-02,6.68552e-02,1.84075e+00,1.55752e-01,1.53997e+00,2.46540e-02,7.19972e-01,-4.40106e-01,6.71747e-01,3.60111e-01,4.01442e-01,-1.03025e+00,-3.17416e-01,1.15050e+00,-1.16463e-01,5.84265e-01,5.29530e-01,-1.45275e-01,5.12705e-01,6.52506e-01,5.60072e-03,-4.83642e-01,-5.86855e-01,9.20587e-01,
-1.86648e-02,7.37234e-01,-3.60089e+00,4.70830e-02,5.23198e-01,8.55453e-01,-1.14364e+00,1.28383e-01,-1.35156e+00,7.62363e-01,-6.07740e-01,3.90617e-01,3.70092e-02,-2.38861e+00,1.98758e-01,8.26973e-01,5.63473e-01,-4.77713e-02,2.42151e-01,-3.07254e-01,4.63835e-01,1.23548e-01,2.90890e-01,-3.38810e-01,-1.63218e-01,-3.52689e-01,-5.27351e-03,-3.56360e-01,-3.04531e-02,-6.52597e-03,-3.55675e-01,-1.08003e+00,1.10980e+00,4.79350e-01,-7.61046e-02,6.16886e-03,-1.60474e+00,1.74675e-01,-1.14155e-01,1.53313e-01,8.49020e-01,2.17210e-01,-3.83023e-01,6.60415e-01,-3.97607e-01,5.27591e-01,4.97931e-03,1.74188e-01,-7.66371e-02,3.42645e+00,
8.59816e-02,4.95536e-02,-7.63041e-01,3.49978e-02,4.48990e-01,-1.11936e-01,3.99480e-01,-1.00249e+00,1.22343e-01,3.43627e-01,6.79432e-02,1.88171e-01,-2.91528e-01,-3.82009e-01,2.55568e-02,-7.03341e-01,-1.76110e-01,3.95991e-01,4.18563e-01,3.72277e-01,-1.79045e-01,-4.04749e-01,2.72518e-01,1.99973e-01,-4.53925e-01,-8.82944e-01,-4.41159e-02,3.96641e-01,-9.92951e-01,-3.23288e-01,-8.96676e-02,1.86728e-01,2.54933e-01,-1.64049e-01,5.51422e-01,-9.40349e-03,1.32802e-01,-1.69746e-01,9.28133e-02,-1.64477e-02,2.68794e-01,-2.65493e-01,-2.64619e-01,-5.33179e-02,4.72869e-01,5.11233e-01,-2.21370e-03,3.39245e-01,8.11936e-01,-6.91739e-01,
2.61118e-02,2.62774e-01,-5.60174e-01,1.48815e-04,8.01289e-01,-1.19274e+00,-1.11558e-01,8.36963e-01,7.12326e-02,-9.55558e-01,-2.05104e-01,-6.30932e-01,6.72725e-01,1.40153e+00,6.74850e-01,-1.08777e+00,1.01214e+00,-5.75613e-02,-2.32973e+00,-5.60706e-01,-4.44204e-01,1.43596e+00,-1.11771e+00,-1.23240e-01,1.03069e-02,-5.74723e-01,1.05370e-02,-2.62437e-01,-8.49350e-01,5.55042e-01,-1.14215e-01,-6.77708e-01,-2.46191e-01,-4.51838e-01,-5.18217e-01,1.69603e+00,-1.04391e+00,-1.99975e+00,-1.26838e-01,3.89941e-02,3.19522e-01,1.09370e-01,-5.51182e-01,-8.27448e-01,1.30083e+00,2.52118e-01,2.20880e-02,9.09890e-01,2.92001e-01,-1.07091e+00,
1.29279e-01,-2.14840e+00,-2.37632e-01,-3.30671e-02,-7.83193e-01,-3.72758e-01,-4.86961e-01,-1.07007e+00,-1.88783e+00,-8.25334e-02,-4.37378e-01,5.43965e-01,1.53034e-01,-7.32218e-01,3.86283e-02,7.34351e-01,4.76579e-01,4.59448e-01,-1.68136e-01,9.22669e-02,3.92252e-01,1.33372e+00,-7.61271e-01,-6.69126e-01,-1.14163e-01,-1.51323e+00,1.54427e-02,6.08540e-01,7.46928e-02,1.22945e-02,-5.73319e-01,7.52521e-01,3.47929e+00,3.00329e-01,-3.87998e+00,2.94085e-01,-1.23961e+00,5.62633e-01,-1.17782e+00,7.23506e-01,4.27119e-01,1.82366e-01,-7.74013e-01,6.14648e-01,4.26038e-01,-3.61236e-01,-3.02808e-02,-1.78685e-01,-4.41043e-01,9.08832e-01,
6.69636e-02,5.91937e-01,9.27900e-01,2.45865e-02,-3.58919e-01,-2.71742e-01,1.62081e+00,1.47008e-01,-1.44846e+00,7.18789e-02,-1.30906e+00,6.80687e-02,-1.43859e-01,1.42020e-01,-5.05900e-01,-2.46964e+00,2.45358e-03,-3.38669e-01,-3.83271e+00,3.42169e-02,2.97620e-01,5.89624e-01,-3.80935e-01,-3.01463e-01,2.60607e-01,1.37885e+00,1.04160e-02,1.31254e-01,3.15908e-01,-1.71017e-01,4.50474e-01,4.67140e-01,-4.01046e-01,1.18012e+00,-1.96645e-01,3.84665e-01,-1.09882e-01,2.51107e+00,-4.28889e-01,2.61826e-02,1.23223e-01,1.08053e+00,-3.94389e-01,1.11807e+00,-2.76626e+00,-6.10411e-01,7.47532e-03,-4.10489e-01,-3.72330e-01,-3.09267e+00,
2.34228e-02,-9.64751e-01,-9.96868e-01,9.39523e-03,-1.31260e-01,-4.88171e-01,-5.38173e-01,6.34550e-01,-7.40188e-01,-1.26102e+00,2.02978e-01,5.37516e-01,-6.06820e-01,-2.03035e+00,4.10784e-01,6.08389e-01,-4.14599e-01,3.28207e-01,-8.48948e-01,2.55726e-01,-9.69022e-01,-8.59877e-01,-3.28353e-01,-1.28481e-01,-7.40428e-01,-9.24924e-01,-3.28474e-03,7.00050e-01,-5.40591e-01,-3.42837e-01,-9.87095e-03,-6.36423e-01,4.40466e-01,1.00796e-01,-2.15687e+00,-9.91469e-01,-3.45711e+00,-5.67760e-01,6.21740e-01,-7.17418e-01,-3.93880e-01,-1.81967e-01,-4.22284e-01,1.44454e-01,-3.68668e-01,5.87722e-02,1.28471e-02,-3.03472e-01,8.88877e-01,-1.49505e-02,
7.49494e-03,2.03333e-01,1.18122e+00,-3.23209e-02,3.97485e-01,1.46113e-01,-5.69116e-01,-1.27460e-01,3.08739e-01,-2.94568e-01,-4.95260e-01,-4.75508e-01,-2.58605e-02,-1.71135e+00,-4.98847e-01,7.73905e-01,-1.45227e+00,2.12683e-02,-6.00032e-01,3.91070e-01,3.82175e-01,4.76903e-01,-3.62351e-01,-2.19573e-01,-9.99190e-02,5.21437e-01,3.85662e-02,-4.66382e-01,-2.02481e-01,-3.37974e-01,-3.25985e-01,-1.45130e-01,-1.18287e-01,-4.92286e-01,6.16168e-02,-6.94603e-01,-3.44768e-01,1.27917e+00,3.52552e-01,-9.19001e-01,1.57051e-01,4.41864e-01,2.19873e-01,4.78010e-01,1.97750e+00,1.33704e-01,-1.72055e-02,6.08208e-01,-2.68463e-01,-4.90112e-03,
8.74101e-02,7.73380e-01,7.12360e-01,-2.29017e-02,9.90480e-01,-6.99345e-01,-1.41620e-02,-7.69830e-02,-6.01848e-02,3.93878e-01,9.26356e-02,5.58273e-01,-4.60841e-01,2.68765e-01,5.87919e-01,9.20439e-01,7.23316e-01,2.00303e-01,-1.34293e+00,2.66434e-01,-1.15467e+00,2.68761e-01,2.18775e-01,-3.44729e-02,6.55942e-01,-1.70559e-01,-3.75355e-03,-6.16740e-01,-1.37105e+00,-6.52970e-01,1.29253e-01,4.31268e-01,-1.66302e+00,-2.30981e-02,1.55850e+00,3.24352e-01,-3.50477e-01,-3.01811e-01,1.64683e-01,8.49260e-01,-1.47750e-01,1.64689e-01,-5.86206e-01,3.57372e-02,-6.62191e-01,-4.21638e-01,-1.73260e-02,8.29600e-01,-5.70898e-01,1.84903e+00,
-3.96767e-02,-2.65777e-02,-3.61361e-02,-4.32679e-02,-2.47810e-03,-9.83606e-03,-3.09328e-02,-1.95726e-02,-4.43096e-02,4.19791e-02,1.16782e-02,-3.66117e-02,1.06064e-02,2.08100e-02,3.30707e-02,-1.08916e-02,1.80533e-02,3.29533e-03,1.04143e-02,-3.28700e-02,1.54650e-02,-3.89994e-02,-2.23185e-02,-1.71879e-02,-6.07929e-03,4.25956e-02,4.58387e-02,2.09502e-02,5.84566e-03,-6.08294e-02,-5.73590e-02,4.49224e-02,-1.52903e-02,1.79931e-03,-3.27578e-02,-5.74788e-02,7.86928e-03,-3.11051e-02,-3.78343e-02,3.77198e-02,3.69540e-02,-2.02684e-03,-2.77365e-02,-3.68950e-02,1.55604e-02,2.02326e-02,1.39536e-02,-1.17811e-02,7.90253e-03,-7.62045e-04,
2.75533e-02,-5.58210e-01,9.62473e-01,2.08560e-02,-1.10840e+00,5.77173e-02,1.58261e-01,-3.83042e-01,2.55353e-02,5.18709e-01,1.11576e-01,-5.71187e-02,3.71060e-01,3.41153e-01,-5.00688e-02,-1.58879e+00,-3.11298e-01,-7.40074e-01,2.37774e+00,1.39027e-02,7.58513e-02,-1.19201e+00,6.63356e-01,1.11774e-02,2.74179e-01,-7.25550e-02,-3.28522e-02,-2.18549e-01,1.05749e-01,-6.00198e-02,-4.17723e-01,-1.36715e+00,1.22275e+00,-8.65795e-02,1.89089e+00,2.44172e-01,-2.35859e-01,8.04185e-01,-2.55737e-02,-2.83842e-01,-3.20545e-01,-1.71385e-01,3.27686e-01,9.93213e-01,7.60131e-01,5.33812e-01,-2.33451e-02,-2.75054e-01,-5.85784e-01,1.10779e+00,
4.76770e-02,1.04873e+00,8.99609e-01,7.63651e-03,3.81076e-01,-8.43978e-01,1.00837e+00,3.66897e-01,-3.09619e-01,1.67739e+00,7.30405e-03,7.92703e-01,3.09749e-02,1.22533e+00,-1.33870e-01,2.69788e+00,8.96567e-01,-7.58011e-01,-1.62113e+00,1.12551e-01,2.03730e-01,-2.74542e-01,3.01308e-01,-2.77070e-01,1.10779e-01,8.26727e-01,-3.68933e-02,1.54370e-01,-3.24510e-01,-8.74127e-01,2.76030e-01,-5.36311e-01,4.60897e-01,5.26343e-03,5.60681e-01,9.14591e-01,1.04339e+00,-1.51735e-01,6.26199e-02,4.04793e-01,-9.98906e-01,1.07468e-01,6.78356e-01,1.58805e+00,-2.45505e-01,1.28924e-01,-5.06751e-02,3.90175e-01,2.07993e-01,1.57607e+00,
2.03119e-02,1.25728e-01,1.03184e+00,-4.65816e-02,-4.00579e-02,6.17670e-01,-1.98272e-01,9.53825e-01,-3.06455e-01,-1.55983e-01,-9.54766e-02,-1.62446e-01,4.50401e-01,-6.18156e-01,-3.98758e-02,2.85620e-01,7.99610e-02,-8.62305e-03,4.54543e-01,-7.82922e-02,2.30041e-01,-6.14275e-02,-3.37847e-01,-4.10220e-02,1.75147e-01,8.81754e-01,1.47632e-02,3.67325e-01,6.67632e-01,-2.65386e-01,-2.28280e-01,2.51450e-02,2.80153e-01,-2.30248e-02,-6.54188e-01,-1.96520e-01,8.48467e-02,-3.98595e-01,-2.81275e-01,-7.04409e-01,-1.36398e-01,3.59740e-01,8.38524e-01,4.07727e-02,-2.64270e-01,4.12894e-01,-2.22699e-02,-8.98720e-01,-2.48891e-01,7.26000e-01,
2.52666e-02,-8.84454e-02,8.25373e-01,3.41194e-02,8.90083e-01,6.05087e-01,2.03348e-01,-1.03722e+00,-2.45285e-02,1.57448e+00,-3.27659e-01,3.41117e-01,-2.87925e-01,-3.12125e-01,7.31141e-01,-7.60473e-01,3.75256e-01,-2.21601e-02,3.45265e+00,-2.12851e-01,6.87696e-01,1.63805e+00,2.02988e-01,1.57628e-01,-7.24425e-01,-1.32556e+00,2.84280e-02,3.19347e-01,1.20734e+00,4.71975e-01,4.38626e-01,-2.76248e-01,1.45203e+00,1.54262e-03,1.56764e+00,8.52982e-01,8.17257e-01,-9.07219e-01,-8.67896e-01,-5.93557e-01,3.18248e-01,-4.44494e-02,-6.78352e-01,7.76714e-02,1.00105e+00,8.52272e-02,-3.80756e-02,-7.91316e-02,7.47117e-01,6.88960e-01,
3.11444e-02,-1.87895e-01,-9.28225e-01,2.59130e-02,-8.03493e-01,6.67541e-01,4.85728e-01,-3.09375e-02,4.71838e-01,4.69755e-01,-2.36596e-01,3.98683e-01,-4.49943e-01,5.46654e-01,-4.96652e-01,-3.14190e+00,-6.11112e-01,-4.91719e-02,4.77989e-01,3.87178e-01,-1.34190e-01,9.19535e-01,-1.70809e-01,-2.52450e-01,6.48123e-01,1.29710e+00,2.77642e-02,-6.76051e-01,-5.12352e-01,1.13771e-01,2.27526e-01,3.94638e-01,-3.53470e-03,1.50363e-01,2.25481e-01,1.19443e-01,1.35400e-01,-4.45842e-01,-4.39759e-01,6.13089e-01,-1.07990e-01,4.57062e-01,6.58776e-01,6.99066e-01,2.51695e-01,8.07435e-01,-2.54591e-02,-6.64887e-02,-4.73750e-01,-3.12714e+00,
4.49147e-02,-3.77009e-02,-3.38521e-01,-2.03758e-02,5.12759e-01,-1.16038e+00,-4.85784e-01,-8.65151e-01,-4.88984e-01,-4.75902e-01,1.63081e-01,9.26856e-01,-4.21786e-01,2.43705e-01,4.11430e-01,-7.87906e-01,-6.54255e-01,3.72235e-01,1.18983e+00,-1.86688e-01,-7.86428e-01,2.11891e-01,2.22545e-01,6.86906e-02,1.42293e-01,-8.51749e-01,3.35383e-02,5.71613e-01,-3.35875e-01,-3.30443e-01,-1.80770e-01,-3.63897e-01,1.03525e+00,2.55808e-01,3.20943e-01,-4.76807e-02,-2.74081e-01,6.81526e-01,-2.44379e-02,1.17192e+00,-1.78056e-01,-8.90211e-01,-1.25886e-01,4.31848e-02,-1.99486e-01,2.21527e-01,4.49528e-02,-4.73902e-02,-1.98882e-01,1.38203e+00,
-3.33515e-02,-1.00114e+00,9.04517e-01,-4.55133e-02,-7.52569e-01,-4.65228e-01,-1.02116e-01,-1.34258e+00,-1.45502e+00,1.32552e+00,1.34421e-01,2.57845e-01,-1.79775e-01,-6.56452e-02,-6.57121e-01,-3.97830e-01,2.30700e-01,4.03630e-02,1.25732e+00,-3.87658e-01,-4.61222e+00,-8.15648e-01,6.00390e-01,-1.57707e+00,3.49813e-01,4.86167e-01,-4.58610e-03,2.65650e-01,-8.57787e-02,2.81814e-01,6.50709e-01,-2.13697e-01,-7.36792e-01,-6.80084e-01,-1.19926e+00,-3.36949e-01,-1.53816e+00,9.19193e-01,-1.06627e-01,4.58361e-01,-1.84052e-01,9.28051e-01,2.21021e-02,8.61000e-01,-2.90350e-01,-2.69249e-01,-1.43968e-02,-1.67186e-01,-1.63199e-01,-3.70098e-01,
-6.28496e-02,4.67514e-01,-2.22009e+00,1.69743e-02,-2.78414e-01,3.39702e-01,-1.56526e+00,7.95832e-02,3.50373e-01,9.68543e-01,-1.60818e-01,-1.59416e-02,1.90506e-02,1.62327e+00,-8.96642e-02,7.94465e-01,-6.00251e-02,-1.97621e-01,1.21798e+00,4.42833e-01,2.61015e-01,9.07623e-01,-3.49041e-01,1.52641e-01,2.52930e-01,-1.36207e+00,-4.54760e-02,8.58781e-01,6.94586e-01,1.09754e-01,3.33704e-03,-1.79048e-01,1.29887e+00,-4.29772e-01,1.42763e+00,2.18368e-01,-3.53659e-01,3.20636e-01,-4.79132e-01,-1.35645e+00,3.16255e-01,-2.76485e-02,-6.49681e-01,5.75788e-01,-3.98785e+00,-4.99780e-01,-1.89258e-02,1.31601e-02,-3.58187e-02,-1.34522e+00,
2.45108e-02,8.46725e-01,5.88319e-01,-1.22094e-02,5.05736e-01,-1.76243e-01,-1.34267e-01,-4.52375e-01,-2.76983e-01,6.83586e-02,-2.91206e-02,-4.98229e-01,-3.52137e-01,-8.67891e-02,-2.05883e-01,1.19503e+00,5.32268e-01,-1.22789e-01,1.15690e+00,-2.68619e-01,1.70551e-03,9.93752e-02,4.72890e-01,3.22277e-01,2.71792e-01,-6.61086e-01,7.93499e-03,1.57590e-01,-4.22843e-01,-9.40160e-02,2.84602e-01,4.01246e-01,-5.44845e-01,-3.37785e-01,-7.19275e-02,2.16507e-01,-3.01140e-01,-1.54215e+00,-2.24365e-01,4.80455e-01,3.99140e-01,-1.90908e-01,3.35294e-02,-1.11825e+00,9.30149e-01,-6.86053e-01,-4.48980e-02,8.62965e-02,3.34743e-01,3.13468e-01,
1.57215e-01,5.02252e-01,1.52074e+00,3.59921e-02,-4.61200e-01,5.35828e-01,-8.27946e-01,-9.64205e-01,1.64051e+00,2.33944e-01,2.25722e-01,-5.71001e-01,-2.42801e-01,1.88731e-01,-6.62824e-01,-1.64881e+00,-1.30122e+00,1.93036e-01,-3.14918e-01,1.94403e-01,-1.46053e-01,6.33869e-01,-7.34806e-01,-6.06644e-01,-7.40274e-02,-7.93877e-01,2.41417e-02,4.32728e-01,6.09392e-01,5.48500e-01,9.33556e-02,-1.99332e-01,-4.37168e-01,2.16041e-01,1.71124e-01,3.26012e-01,-7.66633e-01,-1.19370e+00,-5.60045e-01,3.42860e-01,1.44888e-01,6.65757e-01,2.92903e-01,4.13412e-02,4.96689e-01,7.07290e-01,4.16727e-02,-3.80043e-01,6.11339e-02,-1.70087e+00,
3.26642e-02,2.05234e-01,-4.55044e-01,-1.76690e-02,1.61207e-01,-2.31728e-01,4.06689e-01,-3.14335e-01,1.99040e-01,2.55617e-01,3.43290e-01,3.50917e-01,3.77326e-01,-3.90610e-02,-7.38994e-02,-1.69377e-01,-7.31704e-02,3.04534e-01,-2.76634e-01,-6.43825e-02,-1.76041e-01,-2.60191e-01,3.54323e-02,1.51225e-01,-2.47174e-01,-3.83498e-01,1.16967e-02,-2.44497e-01,-7.45280e-01,-2.41237e-01,5.74331e-01,3.03424e-01,-6.93318e-01,-6.99350e-02,5.38986e-01,1.13170e-02,-1.38018e-02,1.32182e-01,1.26719e-02,-1.54971e-01,-1.54288e-01,-3.74299e-01,-1.95915e-01,1.25188e-01,1.57481e-01,-2.54144e-01,-1.54150e-02,2.81770e-02,4.47221e-01,5.14148e-01,
-2.63722e-02,-4.50563e-02,2.27082e-01,3.68255e-02,1.26720e-01,5.20209e-01,1.34121e-01,3.07929e-01,-6.41021e-02,5.68126e-02,3.49520e-01,4.50908e-02,1.08020e-01,5.93546e-01,-4.60208e-02,5.30060e-01,2.16279e-01,-9.64465e-02,7.58048e-02,1.54234e+00,-4.98174e-02,-2.98500e-01,3.72878e-01,1.11462e-01,1.22262e-01,2.89238e-01,-2.71627e-02,1.22917e-01,-4.65535e-01,-1.05480e-01,3.36641e-01,1.19685e-01,2.15501e-01,3.82786e-01,-2.80777e-01,-3.35914e-01,1.02634e-01,1.45462e-01,-1.74151e-02,3.89407e-02,-1.52588e-01,2.91477e-01,-8.03166e-02,1.41807e-01,-2.71658e-01,-1.23882e-01,-3.81036e-02,5.90669e-02,-3.46141e-01,4.63818e-01,
2.31942e-02,2.46996e-01,-3.89543e-01,2.60446e-02,-1.15688e-01,5.97483e-01,9.37764e-01,-5.03829e-01,-5.17707e-01,3.46065e-01,6.55958e-01,-1.51635e-01,-8.08712e-01,2.71455e-01,-2.68874e-01,-4.91552e-01,-1.76822e-02,-1.69507e-01,-1.60164e-01,1.13907e+00,-6.57424e-02,-6.37872e-01,8.89133e-01,9.52127e-01,1.82971e-01,3.26085e-01,-1.59661e-02,3.99784e-01,-7.10758e-01,-5.05764e-01,6.75400e-02,6.91064e-01,1.95359e-01,-6.25141e-03,-3.89256e-01,-1.97211e+00,1.08993e+00,1.33230e+00,2.11444e-02,-2.26934e-01,6.21589e-02,4.55070e-01,1.16270e-01,5.28140e-02,-3.20207e-01,-1.75695e-01,-3.49748e-02,-8.50173e-01,1.89569e-02,2.40168e-01,
1.43499e-01,-9.34142e-01,-1.71756e+00,-3.96080e-02,-6.00923e-01,-5.84690e-01,-3.13263e+00,3.88165e-01,4.57934e-01,-4.63438e-01,4.60420e-01,-2.34306e+00,2.56414e-03,7.86622e-01,-1.24980e+00,-1.22837e+00,-4.51427e-01,2.26205e-01,-6.69245e+00,3.41403e-01,-6.56603e-01,-6.18478e-01,-6.91488e-01,-6.25102e-01,1.42287e+00,1.47463e+00,-2.86932e-02,-1.30472e+00,-4.47462e+00,-2.82231e-01,-9.61634e-02,1.74749e-01,-1.42805e+00,-3.48074e-01,-2.21434e-01,3.94339e-02,-7.18539e-01,1.45245e+00,2.53789e-01,3.31709e-01,-8.55802e-01,7.11578e-01,4.93753e-01,-2.05861e-01,-8.68376e-01,1.05082e-02,-3.11952e-03,-1.50815e-01,-1.56076e+00,1.35198e+00,
2.67897e-03,-4.07364e-01,4.36070e-02,1.69937e-02,-1.27517e-02,6.47118e-01,1.37174e+00,7.12330e-01,2.32186e-01,3.11325e-01,4.41834e-01,-4.42478e-01,2.29224e-01,2.39196e-01,-3.64546e-02,1.07340e+00,-1.99433e-01,2.80523e-01,2.88695e-01,-3.27938e-01,4.22150e-01,1.06453e+00,7.08914e-01,-3.78897e-01,-3.27936e-01,2.24925e-01,-1.77474e-02,5.03724e-01,1.94814e-01,9.20623e-01,-8.17012e-02,-2.42328e-01,1.36282e+00,-6.48084e-02,1.06907e-01,-1.00440e+00,1.57300e-01,-6.17661e-01,5.18906e-01,-5.14589e-01,6.48181e-02,-4.68372e-01,2.45292e-01,8.37206e-01,5.64926e-01,-3.59605e-01,6.88032e-02,-1.11765e-01,3.39965e-01,-4.18826e-01,
4.06464e-02,2.77341e-01,8.95968e-01,-1.41757e-02,-4.41300e-01,2.89191e-01,-4.41296e-01,-6.74264e-01,8.56547e-01,-5.61390e+00,4.98963e-02,-3.95757e-01,9.58976e-01,-3.62480e+00,-2.75194e+00,-6.73796e+00,6.97949e-01,-1.40927e+00,-9.89259e-01,4.74585e-01,-8.55652e-01,-2.34305e+00,5.15119e-01,7.72490e-01,-1.83673e+00,1.75751e+00,-9.58602e-03,2.68839e-01,-2.64626e+00,8.17519e-01,-8.19599e-01,4.42508e-01,3.58692e-01,-1.17041e+00,-2.50566e+00,-1.84144e-01,-3.41022e+00,9.86272e-01,1.73448e+00,7.84704e-01,1.53805e+00,-6.53318e-01,-7.95798e-01,-3.36616e+00,1.71528e+00,-1.63174e+00,-1.66163e-02,-1.82214e-01,3.58271e-02,2.86236e+00,
4.94232e-02,1.11721e+00,4.62816e-01,-2.80830e-02,-9.30469e-01,2.00530e-01,-1.14883e+00,3.54377e-01,-9.90677e-01,7.60357e-01,-1.52279e-02,-1.22343e+00,2.25831e-01,-1.03288e+00,3.13443e-01,2.19941e+00,-2.85765e-01,-6.41258e-01,1.47723e+00,-1.37088e-02,4.45723e-02,2.01284e-01,-2.47431e-01,-3.46527e-01,2.62247e-01,-4.15638e+00,1.43156e-02,4.85421e-01,4.14071e-01,-3.62569e-01,4.64399e-01,1.31503e+00,-7.49968e-01,-3.18994e-01,4.02574e-01,1.35202e-01,1.28470e-01,2.11194e+00,1.06732e-01,9.14076e-01,1.46248e-02,4.99191e-01,-1.13988e+00,7.35341e-02,4.20358e-01,-2.95743e-01,-2.53498e-02,4.57435e-01,3.71132e-01,3.11241e-01,
5.93240e-02,1.85269e-01,4.23171e-01,-1.15103e-02,-4.48547e-01,-8.66756e-01,-1.39369e-02,-1.31546e+00,8.93875e-01,1.97553e+00,5.55270e-01,-2.78429e-01,-4.95918e-02,1.02319e+00,-7.73439e-01,-1.38527e+00,-8.31451e-01,2.83820e-01,1.81391e-01,-1.96604e-01,3.85480e-01,-3.55798e-01,-2.06683e-01,1.08570e+00,1.32611e-01,-3.83174e+00,1.79814e-02,2.97181e-01,-4.81208e-01,-3.67430e-01,-3.95526e-03,-9.19707e-01,1.73878e+00,5.43197e-02,3.64275e-01,3.96526e-01,6.33511e-01,2.40034e+00,-2.38278e-02,-1.28709e+00,-5.57588e-02,-7.50147e-01,1.85096e-01,1.46424e-01,-2.28252e-01,6.45253e-01,3.83877e-02,4.47683e-01,4.75502e-01,4.78577e-02,
1.45703e+00,
2.69341e-01,
-2.34063e-02,
-1.55863e+00,
-5.78284e-01,
-7.99029e-01,
-1.99558e+00,
-2.19429e+00,
-2.36774e-01,
-7.19871e-01,
-1.07470e-01,
-1.54881e+00,
-1.01874e+00,
-3.28845e-01,
-1.91800e+00,
-1.38178e+00,
-1.72134e+00,
-1.36270e+00,
-7.11070e-03,
-8.58007e-01,
2.33023e-01,
6.19696e-01,
4.78331e-01,
-1.48737e+00,
4.99203e-01,
1.54994e-01,
-7.22414e-01,
-9.49382e-01,
7.88308e-02,
6.66451e-01,
2.49839e-01,
-3.07759e-02,
6.04834e-01,
-1.92368e+00,
-3.33158e-01,
-5.80324e-01,
-4.22525e-01,
-1.35871e+00,
-5.05814e-01,
-1.09911e+00,
2.45720e-01,
-1.05998e+00,
1.05678e-01,
-5.12559e-01,
-5.38860e-01,
3.35861e-01,
-2.21011e+00,
1.14690e+00,
-2.13619e+00,
-1.10200e+00,
-4.12003e-02,-1.46613e-01,-2.19159e-02,-4.40254e-01,-4.78991e-01,2.61086e-01,3.55097e-01,-6.22564e-01,2.67499e-01,-1.13198e-01,1.79594e-01,4.75375e-01,4.60785e-02,-7.51298e-02,-1.55352e-01,2.28868e-01,2.82416e-01,-1.28954e-01,-2.12332e-02,-2.53260e-01,-9.41093e-02,-2.88179e-01,2.82565e-01,7.05665e-04,4.58617e-03,-2.31582e-02,-3.08298e-01,-2.43528e-01,-1.20817e-01,-6.22100e-02,-9.18511e-02,-1.01018e-02,8.03923e-02,-3.21181e-01,4.73543e-01,-4.16210e-01,-3.97591e-01,6.50881e-01,-1.06441e-01,8.54112e-02,4.81809e-01,2.65921e-01,3.64941e-01,9.32133e-02,-3.61971e-01,1.55526e-01,3.17380e-01,3.43633e-02,-8.10169e-02,4.92975e-01,
-6.72981e-01,-1.25704e+00,-3.10053e-02,-4.32949e-01,6.81671e-01,8.38861e-01,-2.45971e-01,-5.72594e-01,-1.34901e-01,-5.73777e-01,-2.05167e-01,1.48021e+00,-1.38890e+00,4.61584e-01,1.03627e+00,2.70574e-01,-1.17312e+00,-1.36357e-01,-9.28576e-03,-5.99867e-01,-5.53534e-01,-5.80754e-01,4.30252e-01,-3.34720e-01,1.72898e-01,2.68427e-01,-3.70870e-01,2.44594e-02,-7.23528e+00,-3.61532e-01,2.69087e-01,3.82893e-04,1.59371e+00,1.85643e-01,3.84116e-02,6.30365e-02,-3.33781e-01,4.13065e+00,1.31566e+00,1.11228e-01,-9.12409e-01,9.32060e-01,-5.03356e-01,-4.70129e-01,-3.65098e-01,-1.58169e+00,2.99055e-01,2.55861e-01,2.82407e-01,1.96877e+00,
-2.31785e+00,-1.68464e+00,1.40122e-03,2.16974e-02,2.13038e+00,-3.42779e-01,5.99226e-01,-1.02479e+00,4.95305e-01,-1.18905e+01,1.79515e+00,1.23678e+00,-1.25495e+00,2.74786e-01,-1.28910e+00,-6.76867e-02,-7.57724e-01,-2.22685e-01,2.58622e-03,-7.45557e-01,4.29346e-01,-1.43406e+00,-1.42921e-01,-2.18387e+00,-1.25197e+00,-4.46666e-03,-4.23340e+00,-2.43940e+00,-2.39950e+00,-6.71171e-01,-5.82658e-02,3.96205e-02,1.40034e-01,1.39835e-01,2.72384e-01,2.53377e+00,3.63746e-01,-5.13394e-02,2.65174e+00,1.44995e+00,-2.44599e+00,-4.97190e-01,-7.08137e-01,-1.27342e+00,-1.93876e+00,-5.78197e-01,-7.35201e-01,7.10675e-01,-6.81904e-02,-1.58587e+00,
-5.61006e-01,-2.79918e-01,-7.89201e-03,3.01920e-01,-1.22217e-01,5.37730e-01,5.40611e-01,3.45110e-01,-1.08747e+00,-9.59635e-02,3.06014e-01,3.80852e-01,8.95399e-01,1.30325e+00,-2.46503e-01,-7.51731e-02,3.79790e-01,3.67210e-01,-1.13254e-02,1.16294e-01,3.61876e-02,-5.93714e-01,-2.41776e-01,5.03629e-01,-6.83730e-01,-6.21525e-01,3.33547e-01,1.18395e-01,-1.06383e+00,1.13029e-01,3.08295e-01,7.86085e-03,1.41432e+00,-4.24384e-01,-2.53840e-02,-4.87590e-01,-2.51291e-01,3.64752e-01,-2.37117e+00,-1.59754e-02,-3.21640e-01,5.85279e-01,3.95428e-01,5.91140e-01,-8.01824e-01,-4.04185e-01,-5.92609e-01,6.30297e-02,4.87376e-01,2.66521e-01,
-2.52721e-01,-1.63999e-01,-4.18725e-02,-5.71578e-02,2.84879e-02,8.26892e-01,1.32400e-01,1.66036e-02,2.68199e-01,1.25716e-01,4.09387e-01,8.57956e-02,3.61234e-01,7.72367e-01,4.35813e-01,-2.98880e-01,1.24528e+00,8.45691e-02,-2.70924e-04,-1.02153e-01,8.70389e-02,4.28351e-02,3.18213e-02,1.68746e-01,-8.35885e-03,1.68277e-01,1.46406e-01,4.06429e-01,-2.24335e-01,3.29497e-02,-2.47012e-01,-2.99756e-02,-2.74669e-01,1.15099e+00,6.54459e-01,-2.39225e-01,-4.00689e-01,-5.01208e-01,8.20837e-01,3.24116e-01,-1.53721e-01,-4.61654e-02,1.60749e+00,3.85441e-01,-9.16673e-01,-5.66915e-02,-3.46096e-02,2.15934e-02,6.20291e-01,-3.12381e-03,
1.93831e-01,-2.88448e-02,-3.85011e-02,-3.76394e-01,7.67038e-02,2.27313e+00,3.08860e-01,6.86222e-01,-1.24005e-01,3.71037e-03,-1.77262e-01,5.78886e-01,2.36740e-01,-2.15177e-01,-5.46588e+00,-6.47818e-01,-1.48115e+00,-1.23291e-01,4.07749e-02,1.64497e-01,-1.21703e-02,1.73443e-01,-4.14392e-01,1.68587e-01,4.84745e-01,7.39767e-02,3.46322e-01,7.96348e-01,1.57618e-01,9.81277e-02,-4.01908e-01,1.53099e-02,9.65566e-02,-4.15328e+00,-4.98517e-01,3.95732e-02,2.63352e-01,1.32445e-02,-4.09980e-01,-1.41873e-01,-1.03307e-01,-3.44112e-01,4.74127e-02,-1.08863e-01,-3.03421e-01,2.49374e-01,-1.10101e+00,2.24671e-01,8.46204e-01,5.82390e-01,
-1.82961e-01,5.50986e-01,-3.53637e-02,-7.48390e-02,2.76404e-01,8.59482e-01,4.99295e-01,-9.48760e-01,1.74093e+00,-8.65658e-01,-4.70064e-01,-1.88348e+00,-1.78797e-03,2.80296e-01,1.28586e-01,3.74666e-02,1.98433e+00,9.56358e-02,2.59428e-02,-6.35617e-01,-7.11025e-01,-6.83149e-01,1.15835e-01,-2.10935e-01,-2.14984e-01,-1.69333e-01,-6.10165e-01,-2.50756e-01,-6.56489e-01,-8.76949e-02,-7.50979e-01,-3.79123e-02,2.93572e-01,-1.82851e-01,-2.27752e-01,8.08665e-01,-2.89692e-01,2.28065e+00,8.93664e-01,-2.65768e-01,1.06751e-01,-1.42304e+00,1.07093e-01,8.50660e-03,-7.27736e-01,9.74603e-01,5.42963e-02,3.01937e-01,9.28237e-02,9.61727e-01,
-4.75522e-01,-4.07419e-01,7.84457e-03,1.44101e-02,7.16141e-02,-2.04887e+00,-7.32985e-01,-6.07681e-01,1.22513e+00,-6.04271e-01,-1.27865e-01,1.98785e-01,4.05344e-01,6.12904e-01,-4.65541e+00,4.25844e-02,-8.45635e-01,-6.45049e-02,-4.31051e-02,2.37266e-01,-4.66246e-01,1.74831e-01,-1.51841e-01,2.72456e-01,-2.54856e-03,-3.52209e-01,-4.95799e-01,2.28113e-01,-4.83960e-02,1.55089e-01,-1.91414e-02,1.00362e-02,1.05149e-01,5.51041e-01,1.17025e+00,-3.03575e-02,-7.08086e-02,-3.80812e-01,1.10956e+00,-9.75064e-01,-2.61116e-01,-2.63428e-01,1.02801e-01,6.83123e-02,1.07427e-01,-5.97993e-03,-1.81213e-02,-2.77932e-01,1.28287e-01,1.02481e+00,
8.86579e-02,-5.86457e-02,-1.93147e-02,-7.49331e-02,-4.02175e-01,-1.59888e-01,4.87562e-01,3.18123e-01,-4.50727e-02,1.25798e-02,-2.18126e-01,-1.43420e-01,5.23481e-01,-1.40516e-01,1.01938e-01,1.22272e-01,-1.36948e+00,-3.80283e-01,-1.96227e-02,-3.82572e-01,-1.50370e-02,-8.69793e-01,3.07132e-01,7.79704e-01,1.51398e-01,3.77632e-01,1.46484e+00,4.95496e-01,-6.75053e-01,4.37630e-02,-4.76690e-02,-8.38481e-03,5.19966e-01,-2.57095e-01,6.24575e-02,-7.32699e-01,-6.44494e-02,6.55297e-01,3.49787e-01,5.20746e-01,1.93145e-01,-4.43983e-01,3.44755e-01,-3.17439e-01,4.17808e-01,-6.06162e-01,3.86447e-01,-4.51053e-01,-1.40266e-01,4.13436e-01,
2.05635e-02,1.56530e-01,1.97986e-03,1.08779e-01,-1.45250e-01,-8.29316e-01,2.92297e-01,-4.58918e-01,6.85026e-01,-1.87028e-01,1.06944e-02,6.29093e-02,-2.14102e-01,4.98035e-01,-1.57600e-01,2.02076e-01,-6.26768e-01,6.60744e-02,-1.06175e-02,2.66045e-02,-7.34180e-02,3.78286e-02,2.80262e-01,4.57700e-01,2.83817e-01,-2.09679e-01,-5.33746e-03,3.17651e-01,1.70677e-01,3.75875e-01,4.60483e-02,9.45585e-03,3.32331e-02,5.94389e-01,1.68726e-03,-9.06016e-03,-1.70803e-01,-6.59325e-02,4.85251e-01,2.84806e-01,-2.43534e-01,-2.19213e-02,2.56262e-01,1.23265e+00,-1.72419e-01,1.26110e-01,-7.76587e-02,3.52132e-01,2.12195e-01,1.82053e-01,
8.23470e-01,7.86213e-01,-1.49732e-03,3.48474e-01,3.50951e-01,1.78498e-01,-7.89952e-01,1.05520e+00,4.70811e-01,8.76571e-01,8.88906e-02,-4.87903e-01,-5.04897e-01,-1.64797e+00,-1.03313e+00,1.85272e-01,-1.55373e-03,1.58306e-01,4.39805e-02,-1.37035e-01,6.67762e-01,4.24551e-02,-1.95848e-01,1.81609e-01,-5.57328e-01,-5.05579e-01,2.84297e-02,2.44253e-01,7.52932e-01,3.39868e-01,2.10049e-01,2.69783e-02,-8.20648e-02,-1.06853e+00,1.47646e-01,-9.75448e-02,1.57816e-01,5.09327e-01,-8.40709e-01,-8.72783e-01,3.51617e-01,5.00885e-01,4.46985e-01,-1.22780e-01,4.69084e-01,-6.41662e-01,-8.15740e-01,-1.50257e-01,7.94219e-01,3.62588e-01,
3.10520e-01,8.28132e-02,-7.68958e-03,1.20916e-02,-5.36507e-02,-4.83575e-01,-1.72763e-02,7.72733e-02,-1.67908e+00,-5.78772e-02,2.76608e-01,9.32815e-01,1.24808e+00,1.62672e-01,-9.35752e-01,-3.57310e-01,1.25103e+00,8.56716e-02,-2.53766e-03,1.20450e-01,1.45997e-01,1.15185e-01,-1.84410e-01,7.08866e-02,1.36001e-03,5.21328e-01,2.79799e-01,3.07957e-01,-2.38601e-01,3.08117e-01,2.90726e-01,5.02311e-03,-3.59700e-01,4.35785e-02,-3.82470e-01,1.88687e-01,8.06336e-02,6.10999e-01,-4.01327e-01,-6.42320e-02,-4.72156e-02,3.65918e-01,7.01879e-02,2.50074e-01,-4.65598e-02,6.09411e-01,-6.88336e-02,-3.03580e-01,-1.06500e-02,3.01491e-01,
-8.02872e-03,1.12412e-01,-5.01750e-02,7.77356e-02,4.03121e-01,-2.57811e+00,-1.62097e-01,-1.14583e+00,5.74435e-01,-2.10654e+00,6.56452e-02,7.81698e-01,-1.04381e+00,-7.71368e-02,-3.01597e+00,-1.08589e-01,-2.68711e+00,6.49033e-01,-1.03923e-02,5.51951e-01,-1.73000e-01,1.41156e-02,-1.71284e-01,-9.25207e-01,4.53308e-01,9.26571e-02,-3.37672e-02,1.86623e-01,1.59096e-01,-3.02488e-01,-3.84323e-01,-3.84153e-02,-8.61728e-02,7.18745e-01,4.77888e-01,-4.82100e-01,-3.74231e-01,5.38450e-01,-3.75629e-01,-5.56130e-01,4.14503e-01,7.67004e-02,-5.37331e-01,2.71399e-02,2.18417e-01,5.68530e-01,6.57880e-01,-6.71182e-02,1.66623e-01,-4.65793e-01,
-3.72654e-01,-5.07603e-01,9.13653e-03,5.65123e-01,6.57245e-02,5.50228e-01,-1.11215e-01,-4.59741e-01,9.44401e-01,3.70133e-01,2.66740e-02,5.21757e-01,2.92873e-01,-1.72195e-01,2.98785e-01,-2.57048e-01,-1.21059e+00,2.44161e-01,-3.03440e-02,2.15516e-01,3.04493e-01,-9.04359e-03,-7.28127e-02,7.62515e-01,-6.58792e-01,-3.77505e-01,2.77671e-01,-5.98690e-02,-6.80825e-01,8.06515e-01,1.96046e-01,4.49822e-02,-1.24822e-01,8.41644e-01,5.86378e-02,1.83814e-01,-3.84759e-01,-2.91413e-01,1.23389e-01,-8.09637e-01,-6.46221e-01,1.39414e-01,8.04287e-01,1.47147e-01,-7.84149e-01,1.85742e-01,3.09304e-01,2.90673e-01,4.44657e-02,1.04059e-01,
9.05815e-02,1.57733e-01,1.85523e-02,-2.19369e-01,1.46137e-01,9.16858e-01,9.64638e-02,8.18002e-02,-9.32452e-01,3.80589e-01,2.36612e-01,5.47965e-01,-5.42825e-01,-4.90217e-01,5.23778e-01,3.35461e-01,-1.17113e+00,3.79965e-02,-1.06929e-03,-1.85438e-01,7.38244e-02,-2.21191e-01,2.37103e-01,-4.52448e-02,3.03340e-01,-9.10598e-01,-3.56653e-02,-1.20895e-01,1.58756e-01,9.61462e-02,-4.01487e-01,4.51336e-02,3.64529e-01,3.36405e-01,3.56445e-01,-1.64659e-01,-3.87517e-02,-7.69673e-01,3.43511e-01,5.73403e-01,1.24257e-01,-3.51264e-01,4.57655e-01,1.83115e-02,-6.06587e-01,1.52875e-01,-9.21701e-02,1.50104e-01,1.67217e-02,-6.40518e-01,
-9.80658e-02,-5.83259e-02,5.56981e-02,7.71844e-02,-2.52167e-01,-1.32095e-01,1.99549e-02,-4.18633e-01,-1.14373e-01,-1.49893e-01,-7.12409e-02,1.07116e-02,-3.20967e-02,1.61119e-01,-6.38533e-01,-4.43651e-02,-2.35008e-01,-7.72046e-02,4.89001e-03,-6.07082e-01,1.23947e-01,1.02200e-01,-1.76190e-01,3.22331e-01,-5.71022e-02,-1.93883e-01,-3.63283e-02,1.06111e-01,6.32248e-02,6.63165e-01,2.24878e-01,3.35504e-02,4.50598e-01,3.03464e-01,-1.02729e-01,-1.55321e-01,-9.84363e-02,4.46400e-01,2.15253e-01,-5.91004e-01,-5.86587e-03,4.55559e-01,2.97653e-01,7.25331e-02,-1.15531e-01,-2.30952e-01,-3.96401e-01,-1.37280e-02,2.69180e-01,-3.09813e-01,
4.22712e-02,4.46500e-01,1.78555e-02,-4.40287e-01,2.60268e-01,2.58893e-01,-1.63109e+00,-1.66339e+00,-2.29931e+00,-2.36292e-01,5.45082e-01,8.76073e-01,-2.39330e+00,-1.87350e+00,-6.78433e-01,2.76876e-01,1.26088e+00,6.97001e-01,1.42166e-02,-7.11306e-01,-1.46911e-01,-7.94925e-01,-2.87707e-01,2.34147e-01,8.38902e-02,-1.49441e-01,1.39353e+00,1.13356e+00,2.92017e-01,3.61566e-01,-2.63837e-01,-5.24168e-02,-3.64390e-01,-1.12916e+00,3.52070e-02,1.22581e-01,-5.79156e-01,-7.02896e-01,1.40941e+00,7.88174e-01,2.29599e-01,-2.53510e-01,1.71606e-03,2.69971e-02,-1.58286e-01,5.27239e-01,5.26549e-01,3.10068e-01,-1.85556e+00,1.68673e+00,
3.18924e-01,1.13863e-01,-2.26340e-02,1.49447e-02,-3.67745e-01,6.78926e-01,-2.42319e+00,-1.27457e+00,-8.25832e-01,-1.68694e-01,2.51784e-01,-5.98039e-02,5.55725e-01,9.66509e-01,-4.81676e+00,3.10158e-01,-1.39058e+00,9.39115e-01,-4.65427e-02,4.10812e-01,1.40553e-01,1.41226e-02,-4.19270e-01,7.59356e-01,8.03597e-01,-7.50072e-01,4.60870e-01,6.42708e-01,-8.72968e-01,5.80699e-02,-4.25236e-01,-4.34714e-02,1.14326e-01,-1.11157e+00,3.03950e-01,-5.51973e-01,-5.14415e-01,-8.18104e-01,-1.46804e+00,4.37500e-01,6.26592e-01,7.25257e-02,1.16016e-02,-5.66211e-02,-3.54301e-02,-1.08441e-01,-2.72925e-01,-5.79777e-01,-6.63102e-01,-4.13141e-01,
-8.21544e-01,-8.88400e-01,2.35792e-02,4.71686e-02,-8.31512e-01,7.15794e-01,7.42363e-02,2.31571e+00,1.18446e+00,-3.40978e+00,5.66546e-01,-1.07446e+00,1.55764e+00,5.27379e-01,-1.18298e+00,-1.24994e+00,-1.03030e+00,-9.02716e-01,4.31713e-03,3.71092e-01,4.95911e-01,-4.55390e-01,-2.18181e-01,1.38121e+00,-4.77840e-01,-9.76998e-03,-2.27165e-01,-1.01959e+00,-5.25302e+00,1.37777e-01,3.82551e-01,-2.88967e-02,3.24176e-02,5.68784e-01,-3.19714e-01,-1.75956e+00,1.57591e-01,4.09851e-01,5.13614e-01,-5.24269e-01,1.20357e+00,-4.15512e-01,-5.48972e-02,-4.17382e-02,-9.34967e-01,4.96554e-01,8.00231e-01,5.76458e-03,3.58233e-01,-3.57849e-01,
-3.55945e-02,1.07423e-01,4.89787e-02,-6.96974e-02,3.42726e-02,4.52380e-01,-4.74905e-01,-7.88873e+00,1.17411e-02,-1.43338e-01,2.73594e-01,7.27525e-02,4.12910e-01,-9.67314e-01,-4.01779e-01,-2.26777e-02,8.96633e-02,-2.24715e-01,5.04441e-02,-6.67670e-03,-2.84227e-02,-8.43331e-02,-1.24049e-01,8.21002e-01,4.87085e-01,3.22476e-02,6.83943e-02,-1.80876e-01,-1.33030e-01,-4.25603e-01,5.92833e-02,6.99904e-03,-8.94622e-02,-5.78391e-01,-1.05838e+00,-6.25372e-01,2.46827e-01,-2.68194e-01,-4.79037e-01,-2.38489e-01,4.20808e-01,1.23303e-01,-7.52305e-02,-1.89979e-01,-1.74181e-01,3.45173e-03,-1.35167e+00,-1.01775e-01,1.27800e+00,3.81648e-01,
4.00053e-01,-6.46748e-03,2.58574e-02,7.29059e-02,3.75753e-01,-1.53491e+00,4.18226e-01,-3.74299e-01,-2.87301e-01,-2.28820e-01,3.75662e-03,9.53605e-02,-6.49635e-01,-1.82933e-01,1.63323e-01,4.31688e-03,9.40725e-03,5.50963e-01,-2.05854e-03,-7.41906e-02,4.16127e-01,-1.96867e-01,-6.32711e-01,-7.60724e-01,-2.18152e+00,-3.64511e-01,-1.77411e+00,-8.68892e-02,-3.34634e-01,7.08248e-01,-8.58472e-01,4.90562e-02,4.21469e-01,5.49677e-01,3.11863e-01,1.15608e+00,-3.95245e-01,7.21081e-01,-8.00488e-01,-1.42099e-01,3.88593e-01,-3.56762e-01,5.21502e-01,4.19393e-01,-6.13617e-01,-4.24557e-01,-1.92195e-01,2.19025e-01,1.50443e-01,1.54815e+00,
2.22510e-01,4.79256e-01,4.58860e-02,3.79311e-01,-3.96892e-02,-4.83972e-01,7.21135e-01,-1.70046e+00,-1.77504e+00,-1.08206e-01,8.83340e-01,3.57776e-01,-1.71287e+00,3.75506e-01,2.36259e+00,1.80783e+00,1.65227e+00,1.44993e-01,-1.19839e-02,-3.96931e-01,-6.92720e-01,-1.19227e-01,1.38383e-01,-2.59682e-01,4.82653e-01,-6.55839e-01,-9.34632e-01,-5.56828e-01,-4.37913e-01,-6.69655e-01,-3.98090e-01,4.10783e-02,-1.14373e-01,-5.59518e-01,-1.64553e-02,9.16781e-01,-2.71358e-01,-1.22231e-01,3.13090e+00,7.54794e-02,-4.61862e-01,-2.92919e-01,2.28049e-03,-6.22983e-01,-1.21576e-01,-1.18294e+00,2.32601e-01,5.20552e-01,-4.01744e-01,2.21774e+00,
1.62620e-01,4.08640e-01,-4.40149e-02,-3.50954e-01,9.04376e-02,-7.05996e-02,-1.77951e+00,2.80265e+00,5.80583e-01,4.18616e-01,3.53404e-01,-4.48179e-01,-5.68478e-01,-1.01776e+00,5.24302e-01,-3.90044e-01,1.05115e+00,1.36342e+00,-5.43398e-03,-4.12391e-01,4.46903e-01,-6.33763e-01,-2.05192e-01,3.14290e-01,-3.66341e-01,-7.95749e-02,4.87354e-01,-4.24789e-01,4.02989e-02,-4.95195e-01,8.63596e-02,-1.07671e-02,5.47586e-01,2.11195e-01,6.95524e-01,-3.25593e-01,-6.42180e-01,-4.30113e-01,4.01528e-01,9.56332e-01,-2.98749e-01,-4.66818e-01,2.08807e-01,-9.98704e-02,8.40033e-04,1.33128e-01,-1.84980e+00,-5.71782e-01,8.79653e-01,1.13947e+00,
3.40662e-01,6.98539e-01,-2.48548e-03,1.48720e-01,8.21290e-01,6.11196e-01,3.23582e-01,-1.46036e-01,8.50044e-01,-4.42901e-01,6.74929e-01,8.89947e-01,1.98606e+00,-3.58523e-01,2.03127e+00,2.33478e-01,4.15674e-01,-7.46369e-01,-3.84060e-03,6.47431e-01,-9.46216e-02,6.20018e-01,-6.16922e-01,5.58154e-01,-1.62021e+00,-9.33356e-02,-6.47870e-01,-1.67534e+00,4.38959e-01,-2.76947e-02,-3.87467e-01,-2.20979e-02,-2.25418e-01,3.73632e-01,-6.14858e-01,1.01683e+00,9.05579e-01,2.57863e+00,-1.25751e+00,-9.44721e-02,-1.04140e+00,5.21748e-01,1.74807e-01,-1.66258e+00,-8.55124e-01,9.47886e-01,8.18210e-01,1.04327e+00,-1.85024e+00,4.43875e-02,
2.34458e-02,-2.29005e-02,-4.58420e-02,-1.30180e-03,2.96201e-02,1.17318e-02,-9.05400e-03,2.29114e-02,-4.73720e-02,8.80446e-03,3.23989e-02,3.65329e-02,2.45853e-03,1.46169e-03,-3.61461e-03,-3.35139e-02,8.28544e-03,3.91685e-03,2.09142e-02,-4.54881e-02,2.01524e-02,-5.33549e-02,1.43720e-02,4.59919e-02,-4.05437e-02,-5.39241e-02,-4.04442e-02,-4.27703e-02,-2.31244e-03,-1.51336e-02,1.40865e-02,-1.11574e-02,-2.18292e-02,-8.28178e-03,-2.47711e-02,-7.03242e-03,-5.02891e-02,-1.57726e-02,3.70975e-02,-4.00866e-02,-6.81101e-03,-3.88539e-02,-2.43062e-02,-5.22015e-02,-3.25919e-02,-3.13104e-02,-3.66241e-02,-1.10744e-02,-4.24664e-02,-1.30684e-02,
1.84177e-01,3.56213e-02,-3.96701e-02,-6.68446e-01,-9.19725e-01,1.58854e-01,-6.71704e-01,-9.51186e-01,1.09262e+00,1.45853e-01,-1.09970e-01,7.76961e-01,2.94122e-01,9.22722e-02,-4.38797e-01,4.86645e-01,2.82337e+00,9.33451e-01,-2.70200e-02,-4.87686e-01,-3.27396e-01,-3.10485e-03,3.31070e-01,3.64579e-01,-8.26598e-01,5.31314e-01,4.43156e-01,1.06343e+00,-7.38157e-01,9.11960e-01,-2.90921e-01,4.23269e-02,7.17594e-01,4.69612e-02,7.40461e-02,-4.36893e-01,-1.18642e+00,1.55411e+00,2.99958e-01,7.38450e-01,-3.66210e-01,-2.25178e+00,-4.03199e-01,2.52948e-01,-4.35922e-01,3.77398e-02,2.38311e-01,2.80732e-01,-1.36952e+00,1.57557e+00,
-1.12767e+00,-1.05213e+00,-4.05501e-02,3.56804e-01,-2.88722e-01,-1.22155e+00,-1.41265e-02,5.23248e-01,-5.26652e-01,8.31505e-02,-2.80123e-01,6.88614e-01,7.84860e-01,5.48633e-01,9.73125e-01,-2.99417e-01,-1.75360e-01,-2.89818e-01,1.57541e-02,5.66557e-04,2.96621e-01,-6.49004e-01,2.22404e-01,2.78554e-01,5.09224e-01,-6.13107e-01,2.64500e-02,-1.56123e-01,1.14940e-01,6.05725e-01,7.30756e-02,3.69533e-03,8.25007e-01,4.71985e-01,3.68128e-01,-4.67375e-01,1.68389e-01,1.57400e-02,-7.22289e-01,-2.04243e-01,3.39676e-01,-1.85172e-01,-1.06192e-01,-2.25435e-01,-3.09329e-01,-4.86709e-01,-9.31970e-02,2.25139e-01,3.18823e-01,4.33904e-01,
-3.89127e-01,2.79417e-01,-4.52778e-02,-1.36763e-01,-1.31123e-01,7.00743e-01,-8.19003e-02,3.18712e-01,-1.74609e+00,-8.58184e-01,2.56925e-01,-1.22317e-01,-5.54858e-01,1.80570e-01,9.33486e-02,1.16409e+00,-7.74536e-01,-2.73173e-01,-6.38104e-03,-2.40113e-01,-8.19791e-02,-3.20260e-02,-3.52888e-01,3.33783e-01,7.95027e-02,1.99541e-01,1.97626e-01,2.55279e-01,-5.41783e-01,8.17633e-01,-2.55325e-01,3.88465e-02,2.23792e+00,-5.77991e-01,-8.26271e-03,1.07877e-01,3.55891e-02,1.81146e-01,-6.77992e-01,-2.53705e-01,5.58843e-02,-2.80290e-01,8.62068e-01,-6.49132e-02,-2.89249e-01,3.77909e-01,5.70213e-01,-1.61208e+00,-5.75176e-01,-1.35481e+00,
-2.15046e-01,1.18735e-01,-6.99969e-03,1.22820e-01,2.39032e-01,-1.26146e-01,1.39952e-01,-3.02973e-01,8.69286e-01,2.13559e-01,-9.23476e-01,9.10631e-01,5.44304e-01,4.24624e-01,-1.19792e-01,4.08554e-01,-3.81558e-01,-2.51318e-01,-6.69130e-04,3.63035e-01,1.32085e-01,-2.13008e-01,-3.95668e-01,8.58016e-01,-2.48090e-02,-1.01100e-02,1.11031e+00,6.17825e-03,-1.45169e+00,-2.26522e-01,-2.68677e-01,-2.18958e-02,-2.83359e-01,5.73738e-01,4.91202e-02,-3.67802e-01,-5.71015e-01,-6.14365e-01,1.04087e+00,3.69844e-01,-1.08542e-02,3.68867e-01,-1.43179e-01,4.36400e-01,-3.12061e-01,-3.16075e-01,-3.64703e-01,-2.45832e-01,1.02514e+00,9.31346e-01,
-2.72231e-01,-1.23863e-01,1.67586e-02,-4.45588e-01,-1.26691e-02,-1.18044e-01,-2.60981e-01,1.31836e-01,-5.56682e-01,-3.34779e-01,2.71537e-01,-1.38022e-02,6.19612e-01,-1.02251e-01,2.44549e-01,-1.24965e-01,-6.48136e-01,1.51128e-01,-3.10342e-02,1.08425e-01,-3.83585e-01,2.85271e-01,2.64401e-02,3.08055e-01,1.44783e-01,-1.90226e-01,-4.73330e-03,-3.12397e-01,-2.23512e-01,-1.56196e-02,2.21798e-01,-3.67148e-02,-3.99458e-01,-1.16206e-01,-2.03423e-01,-1.77190e-01,-3.50055e-01,4.33233e-01,-5.11169e-01,1.10923e-01,-1.32767e-01,2.94539e-01,3.31854e-02,-1.32735e-01,-2.58006e-03,9.88872e-02,9.62197e-02,-3.95750e-01,4.08345e-01,1.90836e-01,
-4.75247e-01,-9.74948e-02,-4.35505e-02,-6.53626e-01,-1.70849e-01,-5.38825e-01,4.82757e-01,-4.79622e-02,-5.30413e-02,-1.87823e-02,1.29171e-01,1.52948e+00,5.54040e-01,-3.40219e-02,-4.36083e-01,-2.45198e+00,6.36016e-01,3.05128e-01,2.86882e-03,4.98571e-01,-4.26833e-01,-1.64097e-01,2.42378e-01,-1.97860e+00,-4.99788e-01,3.39434e-02,-5.29700e-02,-1.08074e+00,1.03664e-02,-5.04080e-01,4.01913e-01,4.77870e-02,-1.34106e+00,-3.16137e-01,-6.89628e-01,5.02736e-01,-3.24256e-01,-4.07740e-01,1.74113e+00,2.29612e-01,2.70215e-01,4.61543e-01,-5.65456e-01,-3.07465e-01,1.45363e-01,4.64641e-01,2.10672e-01,2.13947e-01,-1.55798e-01,1.75037e+00,
-1.55124e+00,6.75807e-01,-2.23870e-02,-7.12969e-01,-1.45080e+00,9.41765e-01,-2.73784e-01,3.55123e-01,-1.47436e+00,-4.48816e-01,2.22562e-01,8.36068e-01,-2.30778e+00,-7.27213e-01,-3.08749e+00,-8.73610e-01,-5.75011e-02,-7.90898e-01,-5.11349e-03,4.51565e-02,-2.97609e-01,6.28457e-01,-2.90494e-01,-4.13517e-01,6.72970e-01,-2.18200e-01,-1.21467e-01,-9.38502e-01,-1.35623e+00,-9.21925e-01,6.86704e-01,-5.76249e-03,-8.81568e-01,1.42641e-01,-6.13212e-01,1.23514e-02,5.74441e-01,-1.33000e-01,-7.96304e-01,-5.25496e-01,5.34219e-01,6.66227e-02,-1.59275e-02,-5.15185e-01,1.34642e-01,-7.30671e-01,-2.73454e-01,-2.26387e+00,4.52904e-01,-2.74792e-01,
-6.86099e-02,-3.42720e-02,-5.24910e-03,3.94632e-02,-3.85245e-01,-1.32744e-01,-1.72360e+00,1.19166e-01,1.89827e-01,1.51710e-01,3.77351e-01,-4.00700e-01,-1.76637e-01,1.19130e+00,3.82232e-01,1.78247e-01,-1.32109e+00,2.27822e-01,-2.15351e-02,6.71200e-01,2.41378e-02,-2.44216e-01,-5.09271e-01,-6.95576e-02,-2.11501e-01,-2.45895e-02,2.01583e-01,1.08035e-01,6.13067e-01,2.61300e-01,1.09275e-01,-2.22918e-02,3.60060e-01,2.07355e-01,5.27459e-01,-1.25523e-02,8.63795e-03,1.61058e-02,2.72180e-01,-1.22236e-01,1.66334e-01,2.96845e-01,1.53855e-02,-1.06715e-01,2.42035e-01,-9.54098e-03,6.37810e-01,1.59273e-01,-8.35010e-01,-2.02543e-01,
1.61816e-01,7.66408e-01,-7.18574e-04,-1.47737e-01,7.96718e-01,-1.88820e-01,-6.11418e-01,-3.36211e-01,1.77394e+00,4.75747e-01,4.13955e-01,-1.41764e+00,1.09925e+00,4.51585e-01,-3.04470e-01,-7.03230e-01,-5.53588e-01,3.92621e-01,-4.36178e-02,1.76714e-01,2.10403e-01,8.02521e-01,-2.73956e-01,-4.22422e-02,-1.96295e-01,5.71346e-01,-3.88902e-01,-1.15473e+00,3.59573e-01,1.78741e-02,1.65203e-01,-5.24933e-02,-7.53492e-01,5.55571e-01,-5.25488e-01,9.03566e-01,-1.66921e-01,-2.89545e-01,1.78254e+00,4.09194e-02,-2.94558e-02,2.18208e-01,3.75110e-01,-6.98657e-01,-5.53651e-01,6.29859e-01,-2.83463e-01,4.10752e-01,2.98846e-01,3.92524e-01,
4.45914e-01,-2.16462e-01,4.17001e-03,-2.63143e-02,6.44086e-01,-1.47538e-01,-3.44136e-01,7.37972e-01,5.77338e-01,1.23272e-01,1.19804e-01,3.82901e-01,8.44781e-01,-8.43798e-01,1.45412e-01,2.27655e-01,1.48718e+00,-2.73811e-02,-4.28664e-02,-1.80814e-01,3.92057e-01,-4.39305e-02,-3.30801e-01,-2.09827e-01,-3.30141e-01,-4.67016e-03,-2.55046e-01,3.89121e-01,3.81979e-01,-3.69583e-01,-3.76687e-01,-3.73518e-02,-1.37150e-01,3.25638e-01,-3.36857e-01,6.19271e-01,3.56101e-01,-8.52835e-01,1.75843e-01,4.16138e-03,1.71780e-01,-2.50060e-01,-4.19265e-01,4.30347e-01,-7.42604e-02,-1.91023e-01,-2.88805e-01,5.41348e-02,-3.78739e-01,-3.33312e-01,
-5.86666e-02,1.96281e-01,-3.81402e-02,4.88610e-01,-6.88670e-01,7.66112e-01,1.53495e-01,1.54925e-01,1.87185e-01,-2.85676e-01,3.44500e-01,7.33630e-01,2.18478e-01,1.25701e-01,1.19111e+00,4.74840e-01,1.42971e+00,1.08131e-01,-5.81013e-03,-7.75173e-01,3.55091e-02,-1.98123e-01,-2.31911e-01,6.95614e-01,2.03580e-01,-5.76696e-01,-4.15030e-01,-4.54941e-02,7.09115e-01,-3.60008e-01,-9.32197e-02,-8.11355e-03,1.84784e-01,8.54106e-01,3.20210e-01,-2.93906e-01,-3.94289e-01,9.48438e-01,-6.46853e-01,5.46644e-01,-3.06297e-01,3.05414e-01,1.06799e-01,5.42315e-02,-9.33375e-01,7.19228e-02,1.15994e-01,9.58127e-02,5.38126e-01,9.75302e-02,
5.69869e-01,4.03333e-01,9.69813e-03,-2.52456e-01,6.37996e-01,-1.15009e+00,2.17944e-01,-1.31325e+00,1.23618e+00,4.13543e-01,1.09657e-01,4.60875e-01,7.64306e-01,4.36971e-01,-2.45407e+00,1.04305e-01,-2.62719e-01,5.82961e-02,-4.15394e-02,3.79877e-02,2.38246e-01,2.91359e-01,1.64541e-01,4.50503e-01,-1.45218e-01,2.99088e-01,4.64581e-01,1.68534e-01,1.07404e+00,5.45147e-01,-1.55528e-01,-5.47442e-02,3.39096e-01,3.21688e-01,-2.53529e-01,5.95050e-01,6.30275e-02,-8.27227e-01,9.11533e-01,1.79691e-01,-4.27102e-02,-5.25990e-01,-5.80984e-01,-2.46617e-01,7.16314e-01,7.32240e-01,-1.32556e-01,6.51491e-01,-1.29909e-01,1.28521e-01,
2.75430e-03,1.54660e-03,4.06589e-02,-2.04753e-01,1.16085e-01,-3.39312e-01,2.38564e-01,-2.57017e-02,-1.82095e-01,-3.83754e-01,4.24037e-01,-4.59209e-01,-1.36596e-01,2.75554e-01,-3.72604e-01,4.34464e-01,9.84070e-01,-1.64403e-01,-8.39946e-03,-2.66588e-01,3.04334e-03,-2.47627e-01,4.51106e-01,4.01083e-01,3.53570e-01,-1.51082e-01,8.83323e-01,5.99762e-01,-4.79720e-01,1.53306e-02,-9.78933e-02,4.62626e-02,7.22377e-01,5.80484e-01,2.32051e-01,-3.19269e-01,-2.35017e-01,-4.82426e-01,1.48681e-01,2.12010e-01,-1.77578e-01,-1.14708e+00,2.29651e-01,-1.24768e-01,-8.31888e-02,-5.77515e-02,-5.30195e-02,6.05525e-02,5.65829e-01,2.20869e-02,
4.12426e-01,7.30080e-02,5.15396e-02,4.58831e-01,-4.68733e-01,8.85956e-01,-4.70474e-01,-8.71654e-01,4.10372e-01,-3.21344e-01,3.62171e-01,1.95903e-01,1.01016e+00,2.74777e-01,-1.12452e+00,-1.52834e-01,-1.76430e+00,2.78223e-01,-3.90877e-02,-3.26606e-02,-4.04264e-01,3.75477e-02,-1.50735e-01,2.50344e-01,-1.49527e-02,8.44654e-02,-4.75972e-01,5.20105e-01,-4.64083e-01,7.44489e-01,3.57098e-01,-1.83390e-02,1.81794e-01,4.28772e-01,6.17320e-01,-6.89641e-02,-6.27572e-01,1.00197e+00,-9.42388e-01,-1.86740e+00,-1.22326e-01,5.90407e-01,3.43598e-02,2.11677e-01,-5.36071e-01,2.74198e-01,-7.31024e-01,-1.52997e-01,2.14873e-01,-6.94377e-01,
7.62244e-03,-9.41077e-01,-1.52579e-02,-3.90981e-01,3.47428e-01,-9.62059e-01,-2.56381e+00,2.26789e-01,-3.84557e-01,1.15812e+00,3.40225e-01,-4.23672e-01,9.95955e-01,7.96662e-01,-5.50911e+00,-1.85996e+00,-1.43922e+00,-1.84316e-01,-4.03752e-02,-3.34314e-01,7.79485e-01,1.43877e-01,-2.40701e-01,6.06597e-01,-1.13213e+00,-6.84446e-02,2.13404e-01,3.32934e-01,-3.05067e-01,-2.60327e-01,2.25592e-01,-6.92348e-02,-6.24550e-01,-1.31997e+00,-6.29533e-01,-2.18726e-01,-9.94467e-01,-4.79335e-01,4.63327e-01,1.07304e+00,6.17148e-01,1.57054e-01,-2.46950e-01,5.82816e-01,-3.62511e-01,-1.12368e-01,1.43406e-01,1.26971e-01,-6.36878e-01,-5.24906e-01,
5.62029e-01,1.21043e-01,2.34250e-04,-2.98302e-01,-2.05022e-01,-9.63340e-01,1.05369e+00,1.48158e+00,6.43987e-01,-1.27572e+00,4.30065e-01,1.50851e+00,6.89563e-02,5.71311e-02,1.65522e-01,7.04171e-01,2.71949e-02,8.42617e-01,-1.84504e-02,1.33157e+00,-2.55075e-01,-2.12066e-01,-4.22873e-01,4.73175e-01,2.66018e-01,5.65517e-02,4.86757e-01,1.65831e+00,8.79880e-02,-6.56896e-02,4.70618e-01,1.12499e-02,-3.32428e+00,-7.50002e-01,4.12259e-01,-2.58677e-01,1.55977e-01,1.75684e+00,1.32754e+00,3.61515e-01,-1.04115e-01,2.61642e-01,-6.38956e-01,-7.43671e-02,-3.70093e-01,8.38467e-01,9.08908e-01,-6.02673e-01,-3.88136e-01,4.67028e-01,
-5.14048e-01,5.84377e-02,-1.75599e-02,-8.90428e-01,8.85931e-01,-4.15028e-01,-3.88588e+00,2.88388e-01,3.17247e-02,3.69103e-01,-8.68443e-01,4.39442e-01,1.56440e-01,2.29094e+00,8.68623e-02,7.21573e-01,3.26504e+00,5.94513e-01,-2.86086e-02,2.35983e+00,-7.41411e-01,5.87133e-01,-3.58742e-01,1.21141e+00,-1.03602e-01,-6.09375e-01,-4.14067e-01,8.18276e-01,-1.14260e-01,4.09474e-02,2.66824e-01,2.29758e-02,-9.59481e-02,-1.47013e+00,-1.04434e+00,1.81811e-01,-4.80179e-01,-4.14502e-01,-2.11474e+00,-2.42729e-01,-1.34385e+00,5.73090e-01,9.23248e-01,-9.04191e-01,5.78639e-01,8.09080e-01,4.70863e-01,-9.50490e-01,5.58800e-02,1.56878e+00,
-2.08278e-02,-7.92332e-02,1.90646e-02,1.50811e-01,-6.46147e-02,-8.78930e-01,-4.63807e-02,-7.34038e-01,1.82609e-01,2.58672e-01,-7.64603e-02,1.12486e-01,-2.95686e-01,-2.67233e-01,-2.67619e-01,-3.23356e-01,-1.02443e+00,2.06731e-01,3.46614e-02,1.20974e-01,3.24223e-02,6.64298e-02,-5.19479e-02,-2.59703e-01,-9.28199e-02,-3.62429e-02,-6.58807e-02,-2.33800e-01,-9.22689e-02,1.95458e-01,-1.10655e-03,1.89700e-03,-1.63141e-02,2.41751e-01,7.29497e-02,4.35448e-01,-1.03038e-01,-6.43454e-01,7.40440e-01,-9.20410e-02,-1.01408e-01,-3.20410e-01,-1.82832e-01,1.38922e-01,-7.40261e-02,1.05797e-01,-1.68277e-02,-1.44814e-02,-2.55826e-01,4.39322e-01,
3.49543e-01,-2.40894e-01,-4.00584e-03,-5.90987e-01,-1.39672e-01,-4.42998e+00,-1.52101e-01,3.57191e-01,-7.73078e-01,-8.88631e-01,1.32640e-01,2.04459e+00,-7.44777e-01,-2.96125e-01,-2.91497e+00,-4.32492e-01,-1.37598e+00,5.33841e-01,1.89906e-02,5.18207e-01,7.18153e-01,-8.91606e-02,-5.80357e-01,1.09971e+00,-9.11979e-01,-7.83970e-02,-6.38648e-01,4.26686e-01,3.47780e-01,6.03393e-01,4.49928e-01,-8.54848e-04,-2.68020e-01,-6.82018e-01,-4.91041e+00,1.10210e-01,-4.39093e-01,6.18094e-01,1.06038e+00,9.52875e-01,-9.29246e-01,-7.89483e-01,1.56225e-01,-8.73144e-01,2.65107e-01,-1.39216e-01,-3.01689e-01,2.90396e-01,1.89203e+00,-4.32297e-01,
8.70568e-01,-1.38245e+00,4.21851e-02,5.33167e-01,-3.91692e-01,6.27473e-02,1.80726e+00,-6.25052e-01,-5.78927e-01,1.28151e+00,-1.55454e+00,-2.20269e+00,-2.09317e+00,-9.70203e-01,-1.31202e+00,6.03470e-02,-2.39061e+00,-3.26388e+00,-2.26965e-02,-4.43277e+00,-3.14755e-01,-2.55427e+00,-1.31605e-02,-1.03265e+00,-1.91349e+00,1.82974e-01,7.65661e-01,2.01646e+00,-8.01376e-01,8.03747e-01,-7.99605e-01,-1.17088e-02,3.12608e+00,4.64709e-02,-5.94152e+00,5.06039e-01,-1.28228e+00,-1.46861e-01,6.01697e-02,-6.82525e-01,1.16055e+00,-1.76833e+00,-3.58493e-01,8.69858e-02,9.95936e-01,-2.50507e+00,2.42881e+00,2.17972e-01,4.33431e-02,9.65244e-01,
1.61815e-01,-4.24981e-01,-2.57075e-02,2.83994e-01,-3.04094e-02,2.48473e-01,3.90292e-02,-6.96069e-01,-5.77051e-01,3.25660e-01,2.56735e-01,-2.19506e-02,-2.24324e-02,-3.12915e-01,-3.53569e-01,-2.36088e-01,-9.55140e-01,-2.65791e-01,4.56749e-02,-2.84206e-01,1.11287e-01,-1.13734e-01,5.69699e-02,-3.07756e-01,-1.72407e-01,8.09888e-02,2.78891e-01,4.48928e-02,4.25079e-03,-4.85397e-02,2.09775e-01,1.25595e-02,-3.00536e-01,-2.62850e-01,-5.57784e-01,6.45670e-02,-6.39652e-01,1.38000e-01,9.74667e-01,-2.80714e-02,2.15908e-01,3.98010e-01,1.11084e-01,7.50261e-02,-3.49165e-02,-6.67098e-01,4.65130e-01,-5.20529e-02,3.16015e-01,-2.47858e-01,
-9.56869e-01,1.18852e+00,1.20505e-02,-1.36983e-02,-4.35872e-01,7.91755e-01,-4.66540e-01,-6.23216e-01,-4.27316e+00,-6.62185e+00,-5.05017e-01,3.11279e-01,-1.10100e+00,1.68965e+00,-9.56018e-01,8.50169e-01,-2.45163e+00,3.46415e-01,6.49623e-03,-8.61124e-01,-9.00882e-01,2.99264e-01,-2.09127e-01,-3.62949e-02,2.80322e-01,1.87079e-01,2.78370e+00,1.39836e-01,-3.84122e-01,2.20773e-01,-8.97634e-01,6.60257e-03,9.26277e-01,2.59230e-01,-4.53808e-01,-3.11616e+00,-4.68394e-01,4.95022e-01,1.40038e+00,-1.56918e+00,-7.99258e-02,2.62295e-01,-8.31312e-03,6.44481e-01,-5.20528e-01,-1.07568e-01,-7.00436e-01,-1.24651e-01,8.94378e-01,1.85074e+00,
-2.04783e-03,-1.43757e-01,9.67630e-03,-7.55784e-01,-9.38084e-03,5.77211e-01,3.14399e-01,-9.22117e-01,-1.74934e+00,-1.75727e-01,1.69065e-01,6.26802e-01,4.14713e-01,6.55281e-01,-4.48456e+00,-4.79403e-01,-1.37374e+00,1.02137e+00,1.49508e-02,-1.10653e+00,-7.11239e-01,-5.10981e-01,1.40027e-01,1.31295e-01,3.50054e-01,-2.89918e-02,-2.79115e-01,-2.36139e-01,-1.18011e+00,8.20117e-02,4.34117e-01,2.34017e-02,1.35189e+00,2.32152e-01,3.22792e-01,-5.40340e-01,-9.71631e-01,-8.57757e-01,4.80706e-01,2.72085e-01,9.98930e-01,-1.19509e+00,-1.73547e-01,1.61802e-01,-7.41153e-01,-4.85814e-01,7.62066e-01,-3.65286e-02,-3.09647e-01,-2.82297e-01,
-2.01697e+00,-2.23395e+00,-3.51547e-02,1.39990e-02,-2.17500e+00,7.21823e-01,-8.98214e-01,-2.82258e+00,-2.01128e+00,-1.76218e+00,-2.10085e-01,-1.18215e+00,1.30264e+00,1.09714e+00,-1.90443e+00,-4.61454e+00,-7.40386e+00,-5.81743e+00,3.40597e-02,9.82336e-02,4.66168e-02,5.83789e-01,-1.19858e+00,-2.81803e+00,-1.89389e-01,1.16837e+00,6.73421e-01,-1.31511e-01,-9.30014e-01,6.79235e-01,-6.78162e-01,-1.88289e-02,-1.48547e+00,1.01033e+00,1.82216e-02,1.50307e+00,-3.11054e-01,7.38505e-01,-2.02814e-02,-2.91852e+00,-8.52457e-01,-9.69153e-01,7.55502e-01,2.65058e-02,1.67289e-01,-3.38293e+00,-1.36738e+00,9.20248e-01,-7.13373e-01,-1.06774e-01,
-1.83649e-01,6.39906e-05,-2.28830e-02,1.65228e-01,1.31351e-02,2.88959e-01,-3.70850e-01,2.94194e-01,-1.88469e+00,2.29708e-01,-4.15458e-01,8.33758e-02,-2.47716e-01,5.64537e-01,-9.80411e-01,-4.62994e-01,-3.82015e-02,-2.69160e-01,1.20003e-02,1.88025e-01,7.53018e-02,-3.69540e-02,1.42384e-01,2.15990e-01,-7.66489e-02,-1.34676e-01,7.26842e-01,-3.74490e-01,2.48124e-01,-6.20183e-03,-1.87428e-01,-8.29664e-03,-1.29911e-01,6.21585e-01,6.43317e-01,-6.36194e-01,1.16431e-01,-4.96470e-01,1.04654e-01,-1.33608e-01,2.03490e-01,8.48846e-01,2.52948e-01,-1.44629e-01,1.40067e-01,1.20755e-01,1.42203e-01,6.38366e-02,-1.26255e-01,1.37105e-01,
7.14931e-01,
2.43462e-02,
-1.10546e+00,
7.55139e-02,
1.08874e-01,
3.47268e-01,
2.46087e-01,
8.67190e-03,
9.45804e-01,
-1.17065e+00,
-5.64641e-01,
-7.79118e-01,
-4.10744e-01,
7.10671e-01,
8.94309e-01,
-4.08289e-01,
-2.18846e+00,
1.02401e+00,
1.00393e+00,
4.03766e-01,
1.50859e+00,
-1.29666e+00,
5.47647e-01,
-2.28696e+00,
-1.22070e-02,
-3.03917e-01,
1.25356e+00,
-5.62554e-01,
-1.21570e-01,
6.90341e-01,
-1.09913e-01,
4.22112e-01,
-4.57382e-01,
-2.74576e-01,
3.05531e-01,
-1.10612e+00,
9.05713e-01,
2.75381e-01,
-2.37575e-01,
7.94572e-01,
-1.90459e+00,
1.63246e-01,
1.11227e-01,
1.03263e+00,
1.50727e+00,
