// Neural Network File Format by Kyle Julian, Stanford 2016
7,5,5,50,
5,50,50,50,50,50,50,5,
0,
0.0,-3.141593,-3.141593,100.0,0.0,
60760.0,3.141593,3.141593,1200.0,1200.0,
19791.091,0.0,0.0,650.0,600.0,7.5188840201005975,
60261.0,6.28318530718,6.28318530718,1100.0,1200.0,373.94992,
5.40062e-02,-2.59990e+00,-1.80027e-01,2.42514e-01,1.41407e-01,
-1.11663e+00,2.63619e-02,-9.17929e-03,5.56230e-02,-3.30891e-01,
1.96019e-01,2.42159e-01,6.44087e-01,-4.78978e-01,1.42577e-01,
-1.63015e+00,-3.44447e-02,-6.00986e-03,1.13162e-02,-1.04170e-02,
-3.53336e-01,5.65969e-01,2.28267e-01,1.77342e-01,-2.08548e-01,
-3.44117e-02,1.48757e+00,-1.53371e+00,4.02548e-02,1.63305e-01,
4.04697e-01,2.24200e-01,-4.67160e-02,1.64634e-01,-1.60826e-01,
-1.42713e+00,-7.47429e-02,6.02516e-02,4.77955e-02,-5.60716e-02,
-1.44234e+00,4.46910e-02,8.88916e-03,-2.50230e-01,6.55090e-02,
-1.12960e+00,2.37911e-02,-9.58130e-03,8.83919e-03,-4.58007e-03,
6.13717e-01,-5.57820e-01,-5.16993e-02,1.60852e-01,-9.76681e-02,
9.33699e-01,2.03647e-01,1.66178e-01,-1.53059e-03,-2.08424e-01,
-4.07389e-02,5.48666e-01,5.74868e-02,1.41808e-01,9.50816e-02,
-2.12265e-01,-3.30814e-01,3.54779e-01,-3.89697e-01,-4.59337e-01,
3.20180e-02,4.22455e-01,-5.64157e-01,-2.12138e-01,7.52934e-02,
-1.24055e-02,2.28453e+00,5.32409e-02,5.85154e-02,1.18652e-01,
-1.22430e-01,-7.11423e-01,9.15904e-03,-3.93192e-01,3.39849e-02,
6.01742e-02,-6.42251e-02,-2.52607e+00,4.99435e-02,-3.77898e-02,
8.33034e-02,-4.07486e-02,-7.52101e-01,-1.19899e-01,-2.18044e-01,
-1.19306e+00,1.44630e-01,-1.49280e-01,-3.60766e-02,-1.18933e-01,
-1.03688e-01,6.92974e-02,2.44156e+00,2.26826e-02,3.17906e-02,
-8.53903e-02,1.75215e-01,-8.74009e-02,-7.29276e-01,-2.20850e-01,
-1.93838e-02,3.97917e+00,1.17807e-01,7.84146e-02,-1.45183e-02,
1.66157e-02,-6.54405e-01,5.59069e-01,1.96579e-01,-4.49805e-01,
1.67632e-03,5.40668e-03,-7.26639e-03,4.18084e-03,1.77278e-03,
-8.97525e-01,-1.27606e-01,1.63604e-01,-4.81184e-02,7.85461e-02,
-9.33220e-01,-2.43277e-02,2.31913e-01,-2.09010e-01,-9.43662e-02,
1.60333e-01,3.69291e-03,2.63813e-01,2.82106e-01,-5.53851e-01,
8.34021e-02,2.01281e+00,3.55310e-01,3.60065e-02,-9.96482e-02,
2.84317e-01,-4.63318e-02,7.45102e-03,-8.40513e-01,-4.82851e-01,
1.36462e+00,5.87489e-03,1.31013e-02,-7.41005e-02,-1.55849e-01,
-1.43986e-01,6.07591e-04,-2.10359e-02,-6.42442e-01,-1.82691e-02,
-1.36290e+00,-2.07197e-02,4.45642e-02,3.92495e-02,9.27164e-02,
-1.55178e+00,8.38021e-02,-3.52086e-02,6.06749e-03,8.29695e-03,
1.28996e+00,9.38274e-02,1.75474e-01,1.34599e-01,2.97386e-01,
1.60029e-02,3.29088e-01,-2.63481e-01,-1.04167e-01,7.71308e-02,
-4.15857e-02,-1.47674e+00,-5.82310e-02,-2.06667e-01,2.02989e-01,
-8.26992e-02,2.55120e-03,9.85637e-03,6.93542e-02,-8.84201e-01,
-1.58252e+00,4.74953e-02,7.63074e-03,-1.43155e-02,2.85048e-03,
2.81560e-02,-2.30824e-02,-7.59481e-02,-7.73997e-01,4.99152e-01,
1.39212e-01,-5.72182e-01,4.25436e-01,-3.30029e-01,2.79921e-01,
2.57852e-01,-6.28269e-02,-3.31132e-01,3.29905e-01,-8.54037e-01,
6.86480e-02,2.45863e-03,-1.41727e-02,2.79897e-02,-1.85103e+00,
-7.41977e-01,3.11863e-03,-1.86502e-01,1.36177e-02,-1.59550e-02,
-4.17802e-01,1.20795e-02,-4.81611e-02,-3.65197e-01,2.88194e-01,
-6.27231e-01,-3.58635e-02,2.82693e-02,7.40471e-02,6.49997e-02,
3.92007e-02,5.63949e-01,2.62818e-01,-1.39606e-02,-3.57595e-01,
-3.85883e-02,-1.23878e-01,-7.62050e-01,4.24013e-02,4.94910e-02,
-1.57045e+00,4.40016e-04,-8.39493e-03,-9.26607e-02,-4.93705e-03,
6.20367e-01,7.50374e-02,-1.46141e-02,2.60196e-01,-2.58851e-01,
2.27630e-01,
-1.88762e-01,
5.34094e-02,
-3.77861e-01,
-8.12531e-02,
-5.88651e-01,
7.46065e-02,
-3.92887e-01,
-3.56303e-01,
-1.67712e-01,
5.87109e-02,
1.83917e-01,
1.31957e-01,
-3.08681e-01,
1.96929e-01,
2.06664e-01,
-3.11696e-01,
3.06576e-02,
-1.38822e-01,
-3.47434e-01,
-4.51840e-03,
-3.90616e-01,
9.69635e-02,
9.83266e-03,
-1.88585e-02,
-2.31919e-01,
-2.38165e-01,
7.10148e-02,
-1.41913e-01,
-4.42307e-01,
5.59084e-01,
1.35483e-01,
-3.73217e-01,
-4.15390e-01,
7.59638e-01,
1.32825e-01,
2.35566e-01,
2.14858e-01,
-4.40841e-01,
-7.72968e-02,
2.21606e-01,
-6.50873e-03,
-6.34843e-01,
-1.53833e-01,
-5.73027e-02,
-1.09229e-01,
3.70344e-02,
5.38087e-02,
-4.47550e-01,
1.75917e-01,
-1.84202e-01,3.44024e-02,-1.15028e-01,1.86452e-01,-1.37148e-01,-1.89649e-01,-7.43129e-01,5.71844e-01,-1.33371e-02,1.43641e-01,1.33581e-01,-2.23355e-01,3.02148e-01,4.07437e-02,-3.39979e-01,6.49170e-02,7.31692e-02,-4.55874e-01,4.74744e-01,3.77226e-01,-1.11620e+00,-5.71853e-01,5.02659e-02,-2.56487e-01,-2.52440e-02,2.25768e-01,1.48705e-01,-1.56374e-01,-1.72745e-02,9.90686e-01,7.83843e-02,-1.44198e-01,-1.79075e-01,-3.42245e-01,2.13914e-01,8.25806e-03,6.84292e-02,5.83576e-01,-1.70712e-01,-5.46500e-01,1.20104e-01,-4.93016e-01,-1.66652e+00,-3.27067e-01,-1.52987e-02,5.14263e-01,9.40898e-02,3.37388e-01,3.91974e-01,-2.21892e-01,
1.71639e-02,-3.44739e-02,-8.69311e-03,3.83419e-02,2.13257e-02,4.20619e-02,2.14834e-02,-3.32981e-02,-4.74388e-02,2.15549e-02,1.00212e-02,2.78245e-02,4.88436e-03,-4.31063e-02,-2.40032e-02,-3.21718e-02,1.34431e-02,-4.26330e-02,-4.02870e-02,-1.74703e-02,-4.23118e-02,1.46571e-02,-3.13675e-02,3.84782e-02,4.60503e-02,2.16695e-02,1.59546e-02,4.19742e-03,1.74008e-02,-1.76779e-02,-4.76543e-02,-4.06231e-03,-4.18933e-02,1.45460e-03,-5.08771e-02,-4.63380e-02,2.13522e-02,-5.32753e-02,-5.71037e-02,2.90612e-02,-3.29390e-02,-3.21365e-02,-3.33988e-02,-2.27086e-02,-1.54739e-02,-4.83540e-02,-7.13285e-03,-3.73509e-02,1.95311e-02,-3.51670e-02,
6.92817e-02,-4.08552e-03,-2.77997e-01,2.60446e-01,1.56597e-01,-1.33151e+00,-1.30246e+00,-8.93189e-01,1.94481e-01,3.84027e-01,4.27115e-02,-5.39398e-01,8.12943e-02,4.01288e-01,-2.74674e-01,3.70978e-01,-7.56282e-01,-1.29451e+00,1.47055e+00,9.77806e-02,-7.90099e-01,-5.34664e-01,7.20768e-03,-5.55381e-01,-2.20631e-02,2.63581e-01,2.03953e-01,4.05601e-01,-8.57764e-01,1.87131e-01,2.42437e-01,-1.12824e-01,5.21847e-01,-4.68001e-01,-3.64338e-01,5.36935e-02,4.46580e-01,9.19664e-01,6.37294e-01,-8.78768e-01,-9.76988e-01,-3.91978e-02,1.42149e-01,-7.98507e-01,-1.76701e+00,1.51746e-01,2.59996e-01,-1.87652e+00,-5.97262e-01,4.42210e-01,
7.94837e-01,-3.64521e-01,-1.71101e-01,9.75946e-02,2.71402e-02,-4.17938e-01,-9.31248e-02,-6.02603e-01,-3.20925e-01,4.39363e-01,5.27630e-01,-4.15412e-01,-1.95773e-01,-3.72765e-02,-1.00834e+00,1.34065e-01,2.46131e-01,-1.69865e+00,2.01099e+00,-7.08526e-01,1.15161e+00,5.27052e-01,-1.68508e-01,3.61948e-01,-3.01800e-02,7.72655e-01,-3.78319e-01,-1.35920e-02,-4.87739e-01,2.26330e-01,3.82739e-01,2.81760e-01,-4.76764e-01,8.96086e-03,-1.01426e-01,-6.22573e-01,4.45635e-03,-1.43608e-01,-1.32467e-01,3.56608e-01,5.85754e-02,-4.55311e-01,-7.07104e-01,-4.05381e-01,-4.24916e-02,5.97722e-01,-2.17635e-01,-1.27618e-01,-1.26611e-01,-1.72846e-01,
-5.85128e-02,7.09736e-03,2.65717e-01,-6.63114e-03,3.15806e-01,-5.38704e-02,3.65686e-01,3.60562e-02,-4.74430e-02,-3.71296e-01,1.53974e-01,-2.15701e-01,1.47584e-01,4.14588e-01,-5.18832e-02,-1.22101e-01,-2.38432e-01,-1.09843e+00,-3.20509e+00,-4.38948e-01,-2.60467e-01,-2.67143e-01,-4.10415e-02,3.67748e-01,-4.32703e-02,-3.47406e-01,-3.69050e-01,-3.66904e-01,-3.48575e-02,3.83794e-01,-1.04012e-01,-3.45975e-01,5.25979e-01,1.41506e-01,1.57612e-01,5.73022e-01,-1.62891e-02,-1.35276e-01,-1.34077e-01,9.80849e-03,-2.19051e-01,-1.56527e-01,-6.33737e-01,6.67558e-01,4.14996e-01,3.24016e-01,-6.59676e-02,8.67097e-01,-6.22732e-01,-1.12205e-02,
3.32535e-02,-8.10360e-02,-5.34410e-01,6.70643e-01,-8.06590e-01,1.29677e+00,1.26870e+00,7.04389e-01,1.18843e-01,3.14183e-02,3.45893e-01,-1.27676e+00,2.59326e-01,7.52729e-01,5.59201e-01,-1.22824e-01,-3.16966e-01,-1.39270e+00,-2.33073e+00,6.84739e-01,4.18294e-02,-6.41408e-01,-2.20248e-02,-8.08314e-01,3.61233e-02,-3.32004e-01,-1.75533e-01,-6.63724e-01,2.16458e-01,4.14545e-01,-3.14112e-01,4.10880e-01,6.56423e-01,1.72652e+00,-3.47424e-01,7.43160e-02,3.73651e-01,2.37276e-01,1.45042e+00,-3.20865e-01,2.46364e-01,-7.16840e-01,-1.80210e+00,1.13482e+00,2.82764e-01,7.90122e-01,-3.00498e-01,-7.73011e-01,-4.15503e-02,8.18417e-01,
-2.08300e-01,8.36800e-01,-1.51215e-01,1.16152e+00,2.20508e-01,1.08233e-01,6.51310e-02,1.45465e-01,6.31930e-01,1.08889e-01,5.09912e-01,-2.69129e-01,-1.98527e-01,1.72319e-01,3.25839e-01,6.15878e-02,-6.35311e-01,-4.35558e-01,5.90671e-01,9.23703e-02,-9.91100e-03,-2.25370e-01,-3.91220e-01,4.31908e-02,-4.57549e-02,1.99969e-01,1.27429e-01,-3.26969e-01,5.93366e-01,-4.09300e-01,1.78482e-01,5.78636e-03,-6.61192e-01,1.03202e-02,-1.09321e-01,5.47416e-01,1.58893e-01,4.64001e-01,-2.70218e-01,-2.23880e-01,-3.13401e-02,-2.38038e-01,-3.99878e-01,7.32198e-01,1.09875e-01,-5.18820e-01,2.79963e-01,3.65676e-01,1.37422e+00,-1.38101e-01,
-1.11581e+00,2.78798e-01,-1.34995e+00,-6.96007e-02,7.54957e-01,2.58396e+00,8.60391e-02,5.11288e-01,-5.77906e-02,-1.03419e-01,-4.27211e-01,-2.15064e-01,2.63156e-02,3.15713e+00,7.05454e-01,1.57990e-01,1.15380e-01,8.89692e-01,4.88014e-02,-3.28776e-01,-7.39524e+00,-5.87756e-01,6.85669e-01,4.04011e-01,3.53466e-02,-1.79218e+00,-3.95659e-01,1.97522e-01,-2.90611e-01,-8.30536e-01,3.18017e-01,-8.13073e-01,-7.43075e-01,3.68427e-01,2.32180e-02,4.07831e-01,-1.04199e+00,4.83819e-01,8.28921e-02,3.58695e-01,-1.50174e+00,-1.96254e-01,7.25435e-01,2.22741e-01,3.39974e-02,-5.83928e-01,9.31427e-02,3.28825e-01,8.20524e-01,5.10477e-02,
1.80697e-02,-1.21585e-01,-1.93342e-01,8.64463e-01,-1.74942e+00,-1.45697e-01,2.56764e+00,7.87015e-01,4.53699e-01,-9.79724e-02,-1.23926e-01,-7.29679e-01,-7.36449e-01,1.53515e-01,-3.26798e-02,8.59862e-02,-5.69807e-01,3.91171e-01,1.18253e-01,2.49324e-01,8.45853e-01,8.52240e-01,4.21144e-01,5.68789e-01,2.50970e-02,-1.70790e-01,-1.27728e-01,8.31425e-03,7.87938e-02,2.56318e+00,-1.29001e+00,6.95903e-01,-3.32454e+00,-1.35713e+00,-2.20211e+00,3.92637e-01,3.76116e-01,2.78211e-01,-6.10076e-01,1.03302e-01,-2.79566e-01,1.42858e+00,4.73211e-01,-6.73607e-01,1.21082e+00,-1.36085e+00,1.02381e-01,-1.70880e+00,1.08811e+00,-8.11825e-01,
2.36520e-01,-8.73201e-03,4.04159e-02,2.52162e-01,6.56074e-01,-1.86288e-01,-6.28119e-01,5.18079e-01,-3.96670e-01,-7.85566e-01,1.74790e-01,-3.92038e-01,2.77756e-01,-1.05150e+00,5.22059e-01,5.10797e-01,-1.07082e-01,-1.67583e+00,1.80736e+00,-2.33950e-01,7.01526e-01,-5.40843e-01,1.06109e-01,-1.66742e-01,-2.92290e-02,1.14975e+00,-1.59650e-01,-2.27614e-01,-1.35459e-01,1.56454e+00,7.78812e-01,-7.24606e-01,-5.93993e-01,-1.00215e+00,9.11453e-02,4.50594e-01,-5.36407e-01,5.47649e-01,-3.15714e-01,-1.04988e-01,4.14113e-01,7.48529e-01,4.97033e-01,-8.58162e-01,-2.37147e-01,-2.41354e-01,4.23537e-01,-2.72127e-01,2.23215e-01,-1.29985e-01,
-5.84834e-03,1.64447e-02,-5.00186e-02,-5.85630e-02,2.44792e-02,1.56754e-02,-3.55860e-02,3.95222e-03,-2.16416e-02,1.12976e-02,1.00975e-02,-6.39679e-02,2.40168e-02,5.85104e-03,-3.51634e-02,1.37506e-02,-4.21639e-02,-3.50975e-02,-3.75989e-02,-2.55069e-02,-5.50587e-02,-3.55820e-02,2.08489e-03,-3.64703e-02,2.47842e-02,3.32780e-02,2.16527e-02,1.98412e-02,-4.71676e-02,-7.02977e-03,-9.36884e-03,-4.92864e-02,-6.22589e-02,3.00086e-02,-3.00961e-02,1.38060e-02,-4.82571e-02,-4.51284e-03,-1.89375e-02,4.04212e-02,1.81820e-02,3.75883e-02,-2.70563e-02,3.37168e-02,-1.98271e-02,-1.65458e-02,2.09145e-02,-4.22312e-02,-2.59378e-02,-2.49860e-02,
2.80546e-01,3.77801e-01,-4.41952e-01,-1.27845e+00,-2.98068e-01,1.29089e+00,-5.44787e-01,-3.48523e-01,2.77505e-01,5.22086e-01,-2.95286e-01,-5.87479e-01,1.66079e-01,1.62596e-01,3.90477e-01,1.61276e-01,4.53790e-02,-1.27137e-01,-1.19262e+00,5.63943e-01,4.10249e-01,-1.78339e+00,-2.19394e-01,-1.24339e-01,4.54759e-03,1.00602e-01,-5.16118e-01,3.36224e-02,-2.92270e-01,1.66994e-01,-3.39629e-01,4.23217e-01,1.01777e+00,7.83648e-01,-3.33133e-01,-6.31928e-01,7.39286e-02,9.52432e-01,2.44197e-01,-2.77457e-01,4.53979e-01,-7.81443e-02,4.93518e-01,-1.45391e-01,-8.40152e-01,-7.99947e-01,-4.45305e-02,-5.92702e-02,-5.23676e-01,5.13579e-01,
1.09074e-01,-2.42730e-02,4.40206e-01,6.48147e-01,1.96522e-01,-8.36250e-01,1.22141e-01,1.17039e+00,2.32818e-01,3.04609e-01,-5.32018e-01,-1.06514e+00,8.68828e-01,4.99942e-01,1.54152e-01,5.77726e-02,8.94973e-02,4.91092e-01,-7.07301e-01,-8.99941e-02,-4.56308e+00,1.73208e-01,-2.11087e-01,-4.79564e-01,-8.46360e-03,1.23712e+00,2.90910e-01,5.13551e-02,3.97437e-01,2.63844e-01,-8.62292e-01,-6.08820e-02,5.81750e-01,3.20663e-01,-7.86913e-01,3.63020e-01,-2.44925e-02,-9.81926e-02,5.75332e-01,-5.96800e-01,5.89238e-01,-7.05251e-01,-5.60862e-01,-8.39649e-02,1.49022e-02,1.42469e-01,-1.13688e-01,1.15690e-01,2.41843e-02,7.82381e-03,
-8.76624e-02,6.00703e-01,-3.93411e-01,1.05407e+00,2.60039e-01,-1.37590e-01,3.21538e-01,-5.95773e-01,-7.08191e-01,6.16510e-01,-4.61631e+00,2.71348e-01,4.30415e-01,-1.58416e-01,-3.28696e-01,5.23586e-01,-8.72721e-01,-9.43034e-02,1.00020e+00,-2.94719e-01,-1.76503e-01,-2.45075e-01,4.01531e-01,-9.41896e-01,1.73988e-02,-1.43802e+00,1.33824e+00,1.53640e-01,-4.62049e-01,9.50345e-01,-1.31592e+00,2.79487e-01,-7.73742e-01,8.22072e-01,-1.33803e+00,-5.67244e-01,4.54844e-01,2.50774e-01,4.31569e-01,2.23368e-01,1.01085e+00,-9.84222e-01,2.31651e-01,1.80483e-01,-3.07755e-01,5.02198e-01,3.84138e-01,-1.42933e-01,-4.83909e-01,-1.60653e+00,
-2.62059e-01,6.61248e-01,-4.24015e-01,9.88594e-01,-2.65593e-01,-8.54719e-02,7.26211e-01,5.19006e-02,-4.11255e-02,1.03636e+00,2.94721e+00,-6.02879e-01,6.64402e-01,1.77164e+00,-1.76328e+00,4.42521e-01,-1.92687e-01,6.24877e-01,3.88468e-01,-2.22608e-02,4.64028e-02,7.31154e-01,4.29199e-01,-1.11932e+00,-1.63532e-02,-4.31634e-01,-7.13739e-01,7.68949e-01,-1.78564e-01,2.37554e+00,-1.69809e+00,4.64199e-01,9.57275e-01,1.54362e+00,-1.44592e+00,-7.21497e-01,3.14215e-01,-6.08419e-01,1.53679e+00,-5.03255e-01,-1.04195e-01,7.15042e-01,4.90145e-01,1.50418e-02,1.52789e-01,1.63822e-01,6.59468e-01,-1.19260e+00,-5.36305e-01,-6.47560e-01,
-6.67995e-01,-2.03735e-02,-4.32759e-01,-5.95258e-01,3.51898e-01,-4.64602e-01,-1.20687e-01,-4.40904e-02,1.61297e-01,1.19034e+00,1.63357e-01,2.39733e-01,4.61136e-01,1.54292e+00,5.88149e-01,5.53050e-01,3.30783e-02,1.09549e+00,-1.82203e-01,1.73381e-01,-2.19077e+00,2.26521e-01,2.62419e-01,1.00310e+00,4.20786e-02,5.25167e-01,-4.44440e-01,-2.92782e-01,-1.98327e-01,-4.60871e-01,-4.55031e-01,-2.61302e-01,2.25964e-01,-2.47908e-01,-1.58471e-01,3.86675e-01,-1.02155e+00,2.49212e-01,2.63048e-01,2.69677e-01,-3.66067e-01,-3.04741e-01,-1.05445e+00,2.55151e-01,1.49034e-01,-1.32535e-02,2.17408e-01,6.69887e-01,6.47565e-01,-1.99528e-02,
-5.22074e-01,-3.90345e-01,2.90612e-01,-1.02791e-01,7.11129e-01,-2.29196e+00,1.42236e+00,4.36783e-01,2.96662e-01,-1.19794e-01,-6.75246e-01,1.33310e-01,1.43614e-01,-5.89810e-03,3.16832e-01,6.28752e-01,5.04229e-01,8.10410e-01,-1.69530e+00,-2.90579e+00,5.05237e-02,6.62540e-01,-8.19328e-01,3.09652e-01,4.41201e-02,7.03183e-01,1.73898e-01,-7.32583e-02,1.27966e+00,1.57619e-01,3.91756e-03,2.44758e-01,-1.63273e-01,-1.02042e+00,-5.41494e-02,-2.38077e+00,9.44761e-02,-2.75557e-01,-4.88527e-01,1.01718e+00,-3.22546e-01,-4.31973e-01,-5.41147e-01,-1.18591e+00,-6.41511e-01,-3.50640e-01,1.00002e+00,7.03643e-01,4.14009e-01,6.14669e-02,
-2.93925e-01,4.87179e-01,-2.50767e-01,-7.97391e-01,-2.33773e-01,4.15804e-01,3.85470e-01,9.60061e-01,-1.91897e-01,1.04525e+00,-6.52855e-01,-2.79784e-01,7.16194e-01,3.45410e-01,8.29823e-01,1.47024e-01,-1.13635e-01,-4.46995e-01,-2.99305e-01,1.13571e-01,-5.44931e-02,-2.62379e-01,-1.23221e+00,1.84642e-01,-4.28780e-02,1.19390e+00,-4.33336e-01,7.60211e-02,6.65245e-01,-3.96247e-01,2.37394e-01,-4.69161e-01,-6.27715e-01,1.41531e-01,-1.66829e-01,2.75666e-01,-7.58347e-01,5.07086e-01,-2.20326e-01,-6.62873e-01,-5.94806e-02,-2.70402e-02,5.19838e-01,-2.32100e-01,-3.89608e-04,1.36090e-01,-4.61896e-01,9.98813e-01,-3.03257e-01,2.64833e-02,
-5.99611e-02,-1.81510e-01,2.34351e-01,1.16461e+00,9.73007e-02,2.14008e-01,2.09073e-01,3.29491e-01,-6.68421e-01,2.93814e-01,-9.88543e-01,-2.86746e-01,1.52218e-01,-3.27873e-01,-1.00387e+00,6.50972e-03,5.41077e-01,4.09312e-01,-1.00315e+00,-6.72544e-01,-6.59849e-02,3.17469e-01,-3.54788e-01,-5.08591e-02,3.79435e-02,4.99850e-01,-1.10721e-01,4.78429e-01,1.45093e-01,-6.87312e-01,-4.74019e-01,4.35318e-01,5.72782e-01,1.84009e+00,-9.29956e-01,-1.18454e-01,-3.53056e-01,1.93190e-01,1.54933e+00,2.47103e-02,-1.84153e-01,2.91748e-01,-9.71090e-02,-6.32774e-02,2.27440e-01,8.73619e-01,-6.01146e-01,-9.82138e-01,-6.15111e-01,-7.36122e-01,
2.25581e-01,-1.35031e-01,2.59659e+00,-2.79154e-01,-3.26815e-02,2.94465e+00,-3.79846e-01,1.06565e+00,2.57608e-01,-2.45477e-01,6.19974e-03,1.00429e+00,4.44224e-01,1.98882e+00,4.56873e-01,1.01207e-01,2.91307e-01,4.85113e-01,6.28707e-02,-6.34902e-01,-8.57219e-01,3.46260e-02,-6.58459e-01,-1.55106e-01,2.64686e-02,-8.38850e-02,3.12576e-01,-4.03916e-01,1.92752e-01,1.17357e+00,-4.46298e-01,1.13541e+00,-4.26632e-01,4.41757e-01,-1.75056e-01,2.37200e-01,3.62371e-01,-1.08390e+00,7.91569e-01,-2.88636e-01,1.52035e-01,1.65710e-01,-5.58936e+00,-2.92178e-01,-6.05827e-01,3.61358e-03,5.98140e-02,3.37497e-01,-4.56116e-02,-5.15602e-02,
-7.66084e-02,1.20952e-01,1.59830e-01,-3.76492e-01,-7.39330e-02,-8.31050e-01,-5.77585e-01,-3.39331e-01,2.01036e-01,2.10373e-01,7.13967e-02,2.21236e-01,2.67677e-01,-2.76399e-01,-7.28074e-02,-1.21906e-01,3.82269e-01,6.87902e-01,-8.51540e-01,1.49154e-01,2.41330e-01,-1.84792e-01,-2.68694e-01,1.37478e-01,-1.13667e-02,-2.90464e-01,-4.38027e-02,-1.38478e-01,3.47759e-01,7.19136e-03,-3.42292e-01,-6.78048e-01,-8.10642e-01,2.24682e-01,2.83760e-01,2.38813e-01,3.68557e-01,1.66734e-01,-5.84138e-01,-1.18875e-01,-5.54051e-01,2.13712e-01,4.06012e-01,6.36635e-01,3.76891e-02,-2.15358e-01,-4.52454e-01,8.53068e-01,3.68057e-01,-2.34969e-01,
5.34380e-03,-5.37545e-03,-1.82953e-01,-1.42157e-01,-4.16168e-01,3.65625e-01,3.45105e-01,2.98810e-01,-1.24654e-01,3.23915e-01,-2.34310e-01,-9.85246e-02,4.09397e-01,-4.94604e-02,-3.75388e-01,-2.50969e-01,-9.75656e-02,7.22905e-02,5.38434e-01,2.67858e-01,3.21178e-01,3.89736e-01,-5.87657e-03,-5.37369e-01,2.25036e-02,1.45929e-01,4.53105e-01,4.35384e-01,-4.21347e-01,-9.01253e-01,-1.37007e-01,-5.32021e-01,9.03367e-02,-1.04481e-01,6.78861e-02,-5.40965e-02,-5.40282e-01,5.18167e-01,-4.79564e-03,-8.04263e-03,4.64652e-01,1.56733e-03,3.48722e-01,-1.80226e-01,-2.96438e-01,-4.26416e-01,6.35508e-01,-6.04676e-01,2.09350e-01,-3.03195e-01,
3.16588e-01,9.39019e-01,3.42191e-01,-7.28312e-01,1.44769e+00,1.61251e+00,3.78296e-01,-2.48756e+00,1.75363e+00,1.64103e+00,6.51603e-01,8.95939e-01,1.05782e+00,3.32887e-01,-3.90241e-01,-1.51751e+00,1.95401e-01,6.88459e-02,5.68876e-01,3.57140e-01,-1.76626e-01,-6.18688e-02,-5.12659e-01,-1.00127e+00,-1.72565e-02,7.93942e-01,1.57766e+00,7.04309e-01,-1.05270e+00,1.95999e+00,2.26589e-02,3.06499e-01,-3.89977e-01,6.08089e-02,-1.23246e-01,2.01723e-01,-5.19139e-01,3.55960e-01,-1.03978e+00,-2.53044e+00,-8.26274e-01,-1.97518e-01,1.83906e+00,2.43761e-01,-8.40486e-01,-1.63097e+00,5.30847e-01,-1.88722e+00,9.66183e-01,-6.30417e-01,
-3.17647e-01,-3.19918e-01,-7.11323e-01,1.59191e+00,8.47025e-02,1.87259e+00,1.01007e+00,7.83731e-01,5.03349e-01,5.48707e-01,6.15919e-01,3.95558e-01,-6.97982e-01,-2.67981e-01,-2.10715e+00,2.94195e-02,1.39486e-01,-5.03879e-01,5.97106e+00,-7.28299e-02,3.36028e-01,2.52699e-01,-2.77681e-01,-2.73976e-01,-2.15366e-02,5.80596e-01,-8.41813e-01,-2.93286e-02,7.77785e-02,-1.39967e+00,-2.26682e+00,8.69926e-01,9.83998e-01,8.56531e-01,-7.51046e-01,-1.04836e+00,1.84254e-01,-6.75838e-02,1.70925e+00,-6.96503e-02,6.33010e-01,-6.52828e-01,-1.73043e+00,-9.54673e-01,-5.61551e-02,8.83658e-01,6.38788e-01,-1.52376e+00,6.25199e-01,-8.10672e-02,
-3.85786e-02,2.99565e-02,-4.05624e-02,1.06733e-02,-1.54052e-02,4.42192e-02,1.97890e-02,-1.03460e-02,-2.95718e-02,-4.15195e-04,-1.14132e-02,-3.39540e-02,9.64693e-03,2.18231e-02,-5.82937e-02,2.27223e-02,1.64509e-02,-2.89958e-02,-2.45462e-02,3.00331e-02,1.94892e-02,-2.42723e-03,-3.88959e-02,-4.74742e-02,3.00196e-02,-1.41808e-02,-1.70786e-03,3.37114e-02,-5.34261e-03,-3.99127e-02,-2.09442e-02,-4.18658e-02,2.35862e-02,-1.60574e-02,-1.07141e-02,1.17528e-03,-1.92918e-02,-1.32944e-02,2.88105e-02,2.38042e-02,2.50785e-02,-8.40369e-03,-3.90293e-02,-4.91725e-02,-3.07290e-02,-2.64815e-02,-1.19340e-02,-4.04856e-02,3.49375e-03,-2.52732e-04,
-4.42498e-02,-2.22614e-02,3.97100e-02,2.83590e-02,7.52967e-03,1.48697e-02,3.79651e-02,-2.42229e-02,1.36251e-02,2.69792e-02,3.99122e-02,-2.36657e-02,-2.39268e-02,3.98200e-02,-5.36841e-02,1.63782e-02,-3.89649e-02,3.10346e-02,9.25634e-03,-1.68153e-02,-2.13906e-02,-3.42286e-02,-3.89736e-02,-2.28300e-02,1.49021e-03,-4.60210e-02,-4.21266e-02,-2.81127e-02,2.73201e-02,-5.04214e-02,-5.08165e-02,-2.72544e-02,2.35949e-02,-3.07959e-03,2.23165e-02,-2.84985e-02,-5.41680e-02,9.79007e-03,4.00998e-02,-2.17201e-02,3.11043e-02,-9.35948e-03,1.99976e-02,-3.12057e-02,-1.54904e-02,-2.40393e-02,3.88896e-02,-9.14617e-03,-5.05772e-02,-2.06040e-02,
-6.17482e-02,1.97286e-01,7.75808e-01,-5.50610e-01,7.09415e-01,-9.43687e-01,-8.19299e-01,1.35233e+00,-3.90889e-01,-3.73640e-01,3.91178e-01,1.71131e+00,1.77260e-01,1.11881e-01,-2.96716e-01,4.08424e-01,-5.48665e-01,-5.10842e-01,-6.98154e-01,-9.12258e-01,-8.04038e-01,3.47287e-01,4.92696e-01,-3.90561e-01,2.03042e-02,1.91853e+00,1.70111e+00,-2.43688e+00,3.28668e-01,2.37850e+00,-9.34183e-01,2.74423e-01,-6.10037e-02,-1.75036e-01,-3.87735e-01,1.23933e-02,1.69013e+00,-5.50539e-01,2.54101e-01,1.94250e-01,-1.71762e+00,-2.07596e+00,-2.51130e+00,-6.35973e-01,3.84115e-01,-1.57075e+00,-4.31412e-01,1.48980e+00,1.46442e+00,2.88254e-01,
6.94637e-02,2.34293e-01,-3.86489e-02,1.88544e+00,2.61338e-02,-1.40758e-01,-2.94075e-01,6.55733e-01,1.88522e-01,1.05052e+00,-3.92044e-01,-2.88931e-02,2.95584e-01,-3.15151e-03,1.19950e-02,-5.78886e-02,-1.75109e-01,1.51987e-01,-2.37627e-01,2.18168e-01,1.07495e-01,-8.46032e-02,2.82669e-02,6.76320e-02,4.15143e-03,1.67882e-01,5.15999e-02,-2.15550e-01,-1.63889e-01,3.43432e-01,-3.00436e+00,3.77053e-02,2.36892e-01,2.03238e+00,-1.29040e+00,-1.69409e-01,-9.47622e-02,1.08934e-01,2.75953e+00,2.31219e-02,1.62733e-01,2.27091e-02,-3.55209e-02,1.91682e-01,-9.59096e-03,8.78061e-01,1.39756e-01,-3.84920e-01,9.75160e-01,4.28244e-02,
9.56433e-02,4.31954e-01,-1.12437e-01,1.01573e+00,2.09673e-01,-6.62638e-01,-1.04175e+00,1.20345e+00,2.15448e-01,2.01260e-01,1.57218e-01,-1.75469e-01,3.04933e-01,2.98064e-01,4.23874e-01,-7.00644e-01,6.23257e-03,-6.81584e-02,3.59171e-01,9.64902e-01,2.37680e-01,1.80519e-01,7.29147e-02,8.70791e-02,-2.14856e-02,-8.65037e-03,1.75838e-01,-1.10670e+00,7.15720e-01,1.04611e+00,-1.62006e+00,2.54094e-01,1.10626e+00,1.82714e+00,-2.09182e+00,5.22532e-01,9.88495e-02,5.96455e-01,1.89524e+00,-8.71044e-02,-2.44624e-01,-7.12761e-01,5.71237e-02,2.91424e-01,-1.96954e-02,9.40403e-01,3.20420e-01,-8.95483e-01,1.04154e+00,4.79444e-01,
1.88309e-01,2.60482e-02,-2.67103e-01,7.68609e-01,-9.00370e-01,-1.08298e+00,-1.32564e-01,-5.95572e-02,-3.75737e-01,-1.75588e-01,1.32885e-01,2.34401e-02,-4.27154e-01,4.12024e-02,-1.24642e+00,6.94870e-01,-1.86424e-01,7.87567e-01,3.00648e-01,4.87338e-01,1.96483e-01,-1.16915e+00,4.09079e-01,-1.68405e-01,4.72508e-03,4.62992e-01,4.04432e-02,1.03382e-01,2.80182e-01,7.91145e-02,7.46533e-01,-1.43510e+00,-3.04184e-02,2.11023e-02,1.25890e-01,-5.00546e-01,7.68936e-02,1.74537e+00,-1.13851e-01,-5.76047e-02,2.83635e-01,6.33358e-03,1.30834e+00,6.45456e-01,-2.49990e-01,5.99640e-01,-2.05021e-01,1.04004e-01,-6.00384e-01,-1.55705e-04,
-6.95974e-01,-1.29607e-01,6.00650e-01,3.03233e-01,5.69296e-01,1.62210e+00,-2.83903e-01,8.96510e-01,-3.70437e-01,7.83919e-02,-1.57323e-01,1.16182e-02,-5.46251e-01,-3.11697e-01,4.23087e-01,4.40643e-01,1.97045e-01,7.70542e-02,1.04625e+00,4.34497e-01,1.10865e+00,1.15549e+00,-3.38450e-01,6.93641e-01,-4.33821e-02,-1.61193e-01,1.74197e-01,-2.19286e-01,1.37790e-01,-5.32377e-01,4.92501e-01,2.80262e-01,-9.19107e-02,-9.77611e-01,-1.43816e-01,1.32977e+00,9.25885e-01,-2.64593e-01,-3.28025e-01,5.06461e-02,-6.71854e-02,9.20420e-01,1.51587e+00,-1.14957e-02,1.23646e+00,3.83555e-01,1.11767e+00,-1.21328e+00,-2.33483e-01,2.58709e-01,
8.89581e-01,4.27730e-01,1.01446e-01,-6.90815e-02,-5.00217e-01,9.94008e-02,7.77038e-02,3.55447e-01,1.22223e-01,-3.31108e-01,-4.18854e-01,1.06139e-01,-3.96614e-01,-3.52080e-01,-9.98920e-01,-6.51133e-01,-1.43750e-01,-5.94317e+00,6.42316e+00,7.67676e-01,1.06944e+00,-2.52855e-02,-5.44032e-01,3.82134e-01,-3.21749e-02,-3.51333e-01,8.37567e-02,2.26229e-01,-3.45264e+00,-8.11095e-01,-2.67833e-03,-4.39992e-01,2.98922e-01,-2.61133e-01,-6.42094e-02,-4.21387e-01,2.65096e-01,1.88394e-01,-5.34149e-01,-9.19568e-02,3.41113e-01,2.39629e-01,1.56315e-01,2.87773e-01,6.10358e-02,-3.30084e-01,-2.27838e-01,-9.72710e-01,3.37679e-01,6.69412e-02,
-3.12797e-01,5.24725e-01,-2.47811e-01,6.04863e-01,-3.08867e-01,3.90312e-02,3.84755e-01,2.29150e-01,3.36418e-01,-6.07636e-01,-7.23715e-01,-5.07166e-01,-1.27639e+00,5.68868e-02,8.47665e-01,-1.96791e-01,-2.17945e+00,4.43669e-01,2.72476e-01,-2.38471e-03,8.78727e-01,-2.99749e-01,9.27088e-02,-2.39890e-02,1.43944e-02,-3.65801e-01,-1.22928e-01,3.54199e-01,1.06878e-01,1.14308e+00,3.48079e-01,2.74576e-01,-6.15380e-01,7.47706e-01,-1.10295e-01,4.03103e-01,-4.75945e-01,-6.26246e-03,-1.05629e+00,-3.32901e-01,-3.36936e-01,3.00149e-01,1.44642e+00,8.58221e-01,2.42076e-01,-1.39660e+00,-6.89364e-01,1.71802e-01,-6.12382e-01,2.68339e-01,
1.93564e-01,1.44523e+00,6.59922e-01,1.59422e+00,1.12143e+00,1.53520e-01,-3.17703e-01,1.93825e+00,1.13126e+00,7.48786e-01,1.11294e-01,1.05243e+00,1.77860e-01,1.74924e-01,5.91047e-01,-1.57084e-01,9.93664e-01,-5.48732e-01,4.21743e-01,4.72649e-01,2.32863e-01,7.67089e-01,-8.74998e-02,-6.44955e-02,3.18516e-03,5.04545e-01,8.66105e-01,-1.29073e-01,-6.67322e-01,2.21090e+00,-9.28405e-01,-7.80235e-01,6.48402e-01,1.99629e+00,-2.22688e+00,2.00229e-01,-4.51103e-01,-1.15499e+00,2.49395e+00,-2.15081e-01,-3.53929e-01,7.24267e-01,1.14524e+00,5.98434e-01,-7.28098e-01,3.55473e-01,-1.57440e-01,4.82168e-01,1.85132e+00,-1.33023e-01,
-1.53071e-01,1.85324e-02,4.96609e-01,-1.76242e-01,1.32944e-01,-3.68707e-01,-3.74178e-01,-6.66281e-01,7.84158e-01,9.72886e-02,-1.94373e-02,3.06120e-01,-8.36037e-01,-3.18517e-01,1.58417e-01,1.78360e-01,3.33991e-01,4.41209e-01,-1.07546e+00,2.88974e-01,-1.50296e-01,5.78693e-01,-1.63636e-02,-3.00377e-02,-5.19832e-03,1.70673e-01,2.70206e-01,1.18443e+00,-1.44947e-01,1.78601e+00,3.33948e-01,7.01942e-01,-3.41925e-01,-1.82913e-01,-4.23262e-01,4.06886e-01,3.43907e-01,2.76607e-01,-9.33098e-02,-1.18893e+00,1.24870e-01,-1.08931e-01,-1.27216e-01,1.50708e-01,5.37367e-01,2.01625e-01,3.37445e-01,2.65499e-02,-1.16615e-01,7.19394e-01,
1.47091e-01,-9.20817e-01,-6.70497e-01,2.79001e-01,-5.95598e-02,-1.81614e+00,4.82210e-01,1.17762e+00,1.63645e-01,1.14996e+00,2.08565e-01,1.23033e-01,1.45719e-02,4.82686e-01,-3.70696e-01,1.16800e-01,-2.02176e-01,-3.19404e+00,4.60236e+00,-3.81704e-01,6.01541e-02,1.72786e-01,5.33573e-01,-1.03529e+00,4.14812e-02,1.18798e-01,2.01673e-01,3.18420e-01,-8.60189e-01,4.19401e-01,-3.96356e-03,4.96525e-01,2.65315e-01,5.47005e-01,1.37533e-01,-9.25710e-02,-6.42299e-01,1.44198e-01,3.35251e-01,2.63841e-02,-3.94839e-01,-3.06894e-01,-2.18923e+00,-4.71311e-01,1.55383e-01,3.32663e-01,4.99698e-02,-2.67322e+00,1.09758e+00,-7.61235e-01,
5.20240e-01,-2.52608e-01,6.05321e-01,8.78080e-01,-1.05383e-01,-5.88515e-01,-3.66213e-01,3.03424e-01,1.01059e-01,-2.78991e-01,-3.07602e-01,3.98350e-02,1.48407e-01,5.45496e-01,-6.66054e-02,4.57284e-01,1.49041e-02,-4.55494e-01,1.27761e+00,7.21701e-02,-2.01842e+00,2.53964e-01,5.32712e-01,2.62947e-01,-4.02599e-03,8.44994e-01,4.87316e-01,-1.29872e+00,3.74972e-01,1.80188e+00,-1.62130e-01,1.22249e+00,1.73516e+00,-4.20167e-01,1.39691e-03,-2.07300e-01,2.15670e-01,-5.83451e-01,-4.43869e-01,-5.24151e-01,-8.84263e-02,-1.36258e+00,-2.08125e+00,-2.89495e-01,2.66056e-01,-6.93870e-02,-6.14191e-01,-4.74529e-01,6.49689e-01,3.00955e-02,
3.41227e-03,3.59345e-03,-5.26060e-02,-4.35683e-02,-1.21571e-02,3.89191e-02,-2.44973e-02,8.33825e-03,-3.10419e-03,-1.69183e-02,-7.47030e-03,-1.40038e-02,-5.15684e-02,-1.33928e-02,-5.00966e-02,3.18874e-02,1.17550e-02,-3.72559e-02,-6.60511e-03,-4.72876e-02,2.11228e-02,4.19343e-02,-2.89893e-02,-2.41435e-02,-2.16306e-03,-1.63612e-02,-2.72611e-03,-2.33119e-03,-4.56672e-02,3.97102e-02,3.67849e-02,-4.38300e-02,-3.07999e-02,-3.11257e-02,4.56455e-03,-2.22941e-02,-4.66526e-02,-4.10443e-02,1.14919e-03,-2.76917e-02,2.01718e-02,1.73984e-02,-1.35787e-02,-4.21613e-02,3.55647e-02,-4.66780e-02,-2.29515e-02,1.83962e-02,-5.93874e-03,-4.32285e-02,
3.94096e-02,5.50723e-01,-3.70665e-02,2.12755e+00,3.26103e-02,-5.50848e-03,1.30901e-01,1.44832e+00,3.99472e-01,1.15941e+00,-9.85198e-02,-2.11169e-01,3.54951e-02,1.12178e-02,4.02512e-02,6.73347e-02,-6.64966e-02,-1.97073e-01,-1.07930e-01,1.15636e-01,1.93412e-01,-1.86414e-01,-1.41833e-02,-1.09271e-01,-4.64680e-04,4.08058e-01,2.07189e-01,1.20423e-02,-8.25058e-02,2.56778e-02,-3.82905e+00,-5.69789e-02,1.00422e+00,2.08869e+00,-1.69716e+00,3.73892e-02,4.77989e-02,5.36657e-02,2.58227e+00,-1.80186e-02,-1.25438e-01,-4.69560e-02,-2.08863e-02,6.44177e-01,4.34935e-02,6.52171e-01,1.88168e-02,1.34778e-01,1.72180e+00,-9.36736e-02,
5.42368e-01,6.11729e-02,-9.94138e-02,-4.15036e-01,3.86408e-02,-1.44026e-01,2.04157e-01,-2.02811e-01,-1.44019e-01,7.15926e-01,-2.74902e-01,5.71143e-02,-4.64974e-01,-5.57419e-02,-9.35183e-01,-4.87267e-01,6.60513e-02,-1.13881e+00,7.45740e-01,7.76297e-01,9.99378e-01,4.15307e-01,-2.61329e-02,1.74351e-01,1.08529e-02,-5.81010e-02,-8.98991e-02,-2.10220e-01,-6.49379e-01,-4.44544e-01,8.40818e-02,2.59013e-02,2.61792e-01,4.33581e-01,-3.18584e-01,-6.53248e-01,6.96259e-01,-1.59344e-01,8.37553e-01,9.55951e-02,-2.89821e-01,-2.50334e-01,-1.68588e+00,1.53441e-01,3.17186e-01,5.03401e-01,-9.60577e-02,-5.58891e-01,6.04821e-01,-5.08963e-03,
6.67591e-02,-4.78893e-01,8.34231e-01,-2.73419e-01,1.20590e-01,-2.35857e+00,4.03911e-01,-9.26539e-01,4.69639e-01,1.74590e-01,4.02392e-02,2.96503e-01,-2.39350e-01,1.18854e+00,1.13504e-01,1.18828e-01,-7.26051e-01,-3.84486e-01,-6.30676e-01,-8.02355e-01,-1.87672e+00,1.50505e+00,-6.27703e-01,3.09186e-01,8.45378e-03,-7.54322e-01,2.42916e-01,-4.17442e-01,-6.28167e-02,4.36803e-01,-4.34041e-01,1.01109e+00,1.15964e+00,-4.77199e-01,3.93550e-02,-4.36070e-01,4.40735e-02,-8.46213e-01,4.91054e-01,2.15956e-01,2.40567e-02,-2.01547e-01,-2.22681e+00,-3.03841e-01,6.35450e-01,-2.30395e-01,7.02736e-01,8.15826e-01,1.36467e+00,4.97661e-02,
-9.28640e-01,-8.03886e-02,6.37729e-02,-2.63019e-01,1.66827e-01,-1.65716e+00,-1.32457e-01,-1.32572e+00,1.67219e-01,-1.30946e-01,-3.34594e-01,6.66788e-02,6.32777e-01,3.79516e-02,-3.87032e-01,-1.28015e-02,1.01307e+00,-3.84665e-01,7.56031e-03,4.83827e-01,-2.99608e-02,9.77140e-01,-5.13268e-01,-1.18488e-05,-2.39806e-02,-9.89859e-02,-4.54853e-01,-5.08915e-01,8.69450e-02,-1.37244e+00,-5.62754e-02,8.45539e-01,-2.51121e-02,7.47378e-02,2.85590e-01,5.03731e-02,-6.35955e-01,-6.31856e-01,-4.63081e-01,3.66639e-01,-4.41847e-01,-3.03306e-01,-4.59748e-01,-4.37595e-01,4.77966e-01,4.34238e-01,-1.28778e-01,-1.30653e+00,1.76107e-01,1.03521e-01,
-8.76579e-02,-3.94447e-02,6.47313e-02,1.95519e+00,-2.47852e-01,-1.78240e-01,3.70758e-01,4.38517e-01,-5.27650e-02,9.39660e-02,-1.62234e+00,3.75167e-01,6.52717e-01,-3.41148e-01,6.80780e-01,-4.62468e-02,9.34934e-02,-5.01777e-01,-8.20838e-02,1.78229e-01,1.03024e-01,3.65015e-02,-1.92483e-01,5.34099e-01,-2.51719e-02,-7.60667e-01,1.17035e-01,-6.48589e-01,-1.73934e-02,6.95141e-01,-6.84568e-01,-2.40548e-01,4.16364e-01,2.47532e+00,-1.05195e+00,3.07987e-01,1.25463e-01,2.16560e-01,2.47641e+00,-4.56824e-02,-1.41824e+00,3.92727e-01,-4.66376e-01,3.01731e-01,8.53783e-01,8.99251e-01,-4.30251e-01,6.84289e-01,1.18938e-02,-2.03476e-01,
-1.36948e-01,9.51717e-03,-1.38863e-01,1.44258e-02,2.00020e-02,-2.40808e-01,-1.23084e-01,3.23430e-02,7.91606e-02,2.04811e-02,-1.38070e-01,-5.74912e-02,1.02255e-02,7.67071e-02,-1.45429e-01,-9.10074e-02,5.69720e-02,-6.59210e-02,1.46908e-01,7.06856e-02,-6.61596e-02,1.04563e-01,-7.55332e-02,-8.52281e-02,-4.75373e-03,6.63452e-02,7.83520e-02,-7.48353e-02,-1.36368e-01,4.35140e-02,-1.47388e-01,6.37754e-02,9.17308e-02,1.61574e-03,-1.12873e-01,-1.43670e-01,-5.74710e-02,7.01203e-02,5.93641e-02,-1.69095e-01,-9.43887e-02,-3.02520e-02,-6.44611e-02,5.32142e-02,3.65980e-02,6.21885e-02,6.62598e-02,9.57317e-02,6.67321e-02,-1.16106e-01,
4.70704e-01,4.10518e-01,1.87031e-01,8.63269e-01,-9.47657e-01,-8.64551e+00,-3.48007e+00,1.14030e+00,5.18583e-02,3.16852e-01,4.32389e-01,1.84579e+00,2.44769e-01,-1.79830e-02,-1.11664e-01,1.10282e+00,4.75670e-01,-4.32428e-01,1.71198e+00,-6.86710e-01,-2.69506e-01,-3.30778e-01,-6.60606e-01,-2.26680e-01,2.04342e-02,5.21441e-01,9.09136e-01,7.89326e-01,-7.32973e-01,1.01704e-01,-6.23539e-01,-7.18045e-01,7.27761e-01,-7.30231e-01,-1.79780e+00,1.08374e+00,6.66371e-01,7.63974e-02,1.86647e-01,-1.70357e-01,6.18602e-01,-3.55420e-01,2.82117e-01,-1.37108e-01,-2.09851e-01,3.60947e-01,4.00460e-01,4.40930e-01,8.84444e-01,-1.53588e+00,
5.20311e-01,-1.88428e-01,-1.10653e-01,6.10181e-01,3.57651e-01,1.10959e+00,2.14337e-01,1.39225e-01,-5.98133e-01,3.33181e-02,-2.83676e-01,4.07513e-02,-8.93658e-01,5.63481e-01,1.04593e-01,-1.19586e+00,-1.15278e+00,4.42435e-01,-1.35846e+00,6.02638e-01,-4.04152e-02,1.98201e+00,-2.88953e+00,6.23524e-01,9.86094e-03,4.91189e-01,-3.93000e-01,3.98158e-01,-5.07787e-01,-1.06632e+00,4.57529e-02,-4.87946e-01,-3.57225e-01,-4.29378e-01,1.69915e-01,1.53339e-01,3.56896e-01,9.76487e-01,-6.93323e-01,-7.26866e-01,-2.32865e-01,9.07520e-02,5.22503e-01,-4.97188e-01,-4.41339e-01,-1.77777e-01,5.11765e-01,4.50852e-01,9.79371e-02,-4.23109e-01,
-1.64987e-01,-8.33527e-02,2.42473e-01,8.49159e-01,-4.79460e-01,5.81844e-01,9.82952e-01,1.07879e+00,7.26892e-01,5.29269e-01,-4.20415e-01,-7.80971e-01,3.66399e-01,7.17431e-01,2.64702e-01,-8.49128e-02,-6.21261e-02,-4.33837e-02,-4.71526e-01,2.65359e-01,3.66676e-02,1.05228e+00,-1.84019e-01,3.42488e-01,-7.13987e-03,7.95366e-01,1.19578e+00,5.38103e-01,6.10559e-01,1.74364e-01,-2.56258e+00,-1.20707e+00,1.01169e+00,1.14985e+00,-1.40846e+00,8.08921e-01,1.29969e-01,5.32479e-01,2.04186e+00,1.37766e-01,-1.64729e-01,-5.34234e-01,2.25923e-01,6.54167e-01,-1.63932e-01,6.84873e-01,1.99711e-01,8.28719e-01,1.69850e+00,-9.24089e-01,
3.95277e-01,-9.66309e-02,5.25130e-01,2.90395e-01,-1.41133e-01,-1.89133e+00,-1.62675e+00,1.23817e-01,-4.60584e-01,9.80546e-01,1.51212e-01,-4.03642e-01,-2.09886e-01,-3.96032e-01,-1.31958e+00,-2.31695e-01,-7.85902e-01,1.20239e-01,-4.74980e-01,5.98314e-01,-2.38218e+00,1.42707e+00,2.47783e-01,-1.40134e-01,-2.68764e-02,2.71052e-01,-9.50764e-01,-4.88094e-01,7.90170e-01,-6.25228e-03,-1.22929e-01,1.10265e-01,-1.70346e-01,4.76420e-01,-5.63587e-02,-1.97920e-01,-4.16719e-02,3.39082e-01,2.29650e-01,-1.05562e-01,-3.42492e-01,9.81843e-02,-7.32316e-01,6.09348e-02,6.04883e-01,5.81011e-01,-1.77514e+00,-7.43209e-01,-1.68350e-01,-5.81466e-01,
-1.24508e+00,5.62699e-01,2.60105e-01,-2.34968e-01,-3.67931e-01,-2.27693e-01,2.39146e-01,6.63539e-01,-8.53319e-01,-8.24715e-01,-1.15946e-01,4.52936e-01,-2.39530e-02,4.82179e-01,8.24240e-01,1.61358e-01,-3.36839e-02,5.66324e-01,-1.88275e+00,7.46786e-01,-1.18595e-02,-1.04783e+00,1.10226e+00,3.30996e-01,-3.44808e-02,2.38694e-01,1.53113e-02,1.14493e-01,3.54661e-01,4.57516e-01,-1.66063e-01,-7.14959e-01,-6.56524e-01,-2.08345e-01,-2.59857e-01,3.24339e-01,-7.28687e-02,7.26105e-01,-4.54697e-02,-1.27635e+00,-6.32906e-01,4.17452e-01,1.43878e+00,-3.90330e-01,-6.53053e-03,-1.00863e+00,5.12293e-02,6.49177e-01,-1.59838e-01,-2.28926e-01,
-3.48713e-01,9.89373e-02,1.75949e-01,9.94905e-01,2.17003e-01,2.44131e-01,5.73585e-02,5.61349e-01,-3.48277e-01,2.12931e+00,2.62162e-01,-5.17690e-01,-1.13217e-01,-3.09114e-01,1.19633e-01,2.83863e-01,3.79286e-01,9.04924e-02,-2.08664e-02,6.66918e-01,2.88551e-01,-4.58551e-02,-1.58156e-01,4.26886e-02,-2.35286e-02,3.68011e-01,4.03413e-02,2.13342e-01,2.94078e-02,1.90033e-01,-3.80400e-01,6.54052e-02,1.40289e-01,1.38621e+00,-3.90673e-01,-4.34461e-01,-9.81892e-02,-6.18434e-01,6.12584e-01,1.70814e-01,-2.66164e-01,4.80051e-02,3.31019e-01,3.21773e-01,5.08282e-01,8.91917e-01,-1.50759e-01,-6.02380e-01,-1.42708e-01,1.60951e-01,
8.35500e-02,
-2.13261e-02,
7.56291e-01,
-1.25082e+00,
1.78469e-01,
-3.39158e-01,
1.09226e-01,
-1.26214e+00,
-3.56488e-01,
-8.29379e-03,
-2.01183e-02,
-1.92039e-01,
-8.92578e-02,
-2.06319e-01,
1.05053e-01,
-9.32226e-02,
-2.45924e-01,
1.59416e-01,
4.65794e-01,
-7.60039e-01,
1.27213e-01,
3.93189e-01,
-7.17872e-02,
3.19831e-01,
-1.41183e-02,
-6.60377e-03,
-7.03714e-01,
4.40894e-01,
-4.03874e-01,
-5.50258e-01,
-1.33355e+00,
-1.11956e+00,
-7.31673e-01,
2.37415e-01,
-8.27488e-01,
3.17529e-01,
-7.41801e-01,
-1.74412e-02,
-3.02206e-01,
-9.96994e-02,
6.55079e-01,
1.25241e+00,
3.90987e-02,
-2.42382e-02,
-3.85696e-01,
-3.59071e-01,
-1.55856e-01,
2.85971e-02,
-4.26623e-01,
7.80925e-01,
1.46062e-01,-5.49069e-03,8.01161e-01,1.30888e+00,2.24081e-01,-1.36375e+00,-1.09635e-01,8.97565e-01,3.10022e-01,6.76134e-03,-3.62062e-03,1.50946e-01,-2.34958e-01,1.59246e-01,-1.78135e-03,4.84720e-01,3.26779e-01,-5.93815e-01,-4.91420e-01,3.24435e-01,-6.72812e-01,3.02187e-01,4.20200e-01,2.98746e-01,2.35580e-02,5.49653e-03,-1.78374e-01,-1.50386e+00,3.08066e-02,3.36094e-01,3.40865e-01,1.66316e+00,1.49909e-02,3.39050e-01,3.95486e-01,-7.82440e-01,-6.33538e-01,-3.86552e-02,-3.24800e+00,6.24705e-01,-8.80133e-01,-1.00503e+00,-5.20676e-01,3.31195e-02,4.96559e-01,1.13038e-01,-1.11652e+00,-1.15657e+00,5.15279e-01,-1.31494e-01,
-1.15900e+00,-8.19640e-03,-4.78648e-01,-4.81078e-01,1.44151e+00,1.08585e+00,3.48308e-01,-4.79695e+00,4.24564e-02,3.70465e-01,-1.92723e-02,-6.78069e-01,1.59702e-01,6.51192e-01,8.58435e-01,3.68033e-02,2.56541e-02,-2.62880e-01,-1.07704e+00,-3.63110e-01,-1.62178e+00,-7.91826e-01,3.76309e-01,-9.78965e-01,2.76093e-02,3.15412e-02,5.36809e-01,-1.15903e+00,-9.49046e-02,-3.33401e-02,-2.59683e-01,1.96950e+00,5.02990e-02,7.33369e-02,-8.70267e-01,7.79935e-01,7.60352e-01,-2.16960e-02,-2.00278e+00,-8.01014e-01,2.14337e-01,1.15480e+00,-9.67842e-01,2.56467e-02,1.58038e-01,-1.84218e-01,-5.92641e-02,-2.33211e+00,-5.12806e-01,-3.17556e-01,
1.01583e+00,2.82395e-02,1.11866e-01,-5.24130e-01,3.73136e-01,-1.15599e-02,-1.16923e-01,-7.87078e-01,-1.54326e-01,6.82323e-02,-3.53034e-03,2.63966e-01,-9.58976e-02,5.44680e-01,1.47752e-01,1.15876e-01,-4.94943e-02,-6.46944e-01,8.04996e-01,-1.03553e-01,6.47824e-01,2.10518e-01,1.34414e-02,7.21111e-02,4.19941e-02,-2.87331e-03,-1.88786e+00,-5.08159e-01,3.98983e-01,2.35033e-01,-2.34269e-01,-5.94599e-01,-8.80051e-02,6.63104e-01,-1.09561e-01,-6.33579e-01,-7.34850e-01,3.17191e-02,1.29543e-01,3.61486e-01,-1.00759e-01,-4.98541e-01,-1.97447e-01,1.02128e-03,2.36294e-01,3.15173e-01,-3.53333e-01,7.69389e-02,-4.90059e-01,-3.07144e-01,
1.71550e-01,2.82890e-02,4.81205e-03,2.51563e-02,5.60003e-01,-8.17147e-02,1.07524e+00,-1.49315e-01,3.33289e-01,-2.67687e-01,2.51055e-02,6.84131e-02,-6.92569e-02,3.52149e-01,-1.32073e-01,1.93726e-01,1.64038e-02,-2.62618e-01,4.27665e-01,-2.76684e-01,-5.22781e-01,3.72600e-01,2.85768e-01,-1.81297e-01,-2.81393e-02,-3.09896e-03,8.15148e-02,7.71188e-01,2.66684e-01,-1.76701e-01,1.51055e-01,-6.86267e-01,3.47794e-01,6.70909e-01,1.03328e+00,-3.57463e-02,2.54170e-01,-4.00246e-02,1.77277e+00,2.31712e-01,-2.73397e-02,1.16641e-01,3.77009e-01,3.95626e-02,3.64817e-01,-1.35759e-01,1.86865e-01,-3.63663e-01,-1.91584e-01,-3.02725e-01,
9.64962e-01,2.54362e-02,1.02175e+00,-3.67916e-01,3.76138e-01,-4.68296e-01,-3.56728e-01,-2.66241e-02,-1.62296e-01,5.03782e-01,5.13435e-02,-1.32808e-01,-7.26330e-01,-6.89319e-01,7.69499e-01,-4.04309e-02,2.51933e-02,9.79278e-03,-5.32192e-01,-2.57975e-01,-1.66326e+00,-1.15800e+00,1.94143e-01,-4.38895e-01,4.11050e-02,4.98390e-02,9.66099e-01,-8.19594e-01,-5.15786e-01,5.03378e-01,5.38521e-01,-1.94713e+00,5.49072e-01,2.17526e-01,1.58106e-02,6.93106e-01,-4.33273e-01,4.47726e-02,-9.76005e-02,3.80133e-01,2.74513e-02,-8.14247e-01,1.04804e+00,-5.30910e-03,2.72228e-01,8.15771e-01,9.77107e-01,1.37108e-01,-6.36124e-01,-5.01804e-01,
-1.20828e+00,-3.06365e-02,4.33619e-01,3.35091e-01,-1.74546e-01,4.10784e-01,3.68932e-01,-3.09007e-01,-3.60549e-01,-5.24694e-02,1.12505e-02,-7.90796e-01,6.35683e-01,-7.33220e-01,1.05917e+00,1.06656e+00,-2.83025e-01,1.85908e+00,-1.04886e+00,5.06481e-01,-2.96097e-01,1.90397e-01,7.16911e-01,1.25893e-02,1.16692e-02,-6.99135e-03,2.24872e-01,-9.04221e-01,-6.25054e-01,-1.43618e-01,-1.47651e-01,1.06114e+00,5.56923e-01,-2.14550e-01,1.35698e-01,-2.61860e+00,1.19467e-01,1.45358e-02,1.49256e+00,5.65217e-01,4.50213e-01,-9.77057e-01,6.96405e-01,-1.57945e-03,5.46697e-01,4.82885e-01,-6.93342e-01,-5.92518e-01,1.40905e-01,-6.42581e-01,
-4.25144e-01,2.22066e-02,3.35841e-01,1.27284e+00,-9.97444e-01,1.86136e+00,-2.55394e-01,2.36350e-01,-6.43508e-01,-2.29052e-01,-8.60178e-03,4.94966e-01,7.09357e-01,-2.17218e-02,1.73294e-01,4.41220e-01,-4.12607e-01,1.11912e+00,-8.40654e-01,4.96495e-01,-6.51158e-01,2.17122e-01,-5.25635e+00,5.84451e-02,3.64919e-02,-1.27720e-02,-5.18883e-01,-1.13222e-01,2.03969e-01,-5.04199e-01,9.99772e-01,4.60578e-01,-3.51577e-01,-2.37441e-01,-2.15126e-01,-4.57571e-01,2.79574e-01,-1.87747e-02,-6.89664e-02,-4.68080e-01,-4.09932e-01,4.45860e-01,-3.01941e-01,-4.75218e-02,-7.12586e-01,1.10293e-01,-1.62156e+00,1.51175e-01,7.41153e-01,-1.30518e-01,
-8.03755e-01,8.19363e-03,5.49499e-02,-5.57972e-01,4.00247e-01,3.19572e-01,1.19910e-01,-8.10272e-02,-4.18160e-01,3.19676e-01,2.14557e-02,7.62041e-02,4.81482e-01,1.18377e-01,-1.37534e-02,8.74086e-02,-2.23724e-01,1.21210e-01,5.16506e-01,-1.47759e-01,4.90774e-01,5.12597e-01,6.23626e-02,1.62539e-01,1.29173e-02,1.05879e-02,1.17349e+00,-9.46097e-01,-5.15979e-01,-2.27916e-01,-2.04180e-01,-2.01319e+00,2.32158e-01,3.39722e-01,5.13740e-01,-2.90217e-01,2.42341e-02,3.42037e-02,-2.14850e+00,6.28867e-01,6.25793e-02,7.13141e-01,-2.66893e-01,9.90420e-03,8.75104e-02,-1.29673e-01,3.94900e-01,-2.07967e-01,1.95456e-02,4.25780e-01,
2.01821e+00,-1.26880e-02,-2.34051e-01,1.58720e-01,3.87210e-02,6.19946e-01,5.10623e-01,3.07073e-01,1.60823e-01,-1.46549e-01,2.48556e-02,7.96208e-02,6.14687e-01,3.52107e-01,7.50803e-03,-5.96441e-01,-5.30358e-01,-2.00885e-01,-4.44408e-01,4.06136e-02,-3.81539e-01,-4.08537e-01,2.13565e-02,5.00072e-01,1.37947e-02,5.12252e-03,3.89010e-01,-1.71396e-01,-1.79847e-01,-2.62263e-01,1.69223e-01,-9.01223e-03,4.39930e-01,5.05978e-01,3.92761e-01,1.05546e-01,-3.94178e-01,8.22456e-03,-1.90046e-01,-2.63867e-01,4.98582e-01,2.73241e-01,3.95952e-01,4.74857e-02,4.04917e-01,2.80034e-02,3.55012e-01,1.04364e+00,2.00522e-01,1.53662e-02,
7.42798e-01,-3.49476e-02,-5.90523e-01,-6.65974e-01,-6.05671e-02,1.79066e-01,2.28669e-02,-7.22340e-01,-9.95080e-01,1.96543e-01,-3.82987e-02,-5.35398e-01,-1.69620e+00,-3.17144e-01,-6.52546e-01,6.94423e-01,2.34662e-01,-4.03441e-01,-1.30644e-02,-1.81886e-01,-1.41919e-01,6.94437e-01,-2.43078e-01,-2.86019e-01,2.67568e-02,-3.08723e-02,-2.67391e-01,-8.27730e-01,3.73082e-01,-7.54960e-01,-1.17626e-01,-2.80362e-01,-1.99050e-01,7.79035e-01,-3.52901e-01,4.72195e-01,-1.00530e+00,4.89097e-02,-2.11348e-01,7.60249e-01,1.53060e-01,-2.61150e-03,-1.46425e-02,-4.32454e-02,1.99546e-01,-1.37113e-02,9.69328e-01,-1.23406e+01,7.59115e-03,8.91815e-02,
1.45289e-01,1.84233e-02,3.92431e-01,6.83524e-01,-1.67875e-01,6.17611e-01,-2.61705e-01,1.65697e-01,1.22042e-01,-4.04806e-01,2.64361e-02,2.49532e-01,1.00811e+00,-1.60997e-01,-3.93967e-02,5.45039e-01,-1.02538e-01,-4.21665e-01,2.94277e-02,1.15174e-01,1.93213e-01,2.85507e-01,2.23236e-01,1.54078e-01,5.37730e-02,-3.85089e-02,-3.01313e-01,-1.74012e-01,2.98870e-01,1.59492e-01,3.87716e-01,-8.88834e+00,-4.94507e-01,1.33133e-01,3.49018e-02,3.24018e-02,-3.12263e-01,4.53832e-03,-3.80591e-01,9.45946e-02,-3.35861e-01,-7.00409e-01,6.20854e-02,2.49428e-02,-1.00599e-01,-4.45550e-01,1.89804e-02,1.21613e+00,2.58490e-01,-1.23328e-01,
-5.86311e-02,-3.25541e-02,2.12813e-02,-1.27002e-01,2.48770e-01,2.57524e-01,2.05781e-01,2.55555e-01,2.72021e-02,-3.89660e-02,3.27889e-02,-3.70637e-02,4.59418e-01,3.11447e-01,1.21522e-01,-2.19244e-01,-1.04548e-01,-4.17035e-01,2.84548e-01,5.70689e-02,5.09280e-02,-1.20777e-01,-1.23445e-01,9.78158e-02,1.41455e-02,-1.54527e-03,-9.55284e-03,1.76128e+00,3.05404e-02,9.25489e-02,-1.10095e-01,4.40722e-01,-1.70389e-01,1.15845e-01,-1.30184e-01,2.22611e-01,-2.50661e-01,-3.69024e-02,5.91063e+00,-2.53637e-01,1.06401e-01,2.11188e-02,3.10117e-01,1.42127e-02,2.99072e-01,2.13150e-01,3.88096e-01,3.11470e-01,2.51179e-03,4.90902e-01,
8.91207e-01,3.09927e-03,1.91057e-01,8.47391e-01,-7.57084e-01,-1.08728e-01,1.08605e-01,7.30393e-01,-9.99004e-01,2.91265e-01,3.58668e-03,-4.89437e-03,1.02984e+00,-1.89973e-01,1.10379e+00,2.97680e-01,3.64115e-01,-1.59853e-01,-3.88524e-01,3.57379e-01,-7.72016e-01,4.27579e-01,-9.68083e-02,3.32783e-01,-5.02501e-02,3.05253e-02,-1.22240e-01,-2.65314e-03,4.16209e-01,-6.37170e-02,1.61621e-01,-3.94565e-01,-4.58226e-01,1.49694e-02,7.66441e-01,-8.85446e-01,9.78771e-01,1.17076e-02,-7.78877e-02,1.24059e+00,-1.17544e+00,-2.64866e-02,-2.71245e-01,-1.26421e-02,-2.63434e-01,-9.54914e-01,7.90132e-01,-6.49859e+00,3.56001e-01,-9.06415e-01,
-2.03191e-01,3.54445e-02,-1.35683e-01,1.72597e+00,-5.60661e-01,1.45182e+00,-3.14939e-01,-8.18213e-01,-5.67671e-01,-3.13603e-01,-5.86123e-04,-6.49615e-02,2.67421e-01,4.66390e-01,1.54891e-03,2.68874e-01,-3.91146e-01,-1.38025e-01,-6.13058e-01,2.33437e-01,2.44871e-01,-3.98625e-02,-5.88535e-01,-3.84737e-01,-2.87341e-02,3.44368e-02,1.34580e+00,1.39991e-01,2.71717e-01,-1.18867e-01,4.62311e-01,-1.08014e+00,6.27303e-01,8.75428e-01,1.89252e-01,-6.40010e-02,6.23558e-01,4.44535e-02,-8.93462e-01,-3.79754e-01,5.03970e-01,2.55509e-01,-1.07397e+00,3.69999e-02,-3.08284e-01,1.95894e-02,-4.97418e-01,-7.90441e-01,-4.99362e-01,-3.33678e-02,
6.37249e-01,4.12482e-02,-5.35789e-01,-1.65997e-01,2.22254e-01,-1.29509e-01,1.68887e-01,-9.90528e-01,1.41814e-01,-2.19544e-01,-1.23741e-02,1.38516e-01,1.62982e-01,2.68959e-01,-5.57615e-01,2.74573e-01,-9.85997e-01,-9.16996e-02,6.19747e-01,-1.80222e-01,9.66425e-02,2.19819e-01,-1.45410e-01,-5.44013e-01,-2.91337e-02,-1.15090e-02,-2.13131e-01,1.66275e-01,3.33745e-02,1.72050e-01,-2.83350e+00,3.10539e-01,1.90533e-03,-4.48736e-01,-4.29262e-01,1.20101e-02,2.22933e-01,2.03812e-02,1.76466e-01,2.26553e-01,4.05280e-01,1.94034e-02,3.70197e-01,-5.31940e-02,-2.16867e-02,-6.05030e-01,-1.81651e-01,1.63974e-01,-1.94473e-01,-4.11197e-03,
2.94938e-01,1.35311e-02,-7.66397e-02,1.55444e+00,-1.56924e-03,-6.90961e-01,3.43323e-01,7.83698e-01,1.50708e-01,-2.68165e-01,4.80418e-02,4.45928e-01,-6.18795e-01,-9.63014e-01,-3.91207e-01,-1.77534e-01,1.60410e+00,-7.45347e-01,1.02562e+00,-1.31052e-01,4.84417e-01,-5.01487e-01,-4.97197e-01,7.01602e-01,-1.97819e-03,-3.33200e-02,1.21351e+00,-7.86052e-01,1.46377e+00,-2.14150e-01,2.64452e-01,-4.79928e-01,-3.43349e-01,-9.73586e-01,7.29821e-01,7.22078e-01,4.49626e-01,3.81336e-02,-4.12317e-01,-7.13630e-01,3.47241e-01,-6.78601e-01,7.05949e-01,-2.91013e-03,2.38811e-01,-4.33120e-02,8.69538e-01,3.55630e-01,-6.44694e-01,-2.69284e-01,
9.25017e-01,3.47247e-02,5.83957e-01,2.61261e+00,1.25635e+00,-2.35001e-01,3.16653e-01,7.28161e-01,2.00780e-01,-2.16497e-01,1.02565e-02,1.49785e-01,-1.10396e-01,-2.40330e-02,4.54593e-01,-4.90487e-01,1.96107e-01,5.45438e-01,-3.53491e-01,7.86454e-02,6.72063e-01,6.97775e-01,-8.22860e-03,1.51910e-01,-1.57649e-02,-3.71437e-02,-1.63118e+00,4.18970e-01,7.08916e-01,-3.80223e-02,5.54091e-01,-1.81186e+00,-1.07839e-01,-2.67791e-01,-4.96835e-02,1.45506e-01,-1.35521e-01,7.29548e-03,1.30949e+00,-8.75566e-01,3.43603e-02,1.34255e-01,-3.55562e-01,2.71794e-02,-8.38481e-03,-6.04518e-01,-1.02755e+00,3.72274e-02,-2.42094e-02,-2.21488e-01,
5.27795e-01,3.83142e-02,-2.62704e-02,-5.58835e-02,1.03953e+00,-4.52990e-02,6.18213e-01,3.86199e-01,1.96309e-01,9.89538e-02,2.51265e-02,-4.75638e-01,4.94389e-01,3.66606e-01,-6.01781e-02,-3.24216e-01,3.20777e-01,-9.14559e-01,-2.36958e-01,-9.27769e-02,-2.13636e-01,-6.90574e-02,-2.70830e-01,-2.11787e-01,3.86293e-03,1.59323e-02,-3.72878e-01,-5.70800e-01,-3.04966e-01,4.42160e-01,-8.90178e-02,4.22203e-01,1.47923e-01,-1.31480e-01,6.93733e-01,2.19791e-01,-2.78162e-01,1.96319e-02,-3.54020e+00,-1.06762e+00,3.04704e-01,2.03008e-01,-7.83567e-01,-3.77716e-02,3.91789e-01,3.36471e-01,-5.58641e-01,9.19622e-01,3.73548e-03,-2.70135e-02,
-6.09429e-01,-2.67744e-02,-5.84519e-01,7.08231e-01,1.54541e+00,1.28027e+00,1.20276e+00,-8.52780e-02,-2.14036e-01,1.35961e-01,1.80170e-02,-9.29485e-01,2.45573e-01,3.50963e-01,-5.27670e-01,3.12389e-01,-6.94840e-01,-8.88829e-01,9.89515e-01,6.86288e-02,5.11784e-01,7.81455e-01,4.83711e-01,5.93932e-01,-1.76962e-02,-8.07724e-03,4.80793e-01,-2.70103e-01,9.31793e-01,-1.09607e+00,-2.28702e-01,1.79002e-01,-2.08995e-01,-9.70445e-02,-2.22130e-01,-3.50161e-01,3.35524e-01,-3.59516e-02,-1.12456e+00,3.51186e-02,-4.62276e-02,5.10957e-01,5.68825e-02,-4.93969e-02,4.62084e-01,-5.68002e-01,1.45591e-01,-4.48148e-01,-3.90142e-01,-4.38839e-01,
2.81987e-02,5.67291e-04,-3.35172e-02,2.21532e-02,-8.49354e-03,-1.79700e-02,-5.65698e-02,-1.19536e-02,3.27668e-02,1.18744e-02,-3.85735e-02,-3.14957e-02,-1.86555e-02,-2.45256e-02,-3.09155e-02,-1.17556e-02,-7.53109e-03,5.68355e-03,-4.75943e-02,-1.84423e-02,-1.68257e-02,-3.25391e-02,-4.12737e-02,3.59142e-02,2.89459e-03,-1.79112e-02,4.38456e-02,1.84717e-02,-2.19837e-02,-2.54984e-02,-3.24205e-02,-4.93456e-02,9.96460e-03,-4.04852e-02,-3.24605e-02,-2.14441e-02,-1.94307e-02,-4.00788e-02,5.36786e-03,-2.63758e-02,-8.05161e-03,-2.10690e-02,9.91467e-03,4.46544e-02,3.46503e-02,-1.17978e-02,3.09422e-02,-1.96124e-02,-2.89309e-02,2.85666e-02,
4.93593e-01,-2.12754e-03,-2.99223e-01,-1.29604e+00,-1.94329e+00,2.54332e-01,-1.45014e-01,-7.69556e-01,-2.91427e-02,2.04466e-01,-1.93495e-02,9.12017e-01,3.95964e-01,-1.09370e-01,-1.64904e-01,2.19708e-01,-9.99070e-01,1.00183e+00,1.54489e-01,7.03367e-01,-3.52821e-01,4.72834e-01,-1.50369e-01,9.06695e-01,-1.08754e-02,-1.56438e-02,-6.44223e-01,7.51099e-02,1.92381e+00,4.98470e-01,-2.63307e-02,-8.32925e-01,1.39549e-01,-9.24439e-01,-7.09852e-01,-9.00559e-01,3.20868e-01,-1.64225e-03,-1.10211e-01,4.69957e-01,-4.23107e-01,5.29041e-01,3.83489e-01,7.33732e-02,3.28036e-01,-4.98930e-01,2.39318e-01,-8.81306e-01,1.60874e-01,-3.60308e-01,
2.67386e-01,-3.10069e-02,4.62529e-02,-1.81781e-01,7.33043e-01,-1.95744e-01,2.81904e-01,-6.99689e-01,1.87833e-01,-9.43050e-02,2.38121e-02,-9.34802e-02,2.64367e-01,-1.76837e-01,4.20084e-02,3.74126e-01,-1.72945e-01,9.29838e-02,4.38531e-01,-4.61027e-02,-8.80043e-01,-4.77458e-01,-7.74103e-02,1.66694e-01,-3.12025e-02,-4.22025e-02,-4.11015e-01,-6.78724e-02,1.31621e-01,-7.48384e-01,2.87563e-01,-1.11993e+00,3.31507e-01,-2.69191e-01,-7.13156e-03,2.62485e-01,-2.08505e-01,4.27367e-02,-9.31398e-01,5.83904e-01,-3.01351e-01,-1.57170e-01,3.68927e-01,-2.36449e-02,1.33663e-01,4.01151e-01,-7.63221e-02,-9.66528e-02,1.55062e-01,-2.64658e-01,
-2.52108e+00,2.91625e-02,-2.01700e+00,-3.72379e+00,-4.04761e+00,-5.62509e-01,-1.99905e-01,1.40217e+00,-2.51244e-01,6.58422e-01,-4.31569e-03,-7.04431e-01,8.44940e-01,-7.89867e-01,1.19993e+00,-1.70079e+00,6.26717e-01,-7.16569e-01,1.41032e-01,5.58686e-01,3.01680e-01,-7.90634e-01,-5.92991e-01,-1.09094e+00,3.74291e-02,2.86498e-02,-1.43985e-01,4.82417e-01,5.85517e-01,1.09315e+00,-4.69709e-01,-5.97655e+00,-1.72166e-01,-5.77610e-01,6.11873e-01,1.22950e+00,3.91898e-02,-2.17360e-02,-3.36316e-01,-1.69521e+00,1.56065e+00,1.71350e+00,-1.10206e+00,-3.97061e-02,5.56967e-01,-5.36328e-01,2.21273e-02,1.64168e+00,-6.60909e-01,1.03972e+00,
3.95581e-02,-3.23224e-02,-4.08688e-03,-1.02729e+00,-1.07761e-01,1.38006e-01,-9.39547e-03,-2.80400e+00,-2.04017e-01,-7.75859e-01,9.54711e-03,-3.27877e-01,6.74289e-01,5.79891e-01,-5.58828e-01,-4.28186e-01,-1.62050e+00,7.84888e-01,-1.34279e-01,-9.16140e-01,8.01576e-01,-8.60391e-01,8.42009e-02,-3.22981e-01,3.48720e-02,-2.24831e-03,-6.28063e-01,-9.08793e-01,-3.63316e-01,-3.68246e-01,6.74471e-01,-2.97999e+00,-2.14482e-01,1.51469e-01,-5.36976e-01,-8.91852e-01,5.03065e-01,-3.47963e-02,4.41850e-01,-1.16391e+00,1.04381e+00,2.11774e-02,7.74294e-01,2.75866e-02,6.30269e-01,-4.39234e-01,2.72676e-01,1.03529e+00,-6.77481e-01,-5.66246e-01,
-7.44403e-01,-2.18864e-02,8.54192e-02,-7.04043e-01,-4.82430e-03,3.03604e-01,-5.85694e-02,-4.90719e-01,4.74623e-01,9.73899e-02,1.15446e-02,2.41105e-01,-3.82326e-01,2.23110e-01,-2.31176e-01,6.90001e-01,3.32360e-01,-3.89695e-02,-3.47505e-01,3.40976e-01,-2.67964e-01,-5.31164e-01,1.74626e-01,-3.22495e-01,-4.85967e-02,2.73186e-02,-5.11946e-01,-1.52064e-01,7.46950e-02,-7.27767e-02,-4.79449e-02,-9.70282e-01,9.29686e-02,-6.76760e-02,-2.76842e-01,8.83237e-02,-1.90790e-01,-5.94462e-03,6.76345e-01,1.27712e+00,-2.06637e-01,2.41272e-01,-2.03420e-03,1.53705e-02,3.19087e-01,-3.85122e-01,-2.47988e-01,1.56800e-01,1.40698e-01,-4.09218e-01,
7.97069e-01,-1.94802e-02,3.16095e-01,2.85329e-01,-1.17820e-01,-6.28268e-02,-2.32592e-01,-4.75468e-01,-1.72139e-01,-3.08628e-01,-2.32825e-02,1.60917e-01,6.27335e-02,2.14643e-01,4.18008e-01,2.31659e-01,1.97494e-01,6.45641e-01,5.46500e-02,2.29725e-01,-3.05709e-01,-4.51712e-03,7.36971e-03,7.28562e-01,-1.40871e-02,3.12752e-02,-5.21048e-01,3.75838e-01,3.68796e-01,9.30755e-02,2.21504e-01,5.66392e-01,3.02709e-01,1.77974e-01,4.54705e-01,-5.25633e-01,8.67847e-02,2.28208e-02,1.73625e+00,-2.57625e-01,-6.51092e-01,-4.76156e-01,2.06950e-01,4.80007e-02,3.68064e-01,4.48857e-02,1.15091e-01,1.01085e+00,1.67160e-01,2.67723e-01,
7.45162e-01,-3.77112e-02,6.69118e-01,6.48986e-01,5.92636e-01,-5.63218e-01,1.29373e-01,8.51664e-02,1.63121e-01,-2.24972e-01,-1.83618e-02,1.31560e-01,2.81181e-01,1.54090e-01,6.66001e-01,6.46505e-01,4.21292e-01,-2.81980e-01,-1.25445e-01,1.91149e-01,-6.42056e-01,-7.41481e-01,-1.14439e-01,1.25842e-01,2.61816e-02,-3.12195e-02,-5.37618e-01,1.43949e-01,-2.57022e-01,6.54678e-01,5.66845e-01,6.66786e-01,-3.88398e-02,1.61569e-01,-4.52197e-01,-4.20953e-02,-2.23400e-01,-4.49875e-02,4.28439e-01,4.50689e-01,-1.02652e-01,-1.02271e+00,-2.46517e-01,3.82490e-02,2.47530e-01,-8.89271e-02,-4.74276e-01,-1.44519e-01,4.95624e-01,-9.68043e-02,
9.51803e-02,-1.87213e-03,-7.65131e-01,1.77984e-01,-2.86903e-03,-2.58364e-01,4.21722e-01,5.35890e-01,-2.92634e-01,-3.04580e-01,-3.24707e-02,-2.69594e-01,2.45471e-01,1.41162e-01,-1.34130e+00,-6.47862e-01,-1.14806e+00,-2.21287e-01,-4.26571e-01,-5.86264e-02,-9.42397e-02,5.24332e-01,-7.91297e-02,3.70595e-01,-2.37265e-02,-3.44987e-02,3.81297e-01,-1.10337e-01,7.51840e-01,-1.34147e+00,-5.73228e-02,-1.09854e+00,1.28952e-01,8.85023e-02,2.70392e-01,-6.02751e-01,3.60743e-01,-2.03457e-02,-1.56484e-03,-7.76160e-01,-1.07373e-01,3.75024e-01,-6.69179e-01,-4.12196e-02,-4.95119e-02,2.44381e-02,1.72365e-01,7.80540e-01,-1.41102e-01,-3.53694e-01,
-1.25261e+00,2.41556e-02,-2.01039e-01,1.20524e-01,-6.22469e-01,-5.99093e-01,5.50079e-01,2.64499e-01,-1.58410e-01,2.21331e-01,1.06555e-02,-8.74233e-01,-1.23166e-01,-8.81848e-01,1.79606e-01,-2.82889e-01,-2.84602e-01,-2.94092e-01,-1.25048e+00,-2.17500e-01,-8.05890e-02,-3.45123e-01,3.40223e-02,-3.15098e-01,2.84249e-02,4.76373e-02,-2.49907e-01,3.81293e-01,-3.15540e-01,2.26015e-01,-1.37417e-01,6.53059e-02,-6.51354e-02,4.44847e-01,-8.37384e-01,5.62088e-02,3.50498e-01,-7.29792e-03,6.11262e+00,5.46006e-02,2.40395e-02,-1.76424e-01,-5.52587e-01,-1.85335e-02,1.88826e-01,1.51210e-01,3.87068e-01,1.08374e-01,-1.46023e-01,1.02106e+00,
-4.65558e-01,-2.07815e-02,-1.63094e-01,7.60722e-01,-4.83999e-01,-3.31698e-01,1.36631e-01,-6.05922e-01,3.33654e-01,5.68280e-01,-2.34362e-02,5.68785e-01,9.93802e-01,1.07068e+00,1.79763e-01,-4.74928e-01,-6.69245e-01,2.24521e-01,-5.02685e-03,-4.08747e-01,7.76654e-01,3.76396e-01,3.43438e-01,2.08682e-01,2.33998e-02,6.73103e-04,6.04754e-01,7.78545e-02,-2.84612e-01,2.80938e-01,-3.22505e-01,3.07142e-01,-3.21616e-01,-3.54589e-01,-9.01320e-01,1.45754e-01,3.28999e-01,1.85784e-02,1.04418e+00,-2.90714e-01,-8.61877e-02,-1.00970e-01,4.77102e-01,-2.91329e-02,-3.21620e-01,5.37465e-01,-5.05772e-02,-4.47937e-01,-4.29729e-01,-4.70100e-01,
1.08188e-01,-1.49620e-02,-3.59278e-02,-3.74867e-01,7.02955e-01,7.62629e-01,3.58010e-01,5.08029e-02,-3.79743e-01,-2.60286e-01,-2.64835e-02,2.81257e-01,1.21783e-01,9.36439e-02,-1.97187e-01,1.25212e-01,4.00383e-01,-3.95041e-01,5.70027e-01,3.60610e-02,-1.77937e-01,1.37694e-01,-1.92105e-01,6.02310e-02,8.32568e-03,3.22815e-02,-1.70455e-02,-2.77048e-01,4.09735e-01,-6.31655e-02,2.58719e-02,-8.76059e-02,-1.04661e-01,1.13430e-01,1.19468e-01,-4.17262e-01,-1.28723e-01,-5.05919e-03,4.17283e+00,-3.25837e-01,-1.92767e-01,2.32578e-02,-8.71876e-01,1.25965e-02,2.02984e-01,9.40861e-02,-2.33993e-01,-1.02740e-01,1.58707e-01,5.33516e-01,
7.79768e-01,4.57534e-03,-1.07788e-01,4.13416e-01,9.57031e-02,-5.66790e-01,-8.79277e-03,-4.95103e-02,-1.49351e-01,-3.20293e-01,-3.90545e-02,-2.71343e-01,-3.21204e-01,3.56257e-01,2.58003e-01,-1.61893e-02,-3.58033e-01,3.36827e-01,-2.65356e-01,-2.99872e-01,-2.55874e-02,-2.54315e-01,1.55235e-01,-9.98834e-02,-1.36903e-02,-6.55971e-04,7.64232e-02,-7.10038e-02,-2.86193e-01,-7.72092e-02,2.84597e-01,2.22485e-01,-1.36504e-01,8.87629e-02,-4.75407e-01,-4.01828e-01,1.07375e-01,-9.39561e-03,6.32379e-01,-4.62922e-01,2.03305e-02,-1.01326e-01,4.97173e-01,3.06791e-04,2.53541e-01,3.49583e-01,1.91942e-01,-2.33907e-02,-9.29337e-02,3.76251e-03,
9.07045e-01,-2.00609e-02,-5.41968e-02,2.57474e-01,-2.73609e-01,-8.08495e-02,-8.19423e-02,-6.70471e-01,6.47929e-02,-3.71169e-01,-2.09445e-02,5.42950e-01,-4.04966e-02,8.16503e-02,2.44291e-01,9.26370e-01,6.80757e-04,-5.77806e-02,1.18569e-02,-3.63323e-02,2.66722e-01,4.37671e-01,-3.64664e-01,-8.03888e-01,5.96969e-03,-2.88534e-02,4.50273e-01,4.51901e-01,6.04125e-01,-3.23262e-01,9.31869e-02,-7.42443e-01,-2.45304e-01,-2.98309e-01,2.28335e-01,-7.34490e-02,1.04095e-01,-2.41614e-02,7.74412e-01,5.65468e-01,8.16614e-02,2.64094e-01,4.30921e-02,5.43064e-02,3.59142e-02,2.51085e-01,-6.57143e-01,-1.20503e+00,6.58258e-02,-1.72260e-01,
5.53672e-02,9.76905e-03,-9.71502e-01,-3.58402e-01,-1.03829e+00,6.10096e-01,-2.58053e-01,6.51194e-02,-6.62467e-01,-1.46411e-01,2.58337e-02,-3.31898e-01,-2.19578e+00,-2.58010e-01,9.31660e-01,4.55035e-01,-7.04270e-01,7.86025e-01,-5.34430e-01,-2.15562e-01,8.48382e-01,4.43473e-01,4.55008e-01,4.35540e-01,-1.80971e-02,-2.27663e-02,-4.42703e-01,2.08782e-01,-1.83792e-01,-3.29805e-01,1.49160e+00,-4.26707e-01,-1.45738e+01,-3.46246e-01,5.02204e-01,1.06786e+00,1.10065e+00,-2.84175e-02,1.92195e-01,1.00974e+00,-2.55278e-01,7.59057e-01,9.22768e-01,-3.68589e-02,1.12179e+00,-1.31535e+00,-4.73200e-01,-4.68608e+00,2.74148e-02,-6.81584e-01,
2.34000e-01,2.93159e-02,3.32882e-01,1.24706e+00,-7.77912e-01,1.17049e-01,-5.75262e-01,2.60182e-01,-3.37544e-01,1.59413e-01,2.36788e-03,5.41645e-02,-9.39995e-01,4.36153e-02,4.50615e-01,3.34874e-01,1.42115e+00,-3.60640e-01,1.46185e-01,-5.22267e-02,-9.31296e-02,5.90044e-01,2.74627e-01,9.27465e-02,1.59641e-02,3.32546e-02,-4.02530e-01,3.38912e-02,1.87125e-01,-4.04615e-01,1.59582e-02,5.42902e-01,4.92487e-01,4.04674e-01,-5.69183e-01,-4.42260e-01,1.79523e-01,-1.12178e-02,-2.23976e-01,-1.08205e-01,3.70354e-01,-1.31615e+00,4.06540e-01,1.57557e-02,2.25304e-01,-5.19789e-01,-5.13706e-01,4.62135e-01,7.79751e-02,7.70731e-02,
8.68411e-01,-4.68689e-02,2.06142e-01,4.34222e-01,5.76017e-01,1.15378e+00,5.65138e-02,-6.36594e-01,5.01918e-02,-3.28482e-01,6.91063e-03,-3.40273e-01,2.05686e-01,-1.12867e-01,4.31302e-01,-8.05058e-02,6.50600e-02,8.06197e-01,-1.45712e-01,-5.86431e-01,-6.12225e-03,8.76199e-01,3.55141e-01,-4.30972e-02,-4.26076e-02,-2.98103e-02,8.09979e-01,-4.29625e-01,1.45801e-01,-5.50955e-01,-2.46674e-01,-3.44367e-01,1.42266e-02,9.30318e-02,-2.47641e-01,2.88773e-02,7.08681e-01,-4.24380e-03,1.87929e+00,-1.31610e-01,-3.42430e-02,6.72933e-02,3.36023e-01,6.55513e-02,2.23728e-01,2.37086e-01,-1.32332e-01,1.48366e-01,6.62047e-02,-7.64230e-02,
-1.35441e-01,-3.01639e-02,2.11492e-01,4.00702e-01,-1.63457e-01,-1.02936e-01,-1.73698e-02,-1.44159e-01,-1.54372e-01,-2.05191e-01,5.58209e-03,-1.10026e-01,-6.72897e-01,-2.69868e-01,2.19211e-01,8.69835e-02,-3.91349e-01,-1.35795e-01,6.78404e-02,-4.38653e-01,4.17837e-01,-1.92661e-01,4.65170e-02,4.16242e-01,-3.26162e-02,4.17997e-02,7.25792e-01,6.16304e-02,-2.90766e-01,-1.32224e-01,2.34439e-03,9.97930e-01,-1.74772e-01,3.33639e-01,-6.19060e-01,-2.56912e-01,1.78977e-01,-3.62103e-03,3.48713e+00,1.72436e-01,4.42135e-03,-2.17781e-01,9.94489e-02,2.42972e-02,1.72693e-01,5.69551e-01,5.91217e-01,-8.21346e-01,-2.19971e-01,1.44009e-01,
3.68647e-01,-1.47802e-02,2.45999e-01,-1.60884e+00,3.81106e-01,1.10575e+00,-3.14440e-01,5.06029e-01,2.16449e-01,-1.41547e+00,-3.18586e-02,-1.08086e+00,6.58956e-01,2.41863e-01,2.80457e-02,7.85658e-02,1.25390e+00,-2.05988e-01,9.35693e-03,1.34740e-01,-7.06287e-01,-3.32161e-01,-6.10931e-01,-3.78716e-01,2.42696e-02,3.22354e-02,1.14848e+00,-4.41847e-01,-2.66475e-01,4.11069e-01,1.22500e-01,1.75669e+00,-3.85449e-01,5.58477e-02,8.25404e-01,-2.78778e-01,4.29582e-01,1.66626e-02,1.58608e+00,4.35485e-01,-4.23907e-02,1.06259e+00,5.62061e-01,1.56828e-02,-7.25162e-01,4.68068e-01,4.59416e-01,7.24498e-01,-5.32171e-03,-9.25064e-02,
-2.56690e-01,-3.31422e-02,2.76224e-01,1.38249e+00,-8.22503e-01,-5.98808e-01,6.73669e-01,-2.05590e-01,5.80261e-02,3.05880e-01,-1.50193e-02,2.32805e-01,9.03098e-01,8.31136e-01,1.00353e+00,7.85750e-01,1.90357e-01,3.15449e-01,1.51558e+00,8.52690e-01,7.40944e-01,1.60529e+00,5.23976e-01,-5.23105e-02,5.26744e-03,-1.97077e-02,-9.22446e-01,-5.27867e-01,3.82764e-01,8.79823e-02,3.25250e-01,9.25958e-01,3.45025e-01,-6.29467e-02,2.58375e-01,-3.62422e-01,7.48541e-01,-4.05334e-02,1.36864e-01,-1.40518e-01,9.69702e-01,-6.23986e-02,9.22492e-02,-1.33643e-02,-1.28191e-01,-1.78651e-01,1.29493e-01,2.59178e+00,-2.97464e-01,-7.97409e-01,
-5.79365e-01,2.14498e-02,1.50326e-01,-1.70277e-01,-3.82694e-01,3.42367e-02,-2.09113e-01,-1.46794e+00,3.96720e-01,1.64919e-01,-3.07764e-02,1.84304e-01,7.72126e-02,1.58258e-01,-3.96262e-01,1.24440e+00,-6.69284e-02,1.64100e-01,3.21119e-01,-1.26734e-01,3.15959e-01,3.98816e-01,3.60345e-01,-5.63836e-01,4.05046e-02,2.50479e-02,5.83301e-02,1.11266e-01,1.71346e-01,-8.12548e-02,2.60261e-01,-1.81049e+00,-1.11044e-01,-3.41043e-01,-4.79481e-01,1.21284e-01,8.85163e-02,-2.32327e-02,2.80566e-01,1.53269e+00,2.33114e-01,-2.80060e-01,1.61315e-01,3.53928e-02,5.73879e-01,-4.21220e-01,-3.25846e-01,2.56980e-01,-8.60150e-02,-2.10470e-01,
-3.49641e-01,3.73517e-02,4.49918e-01,2.75572e-01,-8.97830e-02,-1.86809e-01,-1.19094e-01,-8.99151e-01,-2.42046e-01,-2.30041e-01,4.32978e-02,-2.60892e-01,6.12783e-01,1.38671e+00,2.18392e-01,-2.82280e-01,5.49524e-01,6.11103e-01,1.10584e-01,1.68957e-01,1.25721e+00,3.85479e-01,-6.63257e-01,9.64344e-01,4.24084e-02,3.69751e-02,-1.08815e+00,-4.36100e-01,9.71384e-01,-1.52442e-01,-3.44656e-01,1.07482e+00,4.22155e-01,6.20929e-01,-3.07627e-01,7.81426e-01,-5.10016e-01,3.77465e-02,1.19376e-01,-1.60629e-01,3.18779e-01,-1.11042e-01,1.66591e-01,-4.16736e-02,-4.89200e-01,-2.57289e-03,-1.27078e-01,-3.20052e-01,-2.72004e-01,-3.40524e-01,
7.50081e-01,8.02521e-03,1.27124e-01,7.64413e-01,-6.54296e-01,4.27717e-01,-2.82083e-01,2.42726e-01,5.09590e-02,-3.74061e-01,3.05788e-03,3.27112e-01,5.05364e-01,-1.23547e-01,-7.85054e-01,6.04333e-01,-1.48123e-01,-4.23364e-01,2.18764e-01,-2.08849e-01,2.19464e-01,4.37041e-01,3.93987e-01,3.64812e-01,3.75130e-02,4.06732e-02,3.25407e-01,1.96716e-01,1.22919e-01,2.29123e-01,3.84451e-01,3.47102e-01,-4.64859e-01,2.09441e-01,-4.59073e-01,-7.61790e-01,-4.31760e-01,2.86172e-02,-1.87235e+00,-7.43135e-02,-6.38192e-01,-2.44149e-01,5.47632e-01,3.87929e-02,4.75077e-02,7.77570e-01,-5.11342e-01,-1.63986e-01,2.31896e-01,7.71430e-02,
-4.06480e-01,-1.71778e-02,-3.50362e-01,-2.75633e+00,-1.24885e+00,9.14388e-01,-1.34013e-01,-3.39168e-02,-2.69162e-02,5.58659e-01,6.19498e-03,-2.44515e-01,-7.90431e-01,1.47236e-01,-5.53004e-02,-5.53795e-01,-1.15951e+00,-3.10764e-01,-3.14586e-01,1.55313e-01,2.26537e-01,6.06125e-01,-5.35089e-02,1.50281e-02,-2.05841e-02,1.41396e-02,2.23553e-01,-6.21742e-01,6.12758e-01,1.15760e-02,-2.04478e-01,-4.61737e+00,3.90079e-01,2.04133e-01,-3.35703e-01,-1.45445e-01,-3.56230e-01,-1.64430e-02,4.53445e-01,-3.45588e-02,2.91943e-01,1.44346e+00,4.36454e-01,5.37305e-02,4.45731e-01,-1.63037e+00,-3.10484e-01,-1.06973e-01,2.11625e-01,3.33351e-01,
-1.14322e+00,-2.81092e-02,-3.16401e-01,-1.13870e+00,8.26642e-01,3.82134e-01,6.88130e-01,-1.63025e-01,-5.54446e-02,1.38514e-01,-3.65683e-02,9.73176e-02,-1.45984e+00,2.24838e-01,-1.00379e-01,1.46156e-01,-2.50000e-01,1.76700e+00,-5.72783e-01,-8.16060e-02,-1.26410e+00,-6.22215e-01,-3.35716e-02,-4.08247e-02,-6.88724e-03,-3.75689e-02,8.11307e-01,9.13918e-02,1.99597e-01,2.14643e-02,-5.96357e-01,-4.91569e+00,1.09188e-01,-4.11938e-01,5.12725e-01,4.40458e-01,2.86816e-01,-4.38826e-02,9.66104e-01,-1.11357e-01,-4.12600e-02,-4.28231e-02,4.52820e-01,2.14242e-02,1.34141e-01,-4.25090e-02,7.39620e-01,-6.30071e-01,-1.89217e-01,1.09901e-02,
1.46934e+00,-4.13968e-02,2.75000e-01,-6.19663e-03,2.38130e+00,7.15543e-01,-2.72463e-01,-4.29812e-03,1.26518e+00,3.38266e-02,-1.78823e-02,-6.91911e-01,-1.25222e+00,4.97121e-01,3.87588e-01,3.32265e-01,-6.16884e-01,3.95649e-01,4.70260e-01,-2.17455e-01,8.02973e-01,-7.13774e-01,1.03767e+00,-1.88098e-01,-4.30558e-02,-2.09808e-02,-6.14676e-01,5.37565e-01,1.03061e+00,1.60632e-01,9.70269e-01,-2.57908e-01,-5.85654e-01,-3.50263e-01,-8.28426e-01,-1.38084e-01,1.37207e-01,7.61152e-03,3.09106e-01,1.27726e-03,2.11288e-01,-3.12649e-01,-7.82913e-02,6.15602e-02,2.37859e-01,-3.10929e-01,-7.71824e-01,4.90220e-01,-7.74861e-02,2.17519e-01,
-2.75727e-01,1.08970e-02,-5.76476e-02,-4.26415e-01,-1.02690e+00,-4.48160e-01,-1.81656e-01,-1.24353e-01,1.19235e-02,1.46331e-01,2.02006e-02,1.06336e-01,4.84668e-01,-1.22292e-01,-3.52585e-01,4.26567e-01,-3.23987e-01,8.17028e-02,8.20253e-02,-2.87567e-02,3.82427e-01,9.05008e-01,1.05378e-01,8.29614e-01,-2.39136e-02,-3.80447e-02,2.22424e-01,-4.74559e-01,1.24737e-02,1.08757e-01,-1.95724e-01,-4.37869e-01,-2.22479e-01,4.54058e-01,-1.26136e-01,-4.02087e-01,5.14881e-01,3.14696e-02,-2.08173e+00,5.25546e-01,-2.19227e-02,-2.09821e-01,3.40916e-01,9.36748e-03,-2.53034e-01,-4.03715e-01,-1.31234e-01,5.23331e-02,-3.94081e-01,8.92020e-01,
1.94350e+00,-1.26916e-02,3.32360e-01,-4.56887e-01,1.57099e+00,9.50738e-01,-1.80495e-01,-2.42666e+00,-1.14075e+00,5.56439e-01,2.97273e-02,-5.40581e-01,-3.03792e+00,-3.58530e-01,1.32186e-01,9.61789e-02,3.15608e-01,1.31314e+00,6.68503e-01,-2.47451e+00,-6.03412e-01,1.20234e+00,4.71963e-01,7.37565e-01,-2.48176e-02,2.54776e-02,-5.75025e-02,-3.64992e-01,-4.13617e-01,-2.12310e-02,-3.62693e-01,-1.14991e+00,9.94633e-01,2.68433e-01,5.07009e-01,4.22117e-01,2.00082e-01,-4.50991e-02,-1.39989e+00,-2.55192e-01,-9.52639e-01,3.61859e-01,2.79913e-01,6.89607e-02,-1.47051e-01,-6.62875e-01,1.07945e+00,1.04943e+00,5.67867e-01,-3.34286e-01,
4.72418e-02,2.60384e-02,-2.39687e-03,-3.56783e-02,-2.36935e-02,5.64661e-03,-1.05672e-02,-2.11757e-02,-6.74181e-03,6.77343e-03,-3.95341e-03,-1.07244e-02,2.21537e-02,4.58250e-02,1.04983e-02,6.69623e-03,2.02816e-02,3.22665e-02,5.16674e-03,-4.33068e-02,-2.40413e-02,-4.19232e-02,1.64932e-02,-1.98850e-02,3.13482e-02,-1.80217e-02,-2.00766e-02,7.73664e-04,-2.75547e-02,-4.55195e-02,1.80881e-02,1.12822e-03,-1.59610e-02,-3.26280e-02,-4.62522e-02,-1.55179e-02,-1.32879e-02,3.58468e-02,-1.70342e-03,-1.31611e-02,-2.75671e-02,-4.43745e-02,-7.83186e-03,3.60081e-02,-1.35700e-03,-4.43911e-02,9.90426e-03,2.47268e-02,-2.76082e-03,-6.87225e-03,
-1.14982e+00,8.04880e-03,-2.43698e-02,4.86112e-01,6.03304e-01,-3.86207e-01,-7.81840e-03,7.03362e-01,-1.43196e-02,-2.89763e-01,5.91780e-02,-3.27686e-01,4.89246e-02,4.01491e-01,-1.91273e-01,1.31228e-01,5.82395e-01,7.27206e-01,-2.75108e-01,3.39544e-01,-1.02791e+00,-1.93785e-02,1.35972e-02,5.51019e-02,3.17168e-02,-4.37210e-02,-1.05291e+00,2.06169e-01,1.62541e-01,-6.53538e-02,-1.07592e-01,1.38380e+00,7.52244e-02,8.87738e-02,-1.83185e-01,-3.33398e-01,2.47980e-01,2.82603e-02,-3.90565e-01,3.17052e-01,-4.77889e-01,-1.41780e-01,-7.71465e-01,1.54469e-02,-3.59157e-02,4.96465e-02,9.57233e-02,-1.16287e+00,4.17849e-01,7.34438e-01,
-6.84643e-01,2.64374e-02,-2.69811e-02,-4.93580e-01,8.56067e-02,1.98905e-01,1.14418e+00,2.07908e-02,3.17710e-01,-2.19645e-01,-3.48167e-02,-1.15146e-01,3.35486e-02,1.62506e-01,1.63147e-01,-6.58094e-03,-4.02006e-01,-3.96104e-01,-3.75032e-01,-2.33006e-01,9.34036e-02,1.89349e-01,1.70032e-01,2.90707e-02,-3.39073e-02,-3.30708e-02,-2.47395e-02,-9.57407e-01,2.65539e-01,9.19870e-02,-6.90644e-02,-1.37127e-01,-9.86899e-02,3.04035e-01,-2.07898e-01,-2.18725e-01,1.51875e-01,3.73919e-02,-5.27501e+00,3.19976e-01,-1.59305e-02,-4.18828e-01,-4.54542e-02,1.97838e-02,4.48791e-01,-4.44037e-02,3.37174e-01,-6.46895e-02,-1.86417e-01,1.32784e+00,
-4.08486e-01,
1.06875e+00,
-1.01351e-01,
2.91739e-01,
3.61906e-01,
-1.17598e+00,
-1.08494e+00,
-5.25396e-01,
-4.85121e-01,
-5.63451e-01,
-4.30958e-01,
-3.75102e-01,
-2.99369e-01,
-3.00263e-01,
-5.28058e-01,
-6.20032e-02,
-6.53790e-01,
7.30181e-01,
-8.49961e-01,
-1.57298e-02,
-2.89808e-01,
2.78940e-01,
1.47078e+00,
2.10793e+00,
-3.10170e-01,
-5.38444e-01,
-1.45919e-01,
1.01049e+00,
-3.74156e-01,
-5.27222e-02,
-1.48790e-01,
2.55464e-01,
-7.72198e-01,
-1.76047e+00,
6.22966e-02,
2.54439e-01,
-1.50744e-01,
-7.57264e-01,
-2.46425e+00,
-9.13194e-01,
-5.63058e-01,
-2.17101e-01,
5.70546e-01,
-5.23408e-01,
-1.49997e+00,
-2.61921e-01,
-5.26109e-01,
-5.98984e-03,
-4.64336e-01,
1.14195e-01,
-7.77671e-01,-4.15395e-01,-3.24942e-01,1.12048e-01,-7.44102e-01,-7.84722e-01,-7.78083e-01,-3.57055e-01,-3.57092e-01,-2.25596e-01,8.96146e-01,-5.52908e-01,-1.36944e-01,-2.32227e-01,-4.94244e-01,4.33755e-01,1.43314e+00,-7.33588e-01,-1.05938e+00,-2.29214e-02,3.35653e-01,-5.91427e-01,-3.71823e-01,-2.30828e+00,2.92584e-01,1.00206e+00,1.50349e-01,-1.87803e+00,-1.37735e-01,-4.83587e-01,-6.85847e-01,-2.04621e+00,5.19993e-01,3.05489e-01,1.71208e-01,9.61368e-02,7.95892e-01,-1.23353e+00,-7.36054e-01,8.06176e-01,-1.73397e-01,-1.08707e-01,-2.08033e-01,-1.69550e+00,-1.00954e+00,-2.13879e-01,-8.83712e-01,2.89139e-03,-5.87614e-02,3.92734e-01,
-2.89933e-01,-3.87748e-02,-2.35392e-01,-3.44681e-02,-1.01314e-01,-1.04391e-02,-1.53751e-01,1.46170e-01,2.02129e-02,2.05437e-02,-2.05331e-01,2.28611e-01,-9.64483e-02,6.87688e-02,5.06923e-03,-1.89937e-01,2.59219e-01,-2.71825e-01,1.34500e-02,-2.34547e-02,-1.00425e-03,7.08480e-02,-7.60077e-02,-1.58165e-01,8.34323e-02,-7.06643e-03,-2.97099e-02,-9.17410e-02,-7.83515e-03,1.57236e-02,-3.71579e-01,2.57758e-01,5.12330e-01,4.74539e-02,2.47036e-02,1.38635e-02,-2.47755e-01,-1.41798e-01,6.32362e-02,1.64842e-01,-1.59262e-01,1.54612e-01,-1.45494e-01,-1.85129e-01,-2.43234e-02,5.46112e-01,-5.09601e-02,2.89771e-02,9.40730e-02,2.44472e-01,
-9.91878e-02,-3.66602e-02,7.55007e-02,4.46032e-01,-1.80792e-01,-3.02970e-03,1.34630e-01,-1.11886e-01,3.82412e-01,4.19510e-01,-1.64855e-01,-1.11928e-01,1.40495e-02,-1.65158e-01,-2.73372e-01,-5.02176e-02,-1.59377e-01,-1.27124e-01,-1.27405e-01,2.83343e-02,-8.47308e-02,-3.39479e-01,-1.01792e-02,-4.74278e-02,-2.96303e-01,-4.25780e-02,2.83382e-02,-1.70574e-01,-1.97865e-01,-7.78617e-02,-3.07006e-02,1.41624e-01,1.15479e-01,4.24489e-02,-8.96282e-02,7.71229e-03,-4.70049e-02,-2.90517e-01,5.92837e-02,1.69743e-01,-2.59172e-02,-1.34006e-01,-1.15473e-02,4.12064e-02,7.57857e-02,-1.77031e-01,-1.25651e-02,-1.73176e-02,1.34334e-01,3.85311e-02,
6.05937e-01,-2.85093e-01,1.46208e+00,-3.52586e-01,3.62693e-01,2.27066e-01,-7.67363e-01,-2.09571e+00,-3.94080e-01,1.31398e+00,-1.76978e+00,1.21819e+00,3.04692e-01,6.79581e-02,-4.30241e-01,1.42359e+00,-4.96077e-01,1.76535e-01,1.36208e-01,3.02901e-03,-7.38759e-01,-2.76588e-01,1.60956e-01,4.46240e-01,9.44532e-01,2.08146e-01,-4.13542e-01,1.16676e+00,-1.36263e-01,-2.47267e-01,2.58098e-01,-1.36444e+00,-1.37311e+00,5.31768e-01,1.47615e-01,1.62377e-01,1.70077e-01,-1.89102e-01,-9.34121e-02,-2.73648e-02,3.47112e-01,2.97981e-01,4.34758e-01,1.45867e+00,6.08835e-01,-1.52757e+00,2.30557e-02,4.11196e-02,3.26100e-02,3.62523e-01,
6.68738e-01,7.16743e-01,1.28744e+00,-8.86838e-01,2.57860e-02,9.11030e-01,-5.39641e-01,-1.74708e-01,2.06908e-01,-2.93290e-01,5.18613e-01,-6.27239e-01,4.09716e-01,1.53524e+00,1.27646e+00,1.69510e-01,-1.89112e+00,-1.46204e+00,2.79246e-02,4.50817e-02,3.55137e-01,-6.28051e-02,-6.84870e-01,3.09326e-01,-6.00533e-01,-1.01191e+00,6.79086e-01,-2.21125e+00,5.18847e-01,8.87919e-02,-9.20936e-01,-2.58760e+00,1.18247e+00,-2.26148e-01,3.61083e-01,-1.87356e+00,6.87427e-01,3.63877e-01,-5.36710e-01,1.60241e-01,9.02039e-02,-6.97790e-01,9.62715e-01,8.66893e-01,1.88849e+00,-1.29419e+00,9.41037e-01,-1.33032e-02,7.55068e-01,-3.72583e-02,
-1.20309e-01,-1.12551e-01,-3.31936e-01,5.81794e-02,-9.52833e-02,6.43210e-02,-3.80395e-02,6.88899e-02,3.94384e-02,4.33697e-02,1.77619e-01,-3.23053e-01,-7.72213e-02,1.12817e-02,-4.08883e-02,7.87117e-02,3.17858e-01,-4.02328e-02,-1.31051e-01,4.85151e-02,5.20028e-02,-8.88714e-02,-1.21834e-01,-2.20348e-01,1.72576e-01,2.09307e-02,-1.04735e-01,-1.29785e-01,3.10569e-02,-7.14138e-02,1.60757e-01,1.88270e-01,3.97979e-01,2.61240e-02,-1.85127e-01,2.39412e-01,4.24252e-02,-1.66790e-01,8.79923e-02,3.22501e-01,-4.51572e-03,-6.63753e-02,-5.49147e-02,3.74359e-02,1.80259e-01,3.73327e-01,-7.73982e-02,2.32443e-02,-9.36488e-02,2.06644e-01,
-2.48957e-01,9.82728e-02,8.46956e-02,4.86966e-01,5.47395e-02,2.13559e-01,1.20736e-02,4.49349e-01,-2.84815e-01,-4.57988e-01,-1.87330e-01,-2.27932e-01,1.86660e-01,1.17949e-01,-1.20727e-02,2.56540e-01,-1.73109e-01,-1.34126e-01,-5.60314e-02,-4.53110e-03,-1.91051e-01,-8.86637e-02,4.03956e-02,4.02257e-02,7.37175e-01,-1.72223e-01,-6.90359e-02,-7.51940e-04,8.58246e-02,2.11273e-01,3.71423e-01,-3.65634e-01,3.22437e-01,1.88932e-01,1.59809e-01,-1.06452e-01,-4.46813e-02,-2.39644e-01,1.56972e-02,3.92898e-02,5.76905e-02,-1.27836e-02,-2.35329e-01,-3.17162e-01,-2.16470e-01,-3.04031e-01,4.45088e-02,3.36897e-02,-7.22653e-02,1.24496e-01,
-3.93225e-01,-2.05191e-01,-3.56673e-01,-1.81810e-01,-2.08942e-01,-2.63611e-01,3.38443e-01,3.87592e-01,7.95853e-01,2.97769e-02,2.46743e-01,-2.12447e-01,-3.28516e-01,-1.94244e-01,6.85385e-01,-2.12339e-01,7.32948e-02,-5.26917e-02,9.02366e-02,-2.00148e-02,1.81830e-01,9.37413e-01,9.74104e-02,-2.62102e-01,-6.55607e-02,-2.56915e-01,-6.15059e-02,-9.68321e-02,3.02616e-01,4.29833e-02,-1.09106e-01,4.80513e-01,5.52930e-01,1.37135e-01,4.82449e-01,-3.27180e-02,1.54105e-01,-1.65924e-02,-2.24527e-01,7.09982e-01,4.22967e-02,-1.10095e-01,-1.14181e-01,1.10292e-01,-3.75481e-01,1.42812e-01,-1.59802e-01,-2.12633e-02,1.34853e-01,-4.04137e-01,
8.24632e-02,-1.78881e-01,-2.91979e-01,3.58953e-01,-2.06782e-02,-1.54736e-01,-5.78907e-02,7.36091e-02,-1.16751e-01,-3.71863e-01,-2.72881e-01,-3.61285e-01,1.07701e-01,1.82450e-01,2.52614e-01,-2.33528e-01,3.57438e-01,1.89888e-01,-1.48464e-01,-2.38803e-02,6.49577e-02,4.19219e-01,-9.36934e-02,-1.20685e-01,1.12572e+00,3.70422e-01,-1.80958e-01,6.58885e-01,9.91421e-02,-1.43475e-01,2.70472e-01,-2.89762e-01,5.31907e-01,-1.48363e-01,1.77573e-01,-1.29492e-01,2.92847e-02,-3.77529e-01,-2.21834e-01,-8.00251e-02,-4.95121e-01,-5.32525e-02,-3.05319e-01,6.25073e-01,-2.09418e-02,1.50732e-01,-1.56614e-01,2.11654e-02,-3.61569e-01,5.00660e-02,
1.94819e-01,3.72706e-01,-1.37262e-01,1.15637e-01,-5.61298e-01,4.57853e-01,2.29407e-01,6.13117e-01,4.20017e-01,-4.00167e-01,2.24222e+00,3.87347e-01,-1.01458e+00,-3.15169e-02,-1.05273e+00,2.35030e-01,-2.01004e-01,4.53475e-01,1.14883e-01,-3.07462e-02,-7.12554e-02,6.54712e-01,1.97267e-02,-1.10750e+00,2.76877e-01,-7.15725e-02,1.30393e-01,4.20948e-01,-4.97654e-01,-5.87662e-01,4.72645e-02,-2.34516e-01,-9.25567e-02,-5.75574e-01,2.18873e-01,2.44211e-01,8.09393e-01,-6.04895e-01,-5.94381e-01,-5.04349e-01,-1.77115e+00,-7.60193e-01,1.45126e-01,-3.41681e-01,-2.95439e-01,3.88744e-01,6.73395e-01,2.15246e-02,-2.09124e-02,-6.28270e-02,
-6.57673e-01,-2.37459e-01,-4.78229e-01,-3.02429e-02,-3.73831e-01,1.98615e-01,8.18184e-03,4.71799e-01,7.00843e-01,1.30614e-01,-1.41459e+00,9.18417e-02,-1.03947e-01,4.48295e-02,-1.42033e-01,4.04678e-01,5.22869e-01,6.62575e-01,-3.56512e-01,4.64266e-02,1.94838e-01,6.88693e-01,-2.01865e-01,-2.21295e-01,1.34309e+00,-4.19150e-01,-1.05085e-01,-5.07511e-01,5.93009e-02,-7.17799e-02,-1.37054e-01,5.34257e-01,1.60833e-01,-3.64770e-01,-2.13075e-01,5.80024e-01,-1.63710e-02,-1.38497e-01,4.81015e-01,-4.88709e-02,-6.20849e-01,1.63152e-01,-1.87414e-01,-1.20249e-01,9.79236e-01,2.78538e-01,-3.41522e-02,-4.32567e-02,3.73818e-01,-4.10173e-01,
5.05815e-01,9.10401e-02,3.72735e-01,1.96214e-01,-1.38909e-01,1.80641e-01,1.33566e-01,-5.78690e-01,2.87305e-01,-1.28376e-01,2.55932e-01,-6.73831e-01,2.92064e-01,-4.16716e-01,-5.63819e-01,4.05230e-01,-5.67616e-01,4.92276e-01,2.03817e-01,3.56814e-02,-3.07452e-01,-2.05341e-01,1.42913e-01,2.90271e-01,-8.09781e-01,2.45060e-01,1.99260e-01,6.16405e-01,-4.16208e-01,2.47175e-01,-1.27861e-01,5.53269e-02,-5.18508e-01,-2.10130e-01,-2.16053e-01,-1.37394e-01,1.01024e-01,1.02594e-01,-2.13570e-01,-3.33884e-02,-3.06798e-03,-3.40190e-01,3.44033e-01,6.27817e-03,5.86957e-01,-7.14075e-01,3.63575e-02,-1.80755e-02,-1.87944e-01,-1.23645e-01,
-6.56171e-01,-3.81218e-01,-2.83734e-02,-1.57473e+00,8.87882e-01,-3.24637e-01,-8.84505e-01,6.48916e-01,-2.83118e+00,-5.91421e-01,1.07722e+00,2.50452e-01,6.02489e-02,5.71120e-01,1.07931e+00,-5.12318e-01,2.44921e-01,-1.53979e+00,2.51784e-01,8.33969e-03,-8.71244e-01,-8.34247e-01,2.42425e-01,-1.95580e-02,-1.34091e+00,-5.50358e-01,-4.88234e-01,8.84100e-02,7.46848e-01,3.64376e-01,-1.28704e-01,-2.18467e-01,-1.16729e-01,-1.03958e-01,5.82475e-01,-5.57886e-01,6.81637e-01,3.95944e-01,-6.68885e-01,-5.36742e-01,6.17283e-01,2.54724e-01,1.78879e-01,4.68078e-01,-2.09577e-01,1.01430e+00,3.10979e-01,-3.85302e-02,3.61506e-01,-1.35633e+00,
-6.32600e-02,1.51351e-01,8.69878e-02,-4.95132e-01,4.15273e-01,1.12950e-01,9.56284e-02,6.58221e-03,7.22149e-01,5.69020e-01,1.09978e+00,-3.83111e-01,2.58369e-02,7.95328e-01,-6.65211e-01,3.50581e-01,-1.49519e-01,1.70301e-02,6.93022e-02,-3.84607e-03,-1.70770e-01,-2.40819e-01,1.45452e-01,-1.10345e+00,3.02007e-01,-3.71266e-01,3.47566e-01,4.28167e-02,4.29539e-02,4.04053e-01,-9.65074e-02,1.07279e+00,-6.63150e-01,1.70040e-01,3.34365e-01,-8.71081e-01,-4.04553e-02,-1.88586e-01,-2.17974e-01,5.67089e-02,-7.01377e-02,-4.55001e-01,-4.56851e-01,8.37982e-01,5.32653e-01,8.96233e-03,-1.26813e+00,3.67693e-02,1.46138e-01,-4.43510e-01,
-2.34987e-02,2.76350e-02,1.63898e-02,-7.58971e-03,3.16789e-02,-5.45511e-02,8.99860e-03,-3.54943e-02,2.00352e-02,-2.41550e-02,3.40372e-02,-4.31777e-02,-5.12662e-02,7.38836e-03,1.12524e-02,-2.46442e-02,-4.44820e-02,-5.44778e-02,5.28939e-02,-4.69305e-02,-3.36302e-02,-2.41598e-02,-5.81709e-02,-3.78300e-02,1.57649e-02,3.97205e-02,-4.79465e-02,-1.88463e-02,3.48930e-02,-3.98029e-02,2.91633e-03,-6.69336e-03,3.08592e-02,-1.46713e-02,-4.23825e-02,-4.50507e-02,-5.61382e-03,1.14165e-03,-1.49391e-02,-6.42788e-03,-3.05618e-02,1.99389e-02,3.46654e-02,3.84791e-02,-3.55078e-02,-4.98666e-02,-4.05233e-02,4.96328e-02,6.59397e-03,7.11113e-03,
-5.55151e-01,-1.05649e+00,-1.02682e+00,4.16316e+00,-1.19291e+00,1.19415e+00,-4.63658e-01,6.01468e-01,2.44830e+00,-4.23226e-01,-8.64798e-01,-6.17433e-01,-5.18578e-01,-1.75427e+00,8.25487e-01,-3.14659e-01,1.77760e+00,1.88694e-01,-8.73618e-01,-8.73546e-03,1.14952e+00,2.21113e+00,-7.31094e-01,-1.32053e+00,9.02649e-01,1.24322e+00,-4.90874e-01,-1.63952e+00,-7.04172e-01,-3.50019e-01,1.21628e+00,1.48611e+00,2.16543e+00,7.25401e-01,-8.88909e-01,2.49299e+00,-8.35475e-01,-5.60151e-01,1.07353e+00,1.75632e+00,-1.88388e-01,-5.23448e-01,-7.72194e-01,1.48191e+00,1.97701e+00,1.70997e+00,-3.32557e-02,3.87848e-02,-8.15259e-01,1.45621e+00,
6.67997e-02,-2.84098e-01,2.43970e-01,-5.25736e-02,1.63555e-01,-1.89482e-01,7.50442e-01,-1.36407e-01,2.45438e-01,7.62510e-01,-1.27957e+00,-1.03408e-01,3.12589e-01,-4.58493e-02,1.82255e-01,-6.45613e-01,-4.78504e-02,3.75933e-01,5.14055e-02,1.68128e-02,-7.44912e-02,-3.99220e-01,5.66199e-02,5.88136e-01,5.68239e-02,5.97862e-01,-8.34111e-01,-2.29651e-01,-1.14481e-01,3.80286e-01,4.25195e-02,-1.41618e-01,3.09234e-01,6.28753e-01,-2.86965e-01,8.69064e-02,-3.05115e-02,-1.67545e-01,-9.20756e-02,1.49165e-01,5.04422e-01,4.36531e-01,-9.00321e-01,1.89311e-01,-3.09980e-01,-7.62256e-02,-2.86402e-01,-4.95921e-02,3.41940e-01,4.95917e-02,
-1.45275e+00,-4.31664e-01,-2.46585e+00,-5.40197e-02,-1.71025e+00,7.55960e-01,-1.34266e+00,1.27653e+00,-4.64544e-03,-8.80558e-01,-1.09352e+00,2.58028e-01,-1.51485e-01,4.10594e-01,-1.50986e-01,-6.82623e-03,-8.03334e-01,1.28966e+00,-4.53090e-01,-1.60990e-02,5.85145e-01,1.07050e+00,-5.57186e-01,-4.10094e-01,9.63538e-01,-4.72089e-01,6.96806e-01,-6.11489e-01,-2.58537e-01,1.31826e-01,-2.11564e-01,-3.33266e+00,-1.59025e+00,-3.49663e-01,5.27688e-01,7.58255e-01,-1.03041e-01,-3.53278e+00,2.81480e-01,-7.86444e-01,-1.37573e-01,-1.04739e+00,9.46986e-01,-8.52211e-01,7.76783e-01,-7.03112e-02,3.24285e-01,-2.24274e-02,-6.08229e-01,-3.33065e-01,
-1.97084e-01,-7.47042e-01,7.51187e-02,-3.03508e-04,9.44246e-02,-2.25901e-01,3.58543e-02,-9.67704e-02,1.62065e-01,-7.30865e-01,-9.86402e-01,2.37886e-01,1.14256e-01,-7.93848e-01,4.04072e-01,4.79840e-02,4.60459e-01,6.53462e-01,-4.09655e-01,-4.15795e-02,-2.33287e-01,5.22012e-01,-2.39327e-01,1.90182e-01,-6.79629e-01,-3.92210e-01,-5.21284e-02,-1.99489e+00,-4.78738e-01,1.36413e-01,2.27640e-01,1.77726e-01,3.37545e-01,-7.56409e-02,3.06951e-01,3.46913e-01,5.03314e-01,-1.00633e-01,-3.76282e-01,-1.48090e-01,-1.09966e+00,6.01930e-02,-8.56994e-01,6.54758e-01,4.13070e-03,5.23704e-01,-3.45701e-01,-1.57857e-02,2.94896e-01,6.84402e-02,
6.06654e-02,6.67212e-02,-1.27195e-01,-4.77622e-02,1.99520e-01,-1.67225e-01,1.79674e-01,-1.25019e-01,-6.78608e-02,-9.60700e-03,-2.88008e-01,1.19800e-01,-9.15363e-02,4.87850e-02,-8.63710e-02,5.75652e-02,4.75110e-02,-1.08887e-01,2.71226e-02,-2.41558e-02,1.18573e-02,2.95349e-01,-4.38312e-02,-1.49945e-01,-1.63358e-01,4.27161e-01,-1.61175e-01,-3.30562e-01,-9.43050e-02,-1.12317e-01,1.04130e-01,5.29166e-01,3.55691e-01,-3.69037e-01,-2.46061e-01,-3.92839e-01,-3.77026e-01,-2.76659e-02,-3.10747e-01,-3.66599e-01,2.27862e-01,-8.71615e-02,4.50221e-02,1.09973e-02,1.89240e-01,-2.36588e-01,-1.39798e-01,-3.86958e-02,9.65091e-02,1.59062e-01,
2.40847e-01,-4.87051e-01,-3.54474e-01,-3.99421e-01,-2.76636e-01,2.13322e-01,6.41587e-01,7.22152e-01,3.68699e-01,-8.28457e-01,6.78356e-01,-1.62258e-01,-4.27654e-01,-2.28830e-01,-4.20752e-01,-1.28202e-01,-6.63767e-01,9.06932e-01,-7.33522e-01,-8.23357e-03,1.18991e-01,-7.93334e-01,-2.18960e-01,-1.35784e+00,-8.67316e-01,8.10411e-02,1.16320e-01,7.75038e-01,3.80504e-01,-4.22049e-01,-9.39379e-01,1.79382e-02,-2.33438e-01,-2.28820e-01,1.34127e-01,1.03142e+00,1.29585e-01,-2.28044e-02,-2.36394e-01,2.68923e-01,-4.40180e-01,-2.44745e-01,2.93481e-01,6.80715e-02,3.52720e-01,3.63775e-03,3.11613e-01,4.09737e-02,3.09289e-01,-2.47261e-01,
-1.21778e+00,4.52507e-01,2.51054e-01,3.06622e-01,-1.54305e-01,5.03957e-01,-3.22033e-01,6.34370e-01,3.93685e-01,-3.47112e-01,2.03999e+00,-4.29018e-02,-2.26656e-01,-5.39902e-01,1.06686e+00,-1.76041e+00,-2.01859e-01,1.99098e-01,-3.51734e-02,1.09388e-02,-2.16621e-01,1.75444e+00,-3.00968e-01,-3.13305e-01,3.58077e-01,-7.06662e-01,-1.91155e+00,-4.37516e-01,2.02320e-01,-2.39213e-01,-3.77620e-01,1.43959e+00,1.74601e-01,-1.02989e+00,2.05365e+00,2.74640e-01,-3.10126e-01,3.51944e-01,-5.36719e-01,-4.85225e-01,7.92541e-01,-9.06389e-03,9.73464e-01,-2.59068e-01,4.86351e-01,1.69289e-01,-5.18636e-01,4.55357e-02,-1.74626e-01,-4.63995e-01,
-2.23144e+00,-4.58402e-01,-3.19612e-01,-6.37448e-02,5.43656e-01,9.85179e-02,-1.11752e+00,-1.31025e+00,1.43288e-01,-7.11395e-01,-1.97578e-01,-4.17100e-01,-1.71095e-01,-1.07231e+00,4.71159e-01,-9.22254e-01,1.11394e-01,4.93041e-02,5.86375e-01,-1.78286e-02,-5.87860e-01,8.80341e-01,-5.20054e-01,9.07125e-01,6.22783e-01,9.78324e-01,-4.58005e-01,-4.27055e-01,4.36405e-01,2.37650e-01,4.73012e-01,1.54228e-01,4.24909e-01,-8.33591e-01,-1.51238e-01,-6.31209e-02,-1.86869e+00,6.01082e-01,-1.55989e+00,-7.48514e-01,-2.88195e-01,-1.70216e-01,3.77991e-01,5.03980e-01,4.08840e-01,5.34748e-03,-6.91103e-01,2.08394e-02,7.53034e-01,-1.32631e-01,
6.05307e-01,3.44534e-01,-9.99156e-01,5.69165e-01,-3.82420e-01,5.04532e-01,1.57683e-01,-6.11943e-01,1.03024e+00,-8.62015e-01,1.17270e+00,-1.41191e+00,-6.94032e-01,6.78756e-02,-1.38408e-01,9.43918e-01,-2.41752e-01,5.48174e-01,-4.54240e-01,-1.22387e-02,-3.07965e-01,3.50799e-01,-2.69836e-02,-9.71671e-01,4.46574e-01,3.62787e-01,2.31727e-01,3.99402e-01,-6.40834e-01,-3.62943e-01,9.72768e-01,1.11388e+00,3.52150e-01,-1.81774e-01,-3.72641e-02,4.21552e-01,1.29371e+00,-2.79878e-01,-8.52389e-01,-5.08956e-02,-8.72622e-01,-7.30939e-01,4.80206e-01,-2.85362e-01,9.39667e-01,4.92958e-01,5.32696e-02,-1.18824e-02,-5.87805e-01,-4.02141e-01,
-4.07866e-01,-3.38088e-01,6.08264e-01,2.09277e-01,-8.19695e-03,-2.00165e-01,-6.26438e-01,3.77220e-01,9.52167e-01,-9.20535e-01,7.70241e-01,-1.93896e-01,-4.37780e-02,-2.11536e-01,-1.79603e+00,1.44563e-01,-8.02842e-01,-5.67691e-02,-2.63649e-01,3.63699e-02,-2.95422e-01,4.32708e-01,-3.34562e-02,-2.57414e-01,6.97253e-01,-1.17035e-01,-1.13668e-01,-3.10153e-01,1.09368e-01,-1.94365e-01,-1.06856e-01,-4.41192e-02,3.26092e-01,-4.37495e-01,1.23831e-01,4.36552e-01,-1.04663e-02,-2.92281e-01,-1.70732e-02,1.26690e-01,8.94581e-01,2.44453e-01,3.10861e-01,-2.61443e-02,-5.25678e-03,8.49697e-02,1.90034e-01,4.77001e-02,2.13475e-01,-7.31390e-02,
-6.67115e-01,2.71088e-01,2.06603e+00,3.04316e-01,7.92757e-01,6.60701e-01,-1.28775e+00,2.04636e-01,-2.50212e-01,5.07715e-01,-2.48851e+00,7.79536e-02,-6.56305e-02,2.39782e-01,1.27776e+00,1.43220e+00,5.87854e-01,1.42164e-01,-1.02993e-02,-2.89341e-02,1.28416e-01,-4.50707e-01,-8.54043e-01,-1.07011e+00,-1.37777e+00,-9.30013e-02,-6.35011e-01,-1.16024e+00,-3.53260e-01,2.33842e-01,-4.55149e-01,-9.88332e-01,-2.05516e+00,1.13126e+00,-1.31975e+00,1.00817e-01,7.25922e-01,1.04416e+00,6.25432e-01,1.92998e+00,-6.61634e-01,8.26810e-01,-5.30420e-01,-7.65458e-01,4.28089e-01,-4.90093e-01,-5.40448e-01,3.20909e-03,-1.12692e-01,-8.84576e-02,
9.72902e-03,-3.41375e-01,-8.77584e-02,2.30972e-02,-3.23941e-01,-2.98662e-01,2.01156e-01,-3.53832e-01,1.15701e-01,3.44209e-01,-5.52985e-01,3.21902e-01,-4.20864e-01,5.17791e-01,1.86503e-01,-2.74160e-01,1.09003e+00,-2.66288e-01,4.70332e-01,1.90830e-02,3.60490e-01,7.67315e-01,1.01847e-01,-5.12296e-01,9.86824e-01,8.84440e-01,-4.71179e-01,-4.34069e-01,-2.84961e-01,-2.19898e-01,-3.04986e-01,-1.26244e-01,4.10405e-01,-2.62403e-03,-2.05742e-01,-8.78617e-02,-2.15254e-01,4.97640e-02,-6.64017e-02,4.13531e-01,-3.20360e-02,-8.08438e-02,-1.29858e-01,2.44434e-01,5.61759e-02,-4.76563e-01,-2.15915e-01,-4.52936e-02,4.42214e-01,7.74326e-01,
-5.43364e-01,1.52444e-01,-5.18378e-01,2.66461e-01,-3.36120e-01,3.11189e-01,2.73686e-01,6.28297e-01,1.63662e-01,-8.81277e-02,1.44311e+00,4.77400e-01,-2.54320e-01,4.72530e-01,7.33527e-01,5.09452e-01,7.90110e-01,-6.22607e-01,2.88186e-01,-2.20575e-02,1.56665e-02,-9.67892e-02,-1.44802e-01,-6.26459e-01,1.82057e+00,5.77145e-01,7.64671e-02,-3.70475e-02,7.55401e-01,2.03729e-01,1.08302e+00,8.66553e-01,9.24146e-01,-2.00722e-02,-8.60918e-02,-5.20132e-01,2.34042e-01,-4.72620e-01,3.11525e-02,6.85811e-01,-1.54321e-01,-3.98016e-01,-9.66729e-02,-1.15481e-01,1.78482e-01,4.72477e-01,3.67388e-01,8.93261e-03,-2.07877e-01,-5.46421e-01,
1.98902e-01,-4.68696e-02,-2.48863e-01,6.91432e-02,1.09249e-01,-4.85577e-02,2.29045e-01,1.41760e-01,-1.57866e-01,-2.68032e-01,4.11094e-01,-2.43498e-01,-1.36858e-01,-2.27627e-01,-1.09358e-01,-6.05970e-01,1.00674e-01,-2.09503e-01,5.80127e-01,4.24275e-02,1.66702e-01,-2.24568e-01,-3.86199e-02,5.17869e-02,2.36266e-01,2.87142e-01,-8.65247e-01,-3.31421e-01,5.33343e-02,-1.15912e-01,-1.36130e-01,2.70087e-01,2.80862e-01,4.75933e-02,3.51076e-01,1.05645e-01,1.69626e-01,1.58160e-01,1.17862e-01,7.39293e-02,1.21573e-01,5.75338e-03,-1.19997e-01,-1.41991e+00,3.27675e-01,-8.90863e-02,8.23953e-03,-1.73830e-02,-2.87078e-01,4.15902e-02,
-2.75422e-02,2.13467e-01,2.62578e-01,7.65665e-02,1.56597e-01,5.12809e-02,-2.35452e-02,2.82179e-01,4.00617e-01,1.05631e+00,-7.03731e-02,-1.97562e-01,2.16116e-02,-3.48531e-01,1.36636e-01,-2.97984e-01,2.08999e-01,-6.32185e-02,-1.35929e+00,2.76663e-02,-3.25206e-01,3.16989e-02,-2.90122e-02,1.54666e-01,-1.01932e+00,6.33580e-01,-2.69311e-02,-5.27212e-01,5.87599e-02,3.87040e-02,-1.80499e-01,-5.19363e-01,3.72357e-01,-9.66934e-02,6.13349e-02,3.20823e-01,1.85651e-01,-1.71104e-02,-3.57704e-02,3.54791e-01,-3.16942e-01,-2.49282e-01,6.63134e-02,-1.43419e-01,5.63067e-01,-9.90355e-02,-1.56479e-01,-4.11924e-02,1.70868e-01,2.75753e-01,
3.52598e-01,1.74186e-01,4.98472e-01,6.86618e-02,1.40148e-01,-1.56956e-01,6.38344e-02,-4.22796e-01,1.71631e-01,7.07566e-01,-4.07785e-01,1.32139e+00,1.28370e-01,1.73256e-01,4.52073e-02,9.69203e-02,-3.14001e-01,-6.02809e-02,9.13280e-02,-2.95815e-02,1.16217e-01,2.04916e-01,-6.23232e-02,9.47363e-02,-3.81921e-01,4.31889e-01,-1.22662e-01,6.35217e-01,9.27212e-01,-2.38796e-02,3.29202e-01,-2.27433e-01,-2.48668e-01,-1.07661e-01,9.73365e-02,-3.02093e-01,-1.23621e-01,2.25137e-01,-2.00082e-01,-2.36294e-01,6.84400e-02,-2.79542e-01,-6.31458e-02,-6.02541e-02,1.67785e-01,-6.24224e-01,8.75619e-02,1.21052e-02,-5.91805e-02,-8.26848e-01,
4.74551e-01,1.75400e-01,2.24568e-01,-5.38202e-02,-6.47308e-02,4.89882e-01,-1.14166e-02,-8.23785e-03,2.70267e-01,-7.45484e-01,3.77235e-02,-3.77196e+00,-7.60619e-02,-7.24909e-01,9.63233e-03,6.08024e-01,-5.53135e-01,9.03574e-01,-2.45728e-01,-1.33397e-03,-1.95511e-01,1.44236e-01,-4.22039e-03,1.02463e-01,-6.27785e-01,-9.83531e-01,-1.13961e-01,-1.44180e-01,-4.61996e-01,2.30518e-01,3.56835e-02,-6.03738e-01,-2.12584e-01,-5.20837e-02,-2.95305e-01,4.61066e-01,5.89273e-02,1.07679e-01,-2.23166e-01,4.59336e-01,-3.94309e-01,-5.95489e-02,2.43123e-01,-2.46367e-01,6.13179e-01,4.77392e-02,3.34163e-02,-1.76990e-02,1.97425e-01,-1.99367e-02,
3.78866e-01,1.20312e-01,7.52340e-01,4.73347e-01,3.27117e-01,6.02863e-02,4.66854e-01,-4.80972e-02,-1.10636e+00,-8.40885e-01,9.88425e-01,-1.37086e+00,2.48669e-01,1.37678e-01,-2.85648e-02,2.04937e-01,-8.24839e-01,5.33968e-01,2.42110e-01,-1.58338e-02,3.93437e-01,-5.72832e-01,2.19781e-01,2.98648e-01,-1.71906e+00,-4.38497e-01,3.87919e-01,9.98829e-01,3.78992e-01,5.19142e-01,-1.54716e+00,-3.61045e-01,-7.57864e-01,-3.86037e-01,-1.49885e-03,-1.13833e+00,3.12906e-02,9.54513e-02,-3.43919e-01,1.96976e-01,1.71129e-01,-8.37823e-02,1.74551e-01,-9.06982e-01,-6.74744e-03,-1.03074e+00,3.41731e-01,2.97450e-02,-1.26211e-03,-2.39378e+00,
6.02231e-01,3.37815e-01,-2.81864e-01,1.08681e-01,1.94120e-01,1.48859e-01,-8.24819e-01,-9.38134e-04,1.17072e-02,-5.28400e-01,8.56460e-01,-1.44681e-01,-2.37348e-01,-9.75989e-02,2.51230e-02,6.86417e-01,-5.09701e-01,4.56597e-01,9.16296e-02,3.84231e-03,7.56454e-02,-3.75758e-01,3.62093e-01,3.41907e-01,-6.10804e-01,-4.44818e-01,4.59927e-01,-7.93616e-02,5.87008e-02,-1.02356e-01,2.62421e-01,4.22394e-01,6.38524e-02,2.72753e-03,1.30538e-01,-1.83785e-01,7.19449e-02,4.57936e-01,-5.81760e-01,-2.42497e-01,2.24754e-01,-2.43209e-01,4.85420e-01,-7.41854e-01,-9.14074e-02,-2.93617e-01,3.96835e-01,6.04529e-03,5.95125e-01,1.84360e-01,
-7.48403e-01,-6.33311e-01,-2.16349e+00,-2.04258e-01,-7.80755e-01,-1.20756e+00,6.39786e-01,6.22308e-01,-2.40829e-02,-1.28064e+00,-4.01093e-01,-1.28471e-01,-4.24341e-01,1.43805e+00,-8.85656e-01,5.43801e-01,5.41701e-01,-1.05224e+00,-6.56223e-01,-4.16488e-02,3.24252e-01,-1.36274e+00,-5.73807e-01,-8.57838e+00,7.44233e-01,7.88073e-01,1.43278e+00,1.07943e-01,-2.05120e-01,1.76093e-01,8.46842e-01,-3.21259e-01,1.52147e+00,5.29569e-01,-2.90969e-01,-5.63323e-01,-7.42914e-01,-2.06844e-01,-2.97990e-01,-5.05364e-01,-1.42657e+01,2.21531e-01,-8.74053e-01,-3.72764e-01,3.73615e-02,1.05929e+00,1.51006e-01,3.22220e-02,-6.76222e-02,-2.96650e-01,
-1.24734e-01,-1.61444e-01,1.71132e-01,3.31813e-01,6.69338e-02,1.56576e-01,-2.59351e-01,-5.31151e-02,3.50193e-01,1.69212e-01,-1.81674e-02,5.28942e-01,-7.79359e-02,1.54864e-01,-5.30677e-02,-1.56831e-01,7.38825e-02,-3.46359e-01,-3.09233e-02,-1.78460e-02,1.16676e-01,-2.85405e-01,-4.70935e-02,7.56402e-02,-1.08887e-01,1.93448e-02,-1.85526e-02,-3.12443e-01,1.24586e-01,6.95548e-02,1.16973e-01,9.87867e-02,7.91165e-02,1.86586e-01,-3.00622e-02,2.94240e-01,4.15593e-02,-9.09792e-02,-9.42280e-02,-6.32640e-02,5.00787e-02,-1.61180e-01,5.73578e-02,2.89036e-01,-6.93617e-02,3.86388e-01,1.05208e-01,1.45353e-02,2.07832e-01,-2.72354e-02,
2.26548e-02,2.37105e-01,-2.44008e-03,2.35307e-01,-3.12756e-01,2.16859e-01,-2.11950e-01,1.44073e-01,4.57203e-02,7.74843e-02,5.33602e-01,7.81961e-02,-1.27983e-01,-1.11669e-01,4.41877e-02,-1.99833e-01,3.87378e-01,1.71298e-01,-5.34714e-02,-1.16704e-02,2.17849e-01,3.36169e-01,-1.91136e-01,-5.65434e-02,-9.18126e-02,-8.63587e-02,-1.91685e-01,-8.75547e-02,-1.95604e-02,-4.54604e-02,1.53549e-01,8.32494e-02,4.35516e-02,4.96356e-02,8.46846e-02,-6.76435e-02,3.16637e-01,-2.71633e-01,1.62861e-01,9.54315e-02,-2.31237e-01,-2.95524e-01,-3.69941e-02,-3.41517e-01,9.53337e-02,2.55785e-03,-3.94925e-02,-1.03593e-02,-1.72753e-01,-8.78895e-02,
-1.65839e+00,-2.68514e-01,-4.15439e-01,-3.83808e-01,-9.28596e-02,3.49136e-01,-1.46325e+00,9.37033e-01,-3.09541e-01,1.93100e+00,-1.57430e+00,4.61003e-01,2.27544e-01,-4.40608e-01,6.52080e-02,-1.64669e+00,1.66776e+00,-4.88228e-01,-2.20680e-01,4.94186e-02,-6.88649e-01,1.43699e+00,-3.18333e-01,-5.33017e-01,9.15418e-01,3.42468e-01,-3.68655e-01,7.24156e-01,-1.69613e-01,-7.17209e-01,2.31924e-01,-2.61649e+00,-1.71824e-01,1.98605e-01,9.51148e-01,7.43259e-01,-4.09521e-02,-1.71718e+00,-1.05748e+00,1.12392e-01,8.41673e-01,-6.40338e-01,-3.91247e-01,3.15495e-01,9.80541e-01,-1.09176e+00,-6.83867e-01,-2.83575e-02,-1.45379e+00,7.68668e-01,
2.37330e-01,-1.00300e-01,8.89848e-01,-6.52676e+00,-1.65906e+00,-8.54885e-01,-3.16281e-01,1.53120e+00,-9.18091e-01,2.72068e+00,-2.64735e-01,1.04403e+00,5.26854e-01,6.71854e-01,1.23744e+00,1.90829e-01,-1.20965e-01,-1.54639e+00,3.88371e-01,2.55405e-02,-7.77471e-01,3.89872e+00,6.89034e-01,-4.59370e-01,-1.77573e-02,3.47689e-01,3.18582e-01,-8.56809e-01,5.03059e-01,7.42881e-01,-6.32954e-01,-9.40551e-01,-2.31685e+00,-8.12514e-01,4.79076e-01,-3.55939e-01,-5.43608e-01,2.20992e-01,-8.06105e-01,-3.67367e-01,6.63737e-01,-9.42454e-02,-1.70493e-01,-1.98107e+00,-2.68173e+00,-3.41367e-02,-8.75875e-01,-3.15950e-02,-2.17290e-01,-2.31290e+00,
5.50433e-02,-2.24943e-02,-6.22061e-02,-1.79155e-01,1.20073e-02,-9.37363e-03,5.69820e-02,2.20072e-01,-3.42767e-03,-1.56384e-02,-5.06856e-02,2.85726e-01,-6.20782e-02,-1.34647e-01,1.38551e-01,-1.84282e-01,-1.53711e-01,-1.77719e-01,-2.07550e-01,-1.76534e-02,2.52140e-02,2.81075e-01,-1.59400e-01,-7.91035e-02,2.67942e-01,1.19641e-02,-1.45909e-01,-7.63744e-02,4.36625e-02,-2.13378e-01,-2.47521e-03,4.59812e-01,1.89497e-01,-1.56866e-02,-2.94584e-02,-2.32389e-02,-1.00696e-01,2.49284e-02,1.66502e-01,3.59352e-02,1.27952e-01,-1.01968e-01,-1.71889e-01,-5.92990e-02,-3.63143e-01,3.63735e-01,-2.57698e-03,-2.70025e-02,-1.26934e-01,7.29373e-02,
3.25453e-01,1.44301e-01,2.81452e-01,-4.32435e-01,1.58735e-01,-5.89792e-02,5.76084e-01,-9.31796e-02,-5.05909e-01,2.36991e-01,-6.67556e-01,-3.76162e-01,-8.44343e-02,1.19926e-01,-1.42504e-01,2.51342e-01,-1.40083e-01,-1.61437e-01,3.89076e-01,-3.89545e-02,1.70326e-03,-2.47500e-01,1.97728e-01,1.40430e-01,1.16440e-02,-3.69747e-01,8.79365e-02,-2.57531e-02,-6.77104e-01,-8.61135e-02,-7.03720e-01,1.11956e+00,-7.91780e-02,-1.28054e-02,-2.23756e-01,-3.26685e-01,-3.94647e-01,-5.94843e-01,-2.09381e-03,-4.83168e-01,-2.10719e-01,8.61112e-02,9.42854e-02,3.43088e-01,4.39210e-01,-2.27409e-01,4.48086e-02,-1.93008e-02,4.52509e-01,1.03841e+00,
-6.03652e-01,-5.87045e-02,-1.19465e-01,3.49051e-01,-1.64347e-01,4.30198e-01,-8.74386e-01,-7.35273e-01,-9.07185e-01,-1.23882e+00,1.48930e+00,-2.73878e+00,-5.66369e-02,1.04193e+00,5.74892e-01,-4.09112e-02,-1.20777e+00,5.28580e-01,1.64847e+00,-1.71819e-02,-1.47220e-01,7.15538e-02,-2.98732e-02,3.00236e-01,9.06337e-01,-3.57327e+00,-8.16014e-01,-1.49828e-01,-1.60279e+00,-7.07373e-01,3.39607e-02,1.58991e+00,-5.72666e-01,-3.48914e-01,-1.98809e-03,-3.13018e-01,1.10957e+00,-8.77154e-01,-3.54948e-01,-2.34748e-01,4.82787e-01,3.65645e-01,5.04706e-01,2.72281e-01,-6.60046e+00,-2.83617e-01,4.63108e-01,2.56762e-02,2.54107e-01,-3.39676e-01,
-6.27708e-02,-1.77152e-01,-4.04799e-01,2.95261e-02,-7.07701e-02,2.34635e-02,-3.41243e-01,-7.63415e-02,3.18256e-02,9.36421e-02,-9.35465e-02,-3.50390e-02,-1.69364e-01,-6.99109e-02,4.79163e-01,-8.28952e-02,2.26701e-01,-3.91308e-02,1.78587e-01,2.23180e-03,-2.58059e-01,2.97969e-01,1.57171e-01,-1.56554e-01,2.79488e-01,2.72469e-01,6.12662e-02,-2.14143e-01,-2.10551e-01,8.33694e-02,1.82774e-01,-3.64838e-02,2.24509e-01,1.39533e-01,7.45194e-02,2.89014e-01,-7.68264e-02,4.91583e-01,-6.91808e-02,-2.62808e-01,-2.25232e-01,1.79046e-01,-1.65600e-01,-1.39819e-01,-3.38371e-01,3.21684e-01,1.22970e-01,-2.75767e-02,-8.10340e-02,-2.94883e-01,
5.08427e-01,-1.24586e-01,-8.71332e-02,3.54505e-01,-1.09316e+00,1.96925e-02,-1.35661e-01,-5.01109e-01,-2.15090e-01,1.22663e-01,-3.13956e-01,-3.90369e-01,1.09047e-01,-2.31796e-01,-1.02438e+00,7.51964e-02,2.52977e-01,-8.09295e-02,5.96216e-02,2.87320e-02,-6.69561e-02,-3.39303e-01,-2.09412e-02,2.71696e-01,7.50461e-02,3.53524e-02,3.42901e-01,-1.82372e-01,-7.18249e-02,2.39511e-01,1.61234e-01,-6.55558e-02,-5.76674e-01,-9.65278e-02,-5.20240e-01,-9.22627e-02,4.20706e-01,8.08923e-02,-2.69091e-01,2.71696e-02,-2.99912e-01,-4.82643e-01,2.84087e-02,1.82375e-01,4.09490e-01,2.62549e-01,-3.37817e-01,8.15188e-03,-4.44624e-01,-2.96573e-01,
-2.82286e-01,-5.64828e-02,5.27436e-02,3.82469e-01,5.21376e-01,-1.55319e-01,-2.03833e-01,4.13920e-01,1.47187e-01,-1.26211e-02,-1.09564e+00,-4.74687e-01,-1.12372e-01,1.32039e-01,1.34448e-01,-4.13003e-01,1.21597e-01,3.65070e-01,-2.40772e-01,-4.72868e-02,4.69201e-01,-1.04940e-01,-2.82177e-02,-1.36032e-01,-1.38553e-01,-4.46243e-01,1.99350e-01,-4.11223e-01,1.19994e-01,-2.39846e-01,-6.36052e-01,-8.34658e-01,-7.74649e-01,-5.81916e-01,1.65343e-01,-2.79265e-01,4.28825e-01,-1.88837e+00,7.70476e-02,-1.62035e-02,1.58837e-01,3.71250e-01,-4.31992e-01,5.65310e-01,4.92389e-01,-4.18963e-01,-1.37374e-01,2.19135e-02,1.33323e-01,-1.30174e-01,
-3.67357e-01,-1.02956e-01,-3.46030e-01,5.20252e-01,-2.30381e-01,2.98069e-01,-6.86636e-01,-4.14843e-01,-2.69338e-01,3.59634e-01,1.41650e+00,-5.66339e-01,-7.30821e-02,7.66474e-01,-3.49192e-02,3.22129e-01,7.64387e-01,7.27283e-01,-4.53185e-01,3.01526e-02,5.33235e-01,-5.00824e-01,-3.58709e-01,-1.10580e+00,-9.82520e-03,3.34337e-01,3.19297e-01,5.36346e-01,-2.59435e-01,-5.29053e-01,-5.62498e-01,-2.90800e-02,-3.38887e-01,-4.55375e-01,-1.81991e-01,4.40020e-02,7.87007e-01,-1.41074e+00,1.08745e-01,1.21200e+00,-2.19863e+00,-2.02212e-01,5.18919e-01,-6.16652e-02,1.88325e-01,-8.93757e-02,5.31036e-01,-4.38699e-02,2.00114e-01,-5.46411e-01,
-5.20737e-01,-1.76785e-01,2.54045e-01,-3.24060e-01,2.46891e-01,3.03922e-01,-1.44585e-01,-3.75935e-01,2.02509e-01,-1.72363e-01,-1.68382e-01,-3.59710e-01,6.27762e-02,9.43989e-02,7.37360e-01,-6.93804e-01,2.64216e-01,-2.32750e-02,1.59914e-01,2.71172e-02,2.37174e-01,5.44743e-01,-2.63755e-01,-3.59400e-01,8.18160e-03,-3.14011e-01,-1.03174e-01,-8.11156e-02,-3.08056e-01,-3.43945e-01,6.96041e-01,6.98153e-01,-1.54509e-01,8.82811e-02,-2.42145e-02,5.96269e-01,-5.89097e-01,2.83625e-01,-8.49112e-02,2.82557e-01,-3.30803e-01,-1.26423e-01,1.88118e-01,-3.64536e-02,-2.37476e-01,1.62499e-01,-5.11404e-02,-1.81719e-02,-1.83162e-01,5.35811e-01,
-2.78371e-02,-6.10613e-02,-1.01412e-02,-5.49266e-02,4.03695e-02,-5.73593e-02,6.23448e-03,-2.22377e-03,2.38538e-02,-1.48151e-02,1.55230e-03,-3.67412e-02,1.64148e-02,2.10893e-02,4.90808e-03,4.70675e-03,4.27070e-02,-2.41150e-02,-6.55395e-03,2.82217e-02,-5.44283e-02,-3.15623e-02,-2.84838e-02,-3.24262e-02,1.30260e-02,-2.00465e-02,1.85364e-02,-1.12108e-02,-3.34813e-02,-1.31698e-02,-1.73139e-02,1.51007e-02,-3.91308e-02,1.72660e-02,8.84920e-03,2.63099e-02,-2.62974e-03,-1.24847e-02,1.08306e-02,-5.44526e-02,-5.33904e-02,-6.73523e-02,-3.82171e-02,2.45914e-02,-3.24389e-03,-7.00423e-03,-4.50720e-02,3.06992e-02,1.08918e-02,2.25712e-02,
1.24434e-01,-1.14356e-01,-2.13392e-01,1.41302e+00,-6.75121e-01,-2.34526e-01,3.73699e-01,-3.14506e-01,5.95354e-01,-2.58103e-01,-3.13558e-01,3.15920e-01,-1.74700e-01,-5.61105e-02,-3.59449e-02,5.28949e-01,-3.36890e-02,5.63513e-01,-1.89642e-01,3.33402e-02,1.51892e-02,1.96080e-03,-5.64992e-02,-2.32435e-01,7.03199e-01,4.32101e-01,2.15732e-01,3.10275e-01,-4.51615e-01,-1.52856e-01,4.09701e-01,8.42318e-01,4.00167e-01,1.06043e-01,-4.49441e-01,3.86321e-01,-1.86383e-01,-4.94229e-01,4.15666e-02,5.45977e-01,-2.80546e-01,-2.33760e-01,-1.59808e-01,3.48765e-01,6.29489e-01,9.04967e-02,2.61683e-01,-1.40547e-02,7.02633e-02,8.70268e-02,
8.62763e-02,2.14661e-01,-2.04313e-01,-5.09698e-01,-2.81041e-01,-3.37352e-01,-2.79054e-03,-3.87395e-02,3.60551e-01,-1.60024e-01,1.60301e-01,1.70254e-01,-3.88472e-01,4.91615e-01,-1.43690e-01,-5.44476e-02,-8.30644e-01,4.60160e-02,3.37152e-01,-9.16430e-03,-2.45523e-02,3.11056e-01,1.58591e-01,5.88856e-02,2.91222e-02,6.52514e-01,-8.92552e-02,-6.87620e-03,-2.18711e-01,-3.58270e-01,-2.04125e-01,8.73177e-01,-1.55208e-01,-2.45492e-01,8.70704e-02,-2.50442e-01,2.41553e-01,-6.33238e-01,-4.19285e-01,-8.52114e-02,-2.73586e-02,-2.44865e-01,3.14041e-01,-3.99366e-01,-1.70701e-01,-7.08374e-01,4.88393e-01,2.19731e-02,-4.04688e-02,1.98957e-01,
1.48416e+00,
-3.92727e-02,
-9.07838e-02,
-2.47397e+00,
-2.26864e+00,
2.89911e-01,
8.49784e-02,
-2.16935e-02,
-6.88173e-01,
-2.45358e-01,
-4.08883e-01,
3.45316e-01,
-1.17538e+00,
-1.29693e-01,
-1.53813e-02,
2.30298e+00,
4.72199e-01,
-4.66609e-01,
-1.12351e+00,
4.95937e-01,
-5.70643e-01,
-7.88515e-01,
1.01652e+00,
4.62602e-01,
-1.62913e+00,
-5.84215e-01,
1.24253e-01,
-7.74607e-02,
2.88896e-01,
-1.92722e+00,
-1.86128e+00,
5.07499e-01,
2.08643e+00,
-1.00975e-01,
3.02989e-01,
-8.00885e-01,
-1.66501e-01,
2.24915e-01,
-3.13770e-01,
-8.85139e-02,
-4.13228e-02,
-6.88478e-01,
9.99729e-02,
2.35693e-01,
